-0,0447148309651571;1,91286711327871;1,9678505418275;-0,469031350630008;-1,32862867344645;0,544956461635445;0,719515672644137;-1,59279178721051;0,17215050188848;0,0452473546506633;
-1,02213545149412;0,847801774093651;1,81602538613404;-0,330291559134261;-0,832885713841672;0,240187639812931;0,591176990466926;0,379334483135232;0,89288683623563;0,982835721174983;
-1,56625291551181;-0,664544238263805;1,06065107320765;0,724726139499465;0,294595652531572;-0,277033834800545;-0,144460486416414;1,38711256489346;-0,0776739768248711;-0,154165515033692;
-0,942596231628691;0,172082795005832;-0,450316545696444;-0,628961895319959;0,425078087725706;-0,64714022915377;0,326022098383531;0,658712370927885;-0,600483090471024;-0,695448861844902;
-0,0487327258196474;-0,504022955871823;0,179456173594588;0,183016882450524;-0,231360742377047;0,989784886235853;-1,14747772622597;-0,504280964673188;1,04159954339175;-0,391610853042682;
0,652732459176542;1,23609270531966;0,613264114765533;-0,147490849200433;-0,653893563320197;1,14384227955095;1,24200912201372;0,0562383580294197;1,61301689971183;-1,01869598422919;
1,27991849173552;-0,147919652801029;-0,141951572041546;1,14459799485248;-0,474990075567629;-0,112749056963511;0,0734682750109631;1,09634227305112;0,501566775481173;-0,277622888575392;
-1,69845538652618;-0,0694958926244996;-1,10238220441165;1,79820183721977;-1,49535808350186;1,2144130150597;0,439164305092847;1,48798143890069;1,01975629088594;0,54970980106375;
-0,574699873627931;1,93505134175588;-0,0366114485684959;1,307041730822;-0,0317810867436415;0,55807605790762;-1,16531628005229;-0,832251208312402;-0,834711063027678;1,03958416328201;
0,649083543817199;-0,0752307125480879;-0,336439794785182;-0,671052480086009;-0,3147674515367;-2,06866190429944;-0,448236830111645;-1,06585823256814;0,0420505731345886;0,849629438571967;
-0,305603679598087;1,28863912933263;0,239758797520608;1,99743738534225;-0,670526919138384;0,371048667605519;-0,374106248265228;1,5674611366618;-0,202548150469068;1,17911125619614;
-1,69111717255899;-0,41072017348431;0,297490697454356;0,162765722034776;-0,416610555341235;1,17329351770965;0,32273661714403;-0,425077646044919;-0,576801026310215;0,344553945056075;
-1,06181170399848;1,53077495684924;-1,80344020253593;-0,0773236560037671;0,383755389070687;1,61151701781142;-0,723456573365179;-1,63285817492389;0,343533394742344;-1,08425354587589;
-0,105004371763428;-0,168817972673772;-0,986872234086897;-1,00844305939911;2,4533003253477;-0,725854791841806;-0,136391717823175;0,0186587252905396;1,21604977286091;0,619746553745313;
0,951776084379334;0,500862499268024;-0,252551638044676;1,01288136245007;0,478515926216531;1,05222292421695;-1,48836416627954;0,0586139040268471;-0,456882590277773;0,235935163550962;
1,48828050095324;0,215296184778145;0,81849114253432;-0,195460217819245;-0,84042089272811;1,60912165677859;0,890579837519019;0,799346954156084;-0,587440603279924;-0,902952087217837;
1,49233628371631;-0,267841315504367;1,36805715026818;0,414980755150499;-0,579414591633044;-0,941923267339451;0,775296666017146;1,04511487851693;-1,1480764776667;-0,968019434302744;
0,3739689202774;0,42236133676989;0,296296167163254;0,214508674338673;-0,155619252941387;1,42163406512618;-1,4446514801014;-1,44499381232128;1,24675977119152;0,209055549248816;
0,963917380890112;-0,470728339797595;0,28675771228202;0,903961731644353;-0,844839462474944;-0,0912344687406972;-0,138783110784094;0,788612770304979;-0,366645336524633;-0,0376985612566561;
-0,632888363663262;-0,341159386083568;0,868199476657653;-0,746301795745393;0,197010036788329;0,422616333822875;0,849766424312259;0,0212234610160527;-1,77785473345266;0,240214113669916;
0,837165833780824;-0,264992645354813;1,35934955227654;1,50045762343376;0,494309537509072;0,480099807748145;1,58365024590521;-0,668553910321301;1,64952909763045;-1,58007471505552;
-0,779392373314317;-1,230040844687;-0,405855370669239;-1,11417283240634;-0,173783292093776;0,411011157705699;-0,121381651325916;0,328528206294368;0,746223174086153;0,824427005256826;
-0,623264649904075;-0,373024424391478;-0,764976795547537;1,00944234209297;2,30559324933394;-0,482618065086731;0,925143760240852;-0,833673594425902;0,0568129177320159;-0,0497560290042897;
0,068864311409659;0,86417752772909;-1,28562422852071;-0,541609500520964;0,221383424242751;-0,739260580184544;0,640734870448171;0,772401211280576;-0,568741209358903;0,611879034845933;
0,0372063075725327;0,630620288883035;-0,86948441668124;-0,733263721022007;-0,243174804726181;-2,00194404180119;0,365143350285806;-1,47175182871075;-0,10984244868689;-1,6272702021403;
-1,1202924150924;0,0573797778045406;2,28336891942193;1,45616430455389;0,226807249453806;0,161737773248043;-0,78040841563019;-0,307793882800678;0,95133280471232;-0,45532510427656;
0,153472012944608;0,686969104560691;-0,0818356331638489;-0,84779727891533;0,0978254464331499;1,70928395163047;-1,09521894191459;-0,666540778738369;-1,44139213453128;-0,351137148294433;
0,694173130055403;0,442188211465095;-0,981116334113026;-0,0645164570462016;0,351944966519979;-0,1680920843022;-1,10941910300711;-0,909717613088992;-0,0276256688913378;0,785620783795497;
-0,519300850518179;1,16077192618165;-1,67415904588573;-0,0178160041795448;2,08471283425349;-0,621411750753423;0,121188800386005;-0,424594040455443;2,20336840135668;1,10461516318134;
-0,495929736673365;-0,812132243594972;-0,309177893520175;-0,777663851168634;0,154241352093292;-0,657397728957176;-0,673394675130679;-0,222927707058968;1,12615654860934;-1,22616041197066;
-0,00923207717695886;-0,520914634565233;0,66370274411172;0,382797635602438;-0,192320504764593;-0,803387956203361;-2,56263687483264;-0,347753477993205;-0,0990742043407751;-1,6045212092059;
0,0319708546257254;0,0348300944398711;-0,846283864617794;1,5942276801443;-0,176849585121375;0,0457546199501128;-0,0505898155432635;-0,968885240554692;1,03811251416294;-0,197103143590922;
0,623137052145744;0,127591573447228;0,139456714364898;-0,284537417022288;0,224555992474297;0,671007158471072;0,0760076907218164;-0,318015340328651;-0,340623179133722;-2,48254076381144;
-0,132455853430043;-0,787530496122208;-1,51829803610122;0,474022790703173;1,07849842762976;-1,03560731629056;1,47070580438908;-0,345552558982212;-1,22360989535718;-0,199191588735122;
2,08544157199458;-1,69283453360161;0,482977047842895;-0,180701341676042;0,533702569569444;-0,86124177271231;-0,851747179314737;2,73781341428217;0,25803392538082;-0,375361030225514;
1,12556810764022;-1,36048491061559;0,771210183967662;-0,145395976907559;1,03289531449411;0,52546354229725;0,0660235904656659;-1,02070683337365;-1,25796356580481;1,4611659718539;
1,18153913376202;0,86480225425082;-0,777772653572821;-0,818159316286598;-1,59810557253315;0,190240976672601;1,62939469064321;-1,47753677266828;0,188421763454239;-0,292983799921835;
-2,18156103416428;-0,0997727880194746;0,363399195714265;-1,61402748401769;0,219404999903898;0,178288197329981;-2,31027207554378;-0,400539325899099;0,723827527363314;0,939328305192261;
0,753970220875414;-1,46517199012995;-1,40454444924721;-2,24042814646074;-1,22053596807018;-0,0966175458216198;0,460578629581412;-2,93717263841085;0,711498873636221;1,02168178459156;
0,546566643605021;0,0596563766710553;-0,39198510654086;0,0397539305951374;2,10842397401625;-0,214091694474554;-0,8634576694633;-1,77486814411389;0,949381429430933;-1,31848741527653;
0,700711897076076;0,672731345225552;-1,24665618713404;-1,73709184944185;0,809820073434285;-0,818967696705011;-0,941780647766601;0,646803036614501;1,00561302809994;-0,180045311915558;
-0,513829743148361;-0,840042087719946;0,305335684470409;-0,242734032182995;1,58448733094702;1,26625437206847;-0,481843577229973;0,605217747903411;-0,831731367895173;0,355902743516388;
0,961926031384766;-0,833054788671839;0,89098268256644;-0,071068208848742;-1,26535639209684;2,25406325710851;-1,21070309101452;-1,81963109669109;-0,335891432421965;-0,325254586542038;
1,49307209757276;0,848589403050699;-0,0141039430147365;-0,374397455193349;0,227706503573854;-0,351938570542104;-0,96165513137005;0,115671980360763;-0,357494484200251;-1,65988927968902;
-0,827274612324479;0,237927251995275;1,11218364764779;0,337630935254343;0,071273778736094;0,531815283026264;-1,0985288120798;0,519454291137271;0,598503679714875;0,559839639411904;
0,665536723953611;0,88740064899138;0,183528029230986;0,565293141194754;-0,882595497133454;-0,087416384097052;0,231958036234625;0,492807024563434;0,212081905200355;-1,78545881702152;
-0,263014276585494;-0,343454653156203;-0,55800525709371;-1,33173033237087;-1,10644521410908;-0,338941569325119;0,357797232579656;1,74170234741055;1,55185601461619;0,697538076972833;
-0,495391033881385;-0,810012809850338;0,914146473281313;0,380558806984782;1,8033020241498;-0,886042850527727;-0,385993350712781;-0,475793217445414;-0,675864927990393;1,36623848296741;
-0,403433777037661;0,747353948187254;1,85689230699996;0,266161275092376;1,08415469179565;1,17641493000232;0,105986013209514;-0,0232706337507429;0,0666186798966832;0,284582673542002;
2,32568281713738;-0,841932201159572;-0,276832701778105;0,726328540168689;1,26270980600711;-0,45580831746403;0,346588168917843;-0,123702069051864;-0,161062879329403;-0,695621779339054;
1,14712238835529;-0,634163426349882;1,81582421407349;1,71407092172905;-0,670428722728146;0,192739858879682;-0,141742952961065;0,453248210208597;-0,593233699415496;1,67515307110376;
-2,4389507726127;-0,0731570600570329;-0,271184681450294;1,08186663115294;-0,499145639667539;0,359633274602169;0,543357143205972;-0,449980435615813;-0,0721953849279672;-0,809397161414131;
0,616521298662091;-1,02701395739;1,48909859000704;-0,124664819233109;-0,172093186246588;-1,47808846791033;-0,923648272317952;-0,676927703039261;-1,20895135097813;-0,325660300972363;
-0,451887261411447;-0,897851622670414;-0,193501065715819;-1,02368170104123;0,463932958874207;0,299260937297256;-0,0104490703227071;-0,767540962533703;1,25684583317704;-0,813071890386183;
0,0618927482671088;-1,32210713513035;0,202896044231344;1,17074691436421;1,38575549286171;-1,00084115604143;-0,316375401566141;-0,58953205032099;-0,605967302672339;-0,317792734393895;
0,114696559617348;-0,0182009786830267;0,196934865820232;-0,767434305805704;-1,68711955792619;1,19551410833449;1,44764626964372;0,676148556563968;-1,08409552884058;-2,15118471726557;
0,068135467735776;-1,30471418399402;4,01775592035763;0,384202488169475;-0,721560655857867;0,788020004960812;-1,13025087934479;-2,31810523173929;-0,792275252696166;-0,066236603162555;
1,48403218255936;-0,0586620177173466;0,471987848842134;0,109095464723008;0,256818809789642;-0,989613571860927;0,384303675486127;1,33382434106791;0,480468999128078;-0,783068448160565;
-2,49570270334259;0,711076026395167;-0,377920162224426;0,256117071879887;-1,33548523411814;-0,59237178132205;-0,0987964755411278;1,1522897353875;-1,00767720271661;-0,293157580952301;
0,154502289436574;0,705197350256938;0,836013761786478;0,505229115904995;-0,72308860602814;0,199733364304509;1,41945134971305;-0,959399985995635;-0,180875222450106;-0,107010220593186;
1,09417556350333;0,36582850646737;-0,671046663574754;2,09978096635683;0,272701265093278;-0,706818655837535;-1,84139726065421;-0,113275590916639;-0,342534531604283;1,9278786427619;
-0,941783700176834;0,846702643522441;0,778530644942962;-0,455777342895734;-2,16342058494146;0,107614581920673;0,0766535610639615;-1,4346770231333;0,992289922397691;-1,09700670412628;
1,48279997865697;-0,583140884480062;1,62172989588169;-0,358965760861249;-0,174633631485667;0,68804083047625;-1,19618643819021;0,233619680156404;-0,869492768265588;0,46214160322565;
-0,173928248792899;-1,56247098992939;-0,131968599916645;1,77275950815743;0,306316120086288;0,0631724034472993;1,21915876910838;0,41185868944068;0,890684095934309;1,10418073721782;
-0,357984021553241;-0,0203840189439057;-2,14173627177297;0,255899539521607;-0,865702089432358;-0,359470795663072;0,492525003404276;-1,29809716240101;-0,255553420960549;-0,682481622365034;
1,61109661681851;0,371500788950971;0,823503421923538;1,6550592416434;0,0857266458871501;2,10386376315247;0,961263808335679;-0,64363057026909;-1,12248927291584;0,908983442988326;
-0,215787257279176;-0,523952566049373;0,712791292585939;0,764635620493237;0,0277437314713847;-1,82714117639436;0,635272731112195;-1,80091752586744;-0,287168753531187;-0,593224634638559;
0,123499824357419;0,279753961175933;-0,240257309973106;-0,168756568876976;-0,913089731074584;1,27252013939705;1,91894153735598;1,05534410363019;0,191943854871626;0,358253524251166;
-0,961570951457389;-0,616145182823346;1,30320871117413;0,603711079127807;-2,52214042298526;-0,208784474661797;-3,28008402755134;-0,591509614244974;-0,270377212805541;-0,642164229710197;
1,04772966623644;1,04513213581845;-0,0111183418788045;0,797179878303676;-0,375162230961505;2,02311858898223;0,421924369962102;-0,84002857798737;0,949640127865967;0,0960494017798989;
-2,02987336080818;-0,843895298008274;0,289318900804722;1,88829760405918;-0,0885547280710486;-0,424179701565023;-0,576907540062652;0,903074765720333;-0,802515500831944;1,60964171465035;
-0,685387395859858;1,1758250783638;-0,815830903152739;-1,72027302395013;-0,574124695494539;-1,62387999507842;0,468051217193914;-0,526238450104076;-0,896920013359031;1,4596777005386;
0,274897882906161;-1,09430978177323;0,965622746268253;-0,181921839212506;-1,34562984828899;0,283760898723834;0,133392396169117;0,096675020923781;0,910402213599983;1,71718026024821;
-0,239811036144914;0,877782395333865;-0,256610184157087;1,15260348507636;0,300205152857651;-0,351920136115147;-0,230606678053128;1,26327938834895;0,278867698147456;0,00705790437341543;
1,09583418775197;-1,40210186008048;-0,297616701378593;0,134854477195029;1,16571615864185;1,66150877360777;0,735534830261295;0,230911958121916;0,270148017992857;-0,396408105228996;
1,17273386155632;-0,626628727400958;0,0194938667687968;-0,360524710643882;-0,242180121210395;-0,978742626142929;-0,710165855351092;2,51637215956259;-0,455911065920812;-0,133848394875634;
-0,0376454174749107;1,92870174869687;1,95830343719211;-0,486977430834854;-1,31758566538776;0,545238388679194;0,724388790516966;-1,59699503171155;0,149474569614719;0,0610169302531597;-1,01818809996801;0,856657502127533;1,81217204984823;-0,333555103650517;-0,83143829025013;0,242522738900452;
0,595094751365004;0,384797806973778;0,870434829702713;0,981336499689349;-1,5632668305768;-0,654071253943279;1,06660180144617;0,720323021479769;0,29873657134753;-0,276131185981979;-0,141691093111958;1,38613412915554;-0,0907457566297613;-0,144416928392872;-0,94275726594122;0,172949693417355;
-0,448270190403659;-0,619877668605884;0,432190865997756;-0,667618974594979;0,328045933224584;0,657448325450011;-0,618179272311197;-0,695438673109696;-0,045479465911818;-0,507346902255615;0,181144912665913;0,18370334485604;-0,232412207882194;0,986943960190992;-1,15337275242163;-0,50511298516747;
1,0216473505102;-0,372952249079989;0,646644280399381;1,22926025784025;0,610627832977284;-0,149042440158432;-0,640627497718771;1,13669274495558;1,24062678888801;0,0581054781476753;1,59145835577857;-1,00206298876675;1,27064637741534;-0,140136159165865;-0,152687896554568;1,14274896200827;
-0,4667000942721;-0,102013510448625;0,0663219835583868;1,0810290938673;0,485375971521118;-0,263681405828954;-1,69544784679363;-0,0627830071995128;-1,10157053742413;1,79957553090523;-1,48702105785635;1,21145149303349;0,430819191662533;1,48679163609545;0,997376117435967;0,560940708634328;
-0,571097378353786;1,94007661747858;-0,0413092340644266;1,29102496991625;-0,0209411561446626;0,554094175906167;-1,16321894212612;-0,838381111160241;-0,860640067594901;1,04826451468301;0,655861090249797;-0,0797322447586399;-0,335285159411131;-0,672889453184113;-0,312184777853356;-2,07067770223219;
-0,447817016579076;-1,06013415475405;0,013356104537769;0,838882152584918;-0,306281691352625;1,29576016431498;0,236494908397728;1,99076899642741;-0,66679441883252;0,368844441838515;-0,374695780511295;1,56862939344577;-0,211644035360265;1,19413415200862;-1,70313497150947;-0,401265018959294;
0,293874935805474;0,169131697418075;-0,415538569633152;1,15141031309379;0,32129508833219;-0,425888692356286;-0,577977107059334;0,352618829699109;-1,06473551457911;1,54361842086152;-1,79985698181024;-0,0772148798462868;0,380835528771564;1,60711829702155;-0,733477789717387;-1,63455899683609;
0,343450955549463;-1,05684776985103;-0,110140883643371;-0,18197898808352;-0,984298710832356;-1,00946712393281;2,46152085055818;-0,734304818424545;-0,140298969241308;0,0182301584064538;1,20666507128147;0,627859919662328;0,946436804820446;0,498269288144738;-0,259175539757692;1,01180681558825;
0,483106007837643;1,06233702137749;-1,4996515932426;0,0430770834183167;-0,467503031084721;0,240053874059195;1,49072667822768;0,215183538193487;0,8139364344871;-0,196538532169597;-0,839412790261532;1,60851931782939;0,882603868272232;0,801461264348524;-0,603673428880639;-0,89521616736421;
1,49084068543796;-0,256442160265983;1,36275388858161;0,408164843128809;-0,578419077363237;-0,944647263275905;0,774959987817385;1,04204537409881;-1,15303490560899;-0,95795306408129;0,378838768090017;0,434142724873707;0,307129047503513;0,210204282205756;-0,1582885664675;1,41833966240798;
-1,44720231758238;-1,44123071916872;1,23907481516458;0,215351243399628;0,971479622567856;-0,472195390744275;0,290547300482138;0,898691765269516;-0,845502804942716;-0,0940345445633218;-0,13885141472809;0,790220139866037;-0,372240794284557;-0,0337098705861759;-0,629873820666039;-0,346409244500193;
0,871176150103351;-0,741274306363397;0,193368000814199;0,414720073200766;0,84728764230977;0,0184761842216589;-1,78633719492462;0,235527633319714;0,837110581402243;-0,259631824904685;1,35855642176675;1,50040110897634;0,489467834058145;0,474883646538912;1,58357070987004;-0,665527220674224;
1,64255862481331;-1,55730333722433;-0,783301687844303;-1,2251641676172;-0,407573871211044;-1,11822292404262;-0,171287095266489;0,407245110127684;-0,122613826827272;0,332422980781895;0,738984143418182;0,835066628436786;-0,62745921170057;-0,365533352733231;-0,761591994203999;1,00768651355423;
2,30501976442932;-0,475245264159602;0,91846456480907;-0,833000000193809;0,0507910112875614;-0,0404298415992311;0,0763004852841562;0,861283492382476;-1,28150595972633;-0,5419433358906;0,219188992260726;-0,744471696338325;0,63436725444024;0,771888044268204;-0,586629147991444;0,620636614248532;
0,0393370798865312;0,625666914299933;-0,868128949327308;-0,740950354215313;-0,246527158939594;-2,0075422234883;0,36310651451303;-1,47464941549869;-0,123630820213967;-1,62609046495937;-1,11196748633068;0,0702202700155729;2,28548332063154;1,4526348323024;0,236814395713234;0,162382401675497;
-0,77589398946157;-0,303478918043385;0,913274374970101;-0,44841728454457;0,156580961889409;0,69351278792109;-0,0833058792343081;-0,853734664745945;0,105930289013307;1,71286666506991;-1,08951819089982;-0,664322263245451;-1,46806710121352;-0,342217256528908;0,693162256639251;0,452466018977567;
-0,973872171391419;-0,0603918301816922;0,357082477419206;-0,172694375272547;-1,10615770432298;-0,911014547006777;-0,0514136696064202;0,78680957591301;-0,515936714054166;1,16254863286389;-1,66991119741238;-0,0172027712243191;2,08807578738431;-0,624030630470268;0,122192680263606;-0,424819806095563;
2,17059225028471;1,12285039090691;-0,495700830717036;-0,815796306302281;-0,304198548435464;-0,780114988304738;0,164498617532978;-0,660977683842862;-0,672108867177616;-0,222159092622172;1,0937998157167;-1,22098506810714;-0,0130993390563447;-0,514110151542134;0,660232100261434;0,381100211584509;
-0,181522523826022;-0,793945550822357;-2,56319818764446;-0,347841426745658;-0,134002401882143;-1,59333132060746;0,0334454308838079;0,040349850175129;-0,847566013606769;1,59215979852203;-0,169575470775031;0,0450306853103956;-0,0545695729498463;-0,969708789166091;1,00618531315175;-0,185937018656317;
0,622546217022729;0,141417639133806;0,141913151959086;-0,291297987719093;0,233704364684336;0,667448346563618;0,0777130283663385;-0,321065374966837;-0,368033605740323;-2,4743949699614;-0,131514278088692;-0,78350879569598;-1,51101987921119;0,471816703797668;1,08659685764857;-1,03848791651663;
1,47250750209402;-0,342638967570589;-1,26158789228629;-0,196616596321183;2,08800544486107;-1,6967815579852;0,487666497145124;-0,185700336527392;0,542502636936622;-0,861959286316668;-0,84946443444794;2,73988453958828;0,22844087681924;-0,371034222830061;1,12273662143792;-1,35220184301303;
0,768637170048865;-0,142692389687353;1,03790879445135;0,516730618275846;0,0657486926957578;-1,02057208706571;-1,27741590665116;1,46981874927355;1,17674863946914;0,874859360465896;-0,778389301954727;-0,819353476164041;-1,59916177321229;0,187929284391801;1,62744887769929;-1,47765637815967;
0,171264168190562;-0,267278279512675;-2,18606643769527;-0,0892770098675452;0,371492003566552;-1,61749225407973;0,227916471333489;0,17493535168611;-2,31117974558348;-0,400395781364233;0,710174412052663;0,951215520404648;0,746283637599903;-1,46259619216675;-1,40122285995765;-2,24178489308303;
-1,21427372359507;-0,0872118371670777;0,456629332284072;-2,93811022837543;0,691975319195022;1,02823961993042;0,548212689019964;0,0578019649656479;-0,387343345891681;0,0375743511541493;2,11268887773236;-0,214566841759745;-0,872192525460043;-1,77556660624048;0,925365109146241;-1,31282612722539;
0,705269128086546;0,677302716543685;-1,25190701659552;-1,74110373930665;0,812713108045491;-0,818417977936627;-0,940459830496474;0,649891727291029;0,985478321331571;-0,173165862120742;-0,514815109185825;-0,832320215815505;0,304789320861366;-0,245377338556358;1,58130686713688;1,26539803921508;
-0,477052648080904;0,605427975430791;-0,853152121232657;0,362032766379336;0,963691175480087;-0,82370130879369;0,901469282406467;-0,0753240973250102;-1,26452793912628;2,25277834409282;-1,21135631413228;-1,81950446839812;-0,352161864363881;-0,315954909847799;1,49280961938271;0,849362016197296;
-0,00132094625133831;-0,379034417662164;0,222406864072934;-0,356563400531079;-0,961899429601655;0,113351564228742;-0,378055406733961;-1,65111235267904;-0,82375110130622;0,235542445242192;1,11945273632998;0,334810473761823;0,0704890284002098;0,530329077166885;-1,10257086957537;0,519552318404838;
0,582488373556695;0,562307152842642;0,663879589505448;0,886635268528314;0,183414470706067;0,563216899181475;-0,87865552722751;-0,0909461330309807;0,236146976484301;0,495105977582665;0,19352736501194;-1,77657916285703;-0,262100350784017;-0,336968932636368;-0,560304690719143;-1,33379349502007;
-1,09953372680225;-0,341854907440731;0,354949869964865;1,73775574075276;1,53376869681454;0,706111079823704;-0,491955652345018;-0,802802457083075;0,926581633247745;0,375394974740107;1,80404391695787;-0,889915091047387;-0,386946544329851;-0,472976313995195;-0,696907660110838;1,37618448037656;
-0,396662478741165;0,744979583597505;1,85892837196282;0,261488602106228;1,08329712892789;1,17119144133491;0,106895106166027;-0,0213290675945927;0,0406529529034881;0,29500200885317;2,3263891625203;-0,847279506310765;-0,268152039377948;0,723011577507108;1,25473495634911;-0,459601734507749;
0,349577464584996;-0,122407209072292;-0,189735554161475;-0,695261252070831;1,15484671243958;-0,624955109028512;1,81460224775072;1,71235612937457;-0,663253566914655;0,193382235057958;-0,137947284342717;0,4547696938998;-0,633387493196485;1,68046968433454;-2,43678416566107;-0,0663601308696276;
-0,267358815579576;1,07932575822748;-0,501119234869168;0,359768501799396;0,54644433451298;-0,451783494610203;-0,106785549029225;-0,803526024427728;0,617449305636025;-1,01548863443446;1,49701265685315;-0,123461307791958;-0,168997907471437;-1,47322134864338;-0,922194942264992;-0,677491310549907;
-1,2340696843201;-0,323052366729021;-0,45243063125462;-0,899794775306267;-0,189864321308962;-1,02269904998095;0,471646007736279;0,297756470300581;-0,00631519024319538;-0,768863909243781;1,21998697799592;-0,810761744044312;0,0636342246027174;-1,32040437912702;0,207644528334043;1,17122286587034;
1,39463912354347;-1,0004127111365;-0,315964726684724;-0,595282844056557;-0,642509052376067;-0,317395819739549;0,121856110577343;-0,0130755869189703;0,196789267165651;-0,769831205147455;-1,68083403219626;1,19283083944213;1,44983550785736;0,67811222436591;-1,12639420833769;-2,14374414844914;
0,0777538958746413;-1,2973275107784;4,00488617876465;0,37830813838979;-0,718010079816241;0,786550537357316;-1,1274411245545;-2,32089833571208;-0,825410922886144;-0,0601389831054113;1,48403140327454;-0,0473093819706333;0,479271915250737;0,108992214344539;0,256572476808236;-0,990455856698783;
0,394127262973609;1,33301165786175;0,441931826450876;-0,784560852001695;-2,49689408427417;0,714904931951363;-0,37223275735167;0,251887798530189;-1,32743114811447;-0,592269760849425;-0,0956192352729656;1,15279886015199;-1,04596054402933;-0,290920190001022;0,151995076195523;0,705592399101998;
0,85090937775303;0,502727969680948;-0,719310575983714;0,198974710982682;1,42063233500803;-0,960890047887743;-0,218280889494475;-0,108917914610147;1,09748788739517;0,374767431810503;-0,673016219261491;2,09953318133773;0,275763397901967;-0,708561984812163;-1,84421416112595;-0,113031574349995;
-0,365252789299515;1,93670208886785;-0,946454373657762;0,849194361830033;0,777155269209924;-0,456259456063313;-2,1577721651233;0,101591361627459;0,0789296711500388;-1,43661642240552;0,967446526450642;-1,0884298779958;1,48377278848053;-0,566328646702696;1,62767561670908;-0,358682884136345;
-0,164310571182932;0,687483424075229;-1,19819867289188;0,22467398851264;-0,890368197955467;0,468310032714864;-0,168515500932159;-1,56213293501474;-0,122228294273583;1,77082277929875;0,308949974996036;0,0625645918444878;1,22056617271153;0,415735248262611;0,858292126795786;1,10646506407148;
-0,357695764698046;-0,0180900378415275;-2,13622871865123;0,260240196935275;-0,865774185122777;-0,358370298846348;0,492649762762025;-1,29466694418947;-0,286621908015932;-0,681051341511048;1,61361418281134;0,379663814802644;0,825182141285568;1,65315289240537;0,0811222305817242;2,10604927300932;
0,961192073076773;-0,642547681848244;-1,15330644233191;0,91542032891652;-0,214053632879198;-0,515910615766587;0,712842687712386;0,76647118486096;0,0252538110034681;-1,82448233130125;0,634397248679474;-1,79929397571289;-0,3106500736327;-0,589346820155368;0,125356765246936;0,290154640376138;
-0,228621373712369;-0,172018484980708;-0,918020926768051;1,27949223271547;1,91849000115707;1,051250626334;0,167943335025615;0,366107928720533;-0,956683069583455;-0,612402800725302;1,31238141059669;0,60404010370689;-2,52294779328218;-0,209522528314621;-3,28034761103904;-0,592464719148038;
-0,300290554712649;-0,640600074796156;1,05094681464158;1,04368541916279;-0,00236347380157528;0,795357047191672;-0,379864229394081;2,02723290038582;0,421779935220322;-0,839600480607903;0,920341216481211;0,0956729339878632;-2,0243104684931;-0,83723396993653;0,286486742067685;1,88784136298546;
-0,0915876588533905;-0,424435074606164;-0,575896289476116;0,905543456951099;-0,830462818052571;1,61322423150629;-0,68248646221525;1,18492638515717;-0,816660218727516;-1,72149588164368;-0,576850494662747;-1,62142898912226;0,467729513047396;-0,523563715782322;-0,926568269250013;1,46453969477611;
0,276330343856384;-1,08373390239306;0,975326898335751;-0,179150251588542;-1,35012242774772;0,283193214579507;0,130418166143981;0,100719782411043;0,882313266695604;1,72290151582423;-0,238230972109288;0,880409794163566;-0,246203331494054;1,15077024856102;0,29045348037448;-0,353397479655995;
-0,229696402854493;1,26279651567474;0,241880790130567;0,0156688254825693;1,09534402727663;-1,40581762034585;-0,287742597055522;0,136107691325097;1,15687168321385;1,66131550079214;0,735546407444523;0,232995247013108;0,237313491459172;-0,399034529173663;1,16685217295042;-0,625032729888342;
0,0195214416061707;-0,36174233598701;-0,242751723129309;-0,972098570536862;-0,707711514582791;2,5060058190646;-0,455587324216709;-0,130850640647621;-0,747185092638486;-0,125624326562053;-1,29275363775093;0,0297756862846979;0,0773958875623525;1,10300682396574;-1,21674477846856;0,615126756261205;
-0,428955390300576;-0,331319933830513;0,159150769546991;-0,101115779424059;2,12333813396317;-1,26138990197104;-2,33307019751298;-1,9245573888335;0,568628763114378;0,256806423859792;-1,52263523272093;0,889393496257671;0,36839145942966;-0,290861969393272;-0,118503417766062;0,621879731803612;
-0,335847053173357;-0,279712020495986;1,2157361607399;-0,525322046107375;-0,741224063838507;-0,13293623456104;1,42638502280099;1,29060804652705;-0,150476439326859;1,08899613418032;-0,723121031592245;0,134565017162707;0,0734576724052356;-1,02610226699056;-0,165183877075481;0,0492751364299807;
0,652773247219803;0,725396417333323;-0,056221395446431;0,765554768569405;-2,0257829196145;1,67231372037293;-0,109596199939341;-0,576261462942035;-0,324863853069291;0,447478983760113;1,26155537637983;0,432166780403493;0,369774037018854;-0,718815403363015;-0,0484807652958477;-1,36858269122065;
-0,297111955058983;-1,31730400922051;0,417537246791954;0,173744394490545;1,56830472106063;0,496770967046311;-0,716116830237119;0,679945357650754;0,144255476651627;-0,14103152211093;-0,992178557098173;0,273784302097336;0,547082669287201;2,19895464417287;-0,468601851865109;-0,955230738604666;
-0,248295075214366;1,30172321857752;1,37653490678932;-0,476658695932942;0,7782841803801;1,92939554636574;1,48195801470236;0,424798700218683;3,87785725082714;-0,756571308393652;-0,453931472827492;1,93392099076172;-0,686092007870033;-1,41203215445899;0,903327398037649;-0,0542742424719433;
-1,13701905354857;0,0916415435975451;1,11398575929419;-0,882357753197156;0,229265751881549;1,364470343487;-0,857311488718073;1,62496725117813;-0,95679602435487;-1,1953317310303;2,24581843437501;-0,566686525691225;0,961320851371978;-0,208624349394941;-0,235649299478189;0,952091864839739;
-0,190292969169792;-1,49963276245743;-0,526727075446118;-1,72814887054272;-1,70000670329704;-2,54618222684347;-0,530917505873214;-0,171401982686852;0,741388523569064;-1,17932395899008;-0,249627538294515;-0,390081845538623;0,317800828485027;0,772885626231012;-0,0533019173312395;-0,0349370729400809;
0,695079283983913;1,10983601526158;-0,519303023943467;-0,568768545861731;0,164674520350894;0,974067231054098;-1,11073396408412;-0,0989628832110642;-0,665501083378166;-0,402775081948752;-0,78252761404509;-0,959967513746169;0,944736298632367;-0,125149471952206;-0,417613364414017;-1,35725952839935;
0,307084419396887;2,57701285695414;0,829654228109541;0,117989609141927;-0,974713575384532;1,93076822380394;0,745384455256851;-0,0373359362599907;1,53028349841721;-0,564935518974269;0,879409541527312;0,982520629881532;0,113061752825524;-2,11363473175853;-0,335623100533296;-0,186035088061395;
-1,90589297947689;0,521269182787784;-0,498612151551353;0,340742777009786;-0,855444499355089;-1,05342262095816;0,429150970626243;-0,146378591030865;-1,53934978918488;-0,619990695766555;0,770987487747396;-0,509219482322344;-0,924003012172021;0,809314324608451;-0,707622208748992;0,600531186938063;
0,14907336900105;-1,88448520675564;-1,19918215246181;0,0211091837429111;1,58589744180149;-1,08538207357036;-0,888454763857176;-0,753402919402767;0,950590263225143;1,33373518811543;1,56008870006756;-1,44558620134077;0,542291382568554;0,19199500226489;-1,27551090665526;-0,175357257888922;
0,218456425020025;-0,114886756595586;-0,396268934549717;-0,533968624533176;0,963716344050491;0,412258259986195;0,349355798582675;-0,489127986329495;-1,26050712098887;2,45142180903336;-1,23559290644261;1,52102290861058;1,17311479311808;3,30042661348304;1,00633878056151;0,618716174090577;
-1,54704480645099;-0,269711175161974;-1,10580809771502;0,353655560954374;-1,02167424335772;-0,207458897554267;0,108915196295435;0,498307255249155;-1,68451175466767;-0,485132505899145;-0,702683883670556;-0,486047577134169;-0,433567702184283;-0,0714975582909888;0,764587023330552;-0,0609583604539913;
-1,35816713592831;0,644511748049632;1,21708278100183;0,760651544625298;-0,769253342171743;0,602847316555832;1,44714322528207;-1,38845399863738;-0,97581733722649;1,62948138208089;1,12605438209407;-0,247631873828677;-0,107273847091395;-0,42603826014684;0,37556217789817;0,734346149587554;
0,928979925207443;0,233639054933111;-1,01270600411547;-0,113216151081711;0,241109001859521;1,32889451119095;2,49956382234729;0,369214926176823;0,196446326689577;0,0437146917399729;1,15823583134717;-1,2970872595537;1,6522237351242;0,358544592664976;-1,00292597324198;0,93129278609802;
2,07537672352606;2,54228971119523;1,25659489447739;-1,17259768045379;0,476718189303829;-0,537252121691632;-0,715889349629974;-0,960357559833898;0,738174272510745;-2,37624609136561;-0,942534248706776;1,58306340676857;0,654108790513074;0,48726131496698;0,653455562479109;-0,84764066102301;
-0,426253396270584;-2,3086394069328;-0,110082622582357;1,64652815151339;0,453441023850769;-0,590888329415134;-0,86631734791362;-1,24934358830914;0,803439871195368;0,0589806070156267;-0,985153118753521;0,205887269199704;-2,2482524007115;1,27225988804974;-0,408016793250226;0,658530533325049;
0,0289107097947683;-0,50601919436445;-1,04953673925274;-0,892288621528572;-0,943881678096142;2,08828316612402;1,17597225392405;2,33853505059465;0,333045434291224;0,578109257250437;-0,449685303459469;1,47325294619769;-0,514959686886445;-0,105968257796242;-1,55876727157733;-2,3222854130372;
-0,560755678241344;1,40490147853757;-0,611452725090713;-1,17593157757764;0,910818771414114;-0,0776231408076653;-0,604870192544755;-0,0296613245837233;0,634751726277417;1,34124016829747;-1,18072836352272;0,497925574246332;-0,597478741123079;-0,302887815382544;0,961263600237971;-0,307722552647726;
1,02831366793093;-0,953219874186968;-0,221796191088063;1,21257411852909;-2,12884291874182;-0,296225377110055;0,351839696590194;0,989302729871387;-0,695474533496541;0,142168988688622;-0,512906283422506;-0,00974939159995857;0,952737160543134;0,800337231854747;0,671794043536293;-0,124945234807934;
0,278684699629999;1,00120831618633;1,47498901348602;-0,610102307857156;-0,323416942039215;-1,67102723526728;2,32488905919373;0,0334625052804013;-1,91972480419295;1,47762464014963;-1,15439683997685;-0,300296327974043;0,14543752262095;-1,97079346840833;1,15404636369278;-0,799294802098879;
0,0871897230789705;-1,00266465915949;0,48181827794097;2,94457234494181;0,215163284874665;-1,26391929957193;-0,467595596349489;0,331691489734359;-0,391804896891763;0,0974350480494732;0,19849515770776;0,32564037766212;-2,08553621397967;-1,06041619146266;1,11325236718804;1,11386682553022;
1,12544805589569;-0,910718567285966;0,16811731509431;-0,137611805735519;-0,0188572741765501;1,69025786943052;1,65841814928828;-0,0164610441082361;-1,12371379295643;0,66697194113635;0,694960523936079;-0,194191594986754;0,211896060967678;0,329558536577635;0,890195430398659;-0,0666299148939854;
0,300098311583218;-1,56418999790115;1,27509512286235;-0,0448143998357717;0,0407180556008447;-0,464196428059316;0,66681497338438;-0,55968534745424;-0,0567442967909124;-0,816753852006907;0,234641424460238;0,0375260073112776;0,333114524669924;-0,619029770883335;-0,617791053566449;1,01136434246929;
2,64460101808094;0,868576894883565;1,72311991320421;0,414258438369663;0,436778502425217;1,63743382662141;-0,100137918775793;-0,634981602288363;-0,565114210489175;1,09185406711402;1,18644379583057;-0,168053372261707;2,18020647195788;1,12795404386264;-0,885709811950447;-1,06509114124862;
0,0991299827140957;-0,225000092918911;-0,647203801680407;-0,469148536095719;-0,749644869618218;1,8500573525717;-0,212058089474795;0,103527875857412;-0,558323734842852;-0,111046296629445;1,22105776953422;-1,25222725957414;0,0384602530641171;-1,93481630474302;-0,572514093119445;-2,08030369031181;
0,338509203276292;0,0587184732296712;-0,239948116003151;-0,760066197652256;2,17651546246636;1,06463932238646;0,378796817083066;0,127561832345046;1,69491191578454;0,622391573085966;0,454152636718386;1,10135401277948;0,668102176499229;0,444740819095794;0,223039381400695;1,38391545414568;
0,602128731192688;-0,537869921172499;-0,0500532295604974;1,05091087534417;0,842026962215289;1,28612298572706;-0,294155566753418;-0,306538820973096;-0,826004664851353;0,43887612480096;-2,39921902109001;-1,02270820228324;1,82615665438697;-1,67126007105033;0,95973706350195;0,506317233935027;
2,35826181713396;-0,716813930566179;0,0862712762677623;1,01114047365513;0,378723802102475;-1,30334921488869;0,255215110681609;-0,57363928627651;-0,191704060385334;-0,811349746094352;-1,24149558630569;-0,141009834301714;-0,0303002572829858;-0,520950638581401;0,529146415387477;0,673943568003546;
0,193118160110372;-1,84842439906859;-0,796164578017679;-0,538485580532042;2,01199208059933;-0,532381764081928;-0,318319294677838;0,798249086443175;0,493622680799016;-0,366687497168383;-0,639713263478172;0,980057280649382;-2,10117465458256;0,304137173691058;0,122694355531677;-1,12752992219445;
-0,0547583844974804;0,326596358914376;-0,529424547604746;0,689067061406276;0,627290602691183;0,456794144956497;-0,373817475986389;1,26333569658656;1,13594254559015;0,192404352937427;-1,16361508498884;0,923874033991757;-0,42296967232807;0,161887025213253;0,570568212630605;0,0431760410796856;
-0,489061145697247;-1,04341078970999;-0,406975403997738;1,42644814017054;-0,704038434567501;0,269859723681635;-0,0271104773252865;-0,150843108808417;-0,834061527506665;0,495334886833703;0,110962001440302;1,53909605972819;-0,700013635034782;-0,290745263083056;2,21853690747721;-0,327017978544573;
-1,94576480667397;-1,65373508339188;-0,111749257412665;0,571616695433417;-0,509022246368214;-0,344317901214911;0,00311316254126695;1,14677430544014;1,45718308445507;0,336124935091307;-1,69789117141437;-0,654186408886668;0,809993235576132;0,161799680012661;1,34260847429733;2,25268563260832;
0,120291366127949;1,03562416083737;1,21113593552851;-1,02493416907312;-0,0310742513376651;-2,44388116505022;1,35699996605351;0,49964350684878;2,10586321128941;-0,0784389628673286;-1,50098026172702;1,08228202961717;1,8899267117838;-0,836382655504791;-1,56444665056337;-0,136297049253477;
-1,0169922031218;0,346337694580109;0,600272046990004;-0,153052971070989;1,07585703370337;-1,88671771276939;-0,346078866934151;0,250632317480966;-2,32323543567033;0,20918849090811;0,891912072347341;2,23551700300422;-0,347803857822579;-1,41091694440105;-0,0766038434794687;0,933179814550757;
0,805525934482775;0,585111771370048;0,156241916765205;-0,675091900623255;-0,108412968609384;-0,774662109205814;-0,779381301976261;0,492853791665928;0,943931342084105;0,501356111257467;-0,516027699172407;0,806557588566941;-0,783289120183947;-1,53708078678407;0,768854195662785;-0,840360768465006;
0,00871424903167197;-1,07309409460345;0,877219261344454;-0,0866624935820019;2,26483280309584;0,586194720285087;0,805264136178398;0,0013935961644905;0,183441608129122;-1,29943617094556;0,79433050710233;-1,24781770651662;-0,318408518736175;-0,448601595387772;0,406042579938488;1,30736338794528;
-0,256765928818233;0,0435804745430367;0,316623976718588;1,14530253824859;-0,48305266276123;-0,389956294133032;2,04432581293945;0,485319597184575;-0,563877913633856;1,44660509046713;0,340650926734349;-1,6871754557763;0,00733136560321279;-2,13436234731852;-1,22585447037471;-0,282942912570916;
0,000704752556047064;-1,26333456897113;2,38423542228256;2,29207982525432;-0,285439923785172;-3,09419101461248;-0,655442486725751;0,87508970370511;0,43362531160002;0,0247469099647385;0,654352474004302;-0,196562444446792;0,208758013819878;-0,189292881096742;-3,19002646712387;-0,295788254465902;
1,00720546238457;-0,506452712017626;-0,400755784323449;-0,645087990843367;0,296118804547752;-0,625659796976518;1,15947907562111;-0,411393215624545;-0,346439604713962;0,0636968432510825;0,697291960917851;-1,3931362679478;-1,42816366929852;-1,27115323243245;0,866742073230436;-1,54845527349433;
1,04750711321948;0,864839192938816;-0,630105768564963;0,830234661530653;1,00011291163108;-1,36201676561193;-0,554582157603124;1,29069851263991;0,449999922523973;2,93077866058382;-1,15428953642955;1,75874803551222;0,90391884895186;-0,654842624856974;-0,602879710083006;-0,832734949772019;
-0,0632005317950201;0,709073764921886;-0,0978961072784521;-0,100838579769033;0,444950300395348;0,419085546379139;-0,102796764463633;0,114564638982956;-0,631719382504936;2,02688578105049;-0,221867025553932;1,48519507864698;0,450387977741697;0,264523426963186;-1,10433934219227;0,93491906097575;
-1,60087016204804;0,0773290906958077;-0,581369397632229;0,102138745709072;0,217598303787212;1,24940901285624;-0,270670812440825;-0,954588370925088;0,180865032896695;1,74576068265468;-0,757625334153003;-1,21103870993669;0,277967521484171;-1,10613063602198;-1,37860626489556;0,0574635507026281;
-0,406863217045258;0,613419165459617;-1,00899935246022;-0,123470942540981;0,379897178966435;0,106975700332274;-0,308343618341633;0,180740892091778;-0,375410542071301;1,62727564654179;0,850883911633709;0,290792298165146;1,23734824461385;0,464280574575228;-1,18800114348006;-0,767682690443746;
-1,12258423473312;0,384632950508292;0,492223560789882;2,23251794363771;1,04387712515913;-0,157947815583704;0,406552100451293;-0,281444331890121;1,2986284335083;-0,585814439408745;1,11785377358221;0,234351227088078;-0,227923530352456;0,27629258767077;0,343982331686299;0,852226477168198;
1,49601495046467;0,76266159896173;-0,0503438064615273;-0,0130263937542889;-0,0938790234988331;0,212137873156149;-0,407494045617943;-0,396246948805595;0,254284431641681;-0,232535190900569;0,63596258228868;1,83727596258612;-0,814997656564539;1,26463604504313;-0,487133995020976;1,2459885280013;
-0,885730239235798;-0,493077257390513;-0,702028159170678;0,415266848510174;1,63087216917375;-0,604969467395643;-0,643704004365962;-0,126510198727367;-0,19556226362132;-0,815002363908724;-0,158704557340524;1,50368365562897;0,978960652076586;1,17042524967779;-0,329519044165101;0,0124861872721085;
-0,65976772243791;-0,555040426696752;0,356743197631833;1,29958529584401;1,50020780720509;-0,717175500647095;-0,236820093130004;0,310941214784236;0,0532948800738108;-1,42036282854325;1,41915732238178;-1,01400885572327;0,804956832559687;1,12997047882651;0,814422592838248;1,11487610145228;
0,694454539775573;0,128294987077832;0,202637922805367;-0,644566238204676;-0,684898656481801;-0,983946276477418;-0,308761658704459;0,114988950132648;1,15354005896563;0,685572359590034;0,233771396166944;0,165892277936942;-0,324136322543604;0,0456329294156761;-0,745908106333222;-0,091704685926155;
-0,017795786124123;-1,25774305864571;0,163267293101533;-0,671116739986346;1,9066174478398;0,537588891267754;0,560767109937126;-2,44088185222668;-0,180537177461578;0,369430219397545;0,760594466150073;0,684486251296185;1,23459713013325;-0,650907530789846;-0,587834116896971;-1,51242093456452;
-0,457478679155106;1,73756076038456;0,203333980824692;0,255160970699384;0,169027237364096;0,0750055042330998;0,641358401825345;0,679905840904089;-0,399633766106961;-0,627892182652185;-1,68805834487475;0,519030268606767;-0,231226498908578;-0,332200057658769;-0,783151954692742;1,51705439190653;
0,0307394548575692;-0,159509815243154;-1,43150677768287;1,27711037884034;-1,47295715463665;-0,813875923201306;1,20561259703456;0,968189905126265;-0,202601915468173;-0,0351620066670072;-1,65812528875374;0,0506009376542205;-0,47572153202445;0,631354715383564;1,4634145238925;1,26866826251329;
-1,73789334603379;1,35557159233633;-0,82534348913518;0,230560614889946;0,494040854989816;1,4878621142309;0,92462865201836;-0,712942571634948;1,5142837182395;1,87369549800114;0,700018137204951;2,03514558275611;-0,186199943162522;0,590708361233231;0,0555797920443866;1,65568881585533;
0,503817573527855;-1,12613584840618;0,522774489044903;-1,1046843027875;-0,985185599583549;-0,713524962963781;0,540041190439997;-0,416200687715227;-2,07995510009323;-2,04259983121087;2,22515644623266;-0,748922138422795;-0,0738658862762365;0,822664958248359;-0,106319039929186;0,367978416364245;
1,08385665521241;-0,231599177173605;0,30878746419482;0,163241903967772;0,731056054415914;0,581228787026013;0,99059690646007;2,18901347628281;-0,984350828501319;-0,627122870567338;0,146609775876531;1,2310083471212;0,0260222301026654;-0,316180850085297;0,463289644797624;0,632980029287246;
-0,147720567508203;1,18323396495547;-1,00188237359493;-0,161251044743226;0,202305558034737;-2,32610088475572;0,722119166003033;0,564412849804373;0,204394072222939;0,153674032748835;1,49824565521009;-1,48978456426703;-0,283239521553186;0,224778955625024;-0,288932955241828;1,33689373388419;
-0,215503650243159;-0,0833926048952183;-0,578731468705668;0,506158143751516;0,232621661908604;-0,639604677625516;0,935987869419971;1,25124198059185;0,546935300103628;-0,257724033049163;-0,427578342736832;0,305472060504589;-1,74996941976604;-1,50665808689188;0,518198485723241;-0,576872355278472;
-0,726593901223951;1,13182398732602;0,104398298401231;0,935284851388967;-0,784067559139722;-1,92023117559421;0,135466652556724;-0,656035489886759;-0,934741063755405;-1,57344421561564;-2,20443120853761;0,392713157772371;-0,307800972423669;0,460165277392519;-0,111858778868826;-1,04540653080536;
-0,656187782907835;-1,82316175318603;0,432817592172585;-1,46282064499514;-0,533489682790018;-1,38463940418902;0,498443066602182;-0,710435369520223;-1,36751191386202;1,28405392603629;-0,020746948898084;0,298170672447565;0,49448342729397;0,257323320665502;0,135216622318981;0,640156845421147;
0,206035294852427;-2,07909721750756;-1,35442687030334;0,774333274764071;-0,611160110685691;0,411192684216771;0,464515698537362;-0,0325251896016618;0,61414708115779;-0,651983478642329;1,0877314733859;-0,712196133059125;0,133617594520686;-0,614433009357033;0,912988331516609;1,34464289044761;
-1,62535560434913;0,721671874489105;0,446620260003392;-0,964106672268441;2,94766887210717;0,131591784869497;0,24158356807417;-0,935350252974343;0,341797618638954;-0,180744654469065;-0,658208983521317;-0,477663685445675;0,19392349354505;0,592323941653516;-0,192833611065689;-0,0305691573953216;
-0,0878202375280754;-0,55482935972161;1,50959131806636;0,968871855809002;0,68422073085086;0,637358175913234;1,57596764393523;-0,547825335064214;0,50653923831649;-0,948750601474899;-0,478669137162107;0,834923805989373;-1,60084554048253;-0,438578478354307;-0,413978709937799;0,401972238533998;
-0,130733095994452;-0,126337410238774;0,87896610267097;0,945693116937311;-1,02912051837772;-0,172317484737031;-0,538292618391516;-0,00603242797026588;0,264592686826187;-2,4483254396509;-0,178240555655676;-0,680130284999276;0,230808468844987;0,4913251015767;-0,369637380849741;-0,660863259305493;
-1,24797072149063;1,02461445389332;-0,0222929867536701;1,38290644701231;-0,984003478494735;-2,87875134512081;0,607345045028163;-0,262808140483908;0,159939844995983;0,872663668046262;-0,255592489987996;-1,55149293781828;0,591140920975805;0,636470261138546;0,138085156088961;-0,728030045134785;
0,2016564613933;1,91054391598691;0,229254264807164;-1,23827123145269;-0,8000795880353;0,0765892097808571;-0,270216057709417;-1,76385918913271;-0,0641404425660748;-1,89750792024108;-0,441644487127794;-0,299575219785063;-1,23913492359949;0,487108677348081;1,59694939476523;-0,41448214226433;
1,43915864296716;-0,51767247446748;-2,25114070131229;-0,0544752326622448;-0,562394929738274;1,0766199897793;0,934720935618784;-0,224819268593806;0,146633497675106;-1,04864381509347;-0,19178284130199;1,01480116094435;-0,201600458174621;0,411399488854643;-0,620012336626189;-0,0534417648517027;
-2,23123191386883;-0,232329181318586;-0,311942685549399;0,432897591762202;1,05372119244455;0,172332670482271;-2,16845882143554;0,248326631126677;0,171890555177232;1,37489269919309;0,152640379826495;0,798624872383381;0,0774196694839738;-0,151496119641554;0,245742534130527;-0,521505152975995;
0,370074132283015;-0,326082612790275;1,32071653322177;0,74805667776448;1,20009357214603;-1,8268336562406;-0,715235269307629;-1,13121070185445;-1,05895675468336;0,901133466809748;0,420013342188761;-0,420048375539206;-0,258796164218445;-0,558121196132625;1,53906526510216;0,554114298632601;
-0,333363530741017;-0,286975737339216;-0,170322271204191;-0,791073616383111;-0,160113102471957;-0,651125101025275;-0,0885183533123793;0,327426851232004;-2,23111763588737;0,293487517907164;0,0310736692897699;-1,45513209250302;1,20413395251468;-2,92488908775295;-0,413602942602203;1,63161772687559;
2,01239804345039;1,33208766835318;0,560935287449114;-0,917880824003176;0,76117219927575;-1,07412061301572;-0,945607204071734;-0,164377002950993;-0,482379710394602;0,790859528957479;-0,419571097283247;0,246476987655848;-0,321392466626255;1,05216435021993;-0,0290747643247024;-1,49472440027998;
-0,200287914362248;-0,737968495216161;0,0101971408618742;-1,3269539057879;0,88340054409213;-1,91950815649642;-1,70228633171541;-2,12101097439198;0,25358031087877;0,816964616934587;-0,902630367898908;0,930355659143398;0,84105217010556;0,770090184044862;0,146879571860119;0,246987638671866;
0,880884760761071;0,239240642363452;3,22489894530659;-0,515858783224123;-1,57583947518014;-0,480638465061064;0,442731683761536;-0,372848589541934;-1,24470125413509;-0,109553104505109;0,0563241160021403;-1,11763865710455;-1,14733357869538;-1,17016991931941;1,18833129614286;0,148915323570439;
0,512938534544522;-1,22717693053507;-0,00387966287232638;-0,204677397637637;-0,475305270748075;-0,307732636541904;2,7854597727893;1,40649975758857;-1,21442128948337;0,684701815121581;-1,93688556518193;1,32292576403899;0,220293854863852;0,877312922960366;0,140857344615835;-0,404816606324904;
1,5800852340891;-2,03275796719657;0,0898854248877635;0,624449586361485;-0,098973279913104;1,65248365438383;-1,40874920024914;0,657895863491022;1,15739269087524;-0,93230299392687;-0,839625695434078;0,473277396937843;0,0559805234953785;-0,439218337411643;0,820727572056263;1,32076006562131;
-0,664002550382679;-0,760843994984883;-0,765407242336971;1,30044776803675;1,05240091948935;1,39162611600672;0,658678492734176;0,638604761375996;0,856759844657431;0,15588429622503;0,128404358822749;0,886312081947678;0,650245662279078;-0,605412282182466;1,51548409632969;-1,79911950683669;
-0,649026844856472;1,08667195547445;1,35299599092604;-1,67581382159232;0,435083094792305;1,09297510734696;1,06586032931359;-1,21312570649085;-0,528114517135799;-0,317978623268512;-1,14227632404329;0,840647700363308;1,04185300859799;0,635715476187663;-0,716577685162261;1,92248308973229;
0,846399252378739;-1,27375782837219;-0,431361876527297;0,527885047215375;0,147480299983509;-1,10222555142182;0,0657758214183804;-0,61484372158963;0,485085405354358;0,410843257156551;0,214516190532474;0,848000025495887;1,18401348159497;0,553544422033112;-0,211272422610351;1,98040841137489;
1,41954378933713;1,22847986848271;-0,229326563650905;-1,23595653311677;2,08012204661785;-0,00803735794619165;-1,42852112337082;0,193580091206992;-1,31315705196995;-0,923553599313138;-0,637123912587107;-0,058278264652121;1,540677132934;0,664656835420361;-1,1854255065374;0,834344584640484;
0,46159150860872;-1,03192402077568;-0,679635585502368;-0,274053090850122;0,114172285468166;-1,59446412152128;-0,879540560796815;-0,505454653558091;0,890063730182155;-0,68065567197448;0,20086298505045;1,11622049097112;0,442095041287686;-0,592976354250659;-1,9255226992018;0,0446673838707425;
0,755749821847746;-0,640422677389959;-2,33994994637689;-0,719558101176072;-2,50627003509702;-0,697036765737671;-0,345425208514389;-1,0118006908336;-1,39022376876389;-0,555861530826743;-0,623851416365905;0,196172293346965;0,562147034885859;-0,0390375560393162;0,309061562661901;0,344340344631284;
-1,38234282742671;0,429489427813677;-0,231053763646795;-0,648453196042282;0,752818007528515;-0,684796711721308;-0,844828087888434;0,745413553364762;0,647949439127341;1,15375878902361;-2,09519367742142;-0,194747594127908;1,44023105091766;-2,43207107905416;0,395426616003137;-0,374727953465162;
-0,599141210406737;-0,215499127586105;0,914236078943999;0,655400293654606;-1,32881523441254;-1,4749302543538;1,92857089597291;0,535131090277867;-0,0303835382156372;-0,689672799265589;0,257120591486777;0,566901903086014;-0,965831264830672;-0,432282045551485;-0,274542098364354;0,136574165682219;
-1,17908783818198;0,00537208045127569;-1,40676075833848;0,0474191172413827;-0,0409659206218441;1,43309170067875;-0,0356409390277248;0,33162046522629;-0,556555977291186;0,978496962743904;0,867816321629163;1,37153161096825;-0,297604113932553;-0,2527199390117;-1,15618480555754;1,22383434117583;
-0,326681106438809;1,27109881814492;-1,96844814083178;-0,402086446575148;0,649487619669846;-1,89443207488387;-0,907290101400054;0,0371444254784858;-2,84801803354305;0,290124036738075;-0,377738020779366;0,273516334419128;-0,633702314187656;1,00789623272407;-0,00879914011309578;-1,82482950966587;
-0,663532707945181;-1,65569651451981;-0,939399306770925;-2,22903467637299;1,90317940987079;0,905391169741026;0,119542731896224;-2,03175584291697;-0,676622269221887;-0,760013371413476;0,70273583825155;0,729109181759864;0,340651413979599;-0,000764397750903496;0,721494241607751;-1,73237085243139;
0,126881721908371;1,5152863535445;0,720493260656527;1,38583153027675;-0,0615073524110811;0,404340776102208;-0,255322012070196;1,64379435477004;-0,85918784059123;-1,53022629733634;0,479908725181229;1,87290692514698;-1,08591984828882;0,000692798334868068;-0,71341007038978;-1,25127769032655;
-1,97039893530812;0,562455664808836;-1,60281009869574;-1,11012770155457;0,364831501352458;0,587928203377432;0,97196044418723;0,955692452841616;0,483059677225567;-0,108844628804552;1,18428205292735;-1,11844825578067;-0,2294821234119;-1,9459541090794;-1,0735695700434;0,0883243503323308;
2,09173056872025;1,58373156155982;-0,741061036643537;-0,253866992821499;0,74331521092054;-1,30864746586187;0,699981927487572;-0,649416362420682;-1,08371980730525;0,209828171194184;-1,02260754436657;-0,990877690606674;1,33715120774718;2,02853682565759;0,937485504884601;-0,993046817415875;
-0,0761956025507426;0,245180085540027;1,87746966100604;0,81364005126424;1,60249244410872;-1,94747966446904;-1,22898568612506;1,53372647557027;1,5637845870954;-1,25231162607876;-0,698619165834707;0,98571637534487;0,106139163288972;0,257801192252845;-0,764533978351151;2,02645683167144;
0,0667293544673801;0,697077744769932;1,32771494280808;0,737592165845114;-0,11721222140852;0,657741315905032;-0,814432693223809;-1,0356157735639;-2,22090150114685;2,29848202509231;-0,80494997208157;-0,385906834443633;-0,77254344457754;-0,673812888076449;-0,416286706192593;-0,808210905897959;
-1,49539702465082;-0,289796922795458;-1,2092655108764;-1,21192066715815;-0,36305956575813;-1,52252098038563;1,52093106204519;-0,7053960179545;0,22654286896168;-1,07371923985252;-0,919105122030782;-1,41229420066664;-2,16707968601546;-0,00962599250658138;0,339897996346053;0,118499403788922;
1,77192060679229;-1,76145078431355;-0,440930885082522;1,1017344737337;0,645554134785056;0,340216971358727;-0,899114027451339;1,03036578845417;0,00234872473435113;0,599954768144389;-0,327608877832855;0,223198267695987;0,666121783876142;0,555477030123977;-0,18642940057852;0,0550074322948113;
-0,102282454137188;0,0942059319350084;0,107013931351553;0,571252216591104;0,70557413079491;-0,259398079746461;0,177500941667292;1,55437526668353;-0,264715055834829;-0,763879429346709;-1,04868711181673;-0,205602168895008;-1,64328811350158;-2,07737247630561;0,720910672517403;0,166899643595294;
0,445155475781538;-1,91484736894491;1,8133091377013;-1,3445535896787;-0,0376018282820082;0,948556071189724;0,603179790313307;0,549193116760711;0,318447050971156;0,139867584053676;-0,063402136194643;1,14789936496464;1,1241307063064;0,522139580251885;0,0510314321274739;-2,13279904001585;
2,76481794116758;-0,886352861950219;-0,0307525168680006;0,927724825838464;-1,22017390255816;-0,8733161840036;0,681510900733062;-1,80375314152446;-1,14119167377935;-0,535852238567909;-2,01740604816726;2,36340941182787;0,350243862927877;-0,309998323651809;1,08960562066008;0,532543041233679;
-1,097292454614;1,27049901129816;-0,632569789840183;0,668112597175701;-1,99893731647874;0,840267552358691;2,19056619284783;-1,02242692833783;0,117669395224388;0,752204625525658;1,58887725620388;1,04640320998315;1,84815458957858;0,133054380104543;0,238739211678254;-0,712164253193529;
1,90462925676105;-1,02604105712275;0,207416218517751;-0,26314865978514;0,523461937170045;0,849154674144155;-0,510140707265895;-0,743233703320745;-1,25670678577392;-0,0951221659899831;-0,0230052813484084;0,0907354402083509;1,49086616049555;-0,173337328118805;1,34490434676961;-1,25083932965585;
0,764091957772705;-0,0283042027888385;-0,681368058870112;-0,486428963265019;0,20549178613405;-2,8260230580074;0,874852420118981;0,623348843612095;-1,2041488141686;0,950365909440478;0,434768313688731;-0,751524093546385;1,03155851285172;-0,391739853157107;0,0440440274850226;-0,564741034573411;
-0,0694725596199271;0,393291393040261;0,0445086047909182;-1,8719054697684;1,97646776942164;-0,0175410612295759;1,19290420439711;-1,2625577640984;-1,44280975149835;-0,796238917686825;0,687386770847862;1,20551355412273;1,3171824594313;0,644386831090019;-0,172523918709891;-0,306154221415276;
0,689987316193051;-0,785242632469794;-1,61314971116666;-0,747160597156499;-0,81194709087187;1,41517608122224;-0,720507508541522;1,09849938656685;-0,0636166956390117;0,897862013101963;-1,87799195516848;-1,97204118403196;-1,24970348693074;-0,0393084511888756;-2,26440083104129;0,820335910837416;
-1,58710896932282;1,94996546563406;-0,868587736837472;-0,0791444902868093;-0,799353721482406;-1,14986652099816;1,5747455734978;0,890104192254131;1,36437360999693;0,193016606453714;-1,74400811312246;-0,455025007238486;0,00836921559802841;0,401592272360317;-0,633173557517622;-1,15075241666379;
-1,08227346694212;-0,447479605501482;-0,541259350889685;0,946611170701549;0,767711871404114;0,649053324789644;0,746581098322303;0,490395834131591;-1,80090040082306;-1,73795379969865;-1,48936073241157;-0,197138107499232;0,750171587486674;-0,186211154391082;0,909863261280183;-0,850195136760132;
0,654947454227451;0,809353966951599;-1,15438613952458;-0,825268177204915;0,487198288504234;0,64283700494304;0,0428094911155331;-0,617843093790375;1,29667060866516;0,275326651919549;-1,09779056635681;0,0442954259476269;0,361509249196119;0,432539413359204;0,313689967177263;2,64878204686652;
-0,852001969601651;0,643706753690051;0,964245003546353;0,722324977713689;-0,872000489187072;0,194662225901463;-1,338397742197;-1,17414310362505;-0,917731553211154;0,755759708390694;-0,539959410964971;-0,973270648579092;0,302203196379109;0,827670542012963;-1,11022754584219;-1,54280113933383;
1,90814738319734;0,751934097505798;0,0384931803059392;0,914902559968413;-0,499632060289567;-0,54298966062475;0,602031649676438;-0,188261170933384;-0,116966588157945;-0,38920663735933;-0,0785836446452134;-1,20995761814352;0,774125363055152;1,34604785892465;-0,0113687743010932;-0,742711134349347;
1,48635988621479;-2,42550528080708;1,81158765278477;0,219963283320993;0,038851743361135;-0,706769506587057;1,9794062548661;-0,496171120324223;0,462997597259699;1,8773182546473;-2,09726492987044;0,49484365688886;-0,0907213000799395;-0,490296773944328;-0,916782904651817;1,58909221755692;
-0,0353232612013188;-0,415124206246641;-1,53270803395554;-0,633953438567839;-4,09124285771004;-0,804065611205274;-0,439501585201302;0,740028416765094;-1,40801465201004;-0,696645259460542;-0,245028878992444;-0,869647505101952;-0,641209399815258;0,484051092646709;0,544097439144078;-0,897610209277114;
0,451287661457187;1,15385320943053;0,805008100428115;0,764288142861065;0,129667199191144;1,14071846050838;-0,802329373303833;1,01859615791208;1,22780630846604;1,30499919697222;-0,0316303581267389;-0,686843132178882;-0,276841796892734;1,58749141837791;-0,263444913873478;-0,228239700848512;
-0,468799417811908;2,55888767173363;-0,198556304155646;0,719338198541122;0,733178168448825;-2,43480051261367;0,446512206684105;-0,942917122369946;-0,87232191615594;-0,23874677959222;-1,3812836253418;1,25805048228227;0,303089402204111;-1,00272826600906;0,0880645083715625;0,292282138934681;
-0,671268750672293;-0,172557379731441;0,569576046786826;-0,380678656773466;0,441450314355778;0,0168067292114998;-0,561855678074488;0,0737349309588583;-0,193443073657227;2,77535100551948;0,622056634135296;0,481679182426283;-0,926058004750328;-0,374217403042687;-0,271102454139279;1,74165777572539;
-0,309358385798132;1,17052104029694;0,785981130014536;0,158759781743598;0,304519700744618;1,54514774076858;0,548225576213368;-0,192953325383282;1,15529159914086;-0,0999372205339591;0,0532517870665271;1,24901068968489;-1,38144230234505;1,11549462315209;0,0472331984990334;-0,340915622376038;
-1,72522226303968;-0,0773181744243381;-0,853942209554201;-0,063606589587403;-0,0585368774680198;-0,842571855309864;1,31753388010769;0,928810483107375;0,757238052404094;-1,26078022775471;-0,215804279061902;0,638059244919206;0,839328684360874;-0,13518576342995;-0,258739401295661;-1,03584486324568;
0,85945466760732;0,561165226440318;1,24626145540514;-0,130227763910613;0,766900082971801;0,0255295977631159;-1,07410288553188;-0,511138760089711;1,15425490376328;1,2010484956341;0,946223644567015;-0,0528366787672075;-1,64836048403479;0,258680821053968;0,545291083365261;1,78258889250947;
-0,99205408594369;-0,800145285176578;1,2075955341955;1,40954494456504;-1,54104593125901;-0,335892694665684;0,426126828521715;-0,433330046344811;1,30671059500177;0,0301643108976775;2,14377978977575;-0,214213447055624;-0,319125125499584;0,301271378157982;-0,518656516452428;-0,0815704222252227;
0,264671550504149;-1,00834593721092;-0,37853267860903;-0,874220360621509;0,142342678259641;-2,35925507991144;-0,785186602456874;-0,73397142506153;-0,496511918081536;-2,02478360182329;-0,862116898631112;1,79136083500914;0,0332645731225222;-1,92679075683189;-1,08726025452318;-0,42773278327182;
-0,698890856378272;1,30434045681592;-0,425405875305316;0,640558531353898;-1,01713385075897;0,0523206991599671;1,43787212330292;1,21796558470994;-0,0339935925203346;-0,405591585196365;0,593728069948219;1,39950302896193;1,72318546043334;-0,339487236544713;-0,223539819332265;1,54458126707862;
1,09525941990317;0,496283837178859;0,98662912876254;0,107540957046727;-1,66526364811215;-1,07385982631303;1,81046429744975;1,56380345444517;-0,976147790985819;-0,267665147853881;0,856296373759545;-0,372730956393103;-1,32687827818019;-0,704387885566924;-0,0583723135932864;-1,07071781282038;
1,18928902776242;-0,648120535917252;0,894369411627467;-0,634298639506183;-3,3903720705043;-1,56350827508249;0,0839417348099223;0,267658410367371;-0,789207450241126;-0,139051860353609;-1,92211682909889;-0,746803290860222;-1,74061329888664;-0,476385561647752;1,0232833657777;1,22863572566211;
0,691522416731766;-1,02046108099299;1,19741696381819;-0,410310849410488;1,25194090905342;-1,03445388920116;1,05219169653975;-0,180677649432603;0,574243775968291;1,12027755013799;0,117565916902901;-1,10281673610427;-0,23049778226751;-0,424764238251103;-1,27162498864591;-0,561929380751726;
0,258842244230499;-0,400326455855284;0,340877361631863;-0,745725709968205;-0,44774591582892;-0,0989512312082985;-1,45312606605845;-0,66249208474871;0,452101842906296;-0,218518740974205;1,60129049783197;-0,527841519394704;-0,414053579293991;0,848953262521652;-0,689317130579482;-0,164036807581004;
-0,129495522734397;0,224303283578862;0,157612115031326;-0,353544484898694;-0,121963630579465;-1,19760211516569;-0,105399271558676;-1,06628578836705;-1,88136279516839;1,82126634616835;-0,23660304890708;1,06019420780081;-1,85356359512048;0,806853484676855;2,58610614385342;1,33312867496475;
1,28407606652138;1,41452859478111;-1,39586015941162;0,515108293872321;1,54913660093956;-0,265569554418551;0,678442469577841;0,278314372647836;1,14157038215103;0,235849835195169;0,926311745971615;0,39274474151732;1,23635331817723;0,522559875631808;-0,633211750528802;0,899713091102876;
0,829965235379054;-0,917093483732448;1,52660290700557;0,733380388366116;-0,313468219450058;-0,0673774932150234;0,0266082483030142;0,245158775571157;0,670551132062361;-0,329461391665739;0,0925181417930739;-1,13841536221742;1,19009031149486;0,391292133118745;-0,336358905953264;-0,443975838768436;
0,167987930925735;2,21643070370601;1,00129683210859;-0,985527977716283;-0,247338517816604;-2,03156712864658;0,0194281183506963;0,211087834684243;-0,711556928933022;-0,273088374535194;-0,302567634747886;0,832551776068086;-0,335495805802742;-0,510901958313124;0,874942020109468;1,12635221780811;
0,630726583684272;0,476039368052748;0,361724081978459;-0,840415113620382;0,103191572354026;0,507032646681358;-0,331962285062999;0,102292549164635;1,22046116909777;0,543091807879735;-0,0261743410300957;-0,642941958515695;-0,848574447232067;-0,669028719279204;0,501979996523288;-0,969486644175086;
-1,30743274659149;-0,80806204547024;-1,61084182079334;0,738046082438612;-1,59598350183514;-1,24803157785089;1,66346207505285;0,447489851964072;-1,20941087363852;1,1170628842649;0,0802613067935171;1,86847694480889;0,463430046335116;1,10021606584867;-0,0250687648049737;-0,589328688828753;
0,429460396628678;0,487326141930876;-0,228566265900114;-1,39918399649762;-0,0720343718821568;0,323120082500068;0,242821953228193;0,764574115393129;1,57176783367964;1,13819112248081;0,290646068701684;-0,578254072152041;0,164608447258072;0,430024667386222;2,04442172282111;1,27146194521511;
-1,78472924455619;1,84954616595919;0,946015134815925;-0,397220436837728;-1,30991990016081;-0,103755102799997;-0,801603442369537;-0,386803625768364;0,984875285115036;-2,52092876632183;-0,468555697044782;-1,35381806911937;-0,956554837999914;0,812817278422013;1,47826238159665;0,0325586827051974;
-0,139260882138218;-0,517775913547433;0,174862327579737;-0,375207838853951;0,78608503441847;-0,276711804888341;-0,882878631220958;0,729006906808534;-1,49007577547657;-0,42415825794903;-1,51537838664478;1,11840681395814;0,31015822322593;-0,667147090546984;0,250753127139139;0,526316170598211;
-0,109573758290441;0,930095646688608;-1,25726233383134;0,62120574746155;1,05233284928679;-0,301590300429471;3,34258289743016;-2,3752444866098;0,91663440885856;-0,997570534814614;-0,66503263045418;-1,76972406956836;0,814532517085499;0,0546887290013206;0,824230305104286;0,0802831386305942;
-0,490561530259245;-0,246887395223385;1,15654406213132;0,452725034851938;1,48733632767005;0,832348786423562;-0,568090107530177;1,46430618699754;-0,514804629078535;-2,23100066884656;1,21219679936;1,25780510573218;-0,624227950505279;2,68101918299189;1,13317588153369;0,82951348769721;
0,251395308474076;0,775425286160225;0,232463606583805;-0,0298957015374672;-1,15114172669396;0,673818064277747;0,531961540252205;0,286816844280734;0,789968115473602;-2,21296111793975;1,88203551924727;0,590715326373584;-0,21756065034839;-0,182519962544929;-1,40586894390261;-0,0611569529594515;
-0,0229240165158527;0,208494366235411;-0,594535267516692;-0,159245420936443;-0,244764058428425;1,86437819625582;-0,602240824617511;-1,67492133805019;-0,53516633587051;1,01793736643327;-2,09589986344939;-0,0973422034633657;-2,32080193396449;-1,76869852067708;0,0873536397485431;-0,916016330776176;
-0,630150837825187;-0,689219615376682;-0,557294856211754;-0,556132093467733;1,27652559447454;-1,08344575648031;1,71742972059127;0,35319951512293;0,461691368419903;0,149839357787187;-1,67311461582042;0,622559322320006;0,0352059526238489;-1,43175865130611;0,525246279552692;1,26762140686797;
1,98249113153792;-1,0382691595448;-0,982837885805382;0,893336758851166;-0,55113268984219;-0,280023715788728;1,45205357093418;-0,233014029560253;-0,547285355606765;-0,848585159776568;-0,626526578344242;-0,228501034123484;0,33504108129156;1,35312996181787;0,211887302071595;2,03230992202601;
0,0274935698926262;-1,10131102287604;0,373971110832413;-0,378283115656773;-0,39149499798304;0,0903916106399354;-0,13204806695621;0,135698138608794;1,39831876857406;-0,100661146062565;-0,66937219860864;1,87533544513245;-0,182364478893873;0,203883170701383;-0,498538535430669;-0,124124127269607;
-0,954431354812981;2,8735333311991;0,328140744229808;-1,60739306175728;-0,172451501177767;-1,5560448556819;1,60124593060768;-0,0188584152466973;-2,02755885700323;-0,266579758955135;1,87684171047896;0,997289320013074;0,41638318081003;1,25157704692217;0,288057071440356;-0,21312979964211;
-0,73384655661778;0,439211857796124;-0,465815839542274;0,406122052840591;1,96808849666884;-0,159725256679721;0,653659155879407;0,421296444952429;-0,210626852054074;-0,905750936970016;0,685554909612387;0,278726720940305;-2,10547748890114;0,418708460908941;0,440748016210965;0,161275876789761;
0,0868918690887333;1,22201712745199;-1,31342065240025;0,873742882496348;-1,09230600101801;-0,599850914573594;-1,05765979472746;0,0816952378669482;-0,397269339965718;0,81123687562754;0,722224649687997;0,92804847619626;0,495744247630054;1,54623146293902;0,404105493605907;-0,208790839673422;
-0,0902481448528301;-0,462888389468349;-0,14612488005068;-0,259080533867029;-0,480142453214453;-0,907172123204618;-0,96753828343228;1,47334499270517;-0,239243591237142;-1,83753099681678;-0,127134956409867;-1,24319516634383;-1,48468942739027;-1,02580036744098;-0,429995208817818;1,87548803671508;
-0,89624556555535;-1,17530841359163;0,417064513393126;-0,969430258104591;-2,91620201227216;0,952899594996989;0,897057975721602;2,52480444251622;-0,00296463471934916;1,17770235101795;2,397004543581;0,126680504414406;-1,1166511954253;-0,392665545547897;0,442598823091803;-0,639173854418526;
0,25491084430037;-1,4386707490595;-0,850710087399338;-2,63936086262489;0,475278867676951;-0,450834963875997;-1,35236196379237;-0,494763174176084;-0,166285826549394;0,0411852894445724;-0,993604407011073;1,61931429511604;1,38672008775386;1,35996370336946;-0,864159602701627;-0,194862034201435;
1,16980875509602;-0,222811751374245;0,749195151831403;-0,14232797978144;-0,170307063398871;-0,574862427321122;-0,712629362328308;0,375205590853341;-1,02628793933636;0,480912795161481;-0,994735742131983;-1,05787848498291;-1,61068367565512;1,58824921633336;-1,62678670441619;1,19020163600834;
-0,687227226898619;-0,76774470475934;-0,0187736546678965;0,923924491783015;1,56090549874863;-0,376016365837941;1,68355554859651;-0,547596906064453;-0,224882239063372;-0,507399297516055;0,653424583527083;0,274628446524539;-0,0667697041949792;-0,0777042162339901;0,389697034313345;1,60286397880176;
0,538531680106841;-0,485077977631481;-1,38433724148202;-0,748853795270642;-0,0736530735928481;1,73148599523493;0,755043746146548;-0,0949269754671558;-0,118446048105368;0,774980964206555;0,0484820254583605;1,00671392115876;0,451043511976919;0,47446049780808;0,484193813396501;-2,00462303315617;
0,357093063470726;-0,946222949411374;0,551866249171624;-0,742650704821214;-0,332669626784475;0,449064816574504;-0,194535216337251;-1,12211835251867;-1,68259958012406;-0,565947095290813;-0,155395259333057;-1,25079198947357;2,34174492129799;0,541034193661414;0,00493116816098959;-1,62474416330852;
1,17459361912861;0,687351270238948;-0,5454844842379;-1,30510735036667;0,201719100174838;-0,296659919002425;0,894201114245038;-0,576428445025088;0,285775200146798;1,46208299243158;-0,184729412493662;-0,578245919767974;-0,249901675662496;-0,205258213307913;-0,0451536449026785;-0,830501616448158;
-0,151760960670204;0,112651286489869;0,257420362739995;0,515186487419071;-0,0783227997769129;-0,764388356940014;0,97375566625854;-1,83789494454296;-0,477852446892118;-1,98817441026244;0,00949943244633153;-0,290773091481981;1,68479651527165;0,0706770256822929;-1,17400283000199;0,853766093892963;
-0,500392836045866;-1,9549818645908;-0,836928279511279;-0,585390569077268;-1,09859695398823;-0,306578246523184;0,449919872695753;-0,513773159130017;-0,224147959838628;0,905725034326216;-0,344425869752214;-0,721356089625289;-0,810697761236312;0,390632705501208;-0,358129681733664;-0,289998970389205;
1,11094084562549;0,822919565977029;0,308766697020023;-1,45078827606785;1,73857901306813;1,83461893578016;-1,20624194476998;-1,44305826293298;-0,0482618764304054;1,09914468133904;1,06473995847398;0,0823433022298704;1,66001902552541;-0,34260716135969;2,26706889293455;-0,107409907383853;
-0,502160335408898;0,174918601290106;1,91032416948353;1,13520940889574;0,171808400202069;1,50097893239763;0,13960133205509;-1,14672832264144;-0,595558154255605;0,552131090397975;0,770708460571412;1,13236009783891;-1,16852707653991;-0,494843365461777;1,14853057464567;-0,906542930585009;
0,362925365351632;-0,381401208110346;-0,782378762690923;0,313986463425862;1,84942365619651;0,507009963775001;-0,151706554351974;-0,831595288485296;0,323031436295537;0,941222686841143;-0,241195156361094;1,18900139765217;-0,110681760430899;0,138699385505554;0,122247706098688;-0,665998492503057;
0,143798715105352;1,94861756039333;0,256220197975324;-1,07705281401325;0,502160202175017;1,26277566928258;0,396482676506444;-0,529899054446306;0,581592367600648;2,80949367814336;0,225653830592264;-0,123239755502107;0,623902523483461;-0,443226011060333;0,535515007554643;-1,19639169512008;
-0,964363626787294;0,622769465057109;0,723374902888852;0,0747206214475873;-0,0769654473857906;-0,211528954935582;1,37285748698416;-0,980965864415418;0,192440546013508;-0,241977358826117;-0,497174027993182;0,175343595963902;-0,0534662770195301;1,88874159837142;-0,68331204973622;-1,70493108267249;
0,358147617912629;0,639711017517459;-1,49008963005918;-0,9642849289258;-0,125968958357266;1,52327490846697;1,08911050300095;-0,339645043543188;0,320327690374614;-0,305901113620124;-1,01372615288673;-0,300206725496903;-0,816170048230637;-0,109014643700387;-1,27920819501677;0,496301784782544;
1,4692785711115;-1,20902618502348;0,177447552616289;-0,889162098513755;-0,878020940903709;-1,57877018276761;-1,42601711165012;0,3524442072349;1,61429442318408;-0,459268024241062;-0,512567548981866;-0,814063105959565;-2,66829678305184;0,462815319765705;-0,275299053558566;-0,17369330078376;
-0,644350964376314;0,584655497965049;0,122055033593867;0,834443555251585;0,201133889055802;0,535639199959371;-0,360920340066317;-0,382471318959694;-0,521848374839045;0,311989117315298;1,12791315869472;-0,954717821041275;-0,23200506754309;-0,273219393993778;0,441209834063974;-1,15126743800627;
-1,1795471074737;0,271519417523189;-0,332066711107687;-1,42133657645845;-0,165161319949758;-0,368142246323513;1,08282080241128;0,220046592173975;0,64537076907803;0,94239550015158;0,437994012475392;1,91277828468735;1,24112745234747;0,322133411617581;0,0827812244087241;-0,847518868563727;
2,16041939836624;1,4307868298484;1,01291874743064;2,84498977784288;-0,794025748960999;-0,464635224373468;-0,678231900776739;1,37129837098458;0,26687697570751;-0,350687578014885;-1,20072836892167;-1,39361055719848;-0,963150227827385;-1,6662907845748;-0,180875437694545;1,53429254740105;
0,818258453890035;0,683875290168811;-0,237343039321835;-1,77317111379233;0,550580937256835;-0,133061876152577;0,488072248423453;2,32376424323236;0,282016728104108;0,338765896623042;-0,93383102986311;1,85522963458299;1,97924908035947;-0,757667494697252;0,391073357955441;0,465030831076181;
-0,183397766320761;0,098814185563206;-1,46212036833883;-0,86055696515881;-0,228106176384872;0,0241240620683703;0,167176365140132;0,479222932465112;-0,489764044474993;-0,390031776945621;1,98205882282852;-0,281919732841033;0,613565214945286;-1,26739652518341;1,14140761554797;0,184041429957631;
1,12089611982832;0,901499754147554;-0,0480107707476243;1,48061965668708;-0,170022344476503;-0,738347999861949;0,954920181123899;-0,277348980088138;0,684286138942772;0,115639244400604;-0,759182474538932;0,333284431969245;-0,458831275607633;-0,49912870448838;-1,10971711781332;0,28235450537778;
-0,0725594230458307;-0,318824898424939;-0,691206910954014;-1,04170652932697;-0,653407664818705;0,819992636955871;0,308840107642411;0,0225432282386269;1,66583396511207;-1,86247637416033;-0,349727271154774;-0,35352500323512;-2,13194099586104;-0,403080219620119;1,99735394624595;1,02413957765512;
-0,916644962152149;-0,595927472941681;-1,24772020002799;-1,80571055533595;0,327801103421255;-1,1825163681232;0,368499607729526;0,388600380219657;-0,851625335984222;0,97532244417602;-0,60221403703452;0,279208050116924;2,14757593991508;-0,492263618531586;-0,0934546264144601;-0,213760427299289;
0,560464678078232;-0,0564875808624712;-1,3140055483886;-0,118230863937449;1,45380228178674;0,0691213249860044;0,806604498808924;-0,708747805528051;-0,186704109501827;2,2901810796051;0,762614444919676;0,902788134534186;-1,55910689466563;1,02560881653854;2,03859743033583;-0,423498911479464;
-1,18231558791258;0,250170962894553;-0,332054907704761;-0,582294819143616;0,96936411216871;2,06180812348051;0,188142518470386;-1,50383963871228;-1,23772499863241;0,138671849271891;0,32976504228816;-0,45255986643263;-0,532808729615464;-0,482128606664774;0,968451650970466;-1,04788130331539;
0,815483471552428;0,0238260185990203;0,64408704145473;-0,209058673306508;0,685159139483252;-0,911766012031831;0,941338878448627;-0,110985935322133;-1,45703297383628;0,410303760637553;-0,49475138815487;0,140706705813574;-0,507606232645772;-0,252978977416803;0,963650621036448;-1,00087906609582;
0,845586097037398;-0,776640326967301;2,17175685786468;0,258981058233638;0,30477651807666;-0,453236703204507;1,30400561868087;0,48165599358342;-0,944240672689348;0,619549219007899;-0,0262464664761091;-0,291138529882656;-0,878415657360504;1,49863587224841;0,518981126333355;-0,433175304709346;
0,622625594200456;-0,0349447524133814;-0,441611840860066;0,0205135209182901;-0,213024207174378;1,51217123519998;0,169194781924259;0,076620337093985;2,32379018366381;1,48971323386707;0,622389158141304;-1,71699022744428;-0,896293204744453;0,799337340173617;-2,20072712939594;0,00596223150852529;
-1,02195904437278;0,56207483607859;-0,675256283884345;-0,736182214120475;0,0270078818296656;0,462426427384756;0,769884743950591;-0,162993068288852;-1,82345707105224;1,44474819411704;-0,59301573315354;-2,19070935580576;2,64449904578573;-0,59625487367068;-0,305667748339609;0,0971587946759447;
0,308225790973683;0,717114886454774;-0,581684096498366;0,588783030297317;-0,519974686227628;1,29049957610421;0,787489213042335;2,36313411781193;-0,597496190550586;0,20614486141214;0,852709819388952;0,670330554455779;0,208568161045203;1,86854490123529;-1,56378000985627;0,777027876342489;
-0,190741050350617;1,52627885757906;-0,745798140917441;-0,954084345997646;-0,622491011023461;0,476136737774061;-0,392573180489343;-1,26702276728347;-0,114470919922301;1,23600599095527;-0,433436935581388;-1,39342952436351;-1,77283423857813;-0,638547364398291;-1,17907235193276;-1,68162394025907;
-0,172328257421124;0,0397002080748243;-0,0830883582556614;-1,72211207552633;0,577045348364772;0,311606475549125;-0,623171832791958;-0,222809308355643;0,48425292700567;1,8282389260612;-0,675273881176214;-0,564999368352347;0,92205478496505;-0,456823161471521;-0,521383159959032;0,190379038349957;
1,20714840415401;-0,413735472216462;1,24319900813461;0,0748748265941574;0,472505278626319;0,804171960139749;0,119912722578102;1,35333704519598;0,711782050102823;0,879492744464523;-0,517215077048804;2,27075008914031;-1,04456832301535;-0,284067054996803;-0,593578366864068;0,790141525132456;
-0,932458816646998;0,798807015786588;0,75571460004384;-1,07195289926064;-1,36223743645453;1,23416018720732;0,775177206126088;-0,26563540962564;0,372328674113304;0,385600894395342;-0,226299946141255;-0,117682399473053;1,92006463495919;-2,12574459529838;1,37410832029672;2,35777708880736;
1,27934730917058;1,29109012508338;0,840353158843621;0,687850111691405;-0,238073437479655;-0,485671108583023;-1,13716462536075;1,27233211988524;-0,192485008293867;0,642752002641174;-0,715284622719225;1,35376848964231;1,176733549197;2,75159568159102;-1,07078509515412;0,435628339968477;
0,563089957162432;-1,89127390293095;-0,0798975794770626;-1,60579465027379;0,417443528778036;-0,0460383237262071;-2,29215810973431;0,0640997029054707;-1,37739965567601;0,260367379360377;-0,545422099465234;0,240002484561474;-1,65572867221911;-0,889846520356889;1,17333371468479;-1,66253040560383;
-1,00327088972904;0,955622708062281;0,93070389768533;1,1643659759818;-0,663253012841731;2,10967652898933;1,5929022848646;0,455747866140709;-1,54820406031469;-1,9076143684765;0,0402258723202645;0,136151791180962;-0,863982572380012;1,05176870442853;-0,853818612145047;-0,306071515751532;
-1,29324752142256;1,25416464773973;-0,568363293535165;-0,127532933944487;-1,88890544545742;0,538975392207234;1,0273331032206;0,955549643281585;-1,20866256696826;-0,558023690665024;1,41726895913148;-0,0692616139007829;0,909304231546949;-0,0923984645053286;0,924512420475468;0,318310891469152;
1,59394836851153;0,381257256041489;0,66772358578773;-0,0415314232360673;0,417986167458454;1,07739695450021;1,18132889144858;0,969200411551437;0,568531796073554;0,267872947356309;0,627171263661733;0,494056811835079;-0,418752244074686;0,749243356628911;-0,758999798121879;-0,797985951834379;
0,388513020213636;0,865699997854968;0,114695317118898;1,29794284734363;-0,0849931883986466;0,538568280450367;-0,65683744845404;1,56786157232442;0,122943740619937;0,829470767339576;-0,161967208610466;0,312753427398147;-1,25290078974731;-0,999628427451111;-0,799747126506382;0,394880880531094;
-0,412498857533536;0,168810641396237;-0,108833668121839;2,57865722413137;-1,80766659926551;0,753645907851452;-0,670022138279356;0,229349014452696;0,64856337576743;0,959783931744681;1,4285047531964;1,16190747902998;-0,0427462290481026;-0,745328922042601;-0,932803635602131;0,730740456331311;
-1,14516094505806;1,46343755503903;0,813711609119562;-1,75312289130076;0,611726530633461;-1,72039753759921;-0,0304995643461002;-0,677113094643607;-0,408639375735141;2,54350289041365;-0,0151318511893185;-3,08544318030626;1,57418443196383;0,701883697457013;0,0115503750341009;0,382135075893413;
0,563987712883274;-0,385242505047895;0,951794541305633;-0,816144515517702;-1,19571075277436;-0,542326941940826;-0,38623510029593;1,37735616739154;1,26170034155503;-1,73106678405973;-0,57574834611313;-1,43272679266348;-0,417814420830287;2,21157906280017;0,333820865074544;-0,229443822345988;
-0,981797299374961;-0,29393957694474;-0,801590330025435;0,668802037176955;0,45833796369179;1,1737014011669;0,725823459681787;0,336681922727144;0,37858822677633;-0,51882669764065;-0,304665420463914;0,718330253580484;0,0719438556819635;-1,98209043174414;0,471277100104868;0,616965030339588;
-1,38842894191008;1,4809870599157;-0,446996236656131;1,1726230236546;-0,844542260237504;0,0425936229923301;1,04542400839443;0,166234343255452;-0,589319787619984;-0,0785899808614476;-0,791948977107961;-0,800676699659292;-2,51753004838186;-0,796500966575962;-0,534679095436666;0,790480323125585;
-0,161537501346165;-0,355875099280662;-1,48897996328627;0,889339672876886;0,258430941094777;-1,65754408008838;0,0414403180610134;-0,79470315391174;-1,20248719063867;0,217683340983123;1,92270692254792;0,507211799966702;0,3046877358515;0,553552831811919;0,0774866011631114;-1,08317660681278;
-0,851209296328157;-0,49810769971074;1,38095908260413;1,69608446669757;0,129354816713562;-0,492076338740814;-0,821043638915986;-0,319051086280251;-2,11330423443389;-0,36440007906212;-0,0625923742625248;-1,4402665866213;-1,94935229480562;-1,21571885604784;-0,741649574396049;-1,12229972217757;
0,0494291492607543;0,861088703874211;1,48982100382851;0,657257718228108;-0,434882169492174;-0,176931802034744;1,10913574429084;-0,920380875641134;-0,115545533208951;-0,0455321304080473;-0,230596653881064;0,50634567324265;-0,852702240116958;-0,608910283883732;0,815852105324607;0,934673608062682;
0,697284004475766;0,680498095850686;1,68554625799159;-1,1558174579116;0,493404402538498;0,478709520952061;0,929824855239081;-0,545394631248587;-1,7834971435914;0,0789720706355124;0,844810855792441;0,758369238314761;0,872376642402325;-1,31361658238549;-0,266169781511498;-1,02604949768501;
0,38314002643794;1,71703551577189;1,2849369933501;-0,147256603064637;1,77133434464154;0,0548061103104348;-1,02734470709745;-0,164833498804051;0,0998429003522552;-0,736661208837768;0,655857548845457;0,285408142073696;0,244488572075432;0,265529433111606;-1,75944787131039;0,859072434104114;
0,668636058244131;-0,216395609214835;0,619167477153669;-0,827125213235232;0,338128425580117;0,266271991558735;0,782128828867015;-0,63537182384413;0,835516616279038;1,62374358067911;0,132399646740538;-0,668328587923097;-1,58486482633103;-0,434064312123496;0,527129677495983;0,903198468643771;
2,1915782115015;0,497633995027676;1,85667205892165;0,56867947274597;-0,132489882399077;-1,09426779360563;0,851311940906582;0,750427054315225;-0,861967954201261;0,559776314675361;-0,677933757338275;-0,209404517256874;-2,33456529512481;1,22305465645826;-1,08783125051296;-0,225606621875731;
-0,0311146643621423;-0,310938531273292;-0,701389552844548;0,910004479159691;-0,317298732266388;-0,205908893049049;-0,211454264877267;-0,669939337640613;1,96650151132947;-0,846372297842886;0,670797564463312;0,400588367234294;-1,19045972905979;0,0203505262705833;0,0590073407281535;0,421702081636163;
-0,437769657711643;0,188079377144899;2,44542506253464;-0,487597951093437;1,58599007747878;-0,144126326711949;-0,500420968682899;0,275062170402956;1,1785631583242;0,262219096257238;1,36221473820728;-0,754436315064982;0,8903006429413;-0,8306819073326;0,767083983625192;-1,45370092690476;
0,290716960388556;0,660314951476194;0,167089285697804;-0,342543795264256;0,567891768936465;0,272385156466892;1,06144906433071;0,747543588646966;-0,484140438513997;-2,03794575836495;-1,28707147408622;0,425188867167706;-1,35440602664325;-1,07200115652732;-0,241862440214856;-1,4089140072625;
0,333692241398796;-0,578367037463086;1,44254529607148;0,194975386005442;0,411413013604004;0,685414369116579;-1,2505938416861;1,11737104515351;-0,748451925903121;0,810485235178565;-1,55363209046646;0,833420995725069;1,26645269581467;2,58293330570315;0,114638918613186;0,352242129241696;
-0,983626560551751;0,95303887891987;-0,0565817249125606;-0,0133326014157043;-0,343732277152998;-1,86718849637979;-0,783827032544356;-0,503143359416828;1,66161536910089;0,785424186764905;0,000677384766740343;0,912674381437255;1,30685346296163;-0,348760155900772;1,68275379986118;1,30845537250335;
0,129746587510332;-0,0875843632116033;1,19344826814503;-1,03743816282844;-0,553314845093864;1,94517896240816;-0,433830314277931;1,11712482727801;0,410221506649478;-2,08468604057872;-0,500628603976002;1,22096973976156;0,586637512822117;-0,0276649049329066;0,506932527807527;-0,481627908842207;
-0,505316758359298;-1,47818596181362;0,420705520293672;0,0834655441243651;-0,391421594473829;1,67702605214976;0,496190312046588;0,243470547211775;0,552207466696317;-1,5549322789192;1,87977256561977;-0,877362301826729;-0,711003519305619;1,72221029370159;-1,80164264033712;-2,11770715482653;
0,483460472082124;-1,23706118191745;-0,620478143580192;0,116594741062505;1,12596943445978;0,271030274001797;0,0530803449341082;0,588391352456036;-0,511237289023284;0,518345017457402;0,0693282021410674;-0,173864684519986;-0,388533124087973;0,286701024513212;-0,0493606511473762;-0,0275702442796424;
0,112255150025707;-1,05102907247398;-0,111383262618277;-0,262377570051669;-0,70670416304402;-0,114405055900682;1,05891452049458;-2,4630235887905;0,858882320875065;-0,028898370735113;-2,58408731370573;-0,180516399702322;-0,844831206613206;0,931069992359015;0,279500830907473;1,15376802096659;
-0,310955554964218;0,584054162871908;-0,650933170523236;1,57510382977826;-0,515576781586081;-0,0542946126955922;-1,24530896272408;-1,75608303653102;0,937135806856464;-0,896554186234789;0,303271525843294;-0,286822951829043;0,0727069232206461;-0,285923648887521;0,0226961401502842;0,0270568809075951;
-0,0287308348065868;1,94567899167686;1,95876714474581;-0,472833826966332;-1,31455973402375;0,545918104784273;0,727178783574721;-1,59312091515936;0,159581392448209;0,057651909322567;-1,00882235820221;0,858644130775925;1,83153500930884;-0,334335587365909;-0,819171775620228;0,251579905874592;
0,605904628709071;0,394218039466956;0,86289650523786;0,994181617798843;-1,56706670066957;-0,653195925055368;1,06618756983804;0,728807909483087;0,309160912907001;-0,277283254298711;-0,1323573386549;1,38819161877156;-0,0663137598531728;-0,14454120089594;-0,929786027016637;0,180066762246244;
-0,440935276607365;-0,613115180333948;0,440915197951371;-0,650708905032869;0,325426536013473;0,658156987443435;-0,624024485668263;-0,680006179313398;-0,0378884044172713;-0,514890915833873;0,19988876805506;0,185430358002804;-0,196928377005334;0,980535117114655;-1,14518871275811;-0,495642458359595;
1,03179209129919;-0,363427042241887;0,652503296468049;1,24343603224003;0,617960171091215;-0,14803604147668;-0,633456967859322;1,13779620480743;1,24847802840423;0,0525263569120067;1,60874635696106;-0,999455219764204;1,28972588459894;-0,139968389146782;-0,136200275103192;1,15559954365665;
-0,455749387674279;-0,0983615122679648;0,063847748703418;1,09547054206767;0,488665585667959;-0,262782886852208;-1,69169102764327;-0,0563808256504506;-1,09544249977462;1,79573436400207;-1,47065944243255;1,21669212910446;0,452917361850697;1,48979382591199;1,01201069772883;0,571308652203325;
-0,558240067848;1,95152832053922;-0,0312296480082313;1,30690569101213;-0,0180636446315123;0,554767299871927;-1,16768846050062;-0,824948110769257;-0,856807133127559;1,04171829543209;0,674660694228877;-0,077758869278305;-0,317631170774254;-0,675931715132054;-0,30165871398445;-2,06116592145021;
-0,438907166580118;-1,04421186483446;0,00501932521244162;0,856277523258328;-0,302875360736673;1,29645779679841;0,244803629764024;1,99291385085947;-0,663148832497803;0,357937454554891;-0,358612739805958;1,57121292086306;-0,21304966391011;1,20088226458047;-1,690664561919;-0,394453843850097;
0,305238441351443;0,181634224456538;-0,433984453302917;1,17207301783858;0,327158699716125;-0,425501130269642;-0,571242760537873;0,362992979069351;-1,06147950242643;1,53031343649321;-1,78307984273617;-0,0720494385129894;0,386651715501959;1,61526922562759;-0,720896040386327;-1,62601134024868;
0,356919882026725;-1,0523051698121;-0,109128996088782;-0,166357415274749;-0,979567748962802;-1,00865916690078;2,45936451684464;-0,723876147388053;-0,137393952669071;0,00710869132678494;1,22415466562958;0,629700046572286;0,95785961353925;0,4975320506342;-0,246868878015188;1,01595109966841;
0,489585934250575;1,06836889748344;-1,48423153320037;0,0574105102490044;-0,465193526526573;0,240945933484368;1,4887786476942;0,219530058234288;0,823055265748927;-0,200647933102113;-0,831410464850954;1,60880332051508;0,893700362707025;0,795183083024004;-0,590686539708912;-0,887994544848946;
1,48991502181652;-0,246371978778642;1,35769013916801;0,411762115479191;-0,576905044582092;-0,942614220675825;0,7753966863928;1,05467779807838;-1,14884424297821;-0,958420318001641;0,381342779882319;0,432725527756087;0,309360515374888;0,211635222136472;-0,155133751722774;1,42318662829136;
-1,44271665039652;-1,43785419128708;1,247252260293;0,217266253510364;0,966432020806218;-0,469999457754753;0,286431471371745;0,912332584936941;-0,842224817109319;-0,0900109254042119;-0,127987794654281;0,788798105922892;-0,359084387219287;-0,0319346432540692;-0,62723916639506;-0,34081219185503;
0,875763737887783;-0,726079588604905;0,201795708485148;0,417952587451756;0,853501504047736;0,0211697081003984;-1,78351489518842;0,238269528273627;0,844495949018023;-0,263904202521563;1,36201701063989;1,49712120172633;0,497512658781256;0,468246331746805;1,59060263145426;-0,653235652500934;
1,64179698405975;-1,54902925515203;-0,772971494463873;-1,22861923436957;-0,399850111038697;-1,11617552802631;-0,168894656705824;0,407745867854516;-0,116472240794532;0,331318661885114;0,74390993796459;0,835115374119747;-0,606917222325124;-0,363035669136438;-0,753223187369441;1,01605897523651;
2,30708947830323;-0,482240895446921;0,928671271032023;-0,833450830813981;0,0556353922799796;-0,0384940204402621;0,0707306961330383;0,868007011390909;-1,27764677549542;-0,540705146003404;0,23375614575728;-0,745008049427935;0,6620471868724;0,765869773742865;-0,581544576098407;0,627840527256664;
0,0441701559027971;0,646418874258514;-0,860855540442341;-0,733982709581119;-0,240296130036269;-2,00626912360614;0,369839899159343;-1,47112873260988;-0,12329889222704;-1,63179641163934;-1,10313423713296;0,0684627392299066;2,28361975540835;1,45564676691666;0,241669591758121;0,166822726141352;
-0,769399286710346;-0,284992286028052;0,910404737067317;-0,442188007855579;0,161633974801027;0,69509990229498;-0,0744018650130323;-0,845777935183703;0,105631770995077;1,70961312240687;-1,07664757834465;-0,662364718699406;-1,47234706265334;-0,335380752044318;0,698159113786931;0,456249901562914;
-0,968836174600967;-0,0569649004346319;0,359039590524482;-0,165465087043106;-1,09829987319019;-0,909530075944202;-0,0533169015560494;0,799286804208857;-0,515684697084385;1,16620198247592;-1,65307192131457;-0,0180064970889655;2,09373531735283;-0,623292509814676;0,122347925198864;-0,421991810198378;
2,17125785787985;1,10987742948354;-0,493499947483733;-0,816042729096373;-0,304287916485633;-0,778213699370427;0,166341844189152;-0,675934711885833;-0,67114260068181;-0,22318100023352;1,09233958493757;-1,21981413855103;-0,00438999105521171;-0,510715652073312;0,662829152933725;0,381081514172459;
-0,176954993999047;-0,805714341660037;-2,5744179570973;-0,34878248247071;-0,133971002493609;-1,59144011039767;0,0354944849574109;0,0261732621532408;-0,844462069561566;1,59203896227716;-0,170373762787635;0,0463073147669652;-0,0443726996270897;-0,966999699716569;1,01422226026822;-0,185062117786177;
0,62635370519404;0,149025351175616;0,151101339914081;-0,285996696203576;0,240765728173742;0,669322154904064;0,0779698951188188;-0,326210109558719;-0,366357522704732;-2,48315617708995;-0,124973315586596;-0,783480351505799;-1,50696384778212;0,46770586037298;1,09043618814718;-1,03288410174732;
1,47335041293528;-0,347885761405559;-1,25315507212654;-0,19170945679866;2,09041060080916;-1,69523899213866;0,494360338050691;-0,183908943200471;0,543744157970505;-0,862650791914984;-0,84765798321456;2,73908217432754;0,228116525285528;-0,369017329510172;1,12643667379909;-1,34416162816716;
0,773512112649809;-0,148298971511367;1,02609689682024;0,524047187736451;0,0720720011410617;-1,0195653318725;-1,27018151306559;1,4693518336094;1,17909849242134;0,872781848451717;-0,777660127862074;-0,817900851653051;-1,59121419824892;0,192550239955933;1,63521304341424;-1,46957253588468;
0,180339573590081;-0,265728188591752;-2,17378475635384;-0,0871733691783322;0,380567694999194;-1,61556990867306;0,226052405104894;0,174335366034946;-2,31056701820297;-0,408555077867328;0,716072862250859;0,952222260462629;0,755111374184212;-1,46525567185414;-1,39703452118435;-2,23655377526402;
-1,21065044571881;-0,101126686213468;0,461874263647348;-2,93597113514539;0,692769806670686;1,03019842766203;0,548901648449789;0,055715175118368;-0,38715809656374;0,0348248284822826;2,11034031935514;-0,2143836303314;-0,867385031166557;-1,77356486303934;0,928772185985635;-1,31372707757304;
0,701030058452955;0,677880291304899;-1,2589174446559;-1,73748208135914;0,81544518016108;-0,818006808724074;-0,93205917783473;0,641960302791326;0,985123402700457;-0,176884819095014;-0,514724032531273;-0,829729755707529;0,300979303949075;-0,239421410085131;1,58829295841902;1,27048348200958;
-0,474680780955964;0,618294808444231;-0,849640984164484;0,364914590107479;0,965900933528263;-0,823367937575757;0,901274681463357;-0,0745999005845419;-1,26510065577508;2,24420675454417;-1,20486969801177;-1,82037385461134;-0,351907859103553;-0,315739196347724;1,50071217854935;0,85114775374507;
-0,00239709715888737;-0,381501423938309;0,220523003070967;-0,355003975809456;-0,961766091308695;0,115839938091801;-0,375220542088605;-1,65582663017218;-0,823406226236921;0,230536208460978;1,1166803073168;0,335865009255784;0,0722544926003703;0,532523969148504;-1,10094255309953;0,522179368565421;
0,584471398218331;0,562077958042393;0,657839855788081;0,891787724431025;0,188297310947019;0,563177237690192;-0,877082343010219;-0,0962898088639711;0,23779561487057;0,495257564050616;0,192917674143581;-1,77505839838375;-0,249563951939919;-0,342836023995338;-0,554141677769476;-1,32974763347826;
-1,10221129942903;-0,328027097837815;0,356534422324815;1,74552775284241;1,53667695112031;0,705942885960613;-0,493784528996698;-0,801914876092663;0,928864416448846;0,374415566787733;1,80572707214029;-0,888822408527796;-0,38021021041649;-0,478935707424452;-0,69482559878735;1,37692455648955;
-0,396116006538989;0,742796175730558;1,87024508451372;0,260847045893858;1,08968688095963;1,17181447259098;0,112513087094897;-0,0280096454958389;0,0461495534919253;0,294406310694398;2,32333969283039;-0,847913748875026;-0,258136128991472;0,717236081578367;1,26316161109174;-0,449456336003303;
0,345948962772046;-0,121304275068497;-0,179348749486666;-0,696094747874953;1,15839366440111;-0,624446474044078;1,81882444474707;1,71041187985455;-0,658978207309602;0,196251348436291;-0,132268088898925;0,453919733780187;-0,615073565493638;1,67036444719827;-2,42669763453875;-0,0513789930101839;
-0,26507429143693;1,08911321103713;-0,489191391924515;0,36301667282186;0,54828179774996;-0,449032398888418;-0,110364695802825;-0,797425736448132;0,619366445817525;-1,01807826543157;1,49589079197566;-0,127551077584429;-0,152840117957569;-1,4809245086453;-0,915428587791399;-0,669703202362878;
-1,23491617966599;-0,314285863318215;-0,448512596247926;-0,892310749980554;-0,18535966762257;-1,02264417070285;0,473564075586486;0,297601924245506;-0,00774400448650895;-0,773095184472861;1,21859225239192;-0,808585335050543;0,0661300565706589;-1,32061146715552;0,213122965325382;1,17206326160873;
1,39024285043455;-0,988831270357617;-0,319012617243881;-0,587092341845392;-0,639184708101352;-0,317511152904349;0,119171031486567;-0,00909276965642857;0,195642232644189;-0,770180036447236;-1,67163502502058;1,19155854853015;1,45265378855397;0,673201065565361;-1,12017313580066;-2,14039103200957;
0,0784984577192836;-1,27397875765091;4,01511336335407;0,383679491935034;-0,721914530614382;0,786931385038063;-1,12841055856916;-2,308032607006;-0,826906708765264;-0,0675496350861744;1,48710076303841;-0,0475210365483994;0,475563530201096;0,107400313471916;0,267409302601492;-0,987141924353689;
0,396088497490927;1,35490093125041;0,443030294666391;-0,782437094004988;-2,49394457127326;0,715340054854238;-0,369451175312588;0,254469023039465;-1,32292028224768;-0,595888267144698;-0,085941638130381;1,15461138012739;-1,02815686740317;-0,29402075570876;0,160895607942288;0,715578557653079;
0,853999710630253;0,519922253792185;-0,732534259754786;0,198738331521203;1,41773863015419;-0,958752485889657;-0,218956732756867;-0,103040039784631;1,10092276986838;0,374127368892383;-0,66311337020053;2,10123033572113;0,298943569348668;-0,71051149063802;-1,83652290452758;-0,105498556157843;
-0,365255369771969;1,95261588672597;-0,938972525165355;0,856236834551104;0,774488417868419;-0,456262445213215;-2,16551843223169;0,115483187685142;0,0794956181204966;-1,44036909758243;0,984587929960339;-1,08682004320293;1,50876687220552;-0,577633904885075;1,63230952609987;-0,349579403056719;
-0,161991874405192;0,711985593220188;-1,19819290267488;0,230768691388926;-0,883740663922509;0,468370353611994;-0,163645562329284;-1,55694791777311;-0,118895899393342;1,7701449304191;0,324525249228252;0,0650776929766829;1,23559587840328;0,408904327783928;0,870217484571127;1,12291070781069;
-0,346714780733827;-0,000194101450170944;-2,14390744800229;0,252985133582009;-0,862637068365365;-0,357444659877081;0,498419572302313;-1,29251121419405;-0,281243945423391;-0,683123900981197;1,62953007418392;0,384026353468449;0,843834382339103;1,65186221000898;0,0925275936569031;2,12049102769988;
0,974693250748431;-0,626302226594415;-1,14928278629961;0,909834982505843;-0,211491314510945;-0,514865747026785;0,70952572219708;0,773672735438597;0,0292334617293457;-1,83032034609409;0,652489665885216;-1,79795265762035;-0,289682497776759;-0,598087793363393;0,131030216777952;0,300211583287409;
