-0,0435183373004364;1,91033202191849;1,96604659244458;-0,468896974067025;-1,32948323758092;0,543737765200842;0,71908297946901;-1,59248680540038;0,172288096304523;0,0429823506053936;
-1,02036242301451;0,846456581691707;1,8139900664681;-0,330239995748447;-0,833567930107711;0,239140304321698;0,590414127517615;0,378668125574128;0,892787386401119;0,980482550125157;
-1,56442091521046;-0,664598711662114;1,0569052554605;0,724258757102358;0,294054634672502;-0,276691524978605;-0,144768491531838;1,38597641124754;-0,0775978704733345;-0,154521998647438;
-0,941290911975855;0,172640278563324;-0,453183338950734;-0,628688154748967;0,424081159500248;-0,646071690815349;0,325802802766532;0,658244835149709;-0,600792540958573;-0,694995270225611;
-0,0483766782537206;-0,503025365556783;0,17637058805232;0,182774315216673;-0,23183543836646;0,988876238049331;-1,14630576689562;-0,504306583834427;1,03977816972238;-0,390997327496055;
0,653373037793141;1,23407363476099;0,61203267502723;-0,147474076765456;-0,654509818416437;1,14290055981219;1,24184051043608;0,0557084446008867;1,61205170251802;-1,02003577832396;
1,28088249912058;-0,14864498202751;-0,143116894188803;1,14395835430352;-0,47605807920345;-0,112479128194107;0,0736199641981012;1,0953513193701;0,501595210114511;-0,279588719519256;
-1,69613613400131;-0,070751801949328;-1,10486749284713;1,79711704930382;-1,49596110405893;1,21462040184384;0,439261871912411;1,48675922762043;1,01910979567231;0,548284820173529;
-0,573551667224367;1,93336358600612;-0,0395663898736076;1,30617256892422;-0,0333866903673666;0,558790666119012;-1,16429783294206;-0,831911940997867;-0,83466509189339;1,03799735916485;
0,648506854055936;-0,0750813410087426;-0,338915273763312;-0,670752826060382;-0,315653209914188;-2,06771351244527;-0,447420054312931;-1,06543838078957;0,0414036178671041;0,848682248085796;
-0,305209529720382;1,28711873997347;0,238936855097422;1,99623278098991;-0,669653308303662;0,370833264890931;-0,372949287134911;1,5659791371694;-0,203780752590897;1,17622338856371;
-1,68892716427954;-0,410812607796734;0,296552720853436;0,162698413779199;-0,417198932471044;1,1729129104675;0,323299417597385;-0,425275955356825;-0,577665467733354;0,342618689717054;
-1,06013320513274;1,52912975131211;-1,80534708905864;-0,0775101178158252;0,382044885516364;1,61161242661161;-0,722179968173497;-1,63229830657376;0,341810860499679;-1,08422245058594;
-0,104744450069537;-0,169646950317713;-0,989071834456494;-1,00811550623974;2,45076295926913;-0,724535887811652;-0,13555031434042;0,0186217771301593;1,21379247913532;0,618597517526795;
0,950551184669405;0,500125921835624;-0,254742282311898;1,01221419681418;0,47795097474232;1,05152388338908;-1,48653759903462;0,0585867381281396;-0,457886269865334;0,235283578654841;
1,4880026678118;0,213673832151552;0,818168693334992;-0,195205498154276;-0,839219885514823;1,6078070515749;0,89083916389897;0,798029337250905;-0,588994805910136;-0,901615160850858;
1,49235207843848;-0,269197682885912;1,36798034472678;0,415080662315788;-0,579893445571556;-0,941261329906414;0,775379023549594;1,04400286592242;-1,14925959264922;-0,966610638910915;
0,374189781989308;0,420245473712913;0,294777010650995;0,214827078075533;-0,156745480842829;1,42203582648489;-1,44333450111445;-1,44449336231996;1,24499472444587;0,20989095990805;
0,963474434455823;-0,472535931884958;0,285223649647323;0,903704638258496;-0,845576836256484;-0,0903800924277816;-0,13798701689391;0,788113394501247;-0,368141548478563;-0,0376602171849156;
-0,632500217574649;-0,342225183935631;0,866501934433705;-0,745612876499977;0,196951956859998;0,422393384769718;0,850558235142102;0,0212049886255599;-1,77790427465085;0,240349654095558;
0,836889421321966;-0,265810436225504;1,35898906457439;1,4999505980807;0,495094793188775;0,478899676884436;1,58343240797572;-0,66913008146333;1,64762800394198;-1,57894318196873;
-0,778148967094113;-1,23086345616746;-0,404801077716163;-1,11310301839132;-0,173815543912561;0,410415145346813;-0,120847198851999;0,327317055972698;0,745034912145224;0,825308499029069;
-0,622044005861259;-0,375473147354136;-0,76571781186293;1,00940361103335;2,30411535849589;-0,481829037010585;0,925123616568144;-0,833989271551644;0,0567219473775926;-0,0488717333908269;
0,0696386852769558;0,861489899765061;-1,28597172145443;-0,541102703912386;0,220524991415881;-0,738221123040997;0,641022289916494;0,771690683964684;-0,569598580344759;0,610698944524504;
0,0386412744393247;0,629120864324857;-0,870154222793506;-0,732574715817244;-0,242332491511204;-2,00110435057997;0,366262328293605;-1,47112005864062;-0,110494718296059;-1,62568820017113;
-1,1183593009964;0,055934041567257;2,28117960539049;1,45532099270603;0,225679597236641;0,160359151024308;-0,780403065586492;-0,307926337746056;0,952438689143092;-0,456339209912167;
0,154873937419072;0,685767039272469;-0,0829164478756456;-0,847488865755005;0,097224771840791;1,70671850629579;-1,09530216461941;-0,666400610287865;-1,43875509869808;-0,351825110217303;
0,695081407294789;0,441678802063554;-0,984435100143834;-0,0646046814695881;0,351743313109903;-0,168508036578004;-1,1094388898701;-0,909458389089029;-0,0263391927828679;0,785539193698093;
-0,517504861443821;1,16082114887309;-1,67707711881884;-0,0178925281537093;2,08313352611716;-0,620757498753147;0,1208788660278;-0,424402542579261;2,20220569021498;1,10448547207921;
-0,494451767322565;-0,810914725915985;-0,312634352016437;-0,777287758085324;0,15409674126551;-0,657770766888824;-0,672713331245411;-0,222961529781157;1,12476591078924;-1,22440982412524;
-0,00796265543540466;-0,521965763009106;0,662208999702643;0,382600075652553;-0,192723158528759;-0,80348965265481;-2,56116126338692;-0,347754575533552;-0,0983086479563479;-1,60447898242129;
0,0338157582175924;0,0340384005410776;-0,847170811662649;1,59333171864126;-0,17752733231668;0,0454013416756521;-0,0506628223324767;-0,968458790126286;1,03862744216153;-0,198254376796959;
0,624471101186168;0,126325668079651;0,135546778305676;-0,284500464873291;0,223519926171741;0,671035501515795;0,0759837869925854;-0,318018748820442;-0,339586604931692;-2,48152099630738;
-0,130810528894919;-0,787559687392379;-1,52124468521023;0,473617126008175;1,07681293485269;-1,03452884946412;1,4700097603986;-0,345452782520062;-1,22287169341789;-0,19987710033538;
2,08489540849627;-1,69162831952977;0,47930573403702;-0,180637188523089;0,532974040609472;-0,861535920355174;-0,850916236941499;2,73614253879481;0,257613005520518;-0,375252652366592;
1,12537742015166;-1,36037758345198;0,76977059901048;-0,145528535094649;1,03321107877601;0,524800336690935;0,0665768556868395;-1,02050113767384;-1,25732717763824;1,4588152874247;
1,18245879765726;0,864282405080468;-0,778378333030667;-0,81783099654929;-1,59729395287623;0,189943212668296;1,6289529841751;-1,47693798402456;0,188229011775464;-0,29413973694335;
-2,17892266114703;-0,100250587629994;0,359283141367584;-1,61338078402137;0,218552368900882;0,178635145237627;-2,30843747482604;-0,400486511142597;0,722938156487292;0,938557329266432;
0,75460473928971;-1,46498170610773;-1,40752713607899;-2,23936929605581;-1,22035327985505;-0,0960823413123324;0,460819561950379;-2,93563883855895;0,71014980893488;1,01995552206676;
0,546433491072474;0,0595381943336563;-0,394983472128876;0,0396711437151978;2,10770583362618;-0,214472643867802;-0,862244332390953;-1,77402610550736;0,94811991657769;-1,31846570282584;
0,701094116462428;0,671128741726728;-1,2461195518844;-1,73617001313599;0,810386397822524;-0,818967404395498;-0,940745849100024;0,645673902091157;1,00480969018373;-0,178622349012814;
-0,512306120512962;-0,8406338955315;0,305606738998287;-0,242428590398234;1,58334385753987;1,2657086666755;-0,481292308725194;0,604459695394002;-0,83179667098498;0,357144095370694;
0,962315390249714;-0,834016637400181;0,888123298744376;-0,0706964024025996;-1,26548363636035;2,25386138538861;-1,20972462115343;-1,81885190756026;-0,335772195394705;-0,323721857699269;
1,49321105316016;0,846587423334245;-0,0164322788515162;-0,374011178267926;0,226761741414458;-0,351112751653302;-0,960634375628572;0,115488856792939;-0,358267771070806;-1,65933852426296;
-0,825916819815609;0,236850132025617;1,10948581538219;0,337656117517877;0,0717756518774084;0,531406819167613;-1,09690514015628;0,518995584281473;0,597717478546845;0,559465185343646;
0,665430325795176;0,886299403573663;0,18362683986045;0,565147762170276;-0,880779903524145;-0,0882643560697201;0,232180551302886;0,491670640260457;0,212543542279053;-1,78408956392355;
-0,262061584634964;-0,344221768483319;-0,557049511525726;-1,33073853352609;-1,10563881856553;-0,339173221976018;0,357970844439359;1,73976177756339;1,55141188700048;0,699000864160367;
-0,494083066886303;-0,811682966405608;0,911482965142734;0,380782355813051;1,80246882173799;-0,885280350829578;-0,385356651851807;-0,476300238751823;-0,674485411347021;1,36678604381433;
-0,401851640494399;0,745334549967072;1,85384326473718;0,266160611901391;1,08322672303198;1,17599414106611;0,106568117751265;-0,0236203846248143;0,0662755151246974;0,283195902455474;
2,32646172158387;-0,842333729472243;-0,278787226980214;0,72610907974281;1,26323502075298;-0,456134665302123;0,34777702703375;-0,124001238753176;-0,160986624668657;-0,695044939193186;
1,14775148677871;-0,635061216926235;1,81408722641512;1,71305579704297;-0,669907978305088;0,191009991041843;-0,1421769440827;0,452709878921498;-0,592108491578307;1,67323452016087;
-2,43611280377325;-0,0739306943193855;-0,271865708041289;1,08110682723978;-0,49826002776089;0,357501035549238;0,542311108533371;-0,449987252870903;-0,0714922641141734;-0,809971504526516;
0,617522261275823;-1,02701609042639;1,48445975341783;-0,124882454722696;-0,170842647982943;-1,47814427568594;-0,923741503395739;-0,676798643448073;-1,2081075436125;-0,324996618909471;
-0,450183277053124;-0,896972478439815;-0,197131625210377;-1,02338470914262;0,464366700342319;0,299247480626367;-0,0107867158798364;-0,767177194436042;1,25543365840681;-0,811636371735365;
0,0631906788692551;-1,32101192022047;0,199258291771834;1,16984834957579;1,3861952840566;-1,00108841496239;-0,316279414004827;-0,589412015124979;-0,606720608847172;-0,315987782405052;
0,115919160301482;-0,0196150936264634;0,195913112444572;-0,767021760746439;-1,68556836026664;1,19394783322421;1,44668795197856;0,675612701919234;-1,08372918280685;-2,15049268972999;
0,0697899015085815;-1,30479904281756;4,01451358373313;0,38394732753267;-0,720759626027991;0,786837556594386;-1,13000652971818;-2,31697299378058;-0,791737615935663;-0,0673513732472569;
1,48462461197347;-0,0601084263423009;0,467949923937063;0,108761638381797;0,256971128383142;-0,989137263202643;0,383997357494219;1,33290553463158;0,48009428549842;-0,782987650324358;
-2,49323249954397;0,709943125823161;-0,381363262656675;0,255767899488785;-1,33473276389132;-0,591768839572901;-0,0988756175511614;1,1515718341575;-1,0078042732707;-0,293343397715291;
0,15465091278648;0,704857328770916;0,832235686542065;0,504808575887632;-0,72174592426571;0,198699016949943;1,41873978528439;-0,959022630744537;-0,18121274886213;-0,106522636920653;
1,09404632210936;0,364492745144687;-0,671539929051705;2,09843959710961;0,274361509693239;-0,707139595496855;-1,83986151784152;-0,113507656064556;-0,343344655551339;1,9258576846748;
-0,940014209929664;0,845855687559942;0,777223911422959;-0,455697988891646;-2,16113028916296;0,106953703956691;0,0770384718085931;-1,43414190009825;0,991063323786424;-1,09762696918404;
1,48283381059383;-0,583909200833024;1,61669802564998;-0,359228597833862;-0,173898182408335;0,687681324835258;-1,19490528371513;0,23326567509283;-0,869884427541476;0,461646038068208;
-0,173677422924493;-1,56275434911446;-0,135761709943041;1,77147035508915;0,306893403957765;0,0632570651486728;1,21899990229631;0,41151841218513;0,889119193707143;1,10280668976052;
-0,358344938668912;-0,0209358005363607;-2,14373750038066;0,255569521376513;-0,863379246496553;-0,360291195097221;0,492881907496649;-1,29751107541702;-0,255734385303188;-0,682711624208484;
1,61138805078712;0,369757442508185;0,822852155511799;1,65424165931352;0,0875535984618935;2,10178121417488;0,961362547170446;-0,644013624634655;-1,12257052754127;0,910078722239784;
-0,214573247691369;-0,524924113345781;0,712764788802412;0,764424852352172;0,0286046329456618;-1,8265241304908;0,635532663388911;-1,80041200849946;-0,287716071254499;-0,59169370077713;
0,123921933864212;0,277658131460494;-0,242987029108127;-0,168545746498886;-0,912251419623805;1,27219105469699;1,91856466984046;1,05449490750733;0,191983301805079;0,359546300066482;
-0,960799026416766;-0,618065084926333;1,29975824020487;0,603383120826182;-2,52050394586697;-0,208667353970131;-3,27756799019857;-0,591326157992635;-0,270863850418208;-0,641925760520179;
1,04727141163406;1,0429115410974;-0,0135734973053488;0,796785516762063;-0,373200611215637;2,02117227699027;0,422695378878852;-0,839783328175566;0,949150430884917;0,0956366282105576;
-2,02850057187611;-0,844369553828872;0,289292558090672;1,88753618769393;-0,0862382027297917;-0,42524777484276;-0,575991307813709;0,901711983231892;-0,801717829159116;1,60916637025002;
-0,684893968956923;1,17387139150007;-0,814853460896536;-1,71898997382738;-0,572370686433054;-1,62401608034131;0,468607532850398;-0,527023193699988;-0,895678139674471;1,46036503147626;
0,275063752659798;-1,09657836895868;0,962558534993183;-0,18159117472514;-1,34366546549299;0,283209755485694;0,134284311493097;0,0958279910048978;0,911285476669783;1,71743985069149;
-0,238968420408562;0,874809603778789;-0,258860579770197;1,15188582498693;0,300783461373576;-0,352115210384919;-0,229321995189473;1,26225400059584;0,278980561234586;0,00592356709202401;
1,09650900954048;-1,4031208939248;-0,299976008043078;0,134713220692837;1,16757972121621;1,65932513469832;0,736784051843276;0,230458568705258;0,270519500083259;-0,396289581695428;
1,17274921425022;-0,626680487120068;0,0194668021726917;-0,360553433629632;-0,24213047153347;-0,978683058106423;-0,710193619399696;2,51632701972198;-0,455778563179582;-0,133811774974113;
-0,0387056187105382;1,92973043929504;1,95611018480624;-0,486523709327513;-1,3164967670237;0,545517875516241;0,724188205793121;-1,5974197230912;0,148821654225147;0,0606671076452043;-1,01748107172594;0,856199720097264;1,81102167580374;-0,333377812459008;-0,831427527177176;0,242288855157748;
0,593609293957357;0,386968734209179;0,868764451975962;0,981042278594622;-1,56201037880015;-0,653187006188733;1,06619218373158;0,718685287254124;0,297917492738418;-0,276316548172927;-0,141508241601001;1,38537657161359;-0,0908288153429165;-0,144289495508063;-0,942790343520137;0,172792555234623;
-0,449468073659099;-0,616691488664804;0,431550388600355;-0,667063171523624;0,32817118821901;0,657466220326532;-0,617120697339765;-0,696845876282109;-0,0461141518024154;-0,507268784010193;0,181118614388149;0,183625896438248;-0,232658814313638;0,986894484236055;-1,15316564862265;-0,504800093394913;
1,02008566671323;-0,370301405989574;0,645609763088846;1,22769302005095;0,610392678140909;-0,149146060660726;-0,639387740409571;1,13398068408758;1,2391943072552;0,0576279804478051;1,59075047396394;-1,00151139019955;1,26994374056927;-0,139707920392212;-0,153329023004619;1,14226720930881;
-0,467426967208595;-0,09955899692498;0,0656406189625502;1,07969889600404;0,485202640425744;-0,263697466295336;-1,69362858845783;-0,0648217326016402;-1,10167439661563;1,798078779247;-1,4860157381948;1,2107865366387;0,43053346352721;1,48634523466614;0,996137490648694;0,560771147114241;
-0,57198939949754;1,94116917859388;-0,0423827168888446;1,29038901241262;-0,0205666206257274;0,554343590301952;-1,16240556903517;-0,83918599539012;-0,860683634927568;1,0473634434212;0,65564607683066;-0,0796856954060142;-0,335286518123143;-0,672472386074395;-0,312539259873106;-2,06962693368831;
-0,448766284899457;-1,05716372523039;0,0121651789672659;0,838515440998326;-0,305731091627745;1,29564184729427;0,236570544974326;1,98849715489449;-0,66702518855169;0,368290695900665;-0,374380396935712;1,56776220718622;-0,211735768088748;1,19350573965458;-1,70285307068826;-0,401112505359812;
0,292114443871368;0,171881488694214;-0,415881604445872;1,15074967550867;0,321428651892163;-0,425220593221094;-0,576899413287899;0,350387164133892;-1,06475353652434;1,54249439601844;-1,79880193200152;-0,0771582176095826;0,380249374368402;1,60672565200328;-0,73371863272741;-1,63371626834032;
0,342269218015896;-1,05373553322452;-0,110812457369749;-0,182671111998116;-0,983644164696519;-1,00910236695901;2,46100756605133;-0,735935435837955;-0,140803162725994;0,0177290199725489;1,20620053451704;0,627512798355151;0,945866838084455;0,498383789747549;-0,259904691198772;1,01144876857683;
0,481883697706542;1,06417880926619;-1,49955822578774;0,0423456203005481;-0,467133709547702;0,239753121717871;1,49082502111146;0,212976386852951;0,812857739468348;-0,196907947929066;-0,838778778469276;1,60763756910939;0,882052797002089;0,80145907769272;-0,604113576154392;-0,894538715914172;
1,4897304456664;-0,254437423040369;1,36171764401666;0,408819188820284;-0,57808748941704;-0,943859879515048;0,77454713218585;1,0410095020316;-1,15248954822249;-0,957548291836815;0,378376801116116;0,433813429297831;0,306810078723475;0,210329459986429;-0,157122025725806;1,41728774278532;
-1,4467365941657;-1,43860835297517;1,23797950792924;0,216119807041477;0,970936001920899;-0,471703474591854;0,290398360901806;0,897763051622847;-0,845099196767176;-0,0940338705404265;-0,139019351885021;0,789689091556456;-0,372254663279743;-0,0334394100124461;-0,62850434683514;-0,346497820453153;
0,870179721413339;-0,738733127155605;0,193358704991354;0,4152986076987;0,84689742286992;0,0185350133167575;-1,78524245024493;0,234971489849561;0,836524814899593;-0,259335565560971;1,3574436951192;1,49951856239769;0,488585382847163;0,474705946782724;1,58382817582774;-0,665274008249892;
1,64143420763296;-1,55445891344737;-0,782997001957396;-1,22431636609098;-0,407279866916144;-1,11795028362644;-0,171071491269922;0,406847339347181;-0,122614232642476;0,332323687920298;0,73840786304633;0,834644905810341;-0,627459585603071;-0,365582700797575;-0,760211450210844;1,00737950956042;
2,30358650519804;-0,472998365640739;0,917926899692666;-0,83242098406022;0,0508744318151605;-0,0407165230200188;0,0764225663539494;0,860539740881669;-1,28087200666714;-0,541541088226366;0,218902864589606;-0,744020542731017;0,633628663534121;0,771274224737788;-0,585414656311104;0,620536180205537;
0,0392805305043756;0,626749523294152;-0,868125529956219;-0,739640427629396;-0,246374058768201;-2,00615460553027;0,362910950281172;-1,47435305720218;-0,123560248904544;-1,62522400232116;-1,11150977966906;0,0701474576371749;2,28403252790419;1,45209410424608;0,237876135349874;0,1620502482331;
-0,775515905703297;-0,301687891148753;0,912407286075532;-0,447287634401184;0,156478382024769;0,693374142874761;-0,0832566588657399;-0,853993674525684;0,105882537158076;1,71189843153306;-1,08911655681681;-0,664037359089352;-1,46740881271904;-0,341801082230441;0,693960905392245;0,451913913792069;
-0,973358018933852;-0,0585341444990078;0,356831455356042;-0,172253440189245;-1,10552856191846;-0,910484014833643;-0,0512589496175966;0,785628631209284;-0,51566200981297;1,1619060033764;-1,66931438162855;-0,0173308766283392;2,08630789454335;-0,623362911893754;0,123371467970367;-0,42460755796605;
2,16937727676234;1,12397719536477;-0,495449595685967;-0,815267142291039;-0,304005243428966;-0,78003485575122;0,164552754053481;-0,661275732707038;-0,671740672814516;-0,222065406286746;1,09312708628201;-1,2202916603198;-0,0134607735513028;-0,51401933134615;0,661110662980772;0,381084595464719;
-0,181450508358269;-0,791750611381776;-2,56169520012642;-0,347467033795428;-0,133892744904511;-1,59281026471792;0,0335754267684376;0,0396775171365038;-0,847101106955883;1,59125845319815;-0,169594082789556;0,0450338042270085;-0,0549907975345083;-0,969374698106744;1,00693299015808;-0,185650645596198;
0,622164559669517;0,142817292736116;0,141397182223353;-0,290401310691259;0,233583155786466;0,667342818271278;0,0776741084884348;-0,321259780516594;-0,367809328275045;-2,47307709393119;-0,131643785751558;-0,783162710073549;-1,51047383678581;0,471878225617592;1,08715111910087;-1,03813537207323;
1,47166176223249;-0,340874902590778;-1,26125325616754;-0,195759455233616;2,08683014636605;-1,69556087429005;0,487399614122062;-0,186105088729664;0,542240064369932;-0,861518997595581;-0,849216352585107;2,73828740282389;0,228041388127026;-0,370462405042524;1,12324585622863;-1,35171699162005;
0,768195319467873;-0,140838622537005;1,03734833212337;0,516622843983181;0,0657221009136081;-1,01987975570499;-1,27655041457129;1,46835595283457;1,17609111789602;0,874388620684432;-0,778332497020593;-0,818985116056948;-1,59899328638777;0,188229445699318;1,62782517152577;-1,47685145068601;
0,171146662404854;-0,265278400097181;-2,18488105910401;-0,0893701716331909;0,371319547446338;-1,61697107936782;0,227945017937555;0,17434034556152;-2,30990762591176;-0,400201505318322;0,709701973905041;0,95072971607313;0,745362854623342;-1,4619953031482;-1,39928541822695;-2,24036028840141;
-1,21362869318982;-0,0852960613381968;0,456426652016516;-2,93637597650884;0,691623546790938;1,02733245569579;0,548037761353534;0,057300070833297;-0,387127249095301;0,0375241589928652;2,11142009596074;-0,21441631971901;-0,872210683176297;-1,77474924912755;0,926067197694655;-1,31190143512813;
0,70578008325025;0,676851356784022;-1,25206008471468;-1,74021004118286;0,812261542132638;-0,817919290038746;-0,939863975744116;0,649025059222958;0,985118393651608;-0,173159279610712;-0,514446100567677;-0,831852095636226;0,304535423032982;-0,245344465571027;1,57982879920337;1,26439636774422;
-0,47576269825417;0,605134757978809;-0,853411927061741;0,361597462484594;0,963147169921019;-0,823206092155739;0,901038907259624;-0,0759005446696777;-1,26370600652509;2,25153216244727;-1,21063321845397;-1,81850625443923;-0,352005537409042;-0,315892106696935;1,49163211993506;0,848646070654;
8,78854176305629E-05;-0,378995357121248;0,220803459412581;-0,3569239096672;-0,961133284175038;0,113057606733057;-0,377776886624448;-1,65062926764674;-0,823071669697339;0,235474316314299;1,11900242040072;0,33461659753006;0,0704596643356311;0,529812309156437;-1,10224638058428;0,519079378466599;
0,582961831512889;0,561915770612429;0,663180224279238;0,885542986535811;0,183339895877114;0,562907019648447;-0,877770020114274;-0,091855456131497;0,236355031977875;0,49432457391817;0,193741472425277;-1,77559897081618;-0,261444272993127;-0,336718280450241;-0,560319131137111;-1,33291797266416;
-1,09803648453051;-0,34172658225776;0,354493142683403;1,73612626523977;1,53295159876;0,705749562852131;-0,491242111959399;-0,803283264907399;0,926465909664113;0,374695974428297;1,80332278767768;-0,889424741853966;-0,386192916807706;-0,472635772180419;-0,696844682050788;1,37553894020002;
-0,395422399742511;0,744501987251393;1,85702945917618;0,26115637658771;1,08267881533736;1,17059299791229;0,106913012067411;-0,0218504856732048;0,0407477677880427;0,294827090616014;2,32521368063465;-0,846814195900267;-0,268074801881856;0,722524131482778;1,25349836112173;-0,459619754392142;
0,350515951469956;-0,122319496417451;-0,190247582983892;-0,695004871034646;1,15421253863637;-0,624590169684095;1,81367955650698;1,71065851208553;-0,662731871673728;0,193276243095084;-0,137766054003724;0,454530924776907;-0,63304504939441;1,67943444086653;-2,43552321938179;-0,0666544864294481;
-0,265700823089137;1,07859583854476;-0,502160097047326;0,358935216374466;0,546382524339412;-0,451806992087923;-0,106644515756963;-0,803779761040019;0,617456051709135;-1,01485085124954;1,49635383005263;-0,123410515330359;-0,1688767661131;-1,47256016875065;-0,921823392710626;-0,677389877090813;
-1,2324652765844;-0,322912627024265;-0,452293724141917;-0,899834829022972;-0,189730022365443;-1,02214521311337;0,471827543913673;0,296605500181185;-0,00597174583433762;-0,768934799410007;1,21965685781968;-0,810315698601511;0,0640463685836809;-1,31959865497098;0,207263470699519;1,17072138282207;
1,3947081633263;-0,999883694465456;-0,315968805866253;-0,595528995158736;-0,642110091978946;-0,317199972088387;0,122301971670572;-0,0140443792886049;0,196960322814998;-0,769896448292828;-1,67966183498766;1,19217571110376;1,44947027137801;0,677879499926323;-1,12612374130307;-2,14242267401517;
0,0795191970095127;-1,29659774974322;4,00091725475456;0,377355143807805;-0,717349924381138;0,786094477755962;-1,12663554027506;-2,3212759506554;-0,824572652586274;-0,0600672700551554;1,48332869861629;-0,0472641217256337;0,478993042048058;0,108724553548519;0,255851229282176;-0,990250716413369;
0,395809732425918;1,33222752900234;0,440472955653773;-0,784742905708904;-2,49523999673609;0,714506135131387;-0,371827567952629;0,249878831288293;-1,32624357398139;-0,591891431942077;-0,0954577905477297;1,15217796632491;-1,04531476056237;-0,29088678189524;0,151535299682968;0,704905224238922;
0,851755356512425;0,502328327196452;-0,719614164569444;0,198604602685445;1,42013561584284;-0,960283471737403;-0,217943805013842;-0,110515779859444;1,09758045501239;0,374217950703766;-0,672523574921746;2,09836761655535;0,275681179419745;-0,708430408834502;-1,84354344368046;-0,113166646676262;
-0,363494784491571;1,9356382023011;-0,946134826882992;0,848096059872383;0,776770329077731;-0,45602310573934;-2,15551865975217;0,0991216923591512;0,0795355352352597;-1,43654184886104;0,967360353909205;-1,0878189102654;1,48342427930032;-0,565362925470268;1,62614814851426;-0,358396614977551;
-0,162684023911191;0,687075554645717;-1,19778130904264;0,223862283262645;-0,889808312504435;0,468027705165944;-0,167293598481827;-1,56362163861074;-0,121632916306394;1,76920952177304;0,309197675542454;0,0625523707281452;1,2203244431466;0,416266449539576;0,857041021872554;1,10594018776147;
-0,357513896930395;-0,0182187772348858;-2,13522059121549;0,260609778726561;-0,865301522796281;-0,358268995360837;0,492382579868479;-1,29389363620186;-0,286439553291977;-0,680671872010068;1,61276642526676;0,37957940861969;0,824855394093873;1,65179994526836;0,0807328093882528;2,10463726831768;
0,960666287188327;-0,642334499296804;-1,1526987892241;0,915484006216368;-0,213916936536354;-0,515714666732616;0,712452536901225;0,766215363755624;0,0252701943866821;-1,82350295353598;0,634102447275004;-1,798195039856;-0,310266106529822;-0,589399257853915;0,124975092976257;0,289793753653429;
-0,228509347430617;-0,172088270867976;-0,917850060652737;1,27956845870546;1,91746984204843;1,05036015358437;0,16786113008571;0,365919686613895;-0,956109741435437;-0,612075960677495;1,31179851506307;0,60377242748143;-2,52121416481453;-0,209982525469646;-3,27879095383464;-0,592442089224272;
-0,300136051759563;-0,640432555382604;1,05030299537541;1,04321737439276;-0,00233801704340514;0,794781199538674;-0,379546334202265;2,02621215734225;0,421551446209119;-0,839132273435205;0,919928715094046;0,0956397933746642;-2,0225340283251;-0,836858490866629;0,285676097552255;1,88702087308072;
-0,0915550293078127;-0,424360866418873;-0,575689843957251;0,905205372942622;-0,82997227894704;1,61219771513482;-0,681990540682042;1,18442630890111;-0,816209647602152;-1,72054726244096;-0,576484663627328;-1,6204773628067;0,468064146303298;-0,523357023654091;-0,926743352440095;1,46386417694737;
0,276172537566581;-1,08315822631453;0,974648411078665;-0,17854354420427;-1,34939794527276;0,282948401104305;0,130347633385516;0,10071055835409;0,881866506219088;1,72194973591568;-0,238083434463902;0,880010463355092;-0,24588560705649;1,14977290484936;0,289700520778956;-0,353442951540175;
-0,229568974927637;1,26193670608858;0,241774025364321;0,0161324654163488;1,09477253256768;-1,40509837232787;-0,287584582542601;0,136220310750144;1,15625031541581;1,66039546939357;0,735186324393128;0,23296824438143;0,237420742903096;-0,399187939336649;1,1657953652068;-0,624846540578634;
0,0194963608401436;-0,361667923429168;-0,24295794097953;-0,970951085856059;-0,707272285750426;2,50425550290164;-0,455330830083211;-0,130752843890814;-0,746738466501237;-0,125566674723144;-1,29187526253927;0,0298459461403406;0,0776445130061044;1,10182413471511;-1,21646749352557;0,61452032258144;
-0,428722896695469;-0,331122030416529;0,15894732860352;-0,100824002271192;2,12219839350854;-1,26083696336697;-2,33167506246959;-1,92309363204003;0,56831694324642;0,256667431216723;-1,5217363844059;0,888928352154855;0,368766276104377;-0,290750465163386;-0,119188820758684;0,621752772279108;
-0,335672031282079;-0,279685262126248;1,21495386397139;-0,524729318050414;-0,740783900977559;-0,132988195918835;1,42570753190186;1,29006236271502;-0,150393024286192;1,08840940404293;-0,7226572607958;0,134536536155567;0,0740415584778733;-1,02561014472307;-0,165967101125093;0,0494276534186472;
0,650867605617246;0,7273689942457;-0,0571549909127582;0,765650132941145;-2,02428010030046;1,67190836397089;-0,109398124232062;-0,577014727348169;-0,325483577599085;0,446905109425842;1,26103202523285;0,431918856868001;0,369327698399062;-0,718286490142622;-0,0490162322979164;-1,36787462840702;
-0,298476704641188;-1,31416892587504;0,416347093351604;0,174185774339783;1,56784875832588;0,496988853799787;-0,715587183552696;0,678383482022283;0,143408305385993;-0,141283945869063;-0,991445968444197;0,273635939280485;0,546567688290639;2,19790453554786;-0,468850184631225;-0,954777390350546;
-0,249617737752629;1,30341722192459;1,3749347353539;-0,47586011242464;0,7782127901233;1,92875745683405;1,48121880086237;0,423389758580125;3,87487518200241;-0,756272874825866;-0,45359447086863;1,93284892140785;-0,686340794264301;-1,41141364905992;0,902290587459026;-0,054337385931644;
-1,13760931962699;0,0943207336582635;1,11291796440805;-0,882392229811187;0,229253672275238;1,36352371084541;-0,855944081716006;1,62196059767988;-0,957060849357962;-1,19515778921051;2,24477436643478;-0,566370150481291;0,960635272788076;-0,20820112298143;-0,236228780011577;0,951772789086084;
-0,191395978677875;-1,49615245278854;-0,526872107829773;-1,72784289689076;-1,69894889395579;-2,54496248047027;-0,529720947523739;-0,17341343852271;0,74019707207212;-1,17915143117422;-0,249338128651262;-0,389865562228849;0,317467653253916;0,772777947641603;-0,0539034193870951;-0,0347065207598568;
0,693162674350048;1,11156269123176;-0,520039046222752;-0,568002503738865;0,164961421543476;0,974052682711067;-1,10998402372006;-0,1000095826778;-0,665928274099161;-0,402889741642565;-0,78192303962136;-0,959446973128921;0,94396178353734;-0,124933220961518;-0,417893065987798;-1,35653666015899;
0,305367581560057;2,57798786278514;0,828211354966913;0,118460478950064;-0,973786634860796;1,93021878373115;0,745105878303184;-0,0384033019443279;1,52865611021246;-0,564960949474893;0,87910868022536;0,981985234753228;0,112771725131938;-2,11230863211423;-0,335942252623299;-0,185966685474258;
-1,90629359277101;0,523379189467178;-0,499245455103706;0,341103084166118;-0,854615386842397;-1,05239180689587;0,428962856374402;-0,147529538348996;-1,53932512306283;-0,619772750157605;0,770626274313136;-0,50894926779718;-0,924107979727821;0,808649228274146;-0,707874138677032;0,600075722652901;
0,147753042731751;-1,88070591048361;-1,19897722391746;0,0205787288164446;1,585142727104;-1,08496974274309;-0,8870843772043;-0,755089599144067;0,94927182004339;1,33252004145349;1,55941663341941;-1,44478846845079;0,54184467058715;0,192184942697807;-1,27552044959706;-0,175037579648246;
0,217124092213006;-0,11216822163363;-0,396567236928813;-0,534272892216321;0,963312454678409;0,411834951895422;0,35006770014434;-0,490978440227793;-1,26060752010292;2,44961290429275;-1,23477587146397;1,52018974371037;1,17227225138089;3,29891791260021;1,00514916177938;0,618590724225188;
-1,54788932279451;-0,267898500562747;-1,106177060966;0,354250356437154;-1,02064150477726;-0,206826639234337;0,109017874305107;0,496022135745643;-1,68429558375775;-0,485047969800507;-0,702393353058578;-0,485845169923729;-0,433561798187075;-0,0710404781991078;0,765023297785333;-0,0610982758180105;
-1,35891681376512;0,645825345399862;1,21553275282259;0,761071522980856;-0,768357409440543;0,602983419161934;1,44647485678989;-1,38964158873685;-0,976006993006699;1,62838649808839;1,12532457778942;-0,247558274312393;-0,107387252547327;-0,425333374486628;0,376378300784684;0,733719140136118;
0,927192169839769;0,235225851341535;-1,01286191405571;-0,112204345737982;0,241397276935694;1,32859083100803;2,4983287273785;0,367078807514794;0,195621129495142;0,0433809507899828;1,15740500236451;-1,29646164626209;1,65041103403801;0,358633958219612;-1,00126296554393;0,930520430749362;
2,07306332420891;2,54308812905352;1,25557653561267;-1,17191982105748;0,476597024805332;-0,537313189655161;-0,714488583929686;-0,962449723312826;0,736983019561144;-2,37541865868949;-0,941893557302392;1,58223102472746;0,653250126341129;0,487292342441283;0,653842311148202;-0,846942384442485;
-0,42726897046329;-2,30532636862369;-0,11031491751672;1,64542899618117;0,453326837645373;-0,590911083986441;-0,864851854447174;-1,25119586365478;0,80212936436883;0,0584916314010734;-0,984522784612426;0,205796842725972;-2,24753467705701;1,27193452319917;-0,406961034940086;0,658308058267174;
0,0288367350692513;-0,504042770918204;-1,04919353718169;-0,890706512767592;-0,94336283901145;2,08738684738833;1,17532538120493;2,3367064643447;0,332907300689005;0,577753643239908;-0,449689278942439;1,47234713032506;-0,514900342492814;-0,105568072705219;-1,55673422320179;-2,3213420675079;
-0,56051268668383;1,4059636514313;-0,611363545922064;-1,17416958256463;0,910329554103046;-0,077379809143125;-0,604537569609445;-0,0302131953522397;0,634451574721996;1,34047199760905;-1,18031755578387;0,497566752041929;-0,597353522920048;-0,302408880668333;0,961944322621283;-0,307840295340986;
1,02769202403415;-0,950749211160963;-0,221918318227443;1,21306724620144;-2,12767207666977;-0,295887649285778;0,351668089610285;0,988103527981885;-0,695038975017354;0,142056508782123;-0,512936985537087;-0,0098356404106131;0,951481792473179;0,800080757337793;0,672561904610436;-0,125268272668895;
0,278497573143642;1,00277136768488;1,47422773267901;-0,609567835887732;-0,323203046512055;-1,67046561542333;2,32375191767733;0,0331018506004328;-1,91865943473218;1,47678890048428;-1,15387585854334;-0,300096939271612;0,14484812252675;-1,96986414119861;1,15440990717505;-0,798665270764159;
0,0871039731094171;-1,00012243338006;0,481588090648217;2,9431381751687;0,215080949577533;-1,26357737006802;-0,467176342562224;0,331201159970876;-0,391569788950528;0,0973673743847673;0,198243990349199;0,325499750189128;-2,0849008219574;-1,05997629589979;1,11368497661147;1,11341006193899;
1,12476883429703;-0,908507042699259;0,167845812300364;-0,136468504154487;-0,0188424396270641;1,68956539833321;1,65750855728154;-0,016985886647959;-1,12304764082492;0,666568461816731;0,694328456001737;-0,194163947669381;0,211552815205679;0,329717111349463;0,89087875833373;-0,0669257246816213;
0,299875432269097;-1,56147992380797;1,27415864173212;-0,0436581090255037;0,0407026387638445;-0,463687852480742;0,666450295345872;-0,559950973727918;-0,0566693525844989;-0,816344343649146;0,234284811617099;0,0374216772548704;0,332698318619359;-0,618386265197491;-0,616282596298676;1,01048955413589;
2,643097770192;0,870042269118753;1,72192777832929;0,415162424865713;0,436536204164583;1,63667852249785;-0,100051917408651;-0,635284144704861;-0,564759724805425;1,09121225914476;1,18547361037278;-0,168055461784063;2,17827967428086;1,12751532811455;-0,884074080302347;-1,06490835902122;
0,0990412813811507;-0,222734045366394;-0,646775793241723;-0,468720320776429;-0,749195265405294;1,84867773904761;-0,211795233347709;0,103135735259122;-0,557996879897293;-0,111006387200748;1,22027608206686;-1,25150036848479;0,0379097281790467;-1,93389269539477;-0,571170834050335;-2,07897876179654;
0,338284062200343;0,0607272289494166;-0,239787733218563;-0,759444610185872;2,1753457846179;1,06369781068586;0,378754000457145;0,12717334654836;1,6939938049091;0,622030590615007;0,453790470978666;1,10078775100188;0,667188227928898;0,444351911118731;0,22396542340154;1,38333793114199;
0,600250904310795;-0,53521016877371;-0,050953345194586;1,05077318489901;0,841935068765584;1,28592629355259;-0,293855584981805;-0,307473177205677;-0,826338894485926;0,438265279287516;-2,39772879507002;-1,02215581410405;1,82492428788128;-1,67018978758217;0,958708556234405;0,505990353137716;
2,35542395068591;-0,714049071786722;0,0852950374254745;1,01103611878533;0,378890734999991;-1,30211096600942;0,255210842426953;-0,574426520150427;-0,192390745825899;-0,811274733975304;-1,2406413709145;-0,140940310493865;-0,0305096910730179;-0,520520978836572;0,52833915026585;0,673521729961429;
0,191582413975619;-1,84475608920243;-0,796657997113509;-0,538061346306651;2,01125976450064;-0,531688546743274;-0,317291056628486;0,796257324125004;0,492596232352842;-0,367229772213927;-0,639210032520134;0,979505484628543;-2,10023078148298;0,304329432729298;0,121986053844712;-1,12699853909331;
-0,0559683034953113;0,32903197480964;-0,529602024082069;0,688177164491453;0,627063626621879;0,456338094397756;-0,372710257156906;1,26052787859283;1,13453279224785;0,191820842495687;-1,162802592287;0,923366383943346;-0,422966938536973;0,162115085432286;0,569596333520524;0,0433443521148931;
-0,490033464205453;-1,04022254875754;-0,407222947520338;1,42513738320012;-0,703532673701073;0,269510377262269;-0,0261925468073001;-0,152871064268647;-0,834385562544378;0,494592002666307;0,111070095330758;1,53825060047407;-0,699853988971968;-0,290271882568479;2,21665914447686;-0,32665208503981;
-1,94623720799542;-1,65045819066477;-0,112615661599113;0,571743643333284;-0,508366187437247;-0,343607494232018;0,00324957163445763;1,14503639475613;1,45559548341823;0,335568478075953;-1,69678465550667;-0,653835948493059;0,80932081196465;0,161857703662241;1,3413541316972;2,25140017481032;
0,118682029983197;1,03741985828474;1,20953600512308;-1,02393282861075;-0,0306811236775673;-2,44201817147586;1,35638973174313;0,498259493875013;2,10391881536484;-0,0787720432568417;-1,4999781255949;1,08167451102842;1,88866230128497;-0,835784874197921;-1,56408697346408;-0,136275653673376;
-1,01785268177286;0,348811927097444;0,5990135696866;-0,152822828581266;1,07563082373011;-1,88527775999023;-0,345041636747097;0,248941107416912;-2,32271315545822;0,20831980625109;0,89158216350729;2,2342761472906;-0,347823654336394;-1,40977289873698;-0,0771977736016877;0,932578176998875;
0,803847632273439;0,58739906734956;0,155675090467967;-0,675244311056359;-0,108238150711712;-0,774441817110619;-0,778051189321075;0,490475675085112;0,942623617838548;0,500600632563575;-0,515566920050225;0,806114595176835;-0,783082173711287;-1,53592615426239;0,767786841999276;-0,839726212067622;
0,00747001619231684;-1,0698993333918;0,876248750305445;-0,0871436122695708;2,26371364009618;0,585667591486169;0,80571834461698;-0,000715686841431759;0,182555878876355;-1,29919220443172;0,794067071043452;-1,24713106850252;-0,318453114192921;-0,448045475209595;0,405166009042695;1,30683377548761;
-0,258180750585862;0,0453241018377844;0,315500557008398;1,14546298176272;-0,482379139607953;-0,389230361195099;2,04333196896636;0,483255442038808;-0,56433507199233;1,44541499142861;0,340328784784805;-1,68633240268718;0,00710011622434716;-2,13271417388058;-1,22437968051498;-0,282938411129804;
-0,000831554374276283;-1,26085901596303;2,38195530328653;2,29160515088561;-0,284870424176414;-3,09197736176941;-0,654950775098056;0,872860529747244;0,432622361861913;0,0243505662157147;0,65385490741973;-0,196537572991034;0,208415332174567;-0,188710269087641;-3,18748692934326;-0,295794554480812;
1,00525264013435;-0,504192427117523;-0,401445509015486;-0,644195046258937;0,296372696127997;-0,625066267898831;1,15982528219267;-0,413311070284792;-0,346940361838917;0,062821469567217;0,696979903879105;-1,39244659685264;-1,42777156998534;-1,26970889131242;0,866940535069047;-1,54770954758063;
1,04568181533893;0,866369655337277;-0,630231405957104;0,829606581008845;0,999713901415303;-1,36162421092795;-0,553259807774828;1,28749604583331;0,448969502274339;2,9286805594563;-1,15358596694596;1,75782152224023;0,902931762476893;-0,654048734110525;-0,601898786903179;-0,832037760094931;
-0,0644147762442867;0,710732253577032;-0,098314608369429;-0,100967106788095;0,444856963107732;0,41849937538842;-0,101738406837636;0,111988554532422;-0,632145564289631;2,02529306472518;-0,221664088745115;1,4844088588489;0,449644175184874;0,264805433271999;-1,10305704897706;0,934663957441124;
-1,60005220574969;0,0791774310295757;-0,58125341854461;0,103238234261881;0,217469894557149;1,2489440475021;-0,270521890841885;-0,954629253235177;0,180819894931279;1,7447598512924;-0,757455090131104;-1,21046748526853;0,277599216289527;-1,10523436182755;-1,37669454709223;0,0570906176592279;
-0,406699892931651;0,614959090976912;-1,0086500463199;-0,122255019117224;0,379688307316157;0,107140828560225;-0,308172545742206;0,18007788106365;-0,375151435770197;1,62633561169247;0,850168510846477;0,290535887871268;1,23644785395637;0,464305732986848;-1,18618938425314;-0,767596810099747;
-1,12201531049981;0,386445839205925;0,491749756128935;2,23233277088796;1,04330628235082;-0,157928898121009;0,406502210473359;-0,281817234882824;1,29796811090401;-0,585525198298012;1,11691598364666;0,234124968090372;-0,228302145700439;0,276236580073793;0,344851597632779;0,851461529542798;
1,49515493858771;0,764224485726083;-0,0501893268493084;-0,0128123765209085;-0,0937852698023772;0,211654416310265;-0,407091127756781;-0,396373613806101;0,25415989705771;-0,232424767155706;0,635489573413998;1,83630477233519;-0,815114430548433;1,26379158594138;-0,485813032598292;1,24546616616167;
-0,885279044584475;-0,49081728032031;-0,701507206565942;0,415239321192712;1,63002421176379;-0,604999232671024;-0,6431699180394;-0,126779746799225;-0,195442542473899;-0,814568411505113;-0,158739133917354;1,50289695792852;0,977857382124063;1,16961820332764;-0,328283765091507;0,012635022270985;
-0,659465596502766;-0,552859673809747;0,356348218758683;1,30001130101956;1,49937177502192;-0,716559766340354;-0,236687237911688;0,310216323935832;0,0533177841290298;-1,41962313197078;1,41813120321753;-1,0135442227196;0,804297758830044;1,12962939262973;0,815140676522459;1,11392681814611;
0,694012970135946;0,130087775845253;0,202339109072405;-0,643074574294219;-0,684519084086668;-0,983178005061887;-0,308590629915029;0,114368070356036;1,15296064637114;0,685150640231102;0,233394737938075;0,165704652665773;-0,324177419733904;0,0458984456306526;-0,744334710333707;-0,0919908230299275;
-0,0178332973272332;-1,25502785175439;0,162963497708799;-0,669721879368722;1,90557918145089;0,537218271469624;0,560632689923213;-2,44004223788028;-0,180387450368724;0,369195014454607;0,759864518342315;0,684019518913512;1,23342258043947;-0,650455152406714;-0,586454275542618;-1,51188328073488;
-0,45726575204278;1,73858620466255;0,20335230700912;0,255230931092397;0,168979160264171;0,0746002774653593;0,641189200567057;0,679177947464938;-0,39939749089093;-0,627563414337917;-1,68725189055358;0,518784371655247;-0,231670261577837;-0,332179198135132;-0,7816587867828;1,51637326703963;
0,0306859246587027;-0,157433021847178;-1,43058887826095;1,27661350564859;-1,47209856913389;-0,813788771511963;1,20512711460825;0,967316995467211;-0,202478458330815;-0,0351571427614882;-1,65733328593093;0,0506139785342524;-0,476016876272834;0,630841504223617;1,46366847254702;1,26813036835611;
-1,73636580536188;1,35488837471525;-0,824776191735862;0,230325364240779;0,493691757193721;1,48695911173674;0,924104222147002;-0,712357445635514;1,51338878783562;1,87256501072726;0,699633197813474;2,03402312479716;-0,186106084951022;0,590180169885742;0,0554110459086374;1,65446116484735;
0,503806396821139;-1,12536450458316;0,522395696129817;-1,10411612416231;-0,984707266382971;-0,713150945862556;0,539769809130178;-0,415705057390371;-2,07885603193103;-2,04171474749121;2,22393322278065;-0,748517443916781;-0,0738892382412791;0,82209447080712;-0,106507572328707;0,367501816361926;
1,0832701432737;-0,230891036882425;0,308399408845;0,162881669289792;0,730673448031348;0,580757899313918;0,990789121769293;2,18722129590762;-0,983750393247355;-0,627174916859804;0,146498730770787;1,23033014570075;0,0259647138390716;-0,315708643644485;0,462774042807233;0,632542062950395;
-0,147524936533293;1,18265235156166;-1,0013740233105;-0,161115367406295;0,202203925145451;-2,32484581914491;0,721747486602784;0,563911450283343;0,204268153644663;0,153584486548798;1,49737296319154;-1,48896737216255;-0,283253115128068;0,224664116183988;-0,288844432601944;1,33617603578456;
-0,215213717074402;-0,0830957264068124;-0,578621244650961;0,50560031944613;0,232499118362504;-0,639293304216401;0,935499497235604;1,25021139859108;0,546655784916637;-0,25759832231441;-0,427300644853446;0,305301540181174;-1,7490962349314;-1,50585036161531;0,517545989824846;-0,576434972622186;
-0,725764872581878;1,13153883740064;0,104342253443655;0,934812379633604;-0,783642689464173;-1,91924550040703;0,135357966376314;-0,65546745065027;-0,9343037878839;-1,57270015357882;-2,20321507323191;0,392505363836687;-0,30766319173491;0,459759748102767;-0,11204658784343;-1,04503475975327;
-0,655596571425759;-1,82172406138288;0,432436572512927;-1,46198379235765;-0,533271272965657;-1,3838783361764;0,498159578581889;-0,709832624527028;-1,36686086919802;1,2832063754628;-0,0207417200484301;0,297999014648583;0,494118770261238;0,257057985583272;0,134648763701679;0,639571226024907;
0,205937803561135;-2,0773424103557;-1,35382422376903;0,773560061552176;-0,610817934576693;0,410842091730946;0,465020448659365;-0,0329636684381207;0,613774414789295;-0,652015944385722;1,08711489886712;-0,711804908494507;0,13351713525134;-0,613768186389204;0,912135639465817;1,343830422013;
-1,62423024955565;0,721199688833919;0,446348636256003;-0,963477141867713;2,9460636728068;0,131468445860417;0,241488451630347;-0,934931569634807;0,341567522049795;-0,180652954647814;-0,657901110473478;-0,477403612875305;0,193597207052454;0,592014125714374;-0,192810708199188;-0,0305384881790037;
-0,0875887769299906;-0,554345801024634;1,50861627353886;0,968107402641564;0,68384338844496;0,636961831489953;1,57514014884956;-0,547702838930824;0,506321459265678;-0,948264915005619;-0,478361665182861;0,834464112674281;-1,6000608257438;-0,438385216849123;-0,414142294209636;0,40182425773093;
-0,130652106315973;-0,126461648532864;0,878133203186691;0,94619533938298;-1,02852284451685;-0,172376548441912;-0,538006303770831;-0,00623817280400092;0,264260374803978;-2,44708953628373;-0,178057092719377;-0,679688587853736;0,231099004132242;0,490654987418459;-0,37042863617856;-0,66075307728556;
-1,24736681201311;1,02368276552403;-0,0225593517372389;1,38336481327215;-0,983425675628487;-2,87728167324027;0,607015895519258;-0,26322089715595;0,159714247255683;0,87211773739611;-0,255394779669229;-1,55058722260096;0,591162176662146;0,635718461949648;0,136775898964309;-0,727909343766951;
0,201477776524264;1,90931825044168;0,228834862339863;-1,2372759202163;-0,799590990315319;0,0761750896426716;-0,269234526566213;-1,76335037258406;-0,0642591272175064;-1,89681495942152;-0,441402116140945;-0,299389225496474;-1,23818422061327;0,486988722259424;1,59484199635741;-0,414242868741098;
1,43836122090156;-0,518027952467964;-2,24992220003101;-0,0538150511133755;-0,562031048324548;1,07569014816459;0,934335191627311;-0,224887069599819;0,14646913234231;-1,04800645568488;-0,191777888876904;1,01425402669632;-0,201267194685252;0,411030841880593;-0,62018199302761;-0,0534069313751655;
-2,23000263519484;-0,232714467532743;-0,311858844616694;0,433165784327715;1,05317344825459;0,171915098668429;-2,1671113376571;0,247848775714746;0,171776888421454;1,37416611018005;0,152508184127922;0,798203882536227;0,077657017227088;-0,151576094623671;0,244832381950839;-0,521104320905976;
0,369874117029032;-0,325080267918973;1,31986724888851;0,747780617532138;1,1994474246964;-1,82589808041425;-0,714842667558006;-1,13048426334465;-1,05834201902732;0,900634991937751;0,419780487418675;-0,419827690586531;-0,258601852250334;-0,557992078263322;1,53759341125728;0,553620962436774;
-0,333183164933206;-0,286162462750802;-0,170202435529908;-0,790264476041429;-0,160053639149169;-0,650821856383739;-0,0884700243482764;0,327008495358758;-2,22987665295462;0,293318387633574;0,0310451788903641;-1,4543595299125;1,20346572642924;-2,92334030978448;-0,413753454472627;1,63046857737525;
2,01129734385994;1,33170900640199;0,560751334992131;-0,917412636313231;0,760774883232676;-1,07385846187953;-0,944908900050279;-0,164330193144756;-0,482120631463068;0,790430250182803;-0,41941127299156;0,246346079179008;-0,321434055092317;1,05139265725397;-0,0293454904992051;-1,49376707509227;
-0,20017762256968;-0,737550203700787;0,0104274034727226;-1,32616906680281;0,882944117855478;-1,9185085422305;-1,70130463150209;-2,1197558140308;0,253439605382554;0,816520687131255;-0,902136251067409;0,929840404693513;0,840366442922648;0,769594843598681;0,146728378597396;0,246897889130381;
0,880392814240582;0,239128848632153;3,22323603072989;-0,515839532826863;-1,57493473744138;-0,480461404614702;0,442527943823764;-0,372511116528887;-1,24402197402657;-0,109494970181303;0,05628375350752;-1,11702575960293;-1,14683081755957;-1,16960959577529;1,18736510866543;0,148927075271899;
0,512650533203112;-1,22536000520651;-0,00399155662038554;-0,204386283039834;-0,475013020386124;-0,307602225445531;2,78392834638518;1,40556941419807;-1,21373119345286;0,684314293091997;-1,93583518544901;1,32216331843572;0,220229265614854;0,876564024900783;0,140303241625329;-0,404792368976226;
1,57920962997759;-2,03072991528414;0,089870605923721;0,624414441210411;-0,0989237495307689;1,65153407552044;-1,40797316854928;0,657192180583683;1,1567942622024;-0,931805281687695;-0,839230225851444;0,472943744304305;0,0560214339706509;-0,43914368820725;0,819778602128369;1,31976666672303;
-0,663630316252724;-0,759949672044717;-0,764803850925197;1,29951468684654;1,05184799596833;1,39054615906714;0,658491467441363;0,638292423211855;0,856284310256937;0,155806009058143;0,128251146095016;0,885808667908545;0,649694044633378;-0,605261166301712;1,51427564855798;-1,7980640721578;
-0,648669441318461;1,08613607975422;1,35246370055826;-1,67481525203626;0,434868992577723;1,09228966214556;1,06531773189157;-1,2123768798954;-0,527826984155116;-0,317795382602765;-1,14165697857486;0,840188687370537;1,04114312125265;0,635275516976488;-0,716392234265637;1,92140903688312;
0,845923811031867;-1,27289878215202;-0,430974621745759;0,527277974336499;0,14744393201166;-1,10169550939332;0,0657824859076376;-0,614300488583568;0,484818705530043;0,410613711520662;0,214343401988709;0,847543363728947;1,18323521289301;0,55321081598924;-0,211580191384695;1,97937467273156;
1,41730746176997;1,23017458910573;-0,230279313600301;-1,23479902545034;2,07941040854561;-0,007525694227395;-1,42758732602298;0,192421194352817;-1,31309520222731;-0,923393996682049;-0,636596814651011;-0,058251974180345;1,53965272668764;0,664457772100777;-1,18537799732097;0,833851461757116;
0,459900896165553;-1,02896208523077;-0,680248882308463;-0,273434450721316;0,114495803507742;-1,59306964098911;-0,878924449181804;-0,506391761875395;0,888846081153101;-0,680619505052473;0,200937796848343;1,11560148934236;0,441674981186281;-0,592525090271738;-1,92495433499328;0,0446272874599363;
0,75397610295938;-0,637539986259739;-2,33957106637813;-0,719095466625733;-2,50453473033704;-0,696221441834247;-0,344326139530497;-1,0128014199943;-1,39019888112555;-0,556335880585574;-0,623184859589985;0,196055666528294;0,562039900729958;-0,0384440486455205;0,308305700008874;0,344060221191286;
-1,38274307684563;0,431941041343296;-0,231480184399071;-0,648702127748492;0,752516793755867;-0,684610357010293;-0,843473692395328;0,742844531788043;0,646827285005148;1,15263301263091;-2,09385623156811;-0,194638102559919;1,43931910924325;-2,43041277830822;0,394533035978886;-0,37436208744922;
-0,599986357505853;-0,212779341670547;0,913215524415237;0,654335310342253;-1,32796398363774;-1,47429628469719;1,92841319410631;0,532734031659581;-0,0310996520106337;-0,689759275128601;0,257146433957794;0,566591796997557;-0,965414855921844;-0,431715380547928;-0,27505814951181;0,136670092127009;
-1,17988011621232;0,00770891040849416;-1,40704629930157;0,0477884352735647;-0,0405470967247824;1,43284042104031;-0,0354787220155704;0,330389134849747;-0,556941793743304;0,977603070947814;0,867513028141777;1,37077681804159;-0,29765742596071;-0,252441448514623;-1,15611534038736;1,22311148190257;
-0,327931231567498;1,27281336687446;-1,96838912665571;-0,401380752896712;0,649512352103193;-1,89287833600797;-0,906653801269986;0,0359836601358429;-2,84713809344317;0,289646155066867;-0,377345075697;0,273371122357633;-0,633529022469554;1,00748979786607;-0,00936600981236848;-1,82385286376389;
-0,664556746629259;-1,65232308396674;-0,939855610414965;-2,22766878275048;1,90248673592119;0,905320506124651;0,12038777956002;-2,03221120460288;-0,676997995583862;-0,760401165283892;0,702643244018673;0,728695741491561;0,340705872688545;-0,000193469146767565;0,720355501375294;-1,73146532765787;
0,125683121812842;1,5171629178036;0,719571688460949;1,38447542885633;-0,0613613374364004;0,403942801374471;-0,25430366954119;1,64073501115247;-0,859441710668572;-1,52986448169384;0,479822536789685;1,87187903421847;-1,08546273980081;0,00103336625376059;-0,713710083924729;-1,25043011570152;
-1,97046525360707;0,564759158730269;-1,6025485020563;-1,1102113922702;0,364747938214053;0,587412119877588;0,972332326927917;0,953013336669792;0,482052098003017;-0,109267305730706;1,1838029603325;-1,11783085688976;-0,229527322982581;-1,94451599385711;-1,07355868677034;0,0884455304476093;
2,08977226281701;1,58457126327581;-0,741889027687595;-0,253225395613707;0,743281766953217;-1,30744813188162;0,699733791025285;-0,651023149235911;-1,08333927434183;0,209546632796592;-1,0221762100039;-0,990419263930776;1,33618358113421;2,02778817982786;0,937735077925528;-0,992720629504145;
-0,0769238985517695;0,246872937606615;1,8752422812685;0,813882169636837;1,60188671824482;-1,94597174774866;-1,22817599617174;1,53074582647268;1,5624740602923;-1,2518616588217;-0,698370684873798;0,985094184769359;0,105930446673301;0,258030957172224;-0,763312413098782;2,0251708297708;
0,0658092342199669;0,69862821135048;1,32600723275205;0,737952371856756;-0,116788839444896;0,657616887596821;-0,81370036460067;-1,03695474437957;-2,21990623032193;2,29687055523435;-0,804646406972143;-0,385789218368521;-0,772149914973134;-0,673171340062422;-0,415485784353099;-0,807878903784828;
-1,49532618708787;-0,287428507887455;-1,20907604118436;-1,2114011907478;-0,36277018372217;-1,52199651970108;1,52122154442487;-0,707658606891644;0,226069655634955;-1,07371016484026;-0,918469528646157;-1,41148082894619;-2,16632856643959;-0,00901034370313499;0,340184464533523;0,118772363276632;
1,77022299820211;-1,75843470812924;-0,441157089096573;1,10080776409387;0,645289821541035;0,339692239533846;-0,8975029958786;1,0271359947681;0,0019079002882699;0,599006010105554;-0,3272858671732;0,223114911602492;0,665288493445002;0,555830739510704;-0,185691484157912;0,0552237968077091;
-0,102284190017422;0,0958814727196953;0,106684359338149;0,572039379380456;0,705166370975339;-0,259012453370738;0,177404604786284;1,55299289524049;-0,264527243923892;-0,763491564895811;-1,04833837491614;-0,205578004164838;-1,64256962713624;-2,0758968807532;0,721690534049668;0,16647248693499;
0,444848258756957;-1,91202487345183;1,81204788998794;-1,34276027459986;-0,0375820210167991;0,948260759001581;0,602849076526212;0,548375136006115;0,318320607700667;0,13974814119003;-0,0636075921392305;1,14717586322423;1,12336230850934;0,52214657175398;0,0521781594513935;-2,13190955515799;
2,76324653156494;-0,883987260722535;-0,0310288979693906;0,928282338531579;-1,21950513548223;-0,872833087153949;0,681246476699482;-1,80321075062213;-1,14051053775012;-0,535596077826254;-2,01653687138533;2,36200479822805;0,350073776216683;-0,309720660802929;1,0900694629338;0,531984299452972;
-1,09672449052738;1,27189832327337;-0,632167075452434;0,667920506852446;-1,99781648384436;0,839461190983825;2,18949158820803;-1,02221589518846;0,117615162729938;0,751776666684379;1,58789290127008;1,04586305329632;1,84667684146862;0,13285521751697;0,239559189080113;-0,711605354589564;
1,90354357348807;-1,0235076162156;0,207428657293384;-0,262806927686973;0,523202372136014;0,848342630052486;-0,509689350650225;-0,743141982515077;-1,25600400325777;-0,0950899957854006;-0,0231273704495247;0,0907243533038202;1,48957424584519;-0,173377389039129;1,34517749304466;-1,2499697981896;
0,763608821286986;-0,0266525844016607;-0,681235301020405;-0,485203423084892;0,205364475853757;-2,82419034965534;0,874370742909957;0,622543061904719;-1,20344064141151;0,949812659817627;0,434293094290852;-0,7511793722323;1,03077171471671;-0,391160378959492;0,0451539362350928;-0,56472812254122;
-0,0694909511111185;0,394942665395471;0,0442169990290073;-1,86982306011383;1,9753690603611;-0,0172912896464695;1,19225021950471;-1,26236508403196;-1,44198295374526;-0,795843478553985;0,686792739840752;1,20477421036081;1,31623099005439;0,644343044997737;-0,171321162025314;-0,306283609321065;
0,689562122165744;-0,782970135687815;-1,61256506005358;-0,745683051179034;-0,811509197878102;1,41432301215719;-0,719962150692112;1,0974172379983;-0,0635244284774413;0,89732040891882;-1,87721259433207;-1,97105573145312;-1,24902559432777;-0,0391667150654979;-2,26220490352304;0,819619228658882;
-1,586274495634;1,95090545015677;-0,867990030706462;-0,0789075212532637;-0,798895164593853;-1,14958814962477;1,57403103824841;0,889302640269213;1,36364258760164;0,192892548687995;-1,74311148531166;-0,454739242998747;0,00785480690236397;0,401225562205573;-0,631838567971646;-1,14990106752814;
-1,08171588233235;-0,445290899956703;-0,540861979877575;0,946337221392816;0,767314256702853;0,648354038328639;0,746333351373344;0,489763315089303;-1,79990424545278;-1,73701642050851;-1,48862184541978;-0,196992184355311;0,749296692197919;-0,186292747519566;0,910382248455678;-0,849562780918722;
0,65447097918957;0,80888501130145;-1,15381631800837;-0,824833043832852;0,486926184035653;0,642500964955508;0,0427988298991615;-0,617331745850116;1,29593696638886;0,275128981402689;-1,09718826521198;0,0442762660986232;0,361259624421392;0,432322504693883;0,31351385284007;2,64734156229412;
-0,851658341859514;0,643344602453412;0,963627383324883;0,72196094245398;-0,87151698521102;0,194583557572557;-1,33763718569688;-1,17342130230894;-0,917219102983079;0,755308440276107;-0,539659217726272;-0,972734007277334;0,301990939614167;0,827254770394401;-1,10963574858958;-1,54196877205545;
1,9070794213852;0,751614188814529;0,0382951955195685;0,914465920711252;-0,499369295344812;-0,542659993541356;0,601707894468894;-0,188084250468967;-0,116895266207875;-0,389038324962335;-0,0785439893953322;-1,2092825783686;0,773591671396942;1,34527202095406;-0,0113575337422071;-0,742307367317901;
1,48549621962112;-2,42414431172569;1,81045515800198;0,220060641332545;0,038830468861788;-0,706381847667125;1,97831789520407;-0,495939129918358;0,462748328971978;1,87629185535962;-2,09610487007681;0,494571695836588;-0,0907571313612796;-0,490020941029022;-0,916248718916608;1,58827286922555;
-0,0353403459985608;-0,414900150324464;-1,53194666802321;-0,633450656407405;-4,08897396343689;-0,803627954286423;-0,439262246046636;0,7396050989633;-1,40723340107247;-0,69625145407253;-0,244908326748203;-0,86916879334827;-0,640929297543178;0,483767767154067;0,543791572986549;-0,897080301086851;
0,450953882935367;1,15326065060888;0,804454380221414;0,763796807776606;0,129589369000724;1,14012357647261;-0,801874009577677;1,0181604556166;1,22711615620232;1,30425529518787;-0,0316068422328878;-0,686454826961048;-0,276745232615585;1,58664265209989;-0,263341083731402;-0,228174489054463;
-0,468607644942714;2,55751304732808;-0,198592214963833;0,718958274014247;0,732760776945196;-2,43345383053262;0,446289659235367;-0,942232248347788;-0,871839405942856;-0,238621287157082;-1,38051253874938;1,25736163435451;0,302871269402647;-1,00218161203669;0,087974886436889;0,2921078874183;
-0,670917641387386;-0,172324999578951;0,569002444149589;-0,38046853744826;0,441201033967279;0,0168147103129175;-0,561528007846297;0,0738332547967664;-0,193353146411983;2,77379768187375;0,621719037783214;0,481422837456482;-0,925652739712514;-0,374027010541423;-0,270987863770436;1,74070462447482;
-0,309235403937675;1,16984899508344;0,785482265906207;0,15884429332622;0,30433815332019;1,54428266751124;0,547922378191777;-0,192828227847806;1,1546591614251;-0,0998686032475445;0,0532503204482811;1,24832419403676;-1,38081177126212;1,11484088031417;0,0471615171426189;-0,340641798435062;
-1,724285314775;-0,0772968272393482;-0,853536434171938;-0,0633861918177844;-0,0585038613505571;-0,842102354208145;1,31679986366204;0,928291902168637;0,756847316259104;-1,26007339404102;-0,21569730507324;0,637707816628704;0,838821321054752;-0,135128186205489;-0,258605393755973;-1,03521422612021;
0,858976355703662;0,560925940467036;1,24564269921103;-0,130245774970341;0,766491539453123;0,0255399541320458;-1,07350620235724;-0,510854961033653;1,15363391805541;1,20038603329534;0,945663314105681;-0,0527768258099141;-1,64753454837448;0,258551765249575;0,545055070935423;1,78153550736587;
-0,991530613973891;-0,799621333134774;1,20696097238845;1,40873596742751;-1,54016716833241;-0,335710000528592;0,425897364219413;-0,433051890609843;1,30600922361771;0,0301453528764385;2,14257002564747;-0,214068399044083;-0,318975817632497;0,301088533373119;-0,518349887202238;-0,0815343567904686;
0,264512942664603;-1,00768856967144;-0,378339270166637;-0,873756927947991;0,14229059221664;-2,35795692505053;-0,784746335706445;-0,733385758822459;-0,496226740633151;-2,0236582525345;-0,861643788058042;1,79037942655023;0,0331726370386572;-1,92577734268452;-1,08666364495406;-0,427564753193478;
-0,69852682413401;1,30358438582757;-0,425153413988498;0,640250152330301;-1,01656729965302;0,0522855685911107;1,43709809629265;1,21737588267189;-0,0339702943941332;-0,405368659440953;0,593395254013743;1,3987345094643;1,72217181474207;-0,3393192245559;-0,223483409968917;1,54374612866633;
1,09463929848941;0,495925129269345;0,986103906481361;0,107551649106282;-1,66433540005021;-1,07326394939846;1,80948193698363;1,56303525842409;-0,975602394703911;-0,26751319777591;0,855798072504789;-0,372520898536351;-1,3260657992585;-0,704032604765976;-0,0584359477634224;-1,07008704160203;
1,18863345354347;-0,647734179392905;0,893886037456513;-0,633927820147973;-3,38854269449539;-1,56263700068164;0,0838964032842782;0,267518525335177;-0,788764180934538;-0,138970035395618;-1,92107966486192;-0,746341088785406;-1,73974456568097;-0,476125142202975;1,02278749081904;1,2279364027679;
0,691134417272572;-1,01988417642033;1,19687476773258;-0,410066260208452;1,25125791431713;-1,0338756733461;1,05161354380692;-0,180611222612943;0,573943345702674;1,11966477654349;0,117476729988426;-1,10216876458763;-0,230449851720918;-0,424481328276813;-1,27083523112503;-0,561593845583425;
0,258687151502238;-0,400012925141514;0,340716129592182;-0,745279737912347;-0,447483081895929;-0,0988946484205858;-1,45231997300136;-0,662102576812347;0,451902233265701;-0,218390353770461;1,60038902144895;-0,527510479032041;-0,413900627823243;0,848459815349255;-0,68886993961462;-0,16395639095108;
-0,129436786156611;0,224161757336529;0,157551854947451;-0,353300203017104;-0,121896387726141;-1,19693585172059;-0,105329428879509;-1,06572481444965;-1,88032488753439;1,82026271352832;-0,236495559898451;1,05961644918666;-1,85263153422632;0,806401295235493;2,58471672668928;1,33243373581044;
1,28336964120947;1,41377643736845;-1,39507636267028;0,514859959051752;1,54830396697096;-0,265403894451116;0,678070673830788;0,278136492597283;1,14095253311918;0,235721555006593;0,925797056761608;0,392532221662724;1,23561229401562;0,522226429969908;-0,632819217301456;0,899268192154914;
0,829509073128258;-0,916560671928618;1,52573786090463;0,733020956027626;-0,31330469408163;-0,0673691577672273;0,0265922114301462;0,245020324401798;0,670217232018167;-0,329276688040316;0,0924433011827856;-1,13775772923668;1,18940536612554;0,391098295743535;-0,336136057966218;-0,443717134847872;
0,167888188082606;2,21521661139952;1,0008124168941;-0,985012212212149;-0,247203241117576;-2,03045830131854;0,0194196865350282;0,211009775305546;-0,711146687676175;-0,272929220392709;-0,302434882644875;0,83211544282019;-0,335353780739328;-0,510623688208464;0,874520102745385;1,1257256053432;
0,630375200621604;0,475881627899482;0,361599788359498;-0,839886028427336;0,103161450464404;0,506723661562525;-0,331774688544133;0,102320233132814;1,2198352789226;0,542805201413902;-0,026225963777878;-0,642561612312318;-0,848170067989647;-0,66866024765879;0,501763127129795;-0,968972451023207;
-1,30672208752883;-0,807560160239681;-1,60995061011094;0,737695032639714;-1,59509850910278;-1,24733789015908;1,66255043711316;0,447248780470058;-1,20874921808098;1,11644870601211;0,0801926099171121;1,86745178236972;0,463090897397549;1,09960119483211;-0,0250574406117147;-0,588985006423973;
0,429225291957821;0,487188222990758;-0,228411441491891;-1,39834008324882;-0,071987495040806;0,322938696134699;0,242691589242538;0,764166030144711;1,57090897001213;1,13756773661148;0,290461287509073;-0,577927358345145;0,164484858614843;0,429785742393121;2,04331093497671;1,27084597689639;
-1,78376144588273;1,84854626830109;0,945482359586467;-0,397028176662039;-1,30919611185466;-0,103701661206057;-0,801161268436496;-0,386575810649028;0,984332912843973;-2,51954217879376;-0,468302957581354;-1,35307290990733;-0,956042871667418;0,81236643747436;1,47743787366023;0,0325172863299611;
-0,139190153907968;-0,517481947236127;0,174773693865762;-0,374990969222355;0,785659086669716;-0,276554681414805;-0,882390056887042;0,728613783878502;-1,48925266244892;-0,423921203575904;-1,51455525968497;1,11779484153307;0,309984994732977;-0,666785029834482;0,250594117297883;0,525985500096527;
-0,109532097770119;0,929607740882658;-1,25657133941501;0,620833115774798;1,05176620262344;-0,301436909000637;3,34074717651;-2,37394408175266;0,916134375754105;-0,997027441416998;-0,664685492901107;-1,76875416964263;0,814072723255473;0,0546578798655923;0,823781032705777;0,0802141828242837;
-0,490300911148651;-0,24673644214731;1,15591466075362;0,452485698137146;1,48652608988372;0,831895065622705;-0,56777734981785;1,46349260785608;-0,514514864012022;-2,22976723162926;1,21151794307742;1,25711343178864;-0,623905534982095;2,67952445160443;1,13256520569356;0,829066930231461;
0,251239470471097;0,775020653698806;0,232330302688893;-0,0298824874305142;-1,15047705874345;0,673450844269391;0,531668240178913;0,286664859787684;0,789529070834874;-2,21174167767248;1,88098915174868;0,590390495992258;-0,21745327549237;-0,182443014309626;-1,4050774484289;-0,0611176441595678;
-0,0229315071837759;0,208383075571711;-0,594218686045414;-0,159214800442049;-0,24463041527898;1,86335753644589;-0,601907201468027;-1,67400118409618;-0,534870619828569;1,01737798567034;-2,09475461580532;-0,0972826252241652;-2,31954542389409;-1,7677280006876;0,0873211036696984;-0,915535760734169;
-0,629818864413568;-0,688837362471431;-0,557000446356681;-0,555870216516857;1,2758195699199;-1,08284427264025;1,71648990557748;0,353000771280123;0,461440338070584;0,149758177528182;-1,67220221598545;0,622228035840075;0,0351664715299722;-1,43099046984655;0,524958234902046;1,26692030762204;
1,98136627588253;-1,03766349040786;-0,982297656192731;0,892807165665465;-0,550824095217969;-0,279859715870225;1,4512600789389;-0,232901764850635;-0,546978033840497;-0,84812702174099;-0,626190092040824;-0,228374903564673;0,334848717416128;1,35236313545161;0,211761406842514;2,03114507193998;
0,027466781981693;-1,10069561497401;0,373777663021146;-0,378063036989757;-0,391276420748129;0,0903467558502339;-0,131975409802324;0,135615342859256;1,39756266965107;-0,100595816535127;-0,669012106794617;1,87430421463414;-0,18227487320017;0,203771553689779;-0,498262777196242;-0,124049114113581;
-0,95391717271011;2,87196794123691;0,327949063983824;-1,60650620134829;-0,172341896736877;-1,55518168227858;1,6003697010887;-0,0188573424086539;-2,02644441471354;-0,266421178000459;1,87580589595368;0,99674108785511;0,416134504690741;1,25087915287797;0,287901365366661;-0,213021179624339;
-0,733458965022207;0,438995611673578;-0,46555512003008;0,40588847148431;1,96700823405887;-0,159632303388598;0,653306636236476;0,42105775584186;-0,210519763131648;-0,905255412892258;0,685163984648607;0,278582324821433;-2,10433518573573;0,418464546674165;0,440524686113862;0,161147223806629;
0,0868364408957383;1,22135786260365;-1,31269132879586;0,873240937102676;-1,09169154753373;-0,599513756181717;-1,05706992504458;0,0816344877778503;-0,397054938319762;0,810786192959118;0,721826404213131;0,927558769989667;0,495426943481393;1,54537550418636;0,40389543448254;-0,20871624681658;
-0,0902123811998138;-0,462617315061143;-0,146037022307113;-0,258963747677012;-0,479871484288588;-0,906662871209233;-0,966991948753771;1,4725013041464;-0,239104333213162;-1,83650759859328;-0,1270899970698;-1,24250018595593;-1,48391565247058;-1,02526279057363;-0,429736650607912;1,87440112585847;
-0,895762664722049;-1,17465255333995;0,416841058003019;-0,968903154616374;-2,91458202204235;0,952369110037752;0,896570678390836;2,52339439812572;-0,00295914391493658;1,17705672776091;2,39566320517538;0,126613636350602;-1,1160665751125;-0,392454220339611;0,442364670173364;-0,638821533277096;
0,254760764146237;-1,43785755318325;-0,850241486029177;-2,63789083540507;0,475029422131656;-0,450579643951727;-1,35161194138128;-0,494498025622976;-0,166191384805066;0,041168912091509;-0,993070504768647;1,61842534069687;1,38593699338274;1,35921833048756;-0,86367239214802;-0,194753290517989;
1,16916687373024;-0,22267270206001;0,748774550539609;-0,1422685885022;-0,17021929962559;-0,574549955181891;-0,712238282177177;0,374994097956722;-1,02572986543823;0,480652614043133;-0,994194127269674;-1,05728727377377;-1,60982086905895;1,58736659570182;-1,6258754356946;1,18955001711407;
-0,686846239542771;-0,76729532214295;-0,0187507285967049;0,92338371728621;1,5600599393258;-0,375805148139307;1,68263054167536;-0,547298071131231;-0,22476518647895;-0,507120579238858;0,653063502544808;0,274492663514064;-0,0667669630021129;-0,0776765483562914;0,38948634281924;1,6019648072974;
0,538233533857147;-0,484759891356993;-1,38358751366984;-0,748462099864183;-0,0736024217751766;1,73054373999425;0,754634171796677;-0,0948795901375249;-0,118371672762176;0,774554771631797;0,0484535113628076;1,00618043580222;0,450768388310544;0,474159533707967;0,48394708925478;-2,00354070731848;
0,356894431250393;-0,945693703943063;0,551553929833101;-0,742260513162939;-0,332484913717075;0,44880926474427;-0,194424292367265;-1,12152485726737;-1,68167435102631;-0,565635501051789;-0,155320025823897;-1,2501035851016;2,3404372038066;0,540735947951972;0,0049300354164134;-1,6238514371921;
1,173950284666;0,68696749837969;-0,545170033958211;-1,30438298928354;0,2016118873591;-0,296494205247304;0,893706491987025;-0,576124710447816;0,285616457335105;1,461281749373;-0,18463052489731;-0,577927898220318;-0,24978094897597;-0,205159350295302;-0,0451298143325519;-0,830032166325492;
-0,151673723980414;0,112606464834338;0,25725654464997;0,514882958825245;-0,0782687244671995;-0,763978065835498;0,973220324386647;-1,83688743246425;-0,477590042139055;-1,98707948257048;0,00949051423492411;-0,290594509543699;1,68384727749635;0,0706192955611227;-1,17332989489322;0,853288814531483;
-0,500112696638392;-1,95388329240287;-0,836468846073766;-0,585094148688637;-1,09798461325442;-0,306405114011355;0,449672933350974;-0,513454992935388;-0,224025500832593;0,905232833577155;-0,344251569910138;-0,720941889432263;-0,810261848745133;0,390404832402062;-0,357928758379012;-0,289850742864272;
1,1103363341091;0,82251284158676;0,308599027435186;-1,45001885130167;1,7376173295556;1,83358777923386;-1,20557520968175;-1,44226125093756;-0,0482349506939951;1,09854164052224;1,06412394379006;0,082317077896942;1,65908910633143;-0,342447951679112;2,26583666086947;-0,107381956920994;
-0,501885606495938;0,174849751761046;1,90926448824676;1,13456883536568;0,171722203058335;1,50014543605607;0,139531149369886;-1,14611955789172;-0,595233623962869;0,551831043088598;0,770269254425484;1,13173982163782;-1,16791548323286;-0,494579372275269;1,14790707726076;-0,906044043398393;
0,362728600468585;-0,381180507973327;-0,781951206243053;0,313774302127917;1,84840737705423;0,506716587095362;-0,151624426895627;-0,831145605162612;0,322852960524505;0,940702344097489;-0,241064741296905;1,18834534816158;-0,110625317663691;0,138604716318256;0,122181986378517;-0,66563330324115;
0,142489255986383;1,94966264808799;0,255185200864171;-1,07607506864744;0,502226733382128;1,26258088298493;0,396393222673273;-0,530775740603295;0,580534998214612;2,80774941802301;0,225694441021718;-0,123193478249781;0,623488746057248;-0,4429589793181;0,534478128318308;-1,19596542846692;
-0,965067596173069;0,624546274872263;0,722085454362796;0,0749661971127677;-0,0766035645336802;-0,21089360927709;1,37222764230912;-0,981563819497497;0,191600937160121;-0,242134146695905;-0,496755277227741;0,175233024735184;-0,0535854448019541;1,88766432392907;-0,683588078058887;-1,70426031629789;
0,35791510349473;0,641969575484344;-1,49071175477076;-0,964400778232761;-0,12565755300237;1,52182090051874;1,08939465936391;-0,34060636599362;0,319490445736649;-0,306416186797181;-1,01305790983069;-0,300055925600415;-0,815901914085167;-0,108933003373726;-1,2792512750785;0,495775406662592;
1,46740778448883;-1,20584560177961;0,177008440232975;-0,889199997296966;-0,877474448893402;-1,57805462703501;-1,42430146587056;0,350214572851928;1,61263436745849;-0,459546468731646;-0,512147399195944;-0,81361443335011;-2,66682913867941;0,462925227937717;-0,275800311963794;-0,173569766107614;
-0,645036278381127;0,586660764227066;0,121575585547517;0,833470124762883;0,201081411238273;0,535166991585645;-0,35979411653608;-0,384288403615258;-0,52230033413207;0,311284941655671;1,12742915218214;-0,954191939078047;-0,231965048621227;-0,272611783228332;0,440280731072247;-1,15054497204099;
-1,18011082949223;0,27363160284989;-0,332909443901525;-1,42019716028306;-0,164738461422991;-0,367405846298727;1,08235542797434;0,218729359654109;0,644263330367384;0,941638026068714;0,437886549345501;1,91171649873459;1,24032535908269;0,321991894663192;0,0820038247829535;-0,847261212704993;
2,1580235953056;1,4321819343568;1,01129345860808;2,84371331029869;-0,793274718351796;-0,463908014829729;-0,67772572920168;1,36937353076586;0,265975437537746;-0,350787204140744;-1,19993449739985;-1,39285642999569;-0,962776019487345;-1,6654000578566;-0,181542443139004;1,53330244350522;
0,817796811777006;0,686184339865713;-0,238703123341987;-1,77277426487104;0,550491608043672;-0,133632744593477;0,488703401130701;2,32120073925889;0,281158102803264;0,337921780316403;-0,933229717887944;1,85421130363562;1,97801901551828;-0,75732545705477;0,390095597572203;0,464544152628095;
-0,184395899518851;0,101145184257794;-1,46178966992463;-0,860622672958133;-0,227907940083439;0,0239611796506582;0,16802139818394;0,476871328186848;-0,490257308259397;-0,390334350594946;1,98111769644832;-0,281764369471287;0,613196756649799;-1,26625858430764;1,14009448756521;0,184011847550688;
1,11920280741991;0,903363338655148;-0,048517124733672;1,47927288355768;-0,169880232254993;-0,738086585629131;0,955296965557484;-0,279280222570183;0,683228996902241;0,115035384449262;-0,758598582057066;0,333100758650313;-0,458582571685906;-0,498414760320123;-1,1097652923411;0,28234453418582;
-0,0738572640850489;-0,316931536680108;-0,69192994668325;-1,04029000470283;-0,652654590233864;0,819999462649987;0,308807553949174;0,0206552008883741;1,66420382055439;-1,86177079962324;-0,349609934110249;-0,353447101610374;-2,13100028949553;-0,402545207288281;1,996793955761;1,02333051025822;
-0,917466728102031;-0,593945778827405;-1,24816860236473;-1,80391186357454;0,327985852102447;-1,18137166948354;0,368451843283627;0,386501009107017;-0,851890934540148;0,974467575428408;-0,601974929411961;0,278976939159611;2,1461391990917;-0,491765037854999;-0,092876436107463;-0,213864979332363;
0,559858052421692;-0,0542615992740563;-1,31516769098749;-0,118459159516402;1,45328101820996;0,0682484177362867;0,807188636081107;-0,710707908640313;-0,187302726474397;2,28846671211044;0,762339439941265;0,902360192006604;-1,5587583685451;1,02497586778501;2,03811100778869;-0,423571886624207;
-1,18280232217837;0,251990608459039;-0,332472014891048;-0,582014893676422;0,968945090078956;2,06034403362962;0,189049019499868;-1,50558190201944;-1,23774010418262;0,138101847552924;0,329696087382742;-0,452284755142245;-0,53287515194137;-0,481397880828684;0,968561421500773;-1,0470899203553;
0,813918348278987;0,0256036207495217;0,643160558140593;-0,209138626040025;0,684884259849402;-0,911580358721292;0,941832382447599;-0,113523635036047;-1,45691557117765;0,409567598827425;-0,494374657933741;0,140638155227365;-0,507655917032897;-0,252251283752581;0,963870208835802;-1,00016453744567;
0,845104949467412;-0,774352005793523;2,17002080862391;0,260097975905572;0,304614897229797;-0,452781400382375;1,30328676804653;0,480850398107273;-0,943674515217036;0,619182079945838;-0,0264361392707165;-0,291110177700225;-0,877969113084906;1,49810456601338;0,519466150230595;-0,433259975788147;
0,622265553896601;-0,0331327052932352;-0,441887471453236;0,0217126252025622;-0,212905679930422;1,51151096892444;0,169102490811882;0,0759468049220824;2,32254967772797;1,48886983962422;0,621838579836587;-1,71617209102244;-0,895817921732496;0,799204629014769;-2,19882590989479;0,00560318536939343;
-1,02141367119607;0,563983095969271;-0,675244549308374;-0,734755020700903;0,0269944677670973;0,461331643240004;0,769630303369839;-0,162985483490987;-1,82237621810665;1,44394718653573;-0,592706053987654;-2,18943602030561;2,6427365049558;-0,596574609783206;-0,304723055606007;0,0968005434686434;
0,308046170881322;0,718451913144111;-0,581310069425088;0,588865697335292;-0,51963508777955;1,28942077464757;0,78721930795529;2,36155479943653;-0,597166817313595;0,206040309880534;0,852145839326597;0,669989015433655;0,20824634378588;1,8673874460586;-1,56211941499785;0,776781412180851;
-0,190653379319391;1,52710980441265;-0,745368403358134;-0,953345312073009;-0,622094363565307;0,475506918356617;-0,392181815826392;-1,26663951574265;-0,114408500748265;1,23533602471539;-0,433261189429866;-1,39263693917151;-1,77211405667806;-0,638266151212608;-1,17749138777061;-1,68050989981392;
-0,17226341650976;0,0414649323889476;-0,0835876923026068;-1,71999186582606;0,576710102047905;0,311692219339208;-0,622830038780417;-0,223278965694419;0,484038522379226;1,82720303151808;-0,675083935215993;-0,564817022888824;0,921486693541728;-0,456278815865128;-0,5203275575564;0,189947133123101;
1,20646421478201;-0,41173733068857;1,24198286824188;0,0760617908887768;0,472265105177065;0,803911252310059;0,119848549359128;1,35193844621857;0,711437343559896;0,878977880174105;-0,517115712569741;2,26937932838033;-1,04404706479094;-0,283657966429158;-0,592396061622288;0,789343668968446;
-0,931969745944471;0,80060546568084;0,754792557990575;-1,07040370874026;-1,36146987608721;1,23268318586919;0,774922005787135;-0,265669685435403;0,372200720525932;0,385372609476234;-0,226244228139155;-0,117599246953452;1,91868315358391;-2,12526088357743;1,37423453773641;2,35619743186912;
1,27863565457188;1,29213001947725;0,839895208085612;0,687760453276329;-0,237889126932832;-0,485754111141052;-1,13636749673614;1,27127968780419;-0,192373500299491;0,642394429643699;-0,714964368681214;1,35303115888776;1,17584338345447;2,74991102422775;-1,0693382587986;0,435563038392948;
0,562762492995312;-1,88845093472793;-0,0798324985388354;-1,60475396231502;0,417277397635621;-0,0463695102572824;-2,29071759038676;0,0637186495361285;-1,37664203722906;0,260229561080565;-0,545183924485375;0,239890848342108;-1,65509429389838;-0,889451973200014;1,17361068110206;-1,66145489672868;
-1,00318380589115;0,954965547451417;0,930376919771549;1,16383473809856;-0,662858690351419;2,10863263367967;1,59202067541437;0,455647237724324;-1,54740098785745;-1,90673713370902;0,0401968840496455;0,136088426364339;-0,86357404407448;1,05124182428748;-0,853174927311571;-0,305875426866819;
-1,29303685191154;1,2535220240437;-0,56792069167071;-0,12717729145847;-1,88783110606546;0,538824912057381;1,02679222058312;0,955000249393828;-1,208043814893;-0,557837117471883;1,41651098278115;-0,069222652744617;0,908683767429339;-0,0922372863557947;0,924098124067083;0,318204011171476;
1,59189114016519;0,381511834912609;0,66794255983264;-0,0401324509721088;0,417804270181296;1,0774359535837;1,18065239524571;0,969337150148472;0,568137309997997;0,267350250119228;0,626805704487039;0,493780687017984;-0,418675875335856;0,749060769697645;-0,75858683350236;-0,797455393933821;
0,387981329275819;0,865394463969292;0,114556448991854;1,29747284165414;-0,0848781609259803;0,53822023430036;-0,656488233575111;1,56700466122835;0,122770154567524;0,829039444533003;-0,161920515590393;0,312582713521815;-1,25238758239739;-0,999128684866672;-0,799201569483981;0,3948192624455;
-0,412630023128169;0,169078984941882;-0,10889321673607;2,57752910829184;-1,80661246121223;0,753146622390955;-0,669748225690823;0,229203764741354;0,648097060408816;0,959277678356139;1,42767077549728;1,16126922033628;-0,0429964996616322;-0,745035530761148;-0,932271791853486;0,730431316872125;
-1,14501536353577;1,46253426880237;0,81346245636462;-1,75204635451746;0,611368664260674;-1,71940767409233;-0,0304754915286343;-0,676475535285627;-0,408507535664872;2,54201963065505;-0,0151229164147741;-3,08374982333126;1,57322121282685;0,701592284190073;0,0115982015684794;0,382053580938455;
0,563216392614686;-0,384974567811079;0,951290188283562;-0,815383646037856;-1,19499263169503;-0,541930916578931;-0,38602057826285;1,3767419222811;1,26081711169599;-1,7302529519846;-0,575423398578237;-1,43193950122663;-0,417689767861739;2,21040557864796;0,333710573692313;-0,229167989587799;
-0,982499031149913;-0,293294359389615;-0,800667697248813;0,669503509447689;0,45814507292688;1,17372503247539;0,725394954800122;0,337219221109548;0,378342977818842;-0,518941367421393;-0,304542759139987;0,717927859705344;0,0716882413148086;-1,98071489894295;0,471091753210305;0,616756563160922;
-1,38810369276458;1,48032504034481;-0,446790945467124;1,17219114903403;-0,844040502140639;0,0425478214459461;1,0448456468954;0,16617760358005;-0,589053672613666;-0,0785490092443864;-0,791559971880143;-0,80023391727024;-2,51634774864403;-0,79609853883466;-0,534354568459172;0,790189605766625;
-0,161834970571357;-0,355404650309131;-1,4882276893622;0,8890988076694;0,258333191250194;-1,65664989342308;0,0413694297245364;-0,794182054960362;-1,20182906535572;0,217612224867784;1,92155708928174;0,50693289584748;0,304318144768713;0,553110783012544;0,0774768079725434;-1,08250865517282;
-0,85076798471631;-0,49840166335002;1,38024279508223;1,69543017935746;0,129285115002191;-0,491784153417767;-0,820588153683674;-0,319359195150697;-2,11214948966694;-0,364252134337548;-0,0628517427696469;-1,4395477747689;-1,94840117764521;-1,21468762740127;-0,739706404896499;-1,12180002577432;
0,0493707518822171;0,86014633308484;1,48874760794952;0,657279532191499;-0,434636643106876;-0,176770535575685;1,10852377149017;-0,920436822125516;-0,115452314962371;-0,0455419850020465;-0,230739787706858;0,505979792277218;-0,852377626560595;-0,608214870804724;0,816831959937494;0,93408047422451;
0,696842510754769;0,679813234689501;1,68439297325431;-1,15421848182984;0,493164392010094;0,478721206360232;0,929449012821405;-0,545366662294399;-1,78248945485014;0,0788926810298945;0,844096402738505;0,75785525069284;0,871512805799494;-1,31229595613391;-0,264600345184105;-1,02565642474057;
0,382859673247518;1,7156892072313;1,28407653609491;-0,14654889165593;1,77037308198727;0,0545889151920307;-1,02663902600261;-0,165142463487901;0,0998148744144639;-0,736297530785793;0,655406326579431;0,285285738017576;0,243916286593688;0,265498793313185;-1,75710465821734;0,858756717912062;
0,668229034001977;-0,216586609675415;0,618665254641034;-0,826046102491387;0,33795077527164;0,265925468495314;0,781841651842451;-0,635475690655711;0,835113611568284;1,62281711842856;0,132246081637786;-0,66792800342767;-1,58443403851454;-0,433786838201212;0,528188801961976;0,902889931301396;
2,19035714159896;0,497432763382408;1,85586384917097;0,568406582757387;-0,132432523300184;-1,09361324051403;0,850844353734277;0,750049009226984;-0,8615137886762;0,559429863791703;-0,677603289531167;-0,209289160983174;-2,33355246778232;1,22247490099891;-1,08691523694471;-0,225506685589009;
-0,0311233436377403;-0,310609939486059;-0,700803579787515;0,909459900103357;-0,317107540059111;-0,205690614212841;-0,211340930939399;-0,669612643171766;1,96541102214729;-0,845919949868274;0,67038069331567;0,400406611764847;-1,18995179156784;0,0204635766396459;0,05928411282905;0,42146640896936;
-0,437577471816812;0,188442759881373;2,44423659713351;-0,487079162558861;1,58509255481571;-0,143642319377853;-0,50014053498461;0,275201264593445;1,17794820744428;0,262084583942876;1,36121135636036;-0,754126004550889;0,889562262899907;-0,829437876053613;0,766892864958827;-1,45293266262951;
0,290521968774805;0,660266989246075;0,167090486579086;-0,342373113928602;0,567569609629942;0,272224340188567;1,06086876411322;0,747224559201399;-0,483861404181332;-2,03684400166944;-1,28640437632287;0,424963610922507;-1,35386738523233;-1,07137835654604;-0,24149043748866;-1,40812865767805;
0,333487210312976;-0,577727499042812;1,44168473420924;0,194891933350017;0,411164453132977;0,685010378101709;-1,24990483967631;1,1168272234346;-0,748028826529923;0,810024475413739;-1,55278391214434;0,832967656882917;1,2655166003157;2,58137580262205;0,114816974234445;0,352052023049924;
-0,983108998201949;0,952518356952513;-0,0562148369759812;-0,0130989149155703;-0,343550265029255;-1,86609801315405;-0,783391216935316;-0,502855850051737;1,66073255177346;0,785008081961213;0,000621886178278594;0,912183672890615;1,30601555468328;-0,348484664201105;1,68192702753512;1,30770905856634;
0,129643744518723;-0,0873960085176864;1,19306228166246;-1,03680809320192;-0,553015233094868;1,94415925739019;-0,433589980040602;1,11646773060894;0,41002461388575;-2,08354233739075;-0,50039700987149;1,22031044424833;0,586216828202395;-0,0275048863516627;0,506877182616966;-0,481351345565668;
-0,505076370254227;-1,47692628805064;0,420783961204928;0,0837162826058338;-0,391224031290981;1,6764351261103;0,495925233301173;0,24348403026643;0,551928706528048;-1,5540855039958;1,87846268005694;-0,876956899580283;-0,710851566576378;1,72200138356792;-1,80037613991083;-2,11661650727841;
0,483176365796648;-1,23589398501301;-0,620119057340243;0,116402857543749;1,12533928550717;0,270841259323284;0,0530634710303081;0,588064083055854;-0,510937447725687;0,518060040698361;0,069285087322429;-0,173740874774201;-0,388580947062744;0,286578442427142;-0,0491144020462158;-0,0275876721231577;
0,112179619153693;-1,04994585263395;-0,111311281656714;-0,262321624117526;-0,706318757283707;-0,114373574430705;1,05835461603324;-2,46166011613328;0,858414570555512;-0,0289040227105247;-2,58268489128441;-0,180400898194966;-0,844662394235405;0,930520498920682;0,279389454815723;1,15316799126223;
-0,312382960078549;0,586171346419164;-0,65186904155624;1,57556210705503;-0,51515113476796;-0,0540942511522545;-1,24432997653925;-1,75831255550597;0,936386878318933;-0,897285434716482;0,303128600547151;-0,286908122537034;0,0722190917792003;-0,285283766421499;0,0233643617997577;0,026824082686923;
-0,0276460284758845;1,9462521078198;1,95830566643154;-0,473659092110411;-1,31532545885074;0,545617576619282;0,726811247377268;-1,59155075437174;0,160096207747228;0,0570878665810405;-1,00765596320901;0,85828859410776;1,83185200619729;-0,334327512815566;-0,818666633035064;0,251969053418065;
0,606757641639585;0,394985460239819;0,862821288615278;0,992554417303666;-1,56782221126777;-0,652827309677448;1,06491720812932;0,728781303949505;0,309595873451595;-0,277596769649289;-0,131722775550452;1,38755187562505;-0,0649816063727321;-0,144480497744537;-0,929221268413261;0,180941161548615;
-0,440060708854633;-0,611711542839214;0,442810678284456;-0,651080740385112;0,324281576892629;0,65780497838589;-0,624432946059615;-0,679023617859964;-0,0375077455239249;-0,515727158465924;0,201236185634732;0,18542138800996;-0,195925333157654;0,979855426072781;-1,14449055418211;-0,494557673762683;
1,03291314428321;-0,3612856328927;0,653723861969476;1,24224094306746;0,617079211947769;-0,147955127503851;-0,632512134061529;1,13766164837908;1,24795338343181;0,051613815786788;1,60826526175776;-0,997509160144237;1,28967643466937;-0,139423898579356;-0,135943657586997;1,15549856864231;
-0,453579087716142;-0,0970739327586813;0,0650614969511739;1,09455453447498;0,487543435386952;-0,26262860355739;-1,69086749692826;-0,0561094094958916;-1,09505162807474;1,79387947437627;-1,46978435237818;1,21760948962971;0,453089725610418;1,49001946787387;1,01152543153725;0,571796891362347;
-0,557201253868833;1,9516287788866;-0,0284512846157104;1,30564664359479;-0,018504942780019;0,554473286363073;-1,16782155794874;-0,823609041930321;-0,856681007152322;1,04004777381194;0,675874412934227;-0,0764857882288355;-0,316932098622968;-0,674948315571278;-0,301411415106756;-2,05936333563608;
-0,437206496322065;-1,0413089523079;0,00548558222339879;0,855775786743815;-0,303190292745833;1,29574460621427;0,245246796441366;1,99329757364263;-0,662913457410079;0,356525085214759;-0,358747772482002;1,57173668433623;-0,21278265618913;1,20080475609372;-1,68944833660205;-0,393835271147634;
0,306726094690012;0,183740157084139;-0,433471843646877;1,17136273463947;0,326527461904047;-0,425268737401258;-0,570351636094961;0,36468426403434;-1,06101894656074;1,5282839834243;-1,78242198903455;-0,0704214009582734;0,386704376428743;1,61543549389269;-0,720249750919537;-1,62468107575859;
0,357516950695116;-1,04968039234616;-0,107859812422028;-0,166282535477736;-0,979414849751334;-1,00810149367471;2,45800354996292;-0,721976521699902;-0,137318456499611;0,00601330816618409;1,22423376608848;0,630577954892203;0,957594910515351;0,497581737037328;-0,246681908261379;1,01541435463234;
0,489928796058245;1,06979107307614;-1,4816933905114;0,0567145050973665;-0,46577162251985;0,240813157771444;1,48794001759215;0,219513730829563;0,823659702359223;-0,201949712797839;-0,830064919607191;1,60794231894148;0,893290646527512;0,79447031793803;-0,590379950038893;-0,887039395422995;
1,48746148249087;-0,245234087756749;1,35774116623467;0,411207052998246;-0,577310901910773;-0,942095187288016;0,775117630056154;1,05562438056526;-1,14843860821789;-0,958187657664853;0,381023823305809;0,432533207932391;0,309558271078806;0,212973264166797;-0,154853428110996;1,42244427662404;
-1,44162783650861;-1,43676052473232;1,24814040995425;0,216437656682366;0,965662098334652;-0,469725523260458;0,285443943395464;0,912627842456539;-0,841567452328248;-0,0891869291220836;-0,12661895297115;0,788408791174851;-0,35786648164749;-0,031061276977668;-0,626889237026797;-0,340058215048366;
0,87607110396321;-0,723380838140017;0,2027257620692;0,416779930475657;0,852106903869108;0,0211576615755;-1,78231767034864;0,238681439090082;0,845049763712476;-0,264804431225316;1,36133861767593;1,49591776924115;0,497371144675324;0,467368142542651;1,58948993894018;-0,652276490933099;
1,63940433895571;-1,54609135834068;-0,771457045649097;-1,22909788900254;-0,400525329617613;-1,1155556899263;-0,168481085441799;0,408267321712203;-0,115950698458621;0,331303248204164;0,743150572850607;0,834421786774695;-0,606092360533509;-0,361473819345533;-0,752986241542578;1,01588873636725;
2,30585945894396;-0,481565065710981;0,92890157987026;-0,833724600049428;0,0556872150833851;-0,0384572003654405;0,0699164537373543;0,868355343762209;-1,27664807364687;-0,540045745917012;0,234901506785687;-0,74458419636394;0,662258713669327;0,765313549136659;-0,581183374867677;0,628224125278449;
0,0454053062697259;0,648117309864148;-0,858558868402625;-0,733621961721332;-0,240140232291031;-2,00516614917169;0,370207440841493;-1,46843717433991;-0,123321805430765;-1,63226127548411;-1,10175337188906;0,0692694866878225;2,28264631738108;1,45515627892108;0,241534354908179;0,167116348228123;
-0,768997021288533;-0,282625290876646;0,91051622762699;-0,442017750072462;0,16152287799481;0,69471543153659;-0,0732507790583424;-0,844450120632904;0,10532893165459;1,70807940088877;-1,07544676906799;-0,660880017182285;-1,47219601435716;-0,334120750997938;0,69755011308237;0,456155505620627;
-0,968514720929871;-0,0568241412997336;0,360619189559068;-0,165387761301931;-1,09715517277209;-0,909035474264023;-0,0533011267618479;0,800038682379947;-0,515401231419435;1,16597018380597;-1,65089036527149;-0,017421282525011;2,09248539745375;-0,622662356680479;0,121584161878988;-0,421798260215536;
2,17074611415543;1,10890146154561;-0,493896782183954;-0,816034584647967;-0,305121534510062;-0,777785855731295;0,166261867833851;-0,676483780548653;-0,670655891227329;-0,222924628950619;1,09140822176096;-1,21904707441071;-0,00412364688210952;-0,511301351915978;0,662561886361108;0,381015364748498;
-0,175717845927941;-0,805339755774322;-2,575052212386;-0,349282100605571;-0,134843302844872;-1,59056511158405;0,0355086921987032;0,0247195571542533;-0,843534832994459;1,59087440849457;-0,170499551382774;0,0463863875082932;-0,0437074967611432;-0,966894076518112;1,01360904959985;-0,184574870077145;
0,626374861519162;0,149528154909906;0,151456780960017;-0,286160842402198;0,240275855406457;0,668961285874936;0,0780077911245403;-0,326102748191786;-0,365775204121325;-2,48302000394942;-0,122876385240972;-0,782959976633952;-1,50582358273884;0,466663143485528;1,08992085844555;-1,03182273997142;
1,47309415167667;-0,348479977385323;-1,25205134695093;-0,191797575543259;2,08941451468975;-1,69430720496548;0,494647851004593;-0,183715147644241;0,543563603679509;-0,862367206753749;-0,847882965936823;2,73907022149589;0,227522282499437;-0,368792266312929;1,12617126275711;-1,34314214858697;
0,774842150506837;-0,148735680774608;1,02361982578377;0,523635083510724;0,0726980854132745;-1,01900448227241;-1,26892244806552;1,46802459708879;1,1786227039381;0,871496435483385;-0,777577535490462;-0,815794957901444;-1,58992454112482;0,19266167193843;1,63496195609692;-1,46833037703832;
0,180516044741765;-0,265154142303907;-2,1709799070115;-0,0871897549698877;0,380092882762106;-1,61468248013154;0,225960476197106;0,17434983654811;-2,30917784141857;-0,409336858354535;0,717572831982313;0,953056259077481;0,754962571959653;-1,46448798239515;-1,39605523071494;-2,23511561779747;
-1,2096419334914;-0,101655803453568;0,462095251678803;-2,93423641495985;0,692388235733445;1,02963176930051;0,548767086454073;0,0552625430008146;-0,386940913133889;0,0343931520896905;2,10891937559052;-0,213834766939098;-0,867094642874079;-1,77280299338085;0,928589981023914;-1,31316112535747;
0,702101755496322;0,677193470888316;-1,25908699993105;-1,73655514658206;0,815168006766592;-0,817557283615972;-0,931123861149986;0,641308554376776;0,984495031492707;-0,177599240770509;-0,515108180982998;-0,828791843134104;0,301289533206262;-0,239126413913139;1,58792633861563;1,27018051714008;
-0,473669242118897;0,618862522927736;-0,849076751249817;0,364711004815815;0,96480467227874;-0,822919092468952;0,90078105217618;-0,073855427009528;-1,26440507782576;2,24225724783471;-1,2022399446167;-1,81945627258788;-0,351340704069471;-0,315216964433048;1,50053250544522;0,850681819361871;
-0,00200114949447329;-0,382493705980597;0,219061916709913;-0,355261638131131;-0,961684922664603;0,115776023060165;-0,374741165111585;-1,65540866160807;-0,822831619913618;0,229580553909094;1,11585112919122;0,335731888400499;0,0720169694569252;0,532468614386532;-1,10031207583707;0,522026566378774;
0,585921794309603;0,561133346101696;0,656084118859453;0,890770127442934;0,189068391825957;0,562862993571331;-0,876565517156921;-0,0974041746806851;0,238545332748434;0,494150763755004;0,193362320571212;-1,77399599719189;-0,248098076941992;-0,344161900875288;-0,553689752261109;-1,32855676863507;
-1,10147156000227;-0,327066220852678;0,356526243038432;1,74472530196166;1,53586098115154;0,705548982864904;-0,49340130679259;-0,801720262808602;0,929268459234332;0,373126126163394;1,80526565276418;-0,888295965641262;-0,380011315613104;-0,479717692202054;-0,694341022877467;1,37621358981676;
-0,395710968390407;0,741205057944781;1,86945955428985;0,259942634886559;1,08900634090758;1,17116972019343;0,113015329814873;-0,0291917118826433;0,0471471564463408;0,294022120626834;2,3218147703401;-0,847585089275844;-0,257837206791472;0,716436219910822;1,26255980561645;-0,449080597848027;
0,347804049038952;-0,121789266377433;-0,179348236910257;-0,696796822146498;1,15751005273254;-0,624101071188918;1,81799454660008;1,70872734750835;-0,657814644321012;0,196081661654906;-0,131937326447275;0,453222898661436;-0,613577457231703;1,66809233175499;-2,42470604632878;-0,0506099939340421;
-0,263886413274832;1,0887365583915;-0,488056299321768;0,362375311034638;0,547417642472948;-0,448775318149446;-0,111019187794366;-0,796703948069577;0,619216591282065;-1,01849923041984;1,49543143512341;-0,128490945285303;-0,152789692847269;-1,4805806578814;-0,913919673547228;-0,668721513842597;
-1,2334483781119;-0,314810093035877;-0,447071705511388;-0,891860622274126;-0,184877309525589;-1,022081896533;0,473634015322749;0,29783320039503;-0,00772937068875493;-0,774729856948678;1,21789651933111;-0,807586012211594;0,0659505029359732;-1,32032393646287;0,21362217818955;1,17138474913522;
1,39189115829405;-0,988667830961776;-0,318443008708721;-0,58674464621053;-0,638486112984568;-0,31733591356702;0,118678871869332;-0,00870900101112873;0,195604981780489;-0,771797300420897;-1,67008234036647;1,1908737317287;1,45248557243559;0,671588349107804;-1,11884381977086;-2,1389987527011;
0,0794869716791069;-1,27217690537839;4,01459054115881;0,3834659246427;-0,722541685030406;0,786497734576392;-1,12780481946551;-2,30621866610015;-0,826452140721371;-0,070268538690809;1,48603901923759;-0,0473543935831374;0,47469436648573;0,107178006594655;0,268236198344649;-0,986589557158661;
0,39694313830712;1,3557994362285;0,443428745530215;-0,783088321327468;-2,4940681041371;0,714946370400022;-0,36921881029114;0,255034780442065;-1,32158291511148;-0,596091019328612;-0,0852805268239248;1,15409445781337;-1,02624946182196;-0,294029710148699;0,160852032606533;0,715722247924933;
0,854688067413484;0,520636290544418;-0,731728778313641;0,197566801502876;1,41538471339134;-0,958215406218325;-0,219556919146038;-0,102578586424786;1,10093399712919;0,373451673513497;-0,662120784213549;2,10019504810058;0,30014095606203;-0,710170099562096;-1,83545548464667;-0,104473205417524;
-0,364415285215104;1,95263602921671;-0,936323974847334;0,855036620202762;0,773056193205879;-0,456001697191595;-2,16507960249687;0,116080796776272;0,0798120974851332;-1,44069844213603;0,985513590907672;-1,08612909891012;1,5087854757917;-0,577482449269587;1,63147584816527;-0,348564321782498;
-0,160218776063099;0,713518352684577;-1,19671354464983;0,229598977279888;-0,884339908797193;0,468112123218282;-0,162958601746914;-1,55503877443038;-0,118235352645159;1,76864612669019;0,324515975382131;0,0664447740304489;1,23562900002127;0,408869919312104;0,869848768401728;1,12297042813204;
-0,344694570689662;0,00107635446036965;-2,14204315898982;0,251702179791684;-0,863340602339428;-0,357237981452663;0,497960277382548;-1,29092092524799;-0,280593181282926;-0,683329772391882;1,6287948963878;0,38539828644132;0,844071515909278;1,6512688055972;0,092550688943813;2,12043318535787;
0,974932783262555;-0,624862417225682;-1,14665485864927;0,90864103796659;-0,212033447448292;-0,514572628203843;0,708389696358478;0,774471178017373;0,0295519185432994;-1,83040690270552;0,653620671370233;-1,79569375556761;-0,288915415428305;-0,597732901269309;0,131067834722378;0,300720893925619;
