-0,0443769759553252;1,91131188503828;1,96703988791441;-0,468993867609795;-1,32925759514686;0,544282395281064;0,718805511862343;-1,59269308211132;0,171524873833047;0,0444220279505682;
-1,02158554627985;0,846995294006848;1,8151494880053;-0,330304658904882;-0,8334720588554;0,239505128723426;0,590274880638698;0,37891746189229;0,892006173709767;0,981779852892049;
-1,56508497995297;-0,664437625685614;1,05858233645523;0,724560002762955;0,294114871545779;-0,276500487899559;-0,144882481726322;1,38650396807281;-0,078015809396633;-0,153665437787809;
-0,941610759367319;0,173156749636541;-0,451947810571426;-0,628707751593432;0,424311400817647;-0,646147650291369;0,325854044659203;0,658543260409175;-0,600981116766453;-0,694848085371132;
-0,047915236617117;-0,502839874295309;0,177625003315642;0,183027200886661;-0,231774743150735;0,989653969968005;-1,14679083956302;-0,504218974165265;1,04020034212407;-0,390939323366294;
0,652806737277673;1,23524362316159;0,612673099062692;-0,147497628110554;-0,654360222529657;1,14333759596883;1,24166045418326;0,0558620322983349;1,61193308424795;-1,01899254771243;
1,2799679432746;-0,148063891080891;-0,142527721411457;1,14424669497089;-0,475706715692922;-0,112526499313648;0,0732922382764249;1,0957558728771;0,501153387878434;-0,278540357067498;
-1,69694740995859;-0,0700094685131261;-1,10381422353159;1,79772496179637;-1,4958933464299;1,2148284525962;0,439106956839091;1,48732807504629;1,01929637446201;0,549714641603739;
-0,57372471258113;1,93463406664679;-0,0382339897177571;1,30662735037917;-0,0331376815109046;0,558851624694133;-1,16472457730158;-0,832037245648008;-0,834841899534881;1,03896719167106;
0,649196660515444;-0,0748466092761255;-0,337869174397934;-0,670864704135823;-0,315512039959808;-2,06778113299307;-0,447780805922765;-1,06561285435724;0,0414599659886695;0,849161738198564;
-0,305697425309382;1,28802645330452;0,239210638091705;1,99681258633478;-0,670260175439455;0,371185942631139;-0,37329626839908;1,56653067165371;-0,203041367597546;1,17782468558778;
-1,69011783436579;-0,410334375168954;0,296912389988906;0,162814663101535;-0,416903443751469;1,17332329655571;0,322923986954777;-0,425236573215906;-0,577086733085271;0,34345919684129;
-1,06037782632779;1,53029930618904;-1,80452737994766;-0,0771905721287876;0,382823575461078;1,61197263457192;-0,722710080200555;-1,63257614942181;0,342736032774999;-1,08385228093963;
-0,104628271914484;-0,168723225317805;-0,98800905487612;-1,00816867943141;2,45172827299893;-0,724738426982599;-0,135827195165973;0,0186417747418729;1,21500133158436;0,619170965387695;
0,951305232442546;0,500740413372476;-0,253798402603119;1,01259408922283;0,478077782377365;1,05223301876802;-1,48739955019918;0,0585908112635261;-0,457105110429297;0,235431962218482;
1,48781995142283;0,214773818485257;0,817998487420881;-0,19526619801466;-0,840101021619517;1,60827475530419;0,890845011262552;0,79853868644184;-0,588761263581532;-0,90203925349794;
1,49244909569788;-0,268132566894051;1,36777648667426;0,415137115276499;-0,579625284926479;-0,941526699073595;0,775283371120729;1,04448836175717;-1,14911044023963;-0,967389448343851;
0,3748530307478;0,421700747262492;0,295255202292662;0,214865053236722;-0,15617279690135;1,42223856677843;-1,44379416117469;-1,44474162370112;1,24569015033633;0,209738641783862;
0,963780078633338;-0,470836353776069;0,285766475076952;0,903842037858427;-0,845556719804588;-0,0904514988891364;-0,138142975717369;0,788326673310594;-0,367067879183436;-0,0378387455362103;
-0,632828177000471;-0,341223621773479;0,867057894769981;-0,745888931307364;0,196782355950046;0,422775136926331;0,85031654127259;0,0212106497121667;-1,777168575086;0,240024552974435;
0,836734067660011;-0,265442706680727;1,35880777833851;1,50019416961561;0,494271915904092;0,479223948064652;1,58338909603084;-0,66901168479251;1,64832848577275;-1,57935362116272;
-0,778378350025555;-1,23033207688798;-0,405493625483241;-1,11353725799781;-0,174086796599;0,410555733647634;-0,121113262337515;0,327846018905039;0,745743979758021;0,824983279173243;
-0,621514644141696;-0,374003853714625;-0,765568638449889;1,00956646881699;2,30457064065732;-0,482142431403312;0,925472605845714;-0,8338470773432;0,0568577631605524;-0,0489779410973768;
0,0699664580841405;0,863594012103779;-1,28605737818803;-0,541387369745486;0,220246588423369;-0,738748012442005;0,641207915791615;0,772003954049768;-0,568995747492021;0,611007827640504;
0,0382652825601882;0,630278748494791;-0,870209833733839;-0,732905571886313;-0,243111132097118;-2,00146398122023;0,36593127891274;-1,47136812783745;-0,109667090957782;-1,62663872087399;
-1,11932737799258;0,0562449986005687;2,28229935784507;1,45562408152145;0,225896863024031;0,161026289622854;-0,780847048455095;-0,307930323653124;0,950948485333843;-0,455370282353665;
0,153920143066586;0,686153774836141;-0,0822529212456086;-0,847718537552486;0,0972048892898471;1,70784490908516;-1,09571821052963;-0,666502646235704;-1,44115685866728;-0,35112896648636;
0,694828762549966;0,441887075329183;-0,98306425666439;-0,0644773204727994;0,351606013190489;-0,168051594530289;-1,10969783489639;-0,909543190080258;-0,0276079207464633;0,786446396278445;
-0,518014436135353;1,16136257600768;-1,67589261485704;-0,0177603146053915;2,08363421351249;-0,620725226812913;0,120949487593373;-0,424416924748181;2,20203204591232;1,10499608104746;
-0,494349152359025;-0,811063119502222;-0,31129992009172;-0,777312318251217;0,154061900497768;-0,65730799272987;-0,673001382950164;-0,222904833415094;1,12451900636062;-1,22483249327458;
-0,00853410775396365;-0,521410689005101;0,662933804987281;0,382593225413732;-0,192737822990004;-0,803454413145849;-2,56204093351989;-0,347844827976929;-0,0996277680998006;-1,60389723887245;
0,0326875541778563;0,0345115044776538;-0,846744732001647;1,59364290195152;-0,177368699717968;0,045651450386037;-0,050798738878457;-0,968681768103785;1,03751359097632;-0,197314684083253;
0,624255941368464;0,126897474028959;0,137154751522929;-0,284426489915768;0,223815837285869;0,671296394391096;0,0759365848929492;-0,317990573449644;-0,340532728325761;-2,48099014431211;
-0,131033293354943;-0,787234678692517;-1,52000894830058;0,473842847853834;1,07712237893557;-1,03462633921895;1,47036015233244;-0,345489626770178;-1,22380050303629;-0,199271333883766;
2,08583999195924;-1,69208815823108;0,48080770483731;-0,180644144158159;0,533095924327041;-0,861022606583406;-0,851305396481646;2,7368900013668;0,257062374950618;-0,375302643333342;
1,12543755983446;-1,36025863185034;0,770347911108005;-0,145539454187776;1,03279390631187;0,525345810986024;0,0664898519538712;-1,02073907823813;-1,25777796946245;1,46029962778133;
1,18209784847046;0,864921017197223;-0,778153564049252;-0,817976905995145;-1,59771660902422;0,190351134364097;1,62904968610633;-1,47726444077762;0,188087877592516;-0,293471333399413;
-2,17941659016295;-0,099680005065412;0,361085310236656;-1,61348482562999;0,218929844888544;0,178854959313181;-2,30920746270132;-0,400535860223885;0,72309794689149;0,93941553510067;
0,754803107022111;-1,46466034195722;-1,40613380753359;-2,23979793917705;-1,22059351931889;-0,0958882236860589;0,460784694404625;-2,93636170734904;0,710526393687944;1,020714792997;
0,547067206288864;0,0597750346345673;-0,393669651969847;0,0397603188971258;2,10802268140144;-0,213850744173122;-0,862856327338058;-1,77445210681439;0,94858618030302;-1,31874969154667;
0,700707805115848;0,672227881789728;-1,24658324639899;-1,73661625308068;0,809838303488843;-0,819092810743218;-0,941103656948382;0,646058739264794;1,00435153225768;-0,179011684828175;
-0,512868700761609;-0,839869243682331;0,305318767399636;-0,242521135391749;1,58393621201429;1,26600665134065;-0,481602451275401;0,604762568533095;-0,832582295934959;0,356679365907286;
0,96278494152106;-0,833125229910665;0,889201151208561;-0,0707585159724209;-1,26527012094553;2,25416027687112;-1,21001365940553;-1,81924217747353;-0,336371655029473;-0,323939752542422;
1,49318107184469;0,848220649984555;-0,0155080635544172;-0,374261144993167;0,227068369094409;-0,351310312072398;-0,96094009136055;0,115522129220635;-0,358023859239156;-1,65978441002281;
-0,826645436582319;0,237701728459597;1,11055076452978;0,33759788240852;0,0715983012994175;0,531763892394687;-1,09757465742299;0,519143326577216;0,598260098693061;0,559207061560084;
0,665171783132925;0,886801069588748;0,183351312395279;0,565181945101053;-0,882113920175716;-0,0880850693049615;0,23198947848719;0,491993210043793;0,211855981697923;-1,78470207895872;
-0,262258463764678;-0,343694601193039;-0,557608209699404;-1,3311681898905;-1,10624287037444;-0,339164436292188;0,357939373967955;1,74056247178299;1,55141943597546;0,698583853485073;
-0,493796749457236;-0,810678403392545;0,912455230783887;0,380782841952681;1,80280887862944;-0,885785128512053;-0,385225496815573;-0,47613467697165;-0,675348990503509;1,3670649002293;
-0,402071670407716;0,746885870435184;1,85494181330101;0,266023763918137;1,08320345183783;1,17596186180399;0,10664999472849;-0,0235517338396973;0,0662610983554735;0,283603910597853;
2,32636546656082;-0,841928137660658;-0,278289356760223;0,726113562537038;1,2628651261749;-0,456062311368202;0,347426930809446;-0,123905688015322;-0,160924992708961;-0,695613986692621;
1,14716447603139;-0,634933015973695;1,81494294165742;1,71350006934236;-0,670399309682494;0,191786637488757;-0,142301194876106;0,452884606297532;-0,593648362421861;1,67395930455848;
-2,4380084724648;-0,0736119840818212;-0,271372525701202;1,08143465951328;-0,499003045458581;0,358400505283581;0,542466411407409;-0,450021019277551;-0,0732777921181193;-0,809907575083817;
0,616883194798211;-1,0270301953756;1,48652382170765;-0,124591763771745;-0,171698109150789;-1,47797916294291;-0,92385407111755;-0,676827259695025;-1,20944496633721;-0,324829217470146;
-0,450871682116393;-0,896823553587199;-0,195529504825403;-1,02333367660154;0,463931010104604;0,299433790462347;-0,0106771208736832;-0,767283763702055;1,25518581234622;-0,812035356515181;
0,0631950114751666;-1,32113535376274;0,200728322049235;1,17046053236172;1,38588535856909;-1,00083158083663;-0,316191879610094;-0,589440502600658;-0,607342534132269;-0,316523102933096;
0,11501729722078;-0,0188791317130303;0,196378174429012;-0,767228525621212;-1,68643343252324;1,19473284997655;1,44693546086546;0,675777207777946;-1,08499105985281;-2,15078540910075;
0,0684114922526769;-1,30454594186935;4,0160439395538;0,384046099334067;-0,721315914154616;0,787552191337574;-1,13024146076728;-2,31751048140542;-0,793166613472861;-0,0668557105351718;
1,48425713470712;-0,0594254878379769;0,469717746886694;0,109108103609969;0,256606858689202;-0,989143172692912;0,384119828620112;1,33335734270062;0,479434263771201;-0,782361812593717;
-2,49417668041295;0,710748919340381;-0,379820533480126;0,256066134200973;-1,3355957121775;-0,591732174506106;-0,0987906350093033;1,15190430925769;-1,0085729403547;-0,293115705094858;
0,155032634747378;0,705114807288422;0,833814497917841;0,505094260687671;-0,722573040843345;0,199458202667411;1,41920889803074;-0,959212559247476;-0,181930049098186;-0,106739404287693;
1,09364185057312;0,365331700215369;-0,671388704942491;2,09907719314614;0,27334620676814;-0,706701206659452;-1,84029265243442;-0,113539073242564;-0,343339033556404;1,9267002694513;
-0,941194097548061;0,84672074509878;0,777808373828757;-0,455649444451542;-2,16224166688801;0,107648535630474;0,076922474046019;-1,43443648102938;0,991075562309353;-1,09751043965707;
1,48295444804047;-0,583180875926482;1,61903024635454;-0,358838620791703;-0,17426921046989;0,688229835349706;-1,19523811203894;0,233401123905241;-0,87021837138329;0,462120452923099;
-0,173667452327879;-1,56219380640631;-0,133904049009603;1,77218422859445;0,306514852706369;0,0636706162446103;1,21935155348424;0,411639807377431;0,889398019826925;1,10322686123826;
-0,357778777392897;-0,0204760852056836;-2,14278981746326;0,255846708027553;-0,86441740400084;-0,359512641703296;0,492926113955473;-1,29783514308648;-0,255787691295894;-0,682981686452609;
1,6108018432674;0,37102379209441;0,822934673174179;1,65468884330302;0,0864375727537345;2,10245119741331;0,961620511819938;-0,643971803576034;-1,12355820724848;0,909553770252373;
-0,215386640701703;-0,523950253495186;0,712623031838827;0,764670409507246;0,0282805568264869;-1,82682406349384;0,635597945295981;-1,80069138064825;-0,288591371746685;-0,592367552825204;
0,123930839363178;0,279055212753263;-0,241910077111038;-0,168448651499895;-0,912498789539869;1,27238397627539;1,91911304027961;1,05482139941065;0,191248139576865;0,359412484101938;
-0,961289915122299;-0,61652248259509;1,30123461345753;0,603528198309821;-2,52128426804506;-0,208666946991075;-3,27829887415609;-0,591491007603326;-0,27101635268567;-0,64223846764468;
1,04733697731136;1,04428969623149;-0,0125533985096434;0,796983854747574;-0,373980018429832;2,02203910388604;0,422681738387359;-0,839989556879068;0,949374394919389;0,0954351415989423;
-2,02985330722551;-0,844068918965171;0,28905051250065;1,88793759852578;-0,0878141352862345;-0,425147870910447;-0,576273844523531;0,902107064528662;-0,802696220836905;1,60932209989502;
-0,68550095003073;1,17495415827901;-0,815424054958144;-1,71945989197254;-0,573442407565453;-1,62413862840665;0,468629812094732;-0,526775901708973;-0,896595309312825;1,46039470749952;
0,275288514438545;-1,09531259427025;0,963708003901229;-0,181571845287392;-1,3446344882915;0,283116457395903;0,134490178841039;0,0961067163447597;0,910559319922981;1,71801666440526;
-0,239119544136469;0,876714335897076;-0,258163657363599;1,15212587755259;0,300168981603139;-0,352379657327355;-0,229258301608309;1,26259557032335;0,278543594197615;0,00637334690857731;
1,09627386427434;-1,40249614476559;-0,299292222196708;0,134727266128478;1,16671151168552;1,66010532916935;0,736737512662148;0,230596261420346;0,270219985544112;-0,396518656234536;
1,17275704637221;-0,626650518317155;0,0194845007906812;-0,360532763676099;-0,242159504888809;-0,978711039193528;-0,710157745250205;2,51634492149938;-0,455846816890256;-0,133807791075984;
-0,0382233845072417;1,92929759079991;1,95711305203225;-0,486647707091321;-1,31699841905105;0,545399354942896;0,724280725338642;-1,59727486494142;0,149102173369161;0,0608568948480064;-1,01781568025023;0,856408915464551;1,81153620960236;-0,33349799233232;-0,831472542505567;0,242402479230181;
0,594279112577291;0,386022020777344;0,869544410798149;0,981216006427056;-1,56257179616543;-0,653580331504212;1,06636387045445;0,719393482706642;0,298269279011638;-0,276200501169406;-0,141608128808959;1,38572877252358;-0,0907845214039987;-0,144387610516081;-0,942816975095481;0,172886209165743;
-0,448927163387581;-0,618118355748339;0,431875319176521;-0,667281798837401;0,328101693697297;0,657470724929923;-0,617621560273889;-0,69625726107595;-0,0458273810874612;-0,507278180599511;0,18111863473784;0,183666299420584;-0,232512906196704;0,986867845431982;-1,1533153463946;-0,504959149491971;
1,02079607774472;-0,371436596620233;0,646055472346624;1,22838226229317;0,61049752367331;-0,149090487488382;-0,639960446459152;1,13517694302744;1,23981138443457;0,0578466248110275;1,59105940884766;-1,00176173719361;1,27028645313595;-0,139911098379063;-0,153120239905681;1,14245475529656;
-0,467106053559931;-0,1005561300058;0,0659318851209509;1,08026593566089;0,485274447840542;-0,26368312643502;-1,69446997513061;-0,0639426628977161;-1,10164351998627;1,79875403377808;-1,48648145170334;1,21108985213652;0,430675320303045;1,48653071914794;0,996611595619901;0,560796240744312;
-0,571588170202227;1,94067768153038;-0,0418773093810845;1,2907247508872;-0,0207312227519578;0,554226348882381;-1,16278545952911;-0,838859591636785;-0,860675616964763;1,04779317835568;0,655722038131367;-0,0797036793578711;-0,335315929405783;-0,672704244131793;-0,312443154011051;-2,07009677048629;
-0,448345114883648;-1,0584751431041;0,0127162725473113;0,838671860258394;-0,305975565296067;1,29569088698578;0,236536675361838;1,98949551504863;-0,666950926688373;0,368564990425994;-0,374530345417793;1,56816244053709;-0,211704890557414;1,19376612325897;-1,70304970408003;-0,401166696445706;
0,292914104717381;0,170656137425148;-0,415685133030269;1,15106696863148;0,321348347213413;-0,425536861071996;-0,577390952932364;0,351337321699087;-1,06476173790881;1,54302553353417;-1,79929110045997;-0,0771768680349931;0,380508746733282;1,60687169065489;-0,733679403705491;-1,63412603595991;
0,342819211515352;-1,05505292361463;-0,110503435299244;-0,182378957127817;-0,983943917653381;-1,0092615666794;2,46123639638826;-0,735217972493768;-0,140590143259865;0,0179600030438626;1,2064105664408;0,627671000246373;0,946126555207162;0,498318201958363;-0,25964715797675;1,01158581095251;
0,482446760176245;1,06345224933874;-1,4996190781309;0,0426367114648471;-0,467303788945889;0,239889267284139;1,49076652751052;0,213954628377278;0,813311300889588;-0,196742335682509;-0,839067489879861;1,60803859169418;0,882296154140477;0,801451742103233;-0,604012520522682;-0,89488149006381;
1,49024697418513;-0,255282428946876;1,36222516557265;0,40852470479674;-0,578234756741212;-0,944212259875292;0,774740210949305;1,04138535092078;-1,15272466384431;-0,95773242300142;0,378573811601217;0,433944104821982;0,306954171978228;0,21025356728561;-0,157614163679756;1,41778792802257;
-1,44695381207528;-1,4397454778233;1,23849678027414;0,215758734847836;0,97118763798779;-0,471918233244843;0,29046978640747;0,898100604734816;-0,845284178419418;-0,0940437066302904;-0,138957053997195;0,789911265519801;-0,372255975050526;-0,033571181625943;-0,629114384938834;-0,346418364155633;
0,870639300665296;-0,739834726219857;0,193400722501212;0,414973720852861;0,84705222702219;0,018507911353509;-1,78573973334752;0,23516500566609;0,836807185386881;-0,259483513210378;1,35794042811557;1,49990793012029;0,488985149267645;0,474771026195014;1,58373322509044;-0,665373878308906;
1,64195312474775;-1,55559711818559;-0,783143848781531;-1,22475269677262;-0,407427930841835;-1,11806517537078;-0,171169279549289;0,40697857432536;-0,122605067970007;0,332368271346993;0,73867432175321;0,834830023671233;-0,62747074273833;-0,365572492354115;-0,760843402694223;1,00751829617713;
2,30424691340995;-0,473848158943192;0,918177203948177;-0,832763865188358;0,0508221341527268;-0,0405842885423704;0,0763713254988832;0,860853298737806;-1,28116250404951;-0,541731946686906;0,219041482547384;-0,744233072077947;0,633934559051747;0,771549062797697;-0,585966572218621;0,620589950290837;
0,0392955742047728;0,626321522326779;-0,868116283387098;-0,7402504559233;-0,246436760266723;-2,00676506579698;0,362999135442716;-1,47453022218193;-0,123587937729263;-1,62561720678165;-1,11172400432704;0,0701657321238444;2,28469640722454;1,45233098021944;0,237398364985557;0,16224664213919;
-0,775696798911125;-0,302455590041692;0,912779683656191;-0,4478073945738;0,156530232396277;0,693449876185613;-0,0832790900310344;-0,853951860751367;0,105907460301944;1,71233700406479;-1,08930717783037;-0,664182715137153;-1,46770936281083;-0,342006979884569;0,693586559483347;0,452203074411706;
-0,973596319210854;-0,0592987447085726;0,356962547762396;-0,172465500929042;-1,10582261141441;-0,910697436607944;-0,0513285705711598;0,786057317051435;-0,515787734796704;1,16220584378817;-1,66959441928246;-0,0172824317884041;2,08711150846134;-0,62368933972611;0,122857815008891;-0,424705369536103;
2,16993277785984;1,12359647745516;-0,495579938094951;-0,815564399117096;-0,304103765605891;-0,780063227163754;0,16452926673385;-0,661168144757967;-0,671908894219914;-0,222108380583384;1,09344581846889;-1,22061404481365;-0,0133205855593345;-0,514081500639022;0,660727031216569;0,381086047231193;
-0,181481959593074;-0,792611690212105;-2,56236864951009;-0,347703089883001;-0,133953192143428;-1,59303854963121;0,0335149933090049;0,0399673679516199;-0,847312191719898;1,5916666827768;-0,169574134646006;0,0450270751343638;-0,0548267605786821;-0,969540945347931;1,00659133531835;-0,185784117231398;
0,622328791921577;0,142239568932432;0,14161294693051;-0,290792621077438;0,233649270600016;0,667413059806512;0,0776913549601014;-0,321189426595099;-0,367898312011173;-2,47367509536841;-0,131590874373482;-0,783334984465116;-1,51072616592365;0,47183555338027;1,08690847876548;-1,03826971663698;
1,47203791034977;-0,341647840903292;-1,26142392158841;-0,196198491037065;2,08737381946853;-1,69610667193745;0,487521149757202;-0,185954105624787;0,542369374821373;-0,861722920717904;-0,849339469205002;2,73900436963181;0,228201354365388;-0,370730033790309;1,12304537182745;-1,35189560695859;
0,768394984535583;-0,141627407192107;1,0375816804686;0,516621478652525;0,0657316535291808;-1,02015508245243;-1,27694410181872;1,46894849442678;1,17639397751529;0,87461365847826;-0,778356679152116;-0,819159948923564;-1,59907403046795;0,188073320244784;1,62769728618729;-1,47722201367063;
0,171203714706304;-0,266045035603794;-2,18543617949284;-0,0894066103040073;0,371391352738049;-1,61720374845998;0,227932762252709;0,174575385169367;-2,31048493376394;-0,40029113037416;0,709926195532025;0,950943663234373;0,745761328784917;-1,46229178367374;-1,40015412251895;-2,24101059735841;
-1,2139182493701;-0,0860166867552882;0,456502679699897;-2,93722349309512;0,691774246601346;1,02774492602829;0,548113128319357;0,0575025185767748;-0,387221679337222;0,0375446434163667;2,11200784359963;-0,214491115144451;-0,872212760841194;-1,77513569559531;0,925755454439387;-1,31233969268072;
0,705552517078456;0,677051003704011;-1,25203757922138;-1,74061247134468;0,812471571622006;-0,818152748723167;-0,940136904327293;0,649401269539675;0,985289949676481;-0,173165237659681;-0,514616061859717;-0,83206804390841;0,304641832473661;-0,24536755346838;1,58049955550449;1,26485517543018;
-0,476375213768851;0,605307718020078;-0,853294064085139;0,361751746568336;0,963391046039183;-0,823424471904608;0,901226816714099;-0,075659185743065;-1,26408322987027;2,25209933378259;-1,21096804456946;-1,81895984131201;-0,352075838847863;-0,31593152795321;1,49213635857886;0,848975513313109;
-0,000565783635284412;-0,379044531985379;0,221524081562517;-0,356762995386073;-0,961496932496683;0,113190973899259;-0,37791142390173;-1,65083017419235;-0,823370749442579;0,235509962606461;1,11919746960694;0,334701425317731;0,0704789644354743;0,530037236952676;-1,10240675588063;0,519304665309502;
0,582758036519351;0,562099111070729;0,663503802164879;0,886031522197849;0,183362607612829;0,563051756206383;-0,878196567753715;-0,0914660463131017;0,236282041507789;0,494680689027033;0,193649467771472;-1,77604473829806;-0,261741317301727;-0,336840267339791;-0,560322849263766;-1,3333293225022;
-1,098684508244;-0,341777486779144;0,354692707596586;1,73681506523846;1,53332025721485;0,705917204740715;-0,491578372741479;-0,803040418643874;0,926535147433572;0,37502614977647;1,80364462117913;-0,889647866384133;-0,386530387885408;-0,472799528510736;-0,696877997618227;1,37582606849763;
-0,396001454907832;0,744721839745566;1,85787312118059;0,261297746566351;1,0829643891777;1,17086518675124;0,106902088104026;-0,0216182496370186;0,0407051133916248;0,294910147293677;2,3257518680102;-0,84702568021085;-0,268121968765835;0,722725564593245;1,25404326547512;-0,459602410437555;
0,350071986814192;-0,122371941157338;-0,19003820361755;-0,695139698722236;1,15449867409448;-0,6247601363753;1,81409737884611;1,71142175093415;-0,662961010666199;0,193328033827671;-0,137854097636357;0,454638937120599;-0,633210793696997;1,67990085251991;-2,43610604326281;-0,066516355529503;
-0,266451374648048;1,07890879690597;-0,501714247644217;0,359372873574781;0,546398605491146;-0,451810074208056;-0,106712469025329;-0,803676622684074;0,617472460261148;-1,01512169398891;1,49664355946956;-0,123434793100722;-0,168936378165195;-1,47286805613837;-0,921989830373744;-0,67742676759377;
-1,23317933149961;-0,322980383312433;-0,45236054339255;-0,899835033244898;-0,189793267883233;-1,02239668921329;0,471733720588413;0,297138848604796;-0,00611120456507219;-0,768889570864839;1,21980264121524;-0,810519350707069;0,0638716005464545;-1,31996406283864;0,207436832426915;1,17093315634051;
1,39469392201706;-1,00012955142768;-0,315973536085952;-0,595440870392039;-0,642299667624693;-0,317291238122034;0,122078571521308;-0,0135869730551038;0,196884579278888;-0,769855364335796;-1,68019809840425;1,19247308825522;1,44964679905703;0,677977663742991;-1,1262430984232;-2,14303342028432;
0,0787008034716812;-1,29690880031994;4,00269987464129;0,377765598519472;-0,717649319217569;0,786300001118975;-1,12701113683725;-2,32111821325465;-0,824940003241978;-0,0600974771125574;1,4836315642008;-0,0472897713565378;0,479120107399569;0,108828914827835;0,256173687902577;-0,990332842638023;
0,39503140170099;1,3325558844146;0,441137757776138;-0,784682193853248;-2,49599784355218;0,714702957775834;-0,372024675451543;0,250787569149139;-1,32677212856815;-0,59205028182796;-0,0955493796276732;1,15245828233725;-1,04561671578765;-0,290913580974356;0,151736407881646;0,705236648064602;
0,851375326006402;0,502496389193174;-0,719454052583735;0,198800595624853;1,42036275269871;-0,960584396003737;-0,218099762944057;-0,109788179485051;1,09755816129936;0,374506868332247;-0,672760484311285;2,09890403467347;0,275710391357846;-0,708514533335974;-1,84386575760939;-0,113088516395274;
-0,36428346097896;1,93611725532265;-0,946273234437507;0,848588301701656;0,776945068185887;-0,456126998705548;-2,15656080336458;0,100251498613259;0,0792860403061962;-1,43657316944557;0,967399414181317;-1,08809658579926;1,48359133101051;-0,56580044110132;1,62682879548433;-0,358532249585805;
-0,163424313407661;0,687261333548653;-1,19796137537077;0,224167133780539;-0,890069634898946;0,468146937924935;-0,167872883077431;-1,56295578410377;-0,121886549427594;1,76995357139103;0,309068289769329;0,0625567963817666;1,22044918964249;0,416021110032052;0,857611046942062;1,1061723754169;
-0,357602657267255;-0,0181644602139578;-2,13564447782641;0,260421003450186;-0,865504003240874;-0,358311546911321;0,492503740065193;-1,29425422515166;-0,286526110931125;-0,680839673307593;1,61314331320374;0,379607555720895;0,825019531448941;1,65240861933762;0,0809254134550954;2,10529999227255;
0,960904795337077;-0,64243957576705;-1,15294774558421;0,915438673367376;-0,213977844735608;-0,515802657691581;0,712629859782345;0,76634225060664;0,0252636552547678;-1,82395197870985;0,634223676324996;-1,7986960455355;-0,310429975893091;-0,589367664317052;0,12512474589923;0,289990615522652;
-0,228565190470918;-0,172057989129296;-0,917890187072688;1,27953794674077;1,91794093420998;1,05077337029703;0,167899323276497;0,365984708189345;-0,956367890261372;-0,612223094873273;1,3120581676666;0,603884127107743;-2,522000459418;-0,209785343829938;-3,27952093542305;-0,592434369384538;
-0,300207969189543;-0,640506992849469;1,05060136311823;1,04339556656269;-0,00234788555043681;0,795040171091936;-0,379695732214248;2,02667717624134;0,421656502558836;-0,839346284711231;0,920122269009758;0,0956537352005891;-2,02333980005892;-0,837026515792354;0,286033138004132;1,88738175301194;
-0,0915748665940642;-0,424386429634435;-0,575766121752287;0,905303510382891;-0,830196989817516;1,61265953914055;-0,682225258821974;1,18464764246522;-0,816414397843227;-1,72098018296606;-0,576663492984042;-1,62090901067933;0,467931915527023;-0,523455449580966;-0,926674515715705;1,4641574992581;
0,276242565525375;-1,0834078546909;0,974970393846236;-0,178822642133981;-1,34972062687083;0,283050557810464;0,130379116720613;0,100714209015353;0,882069465201227;1,72238181182856;-0,238159379002994;0,880188383529019;-0,246018916684213;1,15020967374563;0,290031149315105;-0,353389865974306;
-0,229629487137201;1,26230407847292;0,241836586795264;0,0159167880269224;1,09503563950081;-1,40542321296935;-0,287656607595475;0,136157271264801;1,15653286669822;1,6608136921129;0,735344842188923;0,23298118075117;0,23738784512814;-0,399107825187154;1,16626850738373;-0,624900853899685;
0,0195031802954312;-0,361697530060264;-0,242841720383988;-0,971475245946955;-0,707464540562556;2,50505056836421;-0,455447758876444;-0,130847641712177;-0,74693963932552;-0,125592543872493;-1,29227212426096;0,0298030412139597;0,0775577386869848;1,10234320634399;-1,21659375104077;0,614809511117998;
-0,428832581370814;-0,331207674714784;0,159022234276193;-0,101006395400768;2,12271424525571;-1,26109615672169;-2,3323088135931;-1,92376211791182;0,568459249505625;0,256728198196837;-1,52214624545287;0,889138258945941;0,36859598752814;-0,290788348309826;-0,118875883451193;0,621799692597054;
-0,335752831987757;-0,27971359022478;1,21530643327218;-0,525027187978936;-0,74098962936501;-0,132959527861606;1,42601024716368;1,29030752696419;-0,150432036296883;1,08867623084789;-0,7228763920188;0,134547657178631;0,0737878047424665;-1,02582613102605;-0,165615084619569;0,0493427307412217;
0,651716901916096;0,726507243331276;-0,0567093546227211;0,765646135705937;-2,02495607864504;1,67210085456019;-0,109497415499901;-0,576712642147875;-0,325228098889428;0,447199060267662;1,2612606631524;0,432035780126831;0,369502526919017;-0,718560179168212;-0,048853167259884;-1,36818950041614;
-0,297871425329529;-1,31555640738488;0,41690975238822;0,174024731445524;1,56805074506524;0,496883483724718;-0,71583762565643;0,679040530350107;0,143774711315661;-0,14114195646289;-0,991786957770259;0,273707252235612;0,546778062157519;2,19834906280972;-0,468838090661516;-0,954972514838209;
-0,249033244086403;1,30265632977289;1,37568387187325;-0,476184346785442;0,778250535235783;1,92904822925773;1,481542590915;0,42398339340572;3,8762037432707;-0,756366720067775;-0,453775375555413;1,93333932114255;-0,686260235434746;-1,41174972211238;0,902677321806319;-0,0542971853992803;
-1,13734363643901;0,0932073199532036;1,1133718087516;-0,882407976924818;0,229249989868509;1,36395672059074;-0,856576418254368;1,62328300480895;-0,956981010316996;-1,19522631479905;2,24523756718433;-0,56651255308361;0,960932640319074;-0,208418311122433;-0,236059593373085;0,951896234954566;
-0,190893962999737;-1,49762558395785;-0,526825723007788;-1,72802862931757;-1,6994366541488;-2,54551684104331;-0,53027967178659;-0,172540798971302;0,740706962050253;-1,17922184594644;-0,249479884029831;-0,389962792367245;0,317605177870625;0,772804770538446;-0,0537275859608003;-0,0348414503792799;
0,694011705335028;1,11080298660004;-0,519687129991036;-0,568320611986272;0,164837097477019;0,974062643638665;-1,11033386146702;-0,0995709703981226;-0,665757305017848;-0,402810238446747;-0,782207618938849;-0,959679894563244;0,944285615105318;-0,125060814080225;-0,41783941940747;-1,35685236817733;
0,306128475476189;2,57757393250073;0,828882439794336;0,118284108337992;-0,974213481841345;1,93046762352952;0,745221521880348;-0,0379661306567551;1,52937173908794;-0,564921717478576;0,879236680230558;0,982232649961441;0,112876694418795;-2,11293529009581;-0,335877453248883;-0,185982636358239;
-1,90612017837886;0,522445360987994;-0,498942714243024;0,340988030822098;-0,854988201288625;-1,05285566890102;0,429037492671875;-0,147065008218048;-1,53936006934002;-0,619834153831846;0,770775747298577;-0,509069011102953;-0,924101283811405;0,808904840534986;-0,707843264368267;0,60028633019891;
0,148346002644966;-1,88232156947293;-1,19908530215249;0,020787255315397;1,58547667485234;-1,08515192795372;-0,887718674240217;-0,754369902538967;0,949833149391135;1,33307883246551;1,55971595579484;-1,44514958890987;0,542030058295702;0,192077511405184;-1,27559732855416;-0,175200410277329;
0,217729371929149;-0,113293930300593;-0,396461735381494;-0,534168217356904;0,963488975634198;0,412029862798587;0,349732618142233;-0,490167281067992;-1,26059907069689;2,45044166190924;-1,23515523866692;1,5205699005753;1,17263544135158;3,29958209277034;1,00559314276914;0,618619525107375;
-1,54752869191575;-0,268648515282143;-1,10599499829065;0,353977333828423;-1,02110252487027;-0,207117675447128;0,108965233593226;0,496994476674203;-1,68441954974786;-0,485060553877038;-0,702540742883748;-0,485958386607989;-0,43356514317951;-0,0712541199772176;0,764821388959153;-0,0609885214325468;
-1,35860900805522;0,64532482137279;1,21624594654815;0,760862994187159;-0,768767846174139;0,602920312735685;1,44676869577813;-1,3891508903513;-0,97595670142934;1,6289068160017;1,12563710626008;-0,247603800126972;-0,107336092070622;-0,425683084021748;0,376001810719469;0,734033386944146;
0,928003283495504;0,23455498404299;-1,01278952726551;-0,112668898035765;0,241269536768599;1,32873655207285;2,49887701520845;0,368002713377827;0,19596886931018;0,0435774050391332;1,1577619452197;-1,29676015644193;1,65121415824775;0,358558363851508;-1,00201656505965;0,93091010208705;
2,07410541707266;2,54286778015484;1,25603296747107;-1,17227868944652;0,476642560428032;-0,537288143473453;-0,715130885305526;-0,96152428237078;0,737473661023189;-2,37578773308972;-0,942178616892915;1,58260419936849;0,653613835273706;0,487254514553577;0,65364160407186;-0,847252011720521;
-0,426825556370133;-2,30668407465235;-0,110226739694278;1,64588400236588;0,453371121867095;-0,590897095392711;-0,865527782427535;-1,25036853015578;0,802673934809228;0,058717994955456;-0,984815280400671;0,205834897877096;-2,24789015364637;1,27206119640483;-0,407456682553961;0,658394614043129;
0,0288633175224809;-0,504895895911015;-1,04934698765747;-0,891428472277634;-0,943587096383367;2,08781341438211;1,1756191980114;2,33748713876526;0,332981016553826;0,577915524371854;-0,449704209609221;1,47274260062541;-0,514936823048825;-0,105758774274725;-1,55763973610165;-2,32172825929445;
-0,560631135096362;1,40555881219214;-0,611398876843091;-1,17497806685065;0,910555182738402;-0,0774730362447517;-0,604689173672399;-0,0300220370950146;0,634600487224605;1,34082152651058;-1,18051816828069;0,497718318586588;-0,597421869027415;-0,302642876663828;0,961651762996396;-0,307748469921302;
1,02796826351231;-0,951809219168193;-0,221860874911754;1,21284034350394;-2,1281947437119;-0,296017476471595;0,351742463634454;0,988596214185226;-0,69522277063059;0,142110814518248;-0,512943656169126;-0,00981152651622425;0,952033143637655;0,800156654302891;0,672243792804012;-0,125089684754599;
0,278584038591877;1,00219843128406;1,47456630303116;-0,609854554154479;-0,323310312880404;-1,6707161715667;2,32426491411692;0,0332316584107547;-1,91913985151532;1,47716764518666;-1,15410451809073;-0,300192773838797;0,145094707682003;-1,97030674700186;1,15425171931201;-0,798947135507454;
0,0871426885728884;-1,00115721978346;0,481688687092423;2,94374836940315;0,215111975748393;-1,26373157518984;-0,467364129366531;0,331405700632577;-0,391675606287625;0,097395560294266;0,19836412344272;0,325557149789039;-2,08521274456209;-1,06019845202207;1,11349365592363;1,11362770980779;
1,12507240609318;-0,909458747707906;0,167979110576051;-0,137013857898734;-0,0188390912290522;1,68989529732929;1,65792189853184;-0,016792411727983;-1,12333947645707;0,666753095647416;0,694600399012134;-0,194191004622726;0,211693699723508;0,32962455962293;0,890582482107463;-0,0667492266474048;
0,299971916840488;-1,56264789690745;1,27458781335777;-0,0441850828916335;0,0407130426607975;-0,463902213226968;0,666615189889035;-0,559888696551154;-0,0566911484326281;-0,816529076032336;0,234432260929425;0,0374567751894941;0,332873096447127;-0,618701888218013;-0,61695151089315;1,01091907425644;
2,64377525944928;0,869437755489685;1,72247008046874;0,414745846736927;0,436657286637672;1,63705210816382;-0,100094998070683;-0,63520084319649;-0,564908442604099;1,0915056184141;1,18590701952099;-0,168071096716175;2,17914620691981;1,12768422678527;-0,884790812795706;-1,06496053120233;
0,0990804126095227;-0,223634252814725;-0,64698193261872;-0,468960792298458;-0,749409766051966;1,84931222220432;-0,211912572236176;0,103285132822748;-0,558143340433078;-0,111024308629733;1,22064172548988;-1,25183804921292;0,0381338500087298;-1,93433566160194;-0,571758995138791;-2,07957658738967;
0,338386211965093;0,0599422711049502;-0,239858661937233;-0,759756771742177;2,17586659490136;1,06412945119435;0,378771814302954;0,127329971197278;1,69441171647839;0,622191232693151;0,453957795380442;1,10103774096234;0,667582022029653;0,444509393359677;0,223559764540327;1,38361082678874;
0,601087017669202;-0,536396744631006;-0,0505251390439169;1,05086616251902;0,841983192195589;1,28601431230802;-0,294002116142568;-0,307100944986016;-0,826208830919136;0,438575586009105;-2,39841675480741;-1,02240370381052;1,82545545707252;-1,67070526073071;0,959091254109183;0,506151711800025;
2,35669696147953;-0,715282028067054;0,0857553643895009;1,01111421218257;0,37882214677744;-1,30267007496514;0,25520232917031;-0,574119650346826;-0,192098727254178;-0,811276349059576;-1,24103885505927;-0,140968504069967;-0,0304413166394726;-0,520746496582147;0,528623211733921;0,673726905003682;
0,192276020439549;-1,84639519111258;-0,796414535034184;-0,538219415975087;2,0115962255511;-0,532004828970536;-0,317765002538658;0,797095200411729;0,493042690557603;-0,366940893984803;-0,639452728082022;0,979761174774502;-2,10067762465217;0,304205619568292;0,122216996890204;-1,12725628441156;
-0,0554170941712345;0,328022744237754;-0,529542959901266;0,68856619070297;0,627158817556509;0,456547118952283;-0,373223037962775;1,26175790431742;1,13513572200503;0,192094845562449;-1,16317660313261;0,923598311209063;-0,422981848197396;0,161990165013077;0,569948736052414;0,0432427482487263;
-0,489591276508866;-1,04157140540767;-0,407134024663566;1,42570936947753;-0,703768494711278;0,269670784413532;-0,0266195335866782;-0,151995350017386;-0,83427359381796;0,494938469801614;0,111016331553279;1,53863607531761;-0,699941912708334;-0,290506780606389;2,21742179587686;-0,32684455927477;
-1,94603817797355;-1,65192253395012;-0,112207797220056;0,571715115727613;-0,508655831622649;-0,343926890894411;0,0031773308329774;1,14577804444481;1,45629621779456;0,335850691624155;-1,69729824634726;-0,653991520022277;0,809601237951726;0,161799507100582;1,34184117480709;2,25199690698061;
0,119396921411052;1,03662696909553;1,210278403828;-1,02435889361379;-0,0308520043629365;-2,44286162724766;1,35665591494273;0,498837828315948;2,1047802712834;-0,0785895532792034;-1,50044261502835;1,08195287547976;1,88921227818792;-0,836085795452099;-1,56433049482686;-0,136270617086994;
-1,01746798882798;0,347717813953476;0,599606629976519;-0,152898818780222;1,07573640603071;-1,88593269800775;-0,345523633244715;0,24964722279428;-2,32297085906094;0,208754791702216;0,891718876863336;2,2348442875441;-0,347830972732967;-1,41033258801878;-0,0770182167435222;0,93283333144397;
0,804612383001601;0,586458478222267;0,155909441636015;-0,675191427772585;-0,108324438415111;-0,774539355764088;-0,778664571697517;0,491514988328198;0,943180988629262;0,500951612727489;-0,515780967700441;0,806317112041135;-0,783189342632269;-1,53647835449271;0,768183002937283;-0,8400419391119;
0,00803778355437412;-1,07124986201788;0,876663970961528;-0,0869448057596252;2,26421580903306;0,585908587555516;0,805501645640354;0,000203035688898153;0,182922481051693;-1,29929405743867;0,794183820680358;-1,24744186477018;-0,31844798813522;-0,448321656846002;0,405472679966688;1,30704876386204;
-0,257557126484788;0,0445943608127156;0,316024480565789;1,14539054109955;-0,48267124361013;-0,389561425543258;2,04376967157071;0,484138786242064;-0,564146880023945;1,44598537657938;0,340449115053649;-1,68673134572288;0,00720059536240232;-2,13348555507542;-1,22505193442122;-0,282915785288403;
-0,000149094703951832;-1,26192982296082;2,38300647038437;2,29181893132943;-0,28511743364008;-3,09298506620743;-0,655187740718768;0,873820476543111;0,4330555809655;0,0245560696856695;0,65405716660502;-0,196563586720501;0,208563280070868;-0,188999803235603;-3,18864518816594;-0,295763935726199;
1,00613494595113;-0,505151825419444;-0,401109305580312;-0,644609963852527;0,296266343853137;-0,625329528918809;1,15968177872932;-0,412501018161615;-0,346728285872068;0,0632570665310831;0,69710180743064;-1,39277224288215;-1,42797159297138;-1,27038255455569;0,866833128378089;-1,54803250605271;
1,04651295109981;0,865807326262371;-0,630195415372689;0,829860752093065;0,99988941228249;-1,36179683269835;-0,553872290377139;1,28890065501989;0,449401969104649;2,92964183908932;-1,15390834118347;1,75823931701496;0,903363712650614;-0,65443298783065;-0,602351878746775;-0,832373130853987;
-0,0638641667044033;0,710120294186233;-0,0981446227850012;-0,100941503372895;0,444893333133012;0,418770658419011;-0,10223091116939;0,113109396257492;-0,631988473768332;2,02602722087787;-0,221756492994005;1,48476088102707;0,449963839126129;0,2646566564054;-1,10364749088814;0,934764636210872;
-1,60043052056704;0,0783973658965456;-0,581298424852321;0,102730258641953;0,21754143734281;1,24917603467351;-0,270589948918853;-0,954664333692315;0,180853478070334;1,74521629783772;-0,757546626083474;-1,21074362396935;0,277756100024687;-1,10566050324237;-1,37755491454035;0,0572997384727345;
-0,406780998996344;0,614321471693847;-1,00879979884297;-0,122813797283255;0,379795360011412;0,107088897735343;-0,308251259552593;0,180327553398369;-0,375256640775575;1,62676393929483;0,850479442509142;0,290635436686804;1,236844160975;0,464271119233345;-1,18700306374661;-0,767593851407659;
-1,12227951909399;0,385685807769527;0,491979856069964;2,23240289592206;1,04357454464849;-0,157911662284759;0,406526637186805;-0,281717883672607;1,29828137561186;-0,585655545597282;1,11733413016036;0,234213168365308;-0,228147762549638;0,276230982529187;0,344463083907399;0,851829278151344;
1,49554615299475;0,763649371512195;-0,0502667134008115;-0,0129496779461607;-0,0938358091478636;0,211882311812895;-0,407272051281175;-0,396342255078723;0,254216257794841;-0,232477347707126;0,635714195816481;1,83673967205531;-0,815082956267782;1,2641535149622;-0,486407116412947;1,24571479869218;
-0,885483517570649;-0,491706290594768;-0,701750869780183;0,415209897990016;1,63040196270924;-0,604977570943049;-0,643410808542976;-0,126684714653482;-0,195497006282882;-0,814767533181578;-0,158712706797345;1,50324830540828;0,978335322512367;1,16996491140904;-0,328837184724866;0,012578112676206;
-0,659609455314028;-0,553789391423454;0,356534980027822;1,29981357769338;1,49976379437668;-0,716817863659413;-0,236748461909376;0,310493278254109;0,0533201749019687;-1,41995734624556;1,41858316303275;-1,0137713319303;0,804584140792506;1,129761249448;0,814825502811517;1,11440140147559;
0,694206426992762;0,129332458010065;0,202483534999115;-0,643756761172576;-0,684681197026715;-0,983504171719649;-0,308669110186704;0,114598267496242;1,15323705899348;0,685344090621689;0,233551244567812;0,165774103378773;-0,324170881968157;0,0457559938543841;-0,745038944096755;-0,0918210329991258;
-0,0178221505601184;-1,25619955712543;0,163116236640559;-0,670369896453297;1,90605893869586;0,53741225877728;0,5606950803256;-2,44048554524144;-0,180443970566108;0,369303095242081;0,760189792907536;0,68421689920822;1,23393548876351;-0,650693511749893;-0,587072349248326;-1,51210471366706;
-0,457361977935284;1,73825597308301;0,203338413626575;0,255157541017149;0,168992847496799;0,0747919561035017;0,64126713671388;0,679480162136269;-0,399505318855361;-0,627714889160678;-1,68760752945531;0,518889724137406;-0,231490443148899;-0,332211304561171;-0,782326570558359;1,51669394714716;
0,0307108403082358;-0,158236849093008;-1,43101270166147;1,27679951936158;-1,47249687681945;-0,813821583396645;1,20534819788725;0,967687749654799;-0,202534512932277;-0,0351614458044403;-1,65768292514896;0,0506015600895496;-0,475905232949132;0,631051529530509;1,46356356069267;1,26838344549064;
-1,73706204741883;1,35520114954946;-0,825001701306667;0,230387286800598;0,493849726193213;1,48736865655924;0,924339825300959;-0,712647045782019;1,5138060399894;1,87308838954822;0,699788952825544;2,03453489395454;-0,186143210140415;0,590403533325133;0,055437772563473;1,65503256717927;
0,503823001704525;-1,12569731974365;0,522580627010133;-1,10437092349827;-0,984902987679983;-0,713322249969242;0,539896982605845;-0,415926022960102;-2,07934674809832;-2,04210402668119;2,22447962335485;-0,748696831528007;-0,0738707557655141;0,822350207278231;-0,106433646998875;0,367729497877481;
1,08357947686199;-0,231153147124846;0,308576906515924;0,163008568438585;0,730847913301154;0,580965767323677;0,990699879146927;2,18801290683993;-0,984002693091632;-0,627147157986211;0,146544713410069;1,23063992182966;0,0260118938349325;-0,315904890142942;0,462967997894408;0,632709399575562;
-0,147578738401622;1,18292183807572;-1,0015912849392;-0,161125888570079;0,202244356628752;-2,32541788250669;0,721917676364753;0,564118424743052;0,204349858305624;0,153629174521431;1,49777500754287;-1,48933830820732;-0,283244270703567;0,22470586396658;-0,288923206990751;1,33648581345508;
-0,215322639550097;-0,0832032851809811;-0,578653196141711;0,505844585497048;0,232548214286663;-0,639434638955026;0,935726901896452;1,25066455639562;0,546811172186105;-0,257657019215252;-0,427424383976622;0,305377910786427;-1,7495044540273;-1,50620408601013;0,517789588957799;-0,576639211385581;
-0,726148876130247;1,13168053163286;0,104372609364876;0,935013964543911;-0,783827384263893;-1,9196957381708;0,135402600784393;-0,655721481385592;-0,934494098677992;-1,5730290791521;-2,20377939337341;0,392596750270578;-0,307707335022765;0,459935808950781;-0,111971173886982;-1,04520021591997;
-0,655855707329902;-1,82232516960225;0,43262144462949;-1,46237736123105;-0,533352962431087;-1,38421872250653;0,498288421139207;-0,710105174641366;-1,36715056325638;1,28359687736628;-0,0207559211680132;0,298074576295127;0,494291628040282;0,257164327641309;0,134863736690374;0,639845442139702;
0,206005672477403;-2,07808477545993;-1,354097727472;0,773891438332682;-0,610972928791685;0,410997928879232;0,464788768746134;-0,0327792604163257;0,613950865740861;-0,652017960354007;1,08738329468561;-0,711980642608358;0,13358375993112;-0,614056207428385;0,912472230694619;1,34416779588638;
-1,6246941618591;0,721412715676589;0,446503607625044;-0,96373380829578;2,94679114051626;0,131518148154026;0,241539718829694;-0,935162709493768;0,341694109808948;-0,180695349475292;-0,658044390193472;-0,4775214820504;0,193745462884365;0,592160962588236;-0,192893398842016;-0,0305626691637381;
-0,0876854016433303;-0,554554336497019;1,50906931142994;0,96843272381727;0,684012267683598;0,637141260718729;1,57552974945619;-0,547801583306743;0,506446276147253;-0,948486937382981;-0,478504904590727;0,834672546693282;-1,60040593320778;-0,438465904594327;-0,414108012868174;0,401880883793838;
-0,130687718188107;-0,126365201378522;0,878517767162151;0,945949651161843;-1,02879095731018;-0,172332618800935;-0,538140966278714;-0,00620241964663582;0,26442227728002;-2,44763371436246;-0,178148173953588;-0,679889815637892;0,230964087195888;0,490958463006095;-0,370067428298329;-0,660796208995489;
-1,24763787692468;1,02412457972167;-0,0224393546308794;1,38319675627801;-0,983657801331539;-2,87794334695489;0,607162861670519;-0,263110213249598;0,159826504209018;0,872369861282752;-0,255488598138163;-1,55100328179562;0,591128773942838;0,636065139415673;0,137348808187452;-0,727937708642158;
0,201581330198841;1,90991735392674;0,229042758148769;-1,23773611479326;-0,799806649771924;0,0763594435874804;-0,269683676591611;-1,76364172534899;-0,0641994851532976;-1,89713959698875;-0,4415080596601;-0,299469127904327;-1,23859677477682;0,487059529212455;1,59577419909553;-0,414375823496139;
1,43874233323054;-0,517812769165021;-2,25048619909473;-0,0540624150723286;-0,562196196634165;1,07610426066443;0,934513350535626;-0,224932995256582;0,146547831731334;-1,04829425847017;-0,191792190036296;1,01450150382353;-0,201425591437754;0,411188526449353;-0,620115874804783;-0,0534438290682327;
-2,23054144651646;-0,232477620452217;-0,311921665349978;0,433021562770632;1,05342163040464;0,172099990573191;-2,1677193596923;0,248017724404005;0,171840923886065;1,37450208024139;0,152563016813602;0,798391966405642;0,0775387554958292;-0,151538093537845;0,245245996938207;-0,521297077484767;
0,369961520607923;-0,325463128142714;1,32026274759759;0,747865064235765;1,19974121178185;-1,8263071072439;-0,715021960554086;-1,13081725812515;-1,05861826809433;0,900865939382899;0,419887766411397;-0,419926367227297;-0,258687094807057;-0,558065365688795;1,5382182642295;0,553854211086539;
-0,333266922367977;-0,286520162912607;-0,170248361845281;-0,790632195985148;-0,160072017597198;-0,650940514876677;-0,0884932433940959;0,327214344310615;-2,23043911574733;0,293398153914706;0,0310611831067584;-1,45471225179149;1,20377593780071;-2,92403707370482;-0,413719567769378;1,63101282362871;
2,01179722422879;1,33188994399747;0,560846375494572;-0,917654607454597;0,760952806043733;-1,07397562074871;-0,945222756696141;-0,164393203368836;-0,482239647999263;0,790625116603593;-0,419474370538261;0,246406273378906;-0,321414998967443;1,05172817070647;-0,029287802455117;-1,49421094511559;
-0,200226114063198;-0,737741287320002;0,0103322802338471;-1,32653253809097;0,88315168701072;-1,9189621307846;-1,7017469696018;-2,1203429270862;0,253499872176624;0,816722351998393;-0,902361196783359;0,930075426413886;0,840676595543589;0,769816161066717;0,146760014764491;0,246944426441046;
0,880615638932516;0,239211325113608;3,22396609727407;-0,515899379732038;-1,57534582928069;-0,480534741423322;0,442613127400877;-0,372680604918123;-1,24433049219859;-0,109520484684436;0,0563091580789844;-1,11730548839727;-1,14706565239918;-1,16986993641878;1,18776632911834;0,148922307737741;
0,512779835352864;-1,22610979592715;-0,00391443765917997;-0,204535902565487;-0,475143480193682;-0,307639518791838;2,78462393642227;1,40598342261865;-1,21404043812354;0,684491532963097;-1,93630781281659;1,32250785295491;0,220253680968146;0,876892867041549;0,140516527673903;-0,404787473094714;
1,57960501214895;-2,0316258172386;0,0898923844647951;0,624375905849457;-0,0989254987719443;1,65198267209201;-1,40832554979458;0,657503620499743;1,15707459269328;-0,932028408063577;-0,839408539954606;0,473087930729028;0,0560044306809364;-0,439183217716764;0,820208163818135;1,32023944524935;
-0,66379890183607;-0,760331560852482;-0,76504590436329;1,29990297019988;1,05209821012753;1,39104509935787;0,658578593602149;0,63840408074551;0,85650058265712;0,155841926350471;0,128324999321421;0,886038796418147;0,64992876021147;-0,605337573604867;1,5147755153013;-1,79855575007997;
-0,648830291681071;1,08639154109002;1,35269527575295;-1,675297049942;0,434966255863607;1,09260803089639;1,06556834850991;-1,21275003097359;-0,527959677321015;-0,317879636789656;-1,14193497213784;0,84039953956466;1,04146642009475;0,635481472008279;-0,716504737275097;1,92189496145812;
0,846138985967486;-1,27326033617336;-0,431161586519818;0,527493673070875;0,147462480575291;-1,10193008352899;0,0657789571021824;-0,614585326175631;0,484940791096979;0,410716311782431;0,214428030333338;0,847751829547337;1,18358162985926;0,553364068501418;-0,211443784792976;1,97984066156019;
1,41831405953212;1,22944252004733;-0,229856666683095;-1,23528488623788;2,07974409659335;-0,00774811742666021;-1,42802149667631;0,192898030135892;-1,31314801581327;-0,923435310951255;-0,636845738103032;-0,0582627772804187;1,54009341511208;0,66452110489117;-1,18546129464321;0,83409149898786;
0,460654278170287;-1,03029666966352;-0,679944821084643;-0,273688809237872;0,114349066137203;-1,59369581819795;-0,879217089433075;-0,506025225376137;0,889378323133546;-0,680605654203582;0,200893149995174;1,11588298716681;0,441849071202772;-0,592766458859934;-1,92529153267977;0,0446584786821421;
0,75475269610482;-0,638803327812972;-2,33973805564716;-0,719289221779794;-2,50532065986791;-0,696589653938425;-0,344841666254029;-1,01239968905294;-1,39023070162361;-0,556083708699064;-0,623502640668673;0,196111058727579;0,562096378431827;-0,0387573184304143;0,308558314705121;0,344178884945761;
-1,38257138407854;0,430925942205308;-0,231323296442267;-0,648633783973607;0,75264737181962;-0,68468930106903;-0,844103201444052;0,743970143977121;0,647295692353185;1,15314958644264;-2,09447776250913;-0,194687174699621;1,4397269125455;-2,43118625773409;0,394863365119176;-0,374557534839539;
-0,599603870082881;-0,213899474790596;0,913646356686777;0,65478357355204;-1,32835822625457;-1,47458665374557;1,9284639266203;0,533793444726558;-0,0308085542306009;-0,689712140473143;0,257120928335202;0,56673375078819;-0,965609863685596;-0,431996375495851;-0,274912625263064;0,136590715325543;
-1,17954161094462;0,00667414898168106;-1,40688558070704;0,0476432854866543;-0,0407242685960274;1,43296372937355;-0,0355597416733856;0,330923158213488;-0,55679271779407;0,978035821567564;0,867643447793258;1,37112476305365;-0,297665030652492;-0,252601936178772;-1,15622582231209;1,22345535374009;
-0,327384994010409;1,27207036022802;-1,9683926265484;-0,401698581479587;0,649500576424425;-1,89358511295602;-0,906954010357989;0,0364590060747084;-2,84755335389994;0,28990014255661;-0,377529877046155;0,273440971896549;-0,633627588485253;1,00764804936002;-0,0091792787927752;-1,82428749516847;
-0,664099973569073;-1,65386772131869;-0,939644503034953;-2,22826525619748;1,90281268209903;0,905351537719145;0,119983355226498;-2,03205927116198;-0,676837471574036;-0,760188032757253;0,702672800098709;0,728885649261748;0,340680557327891;-0,00048464229204412;0,720787243638274;-1,73188525847124;
0,126229452019597;1,51641560408008;0,719981466992702;1,3850494322729;-0,0614327948837265;0,404126630254859;-0,254783156505992;1,6420957312469;-0,859366180934676;-1,53002206693472;0,479855825133769;1,87234678771675;-1,0856868278899;0,000864575507989665;-0,713653646655204;-1,25084826449163;
-1,97044122552314;0,56382961015922;-1,60268665091725;-1,11022106876563;0,364780588417459;0,587645994922558;0,972145354659416;0,954209322045946;0,482470953289157;-0,109063364103912;1,18401064223399;-1,11810977438696;-0,229522488202657;-1,94518838781746;-1,07364255501805;0,0883582405473117;
2,09063251975703;1,58425265361941;-0,741501089749583;-0,253510413955533;0,74330430399093;-1,30797969741346;0,699839490182573;-0,65035708060142;-1,08353100432757;0,209689780471325;-1,02239530926666;-0,990643812369974;1,33661705519232;2,02811199794576;0,937633663981735;-0,992823760997075;
-0,0766317140010272;0,246170887608477;1,87627041863918;0,813746690485009;1,60214969750799;-1,94663938379202;-1,22855716794803;1,53203546878098;1,5630395246621;-1,25204713922512;-0,698502590016916;0,985361973129272;0,106027083531318;0,257906140158372;-0,763841121043841;2,02579276280577;
0,0662166928333679;0,697992014620262;1,32679976521034;0,737761289776404;-0,116975589535184;0,657678939828701;-0,814034771231039;-1,03642528541275;-2,22035303458716;2,29764021196655;-0,804793995704337;-0,385859966343482;-0,772321269444393;-0,673484400941886;-0,415860410233389;-0,808003677345262;
-1,49537779280589;-0,288372257421158;-1,20918670879273;-1,21170202737697;-0,362908276328393;-1,52222810277072;1,52107779587015;-0,706665837306549;0,226273417972019;-1,07370825278123;-0,918747483792873;-1,41185677786948;-2,16668905949601;-0,00927526404897392;0,340041190015557;0,118657059334545;
1,77099062407588;-1,75965699747678;-0,44105070171196;1,10119302924207;0,645401893502849;0,339941286482709;-0,898251643158594;1,02859249641846;0,002076740806348;0,599439299518974;-0,327422244432451;0,223147248237164;0,665637026470204;0,555650416608781;-0,186030668151522;0,0551241178165897;
-0,102287521050026;0,0951573991160144;0,106846796200495;0,571677526198825;0,705363733313636;-0,259170224578526;0,177448147979054;1,55356575893115;-0,264600564730106;-0,763668193319076;-1,04850950388705;-0,205603428364521;-1,64290094877267;-2,07655935051873;0,72135390698087;0,166710011515699;
0,444983966508801;-1,9132555081009;1,81262246270709;-1,34355837386211;-0,0375844749441846;0,948412287342222;0,602999490740989;0,54868692632756;0,318389848966036;0,139800685353165;-0,063529669762323;1,14749039590245;1,1237021260603;0,522134655664039;0,0516726919825403;-2,13226642054215;
2,76395615854157;-0,884999885156074;-0,0308920886366865;0,92804287626157;-1,21980084577683;-0,873017938483266;0,681360424338858;-1,80354066200949;-1,14080651409272;-0,535710836035083;-2,01694722962787;2,36262797218427;0,350152350326772;-0,309876599376124;1,08987637148904;0,532279191336797;
-1,09698159129;1,27140073834981;-0,632349996532932;0,667952871395688;-1,99833521641899;0,83983253444065;2,18997641121206;-1,02234793346135;0,117641061098017;0,751969773600059;1,58834996134768;1,04610329499039;1,84731808697716;0,132937886267401;0,239192051635751;-0,71185929501014;
1,90403674457748;-1,0245357521469;0,207421367970885;-0,263020617088556;0,523313406101402;0,848717750593981;-0,509893714083871;-0,743211522439906;-1,25632373092951;-0,0951094135686261;-0,023067832395323;0,0907233542961348;1,49014568063469;-0,17337834654792;1,34506390669773;-1,25035519061046;
0,763823999951793;-0,0273555210114109;-0,681304213056794;-0,485786573209242;0,205432442172548;-2,82501060863574;0,874589191759758;0,622856458395767;-1,2037524902385;0,950065086562845;0,434493868194723;-0,751349494275358;1,03111747655962;-0,391432687891432;0,0446669709593878;-0,56468726165852;
-0,0694862063882258;0,394251742464694;0,0443462712867802;-1,87078067599831;1,9758678978238;-0,0173819767044786;1,19254710559083;-1,26252218185095;-1,44234716676959;-0,796021371245398;0,687049360464735;1,20509947626932;1,31665391369291;0,644343527456609;-0,17187471159072;-0,306186859224834;
0,689752521996516;-0,783966567629728;-1,61283650862306;-0,746361514837333;-0,811700428307564;1,41473612109902;-0,720206586509536;1,09784153602993;-0,0635557872784751;0,897566943252768;-1,87757617094851;-1,97151970440797;-1,24934025252734;-0,0392529924698703;-2,2631860949901;0,819970146497094;
-1,58665345509879;1,95058040543726;-0,868264798209282;-0,0790732651478537;-0,7991130502463;-1,14970635795731;1,57435535208092;0,889635612117492;1,36397552809668;0,192946999847248;-1,74351197642552;-0,454875468874473;0,00806821939983799;0,40136013036727;-0,632407871513991;-1,150285655307;
-1,08196966525226;-0,446163832142877;-0,541039406751256;0,946440263573762;0,767484385709743;0,648676582158474;0,746442979547622;0,490015376280786;-1,80035461544283;-1,73744614149873;-1,48895347579426;-0,197064943121223;0,749685484869149;-0,186277244079406;0,910165728310746;-0,849838814822131;
0,654694009394734;0,809103452452622;-1,15407187621021;-0,825048889220217;0,487057049533023;0,642658536506292;0,0428051603751757;-0,617551362959238;1,29627247393258;0,275216536532019;-1,09746528610098;0,0442866514866886;0,361363026840464;0,43241199683711;0,313578911932267;2,64799503504875;
-0,85181677270799;0,643519281624006;0,963909052950378;0,722117821848241;-0,871737935811579;0,194625055857279;-1,33798142997866;-1,17374878697565;-0,917453353677757;0,755511918427786;-0,539795744114896;-0,972976150123532;0,30207537843805;0,82745501511119;-1,10991416767618;-1,54235232872079;
1,90756846523866;0,751763965566926;0,0383936838230074;0,91468009752215;-0,49949583680588;-0,542801967287852;0,601855367538889;-0,188189699534728;-0,116922228084732;-0,389105547737234;-0,078561131501811;-1,20958831907779;0,773808750878638;1,34562523070598;-0,0113806956706448;-0,742492647793772;
1,48588697857195;-2,42477145482498;1,81098434006518;0,220038294778992;0,0388390039823695;-0,706553313252654;1,97881230957112;-0,496050043176158;0,462863424612627;1,87675886904353;-2,09663181388962;0,49469498961163;-0,0907566778453249;-0,490140376431579;-0,916493890591113;1,58865268400929;
-0,0353335482750324;-0,415029289520071;-1,53228825737147;-0,633644886825451;-4,09001173635556;-0,803823651549731;-0,439371733035349;0,739796793635429;-1,40758476449466;-0,696432457110826;-0,24496663569304;-0,869386660288331;-0,641068891622385;0,483899660851866;0,543918767918104;-0,897312834007233;
0,451103521286954;1,15353400305899;0,804711475976423;0,763985183585273;0,129626838355368;1,14039467120072;-0,80207912830242;1,01836604385599;1,22742731980778;1,3045958896156;-0,0316154933875184;-0,686630286007176;-0,276791542771996;1,58703018605869;-0,263393669725888;-0,228221422143796;
-0,468694177992464;2,55814656243697;-0,198558821659533;0,719111868094922;0,732950698799981;-2,43406106856929;0,446391988015035;-0,942543522800883;-0,872057260996732;-0,238677466543569;-1,38086594995733;1,25767467106556;0,302952300800833;-1,00242752049078;0,0880079799904213;0,292181026994189;
-0,671065486061963;-0,172428062338448;0,569266747450091;-0,380540669080481;0,441311780767675;0,0168206170644873;-0,561677846875528;0,073765815420737;-0,193393864803776;2,77450357837174;0,621867101926475;0,481540326297255;-0,92585839911844;-0,374101837905234;-0,271050478854686;1,74115099688569;
-0,309285153876928;1,17015370106004;0,785707546832617;0,158798225067882;0,304414456861367;1,54467528316698;0,548057486305013;-0,192886351085748;1,15494667297427;-0,0998967879929576;0,0532499625666705;1,24863613820493;-1,38112394470651;1,11513867810029;0,0471899827892896;-0,340755111411874;
-1,72470261818445;-0,0773131978318473;-0,853718330464286;-0,0634526723056544;-0,058527642140132;-0,842314095851446;1,31713042936973;0,928515364526744;0,757029404354564;-1,26039512406658;-0,215755709519302;0,637867469705769;0,839032085419891;-0,13516055952634;-0,258671359725427;-1,03547790344849;
0,859197924408097;0,561008971595147;1,2459258191165;-0,130257887931724;0,766681220934087;0,0255358330310777;-1,0737762439681;-0,510972954914365;1,15391095784097;1,20068721320999;0,945914048795469;-0,0528015486417267;-1,64792174020811;0,258610729894549;0,545154597400817;1,78202510923525;
-0,991769010413546;-0,79987518499067;1,20725292612964;1,40908481890725;-1,54056201228012;-0,33579080850624;0,426002115542502;-0,433177694574671;1,30632946835739;0,0301521225750774;2,14312083340763;-0,214126121399777;-0,319066056700497;0,301170800079635;-0,518485638547286;-0,081544496248012;
0,264585192383149;-1,00799765431489;-0,378423161555751;-0,873953068998735;0,142318637582956;-2,35854946978934;-0,784944359952711;-0,733669948870729;-0,496356075099434;-2,02417744263459;-0,861865480491508;1,79081935871523;0,0332000236477355;-1,92621868817884;-1,08694037582476;-0,42762677470382;
-0,698692779398512;1,30391139830786;-0,42526644940355;0,640397820437164;-1,01682752298349;0,0523060579487978;1,43744989828548;1,21763886680661;-0,0339801665144429;-0,405473764654829;0,593542359915321;1,39908401341667;1,72260757134125;-0,339393017100258;-0,223507673831916;1,54412845256905;
1,09492194211271;0,496063098170393;0,986352226084067;0,107568769992869;-1,66476157959542;-1,07353372873076;1,80992981664658;1,56337486569447;-0,97584857832373;-0,267584458568085;0,856018461302233;-0,372616540635325;-1,32645391594712;-0,70419543962057;-0,0583924144179841;-1,07036515462208;
1,18893048358653;-0,647912945890534;0,894099332742835;-0,634095069470815;-3,3893791392693;-1,56303326266543;0,0839170661027342;0,267594144535264;-0,788968957034936;-0,139005787255195;-1,92155080404239;-0,746550070181682;-1,74014749681765;-0,476255463308652;1,02301711941499;1,22824803013979;
0,691312531397163;-1,0201563450745;1,1971306244843;-0,410184571494909;1,25156758694613;-1,03413553752115;1,05187713794717;-0,180628564973965;0,574082695170273;1,11994087165953;0,117507239457221;-1,1024558327466;-0,23048101602372;-0,424619594748579;-1,27119098081298;-0,561738303080653;
0,258757974620574;-0,400142647801986;0,340794156781006;-0,745491334934065;-0,447595038337614;-0,0989087659832199;-1,45268558203786;-0,662279628319241;0,45200245423671;-0,218448186176513;1,60079865820963;-0,527663800141592;-0,413976779531202;0,848690148488085;-0,689058036104499;-0,16398602280204;
-0,129462289383532;0,224210304180123;0,157564503601975;-0,353414642843886;-0,121925676566471;-1,19723638441392;-0,105361029289566;-1,06596618178118;-1,88079621285275;1,82071777517825;-0,236548495057752;1,05987657101554;-1,85305764937247;0,806605851359511;2,58535246157485;1,33276410614991;
1,28369366829796;1,41411451874701;-1,39543528831164;0,514977009209404;1,5486807114551;-0,26547264623443;0,678239117334113;0,278221349811636;1,14123528192757;0,235777074439728;0,926028131621524;0,39262819187579;1,23594528917673;0,522373091460229;-0,632983609594809;0,899472583730404;
0,829717308696463;-0,916789058319718;1,52613116684243;0,733171848052691;-0,313379691006461;-0,0673748527974814;0,0265990937682099;0,245113053850412;0,670371595807798;-0,329352754486985;0,0924773239221895;-1,13805710023491;1,18971226452934;0,391180227817346;-0,33624060764301;-0,443827329267096;
0,167934870338172;2,21576862022215;1,0010363266554;-0,98526554462097;-0,247268016200212;-2,03096010044612;0,0194239938684325;0,211079161810626;-0,711332163393279;-0,272997357307844;-0,302502148744001;0,832319729384052;-0,335416568052063;-0,510756001402788;0,874717218960445;1,12601980767001;
0,630536526485827;0,475958937846284;0,361657818205886;-0,840141980994028;0,103177369905722;0,506879474187569;-0,33185992216627;0,102314233047753;1,22012892729778;0,542938177461614;-0,0262088732373974;-0,642738327259084;-0,848355238373436;-0,668816479436392;0,501857111998537;-0,969197806519948;
-1,30704287319108;-0,807796518501283;-1,61035106538146;0,737843761456801;-1,59550332331519;-1,24765468189295;1,66296582990512;0,447363853737311;-1,20905065749272;1,11672685783377;0,0802176678387918;1,86791818726533;0,463231998251869;1,09988238144353;-0,0250693512657936;-0,589130595552082;
0,429332593387002;0,487244235540942;-0,228477492285175;-1,39872115318302;-0,0720104939229588;0,323021215073361;0,242748532006866;0,764358511830192;1,57129892889466;1,13784745387853;0,290542715016794;-0,578075495476552;0,164538361935539;0,429890404883213;2,04381221356863;1,27113253648104;
-1,78419727419654;1,8490016952679;0,945729829728834;-0,397120424031974;-1,30952898917554;-0,103725226219555;-0,801362296823546;-0,386674004552201;0,984577667046541;-2,52017204609478;-0,468419845439508;-1,35340932589261;-0,956278721609666;0,81257147793248;1,47780497807937;0,0325275461110964;
-0,139220179713714;-0,517614386714403;0,174813587743357;-0,375086033979405;0,785850080677903;-0,276625050553173;-0,882611408940883;0,728797405980845;-1,48962785498997;-0,424028159567308;-1,514930650274;1,11807438769451;0,310063208697164;-0,666952791845069;0,250660232167769;0,526131136433149;
-0,109551848022262;0,92982488533659;-1,25688460158341;0,621010309661314;1,05202100399946;-0,301503276877314;3,34158191322331;-2,37453505884482;0,916360670987056;-0,997272164673579;-0,664842258201651;-1,76919281639804;0,814279348847632;0,0546691054544144;0,823979492010435;0,0802416361698493;
-0,490419573377846;-0,2468079953619;1,15620113047373;0,452594715991252;1,48689165320284;0,832100348248353;-0,567919264017929;1,46386204555377;-0,514645125688865;-2,23032613824208;1,21182469428183;1,25742779302015;-0,624055252575281;2,68020775818625;1,13284063066365;0,829268941131962;
0,251309616145011;0,77520401397355;0,232395443600911;-0,0298813229215443;-1,15078150995111;0,67361817850112;0,531802647262207;0,286737423879174;0,789727133877094;-2,21229445983749;1,88146201125625;0,590538104044032;-0,217503809686383;-0,182477150371114;-1,4054374768761;-0,0611321497526231;
-0,0229279401929401;0,208430847859025;-0,594356091923939;-0,159225826996726;-0,244693518065612;1,86382116980164;-0,602058048326235;-1,67442302915558;-0,535006956747543;1,01763337144042;-2,09527610513962;-0,0973070587517015;-2,32012119399758;-1,76816765627794;0,0873299499842505;-0,915755567878349;
-0,629968856166746;-0,689007892233673;-0,557128298276574;-0,555986660204412;1,27613632470649;-1,08311503298669;1,71691735276183;0,35309576092668;0,461555847407139;0,149795738887518;-1,67261749067681;0,622381269831805;0,0351856319745188;-1,43133904182705;0,525083678641257;1,26723104997381;
1,98187451695006;-1,03794485121618;-0,982538874121455;0,893051927406451;-0,550969239698798;-0,279933327619069;1,45162176976416;-0,232954871953593;-0,547116167753771;-0,848335925667865;-0,626341157368495;-0,22842980885075;0,334935070166544;1,35270822754779;0,211811179623992;2,03166243807792;
0,0274766618782778;-1,10097994932639;0,373873264887203;-0,378161437825067;-0,391379425958528;0,0903669938691676;-0,132008261002201;0,135647108362119;1,39790873054797;-0,10062616721723;-0,669178562554233;1,87477285501013;-0,182317720517406;0,203822529680263;-0,498388312501932;-0,124082838019932;
-0,954149905593788;2,87267657353788;0,328038290600363;-1,60690268454985;-0,172393788465498;-1,55557320779935;1,60076831294212;-0,0188600816370203;-2,02695206999198;-0,266493558525003;1,87627487235976;0,996990217142863;0,416244559909168;1,25119542310841;0,287965981941659;-0,213068666673579;
-0,733634165497371;0,439093277007094;-0,465668161205179;0,405994201265137;1,96749021183997;-0,159675154279287;0,653467999175966;0,421173589661462;-0,210570212609145;-0,905479984114216;0,685338347453713;0,278648542456458;-2,10485749596008;0,418584190432861;0,440617728705072;0,161205124564468;
0,0868614561662133;1,2216546258692;-1,31302328299257;0,873471090660669;-1,09197718973638;-0,599667094715074;-1,05733641929328;0,0816574459878346;-0,397152984984911;0,810990661551436;0,722005855233388;0,927784155122362;0,495566821632876;1,54576969252518;0,403985620369434;-0,208753631536401;
-0,0902307981479006;-0,462749370320417;-0,146070505337596;-0,259014062825926;-0,480001026351154;-0,906894674423581;-0,967237580687778;1,47287976521638;-0,23916424601382;-1,83697339437034;-0,127114929536125;-1,24281220635495;-1,48426639096931;-1,02550689752477;-0,429860172075905;1,87488557063978;
-0,895980567747608;-1,17495119741292;0,41694175300174;-0,969136668740929;-2,91532350998728;0,952608838315082;0,896792862641395;2,5240341572517;-0,00296132038186598;1,17734764525702;2,39626996351885;0,126644125684845;-1,11633368214861;-0,392548724351113;0,442466569706783;-0,638980060286325;
0,254828960247305;-1,43823631730002;-0,850452876159505;-2,63855330058501;0,475138131459791;-0,450694877195174;-1,35195114724174;-0,494625841340683;-0,166235157840799;0,0411730362850155;-0,993316826136847;1,61882960746471;1,38628917397853;1,35956039078174;-0,863895194669379;-0,194804822263663;
1,16945809240157;-0,222740102342497;0,748965335779;-0,14229435388675;-0,170259416450982;-0,574696557421801;-0,712415815440786;0,375084877500718;-1,0259870843912;0,480770703619239;-0,994439892220207;-1,05755449562189;-1,6102121016665;1,58776642565128;-1,62629059330866;1,18984983698322;
-0,687019666856723;-0,76750084440079;-0,0187631138512255;0,923628600433228;1,56044287327237;-0,375898187984717;1,68305089251243;-0,547427690261396;-0,224820776463383;-0,507246977337948;0,653228744966443;0,274556890072897;-0,0667650176277989;-0,0776880663366707;0,389581828623868;1,60237198843268;
0,538368569986044;-0,484917666095405;-1,38392158664206;-0,748641754090656;-0,0736242332731561;1,73097387669171;0,754819683980987;-0,0949040151015208;-0,118405562515806;0,774749495381308;0,0484717864046562;1,00642506509561;0,450902740166079;0,474291365736313;0,484062565250527;-2,00403478666148;
0,356983791280852;-0,945935087208042;0,551698358253433;-0,742443725153483;-0,332569948704228;0,448923202510561;-0,194476249118769;-1,12180170426921;-1,68209448531699;-0,565777478162723;-0,155353453831822;-1,25041744680208;2,34103338307368;0,540870335631303;0,00493169068639038;-1,62425693212914;
1,17424306332692;0,687132773241015;-0,545311333126569;-1,30471070111183;0,2016601383263;-0,296568282693738;0,893930378742566;-0,576260713827819;0,285688971194339;1,46164608205788;-0,184675961971238;-0,578073090415318;-0,249830351117191;-0,205209089438629;-0,0451449015624913;-0,83024125773834;
-0,151713953471994;0,112626813620496;0,257329328007395;0,515015474692394;-0,078291494377671;-0,764167848033841;0,97346357611904;-1,83733947302665;-0,477712181999673;-1,98757603425872;0,00949718156054588;-0,290674028083316;1,68427564807335;0,0706436950735243;-1,17363351451675;0,853511205939136;
-0,500240718052307;-1,95438386801086;-0,836674437591534;-0,585237819216341;-1,0982660283524;-0,306486839225476;0,449784994425379;-0,513596194337246;-0,224080705132393;0,905457744507552;-0,344336363065091;-0,721126360484675;-0,810461602253661;0,390510551454965;-0,358019870442754;-0,289913257256761;
1,11061046993358;0,822694075082964;0,308683590988643;-1,45037591275895;1,7380557028004;1,8340514876618;-1,2058791633513;-1,44263000070313;-0,0482464094893605;1,09881440092913;1,06440425368126;0,0823320745432844;1,65951744778376;-0,342518869112856;2,26639523194847;-0,107396561223826;
-0,50201162750555;0,174877128844068;1,90975150168911;1,13485897254598;0,171762744976977;1,50052157050825;0,139563582801423;-1,14639974391073;-0,5953806083431;0,551967546282024;0,770466544290135;1,13202137242152;-1,1681941023527;-0,4946995597277;1,14819351567456;-0,90626919704902;
0,362817491554112;-0,381283941699961;-0,78214019159481;0,313867757600406;1,84886781202546;0,506850596148854;-0,151663206421473;-0,831351507910008;0,322935591094509;0,940938799888442;-0,241127296276089;1,18864382575008;-0,110652065973233;0,138642030734869;0,122211093530246;-0,665795913270464;
0,143060316909588;1,94920917034583;0,25566243643354;-1,07650668868305;0,502193822894427;1,26268562965611;0,396419869414384;-0,530422631486701;0,580991140908141;2,80856563547;0,225665322560673;-0,123212759263234;0,62367305910464;-0,443101083735977;0,534847784883275;-1,19614960648169;
-0,96476442887501;0,623779491549172;0,722675682036611;0,0749163544984357;-0,0767652880172999;-0,211168876964482;1,37250097419797;-0,981332250673791;0,191952793024172;-0,24204157157851;-0,496958329211155;0,175282013212726;-0,0535457695312348;1,88812765496049;-0,683551189279763;-1,70455538626496;
0,358011047575696;0,641045907662676;-1,49048615437482;-0,964311586559759;-0,125798022836942;1,52246129809887;1,08925680432974;-0,34018590334289;0,319854010048711;-0,306156012430197;-1,01337169087366;-0,300125312211425;-0,816030781523754;-0,108997257910207;-1,27932692088258;0,495994777896872;
1,4682346344738;-1,20718566147867;0,177182800743589;-0,889171692018909;-0,877735191344239;-1,5783809273723;-1,42509211568002;0,35117942148257;1,61336059138313;-0,459409395912629;-0,512334224782062;-0,813817006993557;-2,66749529770205;0,462863661063459;-0,275667648030475;-0,17365555299205;
-0,644741075433036;0,585827263815668;0,121741283375966;0,833895978771059;0,201094021129987;0,535384713858104;-0,360310813146176;-0,38351054638472;-0,522122804247134;0,311623659627526;1,12764745410184;-0,954429440504377;-0,231989719629537;-0,272904282478857;0,440624963133671;-1,15090370614846;
-1,17986432189062;0,272704130837177;-0,332521367256621;-1,42066220205575;-0,164930217928877;-0,367713439219101;1,08254637246034;0,219292116714714;0,644740135911142;0,94200811296808;0,437919452294962;1,91219960027408;1,24068653057501;0,322039281045444;0,0822663363985183;-0,847376921776655;
2,15909849572437;1,43157741529466;1,0120362632111;2,84436366751073;-0,793610703737318;-0,46424166648198;-0,677969559522367;1,37018008525904;0,266362023583711;-0,350714962413186;-1,2003136307908;-1,39320017473313;-0,96294396886113;-1,66585053644645;-0,181330643920464;1,53377064703955;
0,817989525682643;0,685244018609336;-0,238126391199087;-1,77294042551029;0,550535174512396;-0,13336140547917;0,488403553766838;2,3223801328149;0,281519246848954;0,338339045598383;-0,933515096601327;1,85467431505934;1,9785936844124;-0,757526507790748;0,390444777828306;0,464744727322047;
-0,183967886140465;0,10018869491604;-1,46198754825137;-0,860631082866091;-0,228009406958259;0,0240363070538176;0,167627385219178;0,477897327607876;-0,490066075216413;-0,39018918854723;1,98154158625216;-0,281833584955848;0,613356838010805;-1,26680258449;1,14059984600872;0,183988471309287;
1,11995861421779;0,902603736642017;-0,0483208347528947;1,47985546753625;-0,169953125165396;-0,738203243041908;0,955125094289937;-0,278451021019833;0,683685341213953;0,115324233809464;-0,758870370144762;0,333185675041041;-0,458693688969274;-0,498749733333225;-1,10982736800897;0,282316412300863;
-0,0732854781993543;-0,317723557424859;-0,691589007364341;-1,04091142044145;-0,652994821271434;0,820005324787542;0,308803433811383;0,0214621545882493;1,66493075543622;-1,86205979577859;-0,349681656921343;-0,353491961430396;-2,13142388664834;-0,402801955279341;1,9970300573598;1,02371761573782;
-0,917105129008697;-0,594749019256425;-1,2479535228293;-1,80469961969697;0,327907621186791;-1,1818991624265;0,368458903766107;0,387376818740666;-0,851790650231755;0,974881658704843;-0,602109974693172;0,279073876646333;2,1467994717015;-0,492028033175103;-0,0931401926601977;-0,213777895992282;
0,560106031950867;-0,055128284279564;-1,31467225350009;-0,118357916228917;1,4535270826072;0,0686457845375219;0,806916341823521;-0,709893072455369;-0,187051910829324;2,28925391656898;0,762459702252386;0,902546807933606;-1,55891197901684;1,02522331444316;2,03832231915989;-0,423525737505913;
-1,18258133509161;0,251307344725062;-0,332279669258325;-0,582157635880526;0,969126271034493;2,06100855977936;0,188626758734222;-1,50483776134464;-1,23776094957079;0,138369840152113;0,329730245199208;-0,452412645051985;-0,532853741236616;-0,481750969772659;0,968511880708782;-1,04745546985233;
0,814636597428744;0,024919876041615;0,64354638526458;-0,209148753209037;0,685003974657321;-0,911656406713761;0,941604355393105;-0,112408389311715;-1,45699423379494;0,409910385824944;-0,494544468398217;0,140667135841252;-0,507627097877892;-0,252573634054142;0,96375364195148;-1,00051402242872;
0,845318059748051;-0,775327689451561;2,1708218718518;0,259606095098031;0,304686245516619;-0,452963747181173;1,30361341827326;0,481162304817437;-0,943920107489023;0,619354198340625;-0,0263667393172343;-0,29113116457832;-0,878158291028872;1,4983212963589;0,519251354375759;-0,433192284726119;
0,622420907725822;-0,0338738948481444;-0,441746637269811;0,0212015534198631;-0,212947492132355;1,51182879362153;0,169143344017018;0,0761665533780666;2,32312554953968;1,48926048565341;0,62207639250736;-1,71655533808514;-0,896032049735983;0,799252999412327;-2,19969982353877;0,00580486559533904;
-1,021668124442;0,56326369713552;-0,675246345569213;-0,735407620053698;0,0270027152547836;0,461833702081105;0,769746405562576;-0,163006657102441;-1,8228572372257;1,44431503567124;-0,592836325141715;-2,19002380224079;2,64352946643267;-0,596481473490702;-0,305157104318117;0,0969830411129606;
0,308126458407819;0,7179574640182;-0,581484615012936;0,588797605619727;-0,519796571136297;1,28991364644588;0,787345584066984;2,36222109888184;-0,597317190291168;0,206087330206167;0,85241125220647;0,67013986382674;0,208376566393155;1,86789312432877;-1,5628645638061;0,77689279946317;
-0,190693619583963;1,52687569508882;-0,745575513509996;-0,953721812054389;-0,622281136792179;0,475793279831819;-0,392357383557434;-1,26684652653659;-0,114439508992276;1,23564180815432;-0,43333089470592;-1,39300317280409;-1,77245487280364;-0,63840630232996;-1,17820585866033;-1,68101674078495;
-0,172295835743787;0,0407172987893852;-0,0833578346033945;-1,72095764463371;0,576868241060179;0,311680758100977;-0,622985979428576;-0,223094816297903;0,484147525623415;1,8276755704809;-0,675184755087815;-0,564914761267688;0,92175055001927;-0,456538937842661;-0,520804932565926;0,19018250680348;
1,20676826549737;-0,412569812007543;1,24253240325708;0,075553607416292;0,472383830956566;0,804050674071931;0,119877114716968;1,35249265150133;0,711605982315784;0,879208382295869;-0,517172948115204;2,26999292885907;-1,04428357714269;-0,283853344449732;-0,592930631201945;0,789740526871545;
-0,93219984476947;0,799901446758768;0,755199858164395;-1,0711203781305;-1,36181035388402;1,23335297978341;0,775041406721429;-0,265697743219994;0,37226180555714;0,385473008422191;-0,226262198854565;-0,117637164835437;1,91929532937089;-2,12549596109475;1,37418122211997;2,35694197604283;
1,27895831488314;1,29179569031416;0,840074304810004;0,687764901025425;-0,23798283598885;-0,485707577609477;-1,13672697208452;1,27170099284471;-0,192426197250145;0,64255448565328;-0,715103114952351;1,35336173233096;1,17622188401375;2,75065564261387;-1,06999627125078;0,435585410679947;
0,562910134031969;-1,88959374030795;-0,0798775278667827;-1,60529933440525;0,417345385510959;-0,0462181255810339;-2,29136890037782;0,0638650046503021;-1,37698879906002;0,260293448060454;-0,545287968445481;0,239935623284022;-1,65540125771465;-0,889637397158772;1,17344898697925;-1,66194145506781;
-1,00320715935636;0,955254842960039;0,93053970822795;1,16406929207772;-0,663035138296553;2,10910100212929;1,59242121585626;0,455676161157268;-1,54776617178123;-1,90711621606171;0,0402057075334224;0,136120373252888;-0,863781820669879;1,05149232980233;-0,853454979921324;-0,305974786851558;
-1,29313198919017;1,25381156804948;-0,568112369244124;-0,127308708438724;-1,88832676846852;0,53890072901594;1,02703896140849;0,955241420426383;-1,20830787347699;-0,557903524830137;1,4168473115472;-0,0692373550664073;0,908926650208426;-0,0923010811679307;0,924273096202399;0,318249452836305;
1,59281755466252;0,381333645925645;0,667900547701751;-0,0407194398890679;0,417889020905909;1,07741681289259;1,18095768958098;0,969277992105996;0,568336918281425;0,267624837203802;0,626967995533565;0,493910870983285;-0,418723272849756;0,749161035735664;-0,758786050079308;-0,797707587314976;
0,388229128668138;0,865522102971188;0,114634158732116;1,29768977116966;-0,0849377804745505;0,538383443719616;-0,656653217581509;1,56740741619152;0,122836217807534;0,829234849324659;-0,161949685922531;0,312660005975502;-1,25263258022578;-0,999366493264794;-0,799440424316018;0,39484448175111;
-0,41258482819714;0,168971197759075;-0,10885388299622;2,5781084392418;-1,80709590217794;0,753379985301214;-0,669877089186135;0,229251964225805;0,648294972543593;0,959507401641774;1,42804849128013;1,16155919458176;-0,0429018562560304;-0,745178776257353;-0,932524093304488;0,730591997137876;
-1,14508305657883;1,46294911087844;0,813596167050748;-1,7525386305208;0,611536418128434;-1,7198537327063;-0,0304833688917442;-0,676787290150325;-0,408559137495076;2,54268847306642;-0,0151338497812721;-3,08451527002204;1,57364471466046;0,701746577025561;0,0115446421537671;0,382090892863341;
0,56357628499779;-0,385071868565126;0,951513510006277;-0,81570473090713;-1,19532167016369;-0,542101353339987;-0,386111326595272;1,37701716192863;1,26121054275567;-1,73061824212778;-0,575570009280803;-1,43229320663919;-0,417762094048151;2,21096057178109;0,333735660029313;-0,229307449508286;
-0,982169953098789;-0,293625371270221;-0,801052781166138;0,669159264532878;0,458230836502442;1,17372642272092;0,72559360416447;0,336962660814739;0,378479687980192;-0,518855368154503;-0,304601202591043;0,718111428246741;0,0717633395492313;-1,98131747452876;0,471154344561032;0,616854290915759;
-1,38823582651916;1,48064571229143;-0,446876179584913;1,17236260128182;-0,844281775363096;0,0425708225994556;1,04510359684558;0,166214193918909;-0,589178055068572;-0,0785603250019452;-0,791739516442299;-0,800435479955889;-2,51690506360171;-0,796285971565323;-0,534532606928845;0,790331750610401;
-0,161697580792104;-0,355621988939474;-1,48854899417499;0,889219142248342;0,258362152103405;-1,65705777772961;0,0413958924449652;-0,794414963683794;-1,20212809432412;0,217647521922795;1,92207016204694;0,507059657494583;0,304451411291416;0,553287449013467;0,07745545835493;-1,08280137055335;
-0,850972030616418;-0,498239016842102;1,38056805618574;1,6956706067433;0,129315557208264;-0,491915939028279;-0,820793546093241;-0,319216567226726;-2,11267910741954;-0,364319143229238;-0,0627476283920869;-1,43988665492812;-1,9488357834013;-1,21515608754683;-0,74049562236628;-1,1219941663602;
0,049405104950461;0,860611239414347;1,48923427142341;0,657239686826798;-0,434751176829294;-0,176840384242532;1,1088061146456;-0,920445666481244;-0,115481563056456;-0,0455310657235079;-0,230689120339234;0,506128118663221;-0,85252835845338;-0,608527579939733;0,816439424906968;0,934369820634007;
0,697046521589179;0,680110788364218;1,68490207282444;-1,15496447376285;0,493286840126575;0,478745545018267;0,929621881818887;-0,545401914487682;-1,78293283690429;0,0789279868481093;0,844414954512317;0,758067655375779;0,871888509756685;-1,31289068174859;-0,265215992552574;-1,02582943607325;
0,382997729446362;1,71633461428011;1,28446455707145;-0,146873289820803;1,7708091088502;0,054690626072065;-1,02696006366457;-0,16499556952642;0,0998311273104971;-0,7364660104414;0,655616590721611;0,285336785702111;0,244164675906111;0,265516796450903;-1,75808316424453;0,858923118307461;
0,668412461030203;-0,216454328770129;0,618896634033442;-0,82652423311832;0,338022252679528;0,266087754260228;0,781965226211371;-0,635433373495389;0,835298583508953;1,62323497301574;0,132319778466741;-0,66811566834473;-1,58464653683471;-0,433913113698018;0,527793616325923;0,903056853471044;
2,19091166815826;0,497527414654845;1,85624115561962;0,568523160763792;-0,132450495216314;-1,09391618621549;0,851057182550416;0,750252554513486;-0,861717487853572;0,559589780557078;-0,677759344565526;-0,20935255355983;-2,33405282987705;1,22271769749833;-1,08729879760435;-0,225542023064895;
-0,0311190342606625;-0,310776211832906;-0,701069461677178;0,909673619782234;-0,317191196221769;-0,205784928740095;-0,211392798302754;-0,669758167384308;1,96591482300567;-0,846123458611375;0,670569648017806;0,400483963425246;-1,19019328771902;0,0204142112748845;0,0591709629765218;0,421566497638812;
-0,437669961101154;0,188169037457976;2,44475671897736;-0,487318420366833;1,58550914073701;-0,143847931645249;-0,500269750192368;0,275148680659986;1,17823512626751;0,262148640413893;1,36166736030812;-0,754274687585145;0,889898534767732;-0,82999369881482;0,767032335349522;-1,45326404085123;
0,290611531797223;0,660273185191648;0,167071511286258;-0,342423153960809;0,567714522108164;0,272300215838706;1,06113281553994;0,747382553156185;-0,483987063696344;-2,03734253991965;-1,2867084685814;0,425061060444688;-1,35411683708846;-1,07165914949353;-0,24161208265066;-1,40847556499921;
0,333582435683897;-0,578028049659727;1,44203898602101;0,194977945950091;0,411271015701686;0,685191829196475;-1,25021696374436;1,11709454464254;-0,748219442259949;0,810232553144546;-1,55316716714261;0,833170560238365;1,26594037773713;2,58207077964332;0,114763969804638;0,352144822465328;
-0,983345280468759;0,952731763621816;-0,0563507695065619;-0,0132104402189146;-0,343623104349026;-1,86658701981234;-0,783589234544475;-0,502985600411246;1,66114301491663;0,785210625333786;0,000643226978250141;0,912401991712756;1,30638434179516;-0,348623382106839;1,68230409639195;1,30805583589835;
0,129690350833157;-0,087482829174106;1,19321994565357;-1,03707484654347;-0,553151647076393;1,94464220947132;-0,433699094330374;1,11676878542285;0,410124329465109;-2,08405976252494;-0,500506124502983;1,22060090393598;0,586396171293539;-0,0275905459751972;0,506904393775195;-0,48147828764417;
-0,505190035423786;-1,477608189589;0,420726265955702;0,0835941875839139;-0,391301427221008;1,67671587794458;0,496044256333964;0,243462505114434;0,552060760540925;-1,55446958188137;1,87905470443355;-0,87714438572983;-0,710940817711906;1,72210688591531;-1,80094141107706;-2,1171004440485;
0,483306449369737;-1,23645485253926;-0,620314939512269;0,116481832185125;1,12562605101495;0,27092647502863;0,0530700600040505;0,588209866034558;-0,511073750445984;0,518194457399831;0,0693147025445258;-0,173799435291834;-0,388560646980708;0,28661714350968;-0,0492147832204663;-0,0275745907813741;
0,112214653227827;-1,05044924172879;-0,111346043165926;-0,262347317678186;-0,706499563583293;-0,114384177212631;1,05861337278546;-2,46226862579658;0,858628088764792;-0,0289029373402325;-2,58332218999097;-0,180456543666624;-0,844744889862503;0,930766934940147;0,279423372483586;1,1534644544464;
-0,311736276450546;0,58527394956468;-0,651419748093444;1,57534814057343;-0,515338317897768;-0,0541825553437378;-1,2447840871719;-1,7573709670423;0,936710896504205;-0,896916845827467;0,303175047799643;-0,286882816146504;0,0724279820916594;-0,285600599708045;0,0230469839715466;0,0269308981689991;
-0,0280552004960938;1,94603568797846;1,95831978262535;-0,473200353349391;-1,31499302248409;0,545754089955602;0,72699597462313;-1,59227093691883;0,159897655480053;0,0573261296607946;-1,00807122448466;0,858456995156162;1,83184255677279;-0,334378329397363;-0,818931084765714;0,251800819286517;
0,606459650717165;0,394676704101939;0,862649981338757;0,993376518040255;-1,56750163841692;-0,65299327921198;1,06549694333568;0,728769859779766;0,309433605141978;-0,277486719094082;-0,131899081966969;1,38784972534431;-0,0654493067272407;-0,144585123593304;-0,929513686574123;0,180529917221557;
-0,440442295957987;-0,612316834007432;0,441901807575076;-0,650852615950135;0,32476593031042;0,657966389516705;-0,624262532106533;-0,679538273906275;-0,0376329506211727;-0,515392513207146;0,200737459215699;0,18543196479844;-0,196288541009673;0,980101080195461;-1,14483877049873;-0,495064585527884;
1,03250682460444;-0,362207218218403;0,652986999505331;1,24281716215689;0,617433315849424;-0,147991944790872;-0,632943725413483;1,1376902766965;1,2482142322098;0,0520181700254215;1,60862775990603;-0,998333247453221;1,28978364683402;-0,139804722418577;-0,136124728451979;1,15556656407372;
-0,454460093975343;-0,0976113428820324;0,0643020951949276;1,09500044761891;0,487972075243508;-0,262696673972781;-1,69125898948302;-0,0562884828970796;-1,09523026516647;1,79469366286171;-1,47005551704635;1,2172315442063;0,45311000763995;1,4897999733887;1,01169955740637;0,571561411819273;
-0,557629828091431;1,95161009075941;-0,0297559173709191;1,30625469808665;-0,0183527105995816;0,554608887633662;-1,16778119931778;-0,824312224090664;-0,856701926538665;1,04075860405548;0,675438089693887;-0,0770217819687986;-0,317195765217235;-0,675497448842996;-0,301570428581798;-2,06016340051946;
-0,437875198549472;-1,04255613703637;0,00510708288889653;0,85601231429345;-0,303076592932657;1,2960687260315;0,245042595844538;1,99306507630273;-0,663034599127535;0,357108278766018;-0,358594766699084;1,57155824874148;-0,212851621287615;1,20078763018434;-1,69002900392158;-0,394107654397659;
0,306183060877014;0,182855098430569;-0,433900805689854;1,17169023767169;0,326799029082983;-0,425371566401425;-0,570759962316588;0,363880611048504;-1,06124218919333;1,52912823593355;-1,78263270385587;-0,0711239070175581;0,386738109716024;1,61528260813386;-0,720571945305457;-1,62527245298201;
0,357302535263306;-1,05081935227333;-0,108489678018753;-0,166311849795379;-0,979508899827078;-1,00835352210778;2,45862010717192;-0,722872233128705;-0,13735277636997;0,00648491202349062;1,22431249535228;0,630221553797643;0,957767454166784;0,497520953186712;-0,246794961371873;1,01567314683246;
0,489834435075247;1,0692034272694;-1,48298402619797;0,0571022788702924;-0,465503211308864;0,240873445729664;1,48832268476987;0,219494728854582;0,82341242994539;-0,201397518396063;-0,830585412118619;1,60833501793002;0,893570806356463;0,794802283220944;-0,590540146276118;-0,887462003659261;
1,48859020873195;-0,245695179377435;1,35755096225646;0,411537898428819;-0,577134989978984;-0,942331070188753;0,775258387422579;1,05521271842792;-1,14858577586904;-0,958339749512895;0,381305000700048;0,432623854174735;0,309565912091781;0,212370918348888;-0,154990863878052;1,42277019507441;
-1,442118650916;-1,43721785728274;1,24765363771356;0,216870069507735;0,966008559230192;-0,46984820746644;0,28588052048094;0,912457142164534;-0,841842877909212;-0,0896035026249466;-0,127135153253129;0,788588949469039;-0,358356797954059;-0,0315111458882164;-0,627062930640156;-0,3404118908872;
0,875985158297377;-0,724518568464829;0,202193368199379;0,417378804425544;0,852715066037699;0,021163074805956;-1,78285245898438;0,238470109636226;0,844834527280027;-0,264429795670663;1,36172241148128;1,49649520485403;0,497542201490813;0,467703980668316;1,58996358130939;-0,652697201051488;
1,64051210463952;-1,54736896244571;-0,772261689615545;-1,2287967226708;-0,400192497753584;-1,11583598848368;-0,168655664320046;0,408057662567157;-0,116154679523714;0,331339615758983;0,743567795854602;0,834720276587472;-0,606348619172164;-0,362215956911971;-0,7531318369926;1,01596912644584;
2,30642927612483;-0,481865688314412;0,928741108868882;-0,833544259702144;0,0556267150688003;-0,0384722109302707;0,0702750389811326;0,868138196224522;-1,27705566230937;-0,540369383002589;0,234509631223245;-0,744744467282566;0,662240908731367;0,765467112267351;-0,581384950211617;0,628037669082041;
0,0448781493623572;0,647363134704632;-0,859690261123603;-0,733775216409417;-0,240219006815553;-2,00566742106295;0,370035781776752;-1,46970142645976;-0,123322296864303;-1,6320514748276;-1,10226631659276;0,0689098576680099;2,28312102061859;1,45531336682423;0,241580023393097;0,166976135677752;
-0,769105394409779;-0,283668926233396;0,910350516227232;-0,442079726267896;0,161594002656841;0,694890234038539;-0,0737616236244504;-0,845127295487346;0,105457543159895;1,70877276903793;-1,07589387278916;-0,661482049377738;-1,47219110388691;-0,334740069539048;0,697793367798699;0,456212976107184;
-0,968664733007799;-0,0568845647254225;0,359825135078507;-0,165420014036999;-1,09764108515087;-0,909257824473401;-0,0533116145965869;0,799642062433674;-0,515530097322207;1,16612668328889;-1,65175146947107;-0,0176757599101557;2,09305785509289;-0,622982235206775;0,121877398444531;-0,421883262386147;
2,17100754532325;1,10925515752311;-0,493723174527268;-0,816012337994487;-0,304735788214421;-0,777980318478032;0,166313822508349;-0,676225686479098;-0,670872000738237;-0,223036842033542;1,09180461435911;-1,21939007510598;-0,00423222765783112;-0,511058613257278;0,662671451750244;0,381044193246126;
-0,176214062552489;-0,805532255751357;-2,5748797528868;-0,3489962444596;-0,134422006357384;-1,59096275913043;0,0355188339136371;0,0253757005578084;-0,843961579264779;1,59143431037233;-0,170470600788654;0,0463560231220316;-0,0439153721934462;-0,966958091187676;1,01386683214534;-0,184785356959975;
0,626383905677166;0,149341708391456;0,151269581849877;-0,286084423884393;0,240544756225908;0,669124910456956;0,077991629632047;-0,326232988094798;-0,366010851463235;-2,48304859734165;-0,123839438558641;-0,783189850783921;-1,50628284575373;0,467116182820088;1,09014180969656;-1,03229149194353;
1,473213546794;-0,348213227477164;-1,2525378185985;-0,191738795539079;2,08983440684507;-1,69473069251741;0,494502947664187;-0,183826559518594;0,543654448649027;-0,862489572449006;-0,847750110282584;2,73910271017035;0,227770033118654;-0,36894734499178;1,1262619898384;-1,34358650950001;
0,77431191023414;-0,148549951842763;1,02464997839292;0,523823687672249;0,0724776592360666;-1,01925940304554;-1,26949618435205;1,46862257859913;1,17883461138491;0,872079774512688;-0,777611203412938;-0,816700981744398;-1,59044341483873;0,19253395875713;1,63502895737646;-1,46887103919711;
0,180467175502802;-0,265344649021801;-2,17228497750092;-0,0871830603828829;0,380266602673918;-1,61508587922964;0,225999479482446;0,174299803659619;-2,30980187480821;-0,40896769224425;0,716926702698989;0,952706878015334;0,755066298049715;-1,46489604702817;-1,39653531458659;-2,23575387874906;
-1,21007820300677;-0,101424918864365;0,461980398226938;-2,93502630233991;0,69255172500998;1,0298892948887;0,548841800870122;0,0554619303393945;-0,387039462891153;0,0346069672502961;2,10958812039019;-0,214086257388805;-0,867206703391948;-1,77315790204213;0,928682862871192;-1,31342834859425;
0,701694788773144;0,677506888309921;-1,25908046555409;-1,73696993343778;0,815268113132944;-0,817761584110288;-0,931553886619768;0,641591958750075;0,984768337116113;-0,177283996157614;-0,514942045017623;-0,82922661864856;0,301155886039748;-0,239262808117334;1,58809012971017;1,27032233440913;
-0,474135444669913;0,61865972163248;-0,849362229132458;0,364803321308914;0,965267314006226;-0,823123394044432;0,901005885296918;-0,0742194743453388;-1,26472121619383;2,24313831028836;-1,20343197502728;-1,81988746323122;-0,351581584332971;-0,315460815383755;1,50063384855633;0,850888760045685;
-0,00217282335626024;-0,382049794412957;0,219647319255394;-0,355145619280149;-0,961770835214206;0,115805036543434;-0,374945169462863;-1,65557597710853;-0,823084007597787;0,230028819579581;1,11621416584893;0,335796173278162;0,0721351250972797;0,532512651483972;-1,10059733104022;0,522117482590019;
0,585328104940154;0,561563551695007;0,656805886609341;0,891218603910743;0,188705694820294;0,563005435550645;-0,876787237984782;-0,0969267522747974;0,238197382744523;0,494663537710019;0,193133877905878;-1,77447411881951;-0,248760577753549;-0,343576821271374;-0,553913904490697;-1,32908030072678;
-1,10178811767829;-0,327473028208982;0,356468279745343;1,74508967445368;1,53620006900558;0,705727019568222;-0,493584357732569;-0,801821791154812;0,929114874543581;0,373733820519195;1,80545462493147;-0,888533950109127;-0,380059840513913;-0,479359101231871;-0,694557662279387;1,37656722792954;
-0,395865259907287;0,741935668041597;1,86974582017978;0,260403265755694;1,08932222475641;1,17146268103997;0,112791019551029;-0,028615868191322;0,0467416649705833;0,294216395509154;2,32248592763423;-0,847723889298262;-0,257927592906621;0,716711881940929;1,26282742537226;-0,449221181523543;
0,34694382718597;-0,121536828413356;-0,179396737364074;-0,696423345086654;1,15791090644747;-0,624257494014384;1,81835600034082;1,70948761440093;-0,65830643187942;0,196197748912206;-0,132028758619087;0,45353419650019;-0,61423247520705;1,66902672584286;-2,42560894700364;-0,0509527190008745;
-0,264428889520791;1,08892002515319;-0,488582321196697;0,362702076355981;0,547790408571905;-0,448891650809907;-0,110728215014347;-0,797069431030706;0,619321237757475;-1,01832197673514;1,4956071386664;-0,12808214561423;-0,152782427922837;-1,48079595001896;-0,914583013704294;-0,669164491275623;
-1,23415060937638;-0,314525135830832;-0,447789293493508;-0,892053815465352;-0,185071861149105;-1,02233743733609;0,473615317687408;0,297719565969214;-0,00773197665471504;-0,774009406608817;1,21825664569606;-0,808028492229847;0,0660457783105166;-1,32050606454314;0,213397789923426;1,17168836773654;
1,39113353115345;-0,988770076531774;-0,318762675183702;-0,586893544071744;-0,638731225875986;-0,317415494828031;0,118890814885805;-0,00890390196555642;0,19561953409376;-0,771050477381564;-1,67072539116535;1,19119047051794;1,45258030553998;0,67228049795403;-1,11944944877969;-2,13963930784112;
0,0790808500541693;-1,27292183952781;4,01484930111699;0,383566273741799;-0,722227215559717;0,786696707048973;-1,12808268142493;-2,30704553099059;-0,82665875908161;-0,0689999371098186;1,48657605914306;-0,0474209581205992;0,47506863078043;0,107289112101029;0,267875313104176;-0,98684910594539;
0,396638997543006;1,35543609802772;0,443046831313264;-0,782709397494869;-2,49403172220541;0,715125221096784;-0,369307002105945;0,25477327841025;-1,32215848545123;-0,596021211749859;-0,0854650096379417;1,15433615415493;-1,02698130552843;-0,294075573392828;0,16083723461403;0,715664992194518;
0,854468584710854;0,520352804202271;-0,732299485391828;0,198180533705367;1,41643635068244;-0,958458048348527;-0,219285241457016;-0,102810221874896;1,10096456883012;0,373724683011365;-0,662457951888239;2,10067263641947;0,299740306906423;-0,710401253925568;-1,83597436177074;-0,104952520606589;
-0,364782141539526;1,95266141953786;-0,937586394130617;0,855641720661608;0,773666589437204;-0,456118676840318;-2,16529508855812;0,115744385180542;0,0797167982480371;-1,44059916773894;0,98520910646203;-1,08643623344753;1,50886430143139;-0,57761746703675;1,63182260814179;-0,349037401389878;
-0,160920259131777;0,712874946913052;-1,19756470393467;0,230210503374783;-0,884094940848742;0,468229405517927;-0,163274212963493;-1,55593978203034;-0,118504204351068;1,76930248699805;0,324655501231971;0,065885572778045;1,23573185803869;0,408774940723848;0,869970211749179;1,12296659788183;
-0,345509058636596;0,000546648119855519;-2,14307215663279;0,252386280335423;-0,863062092604594;-0,357330127578234;0,498149880523344;-1,29167937307669;-0,28085516052472;-0,683280850800721;1,62924960854726;0,384814175009675;0,844080797055606;1,65140165741117;0,0925021445592492;2,12046965728808;
0,974866739669096;-0,62548570503914;-1,14788869391384;0,909238279453227;-0,211840684648366;-0,51470426558252;0,708890465050658;0,774025955757531;0,0294580457837897;-1,83041083132608;0,653227045019473;-1,79667118563319;-0,289183645478538;-0,598006183450401;0,131004634427615;0,300493504033883;
