-0,0435105257652602;1,9102720158856;1,96616987522522;-0,468891794338825;-1,32968936549917;0,543749034664354;0,719030448383671;-1,59244063365366;0,171767694521224;0,0433614012753512;
-1,02040688736541;0,84641986985782;1,81409492684217;-0,330228807012917;-0,83372568306288;0,239188571617717;0,590360495025191;0,378811727513592;0,892307552112338;0,98085424266411;
-1,56431548375921;-0,664630859152049;1,05713605360042;0,724380482155076;0,293897630916597;-0,276529144354303;-0,144837035498716;1,3861817159296;-0,0779130819465292;-0,154202832586527;
-0,941091655288439;0,172382455846965;-0,452966924533749;-0,628583285142212;0,423918660015142;-0,646051422414768;0,325729431377721;0,6583802275801;-0,600766311972497;-0,694849872356479;
-0,0481617648510394;-0,503584304928785;0,176622916421452;0,182937436163681;-0,232143471032017;0,989104170398885;-1,1465293498092;-0,504183785256962;1,03997570897022;-0,390862994646795;
0,65343656219268;1,23394693875197;0,612123573762414;-0,147462170575062;-0,654750098814691;1,1429456321857;1,24177713228744;0,0558142627467243;1,61158773911718;-1,01979898738947;
1,28088838963014;-0,148752418265797;-0,143081746142069;1,14402905472778;-0,476227615416849;-0,112437348198915;0,0734626253815229;1,095522611668;0,501268324577208;-0,279292202109421;
-1,69604283680227;-0,0708390376920765;-1,10476731990493;1,79728533578183;-1,4961889056309;1,2148537915203;0,439111517651544;1,48698878227404;1,01903350635618;0,548715919769913;
-0,573215823811758;1,93316949751903;-0,039426910177567;1,30634069252016;-0,0335011261499625;0,558829152026131;-1,16451649314537;-0,831879931442163;-0,834540563341291;1,0383955333368;
0,648808018817587;-0,075623556546092;-0,338822381481976;-0,670697110677014;-0,315888377044547;-2,06762209494145;-0,447650323784853;-1,06541161821546;0,0415449685487982;0,849014540318136;
-0,305007535784112;1,28670848054303;0,238913704792761;1,99634028463092;-0,670185121760062;0,370880381828306;-0,372956804891772;1,56618734439506;-0,203897951403912;1,17673662371078;
-1,68880187897362;-0,411212590716492;0,296538079512692;0,162690775257764;-0,417359180367931;1,17304367419517;0,323226427881028;-0,425175041137406;-0,577730253881472;0,342960006226488;
-1,05985103527929;1,52892596354461;-1,80528786876092;-0,0774703257872161;0,382034901890827;1,61187127289528;-0,722362112017022;-1,6322534299199;0,34198060829972;-1,0839276206918;
-0,104450582676611;-0,170133072796183;-0,989002003184616;-1,00812226456429;2,45076520614822;-0,72451691690374;-0,135685375435487;0,0186677805696166;1,21423158227833;0,619084512022998;
0,950811248457366;0,499438732296219;-0,254753008593136;1,01229687123725;0,477686402803276;1,05172437875154;-1,48678949767159;0,058617659415424;-0,457555172283151;0,235671375627706;
1,48832320141066;0,213338796918174;0,818101533928375;-0,195248769611642;-0,839840933849981;1,60780090965279;0,890850588387271;0,798299503678999;-0,589180973532083;-0,901419167274603;
1,49279037423819;-0,269349531244341;1,36794608653592;0,415021089208853;-0,580025754940558;-0,94139546082787;0,775354817266201;1,04423099089484;-1,14939152905228;-0,966533923109563;
0,374624353319917;0,42033444035858;0,294888382032846;0,214752761409721;-0,156735715138968;1,42216332958166;-1,44343784519618;-1,44443760437278;1,24515274749651;0,210046062842779;
0,963678114570322;-0,472699657717646;0,285271179595781;0,903682952529732;-0,845758692144202;-0,0903621469556154;-0,138030493455977;0,788219744459255;-0,36783458611891;-0,0374149664062093;
-0,632502112359489;-0,342629179273291;0,866458652870175;-0,745718196774273;0,196593899580764;0,4224909456333;0,850486947170698;0,0212441330014345;-1,77776400479509;0,240565070056569;
0,837128163731788;-0,266312909898901;1,358891747368;1,49996308880219;0,494496538286022;0,478941495025944;1,5833203558943;-0,668916405134319;1,6475791789126;-1,57867481582523;
-0,777845570705272;-1,23110585654438;-0,404978217179099;-1,11327149808834;-0,174155629804359;0,410430487644699;-0,120979276811494;0,327611424236685;0,745135941261692;0,825477000872445;
-0,621756548062867;-0,375325177707654;-0,765730860874738;1,0093655318514;2,30399605802997;-0,481760626840933;0,925163862369212;-0,833822468225012;0,056843329590254;-0,0485903832535421;
0,0698126967916604;0,861548721003748;-1,28604267312017;-0,541195220306848;0,220268922403988;-0,738227781826714;0,641035472890568;0,77182697459488;-0,569346074375698;0,611188293991424;
0,0385912357690139;0,628928047889722;-0,870222481484864;-0,732685475008083;-0,242851723898014;-2,00110155607976;0,366161341180475;-1,47111460952138;-0,110249717094058;-1,62556192747257;
-1,11835784857249;0,0557847219323564;2,28136332410046;1,45541023712691;0,22554609661535;0,160442185072071;-0,780458693646838;-0,307901737610627;0,951802735010896;-0,456099187111895;
0,154874835154753;0,685724290512284;-0,0828647394064678;-0,847504486568129;0,0971230962934547;1,70697669939044;-1,09540243992497;-0,66638656026995;-1,43960052727763;-0,351623654231261;
0,695252053995036;0,44170770757551;-0,984216183444609;-0,0645147278070071;0,351614397418897;-0,16824560425968;-1,10951814619415;-0,909433813069078;-0,0269477733262862;0,785842287756491;
-0,517390034420043;1,16060800867192;-1,67682293587792;-0,0177789657519216;2,08307730146117;-0,620695595944369;0,120837385702561;-0,424378080303931;2,20214322829554;1,10472353628717;
-0,494313659383206;-0,811504931869648;-0,312339544129159;-0,777210526883332;0,153789074947231;-0,657614373756325;-0,672841539859127;-0,222907565663924;1,12479796649963;-1,22438810781979;
-0,00786267509486975;-0,522146483913589;0,662357218130213;0,382620528588149;-0,192973961889606;-0,8034919423904;-2,56131785559211;-0,347768212788957;-0,0990159238168833;-1,60437580758715;
0,0338179631376;0,033945154677364;-0,84712526087877;1,5934161212941;-0,177711999372878;0,0455672319932215;-0,0507500805401476;-0,968481332849574;1,038085532691;-0,1980455482009;
0,624714435547531;0,126257729589178;0,135781842919653;-0,284426601395894;0,223353790187542;0,671324310332235;0,07588662856957;-0,317965806711647;-0,340031073929028;-2,48132830831451;
-0,13047732797925;-0,787899531018891;-1,52109981887639;0,473737371835628;1,07670370832196;-1,03449091239365;1,46998452806779;-0,34543885933626;-1,22299793408161;-0,199551222921426;
2,08530234524195;-1,69226304858827;0,479515668673702;-0,180567771660389;0,532737907417948;-0,861328471429908;-0,851089645664404;2,73632023684936;0,257641281118112;-0,375037285744334;
1,12571942204009;-1,36084661496629;0,76985281911598;-0,145567005286389;1,03277241796832;0,524945100979786;0,0666655047588306;-1,02052070222607;-1,25774247807389;1,45927480866187;
1,18278079691467;0,863997380072776;-0,778382995522434;-0,817919203059625;-1,59755930630838;0,190151149364305;1,62900597104293;-1,47697616084504;0,187960246044334;-0,293894473853013;
-2,17863669806609;-0,100498782474706;0,359542240453581;-1,61345629576973;0,218484912193437;0,178907813130871;-2,30864005582866;-0,400458595725172;0,722871176347031;0,938883803504811;
0,75497872445422;-1,46552548871852;-1,40740403604237;-2,23947331338518;-1,2205636533454;-0,0959672246988986;0,46077667501595;-2,93576676320599;0,710372473764284;1,02048929187418;
0,546747799924104;0,0588315074208257;-0,394933251910072;0,0396762323668102;2,1075423719518;-0,214292750023077;-0,862368526908814;-1,77409131968636;0,948438201576246;-1,31813718798352;
0,701348832906895;0,670860632086697;-1,24622452350898;-1,7363080252637;0,809920414721334;-0,819126265420807;-0,940770295739917;0,645859394893756;1,00438486130672;-0,178513081987489;
-0,512036002041435;-0,840797056527311;0,305573918104869;-0,24253887486935;1,58336632444328;1,26566420702774;-0,481329715473446;0,604602326153462;-0,832168083724434;0,35714767975824;
0,962713847735349;-0,834013036663511;0,888353119831019;-0,0708119051035326;-1,26548223949915;2,25398109630757;-1,20977077372092;-1,81886526052992;-0,335896601118;-0,32368626964004;
1,49339173422903;0,846443706057794;-0,0163233378861904;-0,374122688659055;0,226697267465541;-0,351162701807007;-0,960681814843379;0,115538710078879;-0,358153353241155;-1,65917433951579;
-0,825971474579851;0,236462275600124;1,10954089296268;0,337592212003496;0,0715196568471893;0,53143332563833;-1,09699698649705;0,519054847561091;0,597828240072776;0,559685778073894;
0,665629819499055;0,885868363342934;0,183533135658374;0,565101077729014;-0,881379008325227;-0,0882873969459105;0,232099612123825;0,491858876584454;0,212114304532292;-1,78397223618562;
-0,261774474462435;-0,344467556942984;-0,557174910741837;-1,33092530977454;-1,10591866289367;-0,339214596043117;0,357926871384354;1,74005476176007;1,55129581030363;0,698986410492031;
-0,493828473950006;-0,81163436016535;0,911645526341302;0,38068503413538;1,80242604867074;-0,885264724721146;-0,385320046487225;-0,476167454598193;-0,674606761059429;1,36701143112294;
-0,401738474167186;0,745324503385505;1,8540133737114;0,266078750019377;1,0831394421021;1,17607263928251;0,106591050439811;-0,0235512185162202;0,0663858785579568;0,283614780494037;
2,32647591040624;-0,842634823811135;-0,278734934984435;0,726063852107429;1,26294766236829;-0,456103167502017;0,347719498698981;-0,12393098846321;-0,160894255448448;-0,694929864042205;
1,14794424406261;-0,63511157619934;1,81423758585382;1,71315130530261;-0,670147151671334;0,191109767723067;-0,14224234096534;0,452759765021217;-0,592567548128775;1,67347640064024;
-2,43620515976272;-0,0738676417595631;-0,271805795712629;1,08117786786863;-0,498454105579871;0,357672265632185;0,542276692055551;-0,449965041264047;-0,0720708525585798;-0,809887258921705;
0,617685514909033;-1,02688180702115;1,48481218465045;-0,124786120176686;-0,171035831736866;-1,4780617198046;-0,923859951596602;-0,676773197543382;-1,20860957822565;-0,324833820737426;
-0,450069080515078;-0,897114191094405;-0,196816066590584;-1,02329381943555;0,464211221182348;0,299153300422184;-0,0108879592635497;-0,76718420029152;1,25546753493277;-0,811544369916859;
0,0633127036408088;-1,32149300952032;0,199546634873793;1,17004614242115;1,38593203587316;-1,00117883729433;-0,316379587635569;-0,589383827426743;-0,606596198025113;-0,315950155822519;
0,116063145517631;-0,0195644249886915;0,196014341489313;-0,76706211174996;-1,68593825959601;1,19408261322905;1,44665326327428;0,675632172768297;-1,0842050848443;-2,15049309484036;
0,0698389252240803;-1,30475956611516;4,01481302978431;0,383970301718431;-0,721048325138509;0,787069322984565;-1,13017531102297;-2,31706767576049;-0,792193217745794;-0,0671876525915394;
1,48492161202505;-0,0599543903696093;0,468207823596192;0,108868137963157;0,256741222801811;-0,989025976829119;0,383861066454362;1,3330388120834;0,479847764623492;-0,782706404724223;
-2,49297769621594;0,709885888149523;-0,381178321637703;0,255883841344492;-1,33501470305334;-0,591884528414821;-0,0990157949514712;1,15165282207229;-1,00777275434302;-0,292984334076004;
0,154963123282698;0,704545120017407;0,832436342251569;0,504916672636365;-0,722106577275238;0,198754869155274;1,41870104268933;-0,959039740784749;-0,181056030344264;-0,106235143073658;
1,09439622342901;0,364358358075622;-0,671538006872764;2,09850119000397;0,273885716981581;-0,707052089301918;-1,83994145993355;-0,113509198211395;-0,343391550630946;1,92619812123648;
-0,939746882503494;0,845802189143147;0,777326780653209;-0,4557720853364;-2,16148935849311;0,107161718436668;0,0769733316125435;-1,43418146837049;0,991031921349997;-1,09745131439734;
1,48333972262291;-0,583896696007689;1,61706364083645;-0,359221223695306;-0,17402913379124;0,687873573965505;-1,1950946022613;0,233337052801135;-0,869896475951832;0,461971227676934;
-0,173309056379777;-1,5630505671804;-0,135558329344611;1,77158241783113;0,306707950958604;0,0632482051444061;1,21899530585453;0,411562422933139;0,889460965744602;1,1033699926356;
-0,35806089210948;-0,0214115008775389;-2,14377054871744;0,25559455082944;-0,863742347198768;-0,360253169788486;0,492882404062352;-1,29755761653641;-0,255344261146245;-0,682293345465679;
1,61162776961932;0,369669208864432;0,822863247503237;1,65424220086743;0,0870750922076771;2,10177988714794;0,961386172232049;-0,643920897328082;-1,12280996798047;0,91014883963018;
-0,214321143597874;-0,52492762166202;0,71276073244136;0,76435010172524;0,0285040127414466;-1,82670162554124;0,635490933882854;-1,80039585263643;-0,287909815063906;-0,591687490960506;
0,124274556235192;0,277892697549979;-0,242801271845971;-0,168646013430431;-0,912219972957543;1,27221422683914;1,91857368549541;1,05462093410575;0,191957673571131;0,359639204578466;
-0,960698188498529;-0,618124882892776;1,29994109474357;0,603342806083868;-2,52070341795954;-0,208777952602322;-3,27777576544722;-0,591319651326977;-0,27070128148166;-0,641699509195319;
1,04736424027001;1,04271576037426;-0,0135609822514676;0,79675695431411;-0,373503186349545;2,02121539870139;0,42267838330837;-0,839794992048437;0,949358387289599;0,0958860660966735;
-2,02848254306967;-0,844703414328637;0,289209322163343;1,8875227752616;-0,0867558387031795;-0,425312727408936;-0,576200831447373;0,901886583676917;-0,801945988135044;1,60941681659956;
-0,684633006681451;1,17380630400926;-0,814983825358337;-1,71921823437001;-0,572657504946731;-1,62410720803545;0,468486195639244;-0,526857867761753;-0,895794610832046;1,46048449610479;
0,275365882329702;-1,0964260925976;0,962726864256479;-0,181700370985352;-1,34380445796914;0,283238786264754;0,134238198391739;0,0959665347820084;0,911322597709073;1,71779143648659;
-0,238792334549754;0,874907699515891;-0,258789870855833;1,15187666934377;0,300739101102795;-0,352178009080725;-0,229398491322728;1,26236478680119;0,279145574406191;0,00640342745374627;
1,09651929352414;-1,40332422972906;-0,299907389180731;0,134660518665113;1,16732260856489;1,65942020558531;0,736706170973146;0,230528435748577;0,270687078074753;-0,396084578754943;
1,17275048740278;-0,626678617226185;0,0194650304881811;-0,360546857272913;-0,242133163084964;-0,978685486832722;-0,710180862628641;2,51633066327824;-0,455789590864887;-0,133813483185416;
-0,0385946272886227;1,92973461945825;1,95627188302817;-0,486606831840155;-1,3165924408456;0,545473634954192;0,724211017436854;-1,59738008271984;0,148876672018816;0,060694375279588;-1,01753932829647;0,856239914452561;1,81113794969174;-0,333411416002762;-0,831443997509657;0,242311478059721;
0,593767241578713;0,386854729633926;0,868896516502827;0,981032324090121;-1,56212337390963;-0,653283407399061;1,06623306306486;0,718836102699011;0,297988031078775;-0,27630227061084;-0,141516303065924;1,3854448063832;-0,0908152290482252;-0,144316259290729;-0,942811346699469;0,172801551341083;
-0,449331683385374;-0,61690418694314;0,431566923960221;-0,66714745242855;0,328160298004267;0,657449093817056;-0,617206549889775;-0,696745127796464;-0,0460568990932763;-0,507286898324569;0,181119752208177;0,183632438484512;-0,232658610030728;0,986874687173629;-1,15320834442413;-0,504835032542793;
1,02024915755021;-0,370469478799339;0,64567205584102;1,22783848013247;0,610414514564722;-0,149136168733145;-0,639497688404293;1,1341979432588;1,23930711503761;0,0576646008725484;1,59081686077657;-1,00156169221852;1,2699953174358;-0,139761551579599;-0,15329383354367;1,14230213035683;
-0,467340658151147;-0,0997057381365259;0,0656611603540699;1,07981880872127;0,485215744253602;-0,263699043309603;-1,69379136149034;-0,0646640173633702;-1,1016800152337;1,7982073498714;-1,48610335223455;1,21084666477361;0,430550589962577;1,48636713724969;0,996236339703757;0,560769236723916;
-0,571891066601959;1,94116268051669;-0,0423181920019621;1,2903976840582;-0,0205989308201542;0,554307266528414;-1,16247509393588;-0,839129774709921;-0,860680597874142;1,04743626858307;0,65566813522374;-0,0796907171472787;-0,335280958721048;-0,672520788221033;-0,312525990815552;-2,0697222741076;
-0,448665309695664;-1,05732350877737;0,0122514414542517;0,83850172118306;-0,305778894075718;1,29563635248416;0,236569688745563;1,9886876679472;-0,667013709628705;0,368341368804256;-0,37440007997997;1,56784046061951;-0,21171961689599;1,19355600213245;-1,70289359283132;-0,401122766805985;
0,292303143736557;0,171713049729195;-0,415871656343215;1,15076669202991;0,321413217198044;-0,425306211249222;-0,576991365245044;0,350586806820115;-1,06475388687262;1,54259201419486;-1,79890151521537;-0,0771615767175828;0,380283094478631;1,60674262070418;-0,733714330548956;-1,63379333259674;
0,342394158563622;-1,05394517206694;-0,11078874449929;-0,18261619113918;-0,983704482975234;-1,00913332404341;2,46105507529153;-0,735806218718184;-0,140776926106509;0,0177709812622148;1,20624162444641;0,627544300678438;0,945904991691757;0,498357656630474;-0,259842043789706;1,011474316637;
0,482013570382771;1,0640856497532;-1,49959731366978;0,0424078886073419;-0,467170531507913;0,239776799836046;1,49081772789913;0,213164500067948;0,812935434862911;-0,196883652659221;-0,838835138955285;1,60771761785121;0,882085326133829;0,801441796507585;-0,60409838043978;-0,894610506696888;
1,48983946409368;-0,25450929703393;1,3617832605653;0,40870413952237;-0,578110547258806;-0,943950114968955;0,77458694444702;1,04107028924872;-1,15253555691124;-0,957591189671202;0,378425105148929;0,433836719885325;0,306860287528499;0,210309996440428;-0,157231412314066;1,41739213792209;
-1,44678586102138;-1,43873968660652;1,23806404233132;0,216003899436234;0,970992080885012;-0,471760488012312;0,290412963832318;0,897808218151294;-0,845143274132507;-0,09403395307907;-0,138997632133986;0,789730165081191;-0,372234493535298;-0,0334811875432973;-0,628628698966648;-0,346470158186749;
0,870270766144813;-0,738871174403975;0,193335726189511;0,415159874178447;0,846926987229095;0,0185024777428322;-1,7853301936747;0,234973089208425;0,836577193058876;-0,259366939302188;1,35754342343862;1,49959414055619;0,488648215202302;0,474717070349866;1,58380779894772;-0,665292003186059;
1,64153794287887;-1,55462121582956;-0,783056253068889;-1,22443336997361;-0,407312452812096;-1,11797396660002;-0,171084506503784;0,406840263652904;-0,122616431622099;0,332338582704894;0,738466647066871;0,834682837796726;-0,62746546542674;-0,365594511865983;-0,760341999484194;1,007413790637;
2,30371803829499;-0,473109715685529;0,917943974637115;-0,832512328308628;0,0508592549488976;-0,0406925342024025;0,0764226271026454;0,860583732761957;-1,28093281067506;-0,541577230364144;0,218932556189166;-0,74406182232719;0,633687106169951;0,771323456590627;-0,58551889365118;0,620554019432525;
0,0392839284972595;0,626745510291528;-0,868159639181418;-0,739836865535107;-0,246388710225869;-2,00629369102887;0,362928590123064;-1,47441605502396;-0,123564515220828;-1,62530049989466;-1,11154521096147;0,0701465862751027;2,28417976666861;1,45213905328358;0,237767138440284;0,162081030533884;
-0,775552892572937;-0,301762517411965;0,912455337355671;-0,447446457499508;0,156488283382906;0,693374647056172;-0,0832612206221488;-0,85400290955113;0,105884473767617;1,71198566358292;-1,08915021432752;-0,664067685399821;-1,46745388156545;-0,341849985545545;0,693874576537589;0,451964989682683;
-0,97340443598504;-0,0586295248063387;0,356820674442593;-0,172352137282937;-1,10558897737789;-0,910534686235427;-0,0512677035812196;0,785683496507829;-0,515688805440962;1,16196835453955;-1,66937588388612;-0,017320410328735;2,08645219354732;-0,62343572280612;0,123281141021103;-0,424631383078654;
2,16948933385341;1,12394575747248;-0,49550295489558;-0,815347967925908;-0,304028254431856;-0,780039937022638;0,16455664084357;-0,661273726443464;-0,67177430407658;-0,222070089090246;1,09319119751093;-1,22035431317071;-0,0134470697348841;-0,51403626926906;0,661041914563792;0,381080600739976;
-0,181456819976974;-0,791858151833354;-2,56187313594911;-0,347545325699133;-0,133908867474945;-1,59285243422919;0,0335707482811428;0,0397171926162096;-0,847144129997399;1,59134423167359;-0,169587949460423;0,0450314554981142;-0,0549600111459327;-0,969401814029292;1,0068637982339;-0,185683492280793;
0,622198090814484;0,142792821252722;0,141415222320836;-0,29053982997653;0,233593635107659;0,667334425290013;0,0776773246598697;-0,321270935025933;-0,367827993035484;-2,47319463350103;-0,131625513697549;-0,78319706003051;-1,51049864356168;0,471866298066691;1,08710345699255;-1,03817126905176;
1,47173708114965;-0,340934554404558;-1,26130485197526;-0,195911195739865;2,08693746286595;-1,69568288987945;0,48742380390174;-0,186098224006911;0,542259787703495;-0,861557142698541;-0,849233917866149;2,73842975785514;0,228099574361088;-0,370529112543677;1,12320490632708;-1,35176246566209;
0,768236284516252;-0,140944636418669;1,03736656512437;0,51656954454934;0,065721285723404;-1,01994417570614;-1,27662132105027;1,46845731605699;1,17614885314004;0,874436061945022;-0,778338037942414;-0,819021976309357;-1,59902476424527;0,188194451236853;1,62780824355684;-1,47693752854829;
0,171158566724489;-0,265381396055462;-2,1850219775786;-0,0893851482783152;0,371330475990662;-1,61700986802814;0,227952465016659;0,174356530901095;-2,31002421489178;-0,400216364753304;0,709747520421905;0,95077212408454;0,745432120844333;-1,46205967599736;-1,39944274744889;-2,24049513016193;
-1,21368563223307;-0,0853847151811487;0,45641319532947;-2,9365700927282;0,691650260153716;1,02741218648272;0,548062148772391;0,0573171284003688;-0,387147619644788;0,0375328154422113;2,11153886121244;-0,2144299200758;-0,872218719986241;-1,77481574330226;0,926006421454295;-1,31199429625793;
0,70573960324578;0,676905023088022;-1,25206471063053;-1,74030916417538;0,812302275228983;-0,817969540056043;-0,939922203045423;0,649101736482047;0,985155841034922;-0,173165467003425;-0,514475045880301;-0,831896257251698;0,304564179210103;-0,245358329966053;1,57995458130734;1,26448472270954;
-0,475875475369728;0,605167118012834;-0,853392118998038;0,361620855495234;0,963196563299267;-0,823255448661854;0,901076716566019;-0,0758640408213858;-1,26377854731691;2,25164635276336;-1,21069920757956;-1,81859468017006;-0,352014476640457;-0,315908730334683;1,49172902089737;0,848711917992587;
-3,51691752975288E-05;-0,37900010454757;0,220955936525863;-0,356887154671643;-0,961205802976614;0,113079092485644;-0,377803056206956;-1,6506969148402;-0,82312738008567;0,235481517183434;1,11904458357507;0,334636395331792;0,070473544348259;0,529861752774315;-1,10226314170785;0,519124602895195;
0,582932112661486;0,561939318470747;0,663248278607859;0,885642414500413;0,183343995184543;0,562938436952484;-0,87785116532606;-0,0917836913308482;0,236335235937026;0,494394616383941;0,193722036651328;-1,77568807139327;-0,261498510263302;-0,336746003535304;-0,560306564203425;-1,33300374797043;
-1,098158335476;-0,34174066594561;0,35453113548251;1,73625436412367;1,53302366802041;0,705781861149446;-0,491298975891537;-0,803255805227288;0,926477655033056;0,374756337808526;1,80339074374775;-0,88946976600913;-0,386266215590041;-0,472669725727994;-0,696854923570208;1,37559025328315;
-0,395524021281842;0,744544169882472;1,85719118733426;0,261167429800967;1,08273537145082;1,17064223260798;0,10691028341999;-0,0217985694216265;0,0407459275245756;0,294838527679919;2,32532844808619;-0,846857779494242;-0,268073283382595;0,722554086887483;1,25359757863211;-0,459623755207565;
0,350432789538511;-0,122331151107299;-0,190215128557369;-0,695048924984721;1,15427035842826;-0,624626533711484;1,81376351523389;1,71081030962961;-0,662780376347587;0,193286454016591;-0,137779806981594;0,454553618261784;-0,633070749019967;1,67952222234674;-2,43564314687124;-0,0666253857416689;
-0,265849291447247;1,07865785072106;-0,502070689487441;0,359004612552961;0,546385097027361;-0,451808829294306;-0,106656752381916;-0,803767230048745;0,617463868211731;-1,01490806218194;1,49641618989628;-0,123412356875493;-0,1688790434205;-1,4726186008327;-0,921846772168435;-0,677399282371186;
-1,2325924241399;-0,322936738215239;-0,452307662319027;-0,899842590131341;-0,18974249855131;-1,02219554894139;0,471814323633199;0,296699311857785;-0,00600336168501874;-0,768929453327834;1,21968992854864;-0,810356396314347;0,064015894406417;-1,31967251585996;0,207304287528317;1,1707519739569;
1,39470699684284;-0,999923545718588;-0,315967598443165;-0,59551576667251;-0,642147819029429;-0,317216964047033;0,122269442842803;-0,0139688311169747;0,196940924110199;-0,769894616384002;-1,67976644391654;1,19223512205169;1,44950510128061;0,677899650917106;-1,12614250694227;-2,14254975619381;
0,0793700919976443;-1,29665641319614;4,00125874624428;0,377423342161233;-0,717414973288848;0,786133932978472;-1,12670861885012;-2,32123711122401;-0,824647523904829;-0,0600743559615421;1,48339691349805;-0,0472711306726745;0,479021459789227;0,108741544552585;0,255905751839171;-0,990262482057986;
0,395662763772003;1,33229399314987;0,440592621748951;-0,784738899253866;-2,49539298383595;0,714543589457552;-0,371863541385695;0,250067105406656;-1,32635090241221;-0,591923871602993;-0,0954668448004937;1,15223517826252;-1,04536784138745;-0,290899326224304;0,151573764481462;0,704974876323571;
0,851689301575644;0,502358040021986;-0,719568668910855;0,198623183422788;1,42018149454059;-0,960350293763439;-0,21797466995871;-0,110358167599941;1,09758313605945;0,374271232753606;-0,672566245549688;2,09847463558743;0,275692674067264;-0,708443939435454;-1,84360303332847;-0,113154512038186;
-0,363646754033534;1,93572051456034;-0,946166048471195;0,848173676223951;0,776803009073391;-0,456041569173627;-2,15571740056042;0,0993448639686641;0,079480647101284;-1,43654804764739;0,967373137685951;-1,08787406917293;1,48346012566504;-0,565439655601155;1,62630426578319;-0,358423693907413;
-0,16281667640597;0,687115875729315;-1,19781130173075;0,223902308150763;-0,889862597842271;0,468050324515157;-0,167399691456656;-1,56349013004119;-0,121687567355857;1,76935494494397;0,309170979541728;0,062553463341774;1,22035657562201;0,416222877788932;0,857170533159885;1,10598588678701;
-0,357532246247391;-0,0182118978386655;-2,13530950779619;0,260562380025337;-0,865341104585993;-0,358275746172795;0,492406611182265;-1,29396107605177;-0,286456973611287;-0,680706237752825;1,61284957793162;0,379584874700893;0,824896206382427;1,65192195506692;0,0807690588651567;2,10476471527162;
0,960712095859304;-0,642370755515473;-1,1527552061938;0,915470503512845;-0,213930095852609;-0,515735072527939;0,712487703452692;0,766243169897916;0,0252681555867472;-1,8235928593348;0,634132752894389;-1,79829556158909;-0,310300402382296;-0,589388117424577;0,12501510453895;0,289829461945926;
-0,228520707077655;-0,172085308003174;-0,917855006300279;1,2795475527977;1,91756575353219;1,05042982176049;0,16786755793718;0,365918353912691;-0,956161908847381;-0,612105745721861;1,31185344162289;0,603793103023628;-2,52136962308572;-0,209938096946628;-3,27893827806693;-0,592443124928422;
-0,300152034410751;-0,640452453039349;1,05035982117714;1,04325481223853;-0,00233988300575873;0,794831148055021;-0,379569990765196;2,02630477591872;0,421571737416701;-0,839174816239563;0,919972688941004;0,0956432777695906;-2,02269163359395;-0,836888788713106;0,285751483405121;1,8870889111394;
-0,0915599743570451;-0,424373926313353;-0,575704763064921;0,905212268545319;-0,83001811031576;1,61228770334242;-0,682032226798912;1,18446469308129;-0,816250389055357;-1,72063347083523;-0,576519820522084;-1,62056413293683;0,468039525153839;-0,523372390956983;-0,926721378190844;1,46391740895912;
0,276186371496155;-1,08321613269931;0,974713345966317;-0,178597032984086;-1,34945963116416;0,282966099041297;0,130353938169587;0,100709147098192;0,881907313130662;1,72203552659194;-0,238092652419155;0,880046398002121;-0,24591510223811;1,14985339644463;0,289765617950812;-0,353436372336797;
-0,229582174402102;1,26200836966831;0,241782026529944;0,0160968654185292;1,09482599424912;-1,40517063032143;-0,287599300796367;0,136210272934562;1,15630451404172;1,66047805817314;0,735221938359382;0,23297152341345;0,237412491736181;-0,399175333648312;1,16589182437971;-0,624862124456563;
0,0194976784971741;-0,361663392551553;-0,242927416053268;-0,971050384970213;-0,707308580751633;2,50439811686171;-0,455355521843187;-0,130775815373124;-0,746778927604738;-0,125573334897653;-1,29195308152021;0,0298372148221669;0,0776227230616964;1,10193644454983;-1,21649127702573;0,614577076396012;
-0,428746630740798;-0,331145661772871;0,158961372887011;-0,100864053593549;2,12229917541533;-1,26088852810879;-2,33179358801039;-1,92322880103133;0,568344837357146;0,256679137130928;-1,52181548726197;0,888969789006033;0,368735807507534;-0,290754426006722;-0,119124915916135;0,621758008330498;
-0,335689423348286;-0,279692721124049;1,21502474819741;-0,524797852580879;-0,740827535034142;-0,132983854730303;1,42577273509928;1,2901092190025;-0,150401177285187;1,0884626515866;-0,722700584495107;0,134538273850486;0,0739891234165484;-1,02564703698477;-0,165892438321616;0,0494066162516878;
0,651053985497561;0,727286491159327;-0,0571002648231433;0,765587360911173;-2,02441222126563;1,67192828970286;-0,109412395223374;-0,576956269284484;-0,325431302385846;0,446948373687674;1,26108581028308;0,431942281309521;0,369376973690773;-0,718346838951761;-0,0489834344826138;-1,36793442364033;
-0,298336962260603;-1,31436036267729;0,416429668258272;0,174087551121814;1,56788795170761;0,496948958014493;-0,715631401197644;0,678516685137826;0,143480875888699;-0,141270816891134;-0,991508369169242;0,273650805349243;0,546622746014753;2,19798740109284;-0,468852651817413;-0,954814578496322;
-0,249483131646551;1,30335034595827;1,37505131349087;-0,475978749644338;0,778224207682438;1,9287981127775;1,48129019214244;0,423509038000941;3,87513797703442;-0,756301028958375;-0,453626604107185;1,93294758589345;-0,686314824592596;-1,4114831223679;0,90236604827003;-0,0543329061510974;
-1,13753568359143;0,0941469042503308;1,11296655855254;-0,882410706487626;0,229252790161651;1,36360786596188;-0,856067956948005;1,62220906101157;-0,957056117470272;-1,19517552621469;2,24486839420537;-0,566398762769451;0,960680397869075;-0,208258974786083;-0,236193954756764;0,951792618099945;
-0,191276818199691;-1,49639502491941;-0,526914051773643;-1,72789292062586;-1,69904675790369;-2,54507492044308;-0,529829407298375;-0,173250652183301;0,740286727330891;-1,17917256000825;-0,249364989850535;-0,38988510998031;0,317478134010194;0,772770906781529;-0,0538673948786748;-0,0347381740902843;
0,693348029641508;1,11150165368111;-0,519993832159172;-0,568132026297336;0,164939534595389;0,974033322083294;-1,11004778012977;-0,099924008208075;-0,665896997494657;-0,402889709989262;-0,781971264294515;-0,959493719868102;0,94404197311863;-0,124965293283787;-0,417886417377199;-1,35659768006291;
0,305537859013148;2,57798816654164;0,828314317858231;0,118362657581595;-0,973867018315522;1,93024931157296;0,745135380887781;-0,0383180815616706;1,52879851269377;-0,564967122567721;0,879140866778649;0,982036091003181;0,112807478161306;-2,11243878932823;-0,335920186291506;-0,185970658286064;
-1,90623916211566;0,523282288478459;-0,499214794950396;0,341024223900653;-0,854685308308428;-1,05250326386198;0,428980948888036;-0,147432272024689;-1,53933105435749;-0,619795703412156;0,770658432178483;-0,508972684462127;-0,924094912938128;0,808696825187779;-0,707867696554436;0,600121003162943;
0,147888243124007;-1,88097865749027;-1,19904459698012;0,020607666094185;1,58520980305199;-1,08501011160806;-0,88720725973749;-0,754963155805206;0,949373226003528;1,33262697973038;1,5594783705352;-1,44486083662997;0,541867160360298;0,192150543846738;-1,27552887328052;-0,175074532303392;
0,217260867257278;-0,112341949217558;-0,396585944929763;-0,534260242566935;0,963347551280252;0,411873805904406;0,350003013916345;-0,490825218780025;-1,26061509538603;2,44977048539989;-1,23484826534302;1,52026571654962;1,17233314985886;3,29903852555473;1,005235512056;0,61859214517332;
-1,54779787737757;-0,267946256905749;-1,10617935316318;0,354136629379821;-1,02073241771873;-0,206914203913949;0,109013224647156;0,496213010677941;-1,68432601195181;-0,485060184646255;-0,702409484408576;-0,485871961275814;-0,433537207176233;-0,0710913730297434;0,764988454231779;-0,061070478953077;
-1,35884318259258;0,645817379851761;1,21564596458717;0,760969812813547;-0,768436557295688;0,602944316519646;1,44654043193977;-1,3895547423698;-0,975997525723494;1,62848488191771;1,12540147381904;-0,247567181415662;-0,107358403209156;-0,425416458980006;0,376303379705232;0,733780390314781;
0,927363964931965;0,235186284785092;-1,01287685127013;-0,112346543168233;0,241374560991626;1,32859360000725;2,49844257520674;0,367250661595089;0,195688704294974;0,043409573062431;1,15748379628154;-1,29652269515829;1,65058884994433;0,358612577796352;-1,00141045579981;0,93058783901848;
2,07328315974717;2,54310359533109;1,25563120883198;-1,17200814584486;0,476606332006031;-0,537309978315854;-0,714609240810078;-0,962295691887387;0,737070786569893;-2,37549385699003;-0,941942626867389;1,58230557047664;0,653325256787984;0,487281227628503;0,653798920191735;-0,847017956198144;
-0,427169036259014;-2,30553684706616;-0,1103355325178;1,64551019859518;0,453334671556777;-0,590909381410934;-0,86497837047429;-1,25105411499242;0,802229787959291;0,0585326219732597;-0,98457539579731;0,205804804974051;-2,24760606875426;1,27195019181773;-0,407065412288557;0,658320999201073;
0,0288415273147035;-0,504108097746839;-1,04924906076246;-0,890908100441343;-0,943409100453179;2,08745037323256;1,17538392787862;2,33684188203105;0,332919587850069;0,57778873896914;-0,449681955667246;1,47242342012629;-0,514883983488856;-0,10561561900455;-1,55691351747458;-2,32142002866171;
-0,560536116452639;1,40598539352515;-0,611401715159684;-1,17439913683426;0,910376045277094;-0,0774192905005964;-0,604568084149275;-0,0301905047637128;0,634478268460093;1,34054383549974;-1,1803477047215;0,497596720581032;-0,59734524097275;-0,302463172308257;0,96188866678653;-0,30782399739771;
1,0277484387929;-0,950864197449398;-0,221934585250406;1,21295718256316;-2,12777892569436;-0,29593314344293;0,351682700328306;0,98818173844611;-0,695079066677277;0,142069572380361;-0,512930785975217;-0,00983298824709414;0,95161608637169;0,800087271253568;0,67250401224132;-0,125239053619295;
0,278514903772498;1,00273198589824;1,47426414940386;-0,609653894736205;-0,323227432435195;-1,67051787436664;2,3238659793145;0,0330967804892738;-1,91875745373197;1,47686831937327;-1,15391978929548;-0,300114532689319;0,144897622840626;-1,9699537532205;1,1543787948922;-0,798727017647152;
0,087111802269713;-1,00026426198306;0,481576465336426;2,94323568796252;0,215085145607121;-1,26360937669005;-0,467202353479815;0,331214850011714;-0,391592482121412;0,0973758971279475;0,198270806787947;0,325511820511538;-2,08496662109667;-1,06002481456046;1,11364798545747;1,11345046881159;
1,12482926447864;-0,908590124625777;0,167843075274972;-0,136639188363223;-0,0188422136510141;1,68960811344026;1,65759076587539;-0,0169647885915072;-1,12310897551209;0,666607573751577;0,694393721164907;-0,194172067030306;0,2116052175522;0,329689239504346;0,890820627591008;-0,0668941338650313;
0,299894300277686;-1,56161104863466;1,2742135920551;-0,0438329442310251;0,0407059570072042;-0,4637549217909;0,666483216593618;-0,559958454836786;-0,056676851278392;-0,816379325533822;0,234324931812962;0,0374271578083873;0,332755788573821;-0,618456467814291;-0,616409320987191;1,01057269043458;
2,64323379967958;0,870012870718844;1,7220066184806;0,415006164640371;0,436559047267389;1,63673665674104;-0,100061893491661;-0,63528598333433;-0,564791989631887;1,09127391327304;1,18556768848788;-0,168060618058312;2,17847762146053;1,12754120794668;-0,884217253439999;-1,06492374179185;
0,0990492429752287;-0,22284419170984;-0,646851621181857;-0,468794101497852;-0,749242787230483;1,84880213707337;-0,211806705787189;0,103132338404179;-0,558028516929165;-0,111007053993294;1,22035195044678;-1,25156668756852;0,0379555535187435;-1,93398724568052;-0,571285919361354;-2,07910358390467;
0,338304672823084;0,0606379037679051;-0,239834078193178;-0,759531021300014;2,17544786479837;1,06378194568904;0,378768051762407;0,127176900450306;1,69407537270889;0,622066355299003;0,453827719631551;1,10083891416414;0,667265065684098;0,444380490876018;0,223881491776766;1,38339100736343;
0,600435595418793;-0,535359996397556;-0,0509041460572155;1,05073320402441;0,841947685885664;1,28592407895921;-0,293879072364168;-0,307399956235667;-0,826314242752772;0,438311640150349;-2,39785870430741;-1,0222055474618;1,82504304956233;-1,67029856098971;0,958782878725141;0,506022523757079;
2,35569539750701;-0,714206990485792;0,0853506858948419;1,01099217139007;0,378879622445094;-1,30224305085128;0,255215290640206;-0,574366875654196;-0,192333196229065;-0,811290154084373;-1,24071262056487;-0,140945778535398;-0,0304831754768719;-0,5205723613263;0,528393880054175;0,673564561454758;
0,191740385821682;-1,8450119799019;-0,796646614595687;-0,53814410629514;2,01132950861425;-0,531769900479406;-0,317379943151192;0,796411539521091;0,492678964028909;-0,367184770521937;-0,639248308185488;0,979556935285381;-2,10032950440487;0,304293144099991;0,122031580662204;-1,12705252031748;
-0,0558395452412167;0,328883032048499;-0,529637373545119;0,688245079462959;0,627083162048628;0,456378374582507;-0,372810686184955;1,26075695805134;1,13464087042415;0,191871408145636;-1,1628758299699;0,923412778711684;-0,422981341619606;0,162075432713174;0,569667208699672;0,0433184645016799;
-0,489926315780813;-1,04043928671601;-0,407252041345341;1,42524063572128;-0,70358006618862;0,269539825724291;-0,0262754618530662;-0,152712896017339;-0,834375358844416;0,494656826329143;0,111061001044531;1,53832763494281;-0,699882448117868;-0,29033202249603;2,21681114049061;-0,326693904767009;
-1,94618014541284;-1,65066267984097;-0,112568670669069;0,571679340088142;-0,508421563047109;-0,343690946261955;0,00324093898773782;1,14518291270443;1,45573475657829;0,335609355049574;-1,69687960814958;-0,653866902373855;0,809390542522325;0,161839063694177;1,34144888200422;2,25152054663885;
0,118841727984862;1,03734983674433;1,20964845924781;-1,02407614033509;-0,0307126531504408;-2,4422064405806;1,35644871326103;0,498373755047093;2,1040894582704;-0,0787511047455435;-1,50006319786749;1,08173060747754;1,88878565113165;-0,835852268199592;-1,56413825801963;-0,136272514402226;
-1,01775773170381;0,348663784702846;0,599095560325378;-0,152886644790462;1,07565427915179;-1,88542663914262;-0,345132924567513;0,249069511479616;-2,32277177841193;0,20839364984459;0,891618237178651;2,23438989569862;-0,347834844411919;-1,40989491946278;-0,0771626830838782;0,932626839296057;
0,804017780635187;0,587264596159661;0,155675921406179;-0,675242726097527;-0,108255387416324;-0,774462463920287;-0,778171484629729;0,490666472261612;0,942723381265343;0,50066521454285;-0,515608401363311;0,806155087720166;-0,783114574376515;-1,536049464069;0,7678649032299;-0,839792271820027;
0,0076019051717757;-1,07011702265024;0,876285890939289;-0,0871118852778829;2,26381308211317;0,585714095010151;0,80567760700935;-0,0005481420905392;0,182617078680095;-1,29921738101119;0,794091721501428;-1,24719325151031;-0,3184645721117;-0,44811458601367;0,405226418733439;1,30687252960245;
-0,258039976707838;0,0452801830460113;0,315564688768469;1,14538980820762;-0,482433320013175;-0,389325185453484;2,04342617265264;0,483423394633795;-0,564299243219658;1,44551577624562;0,340365757660854;-1,68641338393327;0,00714654597666507;-2,13287987146802;-1,22451383732039;-0,282931708084945;
-0,000677815138802686;-1,26096843257398;2,3821243418008;2,29158739915017;-0,28491631391476;-3,09220724436116;-0,654991673267372;0,873043756144069;0,432706712295685;0,0243800073980487;0,653908531033123;-0,196543575720658;0,208468552973847;-0,18878035197558;-3,18771593518688;-0,29578453901407;
1,00544908550775;-0,504297201003426;-0,401419200199249;-0,644326112425126;0,296354001917674;-0,625143015402654;1,15981508935945;-0,4131747530509;-0,34690194415031;0,0628976515931084;0,697023691853593;-1,39251336669291;-1,42780714553036;-1,26984517615934;0,866921300106875;-1,54776920865886;
1,04586664687871;0,866322624875867;-0,630272417236087;0,829646886124364;0,999748177794674;-1,36166056309685;-0,553375296859245;1,28773955419976;0,449043254078788;2,92886862875773;-1,1536418159887;1,75790742700255;0,903017264657218;-0,654138283541317;-0,601989849035191;-0,832104967613634;
-0,0642864020420926;0,710677497718695;-0,0983276287186292;-0,100975256049015;0,444862645062499;0,418549394694794;-0,101827778292736;0,112178708120816;-0,632126866587503;2,02543560760758;-0,221674964217692;1,48448120369641;0,449709831088856;0,264763433340514;-1,103177321597;0,934680971942466;
-1,60012835875735;0,0791226072703029;-0,581295348755177;0,103070224687738;0,217483100207745;1,24896914724355;-0,27053561829573;-0,954657993469935;0,180824190375143;1,74485335911051;-0,757462863153704;-1,21052586342893;0,277654331334297;-1,10532856186779;-1,37686359703187;0,0571283662286065;
-0,406716675214047;0,614932284759937;-1,00871279807376;-0,122431415087538;0,379707384924931;0,107109070113915;-0,308188331456092;0,180105791333131;-0,375175019033232;1,62642358873803;0,850241188020254;0,290552966663473;1,23655047807314;0,464289807462823;-1,1863487644805;-0,767600702378987;
-1,12206822149376;0,386374919552;0,491765304724306;2,23228661120263;1,0433590130325;-0,157943532425318;0,406516753862438;-0,281820684811944;1,29802759388461;-0,585549067712733;1,11700527193004;0,234140164030471;-0,228273421557827;0,276229668806468;0,344777754698369;0,851531197419563;
1,49523272076372;0,764173337473409;-0,0502410824882079;-0,0128650635496474;-0,093799073635279;0,211698516155998;-0,407118074606257;-0,39640053764995;0,254169003333919;-0,232431776102553;0,635536228851531;1,83639307351671;-0,815110483304358;1,26386025889797;-0,485929301132353;1,24551166222664;
-0,885320186599357;-0,490929494292797;-0,701592007067296;0,41520803020448;1,63009532446917;-0,604997270232322;-0,643208870736877;-0,126793745059108;-0,195455429848974;-0,814605057252304;-0,15873383225736;1,50296869158138;0,977949666160736;1,16968330168992;-0,328393433220683;0,0126198781347807;
-0,65949492749539;-0,552944944863633;0,356353209321622;1,29990813976859;1,49944933112571;-0,716632964469372;-0,236699522761128;0,310249724541608;0,0533156419031337;-1,41968771233618;1,41823212923319;-1,01359193294391;0,804378258355845;1,12964801139256;0,815079891461283;1,11401720892294;
0,694051014962651;0,130037917894642;0,202334593303629;-0,643276545981943;-0,68455405832852;-0,98326434281247;-0,308606356348554;0,114391669901116;1,15301312373189;0,685191822936307;0,233436545690896;0,165715928327343;-0,324153424090228;0,045861956009474;-0,744471945666728;-0,0919603951946032;
-0,0178317205982376;-1,25518305310515;0,162965225881546;-0,669913238116813;1,905672818563;0,537241571311401;0,560653822423925;-2,44015305283013;-0,180402289254279;0,369219375784459;0,759933968447723;0,684056375866282;1,23352203345548;-0,650508792104296;-0,586571671655966;-1,51193163018757;
-0,457284775223577;1,73858570524685;0,203313296205644;0,255189812960935;0,16897817025912;0,0746366193490853;0,641213771161817;0,679206644333945;-0,39942120107033;-0,627590489014329;-1,68732155180833;0,518806520388276;-0,231636451695626;-0,332189641837513;-0,78179150671575;1,51643332761882;
0,0306908653435012;-0,157526935686382;-1,43071054667486;1,27662400392907;-1,47218297042209;-0,813797852138563;1,20518089579415;0,967359101727175;-0,202491876959335;-0,0351547852387792;-1,65740276142771;0,0506127764219526;-0,475997851967722;0,630880313484981;1,46364747331574;1,26817823875099;
-1,73650251623983;1,35495507143609;-0,824831608466593;0,230304698478226;0,493734505615153;1,48704252753943;0,924153701942256;-0,712420303200029;1,51347146342124;1,87266655752829;0,699665672107631;2,03412599814903;-0,186112637349733;0,590226876355161;0,0554066591234147;1,65457385503719;
0,503808826415389;-1,12540382632644;0,522421458840529;-1,10417847150347;-0,984740867747807;-0,71318843219166;0,53979295705354;-0,415745702919464;-2,07895180863736;-2,04179695727884;2,22405088715362;-0,748555376673638;-0,073880531617832;0,822141490460883;-0,106491433694193;0,36754541553397;
1,08333860245805;-0,230950589866012;0,308417627407856;0,16290538181686;0,730709300886319;0,580801921251564;0,990771516481137;2,18737157330965;-0,98381175900764;-0,627171021536352;0,146512920558899;1,23039162631299;0,0259561119388835;-0,31575931485552;0,462813488987449;0,632576739440299;
-0,147533705869338;1,18271878527049;-1,00143457257949;-0,161114627276213;0,202212471808451;-2,32495988996109;0,721777661709861;0,56395916753902;0,204289822293034;0,153587646994278;1,49744986604449;-1,48904214332435;-0,283256175911536;0,224669869287919;-0,288867949597947;1,33624004766465;
-0,215233826425776;-0,083115393968369;-0,578635658887539;0,505669370914268;0,232508122085865;-0,639324966139136;0,935543469323755;1,25030098967884;0,546689174402752;-0,257609892895474;-0,427333512380177;0,305316845704527;-1,74917528018312;-1,50592094248974;0,517600974181803;-0,576479154975108;
-0,725841210645651;1,13156539418223;0,104349337977242;0,934823141381924;-0,7836713138336;-1,9193399440203;0,13536845116024;-0,655524861184051;-0,934339429527378;-1,57277834865222;-2,20332687211558;0,392522553898144;-0,30767007264857;0,459795032170266;-0,112036970285935;-1,04507001419872;
-0,655641417764132;-1,82180953690715;0,432448988809638;-1,46204969872432;-0,533282125400615;-1,38394211888934;0,498184275881643;-0,70988352350834;-1,36691654129114;1,28328070861672;-0,0207420065545675;0,298011062444173;0,49415304954625;0,257083850555212;0,134679184743102;0,63962990913326;
0,205963930079041;-2,07749113486366;-1,35390177673903;0,773628133295597;-0,610847732553625;0,41087735363391;0,464973750902525;-0,0329437644798897;0,613803512020033;-0,652016417508236;1,08717344319814;-0,711840325581296;0,133510041588393;-0,613833774944787;0,912182444907501;1,34390096864282;
-1,62432170871642;0,721256058515521;0,446355722219067;-0,963527808852079;2,94620712607228;0,131479164512065;0,241494272058473;-0,934971619991181;0,341589322130672;-0,180665505369781;-0,657927984495752;-0,477427622515499;0,193626644718104;0,592041120510719;-0,192838352363658;-0,0305340243810584;
-0,0876000503330393;-0,554390906059522;1,50869260218403;0,96817654923432;0,683876008763113;0,63699443319433;1,57521317587424;-0,547722006509062;0,506348344485426;-0,948309289945851;-0,478393825452254;0,834505660642293;-1,60013503166396;-0,438403533571796;-0,414130009897657;0,401833848801681;
-0,130659372519176;-0,126439153742789;0,878211767125107;0,946116067280319;-1,02857364090881;-0,17237728624459;-0,538032641539784;-0,00623635078523958;0,264299158335615;-2,44720937796041;-0,178076615401379;-0,679725576925268;0,231072643488591;0,490717036538955;-0,370355648288295;-0,660764381503265;
-1,2474189787345;1,02380210851199;-0,0225523682723064;1,38330544207082;-0,983468779493412;-2,87741657630719;0,607045441665392;-0,263169039724461;0,15973658695814;0,872160977090724;-0,25541155672779;-1,55066473887563;0,591163500395791;0,635792820612166;0,136899459295646;-0,727916281640636;
0,20150798595175;1,90942711853428;0,228860865253286;-1,23734340823335;-0,799636112970174;0,0762150784000334;-0,269316129278564;-1,76343993851975;-0,0642551276456352;-1,89687972444459;-0,441419558906049;-0,299406268431494;-1,23829034722499;0,487000792921847;1,59502698875973;-0,414273120076345;
1,43843868676348;-0,517986311218139;-2,25004017398315;-0,0538535704214941;-0,562068109048941;1,07577170183507;0,934368944390743;-0,224912063768963;0,146477853522993;-1,04806752025174;-0,191780370402292;1,01430511521219;-0,201311942625143;0,411062867482205;-0,620166173701102;-0,05341138203059;
-2,2301075976888;-0,232657621284809;-0,311884364910612;0,433147820459493;1,05321895085443;0,171950139302163;-2,16723507489649;0,24787282336518;0,171786514785499;1,37423556722437;0,152520836848447;0,798241104741118;0,077620128981344;-0,151566265087018;0,244927275818852;-0,521146786777845;
0,369891612189582;-0,325160937572475;1,3199353396604;0,747778250267369;1,19950450946861;-1,82598376905679;-0,714878163273901;-1,13055860124687;-1,05839791651067;0,9006799712346;0,419804119516547;-0,419847411385655;-0,258618303008031;-0,558001731539896;1,53772444611268;0,553663851773229;
-0,33320048272302;-0,286214756512939;-0,170224829986677;-0,790347305299915;-0,160057978221296;-0,650844437593872;-0,0884741357679535;0,327061514253279;-2,22998835729861;0,29333486436827;0,0310521609586859;-1,45443105571968;1,20353211308686;-2,92347659417671;-0,413755130387148;1,63057171173068;
2,01139599515697;1,33173293532747;0,560759513743687;-0,917449686391208;0,760808405437047;-1,07387504307861;-0,944962182169195;-0,164334857906257;-0,482145457634938;0,790469327560588;-0,419428865630295;0,246355765049542;-0,321454937639157;1,05146094146318;-0,0293363705778422;-1,49385611927879;
-0,200186486241704;-0,737589089211543;0,0104133478936953;-1,32624574289243;0,882982245589886;-1,91860217526094;-1,70139764524284;-2,11987056711542;0,253450688717127;0,816561703785554;-0,902185089348618;0,92988635984616;0,840428044782319;0,769645629530175;0,146746892957624;0,24690670758931;
0,880438643823354;0,239168998123765;3,22337783287662;-0,515850692433749;-1,57502351193587;-0,480477874852944;0,442539984433484;-0,372551480825294;-1,24408442710654;-0,109499259038603;0,0562865247710155;-1,11708294082931;-1,14688699160581;-1,16965606629351;1,18744465672145;0,14891931794225;
0,51267608534453;-1,22550082282176;-0,00399299957124102;-0,204419534096924;-0,47504024288394;-0,30761316428969;2,78406774949726;1,4056509404456;-1,21379345368848;0,684349460317058;-1,93593033822859;1,32223113358402;0,220232323594602;0,876635780954609;0,140361787066762;-0,404794793849587;
1,57928895743718;-2,03088268550278;0,089860463109728;0,624401683063861;-0,0989284798012935;1,65162231528153;-1,40804374269384;0,657259399189372;1,15685020762063;-0,931848993975938;-0,839261799610044;0,472975122119766;0,056013758878567;-0,439145550282499;0,819855017104924;1,31985635312558;
-0,66366504639519;-0,760027165371758;-0,764864713276299;1,2996083486325;1,05189662595003;1,39064888520945;0,658517976949663;0,638312733111994;0,856326215242783;0,155813466987447;0,128264210857356;0,885854902159833;0,649713581736024;-0,605275313447429;1,51437989682683;-1,79816228663927;
-0,648701790297596;1,0861900701299;1,35248995700777;-1,67489881395785;0,434885520087705;1,0923526943917;1,06536532482774;-1,21245819355846;-0,52785376958501;-0,317812270011393;-1,14171489976011;0,840230219647165;1,04119978641875;0,635308841259757;-0,716401946192475;1,92150722478812;
0,845967246742618;-1,27296629686462;-0,431018884776519;0,527329096010339;0,147441580380634;-1,101746701768;0,0657781801737024;-0,614370204738111;0,484842211266064;0,410634021090928;0,214362668663299;0,847583735551337;1,18329716400186;0,553239785337728;-0,211545152764134;1,97946114469645;
1,41752525370636;1,23011702793896;-0,230221666216202;-1,23495270671344;2,07947550947062;-0,00759206081218637;-1,4276692118145;0,19251980954615;-1,31310960647451;-0,923416811528394;-0,636638383387191;-0,0582554783454141;1,53975349338866;0,664463320268461;-1,18539526245277;0,833896895608858;
0,460071810782239;-1,02914193081288;-0,680219222799574;-0,273540100664716;0,114469952885819;-1,5932151688147;-0,878976796632317;-0,50631554354198;0,888952287326666;-0,680631273402351;0,200935438937361;1,11566081945002;0,441722547561246;-0,592581442993373;-1,92502573224295;0,0446309564062228;
0,754145306549537;-0,637725528882804;-2,33963439870694;-0,719179919928754;-2,50468806813763;-0,69631114736956;-0,344421816498972;-1,01273293228486;-1,39021441008047;-0,556299524254787;-0,62323993628189;0,196067356858966;0,56204805093875;-0,0385143559382353;0,308356190036027;0,34408154579075;
-1,38268856620943;0,43178201580354;-0,231490765582897;-0,648695001153847;0,752542614287463;-0,684626550802096;-0,843596389684306;0,743055363482508;0,64690892999476;1,15272988814758;-2,09397435209289;-0,194647840065609;1,43938853108809;-2,43057961786953;0,394599088298951;-0,374407590332479;
-0,59988885988413;-0,212949353429124;0,913257552091905;0,654420015212715;-1,32804327916875;-1,47435368625448;1,92842811970337;0,532930865887538;-0,0310546156778263;-0,689758957533915;0,257145542898768;0,566620098378122;-0,965469055536273;-0,431780616272364;-0,275030824819327;0,136651841014279;
-1,17979906822401;0,00759584166431916;-1,40704555168692;0,0477049218702363;-0,0405796413617661;1,43284471550974;-0,0354879737368679;0,33049097570564;-0,556915488928443;0,977678897417768;0,867548109526797;1,37084538384194;-0,297645173163156;-0,252476862546993;-1,15614254518643;1,22318120163561;
-0,32780589881222;1,27275504475889;-1,96842610847449;-0,401513744737228;0,649512901396474;-1,89304025749673;-0,906706100717292;0,0360775003163313;-2,84721992922111;0,289682147596454;-0,377376414248261;0,273386448152416;-0,633536047006804;1,00751804464618;-0,00932590909810673;-1,82393923937699;
-0,66445089531395;-1,65255624250402;-0,93984075431325;-2,22783583483289;1,90255693565987;0,905308107630121;0,120315256474189;-2,03218748218616;-0,67697416817453;-0,760368225358698;0,70265715465201;0,728734434728012;0,340701680502453;-0,000261914649278112;0,720450447237394;-1,73154984657503;
0,125807852805236;1,51706062130947;0,719612250162976;1,38457943365374;-0,0613751819685097;0,403976152137349;-0,254395225424938;1,64099061397016;-0,859436625119955;-1,52990298338319;0,479830456140084;1,87197246158145;-1,08551735162639;0,000985167623818379;-0,713694380399182;-1,25052033968611;
-1,97044591316923;0,564623302285595;-1,60261304315987;-1,11021306902068;0,364753751519567;0,587458783462965;0,972298345137503;0,95324050164674;0,482122247441355;-0,10923611941356;1,18384477713245;-1,11788660033826;-0,229537549516547;-1,94466720185292;-1,07358223032344;0,0884254694794211;
2,08996531633581;1,58461254980457;-0,741844786457674;-0,25334750223129;0,743289687303263;-1,30757909780146;0,699760430002524;-0,650894408617501;-1,08338367756217;0,209571737518778;-1,02220665882678;-0,990466183308572;1,33629994985216;2,02784122866879;0,937715736006148;-0,992734964043379;
-0,0768451790676377;0,246827205704783;1,87541625581542;0,813794296904353;1,60193845058629;-1,94612945190253;-1,22824465113963;1,53100061594552;1,56258858673547;-1,25190552313167;-0,698383804087976;0,985146238873638;0,105968813416625;0,257993956661922;-0,763423357598705;2,02529549573868;
0,0659099842786899;0,698587523743651;1,32613571555205;0,737850434772588;-0,116823974381059;0,657606019903246;-0,813751222921783;-1,03685260602472;-2,21999130038077;2,29701766731225;-0,80466457454716;-0,385805124606376;-0,772171764986104;-0,673246233482486;-0,415558784364969;-0,807910460085259;
-1,49532783545435;-0,28756130526881;-1,20914512756424;-1,21148631564101;-0,362798235262436;-1,52204543130303;1,52120439471401;-0,707499891940324;0,226102867982949;-1,07371305992654;-0,918518510029516;-1,41155503011853;-2,1664007743594;-0,00907799441999107;0,340161833851971;0,118740534233317;
1,77038529221335;-1,75861637017668;-0,441177828938108;1,10086440321381;0,645311063207802;0,339739546792777;-0,897641874942118;1,0273932107547;0,00193608147723145;0,599085378557704;-0,327307301696295;0,22312278890302;0,665352370309151;0,555786933510953;-0,185757205195345;0,0552062433231907;
-0,10228601650262;0,0958354151877114;0,106694746591641;0,571906156774668;0,705208025362052;-0,259063866302252;0,177413216654269;1,55308769338232;-0,26454436262476;-0,763524243208381;-1,04836393073616;-0,205585157405968;-1,64261620375131;-2,07603679492586;0,721624997195334;0,166516047245251;
0,44487552700886;-1,9121705341866;1,81213824388416;-1,34298653956837;-0,0375791191204204;0,948268750480024;0,60287859298489;0,548420341883481;0,318332117754527;0,139761303855132;-0,0635826249045039;1,14723905207066;1,12344904969569;0,522135179197753;0,0520812509433637;-2,13198495148763;
2,76339035156472;-0,884110704535394;-0,0310338515205532;0,928169224001402;-1,21956534352219;-0,872885959208807;0,681280517593006;-1,80329466298743;-1,14057306118025;-0,535615670111482;-2,01660804668469;2,36212857876608;0,350091854025003;-0,309754134452736;1,09003281155759;0,532037114483935;
-1,09677658158408;1,27186617126729;-0,632242862784564;0,66789346153725;-1,99792166826913;0,839534716568389;2,18959914485633;-1,0222711932491;0,117617960749145;0,75181922216355;1,58798843621332;1,04591354120886;1,84679780494199;0,132876598655909;0,239483780839171;-0,711661574178411;
1,90364127878562;-1,02365087315873;0,207384213067242;-0,262879026438351;0,523224802023891;0,848415855654897;-0,509720601203955;-0,743184367074226;-1,25606936201145;-0,0950900024793303;-0,0231096114343189;0,0907250231276444;1,489685473336;-0,173383168358554;1,34515762447275;-1,25005430211987;
0,763651753277409;-0,0267004901352034;-0,681263468157188;-0,485386290164701;0,205378111433962;-2,8243754819364;0,874414334499352;0,622581947916579;-1,20350692526306;0,949864528095367;0,434343809798698;-0,751216421679493;1,03086356617898;-0,391219892131969;0,0450585116398432;-0,564723206323316;
-0,0694907524330346;0,394893331906351;0,0442223961040428;-1,87007903070912;1,97546842213721;-0,0173265283317902;1,19230934875528;-1,26241621039252;-1,44205870603334;-0,795876642665817;0,6868539321532;1,2048374543621;1,31633548636722;0,644335750254897;-0,171425080648694;-0,306270096866259;
0,689600842665163;-0,783087976078496;-1,61264584772722;-0,745885563671493;-0,81154732107719;1,41439124339117;-0,72000285349702;1,0974836457639;-0,0635331055623522;0,897372216271585;-1,87727897851206;-1,97115007031872;-1,24908309776993;-0,0391879140891346;-2,26239348198071;0,819684357901909;
-1,58635018457678;1,95091275000439;-0,868074669558835;-0,0789625960678019;-0,798941858885366;-1,14961334882057;1,57410558271995;0,889336650539248;1,36370705247267;0,192907187689879;-1,74319079089166;-0,454764711913725;0,0078934844138287;0,401254735757444;-0,631949880027532;-1,14998187431689;
-1,08176561596528;-0,445402746078751;-0,540931972399345;0,946332983315424;0,767348202059244;0,648417912765578;0,746363819278247;0,489790575463316;-1,79999488330997;-1,73709912576283;-1,48868518044362;-0,197005392437799;0,749367641739686;-0,186283583904873;0,910333955070415;-0,849621169835238;
0,65451534233488;0,808930636469436;-1,15387231853536;-0,824875646051218;0,486953274995984;0,642533172098955;0,0427981517511058;-0,617373126219036;1,2960034069992;0,275146552210763;-1,09724205041698;0,0442778798816458;0,361279613878803;0,432337525502587;0,313526502974573;2,64746974578792;
-0,851691590533051;0,643380675706447;0,963681156494286;0,721986740413408;-0,871561044735967;0,194591188429075;-1,33770839015793;-1,17348488282654;-0,917267059327888;0,755346430481603;-0,5396864568852;-0,972782797383032;0,302006069421531;0,827291420305616;-1,10968895734505;-1,54204425214737;
1,90717205666681;0,751639508835711;0,0383195216581396;0,914503898587212;-0,499397347489958;-0,542685825799387;0,601735675038317;-0,188101360163682;-0,116900003165618;-0,389054594449768;-0,078545641110143;-1,20934471414548;0,77363740030587;1,34533859559992;-0,011363179512659;-0,742343098834351;
1,48557367953468;-2,42427038141064;1,8105625050459;0,220051344308912;0,0388311609905641;-0,70641621618648;1,97841685153755;-0,495961793914171;0,462772036906234;1,87638496599541;-2,09621117654792;0,494596428380692;-0,0907549766930795;-0,490045058728473;-0,916299622918013;1,5883467860347;
-0,0353406063403049;-0,414927007858415;-1,53201231425939;-0,633489296024187;-4,08918602444287;-0,803667429145856;-0,439283807383451;0,739643849902931;-1,40730289608542;-0,696286141916501;-0,244921078650649;-0,869212192109002;-0,640952713796694;0,483796151687325;0,543813798427221;-0,897130362405531;
0,450981496112706;1,15331254525814;0,804497746821803;0,763842999994311;0,129598135237263;1,14017969370446;-0,801916837313039;1,01819783760093;1,22717882856042;1,30432293026784;-0,0316075385987297;-0,686493133491857;-0,276755331061556;1,58671727087618;-0,263352049063509;-0,228182156951022;
-0,468626589887558;2,55764251257294;-0,198590369023556;0,718987745037229;0,732800077923187;-2,43357544990595;0,446307588487838;-0,942296862619568;-0,871884422117803;-0,238636175008097;-1,38058412293374;1,25742248308148;0,302885801403855;-1,00223041714467;0,0879858234827415;0,292130973156102;
-0,670953126029453;-0,172347358633065;0,569056197380767;-0,380483541740578;0,441225383771474;0,0168159053505733;-0,561561031484556;0,0738153967421371;-0,19336001229221;2,77393871704208;0,621748070441822;0,481445024838264;-0,925688785605403;-0,374046033906349;-0,27099946024427;1,74080586704785;
-0,309244651275164;1,1699033133987;0,785523317506258;0,158834494495742;0,304354987192322;1,54436073237401;0,547948825625261;-0,192839619231692;1,15471776957736;-0,099873662832767;0,0532484777344339;1,24838655976921;-1,38086905776897;1,11490211332338;0,0471703015348452;-0,340663778849028;
-1,72436902703332;-0,0773030940040397;-0,853574454146651;-0,0634031122124736;-0,058507946327513;-0,842145801291325;1,31686696163563;0,928336315265668;0,756883432865237;-1,26013730586083;-0,215708577504924;0,637739830309629;0,838864118087707;-0,135129496131351;-0,258620977985878;-1,0352671421897;
0,859021318550188;0,56094459246246;1,2456917420963;-0,130254739109803;0,766528828016227;0,0255417830118927;-1,07356061912489;-0,510872790228791;1,15369005596298;1,20044622035641;0,945716928593186;-0,0527845890351462;-1,64760625601723;0,25856306692445;0,545070275283234;1,78163537798345;
-0,991578579236799;-0,799671668723916;1,20701468515762;1,40879599662254;-1,5402488290268;-0,335727274936953;0,425918040212882;-0,433077098176635;1,30607362517749;0,0301466076619305;2,14268287167492;-0,21408208958502;-0,318988288843825;0,301099973223617;-0,518374194929688;-0,0815366024503516;
0,264529034606044;-1,00774941850845;-0,378366163350776;-0,873793945533274;0,142296081798045;-2,35807584477592;-0,784786438675926;-0,733451780357161;-0,496251022183856;-2,02376356395773;-0,861686212710498;1,79046363163642;0,033182528615467;-1,92586584269863;-1,08671541840185;-0,427574267505431;
-0,698558132334081;1,30365083018999;-0,425173855455325;0,640286459250963;-1,01661790649474;0,0522866790046618;1,43716747508513;1,21742605809109;-0,0339720998664199;-0,405388345780499;0,593427300578335;1,39880471984569;1,72226602291509;-0,339332995571913;-0,223486486982695;1,54382562982432;
1,09469743889129;0,495950438005048;0,986149955937535;0,107553202541056;-1,66442184419731;-1,07331986700796;1,80956957046848;1,56310084806056;-0,975652820106642;-0,267527319735679;0,85584533998191;-0,372539430264657;-1,3261383373689;-0,704064349785328;-0,0584275711072633;-1,07014444929132;
1,18869270794236;-0,647771216583985;0,893925958289437;-0,633960245064255;-3,38871180845399;-1,56271590028498;0,0839005228257032;0,267532453466538;-0,788805265009692;-0,138978423843995;-1,92116843006594;-0,746386583533504;-1,73982342155566;-0,476149474824021;1,02283175608567;1,22800006580169;
0,691170712492678;-1,01993326727049;1,19692708435507;-0,410088966048586;1,25131695827086;-1,0339265041902;1,05166618729988;-0,180610961530453;0,573970202217325;1,11971897337823;0,117486430058298;-1,1022271413094;-0,230452921343235;-0,424514639296037;-1,27090980384229;-0,561623361495113;
0,258702278808373;-0,400044353461023;0,340726517948683;-0,745320028444342;-0,447508371414358;-0,0988966621386858;-1,45239321227255;-0,662132840214872;0,45192055351363;-0,218402460835458;1,60047497882473;-0,527540693997785;-0,41391255613874;0,848507945755821;-0,688904137546602;-0,163964308980989;
-0,129440537245628;0,224169366726483;0,157548016142363;-0,353321188462483;-0,121901608009809;-1,19699594241131;-0,105336681241704;-1,06577423393284;-1,88042007412957;1,82035454549751;-0,236503145450172;1,05966811496709;-1,8527134556204;0,806442281759386;2,58484787349937;1,33250024711966;
1,28343495744553;1,41384103984226;-1,39515078983588;0,514877740543755;1,5483774440401;-0,265420182296745;0,678104619924176;0,278148817777207;1,14100833140419;0,235732576885449;0,925843352435495;0,392550834754724;1,2356812380428;0,522260327676496;-0,632852085171575;0,899306903691621;
0,829550017352071;-0,916612734340483;1,52581237216449;0,73305288268491;-0,313320480344886;-0,0673710607723766;0,0265938346235789;0,245040345143125;0,670247359459227;-0,3292919530424;0,0924548429130531;-1,13781905918451;1,18946723290912;0,391118252421176;-0,336157282064045;-0,443737626464886;
0,167897518109882;2,21532824000448;1,00085743529426;-0,985052620127828;-0,247216490339567;-2,0305574767844;0,0194201853658292;0,211022687194605;-0,711186032139745;-0,272944889326509;-0,302445388534192;0,832155533468101;-0,335361232534785;-0,510653589615587;0,874555413303735;1,12578399630651;
0,630406980995478;0,475895931993354;0,361605786336904;-0,839936984664617;0,10316092644906;0,506755960848509;-0,331791911732971;0,102319051164367;1,21989258007116;0,542831224602789;-0,0262171571030287;-0,642597328816495;-0,848204786842802;-0,668690132830179;0,501782731758279;-0,969014858624384;
-1,30678651254832;-0,807609524706078;-1,61003155425408;0,737725057304606;-1,59518001385743;-1,24740285834548;1,66263319652523;0,447267596576029;-1,20880984471044;1,1165045994835;0,0801972455135212;1,86754475438012;0,463124719618151;1,09965880781324;-0,0250587864162328;-0,589013541620955;
0,429247202176607;0,487196323544959;-0,228428488510741;-1,39841847768132;-0,0719926890018373;0,322953241271193;0,242702538608986;0,764204123809368;1,57098557532173;1,13762335808639;0,290477656220012;-0,577956689055758;0,164497007169418;0,42980818784211;2,04341354751768;1,27089831540519;
-1,78384823893216;1,8486367046738;0,945528500451009;-0,39704548851229;-1,3092629528081;-0,10370510843875;-0,801201649638182;-0,386594166577651;0,984381979803294;-2,51966853238099;-0,468326462229709;-1,35313968590443;-0,956090551898239;0,812407775857427;1,47751450024846;0,0325210940542817;
-0,139195799440822;-0,517509084977903;0,174777421746062;-0,375010171671062;0,785696905149634;-0,276568178656423;-0,882434725621362;0,728651527301853;-1,48932776486355;-0,423942417508807;-1,51462992951322;1,1178497661911;0,30999956948963;-0,666820851878884;0,250608796738803;0,526017021816685;
-0,109535291572672;0,929652382448968;-1,25662936156755;0,620869456146274;1,05181528878731;-0,301450576206641;3,34091398109648;-2,37406022032395;0,916180604300713;-0,997076654536691;-0,664717290513736;-1,76884124443985;0,81411402645923;0,0546543304678533;0,823820640731279;0,0802183553611368;
-0,490323753628136;-0,246750843407032;1,15597326634689;0,452504685032402;1,48659744688891;0,831935134937368;-0,567805758919216;1,46356673560992;-0,514540607238121;-2,22987889137254;1,21157889002321;1,25717628729874;-0,623935297035285;2,67966014728139;1,1326199270085;0,829104456060753;
0,251254220300332;0,775058451540542;0,232343842288962;-0,0298819341953853;-1,15054094212385;0,673484138256137;0,531694567234103;0,286679624720054;0,789568695762227;-2,21185096243115;1,88108355632358;0,590420006857627;-0,217462812767998;-0,182450778849218;-1,40514994929848;-0,0611223873370019;
-0,0229301265877734;0,208394160066088;-0,594249240582766;-0,159215082692522;-0,244643300731333;1,8634510906069;-0,601937119111597;-1,67408703664575;-0,534898371038617;1,01742868034542;-2,09485890225118;-0,0972879129133792;-2,31965773986054;-1,76781651000107;0,0873225157805451;-0,915576618311991;
-0,629848365591332;-0,688870168250473;-0,557028636993893;-0,555894323370009;1,27588362589879;-1,0828974538114;1,71657526455484;0,353022076419818;0,461462962259552;0,149765786502485;-1,67228546370131;0,622257305708047;0,0351722711443022;-1,43105968590809;0,524983111437804;1,26698155361496;
1,98146903352114;-1,03771781438883;-0,982346119742291;0,892856122599654;-0,550852937121046;-0,279876559961906;1,45133225120154;-0,232909614842536;-0,547006014691431;-0,848167653054473;-0,62622072879705;-0,228385662896297;0,334866358077516;1,35242924800734;0,211772515000927;2,03125158142534;
0,0274684280602153;-1,10075231258896;0,373795718450019;-0,378084638729017;-0,391296618765211;0,0903497099101953;-0,131981838624993;0,135622490615692;1,39763062254586;-0,100600843324857;-0,669046010964091;1,87439793824823;-0,18228192411218;0,203780161407425;-0,498287506216933;-0,124055983445877;
-0,953962325446594;2,8721097723629;0,327967726810463;-1,60658523262511;-0,17235314336225;-1,55526149995147;1,60044848516013;-0,0188583460610083;-2,0265462110279;-0,266435580377583;1,87589857413267;0,996790869558921;0,41615652240496;1,25094185175698;0,287913699786747;-0,213029807461207;
-0,73349168916799;0,439012974745771;-0,465580717019656;0,405908214698616;1,96710282621628;-0,159641573209058;0,65333885781636;0,421079803592353;-0,210529990275211;-0,905300742357774;0,685198290391916;0,278593959757427;-2,10443978198673;0,418487564329015;0,440541134154879;0,161162979506107;
0,0868432994493377;1,22141756615455;-1,31275851866909;0,873287905444988;-1,0917496871072;-0,599545118879858;-1,05712381030693;0,0816434626364898;-0,397074807861535;0,810826981236473;0,721859414363108;0,927601813478591;0,495456289393347;1,54545433457973;0,403914378803548;-0,208720850036964;
-0,0902138730943097;-0,462638606350051;-0,146042680629973;-0,25897194217234;-0,47989893906507;-0,906712390381372;-0,967041912368469;1,47258205382601;-0,239116466236256;-1,83660109311622;-0,127095083812662;-1,24256337262166;-1,4839831543526;-1,02530835003992;-0,429761180900486;1,87450073970687;
-0,895805202063499;-1,17471001902518;0,416858512507356;-0,96895260156499;-2,91473295459279;0,952416141550712;0,896614371361294;2,5235248293596;-0,00295944506173332;1,17711560965016;2,39578429948584;0,126619438397728;-1,11612059716404;-0,392474153862711;0,442385387880242;-0,638853696662707;
0,254775396618921;-1,43793197421097;-0,850283909999339;-2,63802324070009;0,475048626219956;-0,450604795197506;-1,35168039399555;-0,494521579713089;-0,166200279220825;0,0411699851810308;-0,993120589192533;1,61850595247935;1,3860079500103;1,3592868009574;-0,863717980880127;-0,194764103595644;
1,16922522437289;-0,22268552636673;0,748811956803272;-0,14227303680616;-0,17022814971166;-0,574579261561373;-0,712273524884224;0,375010333775729;-1,02578150534209;0,480675910958653;-0,994242884783377;-1,05734120909617;-1,6098978935036;1,58744551415811;-1,62595898721502;1,18961171182375;
-0,686881094709457;-0,767335969814116;-0,0187555416357661;0,923432980143207;1,56013616013736;-0,375824035705065;1,68271466493205;-0,547326668890114;-0,224776784737048;-0,507145883386673;0,653096488939614;0,274503625281103;-0,066764814401273;-0,0776784183213875;0,389506547147359;1,60204840778534;
0,538260596360033;-0,484791488444029;-1,38365200252679;-0,748494260881063;-0,0736067331938035;1,73062786406116;0,754670562790667;-0,0948824702148008;-0,118378219822385;0,77459343458257;0,0484567274778511;1,00622925668284;0,450796119592105;0,474185257610802;0,483970586374826;-2,00363831552171;
0,356912676628947;-0,945739420839568;0,551583670034461;-0,74229807173724;-0,332503081223375;0,448830668949265;-0,194434872301925;-1,12158015505319;-1,68175868312274;-0,565663650160653;-0,155326657108916;-1,25016632190448;2,34055772635153;0,540761631829784;0,00493271050500381;-1,62393275388503;
1,17400914115462;0,687003562325369;-0,545200266537666;-1,30444897599057;0,201620280890395;-0,29651010185546;0,893751373045435;-0,576152489490964;0,285630715289565;1,461354675322;-0,184640001472805;-0,577957179959589;-0,249790396883179;-0,205168514453107;-0,0451307584535332;-0,830074208404935;
-0,151682039759067;0,112609630411613;0,257268967504593;0,514909131971538;-0,0782740367291469;-0,764014747110245;0,973269153141444;-1,83697978505008;-0,477614867372215;-1,9871784804978;0,00949173622684666;-0,290611903668185;1,68393471463514;0,0706221468998587;-1,17339211293044;0,853334918347578;
-0,500138148238124;-1,95398284993782;-0,836511452136215;-0,585120286900543;-1,09804099793414;-0,306422028012033;0,449695417424054;-0,513482411466894;-0,224036934450632;0,905277325151287;-0,344267708375187;-0,720980386684106;-0,810300752849776;0,390425884658154;-0,357948716646871;-0,28986169362101;
1,11039064214298;0,822550953921738;0,308615980972551;-1,45008887495467;1,73770403927242;1,83368107018212;-1,20563636650993;-1,44233480953404;-0,0482376844945925;1,09859574131339;1,06417995472919;0,082319332519619;1,65917635075871;-0,342460030634898;2,26594561420483;-0,107383258139138;
-0,501910664312507;0,174856749900215;1,90936239376671;1,13462740058419;0,171728699050402;1,5002199178858;0,139537223365632;-1,14617806547979;-0,595263522001025;0,551858353242546;0,770308578238837;1,13179582730314;-1,16796973727944;-0,494602306816418;1,14796589100721;-0,906088384533368;
0,362746435308183;-0,381195944138243;-0,781988555624388;0,31379747544893;1,84849950714159;0,506744901439606;-0,151632125747975;-0,831187076935001;0,322869268816847;0,94075022654055;-0,241078374873759;1,18840519426878;-0,110629270468428;0,138613478645162;0,122190744607192;-0,665666089522019;
0,142619038428851;1,949629298851;0,255248161421374;-1,07623304708977;0,502225666929123;1,2625835145358;0,396404321612706;-0,530717531557663;0,580624558619781;2,80790127848716;0,225694078312605;-0,123197056755112;0,623536923627476;-0,44298247176538;0,534556737886762;-1,19599880388216;
-0,96498917047639;0,624454766018765;0,722178474625311;0,074897738437606;-0,0766311386245721;-0,210967154673402;1,37228565894148;-0,981520920080466;0,191669557392384;-0,242127716084307;-0,496789702344495;0,175242307007047;-0,0535647620399228;1,88775626622938;-0,683581400430598;-1,70431790643012;
0,357954138987364;0,64182348860036;-1,49069493721032;-0,964413356400651;-0,125678624047643;1,52194575089701;1,08936852033407;-0,340543256599429;0,319557275919725;-0,306365944989967;-1,01311440152291;-0,300070662735586;-0,815936105460101;-0,108961717105909;-1,27926739753558;0,495815182012085;
1,46759461656346;-1,20607544086688;0,177003774207054;-0,889200160563392;-0,877527603086768;-1,57812149617307;-1,4244607370362;0,350389375173954;1,61277219111204;-0,459519692854235;-0,512179076998652;-0,813654944124993;-2,66697747154485;0,462899956439912;-0,275768212455067;-0,173588464787517;
-0,644959618994496;0,586542731462696;0,121567139258578;0,833537145562285;0,201082872291467;0,535211535598051;-0,359898937127047;-0,38415154693496;-0,522273547987523;0,311349803644937;1,12747336352262;-0,954239535464885;-0,231982407180232;-0,272682434915156;0,440357080300313;-1,150622304374;
-1,18004766858482;0,273511660014584;-0,332859355781581;-1,42034072024737;-0,16476844385887;-0,367487297335907;1,08239874969276;0,218832517784168;0,644360495383709;0,941700102584252;0,437900655812269;1,91181453477505;1,2404078595701;0,321992755717438;0,0820585089972662;-0,847279316788888;
2,1582545512159;1,43211734365209;1,01142438727389;2,84379402996142;-0,793337136152314;-0,463988840641571;-0,677769280248805;1,3695245974439;0,266056989733295;-0,350787350819024;-1,20000342878931;-1,39292525355943;-0,962797316340257;-1,66549334886643;-0,181501719644845;1,53339290953856;
0,817850530984293;0,686051925263409;-0,238622469952041;-1,77282716125421;0,550507940534654;-0,133582609719688;0,488646853016879;2,32141981820582;0,281222935777607;0,337998619979486;-0,933278708928516;1,85430193694671;1,97812057169551;-0,757376904970168;0,390161607764296;0,464588990966276;
-0,184295025341707;0,10099903003001;-1,46187159088361;-0,860637165750489;-0,22792835844066;0,0239774489038153;0,16794406686734;0,477059448182287;-0,490225530535284;-0,390308413997124;1,98120589817945;-0,281778263164805;0,613216359155092;-1,26638433196264;1,14019583702216;0,184007195611932;
1,11937888592261;0,903262658047892;-0,0485264683951263;1,47937771541309;-0,169895627543387;-0,73811041606443;0,955262139198326;-0,279131910028656;0,683310547945998;0,115089691069553;-0,758651076369715;0,333117525683082;-0,458620702635636;-0,498500470513404;-1,10977021849659;0,282338015838969;
-0,0737269418809866;-0,317006482466222;-0,691888539511234;-1,04047364986111;-0,652715212533458;0,819976848458702;0,308813758744298;0,0208025039342575;1,66434633858451;-1,861835997198;-0,349617112625873;-0,353456686536477;-2,13105200777431;-0,402602752884571;1,99684684554815;1,02341758791272;
-0,917376294575222;-0,594025215948465;-1,24814731057994;-1,80411589566591;0,327975332721356;-1,18150221422512;0,368460832033914;0,38667324421536;-0,851869624233689;0,97454224714908;-0,601991416731564;0,278994353937061;2,1462975431773;-0,491820144929674;-0,0929262579639087;-0,213848505653079;
0,559927140133217;-0,0543728921085824;-1,31510292281503;-0,118460224533254;1,45333319040082;0,0683187521729804;0,807142365658639;-0,710563517271809;-0,187260395429014;2,28861954534628;0,762375482011392;0,902401428398183;-1,55878993607498;1,02501453553218;2,03815519865085;-0,423562828371498;
-1,18273760768162;0,251905431470618;-0,332481993043173;-0,582048606758153;0,968979612518214;2,06047423147346;0,188971178257614;-1,50546413758397;-1,23775473821912;0,138149180566276;0,329710094757368;-0,452310757293513;-0,532875362066968;-0,481482182055497;0,968546151797146;-1,04716175998777;
0,814082651429328;0,0255315841178666;0,643188247562141;-0,209159855023323;0,684904320435885;-0,911596948944978;0,941792894750802;-0,113335612740174;-1,45694165375146;0,409631712105752;-0,494401479357851;0,140645620361074;-0,507661466189601;-0,252329827919418;0,963848522586959;-1,00023099044781;
0,845146313180237;-0,774459365548229;2,17015978899167;0,259943124578641;0,304631018343191;-0,452837751145533;1,30335206709304;0,480884683444084;-0,9437246239859;0,619218500591892;-0,0264099332841753;-0,291114176998112;-0,877986817814753;1,49813890754213;0,519426314758567;-0,433249912721931;
0,622295642648913;-0,0331971931753604;-0,441880366272463;0,0215577768472474;-0,212915063594526;1,51155787905455;0,169110767450893;0,0759710997194207;2,32266381987736;1,48894863525647;0,621898940199463;-1,71625022136719;-0,895840030846578;0,799210796912756;-2,19898700577097;0,00563645431857851;
-1,02146445545236;0,563915912272845;-0,675271634472508;-0,734929708264441;0,0269932493979304;0,461429597155607;0,769663676800888;-0,163021049286384;-1,82247527945257;1,44401870552082;-0,592723268556199;-2,18955273743396;2,64288078603562;-0,596554026761247;-0,304798834205163;0,0968351919100078;
0,308062454328321;0,718413310954508;-0,581385390202763;0,588815838105042;-0,519670178329193;1,28951784099117;0,787254323382686;2,36165915786514;-0,597198639388984;0,206050292446693;0,852200228780166;0,670020651307391;0,208259709292453;1,86748963970503;-1,56226705035417;0,776801793067462;
-0,190661574408572;1,52713085829593;-0,745439552933984;-0,953449101323622;-0,622136596250315;0,475563589311383;-0,392207492440285;-1,26671313909771;-0,11441587553345;1,23539614459466;-0,433275234519584;-1,39270834331385;-1,77219248366634;-0,63829844135729;-1,17762738559785;-1,68061487765389;
-0,172270729002483;0,0414023192626302;-0,0835619389869513;-1,72025358101988;0,576742013114951;0,311666526857672;-0,622860918852747;-0,223264400864787;0,484057863830054;1,82730049460281;-0,675095574083168;-0,564838278072235;0,921556109688401;-0,456335863058788;-0,520417177789222;0,189992057553412;
1,20652355341944;-0,411815767529683;1,24206000339721;0,0759021628461174;0,472287026470604;0,80392234207042;0,119854180955258;1,35203317804537;0,711469807286463;0,87902318892646;-0,517117247885308;2,26949981129324;-1,04407980054396;-0,28370587995602;-0,592503321578609;0,789417470346147;
-0,932015914721154;0,800545856658524;0,754840684629308;-1,07056515766433;-1,36153916486225;1,23281428153224;0,774955973255524;-0,265702400554773;0,37220847144;0,385392444159203;-0,226238695772494;-0,117607167840952;1,91879464073534;-2,12530550806649;1,37423304937612;2,35634095306426;
1,27869947199895;1,29211299404418;0,839892749833197;0,687738588530382;-0,237911403923557;-0,485745573953605;-1,13642998402694;1,27132918904487;-0,19238586919943;0,642427152476091;-0,714989623735858;1,35309909415942;1,17590543782056;2,75005601112079;-1,06946170635882;0,435564196502698;
0,562791704201299;-1,88861378309513;-0,0798734820002483;-1,6048785588952;0,417287060028548;-0,0463402268214708;-2,29083889925664;0,0637204505846976;-1,37671215971407;0,260241721657726;-0,545204151648747;0,23990043203479;-1,65516387988376;-0,889487989627247;1,17358823656268;-1,66155502921465;
-1,00318924171213;0,955028111153498;0,930393788614038;1,16387020250023;-0,662897757123617;2,10872298343388;1,5921010010857;0,455655434359382;-1,54747478034994;-1,90681393497025;0,0402023869061462;0,136094091365813;-0,863617855515526;1,0512880014581;-0,853221197560107;-0,305892762329965;
-1,29304900488525;1,25359746430805;-0,567968562937787;-0,127226316888691;-1,88793644044759;0,538833759283834;1,02683730924417;0,955054807845978;-1,20809992345616;-0,557849318291148;1,41657892322571;-0,069226518461914;0,908735359679925;-0,092260332717946;0,924143816396026;0,318213042215683;
1,5920949273469;0,381505697711165;0,667931480849384;-0,0402802567755519;0,417821257151003;1,07741879825092;1,18071377011722;0,969340420545637;0,568181257871903;0,26740254866865;0,626842142397628;0,493804192431988;-0,418678580626153;0,749080825150597;-0,758626021098219;-0,797504831968661;
0,388027936668581;0,865432520385376;0,114576864284625;1,29752614270884;-0,0848927939090744;0,538251802317629;-0,656520250048968;1,56708465202758;0,122781906023127;0,829076359595678;-0,161929846003414;0,312598293551623;-1,25243518198691;-0,999170630087842;-0,799252848007285;0,394822348627961;
-0,412621245630583;0,169057451789115;-0,10888108993769;2,57764303589206;-1,80670920312233;0,753196184763177;-0,669772776587398;0,229218261148281;0,648126323467975;0,959322059936245;1,42774608293046;1,16132723746189;-0,042967330570749;-0,745059186172453;-0,932323616531599;0,730463039226104;
-1,14502441962785;1,46262101586159;0,813478795018866;-1,75213637385438;0,611406812224518;-1,71949204049287;-0,0304791480485399;-0,676537567531723;-0,408520061147229;2,54215211468091;-0,0151232604883326;-3,08390305615933;1,57330819763244;0,701617274389433;0,0116046739192064;0,382057772950358;
0,563289396670164;-0,384986993667166;0,951319806410902;-0,815455242734582;-1,19506155143538;-0,54196724598131;-0,386041264517008;1,37679453551584;1,26090060001352;-1,73032951273404;-0,57545022724851;-1,43200958491788;-0,417703054375053;2,21051342760692;0,333719993957667;-0,229190909151004;
-0,982424258600028;-0,293339967481567;-0,80074676531789;0,669395797401916;0,458167458426712;1,17371394153055;0,725433662782383;0,337175571036669;0,378369929514005;-0,518928432898837;-0,304555905294287;0,717962803521969;0,0717104369514707;-1,98083359264185;0,471112968757366;0,616779758813395;
-1,38812599391507;1,48039991130192;-0,446813135141321;1,17221192795789;-0,844087186274791;0,0425500846470345;1,04489764321616;0,166186180982918;-0,58907985066054;-0,0785488425450281;-0,791597526781848;-0,800274107072489;-2,51645683741073;-0,796135625314354;-0,534395481072453;0,790218901891898;
-0,161802668523162;-0,355444976794842;-1,48828315396542;0,889122427407677;0,258336858158013;-1,6567340032684;0,0413761802484257;-0,794231720455412;-1,20189003855112;0,217618047480868;1,92166193200012;0,506958222687838;0,304343923385871;0,553140737053331;0,0774763501939727;-1,08256413366668;
-0,850805903860593;-0,498341172522748;1,38028985674823;1,69549862486272;0,129291934616856;-0,491818620163201;-0,820631086958615;-0,319339027285827;-2,11225563249599;-0,364269095109308;-0,0628255800481126;-1,43961938609901;-1,94846789821783;-1,21479271634015;-0,739872089416208;-1,12182742724543;
0,0493785225845376;0,860252399891469;1,4888193322812;0,657262629387925;-0,434658552120767;-0,176795354909334;1,10858037482418;-0,920451203080117;-0,115458168176617;-0,0455399067781614;-0,230724304931852;0,506006891291013;-0,852387290579955;-0,60828238657827;0,816754478561309;0,9341499144168;
0,696885328463012;0,679903683378728;1,68448271878704;-1,15438121117398;0,493189762024564;0,478705337881652;0,929485041190524;-0,545394356371589;-1,78257612766876;0,0789023419970062;0,844166958992812;0,757895230427816;0,871605850580868;-1,31242129051996;-0,264721021287087;-1,02567967922631;
0,382893302464894;1,71583450782283;1,28414268380268;-0,146620925988693;1,77046104037494;0,0546037493968368;-1,02669515003073;-0,165136849240158;0,099815382353208;-0,736329381059758;0,655451928697221;0,285296816257818;0,243977804591243;0,265502066092453;-1,75729563558279;0,858795921584733;
0,668270834797202;-0,21655279530605;0,618721717981923;-0,826144828254236;0,337965458024014;0,265953652466113;0,781874188095353;-0,635487484505092;0,83515392923006;1,62290569784925;0,132262438724995;-0,667964874753628;-1,58446346660262;-0,433807126230714;0,528111527469697;0,902925621279092;
2,19046797916978;0,497472802146939;1,8559353452483;0,568434998908268;-0,132438629977356;-1,09367577990471;0,850886937519226;0,750077805807612;-0,861553039227753;0,559462969174773;-0,67763358525432;-0,209304474276283;-2,33364018719823;1,22251934322839;-1,08699066598086;-0,2255154250332;
-0,0311219308608003;-0,31064139354924;-0,700854437689295;0,909502591345494;-0,317128527817231;-0,205715783301467;-0,211351096082523;-0,669651071185055;1,96551275485018;-0,845958018966044;0,670418578085214;0,400419605766029;-1,18999110405337;0,0204471607507217;0,0592613939753546;0,421487559050515;
-0,437593117430328;0,188407424121921;2,44431808021428;-0,487143748728122;1,5851751044057;-0,143692828559725;-0,500165340023088;0,27518985651623;1,1780040945707;0,26209952842288;1,36130303011282;-0,754157974109408;0,889641548844243;-0,829567098113738;0,76692270822301;-1,45299790663817;
0,290542275405284;0,660261354313684;0,16706772389901;-0,342392266377586;0,567598360873559;0,272234890447848;1,06092168427015;0,747256341678901;-0,483886363311237;-2,03694045762089;-1,28646607506659;0,424982255687419;-1,35392044479581;-1,07143662608255;-0,241507491811925;-1,40819964191684;
0,333507952666204;-0,577777423908788;1,44175463312072;0,194900144872241;0,411186632963604;0,685045118464895;-1,2499652678441;1,11687523930708;-0,74806765620118;0,810070170124437;-1,55286254630556;0,833009377954137;1,26559627233693;2,58151748289711;0,114800136966257;0,352070852468048;
-0,983156145310448;0,952580994836118;-0,0562467383488723;-0,0131209285844827;-0,34356595379601;-1,86620057327867;-0,783431302019189;-0,502895206111144;1,66081117892726;0,78504998113982;0,000630104528291224;0,912226496246383;1,3060992067236;-0,348520128644376;1,68201160285206;1,30777590939345;
0,129652811166129;-0,0874032516854396;1,19309767752008;-1,03687098151833;-0,553044879177459;1,94425423049418;-0,433611628766139;1,11653356592517;0,410042462614704;-2,08364686769746;-0,500416051118801;1,22036759639742;0,586258506592097;-0,0275262081181619;0,506874928555963;-0,481375742138452;
-0,505099004362597;-1,47702172837024;0,420772189000803;0,0836585561026721;-0,391243307788079;1,67648806630639;0,495948468632152;0,243474965528451;0,551954095191812;-1,55415919588127;1,87858116443389;-0,877000145130425;-0,710855390508014;1,72201969974211;-1,80049164247798;-2,11671610217488;
0,483202611341089;-1,23599607689989;-0,620163114411373;0,116405852022755;1,12539547580903;0,270852966630324;0,0530649322555849;0,588092450146326;-0,510966542486396;0,518089127157782;0,0692898881789378;-0,17375291889251;-0,388570845381314;0,286582272142829;-0,0491394955081762;-0,0275811647772449;
0,112187321060364;-1,05004565877398;-0,111323034303207;-0,262335863971491;-0,706355509825156;-0,114375337560064;1,05840702770388;-2,4617840951623;0,858456434853153;-0,0289010906765978;-2,58281204475552;-0,180411918794902;-0,844672210496246;0,930570812623017;0,27939895907285;1,15322537927753;
-0,312232782293301;0,586073095013251;-0,651816365600466;1,57546948454989;-0,515185801451732;-0,0541370258870587;-1,24441092434236;-1,7581346618741;0,936443877520381;-0,897222509555731;0,303151121391529;-0,286904731810959;0,0722625274453639;-0,28536148568695;0,0233027073671811;0,0268448046034998;
-0,027735680878954;1,94611863910247;1,9582695528035;-0,473542352090368;-1,31522193636523;0,545644877326044;0,726844175385502;-1,59167379339773;0,160037634093963;0,0570557607295877;-1,00776009362117;0,858320370057621;1,83187090508669;-0,334348819759833;-0,818698281573839;0,251917523675138;
0,606690658938328;0,394864228635466;0,862729453575021;0,992743900944238;-1,56771376796989;-0,652860900235289;1,0650179201417;0,728811723348441;0,309544702296147;-0,27766000115222;-0,131780440501562;1,38760976509362;-0,0650308728233715;-0,144520660959604;-0,929257336197562;0,180811555443669;
-0,44013499236887;-0,611886946176474;0,442601692718445;-0,651019983519357;0,324398394069881;0,657836784485671;-0,624409323112401;-0,679104581358883;-0,0375394300154329;-0,515744979315133;0,201115470531122;0,185423285368334;-0,195959659995592;0,979888135721414;-1,14456206731397;-0,494704338533777;
1,03284036439715;-0,361564507310372;0,653514051653822;1,24237317192389;0,617180641979953;-0,147962473535502;-0,632600954356607;1,1376872472042;1,24799250949053;0,0516094904796176;1,60834072527977;-0,997668236897974;1,28971377131091;-0,139510118140484;-0,135953338285543;1,15548697246211;
-0,453750155464834;-0,0972465878411568;0,0648369079980094;1,09465098513052;0,487656989029339;-0,262642285960165;-1,69095817340451;-0,0561149868602328;-1,09509076549716;1,79395485686456;-1,469831901307;1,21755340741922;0,453131067763224;1,48995014583394;1,01157945829895;0,571709240533128;
-0,557266078646271;1,95156831817316;-0,0287396371168558;1,30578272748787;-0,0184806496033468;0,554500092324404;-1,1678222897353;-0,823737505248707;-0,856688484746706;1,04010492442638;0,675762834261047;-0,0765702888562971;-0,316956472525497;-0,675075933616248;-0,301443110083803;-2,05956789873545;
-0,437324355773111;-1,0416620975373;0,00533013025703315;0,855818483229788;-0,303174059510315;1,29580944626185;0,24520351046032;1,99327194368257;-0,662944657304754;0,356574747421364;-0,358704863383983;1,57170651268366;-0,21278552565218;1,20079903523284;-1,68956363971663;-0,39389483838363;
0,306613563247072;0,183480253056283;-0,433640204322887;1,17142608979178;0,326559695479649;-0,425290234001901;-0,570435908820281;0,364548306958267;-1,06107021401226;1,52838427150802;-1,78244761352652;-0,070542207242179;0,386724041465001;1,61541144172697;-0,720309095097842;-1,62480348502212;
0,357493927489414;-1,04998875278979;-0,108043598281058;-0,166288065992282;-0,979474450561724;-1,00815332305708;2,45812753399202;-0,722135161912614;-0,137325319616424;0,00603436125077162;1,22423878084922;0,630529348899477;0,957635884036943;0,497556014042079;-0,246708427989811;1,01546204602249;
0,489911621152986;1,06958872705591;-1,48197446111585;0,0568069023785967;-0,465704076935579;0,240825211695661;1,48801651121895;0,219541017601274;0,823590810786808;-0,201881677404096;-0,830188105920295;1,60802143838878;0,893363135083749;0,794515594028597;-0,590391827825222;-0,887135037838256;
1,48768865464324;-0,245351408443524;1,35764452601526;0,411296041577415;-0,577263418345951;-0,942143506688411;0,775140886147383;1,05556221990032;-1,14848237868115;-0,958303044821755;0,381066737092467;0,432551290618834;0,30957066386451;0,212834978971817;-0,154873806061696;1,42248768321457;
-1,44172209388825;-1,43689673465407;1,24802817525341;0,216537756930555;0,96572844827239;-0,46975047926449;0,285522590282331;0,91259818102189;-0,841628034412041;-0,0893375175121731;-0,126729329627143;0,788445018144416;-0,357940117567038;-0,0311654604143043;-0,62692282937953;-0,340169648755154;
0,876058647548854;-0,723678035622967;0,202581689676167;0,416920643350579;0,852257625767792;0,021158749898491;-1,78243143863282;0,238658193810407;0,844979737368382;-0,264762068134437;1,36140802644821;1,4960545993145;0,497402830139173;0,467421067736544;1,58960543419907;-0,65237742585857;
1,63962289382525;-1,54641671123669;-0,771670831887391;-1,22900807686119;-0,40043712485107;-1,11561173309147;-0,168515861729333;0,408254534425934;-0,116009743864882;0,331230648731979;0,743210686311446;0,834511982561069;-0,606127709998449;-0,361630090754334;-0,752985698340752;1,01589289683799;
2,30597761518069;-0,481669549050776;0,928843584434692;-0,833672030417651;0,0556907807059659;-0,0384605314621695;0,0699778523732097;0,868314809443814;-1,2767396478341;-0,540156655205862;0,234832413884955;-0,744598489697481;0,662286041649171;0,765337229469085;-0,581231019504798;0,628144379943861;
0,0453169158186554;0,647905532694371;-0,858821580599318;-0,733656049423123;-0,240145202532359;-2,00526638573039;0,370170681590594;-1,46868342405647;-0,123328447813986;-1,63227791993195;-1,10185172749926;0,0691826667365144;2,28274596643644;1,45516493867712;0,241553571568189;0,167088546825813;
-0,768996770688966;-0,282898432410558;0,910417327741739;-0,442037150406671;0,161540249695063;0,694750568606834;-0,0733564494527567;-0,844566243288769;0,105347815980758;1,70812518017642;-1,07554648878237;-0,660988225550429;-1,47217558012249;-0,334257368978287;0,697603498938356;0,45616579643272;
-0,968540449694916;-0,0568770914286707;0,360420154187622;-0,165394096202905;-1,09728384170824;-0,909079359160331;-0,0533026561459146;0,799962271889751;-0,515427001444865;1,1659250565027;-1,65107584849497;-0,0174506483508972;2,09260680693793;-0,622738452472274;0,12163592195733;-0,421820402691532;
2,17079454111065;1,10896485751762;-0,493884973708316;-0,816029102353497;-0,305025161656616;-0,777824742823743;0,166270168438884;-0,676442819050509;-0,67070346390933;-0,222935596504516;1,09147466841901;-1,21911710948031;-0,00415360004070238;-0,511243632792077;0,662582632633024;0,38100795636534;
-0,175835637035065;-0,805384654489989;-2,57505161246214;-0,349215223404609;-0,134720137339265;-1,59064462698629;0,0355071599258253;0,0248839180516326;-0,843631993813786;1,59099598191393;-0,170494210603889;0,0463788485096716;-0,0437414283562339;-0,966900769553156;1,01367862251476;-0,184623930270289;
0,626377285596773;0,14947600082891;0,151417804212336;-0,286140975672522;0,240343274734001;0,668993175611964;0,0780031481219187;-0,326091551860209;-0,36582332385085;-2,4830654667575;-0,123097616227365;-0,78300656755043;-1,50590152774642;0,466752881110693;1,08996173906069;-1,0319253933802;
1,47313977779771;-0,348448744126675;-1,25217569637333;-0,191786732680785;2,08951417079642;-1,69439187390428;0,494618981111564;-0,183746017168006;0,543579445698926;-0,862408728665532;-0,847844614959297;2,73907562337334;0,227583081518561;-0,368813217780122;1,12619015373574;-1,34323086998461;
0,774733230250239;-0,14872283685837;1,02377163433699;0,523664867568066;0,0726748242628588;-1,01905545413833;-1,2690390408782;1,46814420601943;1,17865680484222;0,871599897096644;-0,777576150169397;-0,815970836737831;-1,59002574456827;0,192650802370589;1,63497395077017;-1,4684376990489;
0,180529874338253;-0,265233387429159;-2,17124774358466;-0,0871848160563626;0,380115993427848;-1,61476330471741;0,225969114053253;0,174378980508462;-2,30930266718297;-0,409324230227473;0,717418661062244;0,953006370216308;0,754977411047605;-1,4645757173027;-1,39615097623581;-2,23524141808589;
-1,20972773636076;-0,101622532815045;0,462060662570596;-2,93439777176129;0,692407273224245;1,02968329318465;0,548782494253131;0,0553062025566772;-0,386960684447559;0,0344346115786822;2,10905164398351;-0,213892833171136;-0,867114758857489;-1,7728628411381;0,928605622802749;-1,31322264214566;
0,702009259048534;0,677225450165296;-1,25912308996482;-1,73664067555748;0,815213255342129;-0,817598122543995;-0,93121334946977;0,641352041382012;0,984541377635906;-0,177541485984736;-0,515066169330565;-0,828874909393535;0,301269908284158;-0,239138735244908;1,58795996398475;1,2702080108319;
-0,473757302340712;0,618767887238591;-0,849141695605314;0,364728958044798;0,964880771460415;-0,822960090973458;0,900826064218168;-0,0739191159667757;-1,26446829923767;2,24239552755102;-1,20249184139931;-1,8195370925923;-0,351382680030275;-0,315282152608807;1,50054330136442;0,850724524665363;
-0,00202908195100709;-0,382400469664456;0,21915719184459;-0,355235469569564;-0,961702021528575;0,115781831656026;-0,374783161354043;-1,65542611466621;-0,822888189930035;0,229656967736249;1,11591807524645;0,33574347622024;0,0720415581129005;0,532470720524248;-1,10036476377695;0,522041667609734;
0,585800495820618;0,561213691587687;0,656191325686191;0,890862648159963;0,18899474324391;0,562891614953189;-0,876613049344752;-0,0972953171423906;0,238479696821192;0,494255290075133;0,193299317552121;-1,77409257716383;-0,248230893339796;-0,344054128880584;-0,553711431056186;-1,32867537267787;
-1,10153962362002;-0,327165497673253;0,356516095729628;1,74479493319882;1,5359222621627;0,705584388473218;-0,493439292535498;-0,80171813729183;0,929232202847602;0,373238503490848;1,80530306040309;-0,888344074766655;-0,380002810668031;-0,479640069221492;-0,694383424508373;1,3762820317397;
-0,395742178327673;0,741341668368728;1,86949563150631;0,260053158787562;1,0890973355721;1,17122830847711;0,112974660232499;-0,0290786853869569;0,047044740360598;0,294055091797377;2,32192933920341;-0,847613979480899;-0,257841591398519;0,716509152629527;1,26261509803439;-0,449124051520468;
0,347614101977853;-0,121764128260474;-0,179400239512469;-0,696706639143992;1,1576195177366;-0,62413253530165;1,81807002341858;1,70889383275561;-0,657925367872983;0,196099393009698;-0,131925881857244;0,453290958813924;-0,613689740394256;1,66830086858251;-2,42488284966364;-0,050701313869767;
-0,263988381353901;1,08875734708514;-0,488168122598213;0,36244795378348;0,547515214267096;-0,448799035991405;-0,110972737942556;-0,796781344136192;0,619226628154149;-1,01847578203267;1,49545805773211;-0,128395492254276;-0,152762092044637;-1,48061379340595;-0,914052703188349;-0,668837233131166;
-1,23357094126011;-0,314756959374136;-0,447217479219591;-0,89190421528348;-0,184886367884189;-1,0221329996764;0,473627653398592;0,29780160729685;-0,00773394156063078;-0,774617611855238;1,21797055609931;-0,807670722094019;0,0659842492771319;-1,3203536158925;0,213572858197706;1,17143728786689;
1,39172436465745;-0,988698979275672;-0,318529043132154;-0,586778946704913;-0,638526017410575;-0,317351764486796;0,118719478643963;-0,00875316809653362;0,195605439098924;-0,771700319040808;-1,67019165058074;1,19093555145245;1,45251655328875;0,671724691588567;-1,11895609165964;-2,13913560714488;
0,0794141458335369;-1,27233286652915;4,01464100084365;0,383486447256994;-0,722449666799168;0,786538196297619;-1,12785994081187;-2,30639248084832;-0,826493462681633;-0,0700642608736592;1,48613738420482;-0,047372278998361;0,474775207527844;0,107196905158616;0,268169835325256;-0,986640937503223;
0,396875026034662;1,35563627963907;0,443310543700035;-0,782987288290193;-2,49402359435551;0,714982137656152;-0,369240341993237;0,255001935640704;-1,32171759022598;-0,596156585743068;-0,0853377549271128;1,15414103112099;-1,02637667886814;-0,294050731178024;0,16087052320466;0,715692557271356;
0,854635912434562;0,520519146343681;-0,731901402744842;0,197714280043165;1,41563743990135;-0,958264382931571;-0,219516559787845;-0,102591706617431;1,100920432856;0,373420254346942;-0,662210849562798;2,10028962091373;0,300101828483511;-0,710234661423284;-1,83553778632819;-0,104615813360258;
-0,364487473561723;1,95258708875465;-0,936602536738936;0,855172604843304;0,773198842939547;-0,456025657417933;-2,1651329661296;0,116034182879298;0,0797860345494364;-1,44076331862708;0,985433451963603;-1,08619056995492;1,50884103452269;-0,577524574860828;1,63154415698244;-0,348704788350658;
-0,160353661708052;0,713296872228081;-1,1969517502759;0,229745668931473;-0,884256164055803;0,468135601534757;-0,163024094528211;-1,55520520187377;-0,118308684434796;1,76869490736902;0,324550761420717;0,0663378397106629;1,23566554019413;0,408849189150971;0,869895934022968;1,12295263272994;
-0,344852173723647;0,000906156293601831;-2,14233039394227;0,251858761628702;-0,863252266365722;-0,357256604581488;0,497985622892343;-1,29104327006003;-0,280661704517067;-0,683407183454273;1,62889595644143;0,385300702729823;0,844119034632222;1,65128451838421;0,0925617857886746;2,12039828204379;
0,974937813618419;-0,625041370696807;-1,14692950816062;0,908779799160232;-0,211991836945845;-0,514599100330167;0,708480014268373;0,774391911945311;0,0295228070845175;-1,83049371958042;0,653522283096436;-1,79586722067874;-0,288934922610959;-0,597807622103363;0,131051705857836;0,300627269185851;
