-0,0447875493543404;1,91068721572167;1,96564302142418;-0,468757486361019;-1,33028423418882;0,542648590193897;0,718793606337287;-1,5920780809765;0,171591309629322;0,0416490034487512;
-1,02127669116506;0,84706546103189;1,81352421133887;-0,330159179228418;-0,834108916552781;0,23820709673197;0,589987361434525;0,378506597908669;0,892242858048838;0,979202032199253;
-1,56475713512978;-0,663510830014583;1,05583516466677;0,724207580001755;0,293426391260696;-0,276929954996964;-0,145074518241062;1,38551794379764;-0,0778122575945003;-0,15461161988423;
-0,941450367756909;0,173547477065581;-0,453551070370626;-0,62819921036094;0,423101211097018;-0,645834950035958;0,325459652353971;0,658088997607639;-0,600949063000044;-0,693994871373347;
-0,0487422927568831;-0,50246197145236;0,176160750247808;0,182974412489495;-0,232744852864179;0,988257694883314;-1,14597831941868;-0,50416070479919;1,0388997112872;-0,390021206456257;
0,652139960977174;1,23416443409661;0,611940192833343;-0,147421794281283;-0,65522006028184;1,14212238306144;1,24154531286343;0,0556210244060053;1,61065462598863;-1,02105286822204;
1,27965936126103;-0,147655054821634;-0,143120948778148;1,1436336588466;-0,476891341475737;-0,112595023466195;0,0734580964095971;1,09496730350435;0,501136305205157;-0,280587131469342;
-1,69611632570816;-0,0698335881067057;-1,10536306369883;1,79669196003702;-1,49663390442753;1,21451728630462;0,43896122131881;1,48628171936822;1,01851791452057;0,547514586913753;
-0,573298697049607;1,93336995950129;-0,0400220243874036;1,30596486594709;-0,0342719246362437;0,558886980446887;-1,16411673384313;-0,831631107116671;-0,834581633677401;1,03808751457834;
0,647918854912481;-0,0744820494006827;-0,338849398071732;-0,670298212415548;-0,316557011447376;-2,06711857570574;-0,447307062877158;-1,06510101096872;0,0411509643706126;0,849039146939098;
-0,305898699430653;1,28627285126867;0,239229595140412;1,99554074756337;-0,670054406489349;0,370199517477301;-0,372537249089628;1,56548033052088;-0,2048898283588;1,17498303229302;
-1,68878629257762;-0,410290353236637;0,29674599569033;0,162556582979107;-0,41814113943647;1,1724780072785;0,323512606645882;-0,425219186019818;-0,578381379045181;0,341902942108167;
-1,05992612480322;1,5294133859462;-1,80532466685111;-0,0776408516364418;0,380644368755502;1,61147755961717;-0,721725864847171;-1,63181673968818;0,341075327870756;-1,08399559001742;
-0,104661335781977;-0,169319055549071;-0,988735405714841;-1,00782924874187;2,44890379247582;-0,724092958354889;-0,135354400152014;0,0186732153882037;1,2130571710211;0,619162662643107;
0,949895843011016;0,500512799866569;-0,254271822734535;1,01194710034518;0,476932969011612;1,05106283583374;-1,48567651208822;0,0586336489641521;-0,458032318036874;0,235968154277412;
1,48677074249656;0,213166384853791;0,818377698520782;-0,19517783841751;-0,839312133836009;1,6071979020056;0,890610022291665;0,797781065544347;-0,589675674408864;-0,900617278139218;
1,49139070612019;-0,268784739834583;1,3681094159373;0,414945836950281;-0,580670854179055;-0,940864021479535;0,775218092097613;1,04371662594243;-1,14963443170625;-0,965524245359599;
0,373714500149773;0,420904755450002;0,294530260598951;0,214738459656233;-0,157848190410047;1,42221198043764;-1,44284659273732;-1,44395947133324;1,24460199333328;0,210580179893557;
0,96282248885355;-0,472004335244418;0,285330731454852;0,903466576611334;-0,846446543721346;-0,0899748102819966;-0,137788046137996;0,78800199922996;-0,36852986691334;-0,0366348440828706;
-0,632580635843413;-0,34133915638078;0,866653697512636;-0,745363088545334;0,196292647208365;0,422370932683653;0,850762796154069;0,0212985273433902;-1,77788104504564;0,24119241820695;
0,835516773573254;-0,265704428772563;1,359187890384;1,49956531612684;0,494691456367201;0,478567900037408;1,58289990282912;-0,66896347151301;1,64639089821835;-1,57787731508405;
-0,778356230233874;-1,22998865309361;-0,403952002401967;-1,11271317269026;-0,174444382414912;0,410485757613047;-0,120928791199454;0,32713428758968;0,74393847781851;0,825776022505033;
-0,621941668084831;-0,375106117295142;-0,765507015059993;1,00915468494117;2,30278944788034;-0,481007322039749;0,924811344642676;-0,833777387121686;0,0567637081731818;-0,0481249889329738;
0,0696246807322086;0,861414151303994;-1,28521003059401;-0,540880361158691;0,21981388852792;-0,737261972375264;0,640954150068585;0,771569126322811;-0,5695477118609;0,611310029496287;
0,0388874783948802;0,629623434988494;-0,869536246965055;-0,732288678914919;-0,242573863739883;-2,00017424122422;0,366675486721527;-1,47060405464784;-0,110593638601582;-1,62403155842983;
-1,11908675610512;0,0569585122844597;2,28050750444402;1,45496146818107;0,224648514714884;0,159292542869408;-0,780369006639156;-0,307879453979237;0,952209011678991;-0,457537182966236;
0,153818188674031;0,686405736560981;-0,082912038370542;-0,847228119103335;0,0966489748745763;1,70511460248306;-1,0953305314004;-0,666227895661076;-1,43796162581588;-0,352642142947526;
0,694251508816789;0,442377617597994;-0,985042369669506;-0,0644481598746147;0,351306650570593;-0,168923584470761;-1,10953137416679;-0,909250792457985;-0,0262241453099221;0,785156696038139;
-0,517296807079159;1,16141161975881;-1,67722200165172;-0,0176317400587153;2,0818425540187;-0,620608827586992;0,12053870497466;-0,424292359571536;2,20143589651094;1,10486363383039;
-0,494106097968453;-0,810291911603868;-0,312836481681534;-0,776796986003716;0,153280786744596;-0,658068627661168;-0,672563856189796;-0,222936430311805;1,12416824618786;-1,22318381711871;
-0,00878536599299154;-0,521378900871916;0,661821159942553;0,382587676370499;-0,193512373112141;-0,803730671699435;-2,56046227589245;-0,347689197382831;-0,0987568069918833;-1,60528945090446;
0,0332073487989261;0,0348400479140957;-0,847143463709583;1,59293512850026;-0,178374574172947;0,0450935051309113;-0,0509082769702515;-0,968190770846756;1,03830460577716;-0,199330177151262;
0,623999419369491;0,127016371704691;0,134484972536912;-0,284287806784026;0,222458237335103;0,670981891349021;0,0756685907545573;-0,317936539363916;-0,339598344703144;-2,48146267325293;
-0,130157346426626;-0,786823381060076;-1,52139435446589;0,473662153888294;1,07577132574445;-1,03417165686954;1,4693260273991;-0,345356307456772;-1,22255721864375;-0,19959213399009;
2,08455326089682;-1,69062828105114;0,478979957404434;-0,180324754733512;0,532076571082391;-0,861629858157285;-0,85070983958362;2,73528613936409;0,257590296543477;-0,374593316040884;
1,12443069134205;-1,36061956832774;0,7695030442284;-0,145635372026819;1,03234343983934;0,524091021234434;0,0667255170056414;-1,02019722471043;-1,25759134497967;1,4575165872209;
1,18200546977944;0,864170154349006;-0,778114624109857;-0,817767357835265;-1,59761678164021;0,189716487037691;1,62865044430592;-1,47654642366008;0,187741234313705;-0,294808917828629;
-2,17816062109371;-0,099734235655466;0,358305112763056;-1,61309109449147;0,217510260452724;0,178794182886184;-2,30764186837049;-0,40036837012871;0,722445094523442;0,9379471320218;
0,75505511728742;-1,46434907060762;-1,40736787058966;-2,23868467735216;-1,22082139517769;-0,0959788428820793;0,460780335010122;-2,93476455391295;0,709892478633202;1,02006422077715;
0,546631576602747;0,0599865461507061;-0,394774467903535;0,0397177694863751;2,10652943472217;-0,214731070795243;-0,861616303148911;-1,77351356517778;0,948013739076557;-1,31751250023006;
0,700275289668205;0,670366668075357;-1,24555951922723;-1,73576288483577;0,809720981538218;-0,818792778781126;-0,940497148396806;0,645433302126981;1,00433751854133;-0,178030585139091;
-0,512419553650352;-0,840155533646428;0,305875388996077;-0,242457752971998;1,58202862195902;1,26552501732924;-0,481132798137158;0,604288698218148;-0,831628940803257;0,35754362688124;
0,961938028409421;-0,833115185639855;0,887432076653955;-0,0707551288649354;-1,26619300755381;2,25395767851491;-1,2093662252922;-1,8182361596813;-0,335208398501577;-0,32325332692304;
1,49300414269241;0,846761678409367;-0,016465759724793;-0,373857254167148;0,225582229909813;-0,350532873075965;-0,960230353619934;0,115495121710943;-0,35819619481251;-1,65829540547936;
-0,825352293247469;0,237505379012101;1,10933007088904;0,33759513743671;0,0712868092712742;0,531379620467491;-1,0961418330843;0,518832341472154;0,597493686752672;0,559910653312416;
0,664235049622032;0,885916268646606;0,183981865395733;0,564963688741279;-0,880784856001353;-0,0884043221039158;0,231933536504779;0,491397777140679;0,212369052939139;-1,78348074178244;
-0,262327762331663;-0,343662116468434;-0,556326079853634;-1,3304022720672;-1,10596912762844;-0,338890791945631;0,357735973837974;1,73906786978176;1,55058561601826;0,699038419394154;
-0,493904340791142;-0,811207515154549;0,910910919357499;0,380648622680264;1,80129172408659;-0,884233804592827;-0,385269777870059;-0,476277316470005;-0,673784929860168;1,36668156219583;
-0,401307007316273;0,745442560735093;1,85349376723882;0,266123593287211;1,08229536209976;1,17635019247771;0,106699291581733;-0,0236135542793373;0,066631139566618;0,283340675284015;
2,32636314326302;-0,841388073617889;-0,278483396554329;0,725946864655092;1,26270664750874;-0,455750134024279;0,348249440863214;-0,124035412394811;-0,160593138886524;-0,69419275368629;
1,14630037492629;-0,633628251703603;1,81352686928625;1,71252947419754;-0,669781658095582;0,189795842867789;-0,142576779204512;0,452487784590444;-0,592166444425554;1,67196409358158;
-2,4362696111893;-0,0730504510474856;-0,271840477803824;1,08070489715596;-0,497688318878101;0,356048092103962;0,541598145137293;-0,449904937999444;-0,0715872219466079;-0,810390469023673;
0,616783941951225;-1,0260164814641;1,48293121800769;-0,124892610799934;-0,170180229908709;-1,47862317671912;-0,92403441988725;-0,676679770315959;-1,20799550452391;-0,324717407030446;
-0,450089108829723;-0,895980983240837;-0,197902529876306;-1,02298140003661;0,464373381088686;0,298614322427723;-0,0113026733202672;-0,766986852608727;1,25481402387363;-0,810170805575173;
0,063252475305092;-1,32047959358558;0,198798410622254;1,16957823627328;1,38591523713719;-1,00174340006731;-0,316627740992028;-0,589326418450793;-0,606741213315822;-0,31453279834722;
0,114895242171209;-0,0189209339588084;0,195654825154631;-0,766781266542928;-1,68499525413207;1,19286307896454;1,44587100669639;0,675328553045454;-1,08428447032069;-2,15054117570773;
0,0690611730090413;-1,30352197578559;4,01303226668836;0,383822886628151;-0,720575206149906;0,785942567313146;-1,13019984436701;-2,31633625509449;-0,79191888848726;-0,0680634245077997;
1,48379205710271;-0,0594803843381052;0,466616562694651;0,108676334840147;0,25678426003789;-0,989227822008451;0,383416136165551;1,33247364564512;0,479601599544417;-0,78301778324657;
-2,49211034680278;0,710085213223566;-0,382005437485429;0,255751670141003;-1,33426062428571;-0,592054918447411;-0,0993584835821786;1,15121851613123;-1,00763807593815;-0,292347016916426;
0,154660014875241;0,70494231916256;0,831701354086764;0,504764201724776;-0,721325328039439;0,197737411722648;1,41790668717257;-0,95877256352955;-0,180972830407225;-0,105309472887829;
1,0928708978841;0,363755383784866;-0,671546316092261;2,09757802210523;0,274447834149841;-0,707771008424104;-1,83941799175919;-0,113516252145225;-0,344100453206044;1,92499713509341;
-0,940120232996247;0,845698937551691;0,776809300712537;-0,455851546050166;-2,16060952348817;0,106294736425001;0,0769265059003824;-1,43380279513948;0,99036988096972;-1,09764116076627;
1,48210106431498;-0,583397788893244;1,61501144345885;-0,359503087031216;-0,174002487983703;0,687121583538345;-1,19466577659108;0,23316426199602;-0,869781022421526;0,461646349878665;
-0,17354057908418;-1,56224106795552;-0,136241962499766;1,77081650451647;0,30672085035175;0,0627400898130666;1,21853158082586;0,411388199375245;0,889113059712821;1,10366896140647;
-0,358448000078899;-0,0207311019271487;-2,14321029534502;0,255417247847699;-0,862735650189163;-0,361180956226805;0,492837857584373;-1,2971280439733;-0,255002922686242;-0,681336561589455;
1,60993178945085;0,369124934060546;0,822699795199284;1,65357844107115;0,0877961136056134;2,10096376218814;0,960839709275293;-0,643929127424803;-1,12220023184521;0,910698165939485;
-0,215211888913118;-0,524575868229495;0,712801820111171;0,76400496588821;0,0283789513012818;-1,82599899635473;0,635186161415334;-1,79993066499449;-0,287325794625071;-0,590852864245368;
0,123272991178611;0,278137818010719;-0,243581367213414;-0,168756314558619;-0,912369807079557;1,27224400489038;1,9178422212684;1,05419905464426;0,192859541428468;0,360127982749709;
-0,960939151224611;-0,617715317905972;1,29914715017136;0,603114613653751;-2,52028063422822;-0,208472480970812;-3,27661739184928;-0,591107318136935;-0,270244746244914;-0,640679702104936;
1,04647726617225;1,04291041794785;-0,013573113239683;0,79645155012067;-0,372835767574769;2,02039420545562;0,422731179152493;-0,839547180845792;0,949397842239526;0,0963964110663266;
-2,02922466926905;-0,844071428696787;0,289544579874753;1,88690257581423;-0,0857031856600753;-0,425423741826067;-0,576252910052674;0,901228252237324;-0,801237407539868;1,60887102653987;
-0,685455485928829;1,17397457027082;-0,814177750896613;-1,71859926181141;-0,572055898507142;-1,62365024135381;0,468227700359256;-0,527138629523477;-0,895149517870414;1,4602021480444;
0,274552350561348;-1,09620910742594;0,961749161763927;-0,181726094256055;-1,34310877656287;0,283549625185466;0,134225140323349;0,0956045706655455;0,912107625507843;1,71744042519479;
-0,238904830170989;0,874514275182258;-0,258737757427973;1,15143775476526;0,300765009702918;-0,351642818860723;-0,229092543839879;1,26186286378992;0,280051022285634;0,00652452037177316;
1,09625228640148;-1,40252505311283;-0,299835143447171;0,134567194177218;1,16782852111548;1,65873250547088;0,737024859188391;0,230312521266419;0,271493620271269;-0,395486239752937;
1,17273622538799;-0,626706585791469;0,019451614795221;-0,360567839049007;-0,242095872222602;-0,978648934091782;-0,710200209558634;2,51630467455814;-0,455706065129007;-0,133804506683399;
-0,039310912461616;1,93021745615058;1,95494414685722;-0,486152696767999;-1,31596663685618;0,545630390657427;0,724099525941688;-1,59764500184755;0,148492360467212;0,0603933590118207;-1,01707461939186;0,855942375655203;1,81042760217329;-0,333190825641072;-0,831385411032784;0,242169067141554;
0,592790466223341;0,388002636100301;0,867894534035756;0,981076129137045;-1,56140776542446;-0,652738585850561;1,06600318213682;0,717801153705002;0,2974977962115;-0,276493713084393;-0,141378064001516;1,38495236936659;-0,0908620307012911;-0,144126951854138;-0,942783894147955;0,1726938115782;
-0,450140758083501;-0,615092857431379;0,431177640895377;-0,666599651173892;0,328194777084965;0,657431182435167;-0,616570268254695;-0,697606879922595;-0,0464249300226752;-0,50730398219782;0,181131440987032;0,183578931464451;-0,232799174877052;0,986898531678293;-1,15301700917496;-0,504595737292356;
1,01928374933111;-0,369127000413512;0,645147294695465;1,22692664323465;0,610263417051305;-0,149201657021183;-0,638776784649313;1,13248629344965;1,23844794978388;0,0573494992374007;1,59041306204603;-1,00121090887349;1,26959776659473;-0,139492435812619;-0,153616437263375;1,14203602180013;
-0,467786988452181;-0,0985468614082088;0,0653639390725929;1,07909170950572;0,485106910050283;-0,263714377435082;-1,69269770113157;-0,0659322034094394;-1,10171666514327;1,79724781796273;-1,48541818515974;1,21042237577636;0,430430993559591;1,4860810154522;0,995562087824371;0,560714987786497;
-0,57249031186926;1,94173245349049;-0,0429506163435679;1,29021645772809;-0,020439717140035;0,554468596142474;-1,16192902720349;-0,83965980065518;-0,860687488725001;1,04678885899045;0,655549208131019;-0,0796689571467589;-0,335244006733495;-0,672129398338715;-0,31268291783197;-2,06904904349086;
-0,449296901123375;-1,05561625697155;0,01155364515425;0,838538554672608;-0,305505362285867;1,29555681572569;0,236638369153511;1,98721807476848;-0,667130382248993;0,367927572658714;-0,374188624265826;1,56727984606508;-0,211760825436437;1,19326910022892;-1,70263085094077;-0,40102540962124;
0,291145624592129;0,173260716725492;-0,416057280239907;1,15062710041647;0,321456801205433;-0,424886616800649;-0,576357201559124;0,349222946482184;-1,06472383845471;1,54182141547416;-1,79820725730719;-0,0771304895766574;0,379965581794908;1,60654063637796;-0,733796584624438;-1,6332071675517;
0,341649431153329;-1,05232707785146;-0,11108782970608;-0,18295125105281;-0,983288596094436;-1,00889862037187;2,46065920693875;-0,736813881953411;-0,141069114288719;0,017441714168015;1,20597994901033;0,627322959085031;0,945608913502047;0,498432325769144;-0,260204918141183;1,01127726859794;
0,481255119980802;1,06486616864212;-1,49938812820714;0,0420731397828173;-0,466939834497496;0,239585747184704;1,49082154605003;0,211787488726897;0,81229482545293;-0,197133383461728;-0,838396399461571;1,60715653387503;0,881803674166865;0,801432518793876;-0,60426086638466;-0,894146555442189;
1,48912597758473;-0,253358733289346;1,36108567760359;0,409317108265119;-0,57791811954555;-0,943412671960462;0,774322743091513;1,04045711514584;-1,15219219864711;-0,957351706514399;0,378088385675737;0,433652320891028;0,306644061639365;0,210481708069054;-0,156651515507971;1,41669181214346;
-1,44650507994451;-1,43721360786099;1,23735844463098;0,216692066529991;0,970628037693814;-0,471417012986314;0,290317644290665;0,897251134121915;-0,844886395511551;-0,0940312588340177;-0,139146722581958;0,78941828604499;-0,372254290702923;-0,0332511948881824;-0,62788681524472;-0,346555562880178;
0,869616458481121;-0,737382460331655;0,193297261827228;0,415744561757429;0,846677903970026;0,0185604352618183;-1,78463013863025;0,234638408182345;0,83619731885492;-0,259185315116268;1,35676983168005;1,49905779282472;0,488122704726546;0,474710000423935;1,58381250316379;-0,665138821538967;
1,64081529675238;-1,55312504233787;-0,782822551883745;-1,22382039763126;-0,40711776523426;-1,1178106846383;-0,1709532435113;0,406629367831431;-0,122619790138285;0,332272491438333;0,738105576947916;0,83441753484263;-0,627415552873442;-0,365585719442374;-0,759572623445533;1,00721497751359;
2,30279589825194;-0,472020512508582;0,917666480098392;-0,832001956418734;0,0509157504922061;-0,0408853524134878;0,0764972735838271;0,860156773831467;-1,28052693348713;-0,541325954426996;0,218743860593974;-0,743770487227783;0,633283893422712;0,770981557329585;-0,584823369401982;0,620491546412574;
0,0392530630084596;0,627264756310139;-0,868170683739669;-0,738815509879511;-0,246313043246355;-2,00540099500642;0,362805130830357;-1,4742291381448;-0,123528445798184;-1,62474926386468;-1,11129118265759;0,0701213354326253;2,28324748193487;1,4518717077184;0,238300552582403;0,161804554113772;
-0,775310636105004;-0,300787169088315;0,911909919758091;-0,446521425111243;0,156404490743681;0,693303031199173;-0,083229257255984;-0,854142552314266;0,105842696517113;1,71136943143972;-1,08893834911886;-0,663858987835485;-1,46704375573896;-0,341523077133381;0,694257792395059;0,451562099343093;
-0,973077130238713;-0,0576280077575601;0,356666665798019;-0,17185388005091;-1,10518978200301;-0,910199325593497;-0,0511796105621646;0,785008431999206;-0,515517667848235;1,16155489384246;-1,66904107291443;-0,0173878900667626;2,08536863091416;-0,622913142821525;0,123910642321578;-0,424505332782862;
2,16871457470161;1,12435450927542;-0,495292624505684;-0,814890884291019;-0,30390084473837;-0,779999436533229;0,164579923773695;-0,661431449735876;-0,671540596248276;-0,222009417391049;1,09275051013406;-1,21990771474476;-0,0136156765929734;-0,513922087639969;0,661504414211136;0,381056516977206;
-0,181412103079248;-0,790773537387849;-2,56090002544942;-0,347155940176586;-0,133832640176916;-1,59253199699116;0,0336447843514953;0,0393145678371639;-0,84684910074431;1,59077596078678;-0,169604602439257;0,0450342177451533;-0,0551566613058329;-0,969132090919195;1,00726751533923;-0,185508822982026;
0,621959993295058;0,143524581662997;0,141098502716971;-0,289792078165646;0,233489841575044;0,667284896574738;0,0776529967157812;-0,321399865397299;-0,367703500948673;-2,47235321994143;-0,131746333853811;-0,782955974340616;-1,51015994595438;0,471985106642659;1,08734334460093;-1,03799131706463;
1,4712012055573;-0,33995063337844;-1,26109681698137;-0,195166277207947;2,08617160164413;-1,69487866889141;0,487254187514281;-0,186350373116918;0,542071859347234;-0,861269517364681;-0,849114618478808;2,73743359143023;0,227858228151591;-0,370118080559436;1,12339422204659;-1,35151139682645;
0,767955698113069;-0,139968313214967;1,0370522588284;0,51674246074311;0,0656966685133576;-1,01951558157367;-1,27607897057782;1,46757907527936;1,1757162136576;0,87413128547802;-0,77834237006307;-0,81878736881331;-1,59888345547929;0,188478900750092;1,6279155762354;-1,4764346719529;
0,171079746620104;-0,264443784388457;-2,18422392101547;-0,0892953651232589;0,371222407646456;-1,61667859513876;0,227963656523239;0,173995770580773;-2,30921829545996;-0,400090409166574;0,709438413551886;0,950468759409384;0,744902375468103;-1,46163154375247;-1,39827682481829;-2,23960319995727;
-1,21327783703591;-0,0845111573761485;0,456341900686568;-2,93532849496835;0,691431164077161;1,0268225736251;0,54794563632956;0,0570159063197482;-0,387014567415886;0,0375050384170521;2,11072229778787;-0,214330461667365;-0,872184786661873;-1,77424668847053;0,926366490260176;-1,31140943135189;
0,706043270956551;0,676621266942109;-1,25209494574156;-1,73973375270231;0,8120025125664;-0,817639472387917;-0,939541259074491;0,648543531045448;0,984916571376036;-0,173173658478799;-0,514232791415432;-0,831599174753289;0,304409693833927;-0,2453077548063;1,57903393201916;1,26384053780553;
-0,475041927306229;0,604941638911037;-0,853535265102453;0,361402715469394;0,962853660675591;-0,822942530705442;0,900808500663967;-0,0762575793331392;-1,26325155444278;2,25084815172721;-1,21023460371014;-1,81795725489257;-0,351921440653316;-0,315848175806693;1,4910193977814;0,848265563719427;
0,000852106726417532;-0,378950763121357;0,219966316794486;-0,357067863911315;-0,960725574308865;0,11290886390515;-0,377614023853877;-1,65050439251934;-0,822704884443393;0,235428896761352;1,11877216325141;0,334519174322859;0,0704557696304189;0,529556964912624;-1,10202738858806;0,518810373712065;
0,583213177153666;0,561627172602955;0,662842652086953;0,885053819143199;0,183302534799797;0,562739367067795;-0,877291290150942;-0,0923511300129167;0,236432717847927;0,493900372457567;0,193872747468251;-1,77506414416514;-0,261056613268219;-0,336587340474735;-0,560290518810265;-1,33245567598593;
-1,09723857019768;-0,341723984970284;0,354269060842568;1,73535015981722;1,53250327078361;0,705543878974285;-0,490844281363322;-0,803595154045236;0,926375997423852;0,374305116320647;1,80295724547434;-0,8891580055011;-0,385780435470575;-0,472445047061767;-0,696804407915583;1,37516943552177;
-0,394731511816508;0,744239264404416;1,85607263555221;0,260951833490408;1,08233399371549;1,17025607549602;0,106925748698857;-0,0221415513274872;0,040810677327048;0,294711356822437;2,32458565130923;-0,846564681283315;-0,268007489692209;0,722272644293003;1,25286245999723;-0,459645660707924;
0,351029052667133;-0,122290241079189;-0,190489414845424;-0,694877122570053;1,15386567863485;-0,624387283282207;1,81318154772106;1,70970717058835;-0,66245980974683;0,193213266481991;-0,137653684128035;0,454402296154917;-0,632844698294058;1,67888511640715;-2,43482790131093;-0,0668142322529998;
-0,264826105126547;1,07820540827447;-0,502714865400018;0,358484424337215;0,546337859679685;-0,451794713726425;-0,106559254028273;-0,804015377630877;0,617454892749738;-1,01452652202251;1,49601174123115;-0,123375501911844;-0,168789536957916;-1,4721766837925;-0,921610698270957;-0,677349497464402;
-1,23159772353723;-0,322905972346892;-0,452179984579021;-0,899793740806104;-0,18965560575223;-1,02184296779521;0,471921935330591;0,295953408885705;-0,00580690157942655;-0,768978425254402;1,21950147222727;-0,810072078040396;0,0642955837071065;-1,31916138173216;0,207069071390883;1,17043082208652;
1,3947276226555;-0,999602334807368;-0,315938237347334;-0,595562643357097;-0,641889698779493;-0,317091714711132;0,122560548479264;-0,0146007195649314;0,197038209866181;-0,769941397163696;-1,67899975380254;1,19181846121325;1,44928324320973;0,677759598828696;-1,12594643123821;-2,14171754900511;
0,0804932661534488;-1,29621153141883;3,9988720037672;0,376820988664363;-0,71702340857202;0,785830264647357;-1,12617544023215;-2,32152124374728;-0,824131847502756;-0,0600384118249302;1,48296577115621;-0,0472404966528093;0,478842010641725;0,108614421707693;0,255478176917953;-0,990124746052813;
0,39674120345232;1,33181516589016;0,439717964862715;-0,784844691687907;-2,49436005702327;0,714268808845678;-0,371580828846078;0,248751777873578;-1,32561156781821;-0,591700250303662;-0,0953437571138229;1,1518442683598;-1,04495444774253;-0,290851287497391;0,151294518731702;0,704546222651952;
0,852130221828204;0,502127187691599;-0,719810762717393;0,1984474927829;1,41980854709834;-0,959931780553662;-0,217746541165755;-0,111529731634776;1,09761034215104;0,373856829303615;-0,672235668253712;2,09773441530538;0,275649337375921;-0,708314992164773;-1,84316800184526;-0,113249029069158;
-0,362544426765599;1,93499660339189;-0,945931981415361;0,847537555883155;0,776555163588107;-0,455896152181537;-2,15430069279816;0,0977622566531842;0,0798275823057274;-1,43648599172517;0,967359650788657;-1,08748473407882;1,48325024161145;-0,564829529851255;1,62537970141832;-0,358236540699356;
-0,161778563525396;0,686844011405979;-1,1975162612324;0,223504105190532;-0,889510118705913;0,467874372926657;-0,16664335046959;-1,56442819628935;-0,121333792364979;1,76833046356813;0,309359480459218;0,0625468447964989;1,22021357336913;0,416556108323402;0,856415636306752;1,10566530505889;
-0,357413077433079;-0,0183149279181515;-2,13467885395037;0,26078042379215;-0,865051414587959;-0,358204776027215;0,492236919458855;-1,29350316903109;-0,286338194558161;-0,680466848458135;1,61231196944509;0,379547911925652;0,824688872076749;1,65108961038331;0,0805356468258829;2,10383413225109;
0,960375653115613;-0,642251511418381;-1,15240630468875;0,915519847339469;-0,213845407394812;-0,515604649506194;0,712239640169837;0,766045559012865;0,0252788757538451;-1,82296443997106;0,63394582053107;-1,79758424671782;-0,310059101094116;-0,589404354763197;0,12478781232157;0,289567840335626;
-0,228448335990874;-0,172109307258322;-0,91782074095241;1,27954635087122;1,91691106972843;1,04990633135576;0,167813738444835;0,365737354220565;-0,955797785627701;-0,611894608516318;1,31146766155207;0,603658051336259;-2,52025967933609;-0,210203569802261;-3,27795223846973;-0,592453791696102;
-0,300055263534836;-0,640367688488729;1,04997713808459;1,0430346951785;-0,00232435586290519;0,794473179943222;-0,379367310249445;2,02564146721019;0,421424950563089;-0,838876695928155;0,91971724711919;0,0956242099466492;-2,0215479142188;-0,836646847254383;0,285234464288595;1,88656440717656;
-0,0915375418862388;-0,424348296873684;-0,575566782229862;0,905080813225799;-0,829704564647025;1,6116436653978;-0,681712896165443;1,1841253832252;-0,815963252377203;-1,72002954053314;-0,576274300693423;-1,61996041367755;0,468265416428456;-0,523228512914446;-0,926832902495443;1,46348017835022;
0,276086193936108;-1,0828860216748;0,974293003905866;-0,178196463275744;-1,34900292168925;0,282819248256117;0,130309610571532;0,100663606440615;0,881623895460488;1,72143007425612;-0,237995769062228;0,879807303166157;-0,245716069822873;1,1492357260411;0,289298194439096;-0,353498150510595;
-0,229501683071221;1,26149342469344;0,241696839162359;0,0164056247015562;1,09446143605242;-1,40471086649911;-0,287498751095669;0,136283234313753;1,15590809683347;1,65989277978469;0,734991401082627;0,232970990513444;0,237475610729344;-0,39925830148974;1,16521342800874;-0,624774001985879;
0,019482267591955;-0,361588122132058;-0,24309295305441;-0,9703242166311;-0,707034578164615;2,50332487775461;-0,455193628013314;-0,130731180324904;-0,746493503254585;-0,125535399745429;-1,29141086767625;0,0299151143007574;0,0777661489019854;1,10122042104674;-1,21633669799483;0,614171088002553;
-0,428599354088722;-0,331026518186382;0,158873629363314;-0,100598439037027;2,12157287077352;-1,26052731611579;-2,33090534816097;-1,92231310500686;0,56814670908756;0,256590554502735;-1,52123495484979;0,888672922379109;0,368993424837717;-0,290688223332718;-0,119563826159274;0,621675566764866;
-0,335579729336423;-0,279661096186853;1,21455097091141;-0,524351965132466;-0,740544208662879;-0,133016504280972;1,42534453175615;1,2897509425766;-0,150346851588076;1,08808837738215;-0,722394592459066;0,134520667147687;0,0743749665633485;-1,02532713523883;-0,166401964410536;0,0494954362478182;
0,649800061273369;0,728321784450271;-0,0576281658237905;0,765859330264672;-2,02353542510338;1,67165218401936;-0,109257476011038;-0,577448827548665;-0,325780957563806;0,4464990701025;1,26076531666475;0,431779113741067;0,369136518509895;-0,717891222981906;-0,049227824671462;-1,36746188251263;
-0,299248054297861;-1,31259304317917;0,415733141063814;0,174575945013541;1,56752863185158;0,497079098540489;-0,715266757230144;0,677531412109662;0,142978313027223;-0,14151303740191;-0,991032640990479;0,273554332071779;0,546335502689746;2,1974440294493;-0,468913343785648;-0,954504268572665;
-0,250372155642821;1,30422561445738;1,37410310792282;-0,475269185782853;0,77809923675197;1,92838336134455;1,48085216059413;0,422616979207959;3,87329145779421;-0,756207627377307;-0,453390099980058;1,9322611774821;-0,686399221665527;-1,41094119993483;0,901798638674926;-0,0543608904747574;
-1,13790157909581;0,0954618624960826;1,11245449927218;-0,882339903120293;0,229247121295279;1,36300651280523;-0,855269355236641;1,62035102665813;-0,957162184722823;-1,19508489753191;2,24424550391011;-0,566197765850798;0,960322388358666;-0,207986749289562;-0,236466073922507;0,951629734916095;
-0,191972406707781;-1,49457057048492;-0,526873609490964;-1,72760172021632;-1,69837250648344;-2,54429687569441;-0,529135177115978;-0,174486452795602;0,739585697403641;-1,17908330800494;-0,249141608819062;-0,389747575017947;0,317344137090873;0,772713618310372;-0,0541559004168284;-0,034548315009525;
0,69208741641182;1,1123834877779;-0,520387872732987;-0,567442754160217;0,165044745149109;0,974005419639187;-1,10954223087312;-0,100602642427734;-0,666132809559409;-0,403040877220096;-0,781573166688254;-0,959168527818409;0,943593030075559;-0,124708452846418;-0,417971966030107;-1,35611907313194;
0,304407732943541;2,57837840300475;0,827456858322093;0,118879163158782;-0,973338502290769;1,92988828962827;0,744988349175308;-0,0389982368731677;1,52780214490787;-0,565064856365768;0,878960100429303;0,981692907638647;0,112662988484088;-2,11147641289326;-0,336022474391089;-0,185914121799802;
-1,90655071852295;0,524418914863604;-0,499549145292665;0,341446224158791;-0,854234055222544;-1,05186196947358;0,428891023481637;-0,148146966526456;-1,53926436454107;-0,619753216570501;0,770442827958013;-0,508805030224269;-0,924080927035007;0,808421618403527;-0,707944038804221;0,599859063778909;
0,147059079754147;-1,87895855709176;-1,19876633632752;0,0203708678757761;1,58473241145778;-1,08475074937045;-0,886405581349031;-0,755986378497056;0,948597334159177;1,33183559902777;1,55908924535504;-1,44435355725223;0,541659019715534;0,192272002675777;-1,27544410853399;-0,174837031120562;
0,216417147332093;-0,111004119796447;-0,396619664202283;-0,534355467996921;0,963092542611349;0,4116079030806;0,350384609280358;-0,49196136127599;-1,26061589689011;2,44859910237563;-1,23428997233508;1,51973536378431;1,17188659311352;3,29808805355645;1,00457368592709;0,618552973005297;
-1,54835724496879;-0,266975899048059;-1,1064208952293;0,354644575029854;-1,020150765817;-0,206509238333075;0,10910159358898;0,494723253063081;-1,68415119117784;-0,485064608768949;-0,702259269334526;-0,485718593234007;-0,433527589611655;-0,0707089309082284;0,765175085140968;-0,0611630927121264;
-1,35934263144711;0,646450820439962;1,21467161976862;0,761391901852875;-0,767925599053289;0,60303295965882;1,44614560716881;-1,39036278655745;-0,97607879169289;1,62773802194833;1,12490589031284;-0,247492387876099;-0,107429547887302;-0,424864040792514;0,376715260558173;0,733381200596713;
0,926187294955398;0,236041612380772;-1,01296523913289;-0,111552412494859;0,241478513929815;1,3283773451891;2,49768603341461;0,365842964954438;0,195209550211369;0,0431130719972647;1,15691599827103;-1,29609816988528;1,64949210927925;0,358775184947006;-1,00047644952147;0,930074496531094;
2,07183030450918;2,54328823288145;1,25505890929308;-1,17156136425141;0,476531589151977;-0,537354330466483;-0,71377959047601;-0,963576961841239;0,736382590878089;-2,37497926419119;-0,941516729913215;1,58177795914439;0,652869183088403;0,487311203812395;0,653972955855197;-0,846584144979881;
-0,427776254842036;-2,30376819234905;-0,110406189032307;1,64484475797763;0,453260833124365;-0,590932552684652;-0,864104734847553;-1,25217898409745;0,801474586003364;0,058212110051185;-0,984154302627851;0,205748783037558;-2,24705909627373;1,27175619684273;-0,40646991764717;0,658201578419287;
0,0287949930432847;-0,503011779083522;-1,04902796806372;-0,889699026988644;-0,943100778102106;2,08690175879251;1,1749723753996;2,33569943013977;0,332813761328514;0,577565262534924;-0,449721969511061;1,47187377439025;-0,514849521700312;-0,105285146035592;-1,55575453761803;-2,32086751352935;
-0,56038035685567;1,40648606554907;-0,611352535863887;-1,17307881712515;0,910054687165687;-0,0772427506323235;-0,604356447209732;-0,0304987089710693;0,634268145694648;1,34005587945642;-1,18012608250494;0,49739397244495;-0,597270954979959;-0,302071296976246;0,962190290297419;-0,307944645298755;
1,02735253395113;-0,949448305476145;-0,222012148120837;1,2134535811455;-2,1270581859067;-0,29570880918365;0,351571855402759;0,987448841247693;-0,694822048627789;0,141997862298701;-0,512986997652891;-0,00986212306460763;0,950854892787902;0,800031488483376;0,672844860801212;-0,125490176342156;
0,278394110339258;1,00344340646532;1,47384355647596;-0,609183546431719;-0,323086607861063;-1,67017022133472;2,32313788690876;0,0329115446176266;-1,91808635002125;1,47633885773534;-1,1535950972499;-0,299983744007925;0,144588884125899;-1,96930615445115;1,15450005864795;-0,798350673537224;
0,0870568013760399;-0,998933545393885;0,481492274267245;2,94245479381656;0,215036391046543;-1,26339933225783;-0,466942037377122;0,330931477545522;-0,391446588440207;0,097335252028843;0,198107647991771;0,325425910870684;-2,08449997095385;-1,05968307717099;1,11382395217504;1,11313468196817;
1,1243962932851;-0,907346174350036;0,16766634213175;-0,135695656695213;-0,0188539942399801;1,68919272844654;1,6570118391715;-0,0172671103810651;-1,12270316272605;0,666352230333603;0,693953131719162;-0,194129444935444;0,211386938268681;0,329876589781793;0,891128746130781;-0,0671326754380444;
0,299751007119997;-1,56005067385203;1,27360807112707;-0,0429008157228222;0,0406876069615518;-0,463408808507198;0,666251835752774;-0,560089285247849;-0,0566488674578678;-0,816118162516676;0,234058419756909;0,0373871505166552;0,332489860496161;-0,617955549551576;-0,615575048450467;1,0099709755661;
2,64227647559197;0,870788606142241;1,72124396496591;0,415759749174013;0,436381475887715;1,63626089913024;-0,100011102753565;-0,635446278607113;-0,56458352156044;1,09086689555921;1,18490683844691;-0,168034503033758;2,1772775665451;1,1273596729811;-0,883329212084373;-1,06485317718022;
0,0989924523130609;-0,221692934906032;-0,646515567322758;-0,468386966924208;-0,748954628861875;1,84791174482824;-0,211645069729028;0,102914895163812;-0,557826198341519;-0,110980918689739;1,21984723484664;-1,25110016609687;0,0376729944949128;-1,93334920882283;-0,570538679029756;-2,07828568984673;
0,338160460873265;0,0616329899606557;-0,239684076455693;-0,759007885986403;2,17470875867523;1,06317063652811;0,378735923591579;0,126960642974448;1,69348804143748;0,621839612128506;0,453594983791275;1,10048355854587;0,666748324776217;0,444201411751024;0,224362339476746;1,38299970914246;
0,59919619578558;-0,533888044182448;-0,0514118157820037;1,05087004322342;0,841808898346701;1,28578374545218;-0,293659012452627;-0,307992446133367;-0,82648836108171;0,43783548898759;-2,39689707064694;-1,02185917284232;1,82430081113922;-1,66949688734676;0,958225576328786;0,505831407186163;
2,35384467204852;-0,712666926946537;0,0847969444361619;1,01115029113103;0,378904684523149;-1,30147434959979;0,25524235840144;-0,574866314408852;-0,192731767406355;-0,811330426789824;-1,24015580182323;-0,140906400759851;-0,0305742167553885;-0,520177614940156;0,527977240003512;0,673315707116902;
0,190687258800805;-1,84290121397667;-0,796897382736719;-0,537611231297388;2,01078502160606;-0,531337691406635;-0,316798404982952;0,795181578022106;0,492069927755676;-0,36761319219381;-0,638877375223332;0,979200647134539;-2,09964407921559;0,304472768434007;0,121675421601798;-1,12669541244628;
-0,0566067793556984;0,330047434380616;-0,529597632217492;0,687772112315769;0,626941142633735;0,456092259710361;-0,372179594786333;1,25901445995357;1,13380614305996;0,191481500680447;-1,16232261783708;0,923089909165426;-0,422897447727926;0,162229593799154;0,569142404353874;0,0434651100018467;
-0,490542154916391;-1,03879618282474;-0,407254935623703;1,42450304301062;-0,703257798964152;0,269319800693628;-0,0257637215979593;-0,153959890466063;-0,834520767448891;0,494165042454333;0,111166961993612;1,5377897416654;-0,699696408856121;-0,290022048950365;2,21571087994412;-0,326416940170159;
-1,94652573615061;-1,64879917840132;-0,113049830130896;0,571986910272853;-0,508086736959378;-0,343256756345811;0,00335708513110191;1,14407596865454;1,45476253359947;0,335170117699224;-1,69616294163179;-0,653649171946971;0,809003405587722;0,161996624880499;1,34074740355731;2,25072065964949;
0,117772553381338;1,03827479744233;1,20869948856211;-1,02321240955623;-0,0305440138604142;-2,44103900333966;1,35609057164703;0,497495305845181;2,10289146137906;-0,0790501435559618;-1,49941295720389;1,08134016535965;1,88802266792868;-0,835349809563089;-1,56381735682565;-0,136239455907168;
-1,01838119780212;0,350014948016948;0,598359982678749;-0,152471296967831;1,07543124229465;-1,88452062913176;-0,344543541618115;0,248025702484736;-2,32239643121664;0,20775863641932;0,891455237330174;2,23359501623481;-0,347763947628077;-1,40910170202783;-0,0774465449039281;0,932267718979182;
0,802951725637848;0,588333526316268;0,155469890413969;-0,675245062235487;-0,108143131598518;-0,774318497263965;-0,777398743631347;0,489193918016521;0,941954132015164;0,500165137195808;-0,515278708711912;0,805873449142007;-0,782899074195374;-1,53530158892209;0,767278058109657;-0,839343244712833;
0,00681289379790784;-1,06847072062224;0,875825657301134;-0,0873182645939497;2,26310066807715;0,585382575046066;0,805894559127081;-0,00184993934706108;0,182114439351744;-1,29908165320556;0,79395832241936;-1,24675655430809;-0,318410402908472;-0,44774830369868;0,404764056812373;1,30657833410392;
-0,258983675064091;0,0462323921875581;0,314839866586911;1,1456286807446;-0,482089355581973;-0,38886660783856;2,04282767604921;0,482062863364994;-0,564555759414765;1,44467824330328;0,340129039641878;-1,68585125228333;0,00700836717827623;-2,13172807308602;-1,22367716458369;-0,282921305833861;
-0,00170066130531471;-1,25953923222529;2,38066680539592;2,29142140994966;-0,284637723577163;-3,09080056349389;-0,654646429180065;0,871578019577983;0,432104665210036;0,0240525753379496;0,653560184910132;-0,196502614976426;0,208256763280421;-0,188303458438861;-3,18619545832775;-0,29578063354832;
1,00413340555688;-0,503006506892021;-0,401871543317049;-0,643582533101362;0,296433367506534;-0,624775964911056;1,15995427217313;-0,414414534154499;-0,347184013694808;0,0622739830784052;0,696812516340353;-1,39205093054686;-1,42747957152545;-1,26887716718595;0,866953364813999;-1,54729733590125;
1,04470974870268;0,866974795100973;-0,630264990700657;0,829234077070232;0,999494043272199;-1,36142316425238;-0,552592228461633;1,2857588419211;0,44844790355799;2,92751724363798;-1,15316578321735;1,75732112750192;0,902463698471084;-0,653622265746329;-0,601441768813726;-0,831621649549499;
-0,0650548365120779;0,711408683882147;-0,0985084413973649;-0,101072052960506;0,44480232743944;0,418161583612824;-0,101210157127255;0,110603065070131;-0,632338231730054;2,02440297986305;-0,221519413496616;1,48398617049376;0,449317685147836;0,264953121292464;-1,10243802496859;0,934553416983237;
-1,59960840771246;0,08013633623604;-0,581233713972005;0,103969267753059;0,217376569569957;1,24868880951414;-0,270440415892447;-0,954656981940064;0,180777529969089;1,74421774228254;-0,757394970382647;-1,21013686563422;0,277417109244909;-1,10467351048447;-1,37577307397925;0,0568401537235066;
-0,40661307450926;0,615748867048617;-1,00850269464542;-0,121457299890838;0,379548524849985;0,10722800577233;-0,308078818268047;0,179710415485524;-0,375027538422154;1,62582729928001;0,84974579467434;0,290416418784172;1,2359766173795;0,464394974724078;-1,18532221944002;-0,767598000210192;
-1,12170623134963;0,387393422011259;0,491457179948534;2,23236112117691;1,04297631613087;-0,157927421427535;0,406476891400897;-0,282014749045769;1,29758875816279;-0,585364230061927;1,11636144509268;0,234022073516864;-0,228452887317235;0,276300181646778;0,345197886167699;0,850993114320186;
1,49468360812621;0,764868472804267;-0,0500747531448171;-0,0125879179967876;-0,0937371013418919;0,211378340670329;-0,406871089791914;-0,396450644074611;0,254086149808845;-0,232359497332713;0,635227839475971;1,83577962131824;-0,815119704965362;1,26339157663371;-0,485186566862744;1,2451538224263;
-0,885034966416418;-0,48979039891967;-0,701191364510807;0,415330761737509;1,62955757208534;-0,605030065068225;-0,642878304796021;-0,126933026090139;-0,195382480913111;-0,814327351700269;-0,158765985068055;1,50247226742125;0,977313045083741;1,16923763063337;-0,327708738228441;0,0126906075327959;
-0,6593032120964;-0,551721348763301;0,356091112937823;1,30037813303029;1,49889368219916;-0,716226682012463;-0,236614207035061;0,309814606268658;0,0533125095857745;-1,41921637725898;1,41753908816928;-1,01326983484355;0,803957407789428;1,1295199580931;0,815407272849758;1,11336028352581;
0,693769993129968;0,131017370627682;0,202130150191889;-0,642129813891924;-0,684337309060386;-0,982761181709292;-0,308496768909256;0,114022574670049;1,15262658002792;0,684925010991497;0,233157028911719;0,16562279138376;-0,324182187735755;0,0461193799990372;-0,743597358766464;-0,0921915986798137;
-0,0178567455298199;-1,25359294372106;0,162766479439929;-0,668835957005824;1,90499212820556;0,537013589120335;0,560559649162487;-2,43957733667703;-0,180325087695897;0,369070922177897;0,759421501475694;0,683785400673373;1,23283586731606;-0,650114202111293;-0,585823603120127;-1,51164266558036;
-0,457150507977072;1,73894255624045;0,203391709194265;0,255374107473922;0,168949879568225;0,0743652986145574;0,641097119717134;0,678778283899138;-0,399274360741405;-0,627379452814027;-1,68681697705528;0,518653774047598;-0,231853052655428;-0,332105876212487;-0,780944731606581;1,51597619752813;
0,0306553397902426;-0,156503116181611;-1,43006039437995;1,27644481730469;-1,47163545266908;-0,813754934343457;1,20486437752635;0,966836654972788;-0,202417260403437;-0,0351496743724977;-1,6569079050008;0,0506250611411272;-0,4761212364007;0,630625506799009;1,46370594409253;1,26781497905698;
-1,73554824503022;1,3545064931957;-0,824500450272501;0,230188150433707;0,493509764131796;1,48645918845141;0,92382395364079;-0,712044703436662;1,51290132806902;1,87192364695066;0,699430438449323;2,03341082381534;-0,186048385031381;0,589922748641803;0,0553138742902738;1,6537828121005;
0,503768229128633;-1,12490775989202;0,522207424393398;-1,10380072801711;-0,984471979836398;-0,712970596087048;0,539616485051549;-0,41544389691821;-2,07825588053844;-2,0412622495813;2,22328494392335;-0,74830677547063;-0,0738886491875277;0,821809277166014;-0,106580807691679;0,367224043469766;
1,08290672850324;-0,230578086243172;0,308190236750531;0,16278027761792;0,730465813605506;0,580514112022009;0,990797870241068;2,18626828148022;-0,983440459523438;-0,627207674762603;0,146483344966424;1,22995900453316;0,0259557681921481;-0,315528041838791;0,462527440680109;0,632315959099184;
-0,147449082975434;1,18231971060752;-1,0011013078541;-0,161032329127337;0,202153289747989;-2,32415704713731;0,721532961547884;0,563643973094324;0,204204671148939;0,153517888828821;1,49689356036396;-1,48852295340733;-0,283264329843671;0,224622408025968;-0,288771927495738;1,33579891559528;
-0,21508051621476;-0,0830170462056761;-0,578540627025885;0,505390949008593;0,232436635050891;-0,639130366775601;0,935214321828927;1,24964371220365;0,546493946223756;-0,257529058875313;-0,427159909783169;0,305209167231078;-1,74860265553396;-1,50541151571582;0,517239228298241;-0,57620618961273;
-0,725330623018393;1,13137536650745;0,104310163720846;0,934536398467123;-0,78341078454771;-1,91871948380011;0,135305517090742;-0,655186407847658;-0,934060975812753;-1,572341563293;-2,202545397027;0,392390891887266;-0,307584042520783;0,459567027335996;-0,112160265434203;-1,04485187910557;
-0,655288064415541;-1,82092932701926;0,432206451867657;-1,46146994538808;-0,533169529841939;-1,38346636662563;0,498000871583815;-0,709507359869375;-1,36650296070711;1,28272419039901;-0,0207306356245904;0,297895611740765;0,493917528520392;0,256946190531238;0,134357435055738;0,639254210188424;
0,205863944187813;-2,0764746217169;-1,35351683191391;0,773211051746576;-0,610628987281547;0,41066484619292;0,465196623680955;-0,0331982712719776;0,613561832797412;-0,652025883309077;1,08682866116686;-0,711593359934356;0,133486700785293;-0,613468769897496;0,911696277033266;1,3434118832621;
-1,62365924145102;0,72092117190209;0,446178970423563;-0,963138366102277;2,94518580453126;0,13140346728879;0,241415503407607;-0,934676712166549;0,341431956205966;-0,180614632237972;-0,657722144538036;-0,477262495627618;0,193425801135763;0,591858764430065;-0,192761639294704;-0,0304961400241003;
-0,0874728207660394;-0,554170891978294;1,50811735970453;0,967778631746838;0,683636400207409;0,636737812576578;1,57466133388968;-0,547629579869686;0,506193366134107;-0,948002665773973;-0,478190071720476;0,834213523131335;-1,59964544540739;-0,438274559978233;-0,414195567949285;0,401738523461577;
-0,13062551104737;-0,12652357147936;0,877662870627816;0,946378557207686;-1,02820292867539;-0,172435494782005;-0,537846129624983;-0,00630454186841;0,264098596997533;-2,44646238960302;-0,177976558087834;-0,679420087999472;0,231275103034396;0,490303144801547;-0,370946876671955;-0,660714140322894;
-1,24706820213152;1,02323963916493;-0,0227567422672846;1,38349472721249;-0,983128133377031;-2,87649240538826;0,606837002925177;-0,263353784992412;0,159592874437793;0,87179479265521;-0,25530085336377;-1,55006203907451;0,591215688828867;0,635315479381258;0,136038741828176;-0,727872725527786;
0,201341631245957;1,90862410208194;0,228563179657298;-1,23670836356325;-0,7993303986192;0,0759523361058177;-0,268777461969284;-1,76307301279548;-0,0643269651236787;-1,89642961638513;-0,441242580983029;-0,299290562223019;-1,23762768355468;0,486871663662561;1,59369564998888;-0,414116078547652;
1,4378939135914;-0,518258903077738;-2,24928871302297;-0,0535062381646427;-0,561838039230894;1,07519513806917;0,934109901089187;-0,224943633232048;0,14637398704843;-1,04767085264436;-0,191766552174835;1,01395895357901;-0,201072203345903;0,410851949422807;-0,620312658430198;-0,0533659140321032;
-2,22936506451707;-0,232982391816401;-0,311817044019061;0,433305443976118;1,05286938788038;0,171690086192579;-2,16639316182235;0,24758255627104;0,17170912571895;1,37376820050005;0,152443390831755;0,797973890907449;0,0777899186851122;-0,151609631323684;0,244310570758914;-0,520881661165207;
0,369766390443956;-0,32456801934914;1,31938021952408;0,74760780770535;1,19908858339462;-1,82540474025146;-0,714626954644452;-1,13008423469205;-1,05800951041638;0,900358941689875;0,419650868012276;-0,419701558887439;-0,258508432101388;-0,557889583789557;1,53681106110845;0,553330828235277;
-0,333085910170608;-0,285717485101904;-0,170160877928765;-0,789839449790534;-0,160035053974371;-0,650663152445359;-0,088441403945554;0,326774584273099;-2,22919798958464;0,293226819538001;0,031032980128573;-1,45394014695748;1,20310144140214;-2,92248983204839;-0,413849184022368;1,62979939683405;
2,01069512398664;1,33147492174317;0,560646113198316;-0,917120733926837;0,760559129709021;-1,07370910219722;-0,944527585823068;-0,164268994465111;-0,481980983558028;0,790196377207269;-0,419333953536145;0,246270334355403;-0,321436162004039;1,05100293895153;-0,0294422179592073;-1,49325842803766;
-0,200116920454636;-0,737382439043253;0,0105867305847629;-1,32574255520455;0,882690722525933;-1,91797048379882;-1,70078670084835;-2,11906792691011;0,253361925807011;0,816279689836012;-0,901869950689121;0,929555245839674;0,839997533582251;0,76936215306777;0,146705672792572;0,246835858921022;
0,880127132601395;0,239043232736275;3,22240480350891;-0,515772714552444;-1,57445329352468;-0,480374764358375;0,44240588906723;-0,372343702275297;-1,24365387811389;-0,109462690550046;0,056256295219255;-1,11669454656755;-1,14657545178041;-1,16928677431181;1,18685612915324;0,148915950705257;
0,512493321885873;-1,22441290416196;-0,00409356379558487;-0,2042641206466;-0,474861020865491;-0,30754759919902;2,78309438839227;1,40506858547781;-1,21335624769245;0,684100798606454;-1,93527351434144;1,32175705268267;0,220187661569596;0,876202339162536;0,140043752250877;-0,40480228040839;
1,57873324080856;-2,02961936532037;0,0898246031273062;0,624417141911583;-0,0989229609634958;1,65100721883101;-1,40754978622624;0,656805599258579;1,15646360243497;-0,931531270168815;-0,839015025783941;0,472779488151398;0,0560294694033206;-0,439068866114929;0,819242916343643;1,31918732248795;
-0,66342858297293;-0,759496419102205;-0,764506243531151;1,29906474340582;1,05154644754702;1,38995481760752;0,658390341546708;0,638128895855213;0,85602138811486;0,155763157594544;0,128165171908632;0,885533652398944;0,649420929855456;-0,605154349304072;1,51365047083034;-1,79750439428138;
-0,648475708913915;1,08581186572229;1,35217826129853;-1,67422022385168;0,434747960891043;1,09191252481979;1,06501288282978;-1,21197118294794;-0,527671087576097;-0,317694740307204;-1,1413233165762;0,839935215693851;1,04074525973528;0,63504495334487;-0,716229379615721;1,92081687526831;
0,845665871870323;-1,27250806543469;-0,430733109489084;0,527029010348593;0,147411413813226;-1,10141935562911;0,0657732709877872;-0,614010533555036;0,484670000962953;0,410488943211175;0,21424831119025;0,847289216077955;1,18280324039675;0,553029849712054;-0,211724580517295;1,97879199023669;
1,41605427633228;1,23096429311542;-0,230735522787098;-1,23399246150784;2,07893995596452;-0,00728874583886287;-1,42704665594122;0,191794525192194;-1,31303705754478;-0,923398802232391;-0,636288388115194;-0,0582431823402883;1,53913620877981;0,664453356454061;-1,18527582162645;0,833593583006147;
0,458954138401396;-1,02746041494142;-0,68054549614083;-0,272915652996574;0,114607005795454;-1,59234900149459;-0,878554075899788;-0,50689582473446;0,888217670021311;-0,680690168741665;0,200997192221173;1,11526804074561;0,441489204679861;-0,59218596688039;-1,92458140067625;0,0446158036561393;
0,752959448156758;-0,636135129803871;-2,33932029911407;-0,718615338755997;-2,50366215061971;-0,695800269687902;-0,343776578352172;-1,01335486888535;-1,39017003472053;-0,556677812725078;-0,622773321163073;0,195988458910772;0,562050271286594;-0,0380739367835373;0,307969868747572;0,34391455916537;
-1,38293173818058;0,432948733596781;-0,231606626921487;-0,648736971207946;0,75235243525907;-0,684507981208114;-0,84280262198543;0,741471338683984;0,64625343845172;1,15199335480313;-2,09307322899324;-0,194577820016587;1,43888592534056;-2,42952366898247;0,394121291756447;-0,374130793803033;
-0,600414333142981;-0,211616157793612;0,912756129770401;0,6538514540677;-1,32749900917207;-1,473945202369;1,92826960757925;0,531439899252254;-0,0314581000708939;-0,689836632861083;0,257210953971647;0,566422833135186;-0,965133070761587;-0,43140558843637;-0,275266567899443;0,136763086536365;
-1,18034378546482;0,00886953844965553;-1,40717118863812;0,0481685925048291;-0,0403942449454813;1,43266465823831;-0,0353579525365248;0,329695155255433;-0,557127123766573;0,977035102445389;0,867367498642528;1,37035816684399;-0,297637172875718;-0,252175222227088;-1,15601285267961;1,22273607813044;
-0,328634163099716;1,27363306549379;-1,96833681679782;-0,400828056538244;0,649460684314084;-1,89206588318386;-0,90626866895503;0,0353470258874365;-2,84662350962762;0,289290367148126;-0,377117830963797;0,273293073847247;-0,633388571837295;1,00738104175543;-0,00960125579724971;-1,82330899075918;
-0,66516969335637;-1,65060363623984;-0,940049294579329;-2,22669727105525;1,90203492474723;0,905255298705018;0,120809984141068;-2,03245770497385;-0,677188851315402;-0,760684928035746;0,702641057924113;0,728467610614239;0,340808316331404;0,000156360594993528;0,71982203123674;-1,730960531696;
0,125043224692795;1,51786460941861;0,719166373368574;1,38382836424114;-0,0612832565029755;0,403722139734648;-0,253811114825199;1,63908506518277;-0,859539392447469;-1,52969430477822;0,479814913610591;1,87131799510822;-1,08514203004103;0,00119657908026161;-0,713795530970356;-1,24993753721349;
-1,97048330993979;0,565691566851764;-1,60229969277259;-1,11015267722712;0,364699430922456;0,587137261457684;0,972472848662411;0,951569862085141;0,481536946406981;-0,109532126947242;1,18357886325746;-1,11749431015016;-0,229483258890137;-1,94375194533249;-1,07349417029552;0,0885498987269325;
2,08870035960597;1,58499074242867;-0,742362811756513;-0,252813695779111;0,74320294092021;-1,30682723392533;0,699630269819363;-0,651954068902781;-1,0831320784596;0,209350482600156;-1,02196485402311;-0,990148467402962;1,33567765785656;2,02746149118601;0,93776372158039;-0,992528751739796;
-0,0773065369961607;0,247750708505826;1,87399149205014;0,814115654111404;1,60150825799587;-1,94518400173994;-1,22769635916333;1,5290569818016;1,56178918702352;-1,25167367545066;-0,698262176855308;0,984778807898628;0,105827268648402;0,258238787194457;-0,762790579883331;2,02447285963523;
0,0653048468035224;0,699437306110147;1,32504850395792;0,738248684137997;-0,116635407029377;0,657515213224112;-0,81326726767629;-1,03774099984225;-2,2193477188983;2,29592069267507;-0,804516507763236;-0,385702957710772;-0,771869454593669;-0,672736700767157;-0,415168368843613;-0,807723376379322;
-1,49525079077207;-0,28637726917979;-1,20894044434116;-1,21114355948194;-0,362612770843763;-1,52172648664967;1,52133786303424;-0,70889875003657;0,22583229212978;-1,07371970633465;-0,91809826263891;-1,4110340172364;-2,16585309400766;-0,00870443902285266;0,340274697786408;0,118908616638079;
1,76932796431834;-1,75701424898423;-0,44125192657651;1,10029788875692;0,645142763731442;0,339388624039056;-0,896673117085322;1,02536731606852;0,00170165762676583;0,598471953102859;-0,327089059119579;0,223073340536888;0,664897566307836;0,556016417555766;-0,185363598440357;0,0553663481393881;
-0,102289065491343;0,096748246087708;0,106486565960444;0,572617777477462;0,704928966546979;-0,258798657149206;0,177352193626291;1,55224243278861;-0,264442353679616;-0,76327545873626;-1,04818268830642;-0,205542283522574;-1,64216973787758;-2,07503327053168;0,721990079755369;0,166193235109613;
0,444678982941988;-1,91052532535629;1,81133933987658;-1,3416614365686;-0,0375782907622867;0,948099450860767;0,602667617193876;0,547942273289032;0,318234990100784;0,139688586703063;-0,0637539624886807;1,14680678015499;1,12295464395844;0,522217646512741;0,0526816014806451;-2,13146807445637;
2,76239077292327;-0,882765463308644;-0,0312340428543094;0,92869492161448;-1,2191608034835;-0,872570458513462;0,68111148363135;-1,80289230975344;-1,14015928167796;-0,535451911084498;-2,01609248106751;2,36126386521773;0,350024129548008;-0,309472278351959;1,09017904710361;0,531618191972741;
-1,09641681626548;1,27247751067835;-0,631942107467449;0,667905592091213;-1,99720170778398;0,839011914563609;2,18891163883246;-1,02210211947603;0,117579510776166;0,75154849573303;1,58735685765079;1,04557533607696;1,84592476575561;0,132807144403925;0,239895985961099;-0,711325799344397;
1,90294876425392;-1,02233189940839;0,207429798045241;-0,262523886026484;0,523065785215219;0,84788614294502;-0,509442106407664;-0,743095610357802;-1,25562399992638;-0,0950638111259325;-0,023189173889528;0,0907214046863503;1,48892216315375;-0,173351380678856;1,34522814915607;-1,24953202737381;
0,763342619795228;-0,025813117945699;-0,681158377207865;-0,484390003306511;0,205277971514295;-2,82318955241796;0,874108298955795;0,622092609357521;-1,20307579577892;0,949514449750849;0,434003726718675;-0,750974145009509;1,03036155514152;-0,390773601279131;0,0456356494495311;-0,564772034366754;
-0,0695039819236321;0,395763521580249;0,0440409952639307;-1,8685545572086;1,97476244469511;-0,0171447418775083;1,19189374467326;-1,26225874538313;-1,4415505768961;-0,795624327041951;0,686438019023554;1,20439036184477;1,31572639405365;0,64439458278804;-0,170773135941128;-0,306403557942347;
0,689327245664998;-0,78179091648892;-1,61227805848326;-0,744767092659448;-0,811286446167586;1,41385982587658;-0,719665719634038;1,09683218609896;-0,0634896319167926;0,89703080043866;-1,87682689655585;-1,9704959269661;-1,24861140326563;-0,0390038231981614;-2,26114428913651;0,819179130024141;
-1,58582105701123;1,95124598854732;-0,867640057831234;-0,0786684040442855;-0,798645100431516;-1,14945081510031;1,57364371599849;0,888860579529698;1,36323932568474;0,192830457194259;-1,74262912741787;-0,454579104035857;0,00762898600608754;0,401091177104023;-0,631216673160345;-1,14945701627236;
-1,08141113391189;-0,444300338426757;-0,540629261381638;0,946290649228852;0,7671046535798;0,647964837140412;0,746198108441235;0,489436745014783;-1,79936279895183;-1,73650053178872;-1,48821807896678;-0,196909048754605;0,748866503532915;-0,186256408199735;0,910551202672497;-0,849244559411326;
0,654200607758298;0,808625557554777;-1,15351012477812;-0,824576563918834;0,48677001076891;0,642313414271704;0,0427907735383028;-0,617046252195461;1,29553527182378;0,275020590511667;-1,09685674025981;0,0442647579068688;0,361130745806571;0,43222011828775;0,313430712851864;2,64656527493168;
-0,851476197920188;0,643143716118384;0,963295956377135;0,721776877188815;-0,871257021704089;0,194535998052224;-1,33722773026109;-1,1730213577925;-0,916942362678892;0,7550572348643;-0,539496307508309;-0,972442905333845;0,301881646344451;0,82702960165686;-1,10930676700933;-1,54150201770262;
1,90648338472139;0,751426971648448;0,0381926120443179;0,914233345691287;-0,499228958942202;-0,542477003451531;0,601527556910118;-0,187972043012355;-0,116856207931909;-0,388956174174906;-0,0785203259742509;-1,20891882791973;0,77332470475439;1,3448510954167;-0,0113487282822239;-0,74207625161333;
1,48502132397591;-2,42339926605765;1,80984995634894;0,220117992641305;0,0388183591852709;-0,70617099591975;1,97772364180532;-0,495808495600116;0,462615371003682;1,87573240875923;-2,09547379982672;0,494423612871383;-0,090757792077365;-0,4898648658006;-0,915960549135866;1,5878219470254;
-0,0353605195000648;-0,414775356062834;-1,53152020679462;-0,633175186967217;-4,08774528168913;-0,803389817381236;-0,439135278442664;0,739380611893165;-1,40680916580804;-0,696031866302683;-0,244842211596614;-0,868907370428185;-0,640755588816068;0,483619598154891;0,543625700921264;-0,896799199030801;
0,45076086874381;1,15292068490138;0,804146364664674;0,763568188492742;0,129543501201911;1,13980022269175;-0,801629042294811;1,01790817535361;1,22674338557114;1,30384485697507;-0,0315928760999475;-0,686251356987534;-0,276694036274032;1,58618215015159;-0,263274832667972;-0,228123003880953;
-0,468513065039144;2,55675637281372;-0,198626983515556;0,718768800340169;0,732530575312488;-2,43272441872251;0,44616508138588;-0,941861909999467;-0,871578548811059;-0,238563617585935;-1,38009327278708;1,25698261570861;0,302759821245872;-1,00187782342773;0,0879407115038301;0,292038041486398;
-0,670747554402019;-0,172212265006286;0,56869569420163;-0,38035353378117;0,441067712092388;0,0168112623131418;-0,561352729024497;0,0738862436001494;-0,193302029683697;2,77295028119987;0,621536639047049;0,481279292529733;-0,925409473184373;-0,373931053112246;-0,270922317666419;1,74021100088688;
-0,309174517408476;1,16946803429189;0,785214241420701;0,158910472912726;0,304244147597744;1,54381025000212;0,547756596080156;-0,192751418907402;1,15431716046715;-0,099834281422822;0,0532512788786857;1,24794995326879;-1,3804366327746;1,11449337188318;0,0471322076084902;-0,340495291003284;
-1,723784730966;-0,0772900217194016;-0,853312003087955;-0,0632687468418007;-0,0584815759404217;-0,8418482528986;1,31640320245046;0,928014859657686;0,756634429602165;-1,25968819556079;-0,215633950866019;0,637516415635861;0,838562018426523;-0,135074320796262;-0,258537873116946;-1,03487555458168;
0,858712952971528;0,56082262087625;1,24530088300372;-0,130270016726859;0,766261011655996;0,0255451456487439;-1,07318232241872;-0,510691557390518;1,15329982503467;1,20002472833394;0,945366611943209;-0,052750044114781;-1,64706892125936;0,258484114797511;0,544901476236045;1,78095832072897;
-0,991246434885559;-0,799320725304919;1,20661235585821;1,40828074125531;-1,53970062331917;-0,335615577543056;0,425771457262721;-0,432896921116786;1,30562731624816;0,0301342607783583;2,14191194917652;-0,213995031277035;-0,318874703699735;0,300985166783704;-0,518187845513736;-0,0815110795888675;
0,264428836347783;-1,00731535855975;-0,378249550664294;-0,873510487957414;0,142258299442382;-2,35725216672064;-0,784509785376845;-0,733084242440576;-0,49606691315606;-2,02304343759802;-0,861389962032736;1,78985080104106;0,0331372014001789;-1,92523070085397;-1,08633685870686;-0,427470522991407;
-0,698324739828099;1,30320363861796;-0,425008449802713;0,640099732351002;-1,01625359874722;0,0522559836484829;1,43667407844736;1,21705352847284;-0,033956808805949;-0,40524314921671;0,593221681657358;1,39831599089715;1,72164612557784;-0,339227448570956;-0,223458235759544;1,5432987627232;
1,09430331020535;0,495754197757136;0,985812785161027;0,107548803287888;-1,66382770190289;-1,07294593166485;1,80894240190818;1,56261991603047;-0,975307329895808;-0,267429594036789;0,855537669066106;-0,372402775036043;-1,32560519521289;-0,703832472145697;-0,0584863255627134;-1,06975094146803;
1,18827598233903;-0,647532878315165;0,893631850401266;-0,633717356608859;-3,38755545992234;-1,5621613550809;0,0838722351734805;0,267431032257574;-0,78852353487224;-0,138929363935008;-1,92050154686086;-0,746095100855553;-1,73926222474714;-0,475964430495542;1,02251294065037;1,22755973777871;
0,690922930012218;-1,01956779446654;1,19658919386808;-0,409924249731312;1,2508775902007;-1,03356369065897;1,05129840929589;-0,180568411160248;0,573774970309231;1,1193301834087;0,117440244494768;-1,10181940155364;-0,23041011693308;-0,424330809455406;-1,27042280295633;-0,56141151748149;
0,25860422468003;-0,399872284690775;0,340623470789952;-0,745025197746046;-0,447352075097518;-0,0988731685675981;-1,45188176218076;-0,661873988336399;0,451785410111016;-0,218322027328089;1,59990497346474;-0,527325582690721;-0,413802454786099;0,848201254868733;-0,688631264214348;-0,163917656343685;
-0,129403078563183;0,224093874201372;0,157526893702261;-0,353145877048884;-0,121858681126921;-1,1965731861637;-0,10529377984911;-1,06542146717834;-1,87976072678321;1,81971892070038;-0,236428219149501;1,05930217672472;-1,85211032253861;0,80615740909886;2,58397034853113;1,3320536467311;
1,2829843633419;1,41336897262208;-1,39464943343377;0,514732777931942;1,54784870030204;-0,265321671675;0,677869253442059;0,278034382971001;1,14061386763582;0,235653191856439;0,925517249211827;0,392416584482519;1,23521834703634;0,522062038798159;-0,632606233476982;0,899022802390708;
0,829258345158177;-0,916295623015125;1,52527255105181;0,732841666234232;-0,313218153014741;-0,0673684943967783;0,0265843707954834;0,244938432754302;0,670032268515455;-0,329180123777397;0,0924134226256308;-1,1373997455204;1,18902878792936;0,391017172283216;-0,336007360557387;-0,443577356027704;
0,167833460079574;2,21455669325172;1,00055745783393;-0,984693696184344;-0,247130945586143;-2,02985126484262;0,0194145961772796;0,210956660224497;-0,710927810634432;-0,272848487924258;-0,302354349860024;0,831873150613023;-0,335269340937221;-0,510473707002906;0,874286684964147;1,12538002462384;
0,630181888726479;0,475785415023907;0,361535521492342;-0,839586717422153;0,103133037013777;0,506548554687757;-0,331672776652819;0,102337391203396;1,21948522799008;0,542648261833879;-0,0262415964818219;-0,642349633761173;-0,847948204908075;-0,66844575393989;0,501652319622581;-0,968684638362937;
-1,30633714322382;-0,80728920433059;-1,60946145540511;0,737515035598998;-1,59461489520251;-1,24696353424971;1,66205248825929;0,447111999804705;-1,2083895842695;1,11611565932541;0,0801591780084663;1,866892308404;0,462924135629699;1,09927384925703;-0,0250524764777735;-0,58879557306032;
0,429097892107313;0,487111634107818;-0,228332438594145;-1,39787691737275;-0,0719611790461523;0,322834221201059;0,242620016049232;0,763938239556633;1,57043864359137;1,13722916144782;0,290363628753901;-0,577749539679601;0,164428991101323;0,429665339736421;2,04270543065294;1,27049673036916;
-1,78323450700164;1,84800130114175;0,945182628347627;-0,396915825093172;-1,3088027563758;-0,103672765718879;-0,80092059523262;-0,386449179637371;0,984038811738208;-2,51878724601332;-0,468165013402729;-1,35266665923548;-0,955764423538573;0,812125646686514;1,47699690900779;0,0325029337932297;
-0,139153375602837;-0,517326178198779;0,174716635150118;-0,374873940344473;0,785425665462798;-0,27646795565128;-0,882124896096275;0,728401541358582;-1,48880431872302;-0,423793282360565;-1,51410601368417;1,1174585508728;0,309890867016042;-0,666586857875083;0,250511067901916;0,525814561414385;
-0,109507995850975;0,929347564015963;-1,25618348810132;0,620629312733212;1,05145294511288;-0,301354712294629;3,33974577927457;-2,37323319598262;0,915866689901052;-0,996733694249855;-0,664496110148272;-1,76822703772775;0,813826197353702;0,0546323463048117;0,823536064000576;0,0801773046306043;
-0,490157474826074;-0,246650952057637;1,1555758275893;0,452348984400804;1,48608017220892;0,831647471604266;-0,567606253456209;1,46305021429027;-0,514355810609767;-2,22909489129616;1,21114674735846;1,25673631131688;-0,623725441305889;2,67870903363389;1,13223200046743;0,828819541145138;
0,251156185153656;0,774801067159955;0,232257847698845;-0,0298773594455929;-1,15011922615789;0,67325091816611;0,531506828402358;0,286581112739997;0,789290486398842;-2,21107439895951;1,88041825842513;0,590213406891205;-0,217390016575065;-0,182399398660903;-1,40464712246446;-0,0611017815394143;
-0,0229333054864486;0,20832584904602;-0,594054742912468;-0,159192547989509;-0,244557303864538;1,86280278160654;-0,601725023716526;-1,67350235248144;-0,53470976946613;1,01707114045494;-2,0941295518872;-0,0972534140940563;-2,31885290393419;-1,76719785472855;0,0873037661708337;-0,915266127601831;
-0,629636936347394;-0,688629452851975;-0,556849988705054;-0,55573102651113;1,27543712751398;-1,08251613606088;1,71597700240371;0,352894394009864;0,461302346985301;0,149713363771748;-1,67170545728566;0,622042943307657;0,0351488872387955;-1,43056709913171;0,524803569864224;1,26653896553237;
1,98075634698087;-1,03732784688752;-0,982006966065954;0,892516174617397;-0,550655330711788;-0,279775521299761;1,45082635634724;-0,232835110430825;-0,54680993554385;-0,847876960334991;-0,626008069244624;-0,228307920076254;0,334746715045562;1,35194596945924;0,211698102238714;2,03051861208358;
0,0274534130004802;-1,1003575480101;0,373666168339354;-0,377945686099526;-0,391156051903958;0,0903202588843042;-0,131935056215363;0,135576928270352;1,39714901192479;-0,100558116122716;-0,668816768421352;1,87374200403786;-0,182221372756472;0,203709004311126;-0,498111360885644;-0,124011126784514;
-0,953633784013071;2,87111571004476;0,327847240084311;-1,60602438663122;-0,172283920807599;-1,55471366158469;1,59988995546139;-0,0188549905705375;-2,02583522862535;-0,266334875251202;1,87523742097129;0,996442145768678;0,416000739943255;1,25049986057471;0,287817154169557;-0,212960749005298;
-0,733244768330628;0,438872559050044;-0,465420057717184;0,405758873102867;1,96641907636224;-0,159581971242647;0,653113904608648;0,420920362155778;-0,210459992235123;-0,904987213984398;0,684952723221931;0,278499161542976;-2,10371200858203;0,418329123829578;0,440401632566643;0,161087256448029;
0,086809477521726;1,22099745921009;-1,31229413881625;0,872965525778644;-1,09135657920543;-0,599331113251146;-1,05675046057897;0,0816140896714123;-0,396937846320795;0,8105393701155;0,721604770788113;0,927285613899767;0,495259696635856;1,54490746278636;0,403784556732269;-0,208666183933406;
-0,0901887108814149;-0,462454282342783;-0,145988757785476;-0,258898737513436;-0,479725267315485;-0,906392206173336;-0,96669833551169;1,47205234237072;-0,239026830104877;-1,83595116664826;-0,127063370605756;-1,24212388015641;-1,48349066807708;-1,02496069552171;-0,429590082948545;1,87382202747583;
-0,895498491530016;-1,17428768373939;0,416711140702507;-0,968620880536523;-2,91370263262968;0,952078410022222;0,896302745320453;2,52262862571238;-0,00295442633155909;1,17670627659332;2,39493366865029;0,126576528560007;-1,11575011864636;-0,392340726229561;0,44224119639693;-0,638631113417405;
0,25468019847388;-1,43740520982798;-0,849985420595014;-2,63709163791653;0,474889604601194;-0,450444881739791;-1,3512051255581;-0,494346683013664;-0,166138458130403;0,0411611206912485;-0,992779022907362;1,61794010601173;1,38551197370898;1,3588106694448;-0,863408608769851;-0,194695120762148;
1,16881743483686;-0,222593747532089;0,748544625536274;-0,14223404281757;-0,170174206680778;-0,574377350216389;-0,712024540107014;0,374876371583847;-1,02542413589323;0,480510540937272;-0,993896694949781;-1,05696567771289;-1,60934867870497;1,58688683621101;-1,62537971581618;1,18919801749013;
-0,686638423632455;-0,767049643911823;-0,0187426731603014;0,923088118083653;1,55959902850612;-0,375691370544259;1,68212646017451;-0,547138918408431;-0,224702290460119;-0,506968348982401;0,652866438791945;0,274414837985305;-0,0667628921529062;-0,0776583240982096;0,389371858003954;1,60148076072457;
0,538071139530275;-0,484583080169139;-1,38317657913625;-0,748240088232083;-0,073574466945991;1,73002324913038;0,754408926963505;-0,0948473498199592;-0,118330944380646;0,774321233156056;0,0484351352087039;1,00588887701149;0,450616064407433;0,473997547808842;0,48380877011665;-2,00294573408359;
0,356786962968926;-0,945397240880443;0,55138511986674;-0,742048650975995;-0,332385677460069;0,448668133924122;-0,194364344262924;-1,12119664437526;-1,68117063409008;-0,565464453139943;-0,155278324279675;-1,24972803558922;2,33972570741288;0,540572111711342;0,00493301950463791;-1,62336546116592;
1,17359976675653;0,68676938078731;-0,545002578811231;-1,30398880761453;0,201551338694683;-0,296405693006843;0,893436874302514;-0,5759634003409;0,285529798446301;1,46084476089201;-0,184576878163636;-0,577754959706262;-0,249717355319825;-0,205101796269641;-0,0451100931740461;-0,829779147651508;
-0,151626318495892;0,11258144722859;0,257161522332032;0,514715211671633;-0,0782425095490365;-0,763749710319991;0,972929085809823;-1,83634468120893;-0,477446555599671;-1,98648178201222;0,00948442006620824;-0,290501362362672;1,68333470578608;0,070584546948248;-1,17296747001299;0,853031436399638;
-0,499959403379014;-1,95327920006088;-0,836223437036088;-0,584925443574685;-1,09764783167893;-0,306309880393647;0,449538646179644;-0,513278632929455;-0,223960673056737;0,904963484977659;-0,344152547565217;-0,720719961128761;-0,81002228634712;0,390280073189683;-0,357823561058122;-0,289766763975001;
1,11000562490574;0,822292708995277;0,308504173183031;-1,44959533893309;1,7370919989465;1,83302811260276;-1,20521304423718;-1,44182269178877;-0,048221232419178;1,09821298686977;1,0637889817485;0,0823004345997362;1,65858385667802;-0,342354138757344;2,26516051295512;-0,10736110606937;
-0,501735214911317;0,174816801131692;1,90868500325944;1,13422097636402;0,171671150023884;1,49969244234739;0,139491184897632;-1,14578737066037;-0,595058147642242;0,551667506334945;0,770032300995913;1,13140108853302;-1,16758082780907;-0,494432401777668;1,1475702699746;-0,905771562646109;
0,362621407543629;-0,381047586844627;-0,781718241913056;0,313672830425558;1,84785393066423;0,506559983589942;-0,151578981959524;-0,830897448753548;0,322754190554999;0,940419714236789;-0,240993842231513;1,18798801601595;-0,110591900736704;0,138558519348512;0,12215326120582;-0,665435611507563;
0,141752500033265;1,95009312526244;0,254636968959192;-1,075416996181;0,502206027369538;1,26242914533924;0,396373953352052;-0,531287671859805;0,579992170105055;2,80673716008209;0,225732564627046;-0,123173479314595;0,623301419076608;-0,442694485257741;0,53401161364026;-1,19572160911863;
-0,96547330511069;0,6253891728221;0,721434403536956;0,0752390245604261;-0,0764704469705994;-0,210590733143708;1,37190820166563;-0,981899674360525;0,191179587508597;-0,242292681379107;-0,49650548046441;0,175169915287363;-0,0536077885759541;1,88719282578754;-0,683664293888135;-1,70388540453914;
0,357795226537432;0,642962157891287;-1,49093038738356;-0,96441836555506;-0,125513799979266;1,52107277795351;1,08946962479339;-0,341228847436632;0,319082455767872;-0,30674398690643;-1,01264006584867;-0,299977689703702;-0,815689721373325;-0,108893574187777;-1,27920137629183;0,49549284720714;
1,46644563932731;-1,20442816738201;0,176879663789868;-0,889185835316453;-0,877174518068996;-1,57766243107699;-1,42344635959223;0,349013371995969;1,61178220158942;-0,459706360047343;-0,51187582933952;-0,813369611915017;-2,66598769000367;0,462966620221912;-0,275978286108667;-0,173469606063108;
-0,645362153555771;0,587476128810922;0,121422134402711;0,832974867205284;0,201056122242643;0,534914477472852;-0,359260883244066;-0,385269913264763;-0,522496223371254;0,3108874011587;1,1272021889039;-0,953905316546643;-0,231892788064049;-0,272298268101997;0,439865098124474;-1,15012564168019;
-1,18045511540406;0,274646723537329;-0,333347924722676;-1,41942327942628;-0,164560190053925;-0,367054711623028;1,08213247790859;0,21798337647128;0,64370028296766;0,94115532049529;0,437853273892366;1,91113656013233;1,23992554046537;0,322008312505435;0,0816607365538766;-0,847092574735166;
2,15669655032412;1,43280710972646;1,01046719587871;2,84317758228091;-0,79292933476316;-0,463540214384575;-0,677422222534022;1,3683102752341;0,265529109563241;-0,350925305086031;-1,19947720238735;-1,39244942488207;-0,962540296162831;-1,664799542167;-0,181832546218047;1,53276665953491;
0,817543444268704;0,687229466438894;-0,239342059612804;-1,77248008222636;0,550415242564991;-0,133921218910276;0,488973538730005;2,31969130564479;0,280743106759364;0,337404552613992;-0,932843297919893;1,85364911301065;1,97739428002837;-0,757126481104348;0,38963109682473;0,464301650650417;
-0,184898645934838;0,102117251370489;-1,46151402092378;-0,860621868350469;-0,227793885826432;0,023879848731697;0,168408632844509;0,475602267830189;-0,490475732532753;-0,390511548237052;1,98064730542031;-0,281679521333455;0,61304051263017;-1,26565854532036;1,13946155093016;0,184036100598215;
1,11833726276699;0,90409949591533;-0,0487175041265144;1,47858464139476;-0,169798798815772;-0,737942372819979;0,955421507071673;-0,280326636521796;0,68269335649638;0,114691321969135;-0,758237990789246;0,333000086846554;-0,458407322651135;-0,498057843699049;-1,10969123298817;0,282376117547248;
-0,0745928524812266;-0,315944584522316;-0,692356698237231;-1,03945927929606;-0,652301161807239;0,819973683220507;0,308823964082867;0,0195382401833823;1,66333779429971;-1,86145880521753;-0,349570257164696;-0,353389357832833;-2,13043886757883;-0,402159908991551;1,9964141983343;1,02291564875009;
-0,917945165758929;-0,592927764565098;-1,24843304576874;-1,80286394410732;0,328020334948044;-1,1807777287901;0,368459911351341;0,385318028356585;-0,852000384147847;0,973931267605506;-0,601865690857717;0,278868013042325;2,14538088544008;-0,491381804625934;-0,0926545699406464;-0,213924695023608;
0,55956984768017;-0,0532279617555172;-1,31577488145928;-0,118682500759838;1,45297998775615;0,0677888602867237;0,80744811566501;-0,711757343076755;-0,187581114472192;2,28750952569062;0,762220197375936;0,902158250858522;-1,55851020703163;1,02463774237882;2,03777350715538;-0,423608238555143;
-1,18303092432987;0,252732584330188;-0,33269825489367;-0,581914313116904;0,968719568272625;2,05953372595275;0,189486519040128;-1,50652725174632;-1,23770833186215;0,137773114729598;0,329697586319727;-0,452136539111384;-0,532864456690617;-0,481014486994085;0,968542954309876;-1,04662947664401;
0,813101210471773;0,0263487475544656;0,642681098711296;-0,209233071564583;0,684729572800053;-0,911491256009533;0,942039897683694;-0,114907594616916;-1,45681482068981;0,409152310903306;-0,494130606369517;0,140602713293131;-0,507656870313123;-0,251887029233251;0,963942696310869;-0,999737455629839;
0,8448395027144;-0,773144312011592;2,16904716187628;0,260837069090084;0,304519453472535;-0,45253129404148;1,30289506328751;0,480390521342377;-0,943378974686258;0,618988734879887;-0,0265646693599031;-0,291073306950093;-0,877722886410833;1,49788832122229;0,519617238781768;-0,433346458599091;
0,62206837948297;-0,0321962556590566;-0,442084885215048;0,0224737413121735;-0,212861401310086;1,51115285419022;0,16905341414433;0,0755962707309433;2,32185966672814;1,48841221982057;0,621514143787205;-1,71570488271909;-0,895542263042423;0,799216931381591;-2,19786689771761;0,00535512269225592;
-1,02111444085407;0,564928444261086;-0,675283368611487;-0,734060916357003;0,0269705641740305;0,460799281414379;0,769494739421938;-0,163076810930942;-1,82179820781633;1,44350464165795;-0,59256082593348;-2,18871429560517;2,6418112444716;-0,596658576620372;-0,304296685026587;0,0965591436405917;
0,307948534102051;0,719002474974495;-0,581115683205897;0,588963121975803;-0,519451966439888;1,28882687249872;0,787073192442441;2,36070613176171;-0,596991050539357;0,205982285332023;0,851833713544364;0,669805678428363;0,208092613808173;1,86682257966777;-1,56131052088635;0,77662915915722;
-0,190605095750588;1,52736832782676;-0,745110120683384;-0,952879081888092;-0,621884665644496;0,47516052690739;-0,39196795527149;-1,26644209100647;-0,114377626201853;1,23496496281619;-0,433174847279648;-1,39220151561315;-1,77168922176589;-0,63806071141543;-1,17670592340999;-1,67992680807441;
-0,172231718776258;0,0423848457966528;-0,0838785203464861;-1,71875195683592;0,576517186742499;0,311726999959516;-0,622642270058333;-0,223546257935345;0,483905289048067;1,82664604803346;-0,675011835437544;-0,564698508413791;0,921184171264982;-0,455914680759734;-0,519870880551876;0,18967105055635;
1,2060888967119;-0,410685062475384;1,24127116576751;0,0768027209080296;0,472114543415582;0,803769007767533;0,119814339010019;1,35119402112;0,711235594734776;0,878698834381499;-0,517093644187738;2,26865006285209;-1,04375771544273;-0,283377525468587;-0,591871744488057;0,78885891705573;
-0,931703128559735;0,80151783356332;0,754243575365334;-1,06958418981102;-1,36106736491338;1,23195281009184;0,7747842352153;-0,26575379063566;0,372119514849209;0,385248802963229;-0,226235946814758;-0,117531504271064;1,91797392039197;-2,12492590333639;1,37420870387108;2,3552773682894;
1,27824662229153;1,29247999745299;0,839656560801008;0,687804875246203;-0,237787646397713;-0,485805919608677;-1,13593252139013;1,27070198428479;-0,192317429984901;0,642199819226828;-0,714793229327087;1,35263112798146;1,17538739798136;2,74905010603207;-1,06861974077085;0,435509300676211;
0,562584157720182;-1,88713976345489;-0,0797685752554676;-1,60408850230132;0,417183324932461;-0,0465523841248895;-2,28993287384515;0,0635081173864248;-1,37623067081782;0,260150181000948;-0,545057449811803;0,239831681870999;-1,65470077302141;-0,889175375226421;1,17371228769299;-1,66089094978292;
-1,00316175589664;0,954607473606681;0,930185426000145;1,16356281547139;-0,662667258359898;2,10805730466945;1,59154233167771;0,455608961284055;-1,54696354768567;-1,90628693696228;0,0401879290343119;0,136054547962355;-0,863337055195033;1,05096860919985;-0,85280494123773;-0,305741899403337;
-1,29292314448071;1,2531766537359;-0,567697784466655;-0,126987892502376;-1,8872564350375;0,538732101529322;1,02648925598991;0,954712704605402;-1,20772216017063;-0,557751156679105;1,41609750677076;-0,0692038147283069;0,908378178810614;-0,0921655848592967;0,92390504831755;0,318161280447814;
1,5907131917102;0,381767089410091;0,668048205701433;-0,0392053445458493;0,41765174366261;1,07741629354539;1,18028373418803;0,969439572588261;0,567914240764896;0,267008481652896;0,626609546761728;0,493621127067816;-0,41860481991941;0,748999857720071;-0,758355649586186;-0,797148017006011;
0,387657906099672;0,865251266900625;0,114524251838091;1,29729054928384;-0,0848188732403889;0,538032275663333;-0,656292647354586;1,56653362647393;0,122673191420093;0,828792966727326;-0,161903900500944;0,312489908549128;-1,25207689116471;-0,998832187670048;-0,79892252589972;0,394790861494199;
-0,412717289238493;0,169200197144899;-0,108903803563313;2,57693143175964;-1,80603968780045;0,752880639787651;-0,669602092270115;0,229151921057437;0,647827966621879;0,958995709535408;1,42721556094407;1,16092125130938;-0,0430859317683848;-0,744856211273139;-0,93198405578271;0,730263276764334;
-1,14495304141756;1,4620161797251;0,813319284986005;-1,7514147326757;0,611171355553225;-1,71886628072846;-0,0304639102280581;-0,676130687289313;-0,408444584209596;2,54120369101278;-0,0151138897969728;-3,0828313289077;1,57271326635499;0,701439201554159;0,0116831291586175;0,382015773263105;
0,562781803187014;-0,384866026185157;0,951014906472776;-0,814952076071941;-1,19461284331718;-0,541724497601295;-0,385908156718023;1,37640014472377;1,26034613912591;-1,72983008230077;-0,57524569289129;-1,43151015162647;-0,417606209708222;2,20978168471131;0,333671438112135;-0,228994935328274;
-0,982958137039024;-0,292860123275466;-0,800191552367848;0,67003545554529;0,457992712132582;1,17369565267463;0,72516116784082;0,337558240774571;0,378183655476861;-0,519066443455588;-0,304477909435665;0,717702878190862;0,0715901889000887;-1,97994777780121;0,471016324367923;0,616660050281877;
-1,38793772579133;1,47996779496993;-0,446665258912007;1,17202979609787;-0,843761682789337;0,0425179822900151;1,04453184184968;0,166159925259701;-0,588904748262419;-0,0785275902577891;-0,791352932771863;-0,799991777625515;-2,51567764596356;-0,795860403121879;-0,534177246218486;0,790034366767406;
-0,162002640300547;-0,355143746022001;-1,48779700580613;0,889016710642224;0,258279725470139;-1,65616796215347;0,0413315535519538;-0,793888893029753;-1,20146880611831;0,217565090253428;1,92093732591845;0,506780773493622;0,304143753962053;0,552880340355773;0,0774772392296068;-1,08213345111855;
-0,850533220798617;-0,498497710923159;1,37976771045795;1,69508347699374;0,129246583003566;-0,491628118343861;-0,820343531429622;-0,319607501377552;-2,11151859715776;-0,364188775592465;-0,0630387857291583;-1,43913908438562;-1,94787702020396;-1,21414498942452;-0,738846299042177;-1,12151661738147;
0,0493263465190434;0,859659401565048;1,48807600171482;0,657229138695844;-0,434503492058808;-0,17668891745055;1,10818764716404;-0,920522436705693;-0,115407906227252;-0,0455540633187971;-0,23085968603881;0,505801219830225;-0,852193723746604;-0,607843708024577;0,817206770367343;0,933776645130865;
0,696598415381348;0,679590286930955;1,68371393763582;-1,15331843227285;0,493018107763143;0,478664871521502;0,92925245072483;-0,545329257981552;-1,78194582247839;0,0788486164783273;0,843657662777797;0,757596368590257;0,871071549443573;-1,31157138471664;-0,263910375993938;-1,02542620223838;
0,382701731571686;1,71504744156832;1,28354725841681;-0,146245239430984;1,76984952062115;0,0544487635839725;-1,02622932426041;-0,165325897796037;0,099792913378186;-0,736096988819827;0,655151525960686;0,285222135120475;0,24362490520938;0,265484966276966;-1,75597371678866;0,858583240821393;
0,667999858661659;-0,216621551078559;0,618367824810665;-0,825548998790648;0,337856995576277;0,265712931785367;0,781709392225345;-0,635532478003352;0,834900738775947;1,62231979582225;0,132153142138062;-0,667705888349785;-1,58417738521448;-0,433611332586353;0,528603441373793;0,902715481513506;
2,18969090797401;0,497334384499158;1,85543464207818;0,5682915030287;-0,132416334850214;-1,09325901179333;0,850589579952723;0,749826398876584;-0,861268631614192;0,55924098502017;-0,677421250738208;-0,209227728660877;-2,33296982347443;1,22216756166532;-1,08644240017791;-0,225462246069431;
-0,031127674804146;-0,310449596440743;-0,700473489255977;0,909201539959708;-0,317016324007024;-0,205590231049327;-0,211278738066096;-0,669445151463941;1,96481173643877;-0,845671635250874;0,670152202532531;0,400306099192632;-1,18967222960607;0,0205249921198836;0,0594222162475262;0,421345829324969;
-0,437467877184944;0,188753277089093;2,44357080995207;-0,486676958363601;1,58458801502611;-0,143392209804109;-0,499985623284957;0,275320870257084;1,17759772683689;0,262010714409078;1,36063043437808;-0,753964276189593;0,889176616856648;-0,828776384390946;0,766720597743423;-1,45252000219377;
0,29041987109651;0,660247603838613;0,167086017387106;-0,342258824079502;0,567394376538248;0,272126853506084;1,0605500725206;0,747053890798831;-0,483707471054681;-2,03623903975607;-1,28604227500699;0,424841336972624;-1,35358418686624;-1,07103898183688;-0,241302228714617;-1,40770908034704;
0,333376266375524;-0,577332453652746;1,44123719004755;0,19481542165259;0,411033153705;0,684785424522564;-1,24952602312996;1,11651513981021;-0,747799707096368;0,80978127635684;-1,55232551574739;0,832726380596713;1,26499666451174;2,5805535986123;0,114861826678842;0,351946508320732;
-0,98282654165908;0,952271310583407;-0,0560375136766539;-0,0129396404397626;-0,343464402282797;-1,86551155281134;-0,783154750523561;-0,502714462149217;1,66023505778922;0,78477668627757;0,000594293693560388;0,91191834429045;1,30556717687284;-0,348328527336987;1,68149491052662;1,30729327259473;
0,129585603590304;-0,087291597095384;1,19288823189974;-1,03647466504399;-0,552857496193286;1,94360471971562;-0,433458363390612;1,11614858808273;0,409903751149326;-2,08292362013008;-0,500269827414145;1,21995230756585;0,585986550484389;-0,0274090071778682;0,506825283511637;-0,481204234039139;
-0,504943555387672;-1,47611997762911;0,420850295198204;0,0839385690035895;-0,391142236533499;1,67610520953252;0,495779384839827;0,243512695034418;0,55176526324056;-1,55361725091674;1,87770591184245;-0,876755369881727;-0,71075309268746;1,72192279258563;-1,79972979309638;-2,11603172353598;
0,483022228571173;-1,23526799165628;-0,619894867837356;0,116300152503419;1,12499316851133;0,270726709461729;0,053055133537791;0,587894798281678;-0,510777409308416;0,517906780190429;0,0692499353352725;-0,173673140303675;-0,388599325010965;0,286518165183067;-0,0490061762891873;-0,0275907912572953;
0,112139685297866;-1,04935041252646;-0,11124989153713;-0,262285382115248;-0,706106920897164;-0,114359009926792;1,05804665048559;-2,46091348114653;0,858157080325713;-0,0289021668322263;-2,58191889820358;-0,180334247369597;-0,84455588091194;0,930244950285052;0,279328317631573;1,15282858714532;
-0,313218626084686;0,587255666598485;-0,652416127869859;1,57593150290351;-0,514995661218558;-0,0540202135351877;-1,24384712847692;-1,7595607723203;0,936007689561519;-0,897764342044455;0,303047696869296;-0,286933985661658;0,0720276307804719;-0,284907401547987;0,0236253706873045;0,0267074213070598;
-0,0272110132823534;1,94631724499311;1,95850336573521;-0,474355640126606;-1,31573994701576;0,545453745889004;0,72660546017375;-1,59088724150029;0,160265950246843;0,0571698087918901;-1,00752907549808;0,858073606885569;1,831737200605;-0,334443166459978;-0,818412394990368;0,252187821865757;
0,607065078991654;0,395312580335014;0,863337059915383;0,991420496801273;-1,56817516697141;-0,652632359717672;1,06431926339004;0,72867199854594;0,309722771635973;-0,277437681438915;-0,131878101695286;1,38718438766259;-0,0645233049831924;-0,144478765634332;-0,928931803890952;0,181335654896057;
-0,439697405072255;-0,611013110424059;0,443718014480546;-0,651352548179613;0,323855647781358;0,657606924556384;-0,62455053076809;-0,678364614368228;-0,0373288512357918;-0,515805893467082;0,201364439521752;0,185405625215811;-0,195640855767894;0,979667524742473;-1,14389971787485;-0,494091520363712;
1,03346211552135;-0,360369513664527;0,654938301130109;1,2414675687106;0,616641951098037;-0,147910946920718;-0,631971668556504;1,13739788310953;1,24758295305569;0,0515012904791598;1,6075558684364;-0,996824637918582;1,2896365650971;-0,139086072750421;-0,13568325449524;1,15540718684146;
-0,452456281269747;-0,0964738402903333;0,0663702442494963;1,09391596564443;0,48706464183725;-0,262550355160067;-1,69029987058873;-0,056024871398141;-1,09491157596561;1,79321761923225;-1,46971471639396;1,21745898436837;0,453200803193951;1,49028774939628;1,01137688300779;0,571984436703287;
-0,556708311338518;1,95159078930316;-0,0269493013324342;1,30493023238353;-0,0185228921072598;0,554306745483372;-1,16781238137995;-0,822836852773658;-0,85665900712081;1,03953498972907;0,675965868495302;-0,0762749223673507;-0,316525730775223;-0,67402873322081;-0,301014828426543;-2,0585460827618;
-0,436316165156041;-1,04002184586513;0,00630225452905229;0,855487469741212;-0,303262300958272;1,29535582162486;0,245511637189944;1,99328250204332;-0,662830067904432;0,356130512882712;-0,359052813026076;1,57164635965866;-0,212542550728632;1,20082662923537;-1,68857983432127;-0,39349822463253;
0,307438447429082;0,184567830761733;-0,43246695910686;1,17097195116761;0,326288422367431;-0,425146848363723;-0,569840515188137;0,365382832741509;-1,06081543859182;1,52754256411567;-1,78229100100751;-0,0701823306033297;0,386848348775577;1,61562895270667;-0,719676604369553;-1,62396374857692;
0,357759359243841;-1,04855409457367;-0,10701758288507;-0,166242926484014;-0,979163869839629;-1,00780086698714;2,45726369518636;-0,721099103250185;-0,137277286057864;0,00573113882066815;1,22387201131128;0,630572970410534;0,95755377060882;0,497974230486607;-0,24634327417739;1,01508153532883;
0,490046523640523;1,0703927052702;-1,48022087860155;0,0561260916563232;-0,466080252118757;0,240740774160173;1,48748722237877;0,219368544989986;0,82386947038039;-0,202293641163143;-0,829748435000937;1,60747187613295;0,893017844922927;0,793941867186128;-0,59036508010004;-0,88651646023563;
1,4860889720088;-0,244629578933072;1,35811154298622;0,410720463999897;-0,577465054920338;-0,941814441785305;0,774962910329278;1,05581482735081;-1,14829479318482;-0,957672724495259;0,380356749376001;0,432426544992806;0,309463873754659;0,213531049210522;-0,154782205006016;1,42202131415793;
-1,44109549011524;-1,43615838198033;1,24852533547246;0,215935453913716;0,965461842735219;-0,469582892606676;0,284998420549582;0,912853257962255;-0,841213760564852;-0,088499952534677;-0,12641142423871;0,788196107555818;-0,357427012500741;-0,0304426459110108;-0,626631665671588;-0,339771805669865;
0,876236069780788;-0,722205076048345;0,203375731875776;0,415917444679879;0,851243532626779;0,0211511172648882;-1,78165888010244;0,2387711970864;0,845208124691664;-0,26499236737954;1,36063924261544;1,49510882346924;0,497338473087325;0,466909743593811;1,58889026534283;-0,65174924074282;
1,63804746885083;-1,54472208420754;-0,770417281688164;-1,22959709693655;-0,400895276405556;-1,11521872206021;-0,168244066399141;0,408501513060736;-0,115766662256748;0,331586882090081;0,742286989092229;0,833709749345896;-0,60582550761615;-0,360734123517023;-0,75283840796533;1,01579738572363;
2,30514564014233;-0,481264104032931;0,928863564690527;-0,833940040673356;0,0558055784183513;-0,038442603911897;0,0695763565090017;0,868743525150593;-1,27613390311823;-0,539507478649888;0,235015603387636;-0,744531158020041;0,662173819506592;0,765260981208832;-0,580807732125038;0,628305306613714;
0,0460181356282365;0,648829438911521;-0,856849836324402;-0,733430122904466;-0,239997840815946;-2,00456475464781;0,370431482215195;-1,467273564655;-0,123371796474384;-1,63222350594322;-1,10136519258774;0,0694141319737852;2,28214698152069;1,45502580223247;0,241661238294805;0,167287038169088;
-0,768843497418564;-0,281519065739774;0,911092351386988;-0,441938503916058;0,161500027520876;0,694506213052351;-0,0726415968170141;-0,843950985355469;0,105135880146058;1,70764929765685;-1,0751477892681;-0,660444518985232;-1,4719980171203;-0,333296271455203;0,697421932498615;0,456094269405063;
-0,968375010632518;-0,0569067656930177;0,3617286455209;-0,165345559782465;-1,09647222177565;-0,908770580327296;-0,0532895656000126;0,800401036582136;-0,515246654778296;1,16610042229774;-1,65015543043916;-0,0175026135402077;2,09186464991417;-0,621987464700952;0,121414170359648;-0,42174010990607;
2,17038066586198;1,10821278609157;-0,494034394512066;-0,81606665884874;-0,30572194454611;-0,777552576506022;0,166221295907397;-0,676684867186323;-0,670412895997003;-0,222832217013849;1,09096086960407;-1,21864826945936;-0,00406492859062447;-0,511526348098011;0,66259376366882;0,380985839009998;
-0,175088594554183;-0,805334932713987;-2,57479759565122;-0,349774658179122;-0,135548739825769;-1,59008803033039;0,0355098892367791;0,0238934178708591;-0,843108220652138;1,59011840555207;-0,170452911686401;0,0464097171397722;-0,043416136414907;-0,967024258599355;1,01321846142348;-0,184285809706591;
0,626324303047259;0,149572064046871;0,151699702420467;-0,286318849756442;0,240068710622434;0,668763366458315;0,0780341397663889;-0,32588104762556;-0,365497172197475;-2,48283260138802;-0,121938173935675;-0,782689265408335;-1,50531688297745;0,466143558038391;1,08982381180136;-1,03126739871729;
1,47300787042213;-0,34878159602361;-1,2514866928662;-0,191877189086731;2,08888046847277;-1,69379910817136;0,494826426071435;-0,183567284213717;0,543443884984782;-0,862229215480279;-0,847966894129394;2,73879524829637;0,22728983531566;-0,368617009477345;1,12612569379511;-1,34262662928912;
0,775612825867198;-0,148989437235867;1,02278917548301;0,523346322972109;0,0728784881779798;-1,0186985797039;-1,26821450292102;1,46721523613821;1,17831141610528;0,870793330828438;-0,777454615019806;-0,815005371049177;-1,58905840122323;0,192657898457379;1,63478847185873;-1,46765310687212;
0,180596740232228;-0,264827458581393;-2,16939370887742;-0,0872100991300717;0,380016854321822;-1,61419934949051;0,225916408933036;0,174265581080703;-2,30842655101371;-0,40957096357526;0,718176016176996;0,953059575487016;0,755056005926832;-1,46386291729862;-1,39537855430425;-2,23436870414075;
-1,20913300255512;-0,101942463675827;0,462234636115872;-2,93329118189645;0,692151690601674;1,02932287180581;0,548678756226171;0,0549653459409095;-0,386826044947435;0,0341903753572337;2,10816211103385;-0,21357107986484;-0,866926943992163;-1,77239488505629;0,928494123601135;-1,31284535122987;
0,702753280906888;0,676796684339345;-1,2586973654212;-1,73605418065632;0,815087240205109;-0,817312126683939;-0,930594449752459;0,640826910843978;0,98410328325085;-0,177996776024052;-0,515222556998978;-0,828409015776274;0,301478831498639;-0,239263672838813;1,58772851972732;1,27004383570448;
-0,473182067110363;0,61910328157096;-0,848641426863299;0,364599024550704;0,964327998172645;-0,822674338541497;0,900512226775859;-0,0736857868290481;-1,26402582159708;2,24139531010237;-1,20094242795525;-1,81891937325945;-0,350939527725281;-0,314875868845334;1,5004884126582;0,850427061101825;
-0,00182034625150538;-0,38300611770894;0,218305838168849;-0,355472228192528;-0,961669545757486;0,115741207836675;-0,37449109537692;-1,65515305276236;-0,822536087346417;0,229077024436485;1,11540100187232;0,335649871527128;0,0718515825520823;0,532408873354212;-1,09995421424554;0,521942414913981;
0,586655294926714;0,56056721946126;0,655266901473907;0,890154134797925;0,189479507534303;0,562692428862993;-0,876277178282966;-0,0978818997867414;0,238970128670367;0,493544467015776;0,193562020871761;-1,77342799619311;-0,247367600389437;-0,344821655076904;-0,553414331817901;-1,32791397181994;
-1,10111104200195;-0,326564721963408;0,356605830020979;1,74427867065095;1,535414603826;0,705334645230268;-0,493179587405048;-0,801617330763549;0,929482048998828;0,372512708876253;1,80500324129284;-0,888019604445824;-0,379930804241128;-0,480155617619209;-0,693999194411982;1,37583997962399;
-0,395473999024442;0,740338957508058;1,86892982329717;0,259281406348881;1,08852862293473;1,17081822004488;0,113291933056015;-0,0297794916734443;0,0475961979929301;0,293828133221892;2,32097824082375;-0,84749556262539;-0,257725851807321;0,716016149583266;1,26214321121078;-0,448919485520521;
0,348959474845797;-0,122105124527896;-0,179469642862736;-0,697385595805732;1,15700824134862;-0,62391364367704;1,81759173475477;1,70794522210824;-0,657231046138614;0,195917250909585;-0,131822609058807;0,452665875632193;-0,612852880700743;1,66694733928829;-2,4237953415054;-0,0502356013367863;
-0,263255276896421;1,08856570888111;-0,487699856217468;0,361970482443987;0,546942518059589;-0,448637617696389;-0,111299297921002;-0,796194222114147;0,619099456063524;-1,01868167638017;1,49511308322231;-0,129061150013004;-0,152776125185808;-1,48036076715087;-0,91306202697362;-0,668254690761721;
-1,23266610954713;-0,315119855085736;-0,445999505120413;-0,891623671422858;-0,184613687471266;-1,02177533046717;0,473648944799552;0,297769692119178;-0,00773403706820111;-0,775441565953069;1,21724320934239;-0,807066906671888;0,0659183632490272;-1,31992938090493;0,213894583678401;1,1710018158659;
1,39281174434132;-0,988617442840598;-0,317887908079157;-0,586562434132721;-0,638130029569685;-0,317240425813;0,11841955440765;-0,0086188997041693;0,195587389561159;-0,772485219884474;-1,66950763106282;1,19045250316061;1,45244036645547;0,671002033528737;-1,11809191331841;-2,13825608131029;
0,079933780310784;-1,27127933614894;4,0145426204115;0,383349535666059;-0,722752642588508;0,786255478017475;-1,12747192349657;-2,30537729138769;-0,826204287904862;-0,0714447754491056;1,48520247265618;-0,0473379138245836;0,47428067801476;0,107128768495628;0,268720318806763;-0,986302139047753;
0,397253363121052;1,35604226237299;0,444091498627255;-0,783689260630888;-2,49412905706841;0,714731748549493;-0,369097026571077;0,255144784459266;-1,32096409121855;-0,595810296372454;-0,0854271377471601;1,15379212103833;-1,02550208776141;-0,294154099221544;0,160807077294109;0,71580611402003;
0,854903293539708;0,520931383912491;-0,730739791071767;0,196680348271242;1,41415458435944;-0,957928673846024;-0,219782812862077;-0,102419667492009;1,1008272112749;0,373410435685054;-0,662082517092969;2,09961387232275;0,300518530668792;-0,710008041243158;-1,83489606771859;-0,103997128120988;
-0,364072553274833;1,9525813492402;-0,935003781291844;0,854313236462787;0,772476519882622;-0,455865977674947;-2,16473499135714;0,116524400046076;0,0799547985891278;-1,44050107820409;0,985415801262523;-1,08576307996081;1,50854104286633;-0,577216114722792;1,6312345176999;-0,348139507689526;
-0,159313208736016;0,71410382251209;-1,19550402195142;0,228717897544144;-0,884712137915369;0,467971418041878;-0,162554864272278;-1,55413245324679;-0,117985901353233;1,76821477589626;0,324046961566622;0,0668105459247562;1,23557855171628;0,408848204711641;0,869678970874866;1,12297565226029;
-0,343646340020688;0,00167072049175475;-2,14053980372845;0,250755784308944;-0,863653896705977;-0,357131237073093;0,497841371919883;-1,29007430701611;-0,280335534415222;-0,683101847559412;1,62795663252802;0,385498729549604;0,844169545640123;1,65106123219599;0,0926064310703204;2,12029255465295;
0,974983933635921;-0,624144963887118;-1,14533255062638;0,907948434077395;-0,212142012680666;-0,514418540010053;0,707873743716066;0,775001615042926;0,02969082246802;-1,83008230610969;0,653637398244644;-1,79495178992284;-0,288511081837986;-0,597193085548072;0,131343016266855;0,300838630669439;
