-0,0447503745906185;1,9119147849196;1,96751037356475;-0,469022290673155;-1,32885314135625;0,54465135605786;0,718888020301423;-1,59275604855196;0,171950815588322;0,0449980407762355;
-1,02205780303918;0,8473320585488;1,81553555253808;-0,330297631209745;-0,833096691541959;0,239862189991654;0,590478053132543;0,379128532775538;0,89245510089555;0,982397612654686;
-1,565998669974;-0,664596126045376;1,05944962989069;0,724662381159704;0,294373824230936;-0,276691359740269;-0,144789191372914;1,38682913680205;-0,0776842507807097;-0,153803366982854;
-0,942585070305861;0,172794207503493;-0,451386205389101;-0,628827870841414;0,424655569249;-0,646487647912016;0,325900051608827;0,658672491052136;-0,600767688999657;-0,69522584929267;
-0,0487689451690275;-0,503168180059403;0,178287625800923;0,183041459535992;-0,231686056988693;0,989932421064354;-1,1471702442227;-0,504219502958438;1,04082630937715;-0,391323890206602;
0,652570190329514;1,23567976444902;0,613021627060172;-0,147497832138744;-0,654082425527126;1,14359797142199;1,24162819254705;0,0560232211652752;1,61257140377858;-1,01871759182166;
1,27960880310682;-0,147963159698408;-0,142262474450104;1,14442463602516;-0,475325442988704;-0,112617143808622;0,0732013804015599;1,0960467844502;0,501444144888833;-0,278107781342234;
-1,6981598967338;-0,069822394404859;-1,10315097137906;1,79798255392021;-1,49572773068017;1,21465051881886;0,439069708067964;1,48767229447656;1,01966499310543;0,54981860165368;
-0,574801460414783;1,9349365999426;-0,0375639758354479;1,30683661695157;-0,0326776155577378;0,55849123509607;-1,16503781906863;-0,832120124686858;-0,83475602404655;1,03915079561894;
0,64862506269915;-0,0748860668593358;-0,337275533796879;-0,670969115907689;-0,315301437532672;-2,06813310505839;-0,448080972643248;-1,06571477437795;0,0417857977286678;0,849264736219909;
-0,305845975606469;1,28858726354907;0,239493097832848;1,99713519593785;-0,670235031282013;0,371188179928701;-0,373761816366139;1,5669583551733;-0,202422307982751;1,17856169390252;
-1,69095637673325;-0,410339183951041;0,297154019890155;0,162828428748629;-0,416548711616435;1,17335173698944;0,322718263193729;-0,425161739527881;-0,576627595680218;0,344036880412619;
-1,06163942783481;1,53055786295848;-1,80396617884399;-0,0771969363715465;0,383451004004339;1,61175985941864;-0,723098165985121;-1,63271803724391;0,343447807681915;-1,08389585526018;
-0,105442848719171;-0,168677835490955;-0,987528352517304;-1,00828966507764;2,4526256359963;-0,725333334730826;-0,136135141920898;0,0186601744588775;1,21569833025026;0,619313322513186;
0,951030008340117;0,500872233093472;-0,253271723785903;1,01276695017967;0,478395139900247;1,05231395462293;-1,48797436751414;0,0586092275867098;-0,456688711643324;0,235536676503407;
1,48786520478092;0,215488000207643;0,818076368273995;-0,195347739018231;-0,840239613756412;1,60868837542041;0,89062792456277;0,798909373269354;-0,588006914902701;-0,902481578065666;
1,49209432707374;-0,267656340248606;1,36772329122665;0,415096681273495;-0,579423455430912;-0,941683175411068;0,775221219838729;1,04479818268846;-1,14842096812353;-0,967775508045598;
0,373906321270675;0,422168491041092;0,295657849240656;0,214754660298922;-0,155833795158162;1,42199032288389;-1,44419149986813;-1,44487830425172;1,24643967541625;0,20948513915889;
0,963312206185961;-0,470451943827264;0,286091956056463;0,903913689419985;-0,845207732808288;-0,0907423189683003;-0,138469727535852;0,788465617878203;-0,366722017704278;-0,037905397048505;
-0,633282553719123;-0,340954198611879;0,867422899683184;-0,746062321809685;0,196890718313151;0,422916425630598;0,849974953858405;0,0212311791272159;-1,77715617153267;0,240028904276519;
0,836648536873988;-0,264893910339199;1,35887146360942;1,50033141819218;0,494230142057069;0,479656041498557;1,58329538388816;-0,668820590669384;1,6491168429119;-1,57973627263659;
-0,779310979257553;-1,22991762433106;-0,405966878203555;-1,11384066172906;-0,173948165123708;0,410813088644433;-0,121356679915226;0,328165225806147;0,746331739290728;0,82466797211677;
-0,623047621906992;-0,373252960476812;-0,765447009434911;1,00955414158134;2,30503535942237;-0,48234914901196;0,925287579926388;-0,833790617211879;0,0571463724067557;-0,0494030096802886;
0,0688585607119544;0,864288496732856;-1,28604448861783;-0,541505607131327;0,220711035798402;-0,738960988288376;0,640894433362129;0,77217868747484;-0,568738183566136;0,611206608298322;
0,0373454461243486;0,630671848888509;-0,870166373651002;-0,733071519975005;-0,243182098391031;-2,00159281686857;0,365428097422254;-1,47155278695093;-0,109503885485533;-1,62699906715353;
-1,12002434487175;0,056570316204628;2,28283024003398;1,45586606530303;0,226396851875924;0,161339041072459;-0,780878243126926;-0,307884525867179;0,951332724724573;-0,455186340255947;
0,153517663105644;0,686469191358291;-0,0821665769820615;-0,847774773421442;0,0975865533162473;1,70851044974172;-1,09568010741424;-0,66652798726796;-1,44121470958155;-0,351078452273976;
0,694225186229984;0,441930614149536;-0,982334502242433;-0,0644876154066069;0,351824006608222;-0,168157412310549;-1,10965672930658;-0,909617579528741;-0,0273346440222505;0,786104306697306;
-0,519150756648898;1,16121492261485;-1,67534748084554;-0,0177825942889575;2,08421229189588;-0,62105554531946;0,121046325826022;-0,424467632803515;2,20280351160857;1,10464727115719;
-0,495590981078124;-0,811386068322994;-0,310531903160078;-0,777475697123806;0,154114936522206;-0,657253440280026;-0,673227547423397;-0,222891814040428;1,12538135924318;-1,22565306834962;
-0,00907202148299301;-0,521192591539684;0,663287745364262;0,382662647469081;-0,192474597148669;-0,803495294805161;-2,56252124329623;-0,347831054329412;-0,0992098141610398;-1,60405335506149;
0,0320094895335022;0,0346895106154694;-0,846630857116964;1,59390159460156;-0,177058920061007;0,0456306282205972;-0,050832818164236;-0,96879221452647;1,03792460695447;-0,197228613208679;
0,623293352117361;0,127180866447993;0,138161008558243;-0,284483842944373;0,22416097398633;0,671030786585076;0,0759306948464897;-0,317998232830155;-0,340312231750946;-2,4816837463075;
-0,132339230621712;-0,787286486161059;-1,51938510080374;0,473925408271982;1,07768245626005;-1,03521950667531;1,47052878151639;-0,345509834081428;-1,22353639142957;-0,199454027283875;
2,08512382478619;-1,69234345250619;0,481715385368459;-0,18069152149037;0,533301451225069;-0,861157280959923;-0,851596551956619;2,73736435587236;0,257712941294304;-0,375587752356038;
1,12530465074371;-1,3600717674495;0,770708699181272;-0,145495396621602;1,03305257374266;0,525387192664885;0,0661891969013342;-1,02076915489199;-1,25734820281233;1,46083087580835;
1,18148683129722;0,865125274207661;-0,778095519113617;-0,818062921497284;-1,59768595485041;0,190241318839122;1,62912109873306;-1,47741654139936;0,188674175908004;-0,293245679435635;
-2,18096752262762;-0,0996446236083629;0,36219563664218;-1,61373310381572;0,21935323017344;0,178442152616052;-2,30975695821222;-0,400555693865177;0,723921930856645;0,93943749259151;
0,753757603872519;-1,46478499807486;-1,40549852016154;-2,24014134355749;-1,22040635249384;-0,0964010600737662;0,460651427915042;-2,93677372418877;0,711360242730513;1,02088735176619;
0,546292376016714;0,0598249263745294;-0,392960461418281;0,0397431772668169;2,10836150732122;-0,213977942193821;-0,863248519019822;-1,77466633309208;0,94944290710206;-1,31892759301074;
0,700526248326811;0,673011651569235;-1,24678940638384;-1,73687814449321;0,809920765011188;-0,819081577552051;-0,941555752516347;0,646393891544579;1,00521026473755;-0,179541509203955;
-0,51363951234266;-0,839524717287279;0,305138533074693;-0,24262029878506;1,58434204967277;1,26613747976735;-0,481813808169574;0,604980717654135;-0,831925587394413;0,356159677840475;
0,961908415228258;-0,832876988818403;0,890006904420746;-0,070895134030905;-1,26521013691418;2,25406962385601;-1,21034613341673;-1,81945725395594;-0,3358391928756;-0,32460359152146;
1,49260127976545;0,8487887976399;-0,014965019478726;-0,374379074672222;0,227451137010087;-0,351593341241627;-0,961324305908411;0,115576863806958;-0,357504934502684;-1,66017040444883;
-0,827380078023904;0,238108344259997;1,11118643567411;0,337590447693224;0,0714781103628629;0,531936564454856;-1,09813381990444;0,519289256052411;0,598847271044343;0,559205884412653;
0,665075992815816;0,887517713005364;0,183225249629256;0,565215806677477;-0,882321166828612;-0,0877802906240442;0,231738410965537;0,49235348274174;0,212282358558915;-1,7851284513353;
-0,263040533505329;-0,343209252526073;-0,558099928848461;-1,33145191352242;-1,10627477066472;-0,339040094584435;0,357750174459081;1,74109990611061;1,55207173778097;0,697987740107472;
-0,49518293986651;-0,810017600247419;0,91316379594272;0,380694618202907;1,80308022735318;-0,885965165764974;-0,385648819372414;-0,47601251275841;-0,675193384653222;1,36655862141536;
-0,403267616697735;0,747547905481178;1,85574164501908;0,26604127139117;1,08364278606157;1,17617387093493;0,106225962136128;-0,0234630916984261;0,0666969092598864;0,283678254969103;
2,32568128100041;-0,841661361301634;-0,277850249815891;0,726187734071323;1,26280128490872;-0,455872977543434;0,34688789728105;-0,123826138863858;-0,160618984212854;-0,695883899802305;
1,14704793116223;-0,634906722918008;1,81533465604107;1,71378213636222;-0,670508233624861;0,19219474451598;-0,142267060122547;0,453049043468594;-0,593112495194349;1,67452758990287;
-2,43856862429098;-0,0736041169234063;-0,271420239222213;1,08165727376473;-0,499117009708005;0,358937246601789;0,54269526855572;-0,450009945343282;-0,0725819902434671;-0,809748385955195;
0,616523694954696;-1,02727060483379;1,48759246146337;-0,124596178531953;-0,171950139465572;-1,47815022359628;-0,923889571386866;-0,676849221042614;-1,20885560466548;-0,325282404770942;
-0,4518066393072;-0,897339699827946;-0,194817159402056;-1,02348752838864;0,46390150813934;0,29933474352357;-0,0106056647518503;-0,767360702741244;1,25618914361131;-0,812854498403782;
0,0621415080006098;-1,32156747992674;0,201555724645185;1,17062380851511;1,38572941622944;-1,00076338301669;-0,316255091701961;-0,589446115860039;-0,606505439261082;-0,317501300772099;
0,114779461672898;-0,0187155343633989;0,196578517940558;-0,76733281778003;-1,68686413509253;1,19507218500948;1,44708016326787;0,675942296344365;-1,08423912527308;-2,15106136910392;
0,0680373088951675;-1,30473940603833;4,0167605200237;0,384121733429856;-0,721474827387942;0,787723776365058;-1,13043139126169;-2,31781376697038;-0,792511660010882;-0,0666985702507589;
1,48382107501063;-0,0592385704515776;0,470731118351188;0,109128877868957;0,256621281465777;-0,989495595781622;0,384083701130232;1,33361516356501;0,480279320764755;-0,782736060068084;
-2,49546504374855;0,710859273021046;-0,379091427642714;0,256103429513492;-1,33570235167254;-0,592149953683582;-0,0988326591427736;1,15212270328756;-1,00788803406344;-0,293524061715186;
0,154261387131162;0,705125467266264;0,834748461204392;0,505155270692991;-0,722973450222799;0,199581345730354;1,41933144615005;-0,959283325656637;-0,18112766513944;-0,107337554412704;
1,09381032235819;0,365751879336304;-0,67131751313254;2,09944228041381;0,273123481465596;-0,706725268373845;-1,84091156736727;-0,113440257035068;-0,342234655062978;1,92718060338806;
-0,941753911397894;0,846846202796746;0,778024581237528;-0,455676006470156;-2,162651123834;0,107633200651904;0,0766801389422306;-1,43456928075568;0,992195196835514;-1,09740005166467;
1,48246808980478;-0,58323118477351;1,62035555436437;-0,358861719956473;-0,174267114768707;0,688065329689498;-1,19577102103129;0,233506287944814;-0,869295573773564;0,462091722094186;
-0,17438208654165;-1,56233368562118;-0,133076427346913;1,77244942307407;0,306580836293856;0,0633207578893486;1,21925927806395;0,411749333657945;0,890488076200789;1,10317062540991;
-0,358419740291367;-0,020457095355617;-2,14236951862907;0,255863322903156;-0,864960811681387;-0,359474962226277;0,492744713381135;-1,29796757859252;-0,255062349136796;-0,683331729130949;
1,61096566365332;0,371655054941445;0,823047804350425;1,65489805511372;0,0860139040396043;2,10307292183358;0,961366699530586;-0,643830316587678;-1,12263493644469;0,909105522611603;
-0,215716268239004;-0,523666667989951;0,712534874716114;0,76470586751547;0,0280418180694749;-1,82698639036659;0,635379779397233;-1,80081125150516;-0,287593460744418;-0,592984813661916;
0,123451974125469;0,279473641998258;-0,241108415527517;-0,168549398514585;-0,912763613347913;1,27238672445703;1,91903289526197;1,05507164161267;0,191977491737348;0,358776085933957;
-0,961809504660945;-0,616057095178718;1,30212365983669;0,603586233404943;-2,521709390415;-0,208718605986442;-3,27915312561147;-0,591522099775217;-0,270352380046036;-0,642740399343559;
1,04719717186656;1,0449478048275;-0,011946385416076;0,797073432677014;-0,374590883843174;2,02267286102058;0,422343642019075;-0,840022239545274;0,950103551889447;0,095191451393957;
-2,02994940534376;-0,843700915369591;0,288953265983647;1,88813490217941;-0,0883167134498318;-0,424714433031389;-0,576783703599241;0,902546177646196;-0,802174659588372;1,60926293390843;
-0,685730796315913;1,17561148144171;-0,815907962301161;-1,71983235167085;-0,573835043225259;-1,62397797322532;0,468237701713479;-0,526537925845404;-0,896226947955387;1,45986104221393;
0,274671701146463;-1,09460671392525;0,964577470590434;-0,181695985894804;-1,34519552509391;0,283379354995974;0,133883827860132;0,0963549621170684;0,911007967854898;1,71745868865174;
-0,23984002403466;0,877585448682539;-0,257518915542483;1,15232278066262;0,30011364713929;-0,352174147557134;-0,229949402137653;1,26289176084085;0,27903235652054;0,00614891934078804;
1,09580399190873;-1,40207184521593;-0,298677013752005;0,134761387041251;1,16622261585872;1,66085763496691;0,73614108764655;0,230736658656284;0,270615111823546;-0,396905084733678;
1,17274629324106;-0,62663511257247;0,01949220397;-0,360521681399356;-0,242172778182703;-0,97872426523972;-0,710162281296941;2,51635763510074;-0,455878893443991;-0,133826292559534;
-0,0378963520551105;1,92898760949722;1,95771366520826;-0,486844001294313;-1,31728731041733;0,5453461598202;0,724336558221634;-1,59715316676173;0,149293703481164;0,0609494133168515;-1,01800400233062;0,856534766301864;1,81186909045878;-0,333553497156207;-0,831470400642553;0,242456494177326;
0,594719820564236;0,385399942999362;0,869995405526554;0,981212106475648;-1,56291096819634;-0,653796340281421;1,06647473221156;0,719834751737826;0,298503346448359;-0,2761574376421;-0,141652803713721;1,3859346106547;-0,0907523477319051;-0,144423120960464;-0,94279260916187;0,17291384874207;
-0,448565981769316;-0,619018974105173;0,432040013229043;-0,667481950093503;0,328073086681943;0,657491952319644;-0,617904527366275;-0,69585400756282;-0,045647518228087;-0,507298677987847;0,181131409377898;0,183686602118449;-0,232410929658272;0,98688245622774;-1,15335320559334;-0,505052718573672;
1,0212419363231;-0,372205940834176;0,646357505665921;1,22878224984328;0,610559043610064;-0,149058200932019;-0,64029121273136;1,13594149764387;1,24022466682466;0,0579771239186549;1,59125383476749;-1,0019125112145;1,27050190298951;-0,140027194703496;-0,15292628026807;1,14258260620091;
-0,466887057473445;-0,101267672800104;0,0661260636257541;1,08058820814219;0,485320754254753;-0,263674189636189;-1,69495894520466;-0,0633646830619732;-1,10159316356461;1,79916906201428;-1,48675889959758;1,21127091222027;0,430781279018501;1,48665934616182;0,996962754743957;0,560841811994963;
-0,571305801202909;1,9403446531047;-0,0415795461804683;1,29081073036367;-0,020824349495705;0,554182012299228;-1,16300857104309;-0,838637505725026;-0,860647584257999;1,04803929315232;0,655788285328483;-0,0797169318629503;-0,335293272490206;-0,672826614636357;-0,312341344290134;-2,07039530818576;
-0,448055303989964;-1,05933309070391;0,0130449288905918;0,838704766029161;-0,306116973184533;1,29574964068417;0,236510476754469;1,99012547988047;-0,666871936802224;0,368710450083022;-0,374613176721184;1,56839761191273;-0,211662092860662;1,19393002598859;-1,70310890878881;-0,401224920714876;
0,293425765530825;0,169865343954772;-0,415602586893012;1,15116227636402;0,321320642709418;-0,425687793740244;-0,577685651465178;0,351984145129843;-1,06474701182152;1,54332936668567;-1,79957623081604;-0,0771937661822282;0,380710500289651;1,60697950001074;-0,733587861325666;-1,63435943235272;
0,343153418638601;-1,05595962255385;-0,110320502950621;-0,182239975042936;-0,984127045809225;-1,00935710229092;2,46138445051722;-0,734759941751389;-0,140435448700234;0,0180970078269606;1,20653539508702;0,627765626113898;0,946311984426387;0,498291497820715;-0,259437534392304;1,01167961476327;
0,48278814547414;1,06291445076121;-1,4996453099428;0,0427948163292028;-0,467407494515425;0,239978075654516;1,49074649566893;0,21457285811261;0,813625175158089;-0,196638275031612;-0,839241794444325;1,60827875999471;0,882480246833969;0,801457942630676;-0,603874060025912;-0,895064357432984;
1,4905503954102;-0,255890213503523;1,36252065474757;0,408305719310323;-0,5783221978492;-0,944402414289139;0,774851255449612;1,04166822776142;-1,15287689667118;-0,957840802032996;0,378706574250964;0,4340322192744;0,307034715275885;0,210213009597048;-0,157948211983324;1,41806612112292;
-1,44707143545322;-1,44050941135449;1,23879772370576;0,215501218482217;0,971341342063037;-0,472024998508331;0,290508782565143;0,898351984329622;-0,845396626796397;-0,0940399779100474;-0,138904599675685;0,790053221888289;-0,372254554770442;-0,03364659261758;-0,629491191097519;-0,346414623060987;
0,870911422915786;-0,740566110772868;0,193400398700659;0,4147901188029;0,84716301718159;0,0185200195854092;-1,78603722671028;0,235312922392551;0,836962856181648;-0,259558921384863;1,35826269397406;1,50014253625377;0,489240596631579;0,474816404942503;1,58365652802928;-0,665449289498288;
1,6422593353756;-1,55643538003811;-0,783208149911144;-1,22498905238073;-0,407509070795714;-1,11813484749954;-0,171225456006502;0,407084357674005;-0,122605940375893;0,332394776481463;0,73883161273227;0,834945493224181;-0,627458263305978;-0,365551103737459;-0,761219122594286;1,00760123497385;
2,30463545409577;-0,474515420190149;0,918323087611789;-0,832933011942032;0,050799440785533;-0,040501053312011;0,0763403920392016;0,861046021042198;-1,28133303884747;-0,541839068450035;0,219123637413849;-0,744355983154961;0,634152566313091;0,771722655807791;-0,58629997537546;0,620609944007473;
0,0393149372330728;0,625990135917974;-0,86809104751949;-0,740637877922218;-0,246478539649461;-2,0071189255089;0,363052134794355;-1,47462070066316;-0,123605106830024;-1,62585346564766;-1,11184700496097;0,0701789617637357;2,2850795215546;1,45247127971165;0,237110091147449;0,162328618077878;
-0,775796146915132;-0,302988132318059;0,913048275718772;-0,448150959530811;0,156558404141594;0,693510086778759;-0,0832931619618285;-0,85388353082448;0,105922281175328;1,71260249297048;-1,08941154208562;-0,664265954149629;-1,467900820655;-0,342119331169865;0,693374548568309;0,452341213196484;
-0,973732881869433;-0,0598394672121611;0,35704152964571;-0,172616186726614;-1,1059943097889;-0,91082323951095;-0,0513679334326215;0,786367197304558;-0,515861139324647;1,16237861525857;-1,66974543048958;-0,0172540019068348;2,08760720677555;-0,623877210380746;0,122530094599325;-0,424762990773996;
2,17026406439026;1,12322895968931;-0,495629556497228;-0,815725083607665;-0,304156287478977;-0,780079791707017;0,16451737405844;-0,661098080907536;-0,672007948005971;-0,222134326146308;1,09363264190282;-1,22080261081718;-0,0132077577886896;-0,514110381618941;0,660484417705253;0,381094780043999;
-0,181500319194016;-0,79326135231957;-2,56277315158621;-0,347805741101035;-0,133983757314571;-1,59317443544517;0,0334824661588105;0,0401356219813289;-0,847438355415066;1,59191186229931;-0,169567265567229;0,0450261796704988;-0,0546935376563865;-0,969636952234443;1,00638718154362;-0,18586445576808;
0,622436838586752;0,141816883048248;0,141780724929979;-0,29107793024419;0,233683463097915;0,667460671784711;0,0777016910115734;-0,321151158961816;-0,367959420000759;-2,47403545573344;-0,131553339323372;-0,783433497246808;-1,51088450772865;0,47181622067263;1,08674547822188;-1,03837573848384;
1,47227235987235;-0,342161098852761;-1,26148591133112;-0,196446104216089;2,08769380308793;-1,69641818589478;0,487593425042868;-0,18586299653959;0,542441967919694;-0,861842348596435;-0,849400661958305;2,73943654993998;0,228301886599608;-0,370879031023267;1,12290226338868;-1,35203511550941;
0,768517627579933;-0,142142075967261;1,0377502300123;0,516647050840663;0,065739214773758;-1,02033209251257;-1,2771780121485;1,46933410971491;1,17657410168945;0,874739472011659;-0,778365764946462;-0,819265044263324;-1,59910700768907;0,187988640472311;1,62757915958537;-1,47744873219308;
0,171237704921362;-0,266653452812273;-2,18574670372454;-0,0893809488889266;0,371438988047629;-1,61734065383017;0,227926613698791;0,174732214757282;-2,31083042790864;-0,400344132221744;0,71005955108913;0,95107507824989;0,746022261807939;-1,46244743697518;-1,40069136360535;-2,24140268005071;
-1,21409261492537;-0,0865938317570629;0,456571522996659;-2,93769745199884;0,691871230659045;1,02800280801087;0,548163536349985;0,0576279389810426;-0,387280076214018;0,0375579992555556;2,11235716359983;-0,214532054415234;-0,872193731374875;-1,7753505617714;0,92556698566055;-1,31259232656796;
0,705413298850752;0,677160969685438;-1,25196954217404;-1,74087089900722;0,812597623098109;-0,818293053043883;-0,940298566508562;0,649637100153046;0,985387186509132;-0,173166394047775;-0,514715297133283;-0,832193748563498;0,304715106537379;-0,24538240010139;1,5809051699077;1,26511935857609;
-0,476725815551676;0,605366888111045;-0,853208098108514;0,361856571872794;0,963539475597499;-0,823564632715913;0,901345527656398;-0,0754920170676146;-1,2643118880209;2,25244085991831;-1,21116322060884;-1,81923230702716;-0,352114291856894;-0,315944760853386;1,49246945031633;0,849157263108955;
-0,000938446182275257;-0,379046012352818;0,221987842850559;-0,356674765925043;-0,961701899795809;0,113277901509765;-0,377984555659948;-1,65096893353109;-0,823561329876033;0,235528600422043;1,11932484219446;0,334754553934375;0,0704896291505384;0,53017580854687;-1,10249053666253;0,519424497646805;
0,582624249411737;0,562219545793704;0,663699550016241;0,886327134689141;0,183384629188526;0,563136291170219;-0,878425623873746;-0,0912069400220015;0,236220164060134;0,494897117098747;0,193587078381489;-1,77631240665138;-0,261930984127921;-0,336906642471042;-0,560318483096705;-1,33356543941087;
-1,09909987206454;-0,341802076504705;0,354826871388638;1,73726796856355;1,53354288360562;0,706020389061218;-0,491767494959675;-0,802907485627245;0,926559788722984;0,37521731876197;1,80383959479742;-0,889781634929852;-0,386741450418956;-0,472896152889408;-0,69689318704738;1,3760065241541;
-0,396332593971626;0,744828870555652;1,85840625160073;0,261384570340286;1,08313564791403;1,17103030428038;0,10689642560673;-0,0214768018236543;0,0406775557670625;0,2949592211362;2,32607220816564;-0,847151664265048;-0,268140310369573;0,722856712300078;1,25438416382083;-0,459605726786201;
0,349820892885148;-0,122405253238099;-0,189882580180581;-0,695216319025603;1,15467168428763;-0,624858619862878;1,81434784912421;1,71189031832832;-0,663106077107987;0,193358433584158;-0,137903993974634;0,454705038017493;-0,633298599752738;1,68018322423779;-2,4364393356911;-0,066440661124267;
-0,266887679680918;1,07911181827428;-0,501397216385198;0,359564953041081;0,546418680827634;-0,451796084592448;-0,106748226251604;-0,803602820566643;0,617459713738518;-1,01530028798981;1,49682697248987;-0,123448595316616;-0,16897013059553;-1,47305297582147;-0,922084780511866;-0,677460493086231;
-1,2336193298492;-0,323002626647195;-0,452396446435568;-0,899822902231215;-0,189830583773129;-1,02254723555426;0,471690579124137;0,297459199337552;-0,00620994701871436;-0,768872052889238;1,21989054680639;-0,810640778639646;0,0637496410134161;-1,32018536609649;0,207544342127768;1,17107160393318;
1,39466836863042;-1,00027649166917;-0,315967236255933;-0,595374528897905;-0,642408899577824;-0,317343023741031;0,121959038893977;-0,0133205301095966;0,19683200328271;-0,769838591973336;-1,68052239458839;1,19265198000659;1,44974053561377;0,678040172944241;-1,12632309357668;-2,14338913258154;
0,0782386324823291;-1,29713419246458;4,00379521776212;0,378022914591578;-0,717822808549951;0,786423740357397;-1,12723086897958;-2,3209940617715;-0,825175029972255;-0,0601169923199323;1,48383080147589;-0,0473001673175751;0,479201232096718;0,108895826468076;0,256380913591936;-0,990400582098471;
0,394582954257478;1,33276153009111;0,441541516109918;-0,784644697049526;-2,49644114390008;0,714805442051224;-0,372136553597328;0,251349861947949;-1,32710146470066;-0,592156690052583;-0,095589524457713;1,15262844715264;-1,04578811815637;-0,290922624486143;0,151874200094228;0,705410184824308;
0,851165802970355;0,502609138437547;-0,719355039137207;0,198884706776954;1,42050395889778;-0,960742566085708;-0,2181932421544;-0,109336250977917;1,09752307928421;0,37464849004786;-0,672893220070693;2,0992213832198;0,275737617558939;-0,708560528947167;-1,84403305842223;-0,113057525952611;
-0,364762594708593;1,93641593662429;-0,946361509184747;0,84888657111951;0,777050161482746;-0,456189175391008;-2,15717368502291;0,100938324234106;0,0791155628307677;-1,43659321377016;0,967417281761638;-1,08826409996815;1,48368332952917;-0,566069144726359;1,6272472992323;-0,358612899061887;
-0,163868067908097;0,687358113790029;-1,19807859190091;0,224395036462044;-0,890222307725528;0,468228828455844;-0,16820003452904;-1,56253750453103;-0,122059532742019;1,7703940028201;0,309003616827272;0,0625597897314045;1,22050932490123;0,415873274430991;0,857951429375569;1,10630825718703;
-0,357651004259042;-0,0181446397319807;-2,13593102568893;0,260323003933665;-0,865635107515858;-0,358337977569368;0,492576454578689;-1,29445196999589;-0,286575128195969;-0,680945570925866;1,61338140918167;0,379632590110167;0,825103439309578;1,65276783943132;0,0810269445269287;2,10567388493642;
0,961048379250767;-0,642496081155624;-1,15310677042315;0,915403948491075;-0,214015262099956;-0,515852782267009;0,712736164249421;0,766408573115775;0,025258865478514;-1,8242200685936;0,634310389035317;-1,79899661078926;-0,310539557473523;-0,589366326019055;0,125242234477724;0,290074611818711;
-0,228593102584765;-0,172049385283696;-0,917921880055858;1,27950759958148;1,91821823458622;1,05101820155177;0,167921158082886;0,36603549667601;-0,956526551984373;-0,61231555271326;1,31222070656549;0,603956538883026;-2,52247482376022;-0,209668866405531;-3,27993221638212;-0,59245100546725;
-0,300248241985716;-0,640556302458886;1,05077538554648;1,04352162812432;-0,00235586908585283;0,795201408350223;-0,379779944492318;2,02696259231231;0,421719171187666;-0,839474469420312;0,920230412626697;0,0956624901501626;-2,02382818311707;-0,837129964841712;0,286254146555884;1,8876043317763;
-0,091581210692829;-0,424410082195993;-0,575820670995173;0,90540281811058;-0,830332589684156;1,61294366577149;-0,68235820998286;1,18478813149747;-0,816537579322709;-1,72123905644404;-0,576762729993315;-1,62116865335457;0,467828727819223;-0,523513735311341;-0,926631112154402;1,46434696142811;
0,276286288722939;-1,08357736490051;0,975153204929624;-0,178997180062651;-1,3499212737117;0,283119160144942;0,130398294584183;0,100717996317833;0,882191395014625;1,72264092888933;-0,238195805935683;0,88029487418176;-0,246110444515392;1,15047795222191;0,290248460078131;-0,353391797437512;
-0,229663358881074;1,26252613886834;0,241866576818888;0,0157789556745236;1,09518962855279;-1,40561701094692;-0,287699741022456;0,136114074793292;1,15670218274834;1,66106389437873;0,735443997129673;0,232987042250223;0,237354451226361;-0,399076992010764;1,16657023470708;-0,624966748021789;
0,0195126765482888;-0,361735809285565;-0,242777239885563;-0,971804185934363;-0,707587510228719;2,50553239227665;-0,455517733483012;-0,130875570178711;-0,747063447321851;-0,125611570801524;-1,29251245780925;0,0297837259887808;0,0774869069001977;1,10266050695354;-1,21666537358056;0,614962068359698;
-0,428893786322399;-0,331277676167102;0,159072382919595;-0,101084312873029;2,12302643692037;-1,26124194479326;-2,3326919658659;-1,92415911321112;0,568543866574101;0,256766664089542;-1,52239476429649;0,8892661900849;0,368491557879389;-0,290820156452809;-0,118693898631452;0,621831735123019;
-0,335799333442675;-0,279723713079977;1,2155268633979;-0,525193796640145;-0,741109741272019;-0,13294332642933;1,42619575666754;1,29045850839587;-0,150455172949357;1,08883570869053;-0,723003767856032;0,13455587891845;0,0736228593532888;-1,0259644731581;-0,165403252377372;0,0493075223412584;
0,652275098615972;0,725926474143935;-0,056453395804948;0,765548310586785;-2,02536062757572;1,67223697982278;-0,109552638208425;-0,576505111384069;-0,325046755210482;0,447349767242798;1,26140776384668;0,432102739092592;0,369641224683169;-0,718712840976998;-0,0486905841365849;-1,3684019882508;
-0,297459096403626;-1,31645321106508;0,417243030692189;0,173830178594951;1,56817954615891;0,496854038897908;-0,715982704928411;0,679472265160678;0,144017568553014;-0,141074955108004;-0,991982419590294;0,273746862831048;0,546933939776331;2,19862763980609;-0,468747750795273;-0,955113216299074;
-0,248631023464227;1,30215430221479;1,37611880993893;-0,476475118714593;0,77827622515088;1,92925064431526;1,48174531731757;0,424369657248138;3,87703330498373;-0,756454579867178;-0,453863331809713;1,93363120575748;-0,686169662946428;-1,41191767109453;0,902974998930353;-0,0543009934839703;
-1,13716436207532;0,0924244123760377;1,11367087992082;-0,882442525123004;0,229251423408975;1,3642223621036;-0,856944199198378;1,62411417598088;-0,956885958465248;-1,19527257786112;2,24552142902302;-0,566599609059352;0,961157799735034;-0,208526140609176;-0,235880344871552;0,95197528598206;
-0,19057755024747;-1,49862537379539;-0,526776892551268;-1,72815343255059;-1,69972858308817;-2,54584201055709;-0,530600515956087;-0,171975155589803;0,74105304767492;-1,17926733770797;-0,249560248694677;-0,390022646830434;0,317730180473372;0,772839618227229;-0,0535438184445772;-0,0349095636150907;
0,694577635569733;1,1102941266646;-0,519481519752135;-0,568599121043219;0,164763451098107;0,974093613961782;-1,1105398835733;-0,0992798642134861;-0,665627363912528;-0,40278434826791;-0,782368481907338;-0,959822315907335;0,944514126375791;-0,125130253186835;-0,417748853986426;-1,35707181436232;
0,30663749976892;2,57726812381431;0,829286879323089;0,118082766237499;-0,97446202253898;1,93064472483029;0,745296899221217;-0,0376687685385616;1,52983051796796;-0,564917673983092;0,879323182732991;0,98237844393894;0,112973262611696;-2,11330856515578;-0,335776324937696;-0,186018833931953;
-1,905971565146;0,52183498676216;-0,49876548737438;0,340811887982401;-0,85520932923626;-1,05310914237878;0,429091006647717;-0,146746802999676;-1,539353868661;-0,619898969399853;0,770875459885246;-0,509143256659492;-0,924051434648283;0,80908471883118;-0,707756772091497;0,600390564294779;
0,148724535342286;-1,8834012166833;-1,19913350119352;0,0208879989339874;1,58567985085429;-1,0852572976996;-0,888087165334927;-0,753895185218591;0,950214683022619;1,33341103483918;1,55989749103021;-1,4453681828568;0,542190673709309;0,192032063145844;-1,27558003765666;-0,175296425020109;
0,218110984690704;-0,114086013792542;-0,396373818944942;-0,534124300228782;0,963595114324564;0,412151932609223;0,349543362583953;-0,489649912595621;-1,26055062254131;2,45093659302594;-1,23537970909388;1,52079630881177;1,17290322794888;3,29999932093114;1,00593898419941;0,618647786088781;
-1,54724991875604;-0,269196365602983;-1,10588744364208;0,353763933749108;-1,02138010403415;-0,207267079488867;0,108934657866389;0,497629706429911;-1,68445929876095;-0,485084496905779;-0,702612616893176;-0,48601369128112;-0,43356224253565;-0,0713858863231771;0,764695924846499;-0,0609807739588938;
-1,35836165736358;0,644906122346331;1,21667654618928;0,760694689353173;-0,769009024304483;0,602906440491393;1,44694954056145;-1,38882416489851;-0,97588735281568;1,6292031910004;1,12584421141881;-0,247627797882763;-0,107301797787818;-0,425881241664688;0,375781449646611;0,734181055880634;
0,928529007783897;0,23407240636562;-1,01273599643681;-0,112996779393162;0,241196311998054;1,32884790429833;2,4992131536115;0,368584476855132;0,196207900244047;0,0436593524276973;1,1580025100238;-1,29693474277293;1,65171623151746;0,358538649797059;-1,00247938986791;0,931104469035082;
2,07475402767749;2,5425809671195;1,25632747459755;-1,17249527926083;0,476673503131893;-0,537261047404377;-0,715511086405523;-0,960953347616081;0,737823862547628;-2,37601437520429;-0,942349811541847;1,58283105489425;0,653876836173354;0,487251351546971;0,653543608551544;-0,847451123728969;
-0,426530170128328;-2,30765405939813;-0,11014977103852;1,64615498485751;0,453400545660188;-0,590882335183217;-0,865923304687669;-1,24986831717055;0,803050467549428;0,0588529835917577;-0,98498124149375;0,205859410422481;-2,24805961591011;1,27215165881226;-0,407742010715355;0,658451446673485;
0,0288872848841971;-0,505478870408035;-1,04942009791599;-0,891894255226085;-0,943731319604825;2,08807813681821;1,17579538618617;2,33797429899168;0,33301821883223;0,578011895900009;-0,449696055289232;1,47298617532243;-0,51496006787696;-0,10587257639303;-1,5582007964213;-2,32200009033473;
-0,560692975811507;1,40521132145465;-0,611405812594069;-1,17549550924682;0,910687503820593;-0,0775166946960587;-0,604780085325917;-0,0298813599812288;0,634681299868596;1,34103016443154;-1,18062443127163;0,497811837627091;-0,597460939561243;-0,302779314262441;0,961457208845959;-0,307730709297511;
1,02814206400523;-0,952538545233549;-0,221808220775894;1,21267031829652;-2,12851618761799;-0,296085848686672;0,35179159289064;0,988912076933105;-0,695341594384599;0,142140268592839;-0,512926569320479;-0,00979136765688653;0,95237713288549;0,800224502680793;0,672029709496066;-0,125010124254285;
0,278636808548004;1,00171973233025;1,47478792838366;-0,610011828565868;-0,323368862161788;-1,67086164993204;2,32457830629914;0,0333170854748349;-1,91942829732676;1,47739468021243;-1,15424251910266;-0,300247691935036;0,145268886067668;-1,97055246859284;1,15415575989658;-0,79911980498739;
0,0871682863101973;-1,00190702842486;0,481760565007423;2,94412871125472;0,215132079383065;-1,2638167038355;-0,467478515549295;0,331529499208929;-0,391738556882731;0,0974137216165107;0,198436651179734;0,325595516795439;-2,08537124774891;-1,06031148595804;1,11337604253382;1,11375127256628;
1,12526137220254;-0,910107685544313;0,168072134531953;-0,137351708050592;-0,0188448294285834;1,69010531851611;1,658169616367;-0,0166664457983023;-1,12352138933497;0,666862977695339;0,694779471997728;-0,194202699269671;0,211780947537837;0,32957825994758;0,890385998896261;-0,0666818563091971;
0,300036187520592;-1,56343352824918;1,27486726914297;-0,044542645313088;0,0407149613420777;-0,46401846926335;0,666714486846013;-0,559827882155585;-0,0567114744397551;-0,816641484362611;0,234536360985719;0,0374800634807845;0,33298199642649;-0,618880714437334;-0,617373136515167;1,01115035831126;
2,6441886360216;0,868986198203794;1,72281929553516;0,414468367787251;0,436721356631862;1,63728205237994;-0,100116408353103;-0,635127194501249;-0,565005708358472;1,09167995988366;1,18617706083407;-0,168074033132218;2,17967194668084;1,12780485660836;-0,885246388237842;-1,06501902637923;
0,0991070300665155;-0,224304524494545;-0,647083814815151;-0,469090538118977;-0,749532074124321;1,84969573388494;-0,211984534979784;0,103385630961669;-0,558230626834684;-0,111035935804082;1,2208591348648;-1,25203630033632;0,038300369907512;-1,93457821956627;-0,572132429123834;-2,07993734641316;
0,338449939227916;0,0593358090696947;-0,239885954104494;-0,759943236440554;2,17618552798323;1,06439456979946;0,378784740734524;0,127420064625617;1,69466382077825;0,622290138627881;0,454062008890055;1,10119307132912;0,667844206649813;0,444619965047154;0,22330659379085;1,38376683948723;
0,601640690597436;-0,537162857338705;-0,0502744196683336;1,05082480223614;0,842014316908035;1,28609651479568;-0,294084678396284;-0,30684372446727;-0,826104125159683;0,438737265754598;-2,39881905459467;-1,02255490825214;1,82580970057044;-1,67100473405261;0,959389240911893;0,506220401726168;
2,35751246964241;-0,716078042635013;0,0860266779046871;1,01106315073507;0,378781912667958;-1,30298065512417;0,255202785459304;-0,57390257991064;-0,191898632511458;-0,811300801896979;-1,24126811315338;-0,140988249931753;-0,0303681880262001;-0,520871934664276;0,528859709023718;0,673820750495804;
0,192730180579963;-1,84742853942687;-0,796273336797906;-0,538414796176787;2,01180124717879;-0,532163447438165;-0,318040871780156;0,797646588543453;0,493338726533377;-0,36679612370943;-0,639589674312736;0,979910521883299;-2,10089736888587;0,304149588642135;0,122431184547208;-1,12741459219565;
-0,0550689850203742;0,327308896655901;-0,529482379152298;0,688761837591999;0,627217295058972;0,45667872525616;-0,37351997769463;1,26254085552479;1,13554205654954;0,192254246024094;-1,1634002426213;0,9237358882645;-0,422946915888785;0,161931427731115;0,570234184141135;0,0431889947208757;
-0,489307404194022;-1,04249126308814;-0,407053834664736;1,42602135512991;-0,703909960749223;0,269774094096687;-0,0268653761736293;-0,15142579068957;-0,834163579189451;0,495141425636686;0,110984615269153;1,53886581223855;-0,699949951081605;-0,290631815510097;2,21795401044644;-0,326953135002886;
-1,9458687539097;-1,65285720477489;-0,111965705657596;0,5716011266605;-0,508828981207524;-0,344093382872732;0,00313931802855356;1,14625462008554;1,45674269421345;0,335997850888712;-1,69759544402983;-0,654087697891614;0,80980136459587;0,161776610570569;1,34219968069867;2,25232691000204;
0,119877213903234;1,03609481193542;1,21071963851349;-1,02470984407861;-0,0309540592049986;-2,44334266011986;1,3568217697508;0,499217987292883;2,10532376443828;-0,0785032262131189;-1,50071221745747;1,08211818338557;1,88957299639443;-0,83625840713389;-1,56441196640514;-0,136297921643598;
-1,01719665453348;0,347007869104229;0,599954807285161;-0,153040230304675;1,07580422824692;-1,88629460524811;-0,345800892682693;0,25011568373179;-2,32309770639473;0,208988031230591;0,891810482187466;2,23518193358258;-0,347787422368748;-1,41065122663194;-0,0768354709139907;0,932981928318825;
0,805087977977936;0,585785173568149;0,156076360780928;-0,675197080534981;-0,108375347214288;-0,774592760729554;-0,779022745337234;0,492179383440041;0,94355923674655;0,501158797468584;-0,515908423686865;0,8064369845435;-0,783211365512399;-1,53678745416147;0,768494240022244;-0,840223172596131;
0,00839484079554527;-1,07217166471634;0,876942082998914;-0,0868614898263533;2,26451790818146;0,586059684960385;0,805382512505687;0,000793455973080753;0,18318580315922;-1,29936018363286;0,794253978857861;-1,24762999330313;-0,318400122152452;-0,448468908388798;0,405731984559668;1,30718456908966;
-0,257129897938147;0,0440633280972525;0,316345055986049;1,14528496820501;-0,482850534299411;-0,389733748399485;2,04403960636158;0,484700888821305;-0,564009040618006;1,44630505313888;0,340548560195257;-1,68696535476442;0,00727053200492217;-2,13393998648357;-1,22545390130482;-0,282939537850306;
0,000310740983415334;-1,2626583282353;2,38363799245028;2,2918866042407;-0,285268667260521;-3,09356400440086;-0,655322577552047;0,874427825538679;0,433342827466189;0,0246585424904827;0,654203271009037;-0,196574552257775;0,208665766645708;-0,189162275662755;-3,18934036499753;-0,295784991435718;
1,00670321225726;-0,505816050065674;-0,400910107673966;-0,644912552405022;0,296199261944819;-0,625463380111974;1,1595815117011;-0,41197594989445;-0,34658155234539;0,0634901679929873;0,697196063612018;-1,39296398199615;-1,4280465341839;-1,27078709770766;0,86678443653851;-1,54825722712109;
1,04702843678296;0,865326915876288;-0,630144959409997;0,830001286650741;0,999994209713974;-1,36189528011815;-0,554228234845261;1,28978197553404;0,449705078009431;2,93021373200634;-1,1540960812042;1,75849136821225;0,903664306790527;-0,654645216180327;-0,602613372464237;-0,832572763030256;
-0,0635135995133064;0,709602991915067;-0,0980137409519271;-0,100935151423388;0,444915295696223;0,418940132863588;-0,102515188884695;0,113818148538538;-0,631849202098454;2,02646092538767;-0,221807768993277;1,48497453056641;0,45019475392376;0,264584346326354;-1,10399259260875;0,934824143786808;
-1,60064972421965;0,077840707953991;-0,581308158205135;0,102392025663803;0,217574577822193;1,24932560145275;-0,270630977173376;-0,954664843929969;0,180864878954054;1,74548836911069;-0,757586077573635;-1,21090258278172;0,277849595543512;-1,10590806503242;-1,37808101448065;0,0573899584651894;
-0,406821361469796;0,613846539754733;-1,00887431211032;-0,123184295168657;0,379851187234901;0,107065921638368;-0,308298002847688;0,18049624034548;-0,375328342346604;1,62701943245346;0,850681675403571;0,290702108068869;1,2370833195979;0,464262335932687;-1,18750283134066;-0,76762987614626;
-1,12243092212812;0,385149749442183;0,492128834226117;2,23242187705022;1,04372663403767;-0,15789008577885;0,406540870048516;-0,281626460601268;1,29846062773866;-0,585735895486724;1,11760000554602;0,23427106073135;-0,228027976794363;0,27624585328897;0,344224473795105;0,852030560047779;
1,49578292126181;0,763164595018068;-0,0502959564528362;-0,0130221820416658;-0,0938620136415935;0,212021115714148;-0,407380686840686;-0,396318281217418;0,254252643250533;-0,232507524771658;0,635847468398818;1,83700425544336;-0,815035553078574;1,26438728738059;-0,486767772157311;1,24585482686782;
-0,885604616310655;-0,492380857529262;-0,701882026752037;0,415204243325193;1,63063265694844;-0,604961882204684;-0,643555272340833;-0,126621999429296;-0,195527697370586;-0,814886472888196;-0,158698455722181;1,50346260541056;0,978651584831128;1,17018884191488;-0,329173773775192;0,0125348820788617;
-0,659687869809844;-0,554437177190763;0,356665435929976;1,29965806554012;1,49999028229398;-0,716963252853451;-0,236784946298695;0,310679067074265;0,0533129863932394;-1,42015987432488;1,41887006351061;-1,01390190647889;0,804757390319672;1,12985166983225;0,814625006605181;1,11464821931158;
0,69433099158373;0,12878938553487;0,202587455980552;-0,644203224770203;-0,684785568587431;-0,98369174111109;-0,308716051916463;0,11475500469222;1,15339423489123;0,685458234319383;0,233661022526539;0,165821396599231;-0,324166250543954;0,0456803983657047;-0,745474564543665;-0,0917546436194157;
-0,0178078067974543;-1,25698362309596;0,163218314828925;-0,670779819889771;1,90633917332411;0,537539736109846;0,560732575025373;-2,44072787625279;-0,180485513863143;0,369366360624991;0,760397700825405;0,684340377066732;1,23427363131839;-0,650817461107814;-0,58745218312801;-1,51226009705244;
-0,457418010215092;1,73791724090886;0,203345743916571;0,255124970572117;0,169005583373955;0,0749102362543179;0,641314494009648;0,679667887734095;-0,399567836028709;-0,627805243223594;-1,68782337352647;0,518956722606136;-0,231354734214152;-0,332213568164489;-0,782734197396821;1,51687667137765;
0,0307273314692456;-0,158862755701009;-1,43124950335642;1,27692175299052;-1,47273140613055;-0,813837766979628;1,20548201347021;0,967913866889397;-0,202565844305424;-0,0351634221779821;-1,65789479900474;0,0505977272902512;-0,47580997473746;0,631195313196283;1,4634936831897;1,26852672286523;
-1,73747360129355;1,35538732481252;-0,825165174736278;0,230441442612755;0,493947470019747;1,48761915904958;0,924483794510719;-0,712809145648657;1,51405300211631;1,87339578577805;0,699896818762036;2,03484072897645;-0,186168331371163;0,590553373783682;0,0554981786061309;1,65536164743634;
0,503826704465659;-1,12593358411344;0,522675096343281;-1,10455346175828;-0,985032347574492;-0,713417755509153;0,539969945161031;-0,416065209763392;-2,07964912687459;-2,04235239668799;2,2248151244757;-0,74880788236326;-0,0738657540829446;0,822500709549141;-0,106384622934931;0,367857672779457;
1,08373140682403;-0,231366506748982;0,30867588565152;0,163074421908003;0,730950554950058;0,581099127784691;0,990652816530024;2,18850758165766;-0,984171655790275;-0,627131811191528;0,146573294923266;1,23082429180181;0,0260471489513311;-0,316037590331587;0,463123916553677;0,632837387474851;
-0,147635412764613;1,18306675741281;-1,00172625249794;-0,161196993593201;0,202271908907038;-2,32575971878591;0,722020968069453;0,564258059207474;0,204374587226291;0,153652015586303;1,49801588927532;-1,48956150393262;-0,283236199407634;0,224737380644368;-0,288930038339982;1,33668524302538;
-0,215402352765142;-0,0832722007702631;-0,578673371070947;0,50599195173505;0,232581857432355;-0,639516836916754;0,935862540053902;1,25095022732158;0,546879636321445;-0,257694544790924;-0,427499449686902;0,305424555694036;-1,74973849443215;-1,5064241840239;0,517990472720129;-0,576757388084892;
-0,726365168361734;1,13175026276648;0,104389612339042;0,935121637140854;-0,783943509618704;-1,91996048259677;0,135432372832139;-0,655880962376444;-0,934611444992858;-1,5732326614432;-2,20410828986629;0,39265287535091;-0,307748292386896;0,460053412321272;-0,111920194799489;-1,04529997757172;
-0,65601622673134;-1,82274104572377;0,432730500420429;-1,46263936347564;-0,533411519297697;-1,38442879255251;0,498367626286768;-0,710275894921004;-1,36732605747774;1,28382326976933;-0,0207524433781811;0,298122683863094;0,494395328173621;0,257241076972864;0,135024305299329;0,639994131814521;
0,206024829443959;-2,07857610228276;-1,3542601827363;0,774095764342591;-0,611067178961706;0,41109597116421;0,464656694057276;-0,0326529478847232;0,614056790643588;-0,652002360013275;1,08754926673288;-0,712087615444308;0,133630601413492;-0,614244963312487;0,912718756311997;1,34439458006004;
-1,62501144862053;0,721530731461678;0,446574879814487;-0,963926911278964;2,94722920595458;0,1315570504703;0,241566904507778;-0,935272601172067;0,341751980399128;-0,180720746061063;-0,658127081818206;-0,477592646503331;0,193837893311939;0,592240886294982;-0,192880277194957;-0,030568046278758;
-0,0877468867851429;-0,554675409906533;1,50934110096241;0,968635035115412;0,684116087077317;0,637254603679017;1,57575682567462;-0,547815939891069;0,506502458389418;-0,948620708971843;-0,478585435541887;0,834797849812005;-1,60061443773037;-0,43852573579094;-0,41404956347074;0,401925424239761;
-0,130715530296228;-0,126346902506697;0,878739780651472;0,945797062834894;-1,02895595152373;-0,172312869664417;-0,538218154392437;-0,0061527477924822;0,264505994082317;-2,4479764184949;-0,178195798798149;-0,680015448286151;0,230880152111981;0,491146859388164;-0,36985908631973;-0,660822369934949;
-1,24779296585087;1,02436021081384;-0,0223631680270434;1,38303329356695;-0,983825933847718;-2,87834389238608;0,607252132620574;-0,262979904405334;0,159887220911766;0,872517836373359;-0,255543119989752;-1,55125256153143;0,591121245453671;0,636273089012755;0,137697963889145;-0,727976605815138;
0,201626690081839;1,91023520220549;0,229157674179911;-1,23800523224196;-0,799943149472;0,0764756262333412;-0,269943278077796;-1,7637731924204;-0,0641612296938761;-1,89732429949933;-0,441572658784759;-0,299521619551932;-1,23884542726362;0,487082591823269;1,59635217949598;-0,414436653066542;
1,43896124566437;-0,517732420017783;-2,25081570020823;-0,054256877870966;-0,562297417935308;1,07636359453924;0,934620971082379;-0,224887029645697;0,146594780294786;-1,04846763874953;-0,191788881045451;1,01465040258151;-0,20151723206152;0,411283159967365;-0,620062095579492;-0,0534461177956926;
-2,23087300881593;-0,232365595114853;-0,311923384968945;0,432956157985389;1,0535704864477;0,172222369299204;-2,16808412274595;0,24816400204891;0,171875013973912;1,37469714250005;0,152603200082798;0,798505714639648;0,0774833504103189;-0,151525336359586;0,245478176688527;-0,521407938143146;
0,370017046915588;-0,32576445323875;1,32049780493719;0,747939825651138;1,19991759357326;-1,82656400369699;-0,715129358034009;-1,13103394519946;-1,0587871188874;0,901000991045157;0,419950627578395;-0,419990222286306;-0,258742784901276;-0,558092796410708;1,53863169472753;0,55398839944718;
-0,333315156296283;-0,286750614427188;-0,170283204957842;-0,790861367054417;-0,160088668053192;-0,65102739405065;-0,0885068025169547;0,327329967858846;-2,23077773906526;0,293443969852584;0,0310659804792225;-1,45492196412165;1,20394967855841;-2,9244591817632;-0,413659848348932;1,63132635602277;
2,01209803400027;1,33200143229859;0,560888756438183;-0,917773618007039;0,761058851346592;-1,07404502165601;-0,945412910330985;-0,164399036280097;-0,482310009075106;0,790741651311077;-0,419517039230436;0,246440822177715;-0,321388329462372;1,05194521174261;-0,0292049555993521;-1,49446752642383;
-0,20025679059805;-0,737852244213527;0,010267919850121;-1,32674281429268;0,883275333417061;-1,91923354466528;-1,70201139359184;-2,12067757289737;0,253539677590309;0,816842592609789;-0,902496669827046;0,930216326328274;0,840865311457165;0,769950964813298;0,146804618982123;0,246968931388567;
0,880750234889884;0,239243545563381;3,22443007604898;-0,515892846826569;-1,57559220253288;-0,480583862492309;0,442675665565368;-0,372771399838126;-1,24451458818227;-0,109536482113983;0,0563197268543603;-1,1174734022453;-1,14720187272927;-1,17002129256898;1,18803949903081;0,148916197958583;
0,512858976235481;-1,22664313441863;-0,00388229477270505;-0,204622171766127;-0,475223506787772;-0,307674655589618;2,78504161476659;1,40621891249131;-1,21422954050079;0,684596952296929;-1,93659466810517;1,3227134113763;0,220269907572553;0,877095946197932;0,140676905393346;-0,404797406673355;
1,57984502348698;-2,03220016632929;0,0899011239998841;0,624384614346147;-0,0989430291058113;1,65224022888752;-1,40853762681892;0,657691927251406;1,15723832934791;-0,93216543112875;-0,839517161361309;0,473175808602225;0,0559931575278317;-0,439207703479721;0,820472035239643;1,32050954752926;
-0,663900222328965;-0,76056420696501;-0,765216522333913;1,30016521632805;1,05224745433284;1,39134171743915;0,658630030827898;0,63849479437867;0,856630889857559;0,155862718642902;0,128368840119288;0,88617512689559;0,650103021949286;-0,605381693992966;1,5151106985807;-1,79883487736866;
-0,648927965640105;1,08653906307031;1,35284032265694;-1,67556888966464;0,435024220679079;1,09279438701331;1,0657165655396;-1,21294947763939;-0,528037022784987;-0,317930558718679;-1,14210115698582;0,840523617575529;1,0416647042012;0,635588863204646;-0,716555717860337;1,92218822266127;
0,846268879510343;-1,27349676894716;-0,431252757105328;0,52767212815072;0,147472757148924;-1,10207341489128;0,0657828048958767;-0,614727429330511;0,485014474734885;0,410778726709108;0,214477942285879;0,847876021892597;1,18379624545355;0,553455052899729;-0,211362975796757;1,98012266636561;
1,41896140512301;1,22894371273511;-0,229585159326398;-1,23567715502792;2,07994212964859;-0,00786121048049782;-1,42827695554905;0,193210638413022;-1,31315388082812;-0,923484256554537;-0,636984706078925;-0,0582696062591047;1,54038902617104;0,664566785594098;-1,18546667140695;0,834207015328908;
0,46115635122959;-1,03114507091448;-0,679778364416753;-0,273929602384067;0,114264748439946;-1,59405045185029;-0,879385166182534;-0,505765018399639;0,889721878550903;-0,680619081991752;0,200876344661663;1,11605282009294;0,441976050845621;-0,592889372942638;-1,92543546706126;0,0446544152309949;
0,755282592702027;-0,639634949042252;-2,33983267867778;-0,719480163875242;-2,50578816755348;-0,69678589514715;-0,345135602640807;-1,01211639245482;-1,39022123548608;-0,555956468597762;-0,623682683451986;0,196142812920069;0,562153385278688;-0,038915662539889;0,308781779607104;0,344241993840367;
-1,38244069765392;0,430210034474467;-0,231189625104389;-0,648607085613277;0,752725297821828;-0,684734960385531;-0,844467322540649;0,744683657815463;0,647625243564589;1,15346164100724;-2,09484322654766;-0,194717709807358;1,44000725065602;-2,43163373180368;0,395121801808725;-0,37466314717369;
-0,599356572687581;-0,214691083653925;0,913940360923705;0,655027942477441;-1,32859377540796;-1,47475288232824;1,92851213817227;0,534462108392111;-0,0305882730293711;-0,689686549961224;0,257113332828449;0,566817643425984;-0,965687441529597;-0,432146594618961;-0,274753340894013;0,136558100864057;
-1,17928486554808;0,00599528096313976;-1,40680242206237;0,0474719505115603;-0,0408341572693801;1,43305844969742;-0,0356045800424464;0,331260063417394;-0,556676336291157;0,978274667432127;0,867729943394177;1,37133056195632;-0,297630403416092;-0,252689021471599;-1,1562258811714;1,22363142237629;
-0,32700657718099;1,27156424673592;-1,96840400424391;-0,401959246608136;0,649501350641384;-1,89398104395792;-0,907129852404731;0,0367796308832886;-2,84778467753922;0,290024753842988;-0,377632780188586;0,273479526967164;-0,633661401657722;1,00774833708721;-0,00901142588805162;-1,82456649042654;
-0,663786219051813;-1,65481447832438;-0,93951425512044;-2,22871758189707;1,90300645095852;0,905400669760337;0,119757013448099;-2,03192326425174;-0,676725215907913;-0,760087752138479;0,702697432548467;0,728997990257105;0,340691776286179;-0,000642615386105627;0,721114022097386;-1,73214546716144;
0,126575999411092;1,51586045223586;0,720239731084872;1,38537958472901;-0,0614754967957476;0,404242682049839;-0,255055432184216;1,64294407907308;-0,859274819604733;-1,53011948354037;0,479876579304556;1,87262691003189;-1,0857763340399;0,000781753318360561;-0,713552662999246;-1,25108391465196;
-1,97040262292536;0,563147748807989;-1,60274707477592;-1,1102301522817;0,364800993690775;0,587793226597503;0,97204963926152;0,954950518022354;0,482767571623516;-0,108946623514998;1,18414059413225;-1,11827897751244;-0,229473840512636;-1,9455748323792;-1,07362744239696;0,0883203337021685;
2,09121201884569;1,58397625671061;-0,741260196577198;-0,253735997543604;0,743318776730402;-1,30828653660003;0,699903738838669;-0,649912081303905;-1,08362094793923;0,209765332800345;-1,02250123333647;-0,990772223109593;1,33689321178548;2,02830963893659;0,937560775355203;-0,992942727791437;
-0,0764003405736766;0,245659176089879;1,87689785951636;0,813632725871871;1,60232425817534;-1,94703043041958;-1,22877915305503;1,532861675332;1,56340804903727;-1,25217237106207;-0,698558361239299;0,985526811020428;0,106089447108955;0,25783899151339;-0,764179759792961;2,02612085222322;
0,0664994383013859;0,69752752153566;1,32727182618779;0,737625638326771;-0,11708484485994;0,657741297611827;-0,814234398702554;-1,0360491722626;-2,22062358652348;2,29807313063582;-0,804863902139667;-0,385895131047241;-0,7724069890078;-0,673663818527043;-0,416080161733437;-0,808111591999328;
-1,4953801250879;-0,289074955061828;-1,20922478281686;-1,21185722347188;-0,362991018390606;-1,5223643409339;1,52100218967292;-0,706042517510036;0,226415112533251;-1,0737103091826;-0,918917429378504;-1,41207876842694;-2,16686614196521;-0,00944415526704317;0,339971508458541;0,11857132731546;
1,77146935733664;-1,76054925271637;-0,440981618511737;1,10142813395812;0,645473766102631;0,340091904614705;-0,89868398690253;1,02947384381098;0,00220544332041295;0,5997015810937;-0,32750359603874;0,223169547069419;0,665893198179995;0,555560096976243;-0,186231073991301;0,0550561024295474;
-0,102283829677216;0,0946568461763375;0,10695602943647;0,57142741096241;0,705472332396833;-0,259253522626717;0,177474150672433;1,55392500454493;-0,264653861011915;-0,763774727277035;-1,04859779512077;-0,205614251795006;-1,64310396207771;-2,07697484959954;0,721135305829086;0,166810553468192;
0,445071012398225;-1,91407607964678;1,8129883641857;-1,3440921503145;-0,0375909590186327;0,948516027758873;0,603089481200495;0,548897151815801;0,318423216349122;0,13983306614261;-0,0634651886411824;1,1476853945173;1,12390525108631;0,522126298587312;0,0513503448411855;-2,1325250303231;
2,76438791061345;-0,885686376548099;-0,0307885494298251;0,92785254023542;-1,21998531721859;-0,873127274564634;0,681432546358649;-1,80370026627533;-1,14099254636566;-0,535781293536757;-2,01717764443176;2,36300770776845;0,350207911317303;-0,309955427382931;1,08974413234843;0,53242190382071;
-1,09713504509534;1,27096704072603;-0,632445279770815;0,667999705143259;-1,99864187061722;0,840059691928856;2,19027184329058;-1,02241092286521;0,117657302696197;0,752086278176227;1,58862203850764;1,04625052666696;1,84773826170024;0,13299613841974;0,238971187401629;-0,712011562126451;
1,9043352888113;-1,0252837327314;0,207434244145921;-0,263122182963132;0,523382173181921;0,848946974379293;-0,510015319671066;-0,743248288966695;-1,25651444999699;-0,0951180374498059;-0,023029359146412;0,0907268252555663;1,49051188272854;-0,173360800567533;1,34498968431995;-1,25059210900639;
0,7639592939326;-0,0278501881314437;-0,681320449375982;-0,48614788030748;0,205463907603516;-2,82548786683456;0,874720314410091;0,623066152502137;-1,20394535878677;0,950215826587935;0,434630560375285;-0,75144787808282;1,0313249213647;-0,391594106457646;0,0443525507323109;-0,564704670297402;
-0,06947835174821;0,393761215355393;0,0444485334138681;-1,87138127901563;1,97616609403751;-0,017429180418358;1,19272490784248;-1,26258038306922;-1,44257364923307;-0,796129584595118;0,687217224880194;1,20529577320516;1,31690510958011;0,644353076018885;-0,172199346598597;-0,306165996003136;
0,689872747293008;-0,784621873068907;-1,61297051068786;-0,746791134891048;-0,81182212193137;1,41499643009394;-0,720355974701817;1,09813022358327;-0,0635819896806037;0,897713381384483;-1,87778319230822;-1,97179183082928;-1,24951281290106;-0,0392939012902566;-2,26378954334325;0,820150504227298;
-1,58687851507744;1,9502712243246;-0,868415228667165;-0,0791469718924043;-0,799237723630455;-1,14977564452214;1,57455186819009;0,889842524450792;1,36417616002906;0,192980533793344;-1,74375154822214;-0,454952930318969;0,00822219446522177;0,401474060464228;-0,632778653743161;-1,15052057931847;
-1,08211945004212;-0,446810870622604;-0,541134955807387;0,946492799770224;0,767592129653235;0,648874127361881;0,746513695075281;0,49017603417956;-1,80062574702006;-1,73770201840055;-1,48915134595928;-0,197103948754052;0,749931549111074;-0,186250736852625;0,910022336688397;-0,850014179486014;
0,654827027365576;0,809233248067068;-1,15422934202097;-0,82516941078253;0,487134097970117;0,642749599321894;0,04280598038215;-0,617701569655858;1,29647124241466;0,275269337447222;-1,09762808712461;0,0442910136126257;0,361433186646554;0,432466896872348;0,313628934328694;2,64838145808065;
-0,851906790811966;0,643616749605652;0,96407866231714;0,722212000965497;-0,871867543362716;0,194647740990868;-1,33818865515056;-1,17395060306255;-0,917593113600371;0,755634641513216;-0,539876668124039;-0,973122907703971;0,302137441389117;0,827564095495386;-1,110070794884;-1,54258204478491;
1,90785904715195;0,751851484888341;0,0384491040463756;0,914791450506888;-0,499565677239576;-0,542894005486342;0,601943779354325;-0,188236116823829;-0,116943780467879;-0,389157201024419;-0,078570387454581;-1,20977125228912;0,773959509415468;1,34583518398171;-0,0113793676870237;-0,742605377095802;
1,48612543015861;-2,42514852732283;1,81128435162779;0,219999504065427;0,0388448310344411;-0,706660553346048;1,97910974735469;-0,496114447214634;0,462929637563705;1,87703721825147;-2,09694858080327;0,494769318825366;-0,0907440795890529;-0,490220264088764;-0,916640578403542;1,58887388840963;
-0,0353249794409181;-0,415079310057349;-1,53249949313334;-0,633796857837429;-4,09062735372685;-0,803944038580185;-0,439434230643302;0,739909723140847;-1,407796811144;-0,696541890520414;-0,244998067933287;-0,869517109909113;-0,641143099373773;0,483973599909818;0,544004449360289;-0,89746028988357;
0,451198584002063;1,15369437133834;0,804860600856753;0,764122923599747;0,129650783922931;1,14055604626447;-0,802204864465014;1,01848588554374;1,22761697456261;1,30479754361318;-0,0316229584392817;-0,68673528434694;-0,276814886573875;1,58725801975408;-0,26342207191317;-0,228238754495286;
-0,468745347779601;2,55851987851244;-0,198543744061292;0,719216210619292;0,733066960463303;-2,43442915821986;0,44645142839705;-0,942735146224799;-0,872189322770981;-0,238711254901035;-1,38107439456407;1,25786287800895;0,303014724707319;-1,00257432636776;0,0880410232176273;0,292226215191748;
-0,671160280650008;-0,172491094135521;0,569425395211168;-0,380598507265243;0,44138034546259;0,0168189280155011;-0,561767354932384;0,0737416855307946;-0,193418106396493;2,77492600433072;0,621961105576782;0,481610029229976;-0,925965895446387;-0,37415589944233;-0,271077495990614;1,74140360008361;
-0,309320710491605;1,17033811354249;0,78583896302517;0,158773335711739;0,304464750187621;1,5449132027776;0,548141346325381;-0,192927154535188;1,15511883767148;-0,0999158218863596;0,053246882283552;1,2488233921806;-1,3812949176339;1,11531509758712;0,0472086546365911;-0,340834792532883;
-1,72495849363242;-0,0773134904953482;-0,853832604352328;-0,0635260401569667;-0,058535074833132;-0,842443704309513;1,31733095740435;0,92865731616985;0,757133209310855;-1,26058820100956;-0,21578282422177;0,63796338529484;0,839172448372748;-0,135180312545622;-0,258704495625324;-1,03565571087701;
0,859329661109312;0,561078378725331;1,24609212626768;-0,130247529696517;0,76679545648425;0,0255326544136703;-1,07393905773497;-0,511051324276846;1,15408116227605;1,2008675508112;0,94606803789504;-0,0528185803188684;-1,64814605887756;0,258647677754652;0,545229706867468;1,78231094419848;
-0,991910736002262;-0,800015389120248;1,20742458609499;1,40931232557476;-1,54080067094244;-0,33584131483272;0,426064767634431;-0,433255598492144;1,30652034828307;0,0301591992627845;2,14345388340767;-0,214167790707214;-0,319103305013454;0,301221349060778;-0,518563772869898;-0,0815583194365528;
0,264629042537658;-1,00818122667337;-0,378474910948203;-0,874085933331206;0,142330672984136;-2,35889944733339;-0,785064083763008;-0,733827289535725;-0,496435222753413;-2,02448546769334;-0,86199109178684;1,79108599588136;0,0332263569912665;-1,92649798695529;-1,08710262822584;-0,427676911872742;
-0,698791884575757;1,3041177740611;-0,425332267065753;0,640475503512072;-1,0169828434857;0,052315586850071;1,43766133374144;1,21780179501204;-0,0339870416372711;-0,405534233436134;0,59363373761166;1,39929356734704;1,72288524653907;-0,339438729046542;-0,223522146849837;1,54435193747014;
1,09509185528483;0,496166632320088;0,98649073203305;0,107565715393745;-1,66501546746458;-1,07369483260166;1,81019765819466;1,56358669741649;-0,975997985884033;-0,267625287336199;0,85615360278671;-0,37267450519667;-1,32667268885175;-0,704292181726294;-0,0583789100233377;-1,07053956556219;
1,18910946511861;-0,648020456551668;0,894231791011116;-0,634200530658994;-3,38987355645163;-1,56327190948746;0,0839289511889827;0,267632659451807;-0,789087839314032;-0,139027572584661;-1,9218355378758;-0,746678406440611;-1,74038445749602;-0,476324653463562;1,02315410062533;1,22844163758287;
0,691418118198595;-1,02030895903227;1,19727083348544;-0,410250600205587;1,25175580335107;-1,03429373467421;1,05203424697878;-0,18065167772614;0,574165268324205;1,12010816539325;0,117532859965685;-1,10263507872662;-0,230494400749162;-0,424691965984243;-1,27140175239262;-0,561833803261528;
0,25880079182704;-0,400226233346999;0,340838667844588;-0,745612571344572;-0,447667476162779;-0,0989229617484582;-1,45290551421443;-0,662393659533503;0,452054921116691;-0,218484431784785;1,6010432299437;-0,527753818564571;-0,414020169010571;0,8488216202506;-0,689180997568277;-0,164010678451393;
-0,129478335976208;0,224247201645468;0,157580691793708;-0,353478512326125;-0,12194457981706;-1,19741915592303;-0,105379665455107;-1,06612328193984;-1,88107921567483;1,82099072164477;-0,236577487316309;1,0600341172218;-1,85331458602803;0,806732188903138;2,58572597828391;1,33294569097807;
1,28388571559065;1,41432050735042;-1,39565161555217;0,515044703036254;1,54890780085193;-0,265517741489548;0,678340234025594;0,278267159350691;1,14140330744286;0,235812584878592;0,926170156371254;0,39268587760253;1,23614441073935;0,522464595504341;-0,633095055532882;0,899593617582657;
0,829841812953054;-0,916940745787973;1,52636564326509;0,733274582728817;-0,313423571369795;-0,0673742932837444;0,0266033569577939;0,245144223237729;0,670463111451801;-0,329404158390898;0,092496461507025;-1,13823900100338;1,18990209638921;0,391227354359766;-0,336302611523574;-0,443897312318089;
0,167961589976939;2,21609873551063;1,00117044804288;-0,985403551103416;-0,247303628045211;-2,03126245000715;0,0194259820409991;0,21109008702724;-0,711443849536546;-0,273041519228918;-0,302535232852193;0,832438602286908;-0,335456174948414;-0,510829530858418;0,874831278769583;1,12618828219233;
0,630632163865899;0,47599938538555;0,361689420719098;-0,84028661268042;0,103185221117674;0,506963539637058;-0,33191111093443;0,102297263944828;1,22029807546851;0,543013546626672;-0,0261917883214827;-0,642844285986807;-0,848461827608285;-0,668924032217094;0,501916909086091;-0,969345515850974;
-1,30723645751265;-0,807935145897892;-1,61059468072103;0,737945342418339;-1,59574578061589;-1,24784180816458;1,66321418434173;0,447425640385755;-1,20922942104566;1,11689429866698;0,0802365097053472;1,86819751889601;0,463326212393863;1,1000476731421;-0,0250684319879702;-0,589231147648779;
0,429396981480665;0,487280128633441;-0,228522121331929;-1,39894492282823;-0,0720233031605107;0,323072891460951;0,242784637866029;0,764470410892163;1,57153402938353;1,13801794219758;0,290592453871569;-0,57816439284368;0,164567522822395;0,429956104527301;2,04412022610076;1,27129924452746;
-1,78446057271142;1,84927264410621;0,945873750822039;-0,397173897724481;-1,30972439848318;-0,103738322627293;-0,801482823899189;-0,386738438490053;0,984725064600961;-2,52055068170587;-0,468487782903931;-1,35361314885052;-0,956415487611352;0,812692091359007;1,47803239329738;0,0325396267844181;
-0,139238138697092;-0,517693528976217;0,174838657591817;-0,375146444282165;0,785966885155793;-0,276668484125696;-0,882744767580444;0,728901658494498;-1,48985196216608;-0,424092469726888;-1,51515397177894;1,11824103999028;0,310110427632591;-0,667053083988749;0,250706100289835;0,526221493475144;
-0,109562125106172;0,929957283652769;-1,25707601215795;0,621108909591655;1,05217644383293;-0,301545869328168;3,34208240127595;-2,37489096580208;0,916495020294051;-0,997420991241839;-0,664937643075097;-1,7694566157639;0,814404187089172;0,0546775700994659;0,824104022761659;0,0802606549326742;
-0,490489896004324;-0,246850045821529;1,15637145380874;0,452661793855412;1,48711465894814;0,832223927983396;-0,568004892812487;1,46408375836965;-0,514724861032937;-2,23066365684297;1,21201101657271;1,25761643296562;-0,624142807538382;2,6806124656865;1,13300757416673;0,829390966071348;
0,251352796516216;0,775314443701597;0,232430185606732;-0,0298868738417944;-1,15096207977577;0,673717098020126;0,531882670550219;0,286777084144179;0,789847213147861;-2,21262882938926;1,88174839732844;0,59062670159338;-0,217533463445798;-0,182501201627879;-1,40565334871216;-0,0611432545276307;
-0,022925351903744;0,208460481586008;-0,59444407386214;-0,15923693095126;-0,244729844401406;1,86409851033222;-0,602149482547667;-1,67467153984202;-0,535086838740477;1,01778590606412;-2,0955883062943;-0,0973238284037312;-2,32046237936993;-1,76843503717761;0,0873407850420332;-0,915886715901747;
-0,630058331725878;-0,689112626267801;-0,557208287931317;-0,556058168311211;1,27633035080635;-1,08327971253608;1,7171734981723;0,353149218802786;0,461623631339815;0,149817368627752;-1,67286539766464;0,622471418868452;0,0351959672986163;-1,43154953764458;0,52516277812892;1,26742458234374;
1,98218286527837;-1,03811105807269;-0,982687045718681;0,893196465665491;-0,551052131926768;-0,279978115416867;1,45183810808152;-0,232987000557147;-0,547201343151136;-0,848460627763532;-0,626433224443578;-0,22846386357855;0,334986865196152;1,35291596860006;0,211847318814494;2,0319830112497;
0,0274845487950627;-1,10114759958056;0,373923131481337;-0,378221654790568;-0,391437581383524;0,0903789085768147;-0,132028398122299;0,135668469471185;1,39811339261025;-0,100644597314157;-0,669275507787495;1,87505410613261;-0,182342358472572;0,203852066939518;-0,498463740730068;-0,124103124603373;
-0,954290695935081;2,87310355223583;0,328088206289818;-1,60714633356273;-0,172422514957435;-1,55580952414966;1,6010073172726;-0,0188615394787362;-2,02725668532026;-0,266537554164067;1,87655896857308;0,997139744319069;0,41631339206823;1,25138430556035;0,288010131290702;-0,213099468965895;
-0,733738366560459;0,439150852763403;-0,465740426789707;0,406059237700141;1,9677864907908;-0,159701187103948;0,653563704503534;0,421239744441145;-0,210599033233131;-0,905614138043652;0,685444690484664;0,27868772683999;-2,10516858121036;0,418647817672121;0,440680445870596;0,161239515148473;
0,0868778341816492;1,2218359527165;-1,31322376457189;0,87360799768644;-1,09214377009669;-0,599759442449514;-1,05749764877183;0,0816751459238701;-0,397211568048514;0,811114645282471;0,722114684200372;0,927917705255051;0,495654630483885;1,54600256587796;0,404044015160583;-0,208773898199191;
-0,0902396992898329;-0,462824958470767;-0,146096820513043;-0,25904764022679;-0,480072164952863;-0,907033442541847;-0,967386747934268;1,4731096493825;-0,239204902308155;-1,83725289552787;-0,127125986000434;-1,24300247603376;-1,48447532239753;-1,02565442179353;-0,429930867208861;1,87518187983945;
-0,896111643291985;-1,17513096426007;0,417004240910965;-0,969282086811137;-2,91576423447411;0,952753538220931;0,896925631841563;2,52441944007331;-0,00296374554448466;1,17752430810022;2,39663588609385;0,126662280300771;-1,11649187847867;-0,392607738663456;0,442530516187902;-0,639075245258731;
0,25487063219096;-1,43845845635195;-0,850582699001221;-2,63895336268211;0,475207691186798;-0,450764846097163;-1,35215615091431;-0,49469788192038;-0,166261601690596;0,0411784397794909;-0,993462066290852;1,61907208663142;1,38650323773794;1,35976206148192;-0,864027817380168;-0,194833138695073;
1,16963338588884;-0,222778407614795;0,749080456707699;-0,14231205137379;-0,170281905989576;-0,574781027508793;-0,712522624756759;0,37514572146891;-1,02613848000796;0,480841210053991;-0,994588084681017;-1,05771639094875;-1,61044822209572;1,5880060672971;-1,62653933404993;1,19002628048688;
-0,687123486780694;-0,76762325579578;-0,0187697291747069;0,923776659310456;1,56067392203017;-0,375957482007356;1,68330306459848;-0,547510872948872;-0,224851526469197;-0,507323602870057;0,653326587665991;0,274592927065533;-0,066765173020355;-0,077694905421268;0,389638926578897;1,60261736872699;
0,538450195301603;-0,485001797969872;-1,38412863149396;-0,748749002734497;-0,0736391910893764;1,73123071169735;0,75493169568616;-0,0949196129178109;-0,118425584975168;0,774864804164333;0,0484781721357016;1,00656967199925;0,450976728129404;0,474375434117827;0,484131112252572;-2,00433151147151;
0,3570382764572;-0,946080279252188;0,551781439592073;-0,742546710422882;-0,332620171869575;0,448993237476701;-0,194506035068093;-1,12196141012355;-1,68234686371984;-0,565863151774781;-0,155374719199561;-1,25060514097006;2,34139047955189;0,540952567951573;0,00493110882874898;-1,62449981902228;
1,17441861873191;0,687238433857519;-0,545398383974359;-1,30490738423252;0,201689645926674;-0,296614262121407;0,894065350280782;-0,576342789619724;0,285731964324811;1,46186479840589;-0,184703103216174;-0,578159645375095;-0,249864903061032;-0,205234194746908;-0,0451513215499336;-0,830369594622115;
-0,151737454007944;0,112638005194573;0,257374449096333;0,515101770964539;-0,0783061964393566;-0,764279567467149;0,973609463348043;-1,83761557372605;-0,477783294076061;-1,9878752655054;0,00949938027755352;-0,290722947883349;1,68453461091441;0,0706593851464298;-1,17381667903084;0,853640662916801;
-0,500316966109717;-1,95468505039763;-0,836801520392137;-0,585316003595399;-1,0984334605507;-0,306533864454014;0,449852205588558;-0,513686221823077;-0,224114018156643;0,905591285553052;-0,344382692765025;-0,721240387762051;-0,810579957124886;0,3905722940956;-0,358074399230778;-0,289954450195499;
1,1107755829286;0,82280477137797;0,308726518369885;-1,45058357642694;1,73831731226436;1,83433464202345;-1,20606033968519;-1,44284778436761;-0,0482543768440037;1,09897785461205;1,0645723959706;0,0823387870496537;1,65976996830469;-0,342564070602698;2,26673217131646;-0,107404392973662;
-0,502086030953541;0,174896492538171;1,91003800748267;1,1350349803082;0,171785946812476;1,50074843752997;0,139582734419656;-1,14656551274257;-0,595468411808744;0,552049042729947;0,770586096515749;1,13219082204222;-1,16835960770496;-0,494772164700631;1,14836184210803;-0,906404965953952;
0,362871521612335;-0,381345676381865;-0,782258614252295;0,313924903348495;1,84914518451278;0,50692971534167;-0,151685415041352;-0,831474139378657;0,32298481360149;0,941080684822569;-0,241162880746455;1,18882264558605;-0,110667609464468;0,138667927143325;0,122227793499313;-0,6658956236286;
0,143463603977556;1,94889274199579;0,255953590001379;-1,0768409065398;0,502180354620938;1,26276237842721;0,396444340964853;-0,530182906326015;0,581294316558633;2,80903518164873;0,225657879023233;-0,123224432625009;0,623794438178938;-0,44318300182832;0,535147172039496;-1,19627522140375;
-0,964528973620701;0,623251890047866;0,723030635131956;0,0747506293973011;-0,0768587915241107;-0,211320316558472;1,37267468742919;-0,981174745364639;0,192195914914746;-0,242003111954032;-0,497069731315784;0,175312136874064;-0,0534986431029911;1,88841248209492;-0,683456839568392;-1,70474954283553;
0,358105740809288;0,640384096580279;-1,49029791136687;-0,964363687248081;-0,125884759734321;1,52287197914753;1,08918600253136;-0,33993371025398;0,320098445335038;-0,306018451489263;-1,01355553499749;-0,300165610279544;-0,816068293149467;-0,109020201154301;-1,27929372258867;0,496130479356619;
1,46876511152284;-1,20811371271503;0,1773093421307;-0,889210190881306;-0,877885007629022;-1,5785696497148;-1,42555287100724;0,351798825753224;1,61382811280505;-0,459336169454005;-0,512453625349822;-0,813940253239054;-2,6678621115567;0,462832452252694;-0,275511152773222;-0,173692709886477;
-0,644527327342443;0,585229135498624;0,121891263662512;0,834126058603415;0,201106280255336;0,535519120985535;-0,360611788046868;-0,383000599537411;-0,521986662305467;0,311809519993314;1,12777640254573;-0,954573813251727;-0,231966233933134;-0,273069904588969;0,44089491261803;-1,15110477146346;
-1,1796691524696;0,272091127242478;-0,332277585495822;-1,42105005813079;-0,165043267841985;-0,367892254172021;1,08267781846735;0,219646503831213;0,645056707304542;0,942207974316608;0,437952627649113;1,91248970519123;1,24091564706569;0,322068880919929;0,0824986978671616;-0,847457768963117;
2,15978975963429;1,43116390604314;1,01247852528182;2,84461155818167;-0,793812442710766;-0,464413049832099;-0,678104610377398;1,37070807477089;0,26662014884882;-0,350691465339896;-1,2005260596363;-1,39340433623582;-0,963032008648784;-1,66609874961192;-0,181129250118241;1,53402213031922;
0,818146450917116;0,68455475006646;-0,237737321799737;-1,77312998389848;0,550563236257509;-0,133196424186276;0,488238532385312;2,32307117068722;0,281772425059318;0,33855845497423;-0,933682490566024;1,85495354156988;1,97896118123619;-0,757615792289667;0,390733921383847;0,464870038298849;
-0,183667246417367;0,0994984594976925;-1,46205801338659;-0,860644996414661;-0,228065863575328;0,0240853356060952;0,167403152092258;0,478549452113265;-0,489915153788696;-0,390108502135701;1,98179613004671;-0,281876921913882;0,613493993615621;-1,26710918856879;1,14098088236049;0,18399210024789;
1,12044659836219;0,902043479775112;-0,0481528830427331;1,48019397171132;-0,169993355904925;-0,738268577914747;0,955027556041898;-0,277901288582275;0,683989523249097;0,115485649347433;-0,759032323937217;0,333235100425326;-0,458729510536487;-0,498945651292062;-1,10979973932922;0,282311310119555;
-0,0728890252798978;-0,318298078135734;-0,691385447050265;-1,04137282935327;-0,653197097346589;0,820026154248525;0,308815698003727;0,021977716749631;1,66538791821669;-1,86225842348664;-0,34970956044589;-0,353515550375026;-2,13167790561563;-0,402955836842282;1,997184152742;1,0239230377576;
-0,916841553115476;-0,595364569802977;-1,24782528882843;-1,8052692776272;0,327862762783153;-1,18218240943189;0,368473560383266;0,387949100288455;-0,851703970878852;0,975108901862237;-0,602164181576096;0,279133231980141;2,14719736220165;-0,492174422375627;-0,093302603371842;-0,213770995383647;
0,560301193680221;-0,0557935016375522;-1,31433479820955;-0,118348756616404;1,45366521473173;0,0689055638727944;0,806763764264201;-0,709381912014173;-0,186870495076287;2,28971949819389;0,762540988611911;0,902660729174293;-1,5589792552874;1,02539947156526;2,03846422028465;-0,423524419395531;
-1,18242907289671;0,250741477543997;-0,33214791911942;-0,582262148001545;0,969236645932377;2,06141668153839;0,18838575036715;-1,50435270351978;-1,23774138494443;0,138522722505618;0,329749496186625;-0,452487442179549;-0,532802769617543;-0,48194954035649;0,968489474716457;-1,0476804905223;
0,815080333407929;0,0243656177605531;0,643823552791435;-0,209150488382897;0,68507637254071;-0,911702275409966;0,941474243402915;-0,111714724273254;-1,45700883669708;0,410108167828478;-0,494646250931515;0,140685355251161;-0,507583030195581;-0,252777794596635;0,963696987464587;-1,00071213319686;
0,845451998764548;-0,776008076989577;2,17131502237618;0,259250268560697;0,304729311092257;-0,453064931847429;1,30380922944775;0,481373633715423;-0,94407409860282;0,619450588243884;-0,0263094793074664;-0,291142669641522;-0,87829073682447;1,49846150694746;0,519114365343789;-0,433179517838746;
0,622521552587394;-0,034431525401353;-0,441654296180372;0,0208263409870095;-0,212981262088083;1,51203734984547;0,169168320292445;0,0763465085663733;2,32346258334041;1,48948659153604;0,622229055769085;-1,71678075641104;-0,896174166052927;0,799280268890229;-2,20022798537443;0,00589368740468662;
-1,02181543601615;0,562675386629191;-0,675222350227621;-0,7358215535154;0,0270063649703279;0,462148968170374;0,769817115745403;-0,163036672689185;-1,82315300783369;1,4445328583167;-0,592917120671637;-2,19037190193579;2,64402290415943;-0,596390331066765;-0,305412055953648;0,097074740953709;
0,308177366761547;0,717535432058983;-0,581563576336181;0,588756668932573;-0,519890092256979;1,29021232729018;0,787420095251159;2,36264145378801;-0,597405578542532;0,206115982829295;0,852568408531898;0,670232510507451;0,208483700520798;1,86821402271251;-1,56331663157216;0,776961787949086;
-0,190716237959817;1,52658165113352;-0,745674611907912;-0,95393778316031;-0,622389023443649;0,475972423970819;-0,39246343522614;-1,26695814630011;-0,11445404409592;1,23582462324431;-0,433376130709464;-1,39321874007613;-1,77263855203763;-0,638485742268157;-1,17863245189304;-1,68131833286991;
-0,172311511619947;0,0401825742759386;-0,0832017675483989;-1,72157241510758;0,576957405799115;0,311681906422933;-0,623079543320575;-0,222985740223234;0,484204505668127;1,82795456076564;-0,675233377887477;-0,564965524142138;0,921891876243117;-0,456691928917873;-0,521091534963739;0,190285111556799;
1,206957678579;-0,413184269544115;1,24288985740451;0,0751809604058529;0,472447766903086;0,80414686368025;0,119894126323717;1,35286517534109;0,711699877000219;0,879348076352051;-0,517195628597719;2,27036250352131;-1,04443709218388;-0,283973390213489;-0,593253941168337;0,789948325982777;
-0,932329996017046;0,799342588551411;0,755475933744513;-1,0715820035021;-1,36202245456558;1,2337718712632;0,775111916070989;-0,265714819462405;0,372296102682752;0,385535402170285;-0,226274384666596;-0,117660989894793;1,91968694213162;-2,12563500593247;1,37414632349648;2,35736563885432;
1,27915374384622;1,29145152045147;0,84021727747104;0,687761657480324;-0,23803462401564;-0,485681888529094;-1,13694396531385;1,27198118796603;-0,192453762835488;0,642652014790468;-0,715186481341969;1,35356376097337;1,17647979545783;2,75111821041619;-1,07038538894544;0,435606857696409;
0,563001607736236;-1,89041969074621;-0,0798814408904705;-1,60558349813868;0,417390400654197;-0,0461215491889488;-2,29176092277421;0,0639545966226535;-1,37719362181955;0,260330935467161;-0,545348829428738;0,23996617050508;-1,65556527720603;-0,889752114358119;1,1733833143254;-1,66223371511371;
-1,00323390077875;0,955432634906131;0,930636722111216;1,16420790469376;-0,663139437796262;2,10939115718493;1,59266052242127;0,455696279716358;-1,54798830868128;-1,90735791516553;0,0402167841576279;0,136135978172848;-0,863889881904851;1,05162627015034;-0,853630713099508;-0,306032419053901;
-1,29318116807314;1,25398647650479;-0,568223142769903;-0,12740852058456;-1,88862058020504;0,538945533664795;1,02718771277747;0,9553897159634;-1,2084799590761;-0,557961083820422;1,41706026327074;-0,0692487736741618;0,909100257195197;-0,0923491299404104;0,924390742766826;0,318272375703825;
1,59339057278651;0,381279053074158;0,667813396867109;-0,0411459089317588;0,417946550155319;1,07742810698774;1,18114259280097;0,969246467711137;0,568438917193615;0,267761490797455;0,62706833374585;0,493986008705537;-0,41874256114525;0,749195130907509;-0,758898040330959;-0,797857549555098;
0,388387645899456;0,865606484534891;0,114658631076168;1,29781725173213;-0,0849708155477198;0,538477803086698;-0,656750428590395;1,56763739962898;0,122891643266309;0,829354809173508;-0,161958321577865;0,312706596013067;-1,25277388993275;-0,999503062874299;-0,799586970513944;0,394857178496547;
-0,412536026499288;0,168898290850038;-0,108838752855853;2,57839123366391;-1,80738454790476;0,753515163257314;-0,669949396213988;0,22929399265896;0,648432641056289;0,959645418423649;1,4282784528119;1,16173337083331;-0,0428324762187916;-0,745254463293888;-0,9326656281887;0,73066832034409;
-1,14511965617709;1,46319867583444;0,813660948406859;-1,75283796634272;0,611635985087703;-1,72012359735218;-0,0304924007078513;-0,676953989039384;-0,408596815983207;2,54309154480213;-0,0151330743845859;-3,08497752105642;1,57390966950622;0,701811791857909;0,01153164636804;0,38210490298223;
0,563785017502905;-0,385140665542858;0,951651665580051;-0,81592718495562;-1,19551315928031;-0,542206997153951;-0,386170302076281;1,37718522911789;1,26145435944632;-1,73084504992172;-0,575656064007682;-1,43250948067207;-0,417793266389545;2,21127248306781;0,333777583239703;-0,229384924863806;
-0,981972169405792;-0,293786564250064;-0,801320983397805;0,668957427804023;0,458298219302659;1,17373772510358;0,72570751885053;0,336809736483405;0,378543577543265;-0,518827596798697;-0,304633421592972;0,718220387027119;0,0718391432231883;-1,98170639482189;0,471213280604616;0,616899639383664;
-1,38832412364823;1,48082799660837;-0,446934740095969;1,17247219187876;-0,844415198680764;0,0425859706492031;1,04526237530813;0,166225039901363;-0,589252184937479;-0,0785764817497297;-0,791846287874524;-0,800556636721275;-2,5172198560439;-0,796394819221331;-0,534612265343784;0,790403959777766;
-0,161613376784009;-0,355752972079559;-1,48875740381935;0,889262804289776;0,258391764267009;-1,65729992989313;0,0414189895579072;-0,794563697418697;-1,20230602876937;0,217663627551444;1,92238760378917;0,507135739390986;0,304559370167067;0,553411895631042;0,0774605139092648;-1,08299051767384;
-0,851092323754978;-0,498180520384086;1,38076556861334;1,6958558823119;0,129334541853582;-0,491998171168423;-0,820917561516001;-0,319134033564214;-2,11299203469867;-0,364356914816657;-0,0626681142738608;-1,44008715112894;-1,94910373579384;-1,21543444180532;-0,741039913688518;-1,12214084519497;
0,0494218267917432;0,860856089409587;1,4895296410647;0,657237892232026;-0,434816234500593;-0,176884955629084;1,10897269384708;-0,920426167261137;-0,115509924609629;-0,0455309615140623;-0,230644436309011;0,506225668679092;-0,852619822474963;-0,608716394207952;0,816167501362495;0,93452144223424;
0,697169678391678;0,6803062792211;1,68524073197429;-1,15539888579768;0,493350989934128;0,478764160321151;0,929723932125297;-0,545425556278508;-1,78321061191375;0,0789517466406305;0,844615693267596;0,758205546328828;0,872121013166302;-1,31325142470037;-0,265669761575301;-1,02594414295737;
0,383075593019228;1,71669115272496;1,28471009140332;-0,147063166136009;1,7710708951312;0,0547513734779874;-1,0271539987251;-0,164924718880176;0,0998378947070808;-0,736562393010862;0,655744321278531;0,285369986184903;0,244314578938683;0,265521481657284;-1,7587368895122;0,859002725178386;
0,668528235269068;-0,216423804435122;0,619029281553876;-0,826809401352532;0,338072070836329;0,266185515280246;0,782045888254336;-0,635413884325889;0,835406873218206;1,62348974244382;0,132365926017716;-0,668225515571688;-1,58476637557354;-0,433996154788824;0,527490398277631;0,903131090663033;
2,19124517053653;0,497589020547084;1,85645140211626;0,568604876394916;-0,132465327431992;-1,09409278732213;0,851184408016727;0,750344802808768;-0,861841722700286;0,559685935861463;-0,677848783237991;-0,209379908393026;-2,33432477820753;1,22288189553763;-1,08755294446697;-0,225570505425958;
-0,0311157047735331;-0,310861060794961;-0,701223940873604;0,909828992752307;-0,317243644684022;-0,205842534855329;-0,211423522826093;-0,669847029152166;1,96621151519322;-0,846247861664837;0,670682014486498;0,400533614015712;-1,19032624428097;0,0203865861986429;0,0590903995943177;0,4216298328932;
-0,437720235182597;0,188101739358528;2,44509787877658;-0,487465484526357;1,58575323289899;-0,143963377681991;-0,500345518999495;0,275099947846608;1,17840320460708;0,262185851338109;1,36194371080956;-0,754363443223593;0,89009683969393;-0,830331299969273;0,767074850359382;-1,45347674173013;
0,290664995615159;0,660292483609384;0,167078613156317;-0,34248296768745;0,56780172003833;0,272343167748998;1,06129261832049;0,74746718495247;-0,484063830880167;-2,03764342249797;-1,28688965237567;0,425123575978762;-1,35426021483708;-1,07182680452737;-0,241721783756065;-1,40869316068092;
0,333638731205882;-0,578207572328222;1,44228549329598;0,195001555304706;0,411339283034325;0,685304602658703;-1,25040532431141;1,11724233641498;-0,748335110809157;0,810358060603665;-1,5533988561774;0,833293475136319;1,26619359938594;2,58250130902689;0,114713396996501;0,352194100544318;
-0,983485652175512;0,95287833544478;-0,0564516697444144;-0,0132689374488947;-0,343673331244408;-1,86688371374023;-0,783708329992322;-0,503065542944077;1,66138382818921;0,785323874589256;0,000660783146328175;0,912537697697202;1,3066195651524;-0,348702193785223;1,68252596376823;1,30825897085245;
0,129719842627951;-0,087543410303275;1,19333262152871;-1,03724277242183;-0,553233917573072;1,94491610292259;-0,43376483701953;1,11694189020833;0,410177990663117;-2,08437250120037;-0,500567225706966;1,22078256852249;0,586518664279935;-0,0276302790573905;0,506918297880842;-0,481550498691281;
-0,505255041412341;-1,47790758059451;0,420714332542944;0,0835280239297334;-0,39135529731127;1,67689085883717;0,496118452029134;0,243469076374054;0,552137238635141;-1,55470145368896;1,87941493048883;-0,877259579121732;-0,71097371295999;1,72216097170761;-1,80128217556195;-2,11740124434694;
0,483383739177857;-1,23675651337848;-0,620401433424644;0,116539541098298;1,12579717327669;0,270982840035694;0,0530747659210015;0,588305320379401;-0,511154415967466;0,518271036348984;0,0693260025678086;-0,173832629825198;-0,38854784890116;0,286656639506387;-0,0492833336496027;-0,0275716896508928;
0,112235738393414;-1,05073110850969;-0,111366874411382;-0,26236825496488;-0,706604364972301;-0,114390260833694;1,05876475050758;-2,46264454946153;0,858756719974426;-0,0289008838313288;-2,5837036133224;-0,180489130001362;-0,844793477660375;0,930917226437715;0,279459551855773;1,15361630031047;
-0,311311275890172;0,584649924343393;-0,651155765105903;1,57516480060109;-0,515450352295182;-0,0542080622942703;-1,24504585009006;-1,75675915435583;0,936929573887898;-0,896720560646607;0,303224323879357;-0,286863669668638;0,0725916362449952;-0,285777568303845;0,0228681344334447;0,0269761989108419;
-0,0283752883724166;1,94597846576379;1,95845360513498;-0,472999298337574;-1,31483757523152;0,545836078225546;0,727098321345175;-1,59269435267271;0,159736967598475;0,0575746151406565;-1,00841757094495;0,85855307157941;1,83172221770821;-0,334348827770489;-0,819064875106072;0,251729721172086;
0,606200970618933;0,394552410856943;0,862680934836682;0,993796675828567;-1,56735628862374;-0,653094460121314;1,06586198944172;0,728776226197366;0,309294482345019;-0,277300428403767;-0,132099950472819;1,38802349960284;-0,0658595173496243;-0,14456648851935;-0,929663452208146;0,180326857261839;
-0,44069303147396;-0,612621662117271;0,44137101825934;-0,650774407088418;0,325038423346081;0,658061720969293;-0,624133648936033;-0,679794187314298;-0,0377485354398759;-0,515061857473237;0,200343873608229;0,185433094706638;-0,196600079550358;0,980316842152816;-1,14502595039778;-0,495319736922522;
1,0321780458758;-0,362686232649564;0,652689234795379;1,24313346506029;0,617643953133335;-0,14801399137062;-0,633201423557709;1,13775041756067;1,24835116371088;0,0523589125339578;1,60871087856014;-0,998898007732619;1,2897754883783;-0,139895443742829;-0,136188404089531;1,15560480418068;
-0,45507656210586;-0,0978717864867754;0,0640182608470213;1,09524020525006;0,488278732079247;-0,26273966645645;-1,69146715263657;-0,0563418960624346;-1,095347224574;1,79530096059005;-1,47034052066088;1,21694738854856;0,453020936825374;1,48977087297434;1,0118310529338;0,571436286057897;
-0,557927402922012;1,95166115500677;-0,0305260680098926;1,30658480658189;-0,0182227358041662;0,55468819649954;-1,16772773580791;-0,824640644365518;-0,85674572606044;1,04131766985163;0,675083273335446;-0,0774061242747408;-0,317413381741209;-0,675728067217973;-0,301638535445497;-2,0606270401536;
-0,438360584518383;-1,04324523550122;0,00501729253958619;0,85614598143821;-0,302998672577778;1,29626325198062;0,244922416463604;1,9930075417817;-0,663093059180228;0,35758730838405;-0,358584134653208;1,57138121719054;-0,212945355581052;1,20081185219073;-1,69036226138827;-0,394286256675335;
0,3057477383916;0,18237342850582;-0,434000610491197;1,17187914661172;0,326990248540264;-0,425435811875112;-0,571002328189883;0,363465040841398;-1,06136096636775;1,52977343901867;-1,78284518560837;-0,0716021353068066;0,386694762932475;1,61525115039548;-0,720750566777297;-1,62565151879155;
0,35712668240397;-1,05145079083193;-0,108854070718614;-0,166333622139769;-0,979514928164721;-1,00850560372599;2,45899203972336;-0,723360302339092;-0,137373363763812;0,00686915693094487;1,22425951929353;0,629945117333969;0,957810952341847;0,497516915671722;-0,246847913398773;1,01581895939375;
0,489715145746107;1,06889027016055;-1,48366779193537;0,0572730930057878;-0,465383234535511;0,240909679225672;1,48855423595019;0,219494304886088;0,823237996536997;-0,200973124030168;-0,830971669626464;1,60856891764811;0,893672355270065;0,794996240773153;-0,59061867158612;-0,887699833289493;
1,48924659696357;-0,245938112564803;1,35754105380356;0,411672583312028;-0,577043592823706;-0,94247295653182;0,775337419297008;1,05496529016144;-1,14872958186601;-0,958326725581382;0,381357771656242;0,432675458822117;0,309488290951337;0,212008404444231;-0,155057612654657;1,42300402225337;
-1,44243217486907;-1,43744610952158;1,24741640912639;0,217081838867646;0,966201102254225;-0,469922863789596;0,286162653826107;0,912389087422834;-0,842029486878815;-0,0897570840328562;-0,127531809043065;0,788694559015567;-0,358710109859012;-0,0317317833326253;-0,627161810523705;-0,34058637302348;
0,875893503381762;-0,725157848797537;0,201949997207544;0,417687459993778;0,853058900945572;0,0211663840812172;-1,78317891999566;0,238372416870988;0,84467393520288;-0,264115318786435;1,36189081077045;1,49680676367051;0,497570428599648;0,467969171601906;1,59027862469062;-0,652928209372533;
1,64115392049464;-1,54808889275743;-0,772686549888863;-1,22868914084119;-0,400041182968971;-1,1160055516105;-0,168764877726823;0,40789868863988;-0,116319498317015;0,331410953902377;0,743752980013306;0,83489334471454;-0,60659903931996;-0,362607211521814;-0,753195153469084;1,01604637606663;
2,30675447589493;-0,481973004052118;0,928680647442155;-0,833490982360651;0,0555883541927705;-0,0384827609641631;0,0705132304926377;0,868049666211181;-1,27734149701579;-0,540456902827509;0,234171452398689;-0,74487691980846;0,662156879886706;0,765661836224506;-0,581482649316372;0,627975163225299;
0,0445365570486486;0,647003158167574;-0,860315601279245;-0,733880939290469;-0,240296623503523;-2,00596824692751;0,369933006100402;-1,47036701708025;-0,12331175829792;-1,63187171393214;-1,1026769260604;0,0686730119268328;2,28337351714934;1,45546172037534;0,241609055193941;0,166893495462696;
-0,76923956441568;-0,284221156500985;0,910340902673002;-0,442132486146891;0,161612978569955;0,694995035665358;-0,0740784648961031;-0,845420084393356;0,105542054999473;1,70927427287922;-1,07625236100128;-0,66192098223488;-1,47226691515967;-0,335073842136499;0,697966921417556;0,456232518993991;
-0,968757747580391;-0,0568335896676915;0,359373576884739;-0,165442634180549;-1,09794780339916;-0,909393938469046;-0,0533141194390179;0,799494548961926;-0,515607401543641;1,16626053508374;-1,65237781825246;-0,017859490652632;2,09339998909983;-0,623141030047107;0,122088273836016;-0,421928151741011;
2,17114586074494;1,10956130113424;-0,49361064992312;-0,816023619781264;-0,304535682591269;-0,778097003684956;0,166333611835885;-0,676079253769559;-0,671004254158084;-0,22311070815536;1,09207146400065;-1,21959907178089;-0,00430190783503035;-0,51089821153492;0,662737156024193;0,381073064415679;
-0,176559231235478;-0,805604993871275;-2,57469005140375;-0,348865027288631;-0,134221867287404;-1,59120142167363;0,0355171383235605;0,0257710187002557;-0,844222872655707;1,59176069638008;-0,170434849066645;0,046334478644684;-0,0441171586250192;-0,966968919418919;1,01403720449883;-0,18491991439481;
0,626378660436256;0,149219944309105;0,151172817133763;-0,286040502230264;0,240626601825224;0,669223281446705;0,0779809020089728;-0,326268777409023;-0,366176797909669;-2,48304336227392;-0,124405048054038;-0,783332769099103;-1,50661429378404;0,467414122528048;1,09028313336247;-1,03257556638477;
1,47329240935613;-0,34803200736341;-1,25282543084434;-0,191721569684809;2,09012202560915;-1,69498481606326;0,494423048717979;-0,183866241389459;0,543700272646883;-0,862560956231651;-0,847713499563146;2,7390810903644;0,227921148443971;-0,368992705036302;1,12631265514764;-1,34387265037361;
0,773939088701011;-0,148419324380066;1,02535896845757;0,523938130024152;0,0722923676507872;-1,01941246883221;-1,2698385057746;1,46898096672045;1,1789650468789;0,872435420189685;-0,777657687399043;-0,817309406210237;-1,59080200358566;0,192527536911198;1,63510449489659;-1,46922719037954;
0,180414494610363;-0,265504919886938;-2,17306021027469;-0,0871834709180784;0,380398307625439;-1,61532804175626;0,226029633611701;0,174303153877325;-2,31018190682912;-0,408700366552304;0,716503814010636;0,952443399473536;0,755099339391459;-1,46507793803211;-1,39680551759258;-2,23613749355676;
-1,21035879545244;-0,101267937725733;0,461927448723662;-2,93550463140391;0,692667439591285;1,03004385521877;0,548873847393829;0,0556014797500338;-0,387099177988277;0,0347227559802447;2,10996860266812;-0,214230119122252;-0,867291320698196;-1,7733585836065;0,928727141494613;-1,31358276092969;
0,701388965871061;0,677712846044831;-1,2589995774091;-1,73722797574408;0,815327756475592;-0,817884182897064;-0,931807098392142;0,6417844631404;0,984945979651364;-0,177077909408667;-0,514844137726091;-0,829481073194221;0,30106466884866;-0,239354055793671;1,58819350729882;1,2703913895463;
-0,474418975964504;0,618525336605972;-0,849523939235293;0,364858831264117;0,965575988799467;-0,823245879323028;0,901140268885324;-0,0744107993650728;-1,26491092683134;2,2437125264574;-1,20416623446648;-1,82014792296194;-0,351751205766705;-0,315596233671137;1,50066932604801;0,851019565542049;
-0,00228309241652751;-0,381757596244181;0,220066379075729;-0,355078969716705;-0,961789968203621;0,115822473392389;-0,375076837161584;-1,65569612729593;-0,823248363259154;0,230284434471567;1,11644256616239;0,335832061634084;0,0721909340367398;0,532528975522626;-1,10076240535126;0,522157995483437;
0,5849234470061;0,561826609729312;0,657300265063994;0,89150620637086;0,188486688663437;0,563091003683159;-0,876925782596704;-0,0966181900673157;0,237993518135722;0,494970146988558;0,193016726126554;-1,7747630777157;-0,24916676262671;-0,343207209403806;-0,554040871719766;-1,32939981110229;
-1,10199516614879;-0,327733332412317;0,35649069035363;1,74530800925096;1,53640456976026;0,705834406945254;-0,493684844016462;-0,801873902360551;0,92899998932582;0,37409290009175;1,80558312197817;-0,888676836077497;-0,380133891976423;-0,479138583154457;-0,694689727788456;1,37675008280162;
-0,395988288422849;0,742383714015178;1,86998463756997;0,260643648440878;1,08948159941457;1,1716385559131;0,112652474156971;-0,0283306515028779;0,0464535392292875;0,294319344765637;2,32290321086303;-0,847811604921234;-0,258007575214825;0,7169682238533;1,26299462926486;-0,449299455982383;
0,346441704170353;-0,121393126930422;-0,179363249284783;-0,696236794104939;1,15811812180104;-0,624351611797288;1,81858173097963;1,70991881318581;-0,658643566429312;0,19625170173532;-0,132153209392969;0,453722365384283;-0,614643006408563;1,66969242982173;-2,42614823054519;-0,0511441959950696;
-0,264752867197667;1,08903608596802;-0,488870533749518;0,362869525750856;0,548002962459256;-0,44896175799977;-0,110533965829695;-0,797283020277047;0,619357892711015;-1,01818371694163;1,49572738060824;-0,127833022147403;-0,152811916499664;-1,4808705519379;-0,91499981168198;-0,66941498100842;
-1,23455579413029;-0,314372676334464;-0,448206006520017;-0,89218086079095;-0,185212318623251;-1,02249079078306;0,473591776177582;0,297697433383166;-0,00773669258664261;-0,773525464688609;1,21842906323138;-0,808306080919734;0,0660895634534309;-1,32057224512508;0,21326811624232;1,17187678550205;
1,3906822241782;-0,988795310952813;-0,318910669679267;-0,58699398231508;-0,63894659070644;-0,317463637262781;0,119026652386708;-0,00896952065399423;0,19563113271333;-0,77056037432546;-1,67117628195137;1,19137846686211;1,45262085848085;0,672732052232931;-1,1198144036539;-2,14001478852089;
0,0788015026909608;-1,27343684311572;4,01496676570201;0,383623512844317;-0,722080791541876;0,786813523860655;-1,12824688396832;-2,30748756700215;-0,826782734630754;-0,0682045433547966;1,4868761884468;-0,0474642204372258;0,475303751410445;0,10734914085152;0,267639778430868;-0,986992334606486;
0,396381995283272;1,35528859633973;0,442947625186254;-0,782555571691512;-2,49405262696354;0,715232616980541;-0,369368107141268;0,254624796648749;-1,32254329331237;-0,595870497340695;-0,085674240837955;1,15447597084205;-1,02753480793714;-0,294041490414551;0,16085307181472;0,7156605078435;
0,854254270029427;0,520242003631141;-0,732508151827895;0,198477709159708;1,41701635532508;-0,958605228289324;-0,219103231773544;-0,10293709100508;1,10094126744143;0,374012727873314;-0,66275965328426;2,10095379997229;0,299364998544527;-0,710460189360036;-1,83626016972254;-0,105196142217111;
-0,365023324407659;1,95273203442373;-0,938317989153257;0,855945322688047;0,774020022677188;-0,456190431363601;-2,16539695187914;0,115594299227926;0,0796189222142354;-1,44040404638274;0,984928878250045;-1,08662610633173;1,50882191033176;-0,577628309767949;1,63205264366159;-0,349272699074023;
-0,161426565659588;0,712561459468979;-1,19793753800028;0,230506664664214;-0,883973414369781;0,468299866954651;-0,163461787222427;-1,5564503966054;-0,118702022412402;1,76980797282398;0,324613740323984;0,0654793680998277;1,23569563829087;0,408840268834884;0,87006994764174;1,12296904287164;
-0,346083938160511;0,000292025861712053;-2,1435437534353;0,252706182384838;-0,862895156059662;-0,357387325730028;0,498293292379858;-1,29210681300003;-0,281052054162685;-0,683119987290403;1,62940442781245;0,384405970996017;0,843976094303258;1,65161661906356;0,0924946549563798;2,12050191407066;
0,974788216691932;-0,625799963446008;-1,14862699686705;0,909540086668163;-0,211689761265619;-0,514785041526953;0,7092185087599;0,773829659317225;0,02935996065677;-1,83028373669979;0,652888809254303;-1,7973250044646;-0,289429680669867;-0,598059144237555;0,130993662730456;0,300392579040941;
-0,217430179815049;-0,147140352920069;-0,930860889532927;1,27653236910553;1,92172229544334;1,0549906751598;0,177425022374819;0,36161852763951;-0,956780868539215;-0,620817780773145;1,3293692642504;0,605825678277544;-2,52684883893867;-0,202555895202273;-3,27326225211215;-0,585121821856898;
