-0,0437525362970052;1,91126063335827;1,96652897293125;-0,468920259802922;-1,32938431533769;0,543886561298091;0,718989307354929;-1,59250964176329;0,172003099487865;0,0435634183782604;
-1,02063943235689;0,847368977230749;1,81451518981925;-0,330236363627503;-0,833530832234333;0,239275237994477;0,590330229889659;0,378843700508443;0,892351537159239;0,980976844413622;
-1,56441121247041;-0,663930488076986;1,05782427288808;0,724309945255456;0,293923343917794;-0,276770443651477;-0,14479179059433;1,38626057816903;-0,0779769373481475;-0,154429949372619;
-0,941185795025553;0,172833979137578;-0,45234181106556;-0,628771237737833;0,424041844161403;-0,646440676997379;0,325830679964588;0,658422410776475;-0,60080929393756;-0,695032091102348;
-0,0481145110063785;-0,503096890328605;0,177242741471397;0,182806186105646;-0,232155008763368;0,988909402524433;-1,14655808064994;-0,504205961328019;1,04014892310567;-0,390953806390262;
0,653413494902482;1,23517840717055;0,612457326281219;-0,147473027163618;-0,654516972523923;1,14302096939094;1,2417594792483;0,0558286292657201;1,61197192375402;-1,01975069192169;
1,28082175302572;-0,147651956966582;-0,142693249211063;1,14408221631829;-0,476008701988249;-0,112513190204743;0,0734392385802581;1,09558098759566;0,501331407428523;-0,279361979221234;
-1,69610641004859;-0,0699888548376044;-1,10404901189154;1,79727867457204;-1,49620184084393;1,21452231968983;0,439201155083795;1,48706113281985;1,01896385156804;0,548532915978966;
-0,573307201149232;1,93380928277314;-0,0386456123715504;1,30629777727156;-0,0334571296497807;0,55834458372586;-1,16448979982279;-0,831915223335081;-0,834634869852993;1,03830629966194;
0,648944714518129;-0,0751833582875765;-0,338182825303104;-0,670851483753771;-0,315831642463654;-2,06819074471768;-0,447668421578206;-1,06545274772507;0,0416630650182428;0,849023730650232;
-0,304928734245552;1,2881488663067;0,239370940224805;1,9964497718411;-0,669743569066573;0,370890717010299;-0,37301266839542;1,56628626023769;-0,203469746629976;1,17676884262415;
-1,6889527528757;-0,409914288344228;0,297064414979521;0,162721907412838;-0,416917613945323;1,1730028003018;0,323190738350075;-0,425185800144367;-0,577527576851981;0,342875394704348;
-1,05992290669676;1,53006762305415;-1,80448357302177;-0,0775184580033195;0,382485063006673;1,61149765869137;-0,722384116308029;-1,63234396953787;0,342085905594718;-1,08419697848248;
-0,104480715013064;-0,16951441349478;-0,988220126389164;-1,00823178347179;2,45132357397624;-0,725116728679758;-0,135700217053745;0,0186682400631797;1,21436226555803;0,618913428129711;
0,951024129286131;0,499875210776383;-0,25404211857108;1,01230854258342;0,478090404578003;1,05133767305565;-1,48697606533181;0,0586251130904983;-0,45738761904555;0,235620649329403;
1,48815543367167;0,215005534608765;0,818169173949843;-0,195253634604304;-0,839516513390807;1,60785542923716;0,890958182362919;0,798360547407405;-0,588886476980357;-0,901757891862667;
1,4926202040601;-0,267800966600539;1,36803401440035;0,415039669668269;-0,579759752889516;-0,941507970977743;0,775452496935352;1,04429927012569;-1,14918367642739;-0,966927462655516;
0,374625833452975;0,421637840896554;0,295253419330614;0,214756601080788;-0,156522835439347;1,42184979028158;-1,44344511373367;-1,44451904128559;1,24524734195668;0,209750748028444;
0,963727853064307;-0,47165522152421;0,285664275368337;0,903713242845125;-0,845543165236885;-0,090684802147366;-0,138073006929989;0,788249791732555;-0,367718506773122;-0,0375218006837964;
-0,632636603312005;-0,341790784003472;0,866812719462942;-0,745741331795896;0,196783215087136;0,422345647634356;0,850403319023122;0,0212659675503877;-1,77765135584521;0,240549824167954;
0,83702346862401;-0,264928166878396;1,35895215558161;1,50002657686412;0,494756755407932;0,478974396614551;1,58338232317328;-0,668890807723728;1,64798875321046;-1,57906367106763;
-0,778132548670652;-1,2297970776642;-0,405042489210909;-1,11335448158297;-0,173941102017912;0,410423254096103;-0,120933927151043;0,327668564056897;0,745552502149911;0,825246659138706;
-0,62168113470977;-0,37410095855229;-0,765470602175376;1,00938598805439;2,30425818666332;-0,482074330639508;0,925200883438501;-0,833854813341074;0,0568977127190852;-0,0488904442537549;
0,0699439647999104;0,862533793183873;-1,28579544348458;-0,541241774433078;0,220521792363363;-0,738553997214271;0,640934658187823;0,77186155763725;-0,569293396541768;0,61118174010515;
0,0384636975761925;0,62971147499078;-0,870069261534482;-0,732721335004095;-0,242682438046652;-2,00138386737909;0,365987639307939;-1,47117531545038;-0,110193081366969;-1,62560702768753;
-1,11863611653915;0,0564787370079046;2,28170977404062;1,45545827210611;0,225930734612831;0,160415387823843;-0,780555859023985;-0,307909165456308;0,951972622893607;-0,45605172377899;
0,154645612628134;0,686474663918107;-0,0825584739881926;-0,847551435154501;0,0973815343292309;1,70703014286007;-1,09547425597655;-0,666414257929135;-1,43979462612602;-0,351741377474358;
0,695150507833071;0,442272880344247;-0,983592555532064;-0,0646383576798683;0,351723993761523;-0,168621854570373;-1,109489524404;-0,909470443223667;-0,0270482365168151;0,785507363754751;
-0,517612980224781;1,16093197144502;-1,6761781785483;-0,0179332319352171;2,08342128911417;-0,621228530615123;0,120951069847268;-0,424376355442029;2,20231408688452;1,10453003538264;
-0,494398291932438;-0,811177406473277;-0,311630101299828;-0,777403034877128;0,153921242484357;-0,657986627989547;-0,672834937517468;-0,222898352724995;1,1250688145151;-1,22462583959052;
-0,00792135353311971;-0,521142304247785;0,662692547802396;0,38261021605556;-0,192669683082066;-0,803652606832808;-2,56149317345901;-0,347769059426973;-0,0987904079516001;-1,60445149421798;
0,0336460452683274;0,0349107042822831;-0,846760090142977;1,59346180829933;-0,177447133091996;0,0453619697238728;-0,0507442168746323;-0,968529689885598;1,03810436546328;-0,198215361344031;
0,624666379762109;0,126974230451974;0,136646491453371;-0,284568103568128;0,223523093177073;0,670819580915266;0,0759835678670022;-0,317991252757341;-0,340123689934702;-2,4817726497543;
-0,130668545813045;-0,787516801040583;-1,52028796945847;0,473636398522584;1,07695180602993;-1,03518025985882;1,47015336045774;-0,345445614589571;-1,22293676858954;-0,199781498458461;
2,08540285069688;-1,69198017100069;0,480330700280356;-0,180715770011875;0,532931557818667;-0,861928951748136;-0,851128724752819;2,73648081240002;0,2579338965534;-0,375181758529848;
1,12590077704404;-1,35962268164575;0,770400519559893;-0,145571832044218;1,03336596589118;0,524820061987247;0,0666560454415116;-1,02054648868069;-1,25734237576577;1,4592717478924;
1,18274283036361;0,865265920332697;-0,777846637802417;-0,817945599650827;-1,59717890707163;0,189904205764428;1,62906744725989;-1,47704219957852;0,188187041289632;-0,294052273434508;
-2,17886618936067;-0,0995188444498831;0,360600288684834;-1,61361996975495;0,21892572809682;0,178325527250553;-2,30872270490501;-0,400496187174622;0,723039441580265;0,938659280857877;
0,754849691419437;-1,46500440856748;-1,4064792143939;-2,23970749776395;-1,22013846642307;-0,0966635469243245;0,460793831705536;-2,93591292043916;0,710636549653845;1,02028594587932;
0,546790146645687;0,0592880133241923;-0,394033028454506;0,0395758626314455;2,10803217763153;-0,214852333922016;-0,862516306864529;-1,77416789092418;0,948810531352468;-1,31833482150222;
0,701161871221086;0,672517146723204;-1,24619431989032;-1,73640219325366;0,810412455287979;-0,819235092735071;-0,940779529862442;0,645934345058509;1,00473084655768;-0,178831203359326;
-0,512346972794154;-0,839348649919842;0,305672202142428;-0,242567627580007;1,58376036932339;1,26562102028497;-0,481322965975829;0,604656085778145;-0,832034553093412;0,356791600383302;
0,962641411473551;-0,83285982624584;0,888883063159048;-0,0708588830284564;-1,26527505619673;2,25366116283792;-1,20979293936378;-1,81896622390132;-0,335917474641745;-0,324066676016283;
1,49329223423495;0,847499758093211;-0,0157832783041388;-0,374216017948356;0,227057592411229;-0,351530413665504;-0,960788904582957;0,115536296895969;-0,357949065065063;-1,65942908247377;
-0,826302906612565;0,237367240043379;1,11008103711445;0,337565153441069;0,0717042800861986;0,531266645492861;-1,09719479844;0,519103814701439;0,598178398607837;0,559595238549635;
0,665527836091361;0,887360665163261;0,183586609437393;0,565108744024003;-0,881039046163446;-0,08831189856717;0,232075942521232;0,491968404648181;0,212388193253471;-1,78425660307955;
-0,262063076063687;-0,343112953565777;-0,557190694799999;-1,3310194846698;-1,10565189019192;-0,339273455028052;0,357950884846685;1,74020413808169;1,55169873630544;0,698773347777196;
-0,493836257549372;-0,810480649465955;0,912107887319911;0,380659767281322;1,80272586429757;-0,885622623065669;-0,385413277457316;-0,476173760176041;-0,674613672918989;1,36674132758554;
-0,401794118149607;0,746235491703645;1,85455122071464;0,266036070718082;1,08346826959051;1,17583422590169;0,106406147408013;-0,023555325636994;0,0665146771349547;0,283534431874426;
2,32632372445259;-0,841890470724385;-0,278406142930594;0,726057680070568;1,26315678620972;-0,456312138866829;0,347504110901815;-0,123920517389986;-0,160750171078656;-0,695001502903876;
1,14751809667331;-0,634600642075754;1,8145390251291;1,71323852118734;-0,670098296384236;0,191137978193548;-0,142215962960634;0,452810659896912;-0,59229091974176;1,67348553302355;
-2,43685554731645;-0,073266787085582;-0,271555494400742;1,0812522424173;-0,498472683431525;0,357714094719148;0,542393441192408;-0,449975646579028;-0,0720044999386054;-0,81005571977957;
0,617253541136856;-1,02648442452277;1,48555263151055;-0,124871509205586;-0,171232064848769;-1,47836446016309;-0,923711686591846;-0,676766068633571;-1,208580165503;-0,32526701211926;
-0,450560937888402;-0,89696735396705;-0,196076801426976;-1,02346730421331;0,464198456700198;0,29883659142121;-0,0106163437393444;-0,767162082057769;1,25568713754344;-0,812002411743909;
0,0630804116568737;-1,3212817635715;0,200327383655435;1,16998964566993;1,38583602412704;-1,00141243770218;-0,316123946491905;-0,589348174672332;-0,606370863812144;-0,316411597757208;
0,1156472249306;-0,0186426825659013;0,196277814847648;-0,767099671465819;-1,68600365893435;1,19412074582388;1,44676901613546;0,675711307019769;-1,08379606799614;-2,15080632363939;
0,0693421657110256;-1,30393834459099;4,01535330382625;0,383987947066923;-0,721018415134495;0,78699743681834;-1,1301243414554;-2,3171677480442;-0,792084650331567;-0,0674250244050721;
1,4846038736187;-0,0593147475540271;0,469047005595672;0,108794009742377;0,256689922237252;-0,989417384244831;0,38405042460377;1,33312592683136;0,479946754399987;-0,783122256854828;
-2,49351275752788;0,710263620903498;-0,38032589987883;0,255803051461409;-1,33508778114266;-0,592353285841459;-0,0987743613013257;1,1517472141881;-1,00764187275232;-0,293451810790362;
0,154833905222253;0,704878074016688;0,833279435545559;0,504838823122613;-0,722238064166746;0,198408137788789;1,41898954415157;-0,959037316231554;-0,180778405555683;-0,106692333544464;
1,09419204980139;0,365621829996647;-0,671120223843951;2,0986428911005;0,274188131938591;-0,707063219938835;-1,83995484851152;-0,113453003805777;-0,342703048837101;1,92607863677541;
-0,940211673016694;0,847027217046126;0,777873284298318;-0,455744236293896;-2,16131081606323;0,107107223461051;0,0770688204320008;-1,43422530276897;0,991397431886876;-1,09768235591521;
1,48306492112124;-0,582976783746042;1,61814695399372;-0,359282765958627;-0,173786100330835;0,687599090998641;-1,19503697102692;0,233356119568205;-0,869701037816583;0,46168439332458;
-0,173574502962042;-1,562580195216;-0,134572068267694;1,77156482511561;0,307048609876059;0,0627950282911273;1,2191941940116;0,411597907762431;0,88977044027459;1,10288713344766;
-0,358031839963233;-0,0209874895228254;-2,14293088966509;0,255519262856175;-0,863654756385995;-0,360611982518192;0,492988334882915;-1,29759466983031;-0,255046182041564;-0,682807693507613;
1,61124301156228;0,371223284836256;0,823041300838177;1,65435789500172;0,0872482267635165;2,10193307165899;0,961566767109893;-0,643871681460336;-1,12244380538813;0,9098016591474;
-0,214827461787491;-0,523559482434593;0,712913160422984;0,764413163348972;0,0286128320543697;-1,82675462318839;0,635674772663674;-1,80043280479015;-0,287753533169832;-0,592072594161506;
0,124019608356434;0,279043793693391;-0,242243001022443;-0,168646724089042;-0,91221298314447;1,27206855822307;1,91880398941555;1,05469894198574;0,191971353450051;0,359277367862106;
-0,960944128312468;-0,61716877819037;1,30066847140338;0,603322421426654;-2,52067744025178;-0,2089425392699;-3,27784734676479;-0,591342797389019;-0,270485806977883;-0,642143134407339;
1,04721623096174;1,04367568365611;-0,0129206835215931;0,796779923073101;-0,37357122028609;2,02124535409435;0,422749978811274;-0,839800967231213;0,949729726560998;0,0955583213739265;
-2,02893703734498;-0,843358968691692;0,289319905374669;1,88762908313761;-0,0866672080632041;-0,425204817814752;-0,576162176416699;0,902064228572967;-0,801723408326661;1,60918628744106;
-0,685124268041101;1,17516508888544;-0,81494834440681;-1,71930471361244;-0,572599984897782;-1,62403557063399;0,468599692118661;-0,52677601192902;-0,895566967252239;1,46023406478163;
0,275265629042816;-1,09529767987332;0,963301007834101;-0,181711648483204;-1,34391468186012;0,28316558203639;0,134217608576547;0,0960440093950348;0,911394065170568;1,71746813403647;
-0,238913071665155;0,875847912365671;-0,258233905503922;1,15190025987709;0,300798225547258;-0,35229106519256;-0,229463777402887;1,26245400171023;0,27923475752767;0,00610572821497653;
1,09633416140612;-1,40255803835245;-0,299418166633885;0,134647897623066;1,16728801499288;1,65948998036096;0,736684852179514;0,230576595517189;0,270787026703863;-0,396291616199355;
1,17275030502901;-0,626664038182385;0,0194780946790487;-0,360540413526666;-0,24214106694119;-0,978691543965439;-0,710188276125065;2,51633497765543;-0,455802738619544;-0,133819567999685;
-0,0384720380584428;1,92962508509715;1,95648594733998;-0,486693980884298;-1,31667186834168;0,5454931673833;0,724228045305182;-1,59734722026293;0,148949213858179;0,0607419627700273;-1,01760666673261;0,856284318192043;1,81125614044307;-0,333451957761576;-0,831447865698723;0,242325619300699;
0,593921740314334;0,386657045317642;0,869048937310259;0,980970229924964;-1,56221630301108;-0,653317647063312;1,0662595040435;0,718969909336391;0,298069631573465;-0,276276126109602;-0,141538854995336;1,3855172569607;-0,0907974953847559;-0,144346565239339;-0,94279997596284;0,172813320068604;
-0,4492080393914;-0,617204151759402;0,431646908088485;-0,667242986361054;0,328159280591573;0,657496173221344;-0,617307800116802;-0,696595532393537;-0,045993110533171;-0,507273966298426;0,181126480995778;0,18364090647036;-0,232578502262304;0,986870574167572;-1,15322180855227;-0,504878018797752;
1,02039666893086;-0,370733983027058;0,645780284155038;1,22793520314218;0,610431224509044;-0,149117192344237;-0,639602106467289;1,13446915621497;1,23944853203617;0,0577122057778814;1,59087580079651;-1,00161216827104;1,27009328883006;-0,139793864964394;-0,15324032861638;1,14233586297496;
-0,467272547066383;-0,0999204885076903;0,0657267153170157;1,07986839313827;0,485228482625812;-0,263685437247738;-1,69395078297405;-0,0644602360683393;-1,10164976545872;1,79835174831937;-1,48620521447057;1,21090733009533;0,430610491284423;1,48642164934705;0,996331509150732;0,56077335485717;
-0,571790537221129;1,94103415723202;-0,0421985736924164;1,29037226442982;-0,0206062563555592;0,554322278133381;-1,16255846329609;-0,839054639619599;-0,860662856804049;1,04753685187883;0,655686359725046;-0,0796931787141179;-0,335273216598249;-0,672595093667174;-0,312503563486451;-2,06982719321793;
-0,448567875157075;-1,05762879166384;0,0123674285913335;0,838447781194734;-0,305803779284912;1,29568711450302;0,236551092360392;1,98890761790296;-0,666984793960205;0,368398934609609;-0,374433254344665;1,56792112527803;-0,211700359247434;1,19358859596207;-1,70291690270378;-0,401150510169171;
0,292474905146985;0,171439589183937;-0,415828072630472;1,15073567708658;0,321412492469688;-0,42531752662418;-0,577092685031239;0,350815837502815;-1,0647504790108;1,54270607863791;-1,798991824735;-0,07716609000688;0,380384712655511;1,60677375768377;-0,733683152587917;-1,63388451203623;
0,342502659398865;-1,05424709436172;-0,110724757977821;-0,18262405043775;-0,983770568481497;-1,00915774033333;2,46111466555383;-0,735650959117339;-0,140713777130029;0,0178193153828789;1,20628232303386;0,627575855414807;0,945988763041287;0,498354784565411;-0,259791674832656;1,01149528701293;
0,482115705562453;1,06393527816879;-1,49961963276696;0,0424012040560042;-0,467206476147966;0,23981675294241;1,4908148975986;0,213373908466367;0,813043240729404;-0,196843585636587;-0,838893442269408;1,60779733116257;0,882169250892109;0,801454970648609;-0,604066615208813;-0,894676706326968;
1,48994392575288;-0,254728927291572;1,36191771830921;0,408601700735642;-0,578133815456958;-0,943983786313956;0,774624355942236;1,04114838892105;-1,15258268707935;-0,957621276590235;0,378472338960475;0,43386009371668;0,306877598916217;0,210280718102342;-0,157319636755391;1,41748614074455;
-1,44681571174289;-1,43900023540815;1,23817638192033;0,215868437430302;0,971050194778404;-0,471764403188689;0,290425089723117;0,897882840089204;-0,845180121703917;-0,0940344787543585;-0,138978982213909;0,789770529142199;-0,37224040693357;-0,0335047924910573;-0,628735126444565;-0,346474824546212;
0,870365754423922;-0,739119177095743;0,193356815797972;0,415068930180131;0,846964417588105;0,0185460601716843;-1,78543594382444;0,235023585921854;0,836634520703097;-0,25938909269341;1,3576690777363;1,49966364272547;0,488748523112337;0,474719787804826;1,58380721876846;-0,665314323169127;
1,64164606817153;-1,55489415669588;-0,783060074778783;-1,22452628025575;-0,407344214582327;-1,11798500170679;-0,171104709583236;0,406875067771627;-0,122612504107522;0,332344460125169;0,738516676780021;0,834718823724607;-0,627455204528104;-0,365579613836073;-0,760450298557139;1,00744417516468;
2,30384999470078;-0,473304928199206;0,917997331579246;-0,832611298351564;0,0508486527918849;-0,0406547428346556;0,0764086264617018;0,860642826843186;-1,28098832843317;-0,541613932741212;0,218966385439693;-0,744106257384513;0,633762551104674;0,771385867528339;-0,585622436550513;0,62055645681729;
0,0392896171906461;0,626642227813206;-0,868109568106293;-0,739982671942137;-0,246395662411276;-2,00637697143074;0,362945602205458;-1,47444611881621;-0,123564825988859;-1,6253799573919;-1,11158753490029;0,0701439398596812;2,28429512508008;1,45217125204507;0,237702184421773;0,162128219300117;
-0,775586093285698;-0,301940233352137;0,912577097598487;-0,447588571704133;0,156503778692618;0,693427015810929;-0,0832665690158117;-0,853988041360725;0,105897421296952;1,7120739791704;-1,08918153433245;-0,664104853346761;-1,46753166585758;-0,341892121759689;0,693828558703755;0,452020545576355;
-0,973447907718755;-0,0587863584555879;0,356870838069627;-0,172428813982716;-1,10564849277302;-0,910544549023596;-0,051281662479099;0,785757734616241;-0,515709485164066;1,16202608443262;-1,66941268167089;-0,0173192892479763;2,08662961827741;-0,623513310306925;0,123187622517749;-0,424641829022451;
2,16960023523655;1,12383623131801;-0,495504736846919;-0,815435503070222;-0,304047649237356;-0,780033765555708;0,164551222896178;-0,661257674329466;-0,671806458113565;-0,222081816199087;1,09325869570402;-1,22042007873151;-0,0134059969639814;-0,51405629238653;0,660977166276216;0,381095261276054;
-0,181460897981806;-0,792063990236412;-2,56198748645786;-0,347609831473794;-0,133921943542128;-1,59288572772505;0,0335574380763733;0,039763490716329;-0,847184519250722;1,59142242008692;-0,169582278212261;0,0450304318029755;-0,0549163549261754;-0,969448622376576;1,00680730826522;-0,185702721152989;
0,622234283113486;0,14264681482182;0,141493908150856;-0,290659012784806;0,233614563841852;0,667384222289525;0,0776804386616454;-0,321257318102322;-0,367839016250072;-2,47331693652178;-0,131614500607622;-0,783237756163322;-1,51057103942398;0,471849272814906;1,08705531498213;-1,03819570933167;
1,47181537800236;-0,34110795383007;-1,26129721825201;-0,196007434427793;2,08705046884579;-1,69575987301764;0,487447631599971;-0,186076963076299;0,542296233541715;-0,861600746181997;-0,849252962207957;2,73857061647619;0,22810753604149;-0,370573877281985;1,12318439396348;-1,35179106580652;
0,768278296409036;-0,141070644438904;1,03743374507948;0,516556862427117;0,0657264436434153;-1,01997354747659;-1,27670117504788;1,4685683952872;1,1762168289637;0,874478773441334;-0,778334871217054;-0,819061343278567;-1,59902564535243;0,188153233238335;1,62778803785366;-1,47701102275437;
0,171173602723179;-0,265573763830616;-2,18511033898745;-0,0894154771335224;0,371346554254234;-1,6170488107617;0,227946224446425;0,174408506704027;-2,31013708194297;-0,400236662716048;0,709798145702887;0,950812226635646;0,745519566731033;-1,46211212030745;-1,39961893914138;-2,24062254555813;
-1,21374114071617;-0,0855593806896081;0,456444621232912;-2,93675319503512;0,691682163117311;1,02751409100217;0,548074849574997;0,0573555964805416;-0,387163778085482;0,0375331732302731;2,11166017092501;-0,2144469113653;-0,872206470945344;-1,77489213723068;0,925966118433996;-1,31207866304288;
0,705696688036815;0,676920505360202;-1,25203680272097;-1,74039895243053;0,812350234006856;-0,818022250648658;-0,939975130937327;0,649168584129887;0,985191192082867;-0,173162850023534;-0,51451207615044;-0,831936566170373;0,304584111801348;-0,245370294294346;1,58009076058622;1,26456814288821;
-0,476004547297407;0,605184997130721;-0,853348775850378;0,361630870961514;0,96324468322575;-0,823302014672433;0,901113637084027;-0,0757974772596503;-1,26386141056494;2,25176294133756;-1,21076567906901;-1,81868660057589;-0,352025110937398;-0,315908132228294;1,4918416608803;0,848762063846865;
-0,000153292122839976;-0,378998748797859;0,221128201357477;-0,356870340258086;-0,961270161499572;0,113117168360224;-0,377826999209933;-1,65072839134407;-0,823192391982599;0,23549129265459;1,11908528946438;0,334652343367768;0,070476880491274;0,529897871529533;-1,10230044347841;0,51916114819977;
0,582888180183697;0,562009382459897;0,66331421016353;0,88571793955287;0,183348706347939;0,562967855843627;-0,87792579740586;-0,0916978277949825;0,236322237469827;0,494467127679069;0,193700062391307;-1,77577791996468;-0,261575004978845;-0,336767557822952;-0,56031842777633;-1,33307953352068;
-1,09828911053548;-0,341719689727461;0,354582324638766;1,73638382165507;1,53309751364534;0,705823253076407;-0,491362048582978;-0,80319787155158;0,926489159621194;0,374823524586687;1,80344939502642;-0,889514423314669;-0,386336802898859;-0,472705860351292;-0,69685843000701;1,37566032863839;
-0,395637807700332;0,744560064371182;1,8573657290089;0,261197586228161;1,08279746707885;1,17070482878255;0,106905379148057;-0,0217645226682702;0,0407318854468403;0,294860490211029;2,32543182316943;-0,846898054055453;-0,268088292513102;0,722591311011264;1,25370632462398;-0,45962458401189;
0,350348457341665;-0,122351868835843;-0,190160515487861;-0,695077996446808;1,15432799724871;-0,624659367223356;1,81384439024611;1,71096743915193;-0,662826006314057;0,193299987854006;-0,137802887902674;0,454576246640555;-0,633102455202201;1,67961601408333;-2,43574793529202;-0,0666032289117428;
-0,265974843334372;1,07872912282945;-0,501945172592972;0,35905790775873;0,546397258041237;-0,451800824836534;-0,106668375204863;-0,80373577422004;0,617458344990987;-1,01496321744031;1,49647514706138;-0,123418323242001;-0,168899516666623;-1,47268988466945;-0,921874176815618;-0,677411467206344;
-1,23273648942834;-0,322917367534078;-0,452320709222679;-0,899848806868745;-0,189755713219129;-1,02224517934706;0,47180141759615;0,296812551892433;-0,00603166340774457;-0,768921523655535;1,2197138611097;-0,810397074171682;0,0639675950537622;-1,31974704374729;0,207339130290472;1,17080084233256;
1,39470280162377;-0,999967393057583;-0,315962592506075;-0,595508956982928;-0,642187593913851;-0,317233774702029;0,12222191573187;-0,0138715811249745;0,196922960221475;-0,769886322767147;-1,67988160512967;1,19229477796166;1,44953429340332;0,677918070696301;-1,12617626644678;-2,14266066064195;
0,0792222750827146;-1,29675147519228;4,00161887798045;0,377505847511457;-0,717458821105596;0,786179369532314;-1,12678833109379;-2,32119142791596;-0,824725129237572;-0,060078515773979;1,483460714269;-0,0472723542654828;0,479050712658169;0,108752165439325;0,255982693892909;-0,990292972162431;
0,395517296978799;1,33234429492763;0,440734827135908;-0,784734030648505;-2,49552782200481;0,714579896910108;-0,371910637477199;0,250251754434436;-1,32646057344724;-0,591957657023666;-0,0954883284989142;1,15229259777222;-1,04542759783083;-0,290902833358862;0,151629763342227;0,705023593027306;
0,85164492835386;0,502397950396476;-0,719513158356827;0,198654609453706;1,42024562991434;-0,960399760243065;-0,218009113089518;-0,11019460806576;1,09757227393395;0,374328530465166;-0,672616818566189;2,09858147588516;0,275698887983661;-0,708482015127963;-1,84365309786399;-0,113142032283158;
-0,363798032667592;1,93583556055944;-0,946191510872913;0,848276167070014;0,776839671563499;-0,456059336226806;-2,15592795748089;0,0995767228376868;0,0794333778567314;-1,436558288474;0,967374457507857;-1,08793149838219;1,48348922996781;-0,565536460440648;1,62642899156099;-0,358451541661988;
-0,162966625765681;0,68713637593717;-1,19785217627148;0,223964204851358;-0,889914652415733;0,468080025395175;-0,167508787567526;-1,56335468276728;-0,121743627511807;1,76950318680197;0,309150411478181;0,0625534114748705;1,2203745781768;0,416172521660968;0,857273760158896;1,10602626372501;
-0,357549893626073;-0,0182180932049339;-2,1354035080002;0,260527368482799;-0,865381655470704;-0,358283388228346;0,492430637430898;-1,29401691015744;-0,286473911507836;-0,680741589076463;1,61292852312379;0,37959215427222;0,824921739995591;1,65202685936991;0,0808037519589429;2,10489331501743;
0,960760977634613;-0,642378008131648;-1,15279047753507;0,915440794342083;-0,213939951200086;-0,515748563038996;0,712523110637464;0,766263823120414;0,0252669231443521;-1,82368500257809;0,634159835915636;-1,7983964399163;-0,310335869185698;-0,58940094725378;0,125063540977706;0,289859842469233;
-0,228529219434012;-0,172095033252495;-0,917832369544331;1,27954458222377;1,91766122885734;1,05051878952785;0,167875889476076;0,365934499325425;-0,956214711397121;-0,61213907798436;1,31190915721428;0,603812669868573;-2,52152877312239;-0,209915393580963;-3,27906907576654;-0,592448391247945;
-0,300163486293639;-0,640465303467509;1,05041823216454;1,04327784579621;-0,00234332367899167;0,794888605372981;-0,379599687916688;2,02641124807427;0,42159355130591;-0,839218253122068;0,92000234489396;0,0956448857434897;-2,02285390788464;-0,836922943281853;0,285819092662801;1,88716258941833;
-0,0915613132340554;-0,424376667419333;-0,575717734829872;0,905231422503713;-0,8300657035378;1,6123845413339;-0,682081298255082;1,18451790810611;-0,816291715914348;-1,72072033711053;-0,576557949790708;-1,62065056285676;0,468001250522033;-0,523394721442599;-0,926720639905952;1,46398752322284;
0,276200637921634;-1,08327397343524;0,974771945776828;-0,178678718258715;-1,34952763154139;0,282988285583752;0,130360043033823;0,100708035755348;0,881948442754385;1,72212150925854;-0,238106973528436;0,880077216041693;-0,24594579682155;1,14993469189834;0,289848954852031;-0,353431775005163;
-0,229593090833514;1,26206379899628;0,241797714867944;0,0160350333662355;1,09487697670114;-1,40523176798948;-0,287613630328495;0,136173249022421;1,15636271076373;1,66056099393786;0,735252762310225;0,232970959935916;0,237404090499206;-0,399170831989443;1,16600741001995;-0,624882717847063;
0,0195018402027031;-0,361696518005809;-0,242886282279556;-0,971178677189072;-0,707348997480591;2,50456901262152;-0,455377615107198;-0,130800949365674;-0,746821323344671;-0,125581502879584;-1,29203234563395;0,0298255050147977;0,0776082183024296;1,10202356957492;-1,21650520070222;0,614623368728793;
-0,428765607871935;-0,331176810419609;0,158968262139269;-0,100910214340985;2,12240511756881;-1,26093571211439;-2,33192863727225;-1,92335701774263;0,568373099175933;0,256692305874614;-1,52190384497331;0,889012716217889;0,368698662499803;-0,290761986938072;-0,119071871996603;0,621767998441503;
-0,335703647121133;-0,279701510514114;1,21509894919976;-0,52486824951812;-0,740869445449774;-0,132975098969802;1,42583054919516;1,29016194159391;-0,15040944699497;1,08851593379879;-0,722747529778735;0,134540838129331;0,0739339950016372;-1,02569625230939;-0,165823371269475;0,0494030445666731;
0,651245001804369;0,727089378670517;-0,0570001188122051;0,765520150999006;-2,02452715967477;1,67201389933736;-0,109439499818081;-0,576888809622778;-0,32536929697131;0,447015175800969;1,26113202843026;0,431966536025541;0,369418255203923;-0,718421575971199;-0,0489392130034962;-1,36802089140719;
-0,298193136747882;-1,31466132061606;0,416561626125699;0,173988089089726;1,56794559484783;0,496977231382066;-0,715687823229603;0,678653489901233;0,143566448399521;-0,141229776956572;-0,991575408814414;0,273664660435417;0,546670932899341;2,19805439829895;-0,468834681534059;-0,954874412818876;
-0,249340240993607;1,30317138120409;1,37520752404969;-0,4761130243716;0,778252735335661;1,92890504881174;1,48135064186579;0,423632079133248;3,87541922427072;-0,756313868763541;-0,453662224083551;1,93304627681734;-0,68628822286798;-1,4115666828209;0,902451573841321;-0,0543475137025219;
-1,13748287504912;0,0938950878856616;1,11306284146676;-0,882462152226002;0,229248946559002;1,36370715238367;-0,856184634810664;1,62247954036832;-0,957022277086432;-1,19518669801007;2,24495949111596;-0,566428157393636;0,960779346757623;-0,208288050957339;-0,23614706313354;0,951810249821828;
-0,191179923953504;-1,49671779526805;-0,526888791259267;-1,72797947802858;-1,6991492281892;-2,54517391436327;-0,529932063385503;-0,173063475180489;0,740406293699265;-1,17918190360383;-0,249395199884451;-0,38990570747113;0,317539715681078;0,772787274832821;-0,0538196913680103;-0,034768911491148;
0,693544701407534;1,11133043510604;-0,51991361758002;-0,56825899142036;0,164934000755739;0,974084682329732;-1,11012537550224;-0,0998254895218327;-0,665846659872139;-0,402866457418862;-0,782028417016596;-0,959538993434823;0,94411335888403;-0,125013686882296;-0,417866831398978;-1,35668774224556;
0,305713507680028;2,5778861872082;0,828469225215461;0,118260598649311;-0,973936732161183;1,93034514187269;0,745151346627499;-0,0382206303722845;1,52895630406624;-0,564949280062418;0,879167947160831;0,982085722787934;0,112836114083219;-2,1125897801728;-0,335902978979605;-0,185992989925259;
-1,90617959495443;0,523074586568922;-0,499143198257849;0,340926941160252;-0,854740915864951;-1,05254704206947;0,428994354524327;-0,147335491804744;-1,5393260124139;-0,61979969653359;0,770686968707737;-0,508996103996182;-0,924086356051636;0,808729097854153;-0,707848655453606;0,600137009635371;
0,148007140715174;-1,88132851504254;-1,19905576190858;0,0205975038037145;1,58527203033408;-1,08503333748618;-0,887325306089914;-0,754807316163963;0,949502719196406;1,33274072967874;1,55953670161698;-1,44493431811981;0,541943727816251;0,192142134136119;-1,27554029325904;-0,175114562567245;
0,217383201075617;-0,112594500843332;-0,396560857646682;-0,53428657251687;0,963376657627833;0,411923394311432;0,349945697560585;-0,490654731748213;-1,26059868663735;2,44994125715971;-1,2349267376278;1,52034072830839;1,17244231584455;3,29918336905013;1,00533897436666;0,618593414490931;
-1,54769671451021;-0,268135174720716;-1,10611635360112;0,354040799669114;-1,02080483198472;-0,206929740060519;0,108995595326151;0,496429738347121;-1,68432786086584;-0,48505479627601;-0,702433929808664;-0,485894605783441;-0,433542075120593;-0,071144471212955;0,764953038325073;-0,0610800799892772;
-1,35875394265425;0,645677307501633;1,21581231258273;0,760882175194186;-0,768503775993353;0,602974167358664;1,44659047490354;-1,38943969968529;-0,975969574641443;1,62859220083975;1,12546842668218;-0,24758244189672;-0,107349430294877;-0,425498977422596;0,37624992828638;0,733821071722312;
0,927552694002692;0,235014351705504;-1,01283642213666;-0,112486843865372;0,24137050050909;1,32867719487102;2,49854655361855;0,367448117289375;0,195772540369692;0,0434509286522271;1,15757134072527;-1,29658773215437;1,65074470966162;0,358595455036259;-1,00155279450509;0,930658121264498;
2,07349465361635;2,54300474892364;1,25575245222129;-1,17211021327497;0,476611763428619;-0,537287691733394;-0,714734737898621;-0,962105326683107;0,7371888992574;-2,37556999937303;-0,941993528767244;1,58237904804542;0,653420814780441;0,48728331573209;0,65377987208081;-0,847075839972765;
-0,427084136336158;-2,30585745142188;-0,110293642406964;1,64556608940381;0,453341150141993;-0,590890539708015;-0,865108048598193;-1,25089432071623;0,802347753440864;0,0585794969119062;-0,984626157195887;0,205811676838728;-2,24765919575105;1,27198316556003;-0,407144513485068;0,658340202009312;
0,0288504055556743;-0,50431265271112;-1,04924703432151;-0,891086350913698;-0,943451630564319;2,08756931496512;1,17544247891168;2,33699283642098;0,332942257442452;0,577818396108093;-0,449680476064781;1,47249775261815;-0,514908170493598;-0,105660268317764;-1,55707958223178;-2,32150308197222;
-0,560555918903202;1,40586107294542;-0,611374585727337;-1,17459496211957;0,910421807364749;-0,077401497761408;-0,604598613873632;-0,0301623436689305;0,634515366457487;1,34061123949462;-1,18038428837389;0,497621298399615;-0,597371882463483;-0,302520281680322;0,961840654435421;-0,307811891221552;
1,0278073562567;-0,951118232718051;-0,221889084179444;1,21287992616359;-2,12787997196281;-0,295917518816871;0,351700856942176;0,988273793986776;-0,695106716074583;0,142077780808724;-0,512925119369212;-0,00983289565066147;0,951715236355817;0,800091679199151;0,672458727945265;-0,125199941448257;
0,278535009058802;1,00257328339774;1,47435323478887;-0,609732658256096;-0,323249628924031;-1,67055296059109;2,32396541359474;0,0331190439724347;-1,91884826811201;1,47694017894829;-1,15396155624487;-0,30013618308657;0,144953392361941;-1,97003601509479;1,15436895467619;-0,798773872759766;
0,0871226164003423;-1,00051486284567;0,481610260490808;2,94333861263477;0,215088001602354;-1,26362512479009;-0,467246059417109;0,331256144426424;-0,391610808200338;0,097379180670967;0,198298331224222;0,325521803439966;-2,08501939551757;-1,06006405893677;1,11362814291794;1,11350408180311;
1,12489410211928;-0,908814876053581;0,167905602467984;-0,136776224798105;-0,0188382869827849;1,68970958114459;1,65767318178924;-0,0169405927426328;-1,12315921307797;0,66664286309688;0,694452321255293;-0,194182521785976;0,211616557338567;0,329663155938916;0,890771721904623;-0,0668624115910458;
0,29991754606289;-1,5618790314776;1,27434088688926;-0,0439793599706761;0,0407071152330961;-0,463761222865225;0,6665158579835;-0,559954713831981;-0,0566723810764506;-0,816418322456399;0,234359232296683;0,0374273376871856;0,33277716124585;-0,618527505579769;-0,616534891744807;1,01066050019433;
2,64337201918417;0,869855876550847;1,72215589669207;0,414899429150045;0,436586232672078;1,63685295344551;-0,100067003983498;-0,635272725909297;-0,564814111159474;1,09133007139523;1,18565991880355;-0,16806902083942;2,17864164364752;1,12756985866011;-0,884348513276177;-1,0649324018921;
0,0990599174420802;-0,223062624987943;-0,646871094527374;-0,468867061606091;-0,749284719038635;1,84894490951497;-0,211836632888704;0,103169491672882;-0,558053304562099;-0,111014038595116;1,22042859017942;-1,25163602864908;0,0380114538965354;-1,93406723526931;-0,571394306752655;-2,07921070675099;
0,338328319717866;0,0604349416076459;-0,239822002253392;-0,759619073511902;2,17555102532596;1,06388491049403;0,378767048805741;0,127201478856139;1,69416281472054;0,622096087353637;0,453864824072459;1,10088801982467;0,667350884397642;0,444412552769047;0,223819568247501;1,38345464008398;
0,600627662558236;-0,535621009202232;-0,0508031557291352;1,05067184217554;0,841978869486848;1,28599154775866;-0,293915232560565;-0,307320066366971;-0,826273899132801;0,438383160036594;-2,39799625376838;-1,0222542151166;1,82515790869985;-1,67042096385518;0,9588703883038;0,506031668906361;
2,35597499852643;-0,714479509540125;0,0854578747562462;1,0109272190553;0,37888649267245;-1,30230592226008;0,255206504072174;-0,574299804557469;-0,192261442201194;-0,811279980124593;-1,2407925046836;-0,140950899475342;-0,0304638134149883;-0,520637523533012;0,528460295202176;0,673580778179537;
0,191901621636711;-1,84534923450781;-0,796579735822617;-0,538262470170924;2,01141637236325;-0,531780516411934;-0,31746707922567;0,796592562456022;0,492786099786305;-0,367118819827024;-0,639301853697291;0,979607891023734;-2,10038402820794;0,304264761388997;0,122091785261681;-1,1271163003585;
-0,05572862956681;0,328652674334167;-0,529608658956286;0,688269726916883;0,627096550197578;0,456431485911589;-0,372903090226423;1,26101829643585;1,13477907171899;0,19192746070644;-1,16295282133712;0,923457915115134;-0,422950759862443;0,16205967458376;0,56975081046615;0,0432925255181236;
-0,489836560390939;-1,04073857371187;-0,407217167308458;1,42530332422586;-0,703632251649126;0,269584913639447;-0,0263517680572475;-0,152522906159773;-0,83433529726503;0,494727897072549;0,111047655244466;1,53840355310298;-0,699867470362789;-0,290369039173585;2,21697663281821;-0,326740771449737;
-1,94611654442293;-1,65097947947781;-0,112472753689288;0,571592811463077;-0,508457892383317;-0,343706129598717;0,00321961163619916;1,14533780142091;1,45588897223901;0,335675086120705;-1,69698156996945;-0,653897213710141;0,809453200687714;0,161809271927826;1,34155650669832;2,25161610435667;
0,119009574358327;1,03716462047213;1,20981121866505;-1,02424027942832;-0,0307261892713402;-2,44232670005401;1,35649508425865;0,498494967869837;2,10427547507799;-0,0787047933226022;-1,50015607866695;1,08178700795748;1,88890113232415;-0,835934112942691;-1,56417590673905;-0,136296478101248;
-1,01765602580441;0,348433014917433;0,59922964564441;-0,152989985999259;1,07569608013972;-1,88550501575592;-0,345220214107022;0,249223921642804;-2,32280593188454;0,208488316709694;0,89164296207608;2,23450391324355;-0,347800556931285;-1,41001690011154;-0,0771131198500827;0,932662311169967;
0,80417169875211;0,587047614757385;0,155739048153231;-0,67528578281656;-0,108277415637475;-0,774471481757424;-0,778284567199375;0,490888454693487;0,94285183709098;0,500738695848858;-0,515652967865211;0,806194254067669;-0,783104533674293;-1,53614931427583;0,767957870886021;-0,839863451190002;
0,00771580345723599;-1,07041594352292;0,876385668732214;-0,0871279487769625;2,2639091378717;0,585773741734857;0,805643569432901;-0,000350632316496783;0,182708029168454;-1,29923561635022;0,794113740310368;-1,24725658391097;-0,318429923880246;-0,448160104089716;0,405301030601271;1,30690779547059;
-0,257890422326701;0,0450868305909238;0,315708296548491;1,14531917439604;-0,482470251563991;-0,389343561180222;2,0435052111901;0,483610320595446;-0,564247145102084;1,44563720690829;0,340398713454141;-1,68649970011692;0,00716529836841907;-2,13304337979107;-1,22462975735398;-0,28295152180334;
-0,000517118883177293;-1,26122957832465;2,38236860657216;2,29157446785361;-0,284944863456613;-3,0923624364686;-0,655046939207835;0,873245380771204;0,432808082596455;0,024425882024904;0,653956973743875;-0,196555073954346;0,20850083227986;-0,188846370050942;-3,18793535563273;-0,295803666520941;
1,00564801711195;-0,504524319067009;-0,401314650353817;-0,64447199671004;0,296350533561529;-0,625140982398128;1,15978086203609;-0,41299482780058;-0,346848091821684;0,0629870311575891;0,697053457121161;-1,39258326985857;-1,4278185530359;-1,26999232614283;0,866922050462084;-1,54785534920907;
1,04603303283686;0,866159329671093;-0,630233462904738;0,829670379098125;0,999778111107768;-1,36167816480757;-0,553491817759604;1,28803538919569;0,449148315602139;2,92906140208805;-1,15370233126481;1,75798826778897;0,903132723267307;-0,654202463291702;-0,602057595634671;-0,83218107181667;
-0,0641744999144392;0,7105029992484;-0,0982619168252497;-0,100994278902177;0,444865770966174;0,418623340126283;-0,101921915289334;0,112413543403988;-0,632075897048456;2,02558321981063;-0,221689098927097;1,48454837072567;0,449797043132555;0,264746551038173;-1,1032742249346;0,9346931491333;
-1,60020018053906;0,0789259337023926;-0,581263324391055;0,102931442044529;0,217501200342733;1,24905426029718;-0,270549710026241;-0,954670835658134;0,180838239362337;1,74494202955034;-0,757476165934676;-1,21058536913952;0,277669341278641;-1,1054201577162;-1,37702040462503;0,0571696752784776;
-0,406728700694472;0,614761927129114;-1,00870311021194;-0,122581448108704;0,379733947825124;0,107136917270197;-0,308204251586884;0,180149621262722;-0,375189035577655;1,62650650380694;0,850308581825609;0,290568436687017;1,23661377625608;0,464277150230839;-1,18649761102116;-0,767601244661946;
-1,12211675293922;0,386199620744667;0,491848532236792;2,23226918450598;1,04341299329545;-0,157892056903204;0,406517496982792;-0,281802540793035;1,29809776683657;-0,585577917526196;1,11710030983275;0,234152570120473;-0,228227997482897;0,276221306926668;0,344719365932616;0,851611306550588;
1,49531449617852;0,764016084901674;-0,0502359995300434;-0,0129182180741548;-0,0938095839697786;0,211758868573624;-0,407157387922498;-0,396392295049354;0,254184987194609;-0,232445017569098;0,635585366796674;1,83647770494613;-0,815093072676432;1,26393322800247;-0,486031266950136;1,24557128059095;
-0,885357942145281;-0,491149666184576;-0,701623327035172;0,415177491644597;1,63017105877506;-0,604976701225772;-0,643260242356389;-0,126773293087813;-0,195462240064183;-0,814647910827401;-0,158722842849809;1,50303670753804;0,978056329434542;1,16975401371949;-0,32848494627691;0,0126176660617045;
-0,659519647599903;-0,553171212404354;0,356432058672321;1,29982957605668;1,49953151005259;-0,716645652060606;-0,236712198488117;0,310298738802714;0,0533234497683672;-1,41975689618406;1,41832754196355;-1,01364260332332;0,804419511456542;1,12966752822087;0,815033272612032;1,11411178738853;
0,694093865264758;0,129844617120543;0,202405743304511;-0,643451753559217;-0,684581111105707;-0,9832914628489;-0,308622514480634;0,114431107014657;1,15307598093322;0,685227848986487;0,233472934147237;0,165724711010418;-0,324167840035476;0,0458259710247358;-0,744599551731728;-0,0919269282381888;
-0,017824337056089;-1,25544214503769;0,163031448645455;-0,670071143475996;1,90577043798809;0,537326340203581;0,560662791105637;-2,44024745264929;-0,180406011347697;0,369238608015192;0,760009433045619;0,684090914908063;1,23364062597848;-0,650564395529372;-0,586678973546866;-1,51197083391535;
-0,45730100495741;1,73847582778735;0,203330465100671;0,255150716885647;0,168980990838092;0,0746910563652166;0,64122626762593;0,679267615007307;-0,399438752496975;-0,627624074592131;-1,68738839582668;0,518825759359805;-0,231590596716951;-0,332195952474595;-0,781906625247877;1,51650622679343;
0,0306987887091499;-0,15773183129727;-1,43077382558456;1,2766375121493;-1,47226211352434;-0,813788473984833;1,20522172066597;0,967432815428869;-0,202498386221062;-0,0351588439691773;-1,6574680339632;0,0506080872402351;-0,475965177916112;0,630922320451454;1,46364503469775;1,26823603534453;
-1,73663654680638;1,35502182608489;-0,824873076070283;0,230306989117439;0,493765936064698;1,48713165949517;0,924200245539599;-0,712486501667194;1,51356140385154;1,8727757531325;0,699697641075735;2,03422813113275;-0,18612046338219;0,59027258408247;0,0554276240358954;1,65468463083231;
0,503814366617982;-1,12551030708614;0,522449233407074;-1,10426106431877;-0,984773550823635;-0,713208822200945;0,539817713569839;-0,415793544578969;-2,07905444945225;-2,04187762117424;2,22415596657548;-0,748589615450722;-0,0738805180448534;0,822184214221102;-0,106486461642781;0,367595841521937;
1,08339702101647;-0,231011513744862;0,308444288875299;0,162872976803423;0,730742291962135;0,580848728382879;0,990766567589083;2,18753582280886;-0,983863925471979;-0,62716491705111;0,146517090966531;1,23045322590928;0,0259914254949192;-0,315787238935199;0,462866266359571;0,632623591871192;
-0,147542977449058;1,18275381994934;-1,00147044067482;-0,161152007670499;0,202219166114408;-2,3250748937858;0,72181656974284;0,56399986772974;0,204294210059505;0,153599398917423;1,49753605369196;-1,48911644726912;-0,283249821303762;0,224674131929976;-0,288868345572806;1,33630573717083;
-0,215250685980037;-0,0831117971476149;-0,57862315800761;0,505702366483878;0,232517073516476;-0,639347754536634;0,935595050645477;1,25039734319492;0,546713859597672;-0,2576259080372;-0,427352946685284;0,305332030054466;-1,74925682036981;-1,50598931455705;0,517664491928269;-0,576513926118289;
-0,725906880884722;1,13158987734244;0,104359003463013;0,934848983691256;-0,783708242323531;-1,9194240122293;0,135375565497306;-0,655576635252723;-0,934372762157707;-1,57283425823277;-2,20343866784583;0,392540076584957;-0,307681628135597;0,459835324372109;-0,112021718725738;-1,04509612340914;
-0,655698362039482;-1,82196174429964;0,432502295193579;-1,46218115160185;-0,533293479511393;-1,3840095074121;0,498213270290317;-0,709941154464132;-1,3669724124919;1,28335636370808;-0,0207422682320279;0,298030209398482;0,494193832645804;0,257103845562587;0,134726161591712;0,639676251400021;
0,205965926172706;-2,07764054953027;-1,35395041233528;0,77367616358375;-0,610879494574661;0,410910895717471;0,464940496601953;-0,0328942031352638;0,613843959153875;-0,652012389052619;1,08722043502188;-0,711875244183912;0,133549619490332;-0,613888046857524;0,912266962619871;1,3439768334946;
-1,6244215748984;0,721281201756896;0,446391541716612;-0,963599671132231;2,94635393262929;0,1314951863285;0,241510541746544;-0,935018058449816;0,341612353526214;-0,180670911325928;-0,657957592180749;-0,477451298119232;0,193660202495963;0,592064719262224;-0,19283769240631;-0,0305369024124623;
-0,0876164703974706;-0,554410307705929;1,50879501744072;0,96821998468214;0,683911491120543;0,637039196618205;1,57529775414253;-0,5477201177761;0,506373463086093;-0,948354250606984;-0,478418029786092;0,834547156893977;-1,60019474901713;-0,438426203701116;-0,414115551869883;0,401852666326347;
-0,130671056052988;-0,126442819117354;0,878287709298899;0,94606173104905;-1,02862685909696;-0,172354680117858;-0,538059742163175;-0,00625142413523387;0,264320537423039;-2,44731442188124;-0,17809005356098;-0,679775800670187;0,231039425836237;0,490785478574091;-0,370278339485262;-0,660762347440983;
-1,24745973429581;1,02384961134952;-0,0225125099802177;1,38324846497944;-0,983522746919397;-2,87754259746732;0,607073999760924;-0,263148431743002;0,159760690559486;0,872216786766683;-0,25543025002542;-1,55075480525578;0,591146132008176;0,635866277971849;0,137005530215867;-0,727919005807404;
0,201527908943079;1,90952535993618;0,228910689900533;-1,23744215313156;-0,799680643270367;0,0762587457965286;-0,269394014017452;-1,76348587713943;-0,0642342173226755;-1,89694170374459;-0,441437324045303;-0,299422391230508;-1,23835547323168;0,487017138784995;1,59521585506583;-0,41428674399768;
1,43852097697019;-0,517963437682959;-2,25014656339466;-0,0539068778116976;-0,562101622853629;1,07586352719207;0,934410021547324;-0,224890346163807;0,146498561709555;-1,04812025677306;-0,1917801783157;1,01435329923569;-0,201345066997187;0,411085244283027;-0,62013763957848;-0,0534079772701981;
-2,23020397030603;-0,232597297894771;-0,311866726408423;0,433124898565067;1,05326993237898;0,171998965610808;-2,16735199642169;0,247923593908361;0,171805327255144;1,37429930141911;0,152534798204575;0,798277670586023;0,0776108196245948;-0,15157147188096;0,24498892812673;-0,521183011968164;
0,369909518693128;-0,325256086850426;1,32002296057675;0,747796937812003;1,19956485528647;-1,82605860408997;-0,714914800046874;-1,13064827191158;-1,05845279172876;0,900726402230276;0,41982406849637;-0,419871755157158;-0,258638177272793;-0,558010600393228;1,53786097393442;0,553715532564137;
-0,333216594901547;-0,286303728001412;-0,170232883600351;-0,79042495288979;-0,160059209378515;-0,650866566047203;-0,0884797973392269;0,327102384383536;-2,23010030802704;0,293350476498434;0,0310507786165073;-1,4544991793425;1,20358098840738;-2,92361650080519;-0,413722415757481;1,63069150191616;
2,01149813619605;1,33178414419958;0,560769779465744;-0,917497386095623;0,760840630647092;-1,07389496605246;-0,945029334257697;-0,164343853755226;-0,482168894357241;0,7905078556535;-0,419436871179082;0,24636753723303;-0,321430671012699;1,0515326503075;-0,0293215656197323;-1,49393323612597;
-0,200196577394203;-0,737620335081072;0,0103835313264064;-1,3263089119323;0,883024408423029;-1,91868882703007;-1,70147734765191;-2,11998265459108;0,253464488233028;0,816600974318003;-0,902229202095359;0,929934687817975;0,84049089172852;0,769681414808409;0,146749477124382;0,246923321466364;
0,880483420521958;0,239186003433395;3,22353036526498;-0,515855218616141;-1,57510150792622;-0,480491501111306;0,442567464246281;-0,372579912601631;-1,2441442444826;-0,109505344683085;0,0562924035801754;-1,1171393386538;-1,14692760791282;-1,16970859170132;1,18753240801429;0,148922094852587;
0,512702422870172;-1,22568222643742;-0,00396298156995173;-0,204456792729439;-0,475065187781133;-0,307609148306199;2,78420664972421;1,40570486623792;-1,21385541195052;0,684385055745139;-1,93602357087376;1,32229613074789;0,220233747046937;0,876695805038884;0,140408221707937;-0,404791184891362;
1,57936851928969;-2,03109453570393;0,0898798833625956;0,62438367086145;-0,098926792162365;1,65171975680351;-1,4081146718799;0,657312129518339;1,15690927771517;-0,931895788651115;-0,839300489535358;0,472996289001021;0,0560135559165727;-0,439165923158127;0,819955229841959;1,31995986241267;
-0,663697426365156;-0,760085675710557;-0,764914599834635;1,29967515477415;1,05194539696219;1,39075590415868;0,658531008690435;0,638341489729289;0,856370809802621;0,155820335778803;0,128282262775514;0,885900188967328;0,649791855550843;-0,605294369730722;1,51447746744235;-1,79824415592401;
-0,648733293937451;1,0862433948222;1,35254053084191;-1,67500741124936;0,43490589751855;1,09241801381935;1,06541860414831;-1,21253234650489;-0,527879285629508;-0,317830330124875;-1,1417660324284;0,840271687629316;1,04127095358729;0,635336853327773;-0,71643406271828;1,92161091686838;
0,846010253602896;-1,273028134913;-0,431038025628615;0,527373614584922;0,147449572640255;-1,10178824501217;0,0657866553038932;-0,614418985777804;0,484868506482902;0,410653178591887;0,214383149659041;0,847625962599685;1,18337230196612;0,55327360381957;-0,211523689251086;1,97956096962978;
1,41775023403592;1,2299542975114;-0,230121458635189;-1,23512512640313;2,07956150084603;-0,00758693920431225;-1,42776238988052;0,192609514147065;-1,31310820322547;-0,923417398409253;-0,636687564243853;-0,0582557824421445;1,53984871668715;0,664456021615368;-1,18540989664223;0,833926390434663;
0,46024631308666;-1,0294356245641;-0,680152173713074;-0,273664714310666;0,114456430832984;-1,59329273271571;-0,879041831349518;-0,506238328385184;0,889069963469648;-0,680617999198392;0,200925838697434;1,11571789411282;0,441762311719674;-0,592637948725842;-1,9250887261917;0,0446232441784908;
0,754334362241186;-0,637999351507977;-2,33965091282428;-0,719290803800843;-2,50482536362204;-0,69633927530221;-0,34451693560715;-1,01263405752037;-1,39019908542605;-0,55624032917445;-0,623303918565539;0,19607970240422;0,562085527808416;-0,0385744450185568;0,308414068059678;0,344093377492055;
-1,38265049494677;0,431558703943812;-0,231440124334565;-0,64873586933459;0,752562851448063;-0,684632896577365;-0,843713888752454;0,743288654876998;0,64702205862845;1,15284291376474;-2,09410329045769;-0,194658676693256;1,43950268790491;-2,43072159491509;0,394672341436623;-0,374451845173065;
-0,599816197194849;-0,213199153565242;0,913363240033122;0,654448300630169;-1,32812741057335;-1,47440291436564;1,92844481603658;0,533155744285514;-0,0309738270592636;-0,689743311293754;0,257136305431804;0,566647523897473;-0,965469788403992;-0,431829452163575;-0,274988293675045;0,136628307903686;
-1,17970605876525;0,00736334432091192;-1,4069973779972;0,0476025814173089;-0,0405961764132101;1,43291814999448;-0,0355105489449571;0,330604332344867;-0,556874902725619;0,977770240259609;0,867573447440152;1,37091703865382;-0,297636248001204;-0,25253500137311;-1,15614726229513;1,22322502148772;
-0,327677688009506;1,27258203409111;-1,96840954784479;-0,401641317959796;0,649530789736503;-1,89313423008164;-0,906775936098378;0,0361800748206887;-2,847296590883;0,289741775411034;-0,377411537554333;0,273399663962352;-0,633550888849949;1,00752646590412;-0,00928189105907015;-1,8240415573013;
-0,664337759123754;-1,65287731182793;-0,939788815639567;-2,22805187450974;1,90264126669935;0,905364967746265;0,120238042634622;-2,03213813384313;-0,676926664511896;-0,760324149666032;0,702659794348303;0,72877296228629;0,340719531645759;-0,000323685119450034;0,720542356200473;-1,73165068691293;
0,125923065524743;1,51689485854286;0,719703972339878;1,38464591268675;-0,0613935278309773;0,404026401173439;-0,254482710795616;1,64127467638467;-0,859404096716352;-1,52993032004426;0,479834390725681;1,87206579957824;-1,08552948850257;0,000972101849577501;-0,713671990923982;-1,25060922436635;
-1,97043664494841;0,564408103252851;-1,60263061801877;-1,11025840419561;0,364756801225299;0,587515161553232;0,97226958817296;0,953488003830344;0,482224809737504;-0,109188561025519;1,18388610315422;-1,11794336703727;-0,229501589551473;-1,94478711482505;-1,07358311623781;0,0884036791068354;
2,09016177613536;1,58451595502939;-0,741733086144982;-0,253441929798335;0,743311688499751;-1,30764362162328;0,699772020400423;-0,650745337227634;-1,08340260416188;0,209603232246396;-1,02224125030732;-0,990516264906161;1,33639317734924;2,02789544620033;0,937710126492407;-0,992790160319465;
-0,0767764655472443;0,246652891411663;1,87566732438696;0,813723689540572;1,60201265042097;-1,94622175759897;-1,22833040257952;1,53127793886488;1,56271129731005;-1,25193803786673;-0,698400367608906;0,985191919104715;0,105990523813184;0,257961345073524;-0,763507106687621;2,02539841529154;
0,0660055043611467;0,698432720247524;1,32631964175766;0,737781026844647;-0,116838761581367;0,657672039562398;-0,813827444104138;-1,03672512690934;-2,2200771921879;2,29717263250561;-0,80467967938709;-0,385824089950221;-0,772189051939224;-0,673319061249844;-0,415618243903195;-0,80794472021706;
-1,49533793471122;-0,287786714131612;-1,20913844980319;-1,21155801099509;-0,362831691203775;-1,52207728126676;1,52117865866834;-0,707285670610489;0,226154089350523;-1,07371289358717;-0,918567193640194;-1,41163233395587;-2,1664466490907;-0,00911855653795216;0,340154204650097;0,118716877432885;
1,77053858604863;-1,75891703198462;-0,4411365934893;1,10093119310026;0,645332876350063;0,339806419974165;-0,897783468884803;1,02769251235317;0,00197055571640209;0,599177267169174;-0,327323117028502;0,223126641291439;0,665451069772765;0,555764936633144;-0,185809682178194;0,0551814858341033;
-0,102282976371704;0,0956576720722788;0,106759461693659;0,571797152158046;0,70524844975771;-0,259060466325981;0,177421591645277;1,55318705216456;-0,264553667171391;-0,763562355449842;-1,048391721755;-0,205595829495126;-1,6426965130538;-2,07618417444884;0,721571780685955;0,166557696871308;
0,444906023935755;-1,91245594579364;1,81228931586497;-1,34318473214308;-0,0375786641707839;0,948337626789092;0,60290883249463;0,548469864047548;0,318352270322836;0,13976950589524;-0,0635599902830432;1,14729789963588;1,12350337948066;0,522123478884326;0,0519889134083878;-2,1320622180211;
2,76353447401425;-0,884333577242587;-0,0309554790547566;0,928088226978332;-1,21962205865264;-0,872881461230217;0,681296334178493;-1,80336972749377;-1,14062399597215;-0,535641221676461;-2,01668612981301;2,36224754742419;0,350117764018186;-0,309799046938003;1,09001061805018;0,532102661431929;
-1,09682510723101;1,27172949503113;-0,632250588670187;0,667886405308809;-1,99802776135175;0,839623118236335;2,18969210633177;-1,02229308543878;0,117626851658934;0,751855354537435;1,58808203297933;1,04595906582206;1,84693996549619;0,13289382820523;0,239431170119152;-0,711701608401742;
1,90374360236215;-1,02389504674773;0,207411799422185;-0,262940864822312;0,523242546989098;0,848506598825961;-0,50976486030197;-0,743199798077738;-1,25613137831969;-0,0950969778172873;-0,0230942048193893;0,0907241588351299;1,48980915233551;-0,173376416162817;1,34515291638766;-1,25011724851035;
0,763698582505372;-0,0268705079535791;-0,6812511996101;-0,485530146380367;0,205392509197759;-2,8245041829296;0,874457667314254;0,62264320708864;-1,20356015959836;0,949913311896749;0,434388797732602;-0,751255660246559;1,03091706991733;-0,391281878663401;0,0449694644707484;-0,564716867544342;
-0,0694864209009291;0,394735047739452;0,0442815541484899;-1,8703007909242;1,97556946407793;-0,0173130859163234;1,19236813838877;-1,2624498291199;-1,44212447986268;-0,795914253180073;0,686909034669046;1,20489627317322;1,31640352662964;0,644329654222011;-0,171515102036922;-0,306254150137893;
0,689643553618714;-0,78330599192715;-1,61265816891679;-0,746041533527666;-0,811584246111696;1,41451984123484;-0,720056226067301;1,09757111539283;-0,0635330619759875;0,897417992453264;-1,87734486951817;-1,97124799902195;-1,24913700983613;-0,0392141188126216;-2,262574381485;0,819750554887349;
-1,58642229692635;1,95080179915198;-0,868110667698381;-0,0790204413779308;-0,798985244589358;-1,14962244372943;1,57416734665592;0,889402982675638;1,36377724641688;0,192915068940435;-1,74326542915072;-0,454793443166552;0,00794802683724561;0,401290725173034;-0,632051290101446;-1,15005423586497;
-1,08181363155174;-0,445610306504443;-0,54094186442054;0,946319209671929;0,767378892432852;0,648495767367412;0,746384762747782;0,489835114947316;-1,80008296022432;-1,73718791558363;-1,4887490949942;-0,197020832839694;0,749449994222505;-0,18628447455465;0,910311062482319;-0,849668616108247;
0,654564958872986;0,808976619224992;-1,15392534497172;-0,824925517490461;0,4869849826217;0,642564545326751;0,0427976008558114;-0,617431397098576;1,29607028883062;0,275161682279263;-1,09729695362866;0,0442793809377552;0,361302387773701;0,43234642584614;0,313539082133461;2,64759089049396;
-0,851718482427745;0,643414641656358;0,963738061342357;0,722010443792501;-0,871601462196073;0,194601475106626;-1,33777557598442;-1,17355674029787;-0,917313802547938;0,755388124867973;-0,539712650993595;-0,972831012105936;0,302026576901989;0,82732895363862;-1,10974078004406;-1,54212690261613;
1,90727258636534;0,751675446347748;0,0383396682975751;0,914538922703013;-0,499419919010261;-0,542716870787978;0,601766192551667;-0,188124511333644;-0,116906868113333;-0,389072016973289;-0,0785478368339839;-1,20940301122602;0,773680765756498;1,34540578637317;-0,0113650857249458;-0,742385663762788;
1,48565481278701;-2,42440392876205;1,81065703856232;0,220033831499314;0,0388323893450837;-0,706451710013396;1,97851666815946;-0,495986547134184;0,462792139858147;1,87647707244024;-2,09631662115296;0,494621173126519;-0,0907560575270422;-0,490074484876545;-0,91635029377576;1,58841973594484;
-0,035332761730457;-0,414940787938589;-1,53208448318682;-0,633542576810769;-4,0893881468794;-0,803707726310941;-0,439301630056955;0,739676512701557;-1,40737122186012;-0,696326131826383;-0,244930406387097;-0,869255793526934;-0,640982779955252;0,483818101362248;0,543841011263238;-0,897178006631002;
0,45101855788625;1,15337029412509;0,804548524366343;0,763873476957741;0,129608940100009;1,14023303467442;-0,801959655417623;1,01824417110851;1,22724233279337;1,30439014160221;-0,0316110269877506;-0,686525162045036;-0,276759372679889;1,58678929461315;-0,263366046677206;-0,228195347297838;
-0,468642193189166;2,5577698015143;-0,19857583120702;0,719016294930825;0,732841798230697;-2,43369629069608;0,446327688202054;-0,942362961671202;-0,871927822868519;-0,238645160698623;-1,3806530250436;1,25748640853506;0,302903264377497;-1,00227574504642;0,0879995367495496;0,292137774120762;
-0,670975981933276;-0,172364370697452;0,569110408845187;-0,380493912147168;0,441247863887187;0,016819381082042;-0,561590377676891;0,0738033642831386;-0,193367737055996;2,77407887458423;0,621779285830864;0,481469288315782;-0,925732649600894;-0,374059572213975;-0,271008079030585;1,74088341444;
-0,309255345263653;1,1699697729646;0,785564460258314;0,15882179718133;0,30436992109089;1,54444233626375;0,547977197483042;-0,192861656567439;1,15477434360839;-0,0998793986844888;0,053244281167195;1,24844891477717;-1,38093732537492;1,11495813334547;0,0471724088874036;-0,340692711686398;
-1,72445163689932;-0,0772982403640013;-0,853614228993847;-0,0634271044760295;-0,0585117374765462;-0,842189264734439;1,31693235873076;0,928380050230377;0,756916549073395;-1,26020234636039;-0,215719037406301;0,637771773711929;0,838904739110695;-0,13514727752684;-0,258628846107198;-1,03532373810679;
0,859067566357329;0,56095727378136;1,24574845277003;-0,130250305797544;0,766573248051028;0,0255404668846537;-1,07361420703127;-0,510897887574708;1,1537454556458;1,20050531669442;0,945766745324227;-0,0527878253206645;-1,64768610536204;0,258577370416737;0,545107789043207;1,7817328046582;
-0,991624876122532;-0,799723647495679;1,20706953247789;1,40887180439698;-1,54032308842044;-0,335742776364728;0,425939415147984;-0,433102851662482;1,30613715064178;0,0301498008509764;2,14279691646656;-0,214093803118293;-0,319005540398694;0,301120599626213;-0,518394510663347;-0,0815429769871183;
0,264543315057454;-1,00782003510724;-0,3783782439445;-0,873840820461652;0,14230081130955;-2,35818939844642;-0,784824590765158;-0,733503478379812;-0,496279035087421;-2,02386941311709;-0,861727476679761;1,79055168659689;0,0331861815728284;-1,92595469262898;-1,08677021625186;-0,427589858173379;
-0,698591890746739;1,3037100092883;-0,425195694458737;0,640302579119249;-1,01667154553;0,0522932144796784;1,43723886046995;1,2174831237867;-0,0339748205288915;-0,405410891280279;0,593455873537149;1,39887441724191;1,72234830167446;-0,339347352651069;-0,223490989525763;1,54389537854796;
1,09475453565861;0,495980374705831;0,986197190897832;0,107560150327855;-1,6645079384519;-1,07337015084894;1,80966015851434;1,56317048715741;-0,975701951562519;-0,26754105696445;0,855885646530664;-0,372559830328957;-1,3262166078661;-0,704097619828754;-0,058421131008246;-1,07020083076184;
1,18875237697852;-0,647808706056498;0,893968255326617;-0,634001457542059;-3,38887144600018;-1,56279640299356;0,0839040510454901;0,267551568841078;-0,788843643389888;-0,138984764697897;-1,92126736495527;-0,746429167715821;-1,73990642141119;-0,476176262800845;1,02288217739177;1,228065936695;
0,691206178852665;-1,01998411403042;1,19696613106933;-0,410115677137116;1,25138359318727;-1,03397826633781;1,05171833776962;-0,180619086702318;0,57400045382737;1,1197741429271;0,117491128334589;-1,10228594259267;-0,230464044038456;-0,42453468559992;-1,2709687556689;-0,561656675595401;
0,258716708076601;-0,400060796291835;0,340745303403304;-0,745365042208583;-0,447527277603178;-0,0988957338440335;-1,4524658960614;-0,662183030989586;0,451941396515653;-0,218415025929054;1,60055227755299;-0,527570686331675;-0,413932493769859;0,848548970556289;-0,688939865520164;-0,163971259599043;
-0,129446146048732;0,224173807679561;0,157550507094268;-0,353346994117381;-0,121908165863142;-1,19705694479133;-0,105341800094614;-1,06582560751547;-1,88051369004229;1,82044350165667;-0,236514961512698;1,05971959534661;-1,85280394570825;0,806487009216213;2,58496791462369;1,33255694794895;
1,28349918131373;1,41391004630689;-1,395226406075;0,514902376759621;1,54845342069137;-0,265431596647339;0,678137300361251;0,278165993027554;1,14106494689479;0,235744035454147;0,925891537600074;0,392569565315552;1,23574292139147;0,522287508791624;-0,632888811201277;0,899348761478602;
0,829592188598768;-0,916662136461851;1,52588980981291;0,733084065466006;-0,313334220461792;-0,0673670551845341;0,0265948316481341;0,245053449062183;0,670280319826671;-0,32930750532473;0,0924573858533782;-1,13788153851835;1,18953243744914;0,391125107391086;-0,336178757275486;-0,443756551724133;
0,167906448554905;2,21543536035129;1,00090442418152;-0,985112381935268;-0,247227283102014;-2,0306573975953;0,019420966673946;0,21102797002797;-0,711221038999506;-0,27295789747187;-0,30245783903323;0,832197735401573;-0,335375810861908;-0,510673841033657;0,874597767408952;1,12584210447316;
0,630439436973415;0,475909709055639;0,361614158010405;-0,839990309217072;0,103167113448116;0,506790260635106;-0,33180871273418;0,102304823795314;1,21995169168636;0,542854273403061;-0,0262139373676638;-0,64263610859606;-0,848237765910021;-0,668732145711555;0,501801757409936;-0,969069266645359;
-1,30684934768791;-0,807656336959195;-1,6101108038077;0,737757740667825;-1,59526140792215;-1,24746327111535;1,6627165455472;0,447287652866426;-1,20886814760824;1,11655966898869;0,0802018377193022;1,86763786128447;0,463151167206326;1,09971080956978;-0,0250559202701661;-0,589049653393955;
0,429268965322082;0,487206710090499;-0,228442361705305;-1,39848662333348;-0,0719973731597498;0,322973488915594;0,242714476462716;0,764244697001842;1,57106487765497;1,13767944868459;0,290492200102074;-0,577986288002121;0,164499739208679;0,429827817233043;2,04352106730261;1,27095649725981;
-1,78393404576568;1,84872593477761;0,945578676490606;-0,397066957437955;-1,30932710850362;-0,103707911615744;-0,801241703451304;-0,386616845604177;0,984429957301667;-2,51979464623851;-0,468348746060752;-1,3532074656889;-0,956134229492495;0,812446037843333;1,47758784734534;0,0325222887089199;
-0,139199703599766;-0,517532938452206;0,174788896438647;-0,375029598083443;0,785736029485749;-0,276583087107163;-0,8824789111147;0,728684603638715;-1,48940233208609;-0,423963049825135;-1,51470372762695;1,11790626769643;0,310015302763946;-0,666856428812006;0,250623082451812;0,526044025996683;
-0,109538475172767;0,929694394651275;-1,25669819876968;0,620901781922026;1,05186819736472;-0,301463880526742;3,34108080817456;-2,37418058330873;0,916222483602817;-0,997125553829462;-0,664749152333635;-1,76892730200469;0,814153957121881;0,0546588931508436;0,823862316313464;0,0802244825658712;
-0,490346763570955;-0,24676623546064;1,15602792669735;0,452531638662272;1,48667429372799;0,831976307802151;-0,567834562409325;1,46363976756572;-0,51456756311247;-2,22999189948943;1,21164178726348;1,25723915154964;-0,62396575899915;2,67979326376488;1,13267556710815;0,829145911517528;
0,251268927043937;0,775095321975154;0,232354996831159;-0,0298837488918676;-1,15060009014308;0,673516592032016;0,531722054810717;0,286692235214182;0,789608801461393;-2,2119641114915;1,88117928166042;0,59044953217411;-0,217473899124475;-0,18246218093735;-1,40522174068178;-0,0611242963388617;
-0,0229290374493768;0,208402339122774;-0,594275998400371;-0,159221410161271;-0,244655414098313;1,86354201894859;-0,601967907228651;-1,67416766005886;-0,534924773506564;1,01748000808547;-2,09496318230495;-0,0972926937829314;-2,31977276800203;-1,76790760722463;0,087325946565566;-0,915621949789492;
-0,629877487598409;-0,688904357606415;-0,557052095176004;-0,555916948895402;1,27594843540618;-1,08295190260052;1,71666063891574;0,353039570938462;0,461485610303814;0,149772608763476;-1,67236728850979;0,622288903265529;0,0351751739283573;-1,43113090574945;0,525006858084794;1,26704590393878;
1,98157189228154;-1,03777592324622;-0,982395393646624;0,892904500896103;-0,550880255065814;-0,279889842893433;1,45140491085905;-0,232924165252671;-0,547034910661289;-0,848209545946674;-0,626251182325607;-0,228395530394111;0,334881562852195;1,35249622639627;0,211782699763046;2,03135648417024;
0,0274713430982934;-1,10080958276816;0,373813240427213;-0,378103526352628;-0,391315620685462;0,0903538879982146;-0,131989003708902;0,135625503799827;1,39769874311971;-0,10060809893803;-0,669077801797409;1,87449164423356;-0,182291761149584;0,203789783420314;-0,498313635061531;-0,124061596316858;
-0,954010168395488;2,87225150751697;0,327982227074927;-1,60666625320071;-0,172361444843932;-1,55533981771;1,60052884464181;-0,0188607099202516;-2,02664874656326;-0,266450961467095;1,8759951580275;0,996840711251236;0,416179349927565;1,25100323341353;0,287927913860085;-0,213040681561043;
-0,733525590320362;0,439031410837041;-0,465602578107158;0,405930319985411;1,96720140710755;-0,159651151775402;0,653370738917445;0,421106316061244;-0,210540022747185;-0,905343887950953;0,685232554155978;0,278607972933097;-2,10454508709691;0,418509167243416;0,440561633554963;0,161170975996287;
0,0868493835834521;1,22147919343638;-1,31282752190116;0,873333507937627;-1,09180551547487;-0,59957625794607;-1,05717700865767;0,0816471147222923;-0,397094634166789;0,810869063173628;0,721897244739524;0,927648681122815;0,495485279729368;1,54553267225041;0,40393333724699;-0,208730475837451;
-0,0902174382080963;-0,462671305036009;-0,146051930430718;-0,258985542500218;-0,479920874621472;-0,906756539913181;-0,967089901569105;1,47265513908689;-0,239131586199109;-1,83669504268416;-0,127099441452987;-1,24262549074616;-1,4840521888129;-1,02535925089802;-0,429788010833862;1,87459445698892;
-0,895847625159539;-1,17477287633153;0,416882217492601;-0,968999406463306;-2,91487853178749;0,952464543515141;0,896659392594263;2,52365286170759;-0,00296110967837481;1,17717387346683;2,39590553011212;0,126625555276117;-1,11617213247437;-0,392494312004589;0,442404457572885;-0,638883380776036;
0,254789956501772;-1,43801113161754;-0,850328795826711;-2,63815384973128;0,475073454924864;-0,450626836876595;-1,35174813084534;-0,49454911726708;-0,166210083002426;0,0411715726939878;-0,993169278094766;1,61858695176768;1,38607814342523;1,35935389999518;-0,863761951290567;-0,194772522474252;
1,16928364780913;-0,222700831893467;0,748850854004407;-0,142280192025985;-0,170233397663053;-0,574608237894131;-0,712309326186875;0,375033591352228;-1,025832401269;0,480699031259914;-0,994292798786139;-1,05739518712838;-1,60997834692089;1,58752448674666;-1,62604201417044;1,18967000363957;
-0,68691567562652;-0,767376818664754;-0,0187578328838431;0,923482281903917;1,56021343885098;-0,37584409113582;1,68279853344726;-0,547352440218889;-0,224786428890823;-0,507171824725567;0,653129364189699;0,274516258364737;-0,0667647703364169;-0,0776800190879094;0,389524586913673;1,60212898306418;
0,538287926631606;-0,484821012971346;-1,38372236566787;-0,748532259058815;-0,0736123512104743;1,73071555397652;0,754708648061251;-0,0948922490683928;-0,118385168074353;0,774631922360974;0,0484599869812978;1,0062776459546;0,450822397241247;0,474212639886611;0,483996383334824;-2,00373982907226;
0,356930700118892;-0,945790248155517;0,551609335240008;-0,742330564864399;-0,332519344548615;0,448854296146594;-0,19444442807047;-1,12163455369805;-1,68184248752552;-0,565692979910556;-0,155334513965243;-1,25022927337477;2,34067705273577;0,540789878890864;0,00493129339765794;-1,62401294221056;
1,17406773794439;0,687034049722803;-0,545228959495021;-1,30451284137295;0,201631132460418;-0,296525137944096;0,893796188449316;-0,576177951835037;0,285645054227318;1,46142785258032;-0,184649076813609;-0,577986040657716;-0,249802109572534;-0,205176993688189;-0,045136081687385;-0,830115347225671;
-0,151689714658835;0,112613072037188;0,257285677133005;0,514940245997428;-0,0782774623020555;-0,764053824256739;0,973317495687402;-1,83706992522775;-0,477638987116124;-1,98727840728817;0,00949328143388524;-0,290626876004307;1,68401862128932;0,0706281288800394;-1,17345108871956;0,853378802762492;
-0,500163772134239;-1,95408604295706;-0,836553485881561;-0,585147892499797;-1,09809834679217;-0,306438214560881;0,449717563270845;-0,513515691680531;-0,224047619221141;0,905321863403783;-0,344284276131085;-0,721017362915361;-0,810341235617974;0,390447734002818;-0,357965467679411;-0,289874725399842;
1,11044603415827;0,82258730000618;0,308631716384776;-1,45015822678788;1,73779132961143;1,83377596278612;-1,20569592678993;-1,44241090035541;-0,0482401956173775;1,09864925167547;1,06423587358646;0,0823226631414435;1,65926051829814;-0,342477820651872;2,2660593349726;-0,107388144584337;
-0,501935415297021;0,174861817420635;1,90945743054221;1,13468647327786;0,171737502786899;1,50029386068535;0,13954419133997;-1,14623270373659;-0,595291765591374;0,551885188562133;0,770347459043222;1,13185260806891;-1,16802422134823;-0,494627792431865;1,14802011524431;-0,906132572110906;
0,36276462484686;-0,381222102916211;-0,782027868655005;0,313811181873247;1,84859157605387;0,506769821822786;-0,15163978689535;-0,831229287937914;0,3228868708778;0,94079706328612;-0,24109088948562;1,18846464713182;-0,110635973120649;0,138619564358397;0,122192880424084;-0,66569815325823;
0,142763725921334;1,94953941473357;0,255365900446811;-1,07637957047996;0,502233536962602;1,26265139739211;0,396403632671444;-0,530636751124824;0,58073082943485;2,80806727456977;0,225688750731468;-0,123198623576183;0,623574891254159;-0,443034439766212;0,534632783526708;-1,19604655611789;
-0,964901814602077;0,624288531437045;0,722302304801684;0,074791474812692;-0,0766468670157845;-0,21097930221117;1,37233793723735;-0,981475221658804;0,191753202315296;-0,24210328831949;-0,49683219935149;0,175252943959536;-0,0535507501698222;1,88782730467128;-0,683562364370927;-1,70438795823116;
0,357991564140751;0,641621972177976;-1,4906413711364;-0,964480918852474;-0,125705974474146;1,52209513301601;1,08935264912944;-0,340454171129433;0,319643660504842;-0,30631056680695;-1,01318280803119;-0,300082369513339;-0,815927109941928;-0,108972206150351;-1,27927028916202;0,495854981833843;
1,46775526579521;-1,20638271524728;0,177044519577584;-0,889244168918685;-0,877582877223709;-1,57817705019014;-1,42460556766167;0,350590543488107;1,61292553496658;-0,45949489582419;-0,512223295567235;-0,813696664012927;-2,66707237065643;0,462891518400199;-0,275736583950201;-0,173609172056461;
-0,644892105331585;0,586340177145117;0,12161984651134;0,833589507687974;0,201080665043313;0,535263050271451;-0,359988792871001;-0,383982853957607;-0,522233339758184;0,311412226730287;1,12751362721393;-0,954288192490546;-0,231952477674505;-0,272735536981187;0,440431419099472;-1,1506963487501;
-1,17997015893559;0,273318259319983;-0,332754993443507;-1,42050951069901;-0,164795768262997;-0,367502716302359;1,08243496889794;0,218946481113571;0,644469256163228;0,941777833184588;0,437905876617387;1,91191201199219;1,24048361804883;0,32198426719931;0,0821218690730902;-0,847318313701964;
2,15849030658108;1,43199839934591;1,01157128988927;2,84381793153497;-0,793389864891919;-0,464009591228325;-0,677820445261829;1,36969188393812;0,266143443054518;-0,350762358800562;-1,20007990225802;-1,39299091970887;-0,96282168547496;-1,66560552389123;-0,181449148039117;1,53346885290522;
0,81790724656233;0,685826773893428;-0,238492421566882;-1,77295802456725;0,550524934904222;-0,133507458408228;0,488597591592581;2,32166155679923;0,28130966682071;0,338079817441523;-0,93334479727201;1,85439803844429;1,97827562289579;-0,757414588796776;0,390246845221362;0,464621347667351;
-0,184199262845107;0,100775359702177;-1,46189171145147;-0,860668865659761;-0,227954640463533;0,0239986047972523;0,167876143271132;0,477272211832253;-0,490177358013002;-0,390280397397922;1,98128678127634;-0,281793345966325;0,613289177788105;-1,26648217961962;1,14031069739133;0,183998150007576;
1,11953554724949;0,903073009068429;-0,0484440851291784;1,47946538983514;-0,169913748358997;-0,738124131976526;0,955239165966286;-0,278941516184574;0,683412894586878;0,115146162804376;-0,758709886480407;0,333133795835698;-0,458608204995999;-0,498560713409362;-1,10978502694566;0,282323611706346;
-0,0735864393125771;-0,317209719067766;-0,691791711209563;-1,04066497477985;-0,652769490227913;0,820021376389447;0,308808721759814;0,0209823167069597;1,6645063867106;-1,86188962256492;-0,349629380791802;-0,353468659915945;-2,13114514200742;-0,402669994154336;1,9969082385918;1,02347598156711;
-0,917280937404088;-0,594246504520072;-1,24808144795644;-1,80435088798323;0,327978459459168;-1,18155960876378;0,368456215154192;0,386853785432943;-0,851836154191307;0,974628798768625;-0,602009268920814;0,279009872552412;2,14642914390333;-0,491896616978343;-0,0929691465133958;-0,213850711178388;
0,559987072226522;-0,0545848316723813;-1,31497613472935;-0,118490861007845;1,45338316265245;0,0684363536752594;0,807096837991344;-0,710429347178651;-0,187195773070454;2,28877788870064;0,762404944402584;0,902431025936009;-1,55878943640218;1,02506819407144;2,03821922236349;-0,42356888900765;
-1,18269430038162;0,251716183217499;-0,332409579010562;-0,582099729261618;0,969008912504906;2,0606245253882;0,188894713145419;-1,50529963168969;-1,23774915363114;0,138202008279105;0,329716074490297;-0,452336476932661;-0,53283302661685;-0,481543349519017;0,968562427863444;-1,04723987329595;
0,81422286777445;0,0253340766674455;0,643305316925829;-0,209179584695109;0,68492625101031;-0,911600455445119;0,941754034760819;-0,113102963492115;-1,45694404034379;0,409697714186598;-0,494436043965827;0,140649202093995;-0,507615589843017;-0,252390902104679;0,963836711488264;-1,00030114551638;
0,845191686647234;-0,774694071422317;2,17035343139271;0,259790022645964;0,304644723537704;-0,452834416058228;1,30341705849545;0,480947759258058;-0,943766518933338;0,619247649438001;-0,0263935605096623;-0,291123372160962;-0,878040145882957;1,49817200541374;0,519394159381904;-0,433236928922986;
0,622328525712139;-0,0333875305300973;-0,44181820888254;0,0214048349445441;-0,212920247732546;1,51166477532358;0,16911834917189;0,0760092080767742;2,32278430567118;1,48902215793382;0,621944430704366;-1,71632992137131;-0,895905885989608;0,79920496578867;-2,19916374159346;0,00568038933205965;
-1,02151461138942;0,563713257594785;-0,675231558175216;-0,735078050176856;0,0269988104730607;0,461554542532688;0,76968309460711;-0,163033174536392;-1,82256790293049;1,44409319322626;-0,592745490306848;-2,18967357921829;2,64305345632308;-0,596546592265358;-0,304869529905754;0,0968790879828339;
0,308080733031636;0,718267038528144;-0,581383627785042;0,588781213550714;-0,519704346746176;1,28962709164925;0,787276052939322;2,36178716095362;-0,597225461863165;0,206059543486589;0,8522560937863;0,670048503296844;0,208309863070086;1,86759117064264;-1,56239710655945;0,776836347126775;
-0,190667491678901;1,52703030586814;-0,745458805672357;-0,953548192624902;-0,622172973298682;0,475634252751811;-0,392246271853863;-1,26674869606552;-0,114418206393625;1,23545825920688;-0,433286412982962;-1,39278286845909;-1,77224767631408;-0,638333709393123;-1,17775118575022;-1,68070272963216;
-0,17227529455189;0,0412153600804545;-0,0834863135875246;-1,72047662330997;0,576773490282871;0,311708522052287;-0,622892904992571;-0,223239800600142;0,484085232869604;1,82738908652437;-0,675115050930658;-0,564860133878558;0,921589163763188;-0,456396463884888;-0,520491036125412;0,190033652526297;
1,2065865611307;-0,412041850280788;1,24221533566219;0,075753421101434;0,472313197992255;0,803992596541615;0,119859149305438;1,35213294512007;0,711510015106906;0,879067934419403;-0,517125969712359;2,2696177904594;-1,04414221085804;-0,283755635149164;-0,592591898398966;0,789501054335034;
-0,932058875496042;0,800334006001642;0,754962166536265;-1,07075959488485;-1,36160638256206;1,23297198367406;0,774976038512313;-0,26571959845091;0,37222447495294;0,385412432062772;-0,22623987744553;-0,117615895416962;1,91893327133287;-2,12537016758289;1,37423711334791;2,35649902249347;
1,27876661337222;1,29200715328695;0,839958458088754;0,687696243836997;-0,237932858091578;-0,485727480996462;-1,13650605872011;1,27141896641457;-0,192391870099652;0,642458332440045;-0,715014389024285;1,35316527594216;1,17599794664082;2,75020532597645;-1,06957563114032;0,435583617162532;
0,562824237677011;-1,88887603000189;-0,0798628573741184;-1,60500330768003;0,417300818995664;-0,0462969337447256;-2,29097229466812;0,0637465499629584;-1,37677904287512;0,260254538198608;-0,545220495770807;0,239908723199617;-1,65522192955951;-0,889538679301787;1,17357365069989;-1,66163988736359;
-1,00319406250626;0,955081855002545;0,930441695424876;1,16390546721242;-0,662925715574735;2,10882202894855;1,59217965945522;0,455646815597587;-1,54754983356422;-1,90688854117782;0,0402055511175991;0,13609926370125;-0,863657151963333;1,05132725834853;-0,853280847804727;-0,305921334206072;
-1,29306024212096;1,25364610168328;-0,567988186178777;-0,127244868964553;-1,88803443774162;0,538854820708932;1,02689051505719;0,955097278624744;-1,20815032935649;-0,557867969963797;1,41665262325278;-0,0692294213519987;0,90877943829278;-0,0922759427522207;0,924177605042768;0,31821277900751;
1,59228872008257;0,381484255446257;0,667902202663421;-0,0404561922915071;0,4178560279455;1,07745001453664;1,18077424528797;0,969345092495845;0,568220386716181;0,267458597116981;0,626874418376153;0,493832420460414;-0,418694297527447;0,749081178995819;-0,758666692919411;-0,797566304691776;
0,388100163746031;0,865452339773667;0,114573497436006;1,29755943531303;-0,0849069002078201;0,538284917064284;-0,656557840193241;1,5671632048975;0,122804168514519;0,829119524533905;-0,16192838789533;0,312613673532631;-1,25249182203652;-0,999224518206408;-0,799296057533535;0,394820607486366;
-0,412598239412487;0,169044289604132;-0,108880958604237;2,57773606303933;-1,80680887571667;0,753240952975557;-0,669795823691696;0,229223188541411;0,648182766646586;0,959368698920404;1,42782650653768;1,1613853412656;-0,0429555434995238;-0,745086949791012;-0,932369349282485;0,730488684666333;
-1,14503393327177;1,4627125698447;0,813501809893964;-1,75225047372132;0,611442691457274;-1,71958192745572;-0,0304829598081882;-0,676587709932531;-0,40853168157235;2,54228335229853;-0,0151225641131028;-3,08405560036895;1,57339041446565;0,701633817664081;0,0115788583575926;0,38205434040132;
0,563358806185417;-0,384994236978446;0,951365728120975;-0,815534956808098;-1,19511966360784;-0,541996160786792;-0,386058414350971;1,37685322057714;1,26097856249548;-1,73040535803675;-0,575477249065521;-1,43208196867674;-0,417715964296606;2,21061577258013;0,333738911373599;-0,229226959338041;
-0,982348425860288;-0,293381152820161;-0,800832819903812;0,669318865354964;0,458209763299925;1,17374673483099;0,725469813135906;0,337120572611953;0,378403116859835;-0,518906284642976;-0,304564360762957;0,718000488726132;0,0717223902228254;-1,98096842260855;0,471128779413917;0,616780083289514;
-1,38815167569491;1,48046404983706;-0,4468265794064;1,17222497885491;-0,844133189716617;0,0425598511534956;1,04495023836857;0,166187227684389;-0,589109383020134;-0,078558946775251;-0,791632120794099;-0,800315111483955;-2,51656504284366;-0,796173662521355;-0,53441981451021;0,790238144408626;
-0,161775168674686;-0,355495093291678;-1,48835352729854;0,889114336582495;0,258345087141084;-1,65681198839125;0,0413858726200736;-0,79428842688996;-1,20194921467111;0,217620788235622;1,92176789835211;0,50698362475581;0,30437323585322;0,553176125575245;0,0774743800220905;-1,08263327397949;
-0,85084662865523;-0,498344562401016;1,38037196606152;1,69553942337813;0,129300332567336;-0,491846667959337;-0,820671608238599;-0,319296733225482;-2,11235947888375;-0,364277887604127;-0,0627935321438229;-1,4396925289339;-1,94856835194422;-1,21487618683144;-0,740009728874779;-1,12188035884272;
0,0493900831203635;0,860335179503702;1,48893642390372;0,657265884438099;-0,434677363435051;-0,176806106168956;1,10863638040336;-0,920438105507555;-0,115466663484136;-0,0455402061970903;-0,230707611348529;0,50603285322731;-0,852424885303081;-0,608339215089493;0,816694139348042;0,934193076006251;
0,696928897646997;0,679974155811852;1,68462276844265;-1,15452301214963;0,493217894570598;0,478753213817208;0,929517645320968;-0,545409318465074;-1,78266616472365;0,0789091897291262;0,844239456867146;0,757933292592868;0,871671154871727;-1,31253428660428;-0,264847801610436;-1,02572689401068;
0,382922420963593;1,71594321713368;1,28424827389199;-0,146677482106129;1,77054771210923;0,0546323430674083;-1,02676555722494;-0,165108149625716;0,0998203821057794;-0,736361802383053;0,655500160287442;0,285305173427682;0,244018317611203;0,265506271981196;-1,75748504240704;0,858823590877115;
0,668313560708731;-0,216554195568663;0,618764529902353;-0,826218491465288;0,337980364515793;0,265997080841864;0,781896695133891;-0,635480322933468;0,835186822745439;1,62298878835888;0,132283570069833;-0,668004732503427;-1,58451132787698;-0,433843781081077;0,528043452252667;0,902950045484712;
2,19057951460143;0,497490081022287;1,85600192617744;0,568464534871336;-0,132436429192954;-1,09373238723589;0,850929208038569;0,75011558272276;-0,861592803726176;0,559496776953087;-0,677665876500321;-0,209311893177455;-2,33374581273212;1,22257585041921;-1,08706248052213;-0,225522198625791;
-0,0311199076279999;-0,310674348086697;-0,700902557024162;0,90954587298532;-0,317141532545616;-0,205728805589001;-0,211361308816597;-0,669671479404794;1,96561481058571;-0,846001356348638;0,670453128603187;0,400435667223799;-1,19003535730789;0,0204446902543694;0,059234701404011;0,421504581612054;
-0,437611566414802;0,188385801722253;2,44444941037924;-0,487199391433655;1,58526159104016;-0,143708158209225;-0,500190841891764;0,275168550412383;1,17806775307268;0,262112351175076;1,36139887666277;-0,754189985610758;0,889701167804472;-0,829664391384244;0,766952547946077;-1,4530660470289;
0,290559517807759;0,660266208542738;0,167073710331786;-0,342413448964717;0,56762672450255;0,272250564106301;1,06097704322206;0,747287999579392;-0,483912474661118;-2,03704240936902;-1,28652587375793;0,425002469638777;-1,35396039654004;-1,07148707475536;-0,241534879325496;-1,40827016592765;
0,333527563333724;-0,577854874633554;1,44184084283003;0,194930727063489;0,411207039600597;0,685085683852761;-1,25002876759849;1,11693648468091;-0,748105604394703;0,810109358314117;-1,55293857421826;0,833047411774794;1,26568094262014;2,58166116402249;0,11479970687517;0,352086114752193;
-0,983202815451054;0,952616989782952;-0,0562689826801195;-0,0131395192064271;-0,343577890605315;-1,86629417310552;-0,783470853887494;-0,502922386422034;1,66089945701623;0,785091550053828;0,000634249579966712;0,912272882957723;1,30617507510353;-0,348549788665116;1,6820828663585;1,30784614583231;
0,12966451687127;-0,0874332660512246;1,19312591719615;-1,03690890633846;-0,553071258218264;1,94434674076003;-0,433633755736886;1,11658137239962;0,410066449008349;-2,08375017090442;-0,500437200420301;1,22042601874293;0,586300974823618;-0,0275379671267101;0,506885075686253;-0,481395674051611;
-0,505121676504026;-1,47711367164742;0,420765199472481;0,0836438858515199;-0,391252903690101;1,67656400819485;0,495974511031012;0,243492619457467;0,551986468275279;-1,55423962243243;1,87870525483738;-0,877039160976697;-0,710869962050099;1,72204070731069;-1,80059189351942;-2,11681349646986;
0,483228538644736;-1,2360926353387;-0,620202120650737;0,116433257197086;1,12545279279115;0,270879273581754;0,0530662045327769;0,58812932478476;-0,51099117220297;0,51811348826957;0,0692972888803813;-0,173764472125679;-0,388567984268702;0,286598152547563;-0,0491533846615838;-0,0275817879017264;
0,112194844007183;-1,05013543908199;-0,111329853985982;-0,262348129284013;-0,706391358196845;-0,114374345029619;1,05845771098988;-2,46190774217421;0,858500902108148;-0,0289025989476926;-2,58293860705133;-0,180425928987023;-0,844693097086296;0,930619800719134;0,279411673075231;1,15327447420004;
-0,312080342132523;0,585863175214092;-0,651695943779932;1,57536698716127;-0,515202523348407;-0,0540988015575377;-1,24449624255107;-1,75793457352832;0,93652534476311;-0,897142414154258;0,303171684397061;-0,28690521050331;0,072333049961199;-0,285423236172858;0,0232604681539718;0,0268507384393287;
-0,0278154432045355;1,94617595663722;1,95826389659896;-0,473456168822959;-1,3152153375358;0,545672195030974;0,726889893968108;-1,59177283422355;0,159986274240653;0,0571720432131099;-1,00781899612792;0,858356444545019;1,83186023161346;-0,334322990130574;-0,818752970258895;0,251924048366849;
0,606631232565033;0,394865991199262;0,862682595188082;0,992903148185804;-1,56771682761745;-0,652893644923048;1,06514813346831;0,728836020808667;0,309500655737555;-0,27756163107367;-0,131791516990523;1,38767202389082;-0,0651523766960033;-0,144511754429852;-0,929317878660612;0,18078493188237;
-0,440214895551408;-0,611953524284794;0,442450302661315;-0,650996474193363;0,324446964582656;0,657869467285943;-0,62436895308269;-0,679191223907621;-0,0375768293024231;-0,515603566801302;0,201057343191414;0,185425727804188;-0,196049969373822;0,97994971068957;-1,14465258237785;-0,494738735178698;
1,03274926227705;-0,361638550587067;0,653387981645419;1,24248728806799;0,617209775327226;-0,147969828499534;-0,63268419911918;1,13775378110879;1,24804499785429;0,0517564615818649;1,60840704241298;-0,997841581497578;1,2896919033544;-0,139552445095589;-0,13600480653686;1,1555277425989;
-0,453937819658835;-0,0972809581699919;0,0647081717653616;1,09474282689631;0,4877218193941;-0,262655930285092;-1,69102678689102;-0,0561067407949409;-1,09513385071986;1,79419505589573;-1,46989604472981;1,21749952657497;0,453065349280246;1,48990562062267;1,01159383799211;0,571692036432514;
-0,557366306803832;1,9516218940985;-0,0289726001233498;1,30588844716103;-0,0184590690010527;0,554527344675593;-1,16780669937129;-0,823827306523301;-0,856701665229017;1,04032203325227;0,675715648461218;-0,0766784236535977;-0,317057590213451;-0,675195036386473;-0,301504184312753;-2,05967044335099;
-0,437470127287641;-1,04179640528835;0,00527836779288232;0,85586409602153;-0,303165009810468;1,29587426312458;0,245166748694051;1,99331667871476;-0,662958093108972;0,356759193163033;-0,358684394988622;1,57166202823092;-0,212845190658635;1,20076554572545;-1,68970709484561;-0,393952972514376;
0,306498949333935;0,183408367466188;-0,433718443034477;1,17148557971866;0,326622477431065;-0,4253109268812;-0,570513614126317;0,36447771303303;-1,06110209083134;1,52861443244331;-1,78251245655733;-0,0706615136814969;0,386672133009039;1,61535628652483;-0,720403105496952;-1,6249306983257;
0,35744305910416;-1,05012068858943;-0,108163637466302;-0,166295311859006;-0,979464348724733;-1,00820292773778;2,45825108978167;-0,722251457863604;-0,137332181942202;0,00619709461744909;1,22426294297088;0,630457343409761;0,957617409079977;0,497504487129318;-0,246758684945442;1,01551864144964;
0,489877083426656;1,06955196691357;-1,48221118088304;0,0568846084971673;-0,465689372198321;0,240837286060974;1,48809760924219;0,219548998631838;0,823540897162391;-0,201748017120242;-0,830260583437566;1,60809911812428;0,893412548493226;0,794588200270966;-0,590406222682254;-0,887193444675129;
1,48789725443178;-0,24539493825773;1,35761824061107;0,411364034391774;-0,577247784700529;-0,942190236384049;0,775175807364801;1,05554195570316;-1,14854457333316;-0,958282087543983;0,381142670835569;0,432569099803395;0,309566403605858;0,212732269674876;-0,154880344499824;1,42259296007213;
-1,44183656149376;-1,43693631891757;1,24796254949141;0,216615891391391;0,965777576944443;-0,469773449613043;0,285612642327368;0,912579812835753;-0,841694799930652;-0,0893716761614927;-0,126793496393798;0,788481010202524;-0,358039361900523;-0,0312550950205404;-0,626968129919423;-0,340185200189039;
0,876043277378103;-0,723797973052273;0,202495876875188;0,417047901555096;0,852342043941361;0,0211598499642641;-1,78253296866968;0,238657213913594;0,844941069705519;-0,264654819060636;1,3615048435026;1,49615571541444;0,497415504254258;0,467492784337972;1,58970345345141;-0,652422892569447;
1,6398345646544;-1,54658797003483;-0,771837708718493;-1,22895369794908;-0,400411906773023;-1,11566801142217;-0,168543039406133;0,408222193304049;-0,116066400306206;0,331295280589641;0,743311924862651;0,834579407796073;-0,60619779846774;-0,361732175372714;-0,753022231247778;1,01594261579446;
2,30608130850335;-0,48166291203662;0,92885145106286;-0,833656637076678;0,0556482993452087;-0,0384631413412183;0,0700543691737706;0,868277305518265;-1,27683471563438;-0,540136919824566;0,234781042788068;-0,744632493396334;0,662263470730313;0,765380151124038;-0,581289224261613;0,628175301031233;
0,0452079570363288;0,647857918119349;-0,859056649235538;-0,733694331491567;-0,240208748923426;-2,00536663997758;0,37013562207909;-1,4688130461053;-0,123319823963346;-1,6322117204037;-1,10194605459185;0,0691243056850712;2,28281028094595;1,45517814435861;0,241530180399281;0,167062000290126;
-0,7690480152115;-0,283016539857253;0,910397269997397;-0,442054464926375;0,161541720945715;0,694785365845057;-0,0734518787542709;-0,844584760528316;0,10537798804244;1,70832564151858;-1,07562995808673;-0,661112279352236;-1,4722459080373;-0,33440169619084;0,697635794921886;0,456177684226525;
-0,968579159783362;-0,0567994116093161;0,360255456075879;-0,165402625591998;-1,09738036347721;-0,909124335284232;-0,0533031287122115;0,799965202411206;-0,515452768083414;1,16602283818046;-1,65123414969199;-0,017499378013694;2,09270265116676;-0,622831474177284;0,121673035265807;-0,421820265326796;
2,17086163727513;1,10907421003304;-0,493843817051463;-0,816029975982126;-0,304969046543344;-0,77786363049867;0,166283373902475;-0,67638447326131;-0,670743138251809;-0,222955729659553;1,09156228103239;-1,21918238171211;-0,00415551210166067;-0,511209347717687;0,662574652580169;0,381028865583353;
-0,175917222586814;-0,805386727211354;-2,57505406465959;-0,349139889753346;-0,13467063563167;-1,5907241657655;0,0355177988827365;0,0250189966693421;-0,843714763156622;1,59113371509282;-0,17051103044551;0,0463761162565267;-0,0437941027210113;-0,966884124154652;1,01373147062322;-0,184669177579292;
0,626388172005066;0,149467477446694;0,15139993064418;-0,286124217645267;0,240343241503901;0,669026166833541;0,0779994829670292;-0,326134134262002;-0,365869061740145;-2,48303076721974;-0,123256814161444;-0,783051501479104;-1,50600218969208;0,466851906586912;1,08998582400846;-1,03200504087247;
1,47315887937565;-0,348370077733781;-1,25225545446289;-0,191776783941096;2,0896045300103;-1,69447656622468;0,494586313284897;-0,183751046426149;0,543596272024564;-0,862416235907241;-0,847847526672194;2,7390801891714;0,227588815995442;-0,368844475658174;1,12617179253274;-1,34331602539252;
0,77462660590033;-0,148673015670723;1,02396503518819;0,523716452594655;0,0726195909260558;-1,01910658040555;-1,26914920728172;1,468273957286;1,17870635366317;0,871725348927322;-0,77761758023689;-0,816161046391964;-1,59016903959665;0,192630951693433;1,63500176699726;-1,46855842158574;
0,18051002450136;-0,265283554292849;-2,17149728498972;-0,087190846101664;0,380129208668068;-1,61484402079481;0,225982898722614;0,174390798595775;-2,30942679926091;-0,409191853593134;0,717304754538052;0,952932430590883;0,754962513512902;-1,46465849499513;-1,39626749926334;-2,23535330371156;
-1,20981857657592;-0,101557267223981;0,462050164385399;-2,93456130028364;0,692459242681336;1,02973479448083;0,548794852619021;0,0553781478555187;-0,386980537241062;0,0344760168468729;2,10918014203616;-0,213929594405689;-0,867142580968895;-1,77292896663764;0,928617633016871;-1,31327532573008;
0,701924221202833;0,677316851208702;-1,25912839033012;-1,73672913897869;0,815194984210719;-0,817638984459071;-0,93129468919703;0,641448481604899;0,984608846839189;-0,177463412508548;-0,515045246578402;-0,828952555755127;0,301231080767597;-0,239161776919342;1,58799186340239;1,27022611509562;
-0,473858055760096;0,618760168863291;-0,849205417104498;0,364747742846884;0,964989966764099;-0,823001125881617;0,900870812354628;-0,0739471727280697;-1,26453152354114;2,24260355103385;-1,20273495665637;-1,81964331382259;-0,351458171403279;-0,315326045012496;1,50053721406591;0,850769039663363;
-0,00206679505678157;-0,382294199756408;0,219306459964479;-0,355210664674282;-0,961719786818841;0,115787631219619;-0,374820763756665;-1,65546377698412;-0,822944325756889;0,229744765644649;1,11599142826959;0,33575718307497;0,0720569990692547;0,532488936127793;-1,10041468066552;0,522064244538426;
0,585692193232806;0,561301923844437;0,656343670691673;0,890968609931933;0,18890989615856;0,562919729402185;-0,876650798194073;-0,0972081097419285;0,238406059855586;0,494361091442415;0,193266231091366;-1,7741851766825;-0,248361600651618;-0,343940392714063;-0,553774287799069;-1,32876489536439;
-1,10159957790776;-0,327244372808701;0,35652433228051;1,7448686613666;1,53597015568369;0,705619870945769;-0,493472297158437;-0,801736372561575;0,929201715969616;0,373365517011045;1,8053394182083;-0,888388955397898;-0,380036465941848;-0,479561073130251;-0,69443476107294;1,37634120434438;
-0,395790446825501;0,741505324382445;1,86958058159901;0,260151894736338;1,0891386591356;1,17128691368933;0,112929584919797;-0,0290033973862624;0,0469581540633996;0,294093178774346;2,32206880692343;-0,847632552638033;-0,257859462328461;0,71658703451051;1,26268338954625;-0,449114815910398;
0,347442383967467;-0,121686077302348;-0,179366641060721;-0,696619386388442;1,15765805365232;-0,624163354795892;1,81813583057007;1,70899919525724;-0,65804266152208;0,196141787072413;-0,131982041856976;0,453361601350992;-0,613828043244567;1,66850811843558;-2,42504314222231;-0,050735463145497;
-0,264100360835546;1,08880305828324;-0,488221811580858;0,362510586381954;0,547561832566389;-0,4488215538139;-0,110905771602097;-0,796877736065909;0,619243762351141;-1,01841735602147;1,49549320211911;-0,128324663602293;-0,152787071761816;-1,48064996074282;-0,914199425292361;-0,668894524870719;
-1,23373296010889;-0,314679159890379;-0,447401981790659;-0,891945134438006;-0,184934599400853;-1,02218410319797;0,473623432968808;0,297854849855963;-0,00773247500334135;-0,774453328735051;1,2180517252708;-0,807762511144979;0,065977634713771;-1,32041694769352;0,213536800742121;1,17150428764805;
1,39157872158457;-0,988699611308205;-0,31858258367349;-0,586813989097907;-0,63859430590011;-0,31736815453627;0,11876192915784;-0,00873407772740662;0,19561008432764;-0,771507033397519;-1,67032905356783;1,19100316322958;1,45251890878475;0,671832101293502;-1,11909102838465;-2,13925133268331;
0,0793329904216771;-1,27249797614927;4,01466458047969;0,383505220253959;-0,722432877891231;0,786577291896271;-1,12791459581657;-2,30647141820741;-0,82653478434514;-0,0697743574552506;1,48628886483864;-0,0473723491956801;0,474841062569768;0,107209054266314;0,268080294505749;-0,986682485644011;
0,396816476663795;1,35566253113708;0,443228695072241;-0,782916879305853;-2,4940788332658;0,715017922551795;-0,369249129938471;0,254996808504487;-1,32184409882158;-0,59607361050148;-0,085351422119635;1,15419121374091;-1,02652996539824;-0,294023564592124;0,160865680731947;0,7157207095122;
0,854592021682852;0,520525388811354;-0,732026089888977;0,197833470250608;1,41578094086721;-0,958312524697076;-0,219449803073001;-0,102612187865908;1,10091586634527;0,373554703091754;-0,662256818774494;2,10038678342277;0,29999359969271;-0,710253991241138;-1,83564100184386;-0,104655339752231;
-0,364564032525776;1,95264439504113;-0,9368210501178;0,855270784173388;0,773276139281059;-0,456048504032722;-2,16516962067627;0,115985202225557;0,0797550792913907;-1,44066583136983;0,985411069055089;-1,08625185844961;1,50883844430926;-0,577539888010847;1,63159129211136;-0,348730623773315;
-0,160502692934628;0,71327722684356;-1,19709867371487;0,229863408511433;-0,884255219709003;0,46815906879368;-0,163084787164349;-1,55533942044805;-0,118370435996943;1,7688976009137;0,324576838019221;0,0662190787873583;1,23564358797818;0,408866536976482;0,869908626971844;1,12298479544972;
-0,345027449596091;0,000875089093675764;-2,14251144911279;0,251984221249813;-0,86324241278443;-0,357274931369722;0,498032823274316;-1,29116704889857;-0,280726504141843;-0,683318658933686;1,62897871812242;0,385205304576212;0,844055870367356;1,65132808545765;0,0925396165813174;2,12044965272257;
0,974912441869326;-0,625110658053192;-1,14715552329772;0,908871600639067;-0,211967280745183;-0,514625401947674;0,70858700306216;0,774333556691956;0,0294940413029608;-1,83041801369312;0,653478955416523;-1,7960629369161;-0,289047091938549;-0,597861069973245;0,131011687375898;0,300651316465763;
