-0,0430977917863432;1,91118356872324;1,96591053662087;-0,468837229328116;-1,33001426283186;0,5433847081025;0,719164502817657;-1,59237439088604;0,17140868411362;0,0423033874136823;
-1,01996956113573;0,847504245186463;1,81383244673959;-0,330203810596758;-0,834005264003801;0,238900921342087;0,590450048032986;0,378610710900408;0,892119012082409;0,979906124256377;
-1,56424624684737;-0,663412715098566;1,05654748097356;0,72427325725094;0,293644634292513;-0,276634254810646;-0,144808554283072;1,38581967953292;-0,0780761811441627;-0,154842593878911;
-0,941009932542056;0,173571580029965;-0,453298541728508;-0,628479337201154;0,423556634879228;-0,645951900762112;0,325715535916918;0,658177495219641;-0,601069791575551;-0,695204796859081;
-0,0483090224977428;-0,502343862685273;0,176281997604004;0,182868573829615;-0,232343601923171;0,988705649930664;-1,14622901748816;-0,504257185977998;1,03917720275825;-0,391170417940666;
0,653478182636056;1,23441985329899;0,612077735162325;-0,147449833483257;-0,655111550540755;1,14266606501141;1,24173554015299;0,0556446926208845;1,61096832422365;-1,0204902734071;
1,2808317254285;-0,147850484965801;-0,143060070369531;1,1438538076189;-0,476659206131564;-0,112418310103399;0,0735897696512924;1,09522348156737;0,500997814208975;-0,280003666192759;
-1,6960182580456;-0,0696921575081562;-1,10499650188359;1,79700295125922;-1,49639327275922;1,21483963203534;0,439093607793683;1,48661284442193;1,01859614476669;0,547883285782104;
-0,573119997214901;1,93409088270212;-0,0396866794443299;1,30615397901445;-0,033956066022846;0,558986779087935;-1,16424961391782;-0,831828281925534;-0,834819795055348;1,03769063411462;
0,648531633905396;-0,0742929928356252;-0,338872068931345;-0,670552763581652;-0,316251024462399;-2,06737861132196;-0,44739393523291;-1,06533968443955;0,0409849613942987;0,848457050008717;
-0,304931764469916;1,2868705645649;0,239146125679321;1,99599049005157;-0,670444870864886;0,370712988488148;-0,373054541596399;1,56578638099241;-0,204892920988745;1,17565608212064;
-1,68855444963803;-0,41049493581757;0,296723306638371;0,162603985642016;-0,418049996666546;1,17287142643317;0,323239496176234;-0,425254239025437;-0,578505661485511;0,342332886162392;
-1,06002788454347;1,52956008423198;-1,80515650807123;-0,0776041524710616;0,381074748228694;1,61174740827465;-0,722159216997745;-1,63211747612398;0,341269271683256;-1,08412611614904;
-0,104467192717121;-0,168990701714851;-0,988784512058465;-1,00801159235927;2,44957492621479;-0,724177420133687;-0,135491155287928;0,0186274814724777;1,2134284270893;0,618664809802609;
0,950551408554192;0,500791486847988;-0,254472382470787;1,01212308100643;0,476984448902183;1,05146269377529;-1,48619834473814;0,0585874840046001;-0,458241850604912;0,235424123244674;
1,48804180795362;0,21319323352772;0,818324772724329;-0,19522214125508;-0,839930660345821;1,60770206315371;0,890546934214911;0,797918748170837;-0,589800043329683;-0,901403997926319;
1,49229537133957;-0,26919463183526;1,36810739260481;0,414981777307608;-0,580656232159271;-0,94101793824743;0,775120281205493;1,04390132288228;-1,14985468111736;-0,966304713029413;
0,37389360596809;0,420403396776625;0,29484268530615;0,214726382082796;-0,157547261819621;1,4221766821136;-1,44335307709385;-1,4443035006563;1,2446418419298;0,210042604766156;
0,963372734834435;-0,472251101974889;0,285317490619322;0,903605145785806;-0,846344184806982;-0,0902499414768925;-0,137968575145172;0,788078425704952;-0,368548831082519;-0,0375580343061223;
-0,632302201064636;-0,341899126131637;0,866515571620474;-0,745562576476021;0,1961087727578;0,422279505174947;0,85060393480786;0,0212234086378995;-1,77849005611043;0,240622988210062;
0,83682782139897;-0,266271410126163;1,35911362107299;1,49979629705655;0,494348081384887;0,478906444762934;1,58308979579977;-0,669103703568521;1,64671057687182;-1,5788257506291;
-0,778018708824705;-1,23079731892148;-0,404431776708527;-1,11300707049332;-0,174556828770017;0,41061236600598;-0,121069481147241;0,327273327889641;0,744193476649323;0,82505058744699;
-0,622362695868823;-0,375352437186145;-0,76556223264847;1,00926841650171;2,30320290645955;-0,481377113388056;0,924794403075648;-0,833905178624942;0,0563697179375407;-0,048979837043232;
0,0694789860475445;0,861588722006108;-1,28568650861906;-0,541028739489259;0,219719397965885;-0,7378289066458;0,640928799008088;0,771656669408235;-0,569900059991168;0,610595480747267;
0,0387669534931511;0,629381117478714;-0,86994654244466;-0,73249344887085;-0,243108399820066;-2,00083629804186;0,366356889489998;-1,4709451492082;-0,111026559201546;-1,62525819444678;
-1,11775641284425;0,0569368531389454;2,28098558458089;1,45520322835722;0,225276205276966;0,160095581779721;-0,780186160204804;-0,307943368885834;0,951533198460715;-0,456835838289307;
0,155289815239719;0,686719287064157;-0,0828868272470602;-0,847396113137522;0,0969613307363927;1,7063295535583;-1,095134394304;-0,666342868863188;-1,43908170198292;-0,352096186857955;
0,695197017019858;0,442578310461655;-0,984612065882889;-0,0645245032674458;0,351493881631513;-0,168364342097972;-1,10940362734692;-0,909382957869824;-0,026844558532994;0,785216444073352;
-0,517115803111747;1,16164494515656;-1,67706279356355;-0,017780967608275;2,08254415740074;-0,620533315571766;0,120769998093266;-0,424369784913123;2,20154382949166;1,10408937168045;
-0,494197545873002;-0,810163452244364;-0,312649715797989;-0,777123145010465;0,153645124324994;-0,657714043126242;-0,672707759154572;-0,222949770839189;1,12411158810023;-1,22446282917946;
-0,00772021809408233;-0,52153667263218;0,662179356283274;0,382603152426357;-0,193177838420269;-0,803477195262841;-2,56089798837235;-0,347784630950099;-0,0992056942769286;-1,6047636225109;
0,0340073636595393;0,0346556426836645;-0,847068662691778;1,5932132605471;-0,177976802341866;0,045481758922858;-0,0507127204256152;-0,968376750542631;1,03800077140908;-0,198612597516532;
0,624532255242154;0,127113829462809;0,13523968246301;-0,284389233776938;0,223001592950835;0,671414145795248;0,0758234197971147;-0,317973974205563;-0,33998204099014;-2,48156562641848;
-0,130247010264008;-0,786650308569845;-1,52121882900152;0,473678288705377;1,07618831764429;-1,03411413649467;1,46976150318507;-0,34541472030328;-1,2230787062626;-0,20007237305393;
2,08496660094328;-1,69071846351357;0,47928938975641;-0,180494954809532;0,532406936487958;-0,861296217997681;-0,850858428865612;2,73585843935284;0,257155319059739;-0,375342479123426;
1,12557756173267;-1,3605081416175;0,769795319888627;-0,145574081586767;1,03242326476629;0,524718485543869;0,0664401847330947;-1,02045211197015;-1,25836276252887;1,45831200881222;
1,18266686728578;0,8643016054238;-0,778159236610746;-0,81785396711135;-1,5977616677286;0,19004681558528;1,62873248731303;-1,47681797144371;0,187350479262733;-0,294376770620628;
-2,17849085138762;-0,0998921387475505;0,359150027542548;-1,61332842014144;0,217834622597753;0,178998107765969;-2,30831244094804;-0,400425087424732;0,722373168319057;0,938393369386105;
0,755037477276697;-1,46427507053102;-1,40728366768836;-2,23911630763207;-1,22100295077432;-0,0957406785697897;0,460777263636084;-2,93533716002588;0,709780232909493;1,01989426502603;
0,546697062500368;0,0601969555337849;-0,394766383494702;0,0396997363027277;2,10678394478551;-0,214373490474442;-0,861988323215506;-1,77384625368462;0,947644457831631;-1,31823273790315;
0,701234079173671;0,670479935059357;-1,2458670520732;-1,73605239193199;0,809637352463091;-0,818817577034823;-0,940803771301219;0,645546066790183;1,00390878146362;-0,178468003624907;
-0,512076211224872;-0,840701919935003;0,305770624854408;-0,242492196087329;1,58255868630663;1,26575890161439;-0,481400026665054;0,604391895732577;-0,832302623291707;0,357219533352142;
0,962152248234733;-0,833905790043127;0,888027643468936;-0,0707817938356597;-1,2660107107433;2,25405717635346;-1,20978347506945;-1,81862232360569;-0,3358750889093;-0,323655320718358;
1,49329786723464;0,846696420361028;-0,0164018838485772;-0,373958102603302;0,225968694535152;-0,350866695399385;-0,960570114787545;0,115521156915806;-0,35866477396438;-1,65920620223769;
-0,825466782213607;0,237070788167629;1,10940865789031;0,337628825604027;0,0710894049282963;0,531354433595281;-1,09668947592498;0,518964876119945;0,596938054498104;0,55960430439828;
0,665415111816723;0,88553734567613;0,183776332701092;0,565058969757729;-0,881269710378809;-0,0882308200564491;0,23198674600436;0,491525146037663;0,21187926993227;-1,78401947129615;
-0,261899858786922;-0,344409666302065;-0,556753354187506;-1,33066934674455;-1,10615661666307;-0,338940068900074;0,35772984085502;1,73953939056439;1,55056076773836;0,698634738817163;
-0,494235366843283;-0,81165339351477;0,911341672763904;0,380667519423024;1,80174794284789;-0,88468100108411;-0,385521277727209;-0,476258789887125;-0,674700418993552;1,36640733466966;
-0,401749592929081;0,745460793823132;1,85373779108626;0,266145379867323;1,08252325356776;1,17626469048936;0,106558871526272;-0,0235674722296787;0,0659527699806707;0,282957071452072;
2,32653174560523;-0,841947152976367;-0,2786800180313;0,726048840454958;1,26254376004904;-0,45598443397602;0,347889547475036;-0,123959915487899;-0,161460456204991;-0,694920299257855;
1,14849799624038;-0,633929197324297;1,81391810108912;1,7128772183424;-0,669821841077915;0,190596900331424;-0,142084573711922;0,452578844591208;-0,593195189582632;1,67288346063297;
-2,4350136469396;-0,0729345825485899;-0,27179189405642;1,08097506077774;-0,498118027941238;0,357092243177899;0,542262603785345;-0,449973871716584;-0,0722915343566082;-0,810014895706029;
0,618029356056866;-1,02604320303547;1,48400791586573;-0,124877159510008;-0,170674007616052;-1,47807139690465;-0,923789385886775;-0,676769003545874;-1,20872310323951;-0,325020322385502;
-0,449548386506827;-0,896082642675323;-0,197299013827587;-1,0232228173644;0,464274458398752;0,299116226983065;-0,0109585767085724;-0,767138964452021;1,2547545268271;-0,811610716701106;
0,0635848950931144;-1,32032736502299;0,199157208098802;1,16976753400311;1,38597274354781;-1,00127622641144;-0,316459058854097;-0,589391560756161;-0,607285019658822;-0,315911969892594;
0,116592640990474;-0,0191867368998077;0,195918543916853;-0,766943871716706;-1,68551588324203;1,19352078224263;1,44648803042127;0,675432315725298;-1,08479379278232;-2,15028903840009;
0,0704130030268013;-1,30413077303196;4,01413346337357;0,383910731348118;-0,7209075914819;0,786599919168539;-1,12997927794933;-2,316783852069;-0,792443506511791;-0,0674521869172158;
1,48498400157155;-0,0593939920718304;0,467579803398202;0,108748789511682;0,256735942371214;-0,988883416528023;0,383784914057924;1,33276370746212;0,479438520750942;-0,78296527507482;
-2,49219487237668;0,710609474906538;-0,381489054231622;0,25579647825064;-1,33486442319927;-0,591711867380657;-0,0990195862693689;1,15144213982576;-1,00809224736633;-0,293179392587889;
0,155080306918525;0,705404120206548;0,832153721234738;0,504827047894983;-0,721858464612645;0,198501487108667;1,41847034369037;-0,958946927936937;-0,181615665071972;-0,106349254781837;
1,0947367961481;0,364262293800219;-0,67140985035493;2,09811898732493;0,273962561893693;-0,707427925431172;-1,83986340939441;-0,113601217891798;-0,344630261288524;1,92569245854428;
-0,939161949744569;0,845845475056643;0,777243972819673;-0,455812019804096;-2,1613047920656;0,106693397650237;0,076912813017323;-1,43405292963571;0,990070194693942;-1,09751193015261;
1,48318139649082;-0,583453657207187;1,61636459439667;-0,359383805022966;-0,174293468954784;0,687596544070829;-1,19495421001938;0,233248500212034;-0,870356977325206;0,461781720175196;
-0,173111428357782;-1,56193273835231;-0,135709113780895;1,77127030253552;0,306294432675739;0,0631951668806511;1,21882405921025;0,411475548736728;0,888756831907522;1,10313993602289;
-0,358046524814186;-0,0202450682886854;-2,14338874861516;0,255522391646311;-0,863709765786225;-0,360538578386185;0,492934425711173;-1,29737861665483;-0,255982447116829;-0,682289004352512;
1,6117474466435;0,369231734732225;0,822841595388672;1,65396611676714;0,0872465606631029;2,10153470040211;0,961103469807702;-0,644071819291778;-1,12321229674225;0,910409799195335;
-0,214085256054767;-0,525000379892019;0,712825359996859;0,764202299024595;0,0282710592080551;-1,82630438743673;0,635333672949716;-1,80028488189415;-0,288131283078197;-0,591367274778308;
0,123984556002611;0,277763577098371;-0,243072442017009;-0,168692391361047;-0,912484366552666;1,27231839380381;1,91818719590486;1,05440158447423;0,191889779535314;0,359721389701552;
-0,960558218615312;-0,617737054896368;1,29956429946946;0,603294912553542;-2,52078366033039;-0,208607698270494;-3,27730647418168;-0,591241165507595;-0,27118163568083;-0,641632884699784;
1,04730606044418;1,04303180946156;-0,0136243900303224;0,796656367624697;-0,373579167097822;2,02085108759605;0,422673535003803;-0,839687663714851;0,948428931030836;0,0958914532005108;
-2,02796004437997;-0,844777958535591;0,289376648621832;1,88726432573103;-0,0864387220857393;-0,425286396101917;-0,576131206573724;0,901451408630808;-0,802172552793176;1,60920497629312;
-0,68440323664913;1,17362170901703;-0,814607860474884;-1,71893331678675;-0,572634584350191;-1,62383253963846;0,46842741801046;-0,527086825892904;-0,896101406055766;1,46012044907445;
0,275063326374001;-1,09645421968404;0,962303316853623;-0,181713890554339;-1,34373640908269;0,283525031090068;0,134178538833411;0,0957559477372823;0,911014241387229;1,71720470882466;
-0,238794490026611;0,874942824097634;-0,258844319173886;1,15174286915093;0,300440823188278;-0,35186140515134;-0,229285179131567;1,26214779723162;0,278808997953671;0,00593309170418891;
1,09661770737211;-1,40273870925045;-0,299950033931977;0,134665536007438;1,16721502422883;1,65908762452363;0,736817731989708;0,230446394340675;0,270138823674441;-0,396123144464869;
1,17274940965951;-0,626686366379267;0,0194577635714259;-0,360556206674541;-0,242113497096541;-0,978674852399108;-0,710193037972819;2,51631668264118;-0,455759587088562;-0,133814059258553;
-0,038900728762945;1,92993691467607;1,95565593782754;-0,486436564078254;-1,31629616129111;0,5455043706527;0,724168028292462;-1,59754395608437;0,148704613421704;0,0605762784034371;-1,01733984948945;0,856113362434394;1,81081217718163;-0,333327790772338;-0,831382027951791;0,24225120779322;
0,593354263319828;0,387356099877035;0,868426303244943;0,981028953760523;-1,56179290550462;-0,653089093407264;1,06614592525362;0,718346777267331;0,297778130664925;-0,276374898289335;-0,141454262596082;1,38523386848914;-0,0908560053166533;-0,144251627680237;-0,94275963719071;0,172755622985651;
-0,449676011310416;-0,616088292369551;0,431381650889829;-0,666939921511744;0,328194043930079;0,657407983773501;-0,616896110655438;-0,697161631886385;-0,0462247568053527;-0,507292405456389;0,18112654580558;0,183609123044384;-0,232754579607721;0,986894939239272;-1,15309276581362;-0,504726266455172;
1,01982967717683;-0,369837234401083;0,645419912033092;1,2274726829773;0,610356481564166;-0,149175428604623;-0,639147975614612;1,13340811227854;1,23892953915395;0,0575317647256379;1,59064867064079;-1,00141107324743;1,26979065681526;-0,139644571540221;-0,153391607668499;1,1421955606723;
-0,467531073696618;-0,0991579140672415;0,0654975495740053;1,07953238343909;0,48517940119717;-0,263716915644871;-1,69328290875034;-0,0652575061358814;-1,10170888235685;1,79780288845042;-1,48580414795131;1,2106648835998;0,430468510808741;1,48625397486045;0,995987108832821;0,560765345565875;
-0,572135548170386;1,94141639359941;-0,0426501349005314;1,2902950622027;-0,0205137860318379;0,55433778729143;-1,16223588332458;-0,839392035868167;-0,860680802269996;1,04718040676711;0,655618688635196;-0,0796785789669296;-0,335277479991251;-0,672364218312336;-0,312553701838048;-2,06942709744454;
-0,448917080210865;-1,05657606758649;0,0119032351652619;0,838515665952461;-0,305646488634069;1,29557078740198;0,236604756896182;1,98800882415583;-0,667061116724489;0,368177945730195;-0,374308635310842;1,56760253896766;-0,211758560289646;1,19341523836281;-1,70276267724035;-0,401069992901403;
0,291813111360727;0,172413575965896;-0,415984460153563;1,15066588511716;0,321454774467142;-0,425159556628025;-0,57668375706029;0,349937935867392;-1,06474688255506;1,54226388415227;-1,79859994631902;-0,0771497214182828;0,380124773883737;1,60665987284654;-0,733712141016313;-1,6335314678956;
0,342082957106381;-1,05320504421447;-0,11095371049549;-0,182727870385484;-0,983518857930027;-1,00903881399909;2,46091516546455;-0,736297538724656;-0,140909269301305;0,0176391362542975;1,20612965343233;0,627449399366786;0,945755200506563;0,498392952921705;-0,259959358467656;1,0114065259223;
0,481687940714041;1,06446168881347;-1,49954048714691;0,0422953002629932;-0,467063646682124;0,239685093234051;1,49085494835165;0,212515856841428;0,812656404977359;-0,196982753792251;-0,838648080085662;1,60747711709167;0,88195090646166;0,801442912601695;-0,604115496562209;-0,894388716559299;
1,48952868109939;-0,254028161602772;1,36142877891978;0,408925625544281;-0,578023262069275;-0,943756678696652;0,774470523939789;1,04083460998405;-1,15239785640842;-0,957478913488086;0,378292995873723;0,433761988095931;0,306776049598921;0,210361027732551;-0,156966425230835;1,41709238517744;
-1,44665552350038;-1,43809203987891;1,23771491031973;0,21628896227032;0,970840285478393;-0,471648782145989;0,290370895125677;0,897587601795932;-0,845037509171742;-0,0940240592806199;-0,139047085103269;0,789602811030617;-0,372241272002107;-0,0334149058573233;-0,628276182711617;-0,346502583034223;
0,869989802765292;-0,73822873794774;0,193293116948849;0,415395062084081;0,846829676102594;0,0184951973003022;-1,78502229513221;0,234864159449492;0,836412597672522;-0,259278884675669;1,35722120322788;1,49936615289426;0,488434141227228;0,474686467645315;1,58383979765716;-0,665234574187471;
1,64123320339729;-1,55392983239627;-0,783006540092376;-1,22415276793368;-0,407223315412743;-1,11791318802252;-0,171010851700573;0,406746207808575;-0,122625476046812;0,332315055785922;0,738307396689696;0,834572487293344;-0,627442192717963;-0,365595857350879;-0,759982344108095;1,00733337466716;
2,3033196829319;-0,472620879508587;0,91777623237978;-0,832290606832553;0,0508856449889951;-0,0407823542171935;0,0764674184103344;0,860391156217439;-1,28076006095986;-0,541461666147771;0,218840136447331;-0,743933838009212;0,633513669257516;0,771163288227116;-0,585194478803974;0,620527559944471;
0,0392723311121218;0,626953857856734;-0,868222181424415;-0,7394385044548;-0,246352931254614;-2,0059467337925;0,362875347349253;-1,47432500902766;-0,123556616366312;-1,6250588013278;-1,11142480837486;0,0701416623874531;2,28378100448018;1,45200454951695;0,238035735598517;0,161951090947663;
-0,77544637185296;-0,301343144970148;0,912175692487308;-0,447070037115132;0,156455930631589;0,693308537781161;-0,0832473311370859;-0,85406187821049;0,105861278601371;1,71172694058592;-1,08904488096716;-0,663975889876053;-1,46727524110866;-0,341733256012486;0,694067698809112;0,451784763225015;
-0,973265398457477;-0,0582154959218491;0,35671502878866;-0,172191289301312;-1,10540857200299;-0,910419432884447;-0,0512191806849349;0,785433952918948;-0,515619317558086;1,16179132182378;-1,66922116948339;-0,0173434677706541;2,08599189373351;-0,623233049871608;0,123576344017351;-0,424581495475233;
2,16915496530245;1,12414266275247;-0,495436625279742;-0,815162342715973;-0,303968425023186;-0,780032672723658;0,164579447024645;-0,661343456121321;-0,671673535433467;-0,222040577976718;1,09299702075404;-1,22016045045524;-0,013504468976708;-0,513982582064684;0,661255040814051;0,381064700554833;
-0,181438024850666;-0,791366820731464;-2,56148664913217;-0,347369909320325;-0,133871654336545;-1,59272588522898;0,0336145858651317;0,0395403427691488;-0,847019113187113;1,59110421656515;-0,169603216792469;0,0450363188432169;-0,0550397443263154;-0,969288127656001;1,00707276801073;-0,185608938310069;
0,622097041927747;0,143115349365986;0,141241793789983;-0,290259552207584;0,233550433059924;0,667268708240773;0,0776667762471934;-0,321327808897364;-0,367783062282289;-2,47282995169702;-0,131660958551554;-0,783086581764422;-1,51034188760552;0,471891698653252;1,0872400300899;-1,03810185188956;
1,47151090605244;-0,340507160592246;-1,26125699479724;-0,195610861703465;2,08661395461505;-1,69537459985688;0,487351027982289;-0,186185787822465;0,542172660353383;-0,861428531488677;-0,849172453238221;2,73800323849047;0,228009451814124;-0,370371263820782;1,12331308784867;-1,35166011595972;
0,768113448568519;-0,140539734226723;1,03720702856319;0,516599951573893;0,0657165774098908;-1,01979451089886;-1,27637563663818;1,46809689647226;1,17595989818814;0,874302034428046;-0,778332560813709;-0,818918201909234;-1,59895240959931;0,188294777576753;1,62787438019588;-1,47671492333985;
0,171121004012983;-0,264963385710083;-2,18470092819771;-0,0893322921007009;0,371286514045469;-1,61687183431652;0,227970142546822;0,174212694697222;-2,30967954463812;-0,400160549040904;0,709606618768819;0,950645680168364;0,745219972525246;-1,46187976622392;-1,3989382828008;-2,24011399697015;
-1,21351331991243;-0,084978631645378;0,456349069180033;-2,93605630552459;0,691560155556185;1,02715170779895;0,548023611176575;0,0571940288801709;-0,387094134244013;0,0375252478263907;2,1111786033002;-0,214384316650425;-0,872199044145401;-1,77458324157355;0,926175694541363;-1,31173711741469;
0,705857297612591;0,676792959611973;-1,25209035573555;-1,74005216603037;0,812175028114209;-0,817826035659697;-0,939755717114297;0,648868627488655;0,985045504364517;-0,17316052217789;-0,514369051597424;-0,831766202995956;0,304493403221997;-0,245345641596381;1,57956255195283;1,26421716152601;
-0,475522604026542;0,605067206768147;-0,853481346622958;0,361537863539346;0,963049151410225;-0,823126429163128;0,900967621985097;-0,0760319184729266;-1,26355209821497;2,25130445498171;-1,21049757457168;-1,81832127836041;-0,351986624470749;-0,315889121371504;1,49141730259768;0,848525778494974;
0,000338882573832519;-0,378966473534683;0,220496153409533;-0,356967749764091;-0,960991711485059;0,112995921473598;-0,377719127515803;-1,65061298081664;-0,822953102122017;0,235461391931763;1,11892763750492;0,334585752093253;0,0704451793352547;0,529735858890559;-1,1021528238966;0,518987560766067;
0,583043297497476;0,561784941854425;0,663045900051042;0,885392445205774;0,183329560274149;0,562852753898709;-0,877593411218573;-0,0920381569449663;0,236374379742463;0,494185607704101;0,193786063279302;-1,77542026726496;-0,261313685480262;-0,33667251761541;-0,560293754514748;-1,33275699942839;
-1,0977686702654;-0,341751844108682;0,354396859343615;1,73587695810249;1,53280192230025;0,705675516891161;-0,491088499547894;-0,803421895595779;0,926434191536614;0,374566600330228;1,80321130565752;-0,889335656453751;-0,386060537387103;-0,472562904621153;-0,696831251440064;1,37541572145614;
-0,395193006184596;0,74443138283964;1,85669786514367;0,261084444030638;1,08256613467987;1,17047101437386;0,1069201193483;-0,0219501056024936;0,0407684963773416;0,294786990821058;2,32500937114956;-0,846732690349177;-0,268054114729186;0,72243485140114;1,25327815364904;-0,459637670553201;
0,350680252111588;-0,12230046432561;-0,190341181764629;-0,694960897474642;1,15409940747462;-0,624526268756136;1,81351713227938;1,71033753498245;-0,662644666129808;0,193255617002851;-0,137724337878061;0,454487336113102;-0,632984140779049;1,67924738461199;-2,43529527492774;-0,0667039475562956;
-0,265425742985501;1,07846929120358;-0,502376788396073;0,358766349276157;0,546374830929241;-0,451804423276499;-0,106613195549818;-0,803855210876727;0,617451103578165;-1,01474738107076;1,49623861283309;-0,123395828067982;-0,168846742719937;-1,47241981525055;-0,921744838600913;-0,677377002249963;
-1,23217025184359;-0,322942004645318;-0,452277986813188;-0,89981439743368;-0,189706724177103;-1,02204380137025;0,471875393933239;0,296360174214322;-0,00592310749328916;-0,768946431555562;1,21960866725191;-0,810234269728482;0,0641287668941203;-1,31945273428409;0,20720635656726;1,17062549460864;
1,39470946964797;-0,99980712173952;-0,315966337341643;-0,595528344730748;-0,64203217008171;-0,317166193431558;0,122412040657939;-0,014264702594021;0,196984024939971;-0,769910092456433;-1,67943293331674;1,19205668147027;1,44940063616297;0,677847437294543;-1,12605890508068;-2,14219176041286;
0,0798495368330234;-1,29645646828948;4,00020836508474;0,377195211810259;-0,717240779339679;0,786000796389284;-1,12647665202659;-2,32138303246204;-0,824434182954379;-0,0600534396648421;1,4832124977519;-0,0472565745620744;0,478934330858609;0,108686031267564;0,255709182733797;-0,990201392960178;
0,396119499144816;1,33210949919813;0,440190479367419;-0,784774025199138;-2,49493888394233;0,714421647222004;-0,371731479712734;0,249480590901107;-1,32602862165876;-0,591830185311703;-0,0954136443118142;1,15206789795897;-1,04519807340046;-0,290880635455992;0,151454987946951;0,704789726383598;
0,85189001262288;0,502251324152612;-0,71971344196198;0,198530423610407;1,42003576027577;-0,960178229404187;-0,217868414274361;-0,11088366093592;1,09759098457986;0,374101240676143;-0,672423833618492;2,09815065070367;0,275667347187641;-0,708376996695557;-1,84341980613734;-0,113199862766888;
-0,363181259098362;1,93539059999785;-0,946090190619333;0,847891555435749;0,776696785533208;-0,455983109583157;-2,15508304077296;0,0986349500353567;0,0796185884384163;-1,43651587038409;0,967364586773259;-1,08770735465722;1,48335950404248;-0,565163124832602;1,62591137553367;-0,35833951195201;
-0,162379206079352;0,68698090134064;-1,19769355189956;0,223763444850466;-0,889707105750967;0,467973480778929;-0,167049601343191;-1,56393261858791;-0,121537984933265;1,76891608975796;0,309257080249899;0,0625518463186449;1,22028953955106;0,416379415187688;0,856839668730513;1,10585125138773;
-0,357478229553971;-0,0182447157225607;-2,13505972473827;0,26066900298182;-0,865214720047022;-0,35825944657024;0,492333949871014;-1,29376666407605;-0,286409763707162;-0,680604996006582;1,61261911202854;0,379569456721171;0,824797788773689;1,65157079185176;0,0806689590262568;2,10436274184589;
0,960569239792733;-0,642306779151494;-1,15263022493958;0,915510388286841;-0,213892443438426;-0,515681189228378;0,712381394425115;0,766156606027929;0,0252714807637269;-1,82332299416523;0,634053937373556;-1,79798978734905;-0,310205727985338;-0,58940283320563;0,124918613523728;0,289714708091638;
-0,228490720105543;-0,172089388908041;-0,917885019756143;1,27953462666014;1,91728384559883;1,05019562223413;0,167845086821214;0,365853484644143;-0,956008912906233;-0,61201489291118;1,31168991718353;0,603732815420784;-2,52090071041911;-0,210045955871952;-3,27850515852518;-0,592449846821459;
-0,300109814217667;-0,640437498408648;1,05017949508977;1,04316441755826;-0,00233331227100279;0,794676737796707;-0,37947480253834;2,02601180175386;0,421508721358238;-0,839045832797272;0,919863558922027;0,095634842139505;-2,02220888617603;-0,83678778518089;0,285547614768723;1,88687146247016;
-0,0915488896583092;-0,424371292071759;-0,575653974938034;0,905164494393374;-0,829883074452831;1,61200882207117;-0,681883401108767;1,18430729819841;-0,816127918298953;-1,72037358581317;-0,576412242961673;-1,62030535568905;0,468129983920625;-0,523310373505828;-0,926746495205342;1,4637343236708;
0,276144631973401;-1,08305904728377;0,9745140043038;-0,178402612764977;-1,34926340182282;0,282899018666527;0,13033500802925;0,100693259468227;0,881782591669108;1,72177656652423;-0,238048275013229;0,879945099553703;-0,245840226828617;1,14959375756285;0,289573099860606;-0,353470832079679;
-0,229546691093012;1,26180942402207;0,241730627915664;0,0162275921495935;1,09467027918059;-1,40497070773499;-0,287556182950988;0,136250898258329;1,15613148225451;1,66022826263982;0,735122917160079;0,232969191651732;0,237432628394741;-0,399225428058462;1,16560710280828;-0,624827664640811;
0,0194894100792284;-0,361629989220674;-0,24304468044244;-0,970746421665838;-0,707190225199728;2,50393348160745;-0,455285887876729;-0,130727817887498;-0,746659112782958;-0,125556626376147;-1,29172027718489;0,0298681733570013;0,0776771246191328;1,10163136748912;-1,21641522533866;0,614401895375316;
-0,428682338122915;-0,331100850021118;0,15891198714649;-0,100735703935115;2,12198830838208;-1,26073319035555;-2,33140829024994;-1,92283961571376;0,568259495990435;0,25664181068552;-1,52156450688077;0,888842149569083;0,368840182042869;-0,290730554100236;-0,119292374607996;0,621726795466636;
-0,33564264780484;-0,279683234021226;1,21481381070411;-0,524591824220704;-0,740704569536084;-0,133000265696674;1,42559664942573;1,28993662208306;-0,15037785448258;1,0883019631939;-0,722566252929151;0,134533349685775;0,0741472919920068;-1,02551352294249;-0,166096570482705;0,0494491782963543;
0,650533760944337;0,727746473259101;-0,0573816243746339;0,765682245767927;-2,02401266965043;1,67176989637922;-0,109338068740002;-0,577213433787886;-0,325589950900712;0,446771784565844;1,26094706717717;0,431873533288028;0,36925890110017;-0,718172449429343;-0,0490583192338805;-1,36772383454804;
-0,298709445920713;-1,31359278642442;0,416071732732974;0,174271902651629;1,5677574949293;0,496965718961155;-0,715466286269172;0,678048883048751;0,14325603604705;-0,141356968256919;-0,991308190791709;0,273610364318275;0,546483764490803;2,19773205150639;-0,468836093772231;-0,95467992743417;
-0,249852421504156;1,30374241321779;1,37459764883315;-0,475697155309932;0,778191401606863;1,92858263877765;1,48111223610191;0,42308029541524;3,87433438424974;-0,756253017068025;-0,453519471883195;1,93265575172811;-0,686368396172751;-1,41127098441195;0,902168789365857;-0,0543336563123942;
-1,1376916778242;0,0947570513603036;1,11270797562624;-0,882355470292262;0,229259633244925;1,36334166329594;-0,855682264788575;1,62136347146586;-0,957109426702958;-1,19513152750674;2,24460489805764;-0,566312365440331;0,960504493669475;-0,208129328473367;-0,236265441540311;0,951732353935613;
-0,19157379716206;-1,49556509823413;-0,526934555277413;-1,72773726841521;-1,69874839759795;-2,54475434578917;-0,52948748100209;-0,173831223111134;0,739977591945291;-1,17913086296768;-0,249264736028585;-0,3898254690674;0,317397827732064;0,772760053404612;-0,0539479975660078;-0,0346460242182524;
0,692824437393882;1,11189291302875;-0,520219695260757;-0,567850354706452;0,165008457551324;0,973983002545219;-1,10982371092869;-0,100258809192352;-0,666007971042263;-0,402936809989616;-0,78180236378498;-0,959352037168042;0,943833246229716;-0,124878561008866;-0,41788767016294;-1,35638660550195;
0,305071347153542;2,57816520297892;0,827894435995583;0,118566694309148;-0,973617589506603;1,93005654310296;0,745080797816364;-0,0386478626507697;1,52836352272321;-0,564992852310403;0,879062297801841;0,981889890031131;0,112727977904653;-2,11205343047641;-0,335929023380912;-0,185943408367278;
-1,90635913688396;0,523781055621764;-0,499408588926971;0,3411859520563;-0,854469224109087;-1,0522671880887;0,428953107800936;-0,147784099781954;-1,53931301900214;-0,619770429080692;0,770568005466981;-0,508898174735107;-0,924102218722851;0,808562858000101;-0,707862598319186;0,600021870963787;
0,147534539499398;-1,88006824757988;-1,19896697147138;0,0205300577208063;1,58501504610775;-1,0849092614529;-0,886821535046433;-0,755458781236769;0,949032727178665;1,33229556579119;1,5593141721965;-1,44464292903285;0,541756033760443;0,192212348715345;-1,27545080321224;-0,174961774971579;
0,216902862056226;-0,111724743398562;-0,396642082723294;-0,534277121163377;0,963247039485599;0,411747317709048;0,350210218112579;-0,491365289509437;-1,26062233777212;2,4492734992712;-1,23460625960769;1,52003867026029;1,17212049277458;3,29864252457078;1,00499537567781;0,618586111897681;
-1,54802382246846;-0,267533671072304;-1,10633713764799;0,354373024256186;-1,02045884907652;-0,206774169847727;0,109056969139405;0,495563954490761;-1,68426414748258;-0,485053111178681;-0,702334409118853;-0,485800832133572;-0,433543737745612;-0,0709641789965334;0,765090579248457;-0,0611198805164192;
-1,35904647918419;0,646086674182929;1,21517876036348;0,761159649844224;-0,768195486391215;0,602945680513496;1,44638046058005;-1,3899131478207;-0,976036978049824;1,62817192643199;1,12520201100724;-0,247534023478277;-0,10740005338783;-0,425204840612861;0,376508840607629;0,733605090012071;
0,92686208340204;0,235552804233024;-1,01295637120076;-0,112018725602398;0,2414411056573;1,32846210245769;2,49812984526033;0,36662703649781;0,195483600183334;0,0432927346201261;1,15725124357904;-1,29633792224303;1,65012202693711;0,358647037060628;-1,00098301587857;0,930361390016838;
2,07266166840832;2,5432120567195;1,25534269891646;-1,17176352942595;0,47658067415514;-0,537339828386561;-0,714206878799243;-0,962903113873414;0,736776828835773;-2,37526853079497;-0,941761517603752;1,58208268391328;0,653114948540473;0,487306147220027;0,653903952897656;-0,846821640887355;
-0,427432699082154;-2,30474159662662;-0,110398014854719;1,64526152335862;0,453310550226902;-0,59093317879393;-0,864563253829145;-1,25159817067717;0,801906537413546;0,0583990437346834;-0,984395057777267;0,205784318599482;-2,24736942016665;1,27187940638236;-0,40678081441371;0,658268655678306;
0,0288243294582094;-0,503633855430525;-1,04921115612309;-0,890431935641793;-0,943271958480839;2,08717659048233;1,17520743281755;2,33637222482675;0,332866701412159;0,57769798374661;-0,449686301695972;1,47219366927146;-0,514860834643085;-0,10550220915835;-1,55638872724486;-2,32119000281129;
-0,560466284605981;1,40619368127813;-0,611434679140003;-1,17386503332592;0,910241445734473;-0,0773840099822203;-0,604477343754464;-0,0302973795330424;0,634381651190241;1,34033909955801;-1,18023851362436;0,497512120615732;-0,597303442553353;-0,30232096001686;0,962049657473045;-0,307882738642834;
1,02758084321818;-0,950268956606724;-0,222022924851754;1,21313363555972;-2,1274643079911;-0,295877054589469;0,351636456423219;0,98788456604371;-0,694977565719298;0,142041963754872;-0,512940867436208;-0,00984152982426179;0,951300149351587;0,800039092403449;0,672676046189336;-0,125350370937989;
0,278461942779615;1,00306248348935;1,4740469176572;-0,609450405672072;-0,323161370693765;-1,67038011176887;2,32356420539536;0,0330102135274924;-1,91847260375764;1,47664582892031;-1,15378753258716;-0,300056406334055;0,144771366542797;-1,96968932808674;1,15446632759374;-0,798566815046813;
0,0870880661404481;-0,999664002494272;0,481497332945285;2,94288901439468;0,215069727888546;-1,26353009666105;-0,467080586754705;0,331074900471643;-0,391531510550384;0,0973625704777916;0,198194631126873;0,325477835256347;-2,08475828764219;-1,05989258129546;1,11375421706377;1,11330745145687;
1,1246455585052;-0,908051107901966;0,167713175192993;-0,136264470370341;-0,0188421844780326;1,68939456418721;1,65734250974338;-0,0170754832038898;-1,12294359022862;0,666502376530743;0,694216842265547;-0,194149987390957;0,211523251861702;0,32974162789352;0,890982621101138;-0,06700095552372;
0,29983584355094;-1,56094250404311;1,27389475833877;-0,0434681062074785;0,0407033361315889;-0,463642854101341;0,666384222764853;-0,559988293868869;-0,0566725109685851;-0,81626335888982;0,234224116120586;0,0374124093797363;0,332651751560359;-0,618267570624558;-0,616021283894541;1,01030572780207;
2,64282667959391;0,870337636798477;1,72162337403059;0,415290327969733;0,43648814604663;1,63649005406695;-0,100037632745097;-0,635337822823702;-0,564710328636921;1,09110272022035;1,1852964694743;-0,168044580115355;2,17796531768308;1,12743930158981;-0,88380607390539;-1,0649003247416;
0,0990254505722579;-0,222319852109973;-0,646749999535333;-0,468621425482118;-0,749114027179927;1,84840847174443;-0,211726798985754;0,103027887477364;-0,557943945868864;-0,110990800081066;1,22012790663711;-1,25136332816313;0,0378413892616966;-1,9337211865122;-0,57093820990398;-2,07875462262046;
0,338242614306982;0,0610937981361003;-0,239816697806894;-0,759320303875168;2,17513679329191;1,06350813928393;0,378765858257724;0,127072215808491;1,6938211388793;0,621974475412182;0,453721012693119;1,10068851907236;0,667053378355816;0,444290202097017;0,224120681255279;1,3832193029843;
0,599921377965332;-0,534717763880031;-0,0511801667727397;1,05077866628736;0,841910588037795;1,28582711170687;-0,293777074415606;-0,307700412380813;-0,826397826029288;0,438125501306459;-2,39744755064355;-1,02205436263163;1,82470830850206;-1,66997927353327;0,958583573826222;0,505947536724;
2,35491923199128;-0,713536056079462;0,0850558016112712;1,01104390328772;0,378913151502801;-1,30195149684435;0,255234501904659;-0,574627114066678;-0,192513621381726;-0,811290089063797;-1,2404757195691;-0,140926166321727;-0,0305395158394016;-0,520424973886144;0,528256290673928;0,673462831332826;
0,191311666681054;-1,84409778497374;-0,796811789835066;-0,537949544103392;2,01111859010401;-0,53162449582045;-0,317090501847169;0,795835265721153;0,492401639458871;-0,367361071427671;-0,639088649689092;0,979405803152836;-2,10006215755387;0,304377312441749;0,121922177600972;-1,12688653232242;
-0,0561647790832383;0,32942889988151;-0,529667911667522;0,688063219508353;0,627032376893843;0,456245762013003;-0,372497201710217;1,25995679989214;1,13427503728987;0,191708568501331;-1,1626355049874;0,923274900974018;-0,422968948506686;0,162153472487321;0,569485667647786;0,0433924130607916;
-0,49018655668991;-1,03968935503552;-0,40729957915682;1,42494864574766;-0,703432448903996;0,269435585059872;-0,0260129393141631;-0,153300937975999;-0,834446766253748;0,494449588636785;0,111109255404193;1,53809761059028;-0,699826784005162;-0,290187436742292;2,216382500617;-0,326564530004033;
-1,94631168628043;-1,6498525506363;-0,112832429095556;0,571795958069574;-0,508255457377381;-0,343542796056501;0,00329864141361276;1,14466110888834;1,45530828366354;0,335440293476595;-1,69657326836857;-0,653771268896519;0,809207220249549;0,161882236608005;1,34118833471665;2,25118377197651;
0,118399628367504;1,03775686378263;1,2091858966048;-1,02372171651222;-0,0306180457919822;-2,44174425397376;1,35630311877295;0,497952028959767;2,10356726364845;-0,0788614006230828;-1,49978545769788;1,08156605778961;1,88844184440705;-0,835658030101831;-1,56396127457938;-0,136253472726607;
-1,01800284942553;0,349250978353809;0,598721336835181;-0,152737115187063;1,07558322151972;-1,8850780766497;-0,344839626666704;0,248570470416277;-2,32262712169276;0,208130215814703;0,891549272596197;2,23405207712432;-0,347831753420992;-1,40954509996387;-0,0772412638042921;0,932487479581113;
0,80356438808566;0,587768845763008;0,155539983715822;-0,675221855918086;-0,108197726475427;-0,774410692545161;-0,77779713194895;0,489981883084401;0,942385456471332;0,500456419936405;-0,515464765873045;0,806034939918435;-0,783045925505334;-1,53571590528923;0,767656813267102;-0,839589762274544;
0,0072658679019693;-1,06936557556433;0,876041744708186;-0,0871777676228604;2,26351720046923;0,585562303168732;0,805813894994211;-0,00116009105922027;0,18239325590203;-1,29915593412972;0,794036470189522;-1,24700556257395;-0,318465510130355;-0,447944030856177;0,405071308896926;1,30675725160384;
-0,258428005157212;0,0456925542221965;0,315201599447882;1,14550381618478;-0,482267862848533;-0,389164570601069;2,04317841754088;0,48281126295666;-0,564418957682976;1,44517574814604;0,340276431783678;-1,68616825886884;0,00707534532662795;-2,13241637758197;-1,22412852407302;-0,282924772485357;
-0,00109900952093753;-1,26035187728909;2,38145134465751;2,29153314350387;-0,284778097729146;-3,09163903256996;-0,654834558082672;0,872389577834565;0,43244086233552;0,0242571366253305;0,653770736781254;-0,196521722834197;0,208367407143219;-0,188605306094342;-3,18703610437549;-0,295781542686691;
1,00490602835142;-0,50374821628693;-0,40166069950534;-0,643998986833044;0,296408115449534;-0,625024950137465;1,15990574158708;-0,413744992116531;-0,347035754823788;0,0626386072462881;0,696946921910831;-1,39231052635163;-1,42767908279112;-1,26943713969301;0,866964389585033;-1,54756609518179;
1,04537441513929;0,866637571374954;-0,63030919296019;0,829516126437608;0,999646958110021;-1,36157025855998;-0,552994238188338;1,28683649824462;0,448779480392621;2,92829353784258;-1,15343740883625;1,75765879816474;0,902764379668647;-0,653903578980754;-0,601731406128207;-0,831888000596734;
-0,0646132128143346;0,711024739848035;-0,0984453668900475;-0,100971907755515;0,444844952314751;0,418371606647248;-0,101518365245161;0,111442817773084;-0,632225984554109;2,02499553514886;-0,221608774546331;1,48427272067717;0,449527993734215;0,264857156424142;-1,1028382077247;0,934637114951905;
-1,5999024364339;0,0795560373027834;-0,581326639401246;0,103423949202941;0,217441495420904;1,24880955759321;-0,270494920001188;-0,95463986385312;0,180796199612742;1,74458466830447;-0,757420723128593;-1,21035492085296;0,277561059017958;-1,10507359565957;-1,3763601342672;0,056998063695022;
-0,406669147955688;0,615282588638591;-1,00868069767797;-0,122045850513332;0,379643527516309;0,107120109779687;-0,308141375038947;0,179953029339774;-0,375119629378975;1,62617142722303;0,850041613363464;0,290498393595429;1,23631355336905;0,464308874975285;-1,18587271297497;-0,767606754298642;
-1,12191178025103;0,386805581989649;0,491572075038293;2,23228193613699;1,04319961568835;-0,157979740200604;0,406511248472468;-0,281882176176605;1,29783091231255;-0,585465654098428;1,11673387539887;0,234093667378421;-0,228343962126348;0,276235613261586;0,344995441780284;0,851292848624188;
1,4949965323796;0,764498697456968;-0,0502171128389943;-0,0127500772267399;-0,0937682954723871;0,211550149626014;-0,407000498315959;-0,396431307743586;0,254132146330937;-0,232396076886355;0,635395943016294;1,83613315668942;-0,815106996059966;1,26364612340893;-0,485581051309684;1,24535182613306;
-0,88519826704256;-0,490414295193205;-0,701465271373149;0,41525699161447;1,62986883320393;-0,605023067595337;-0,643054931009851;-0,126862568788436;-0,195425682611113;-0,814481283798549;-0,158755882851634;1,50275870937707;0,977684903153924;1,16947911113401;-0,32807080966535;0,0126448863605957;
-0,659409700875049;-0,55242118066064;0,356182246078512;1,30007531164728;1,4992153609826;-0,71649858400045;-0,236663082964692;0,310080858827081;0,0533068811893513;-1,41948235796866;1,41794741506119;-1,01344947050227;0,804207242050937;1,12956634196988;0,815251997057234;1,11372596058624;
0,693933983908604;0,130458252648359;0,202188813681235;-0,642815411653873;-0,684455321896413;-0,983089075970795;-0,308559376639722;0,114250842396039;1,15283959674408;0,685080685113571;0,233329488140436;0,1656801886111;-0,324156908473433;0,0459463919573224;-0,744064734533719;-0,0920680793274767;
-0,0178404413240486;-1,25450686732399;0,162820620092296;-0,669488569907201;1,90538711891664;0,537101143570716;0,56062508357628;-2,43988638406484;-0,180376986172676;0,369159258703324;0,759720657555042;0,683944073757905;1,23323379841028;-0,650362068530243;-0,58621517140704;-1,51181344626403;
-0,457227789810012;1,73876663323517;0,203299102721608;0,255264451699745;0,168970432633335;0,074509281248938;0,641176248934438;0,679014196420199;-0,399359732910248;-0,627494880164548;-1,68711403574356;0,518744230556358;-0,231720454329634;-0,332168344148225;-0,781399024535342;1,51623077065935;
0,030675071434345;-0,157062967216131;-1,43047781941012;1,27654328032266;-1,47194361302079;-0,813790704407368;1,20505763285231;0,967125865277223;-0,202461495878138;-0,0351477672673863;-1,65719820510936;0,050620961401213;-0,476042172763257;0,630758034797888;1,46370253593674;1,26801755558172;
-1,73609461562344;1,35475561783652;-0,824708976318796;0,230286939532982;0,493641093763587;1,48679288229483;0,924013617179586;-0,712280733413347;1,51322342663002;1,87234986370788;0,699568924242129;2,0338199582346;-0,186092316937151;0,590094757425508;0,0553904948881036;1,65423326502494;
0,503801571740806;-1,12519135486448;0,522306027644132;-1,10398347725821;-0,984622591761785;-0,713099442318048;0,53971387550687;-0,415635455299573;-2,07865184930028;-2,04155731110178;2,22372501645113;-0,748449257926392;-0,0738900497253629;0,822006965172518;-0,106507667486299;0,367408245389001;
1,08315219098794;-0,230805261992789;0,308298508409137;0,162860431822483;0,730608887369387;0,580673758209096;0,990813678723582;2,18688677066528;-0,983655288621988;-0,627189763443999;0,146502718414098;1,23020600559294;0,0259406463899143;-0,315634865434452;0,462686761497441;0,632472711497469;
-0,147510314243191;1,18254654654515;-1,0013133968788;-0,161101401540718;0,202192042174477;-2,32461808943233;0,721675778133966;0,563820862574348;0,204244839798667;0,153558505602315;1,49720961177828;-1,48881941774621;-0,283267092187444;0,224646874551498;-0,288807005563166;1,33605278414486;
-0,215176346988375;-0,0830851828155359;-0,578614533518434;0,505537244924393;0,232478706591191;-0,639242623325333;0,935403539233245;1,25001270170184;0,546591664499247;-0,257571947582234;-0,42725522246776;0,305271157038374;-1,74893605449285;-1,50571347936718;0,517468613478569;-0,576361081609553;
-0,725614559519031;1,1314702009014;0,104332240741331;0,934741533501196;-0,783560035653279;-1,91907189567522;0,135342112142199;-0,655417064586764;-0,934221491838091;-1,57258449955726;-2,20299044310212;0,392468864812189;-0,30764333828062;0,459691153281677;-0,112074800026286;-1,04497406325181;
-0,65547526488657;-1,82145114052444;0,43232145202566;-1,46175594252044;-0,533235517798826;-1,38374345871434;0,498102679653586;-0,709744468255677;-1,36674755598239;1,28305045578969;-0,020732781622892;0,297963584566006;0,49404427712205;0,257022070534109;0,134565173399633;0,639471942253545;
0,205926963657405;-2,07705560644958;-1,35375850625188;0,77345523660398;-0,610751348220129;0,410783492486698;0,465099572447354;-0,0330756567842486;0,613688269219693;-0,652020451670129;1,08703227066625;-0,711735210892295;0,13347848618574;-0,613651057746043;0,911999015315818;1,34369797753073;
-1,62404180431135;0,721131644593519;0,446253363813153;-0,963366378005536;2,9457705688821;0,131447649456798;0,241464282807909;-0,934842588254524;0,341518506642049;-0,180642359417596;-0,657839251729135;-0,477356836639813;0,193539433740835;0,591962912204143;-0,192789512576966;-0,0305203096223888;
-0,0875471751963195;-0,554290676412431;1,50841677264453;0,968014734509314;0,683773430220603;0,636883728520973;1,57497603043574;-0,547685079334067;0,506275265663701;-0,948177954722719;-0,478306387007154;0,83438087401009;-1,5999335587924;-0,438347716935234;-0,414144554768856;0,401796307303067;
-0,130639646338556;-0,126505355891096;0,877970085957619;0,946270710173276;-1,0284129457772;-0,172410337349381;-0,537951461939565;-0,00628016578620232;0,26421788988588;-2,44688807947918;-0,178028693815622;-0,679595733286781;0,231155318631499;0,490515126371114;-0,370572380944586;-0,660743418769225;
-1,24725954576329;1,02353527550827;-0,0226509382379665;1,38343027037084;-0,983322454753785;-2,87702083731201;0,606956661028587;-0,263268258312865;0,159674018560145;0,872006597117442;-0,255361450449599;-1,55040397728961;0,5911970623338;0,63557300254826;0,136548764910179;-0,727907391653632;
0,201445144926634;1,90909588659961;0,228715351652273;-1,23706647733751;-0,799504880278408;0,0760975006513617;-0,269052641980859;-1,76328805109052;-0,0643017752926801;-1,89668963046555;-0,441342951860233;-0,299358298040896;-1,23801623468662;0,486957481612324;1,59447834310657;-0,414201406793509;
1,43820121781294;-0,518106355452949;-2,24973134129191;-0,0537131007464705;-0,561968340503839;1,07552471096997;0,934264152056296;-0,224934443615958;0,146427609140736;-1,04789759981368;-0,191774531383019;1,014156532037;-0,201189398153174;0,410970360873515;-0,620221669937659;-0,0533951960054599;
-2,22978740718012;-0,23283009638516;-0,311873451780961;0,43322481840175;1,05306838691234;0,171835162811608;-2,16686529715273;0,247737596564209;0,171743635956297;1,37403372012866;0,152486622648154;0,798127401085203;0,077698161828342;-0,15158904605632;0,244669236178693;-0,521032444372198;
0,369839144050351;-0,324929866633676;1,31969040115375;0,747744458267439;1,19932878288957;-1,82574239091543;-0,714770410753673;-1,13036530715404;-1,05823193799644;0,900541188335257;0,419741423811413;-0,4197820051975;-0,258569501622835;-0,557967240369486;1,5373595446712;0,5535218599254;
-0,333150835269788;-0,285999355344509;-0,170214042986719;-0,790113186757457;-0,160047893621294;-0,650778162777063;-0,0884598476221593;0,326922016842587;-2,22965037574888;0,293287058361804;0,0310440973486423;-1,45421900932671;1,20334801478979;-2,92306477898582;-0,413781279533315;1,63024217103383;
2,01109563253769;1,33162190854265;0,560682934078113;-0,917301559444378;0,760703404581652;-1,07380893933263;-0,944763827951755;-0,16431790211376;-0,482075857774169;0,790351931755828;-0,41939441012163;0,246318658035184;-0,321437032818861;1,05125189830206;-0,0293481935362808;-1,49360982537561;
-0,200158378591437;-0,737486303521344;0,0104592604774772;-1,32603537721648;0,882858407302749;-1,91833237547072;-1,70113052025141;-2,11953454083314;0,253413435457676;0,816440334026303;-0,902050996193664;0,929745092521232;0,840251609778794;0,769518825693955;0,14674559330714;0,246869311291135;
0,880302809635343;0,239104566734037;3,2229362385121;-0,515814945428562;-1,57477770988403;-0,480436044232988;0,442487760363553;-0,372451067551862;-1,24390038282242;-0,109482787623101;0,0562706995805158;-1,11691484572164;-1,14674671614568;-1,16950485098883;1,18719286798048;0,148921482721541;
0,512598756703346;-1,22505600662618;-0,00405846272874898;-0,204311250963561;-0,474960466532248;-0,307598221914523;2,78365071171456;1,40541456517595;-1,21360741713263;0,684243366840368;-1,93564574479195;1,32202793492013;0,220218102938023;0,876438338893572;0,140239790111615;-0,404802079207465;
1,57905105149593;-2,03034025693915;0,0898374507070141;0,62445408781399;-0,098924853035256;1,65134184578266;-1,40783210994022;0,657069336716643;1,15668094558883;-0,931713547429495;-0,839153629251134;0,472899194176845;0,0560185205269511;-0,439119458867115;0,819597137138673;1,31956278663128;
-0,66356371678071;-0,759801483146206;-0,764727040555228;1,29939332166323;1,05174673017696;1,39034490476176;0,658475624256485;0,63823743045405;0,856194934698289;0,155791613824002;0,128214901886968;0,885717119910766;0,649590758243106;-0,605232978053529;1,51410443056859;-1,79788535409469;
-0,648606851248004;1,08604152893105;1,35233566158622;-1,67460684350251;0,434827678332167;1,09216106919342;1,06521850352325;-1,21225235379349;-0,527774888198923;-0,317760936777152;-1,14154988091551;0,840103257378591;1,04101215704217;0,635191914616158;-0,7163154838545;1,92120990491017;
0,845836248838668;-1,2727593850527;-0,430921463122746;0,52720005547349;0,147428476029652;-1,10160991337338;0,0657801142026826;-0,614207145683887;0,484767702492382;0,410573097451613;0,214308449026768;0,847457963725711;1,1830981659669;0,553139127978253;-0,211619306211457;1,97918087327923;
1,41690798242212;1,23048528319447;-0,23048942687221;-1,23455812476161;2,0792664177349;-0,00750175947649424;-1,42739474178094;0,192164274928357;-1,31308441076405;-0,923392149422327;-0,636488287121906;-0,0582476582934152;1,53947469926092;0,664438349487579;-1,18531908426733;0,833774043365167;
0,459602220291102;-1,0284092043241;-0,68041437559537;-0,273300214698133;0,114546975340586;-1,59288417944082;-0,878786776352659;-0,506607196868284;0,888629571746267;-0,680642804508161;0,20096062849632;1,1154925727501;0,441605710583096;-0,59243687388786;-1,92480242218145;0,0446194349259118;
0,753659809381142;-0,637037968166659;-2,33953816995084;-0,718966774190415;-2,50422599198875;-0,696130231886486;-0,344106489082693;-1,01306240537051;-1,39020881442337;-0,5564517886611;-0,623042148734988;0,196036063088376;0,562015218724609;-0,0383266835792494;0,308237518607819;0,344024722763334;
-1,38278694976711;0,432331875515627;-0,231584298106674;-0,648679172610238;0,752470132303155;-0,68458586713375;-0,843211721102939;0,742322112969768;0,646622891644401;1,15241566543241;-2,09358455907843;-0,194617336178433;1,43914420465812;-2,43011075179224;0,394432547884966;-0,374278911831168;
-0,600111338598379;-0,212336028418403;0,912999598618272;0,654206149153493;-1,3277985879057;-1,47418726058242;1,92840532166284;0,532235821287863;-0,0312361759819473;-0,689787214846236;0,25717744691452;0,566535818930779;-0,965349831353764;-0,431605467438143;-0,275090157181253;0,136717900028599;
-1,18001676148052;0,00816434924287309;-1,4071633808462;0,047878227465503;-0,0404820695263456;1,43272731021447;-0,0354276682894842;0,330105795312945;-0,557015444924051;0,977417487101039;0,867467728477151;1,37063664127236;-0,29765656672435;-0,252370472086572;-1,15605134135563;1,22299501405647;
-0,328140394502532;1,27314660939949;-1,96844079640034;-0,401242038696078;0,649510553361434;-1,89266159337458;-0,906510740628424;0,0357090293267739;-2,84696942962395;0,289527430804229;-0,377268293051495;0,273344498272013;-0,633490672107018;1,00743443972828;-0,00941218835587281;-1,82366198835254;
-0,66473782313705;-1,65170279766382;-0,939973449674925;-2,22736297780402;1,90235374459144;0,905247290096005;0,12056664747695;-2,03236322997322;-0,677082143209352;-0,76049286404434;0,702650996987928;0,728622255588686;0,340724123486378;-8,1886413252857E-05;0,720223490279467;-1,73128275699834;
0,12548098597226;1,51744195437131;0,719373134586234;1,3842781608331;-0,0613267964074508;0,403858601339122;-0,254102343678923;1,64011030482013;-0,859487570603876;-1,52980706343362;0,479825834004814;1,87169194503314;-1,08537645842892;0,001080396989779;-0,713688343091082;-1,2502551002997;
-1,97045553186102;0,565123280965345;-1,60251921748268;-1,11016524995582;0,364740718756961;0,587312083078844;0,972418646210111;0,952471122364321;0,48186860237066;-0,109359941763607;1,18373174782568;-1,1177182118273;-0,229536120894574;-1,94426395925411;-1,07350479701766;0,0884888463123799;
2,08942960136508;1,58477074836848;-0,742120236777169;-0,253105857184618;0,743270411086048;-1,30729408395934;0,699711464699657;-0,651362547413269;-1,08328606818885;0,209490506613089;-1,0220915877204;-0,990326728129208;1,33602790265354;2,02764433402364;0,937760135945066;-0,992647399593097;
-0,0770151601955619;0,247223787588442;1,87474406254162;0,813939038137875;1,6017714173287;-1,94576526796288;-1,22800088219994;1,53015498536169;1,56224682751299;-1,25179234559782;-0,698322194505863;0,984990561941002;0,105896901141962;0,258067151813633;-0,763132073357968;2,02494165390607;
0,0656579560092108;0,698945380224475;1,3256164838051;0,738012771758619;-0,116724670350612;0,65752942389518;-0,813523467817603;-1,03724458437426;-2,21972144780838;2,29655779741201;-0,804600958177919;-0,385758365027931;-0,772060156571358;-0,673055023529814;-0,415363053878685;-0,807832093886909;
-1,49529808919527;-0,287023700690777;-1,20909614594121;-1,21129506411764;-0,362711111315062;-1,52191979721233;1,52130178235859;-0,708157999841089;0,225981866222216;-1,07370813713872;-0,918347512180775;-1,41132832936055;-2,16617784204784;-0,00891136601184537;0,340231237254217;0,11882026782083;
1,76992714330399;-1,75790215386949;-0,441247124378928;1,1006551101149;0,645247681314017;0,339576841385842;-0,897186853959375;1,02646457210343;0,00183913724115646;0,598827706806008;-0,327224392977894;0,223104680608292;0,665158504061853;0,55589344776645;-0,185571056240949;0,0552764987750575;
-0,102284961059977;0,0962352765636782;0,10654437659287;0,572181547102485;0,705093992693721;-0,258990106524898;0,177386811215755;1,55273858063045;-0,264508801585789;-0,763412848412872;-1,04827599857141;-0,205564277277935;-1,64241817098062;-2,07563696258082;0,721807361995219;0,166370323800641;
0,444793466071133;-1,91147294145207;1,81173557124556;-1,34245997373495;-0,0375765939366716;0,948156979992675;0,602787777218652;0,548233662608681;0,31828237933296;0,139734471291635;-0,0636430127758231;1,14705493164035;1,12324544915755;0,522141453728445;0,0523655505983218;-2,13177653636542;
2,76296315534816;-0,88353779987865;-0,0311781996592788;0,928352684926681;-1,21938573754683;-0,872792473643945;0,681215741119048;-1,80310173956211;-1,14040421903343;-0,535542512933086;-2,01637715034875;2,36176100070925;0,350071196600794;-0,309665482839064;1,09013194996273;0,531846982000586;
-1,09662340173256;1,27214565993019;-0,632155194330891;0,667896804569262;-1,99760829267062;0,839300153147415;2,18931371347937;-1,02220350528094;0,117599118898681;0,751707561517528;1,58770986343689;1,04576944079852;1,84643135462909;0,132832318518397;0,239700995679697;-0,711515628714948;
1,9033449793706;-1,02306242753042;0,207361743728461;-0,262726977804718;0,523161032932402;0,848178229337513;-0,509590113406889;-0,743156867569777;-1,25587921039572;-0,0950751903961365;-0,0231487670611106;0,0907259384172908;1,48936334648646;-0,173384871354903;1,34521954198413;-1,24983689836702;
0,763520512601203;-0,026314914787748;-0,681272509735577;-0,484992338514438;0,205338880456726;-2,82390653264393;0,874283036672174;0,622398248936915;-1,20332974228902;0,949718699314185;0,434209192467992;-0,751109506417934;1,03065626075081;-0,391060772193469;0,0453371944372143;-0,564749897813645;
-0,0694943504565425;0,395266247696823;0,0440947317319781;-1,86945954427943;1,97516983502425;-0,0172866686237823;1,19213132542028;-1,26232277075663;-1,4418479621983;-0,79576437790589;0,686688583089851;1,20464926351346;1,31608419979202;0,644337288873145;-0,171115643343013;-0,306330563456054;
0,689483697212811;-0,782531614935032;-1,61253984524943;-0,745443594675598;-0,811428065496171;1,41412352754526;-0,71984810670094;1,09721484895409;-0,0635216128718443;0,897228454314877;-1,87707560406862;-1,97086558482106;-1,24887417509689;-0,0391409237455166;-2,26183285591812;0,819463728525533;
-1,58612388948197;1,95108653726553;-0,867935082608518;-0,0788416479167199;-0,798811056933664;-1,14955365010973;1,57391781066878;0,889123632561214;1,36350339875354;0,192879983571004;-1,74295705673785;-0,454682692605727;0,00778581644139994;0,401174633328786;-0,631611529471447;-1,14975578131822;
-1,08161455829154;-0,444907355485756;-0,540853210254349;0,946296235902668;0,767248415478778;0,648211941331492;0,746305410931367;0,48963344230915;-1,79972655984067;-1,73683744604577;-1,48849195133783;-0,196961889930391;0,749160805597049;-0,186291380632701;0,910457648180415;-0,849462520025253;
0,654381014289019;0,808797507257249;-1,15372082020129;-0,824739443112798;0,486872153740334;0,642435621050369;0,0427948139388925;-0,617238785939209;1,29580026886296;0,27509446942238;-1,09707582577868;0,0442702254287407;0,361216858234281;0,432288334427678;0,313492300241312;2,64708755609929;
-0,851594839351631;0,64327568798901;0,963512107686333;0,721894554424608;-0,871430786275711;0,194566273002118;-1,33750337353857;-1,17328512338108;-0,91712803541112;0,755223863809735;-0,539604513422155;-0,972637761182935;0,301949707336113;0,827171184429806;-1,10952335162445;-1,54180943098667;
1,90687852921297;0,75154485382807;0,0382535470542929;0,914369719100553;-0,499321232403015;-0,542598567543002;0,601646196301305;-0,18804234093287;-0,116885933735563;-0,389008713068342;-0,0785349098092015;-1,2091615987947;0,77350366951259;1,34513140985041;-0,011355462867264;-0,742229054756467;
1,48533204681742;-2,42389244153368;1,81024839607534;0,220069411926938;0,0388236410611213;-0,70631077774732;1,97811936398415;-0,495892682868828;0,462702677514355;1,87610526549112;-2,0958933736771;0,494522620631198;-0,0907526385300807;-0,489966103466111;-0,916145236662242;1,58811898753633;
-0,0353512816803041;-0,414866106994398;-1,5318040398078;-0,633366339665078;-4,08856670686118;-0,803548942294399;-0,439219596882445;0,739527101040125;-1,40709393645753;-0,696176278120531;-0,244886661059045;-0,869081390487038;-0,640867541002694;0,483717805803659;0,543743021413894;-0,896995633862583;
0,450887800414879;1,15314141929157;0,80435098872428;0,76373762611146;0,129575607679682;1,14001745930156;-0,801793184023557;1,01807636769773;1,22698870666752;1,30412081881499;-0,0316003730725686;-0,686389181286357;-0,276730472643971;1,58648866983078;-0,263314345023522;-0,228144132148447;
-0,468574213620564;2,55725806989087;-0,198614985540355;0,718891665161206;0,73268496367908;-2,43321154547054;0,446248800436352;-0,942099396029423;-0,871755243125664;-0,23860158763692;-1,3803712097147;1,25723520487025;0,302833362608964;-1,00208849716155;0,087964741490339;0,292099824037481;
-0,670872699511133;-0,172288318837472;0,568896968429605;-0,380444866448501;0,44115852165644;0,0168099068389189;-0,561472161806396;0,0738540670441539;-0,193336267887226;2,77351718770831;0,621660864145771;0,481374626490027;-0,925570853550656;-0,374004922069156;-0,270962719618755;1,74054929375648;
-0,309216596406177;1,16971769086402;0,785389015902826;0,158864913777872;0,3043093573325;1,54412560796234;0,547868350264545;-0,192803483362704;1,15454266732655;-0,0998580273717728;0,0532525609305547;1,24819948440217;-1,38067713971909;1,11473006131397;0,0471563391307624;-0,340594504337042;
-1,72412575581286;-0,0773046535374029;-0,853465198237637;-0,0633529361046987;-0,0584944319403759;-0,842018032121102;1,31666918047475;0,928203735020286;0,756774985674929;-1,25994462809478;-0,215675446198747;0,637643975414644;0,838739082691443;-0,135101777435175;-0,258580401778762;-1,03510760056964;
0,858886574259726;0,560891303341008;1,24552785953623;-0,13025482591951;0,766410806990701;0,0255438357927611;-1,07339817567237;-0,510795077624899;1,15352195101733;1,20026930945691;0,945566340681322;-0,0527692590917513;-1,64737659404238;0,258532357373532;0,545002971017708;1,7813452520026;
-0,991435762651402;-0,79951277380055;1,20684449839416;1,40858580534958;-1,54001425731863;-0,335682210570719;0,425855678126144;-0,432993717511707;1,30587924842963;0,0301424145019016;2,14234974909073;-0,214045136072023;-0,318932915242488;0,30104979715625;-0,518304960298411;-0,0815260799079242;
0,264485610303554;-1,00755978076408;-0,378309710995913;-0,873670542046371;0,142278861442124;-2,35772351459741;-0,78466836346437;-0,733276196114834;-0,496173496997531;-2,02345096644856;-0,861558184118211;1,79020572050836;0,0331680411349498;-1,92559929899849;-1,08655810978501;-0,427534516406448;
-0,698458231287272;1,3034588076535;-0,42509684148253;0,640205682038349;-1,01646242872555;0,0522745822731336;1,43695707878673;1,2172707055378;-0,0339661845463091;-0,405324769638705;0,593340701908725;1,39859429331508;1,72200866537683;-0,339288871356175;-0,223479801311999;1,54359893563082;
1,09452764912373;0,495881619348354;0,986003162129049;0,107537062167529;-1,66416846269464;-1,07316066452228;1,80930103003379;1,56289658421551;-0,975505422739624;-0,267485092273372;0,855714163875443;-0,372480132601547;-1,32590757711883;-0,703962138720085;-0,0584568704067326;-1,06997868132251;
1,18851398020717;-0,647664232898657;0,893805012550388;-0,633856472201807;-3,38821294247706;-1,56247955893463;0,0838888207311146;0,267479728771507;-0,788684368991824;-0,138957008751309;-1,92088311767297;-0,74626100397078;-1,73958419257724;-0,476070422241812;1,02269240420815;1,22781155410427;
0,691064409001889;-1,01976740745314;1,19677644844953;-0,410016277785213;1,25112907335523;-1,03377164786679;1,05150874150634;-0,180595656436799;0,573883941051404;1,11955449368884;0,117470408963884;-1,10205496233971;-0,230430573074821;-0,42443588258647;-1,2707053529974;-0,561532285068438;
0,258659106784756;-0,399964326904807;0,340681273203882;-0,745200156560788;-0,447443277471522;-0,0988928829308757;-1,45217335210933;-0,662022779013864;0,451857768997676;-0,218368596860517;1,60023235262481;-0,527447522023435;-0,41386039426808;0,848371254219724;-0,688788607849603;-0,163946553979139;
-0,129425543644199;0,224144939776281;0,157542328885729;-0,35324980787063;-0,121883871116682;-1,19681331616457;-0,105317728912344;-1,06562480407335;-1,8801374122332;1,82008327703548;-0,236471710138258;1,05951178646057;-1,85245456751229;0,80631900414509;2,58447817669604;1,3323091389923;
1,28324097566439;1,41364059210771;-1,39493503336765;0,514805370990559;1,54815200566394;-0,265381375296987;0,678003492776534;0,278102119619163;1,14083864990719;0,235700204110356;0,925704416562076;0,392493173900152;1,23548293019654;0,52217863271209;-0,632745007788722;0,899189713396509;
0,829425265932153;-0,916467849380095;1,52557592723432;0,732966600509032;-0,313275897211168;-0,0673734308464048;0,0265901481755931;0,24498900843794;0,670153826291663;-0,329245331211599;0,0924378660556821;-1,13763799587088;1,18927873573177;0,391078279132832;-0,33609042401846;-0,443676308324402;
0,167870933014169;2,21500166875432;1,00072242542781;-0,984898853391896;-0,247177710496833;-2,03025671007821;0,0194179799347131;0,210995900663436;-0,711075708934715;-0,272902448487802;-0,302404161124076;0,832033060266109;-0,335319534494354;-0,510573053647764;0,874433642220842;1,12560368153541;
0,630309690772971;0,475852722381197;0,361581827935707;-0,839779376694551;0,103148285732454;0,506653704532262;-0,331740493157612;0,102335857283824;1,21971221849182;0,542755079318492;-0,0262258882633834;-0,642487913482594;-0,848091042715555;-0,668587383674387;0,50172723955789;-0,968878956849816;
-1,30659500700202;-0,807470890981626;-1,60978980746253;0,73764490680034;-1,59493805277164;-1,24721354024291;1,66238389528268;0,447198615666275;-1,20862916632143;1,11633846444377;0,0801824820564888;1,86726440796982;0,463042967796271;1,09948975536251;-0,0250530245894297;-0,588922462908478;
0,429182958914152;0,487166460473549;-0,228391446476906;-1,39817860378448;-0,0719787773222254;0,322900896003069;0,242667965713876;0,764087467473365;1,57075098063678;1,13745557693085;0,290429238448232;-0,577867899777804;0,164469223453125;0,429743147795114;2,04311410964302;1,27072722564581;
-1,78358837105912;1,84836446602364;0,945377092922725;-0,396985108821831;-1,30906520118556;-0,103691911665678;-0,801082013920712;-0,386534338589449;0,984235994960909;-2,51929008258684;-0,468256901243727;-1,35293778622642;-0,955953228464157;0,812286661626947;1,47729459236504;0,0325158523636071;
-0,13917877479479;-0,517430062888501;0,174750432260431;-0,37495258652489;0,785581105212726;-0,276525052558124;-0,882301703132696;0,72854262056405;-1,48910326515444;-0,423879472674343;-1,51440543837119;1,11768167555909;0,309951415092179;-0,666717713802204;0,250569315675939;0,525930599420506;
-0,109522707360201;0,929523287519515;-1,25644051350235;0,620762699413537;1,05166086954472;-0,30141011375068;3,34041326012248;-2,37370684926302;0,916045842970151;-0,996932392196452;-0,664622767771945;-1,76857905867206;0,81398825339011;0,05464498582726;0,823700718660117;0,0802002525274508;
-0,490253225834703;-0,24670847533584;1,15580282079413;0,452436246391407;1,48637510315422;0,831812117116307;-0,567719954676532;1,46334625321911;-0,514462593640535;-2,22954355633215;1,21139463794686;1,25698772247423;-0,623845819210683;2,67925246628596;1,13245429789698;0,828981553169067;
0,251212318687015;0,774947616755013;0,232307025345751;-0,0298813199006702;-1,15036125958317;0,67338366978203;0,531613304756841;0,286637450877539;0,789449577256755;-2,21151718301437;1,88079945445735;0,590331489313054;-0,217431987007869;-0,18242562628549;-1,40493354996711;-0,0611156280406104;
-0,022932602947558;0,208366802945089;-0,594166876726421;-0,159204573420265;-0,244605890966452;1,86317403346604;-0,601845902834965;-1,67383470936576;-0,534816216354235;1,01727610640143;-2,09454569133749;-0,0972740369145707;-2,31931256085983;-1,76754919102065;0,0873165335299354;-0,915444581681226;
-0,6297580557138;-0,688768663813308;-0,556955311556306;-0,555822807134043;1,27569226017752;-1,08273382562895;1,71631860035992;0,352965809482314;0,461394144595923;0,14974374402247;-1,67203659287861;0,62216514109499;0,0351617663063736;-1,43084736241925;0,524908093569503;1,26679465690887;
1,98116399720815;-1,03755054607387;-0,98220027178371;0,892714257006985;-0,550766235744511;-0,279833670996995;1,45111489867158;-0,232874956132817;-0,546923297530192;-0,848043264500145;-0,626128215272062;-0,228353099687435;0,334814918546885;1,35222104491276;0,211743776641994;2,03093570966244;
0,0274611109566553;-1,10058136801656;0,373737463895232;-0,37802701022017;-0,391237033461265;0,0903368068052736;-0,131961809203648;0,135604811030184;1,397422239269;-0,100582261062955;-0,668946271239973;1,87411679966787;-0,182256078937274;0,203749320874298;-0,498212399971151;-0,124037753012506;
-0,953822325852901;2,87168480483839;0,327914734092692;-1,60634773707589;-0,172323619994991;-1,5550264424683;1,60020934452486;-0,0188550719648059;-2,02624134789129;-0,266391886688078;1,87561584486081;0,996641416493551;0,416091054626927;1,25075347848736;0,287874640272299;-0,21300131145655;
-0,73338647773459;0,43895519407414;-0,465513070159494;0,405845616488555;1,9668127068128;-0,159614699044067;0,653243041513255;0,421006691518864;-0,21049937272577;-0,905165597199058;0,685094182868446;0,278553502837752;-2,10412520588182;0,41841804182391;0,440483840344128;0,161125875397319;
0,0868276284023501;1,22123597873382;-1,31255662139478;0,87314956742298;-1,09158014684801;-0,599452454761959;-1,05696352839336;0,0816296164015954;-0,397016329870511;0,810704921101787;0,721749602531555;0,927466563031411;0,49537128583316;1,5452191741174;0,403860060977941;-0,208696751778377;
-0,0902037305142734;-0,462558218662819;-0,146020200497045;-0,258933949426352;-0,479824521117929;-0,906575519038113;-0,966895137147768;1,47235512276274;-0,239079967058391;-1,83632210077539;-0,127079018332281;-1,24237527893121;-1,48377439441744;-1,02516242949853;-0,429682350212467;1,87421008839317;
-0,895674538608123;-1,17452988308079;0,416796339005119;-0,968808616228445;-2,9142919216375;0,952270556973916;0,896481096201241;2,52313850785522;-0,00295848907168745;1,17694049802389;2,39542080575991;0,12660104167356;-1,11596020548094;-0,392417423858612;0,442327168051302;-0,638760739415237;
0,25473504900612;-1,43770437573533;-0,850152898908819;-2,63762300033007;0,474979572364369;-0,450536916847655;-1,35147640730589;-0,49444540478857;-0,166174056523446;0,041166326802312;-0,992971975075334;1,61826320742666;1,38579650629316;1,35908075074994;-0,863584464468062;-0,194734771277869;
1,16904981100051;-0,22264335641808;0,748699718763247;-0,142255693482415;-0,170204300791418;-0,57449135962183;-0,712166322265575;0,374954819072167;-1,02562740714218;0,480605672601784;-0,99409461189141;-1,05718125776821;-1,6096624626151;1,58720536372919;-1,62571161673036;1,1894312735349;
-0,686777704115102;-0,767211775150941;-0,0187470936702099;0,923285971299088;1,55990656375706;-0,375767747828775;1,68246273320261;-0,547250835729409;-0,224744542895058;-0,507069713457701;0,652997571517863;0,274465089367678;-0,0667633417507248;-0,0776709079461156;0,389447663458309;1,60180430221085;
0,538178967665028;-0,484695907744728;-1,38344769850496;-0,748385228070256;-0,0735925918425778;1,73036620980529;0,75455850471146;-0,0948653126332414;-0,118358261029198;0,774476913226543;0,0484479889629535;1,00608181653289;0,450718575584155;0,474104841523499;0,483898960832818;-2,0033431145316;
0,35685833365238;-0,945591161461974;0,551498272687226;-0,742190245606998;-0,332452107344972;0,448761226700539;-0,194404395701363;-1,12141474466713;-1,68150692051841;-0,565577974331017;-0,155305733884213;-1,24997820554517;2,34019968855481;0,540677988219429;0,00493488663675195;-1,6236908816924;
1,17383293956437;0,686904521987351;-0,545113331608661;-1,30425292474208;0,201591274494345;-0,296465845276254;0,893617108777053;-0,576070159582223;0,285587799181056;1,46113560782512;-0,184612270301138;-0,577869824500563;-0,249760282209088;-0,20514126578703;-0,0451185310059138;-0,829948846770394;
-0,151658482401268;0,112596000317969;0,257223813361348;0,514828001759214;-0,078259656829421;-0,763898858834922;0,973123868995084;-1,8367052542298;-0,477541192446281;-1,98687989873762;0,00948829147702027;-0,290564319728233;1,68367850386634;0,0706074880736844;-1,17321212239222;0,853202961664314;
-0,500062077651281;-1,95368130855222;-0,836388286167232;-0,585034175733937;-1,09787142787896;-0,306372896501923;0,449628450221688;-0,51339432668306;-0,224005075848782;0,905142822812825;-0,344216427016796;-0,720869182343298;-0,810180221099448;0,390364100340863;-0,357896569390865;-0,289825607059454;
1,11022536035091;0,822442400472116;0,308567317544947;-1,44987722328063;1,73744118366294;1,83340032539334;-1,20545396996133;-1,44211115359707;-0,0482327096054968;1,09843218219594;1,06401412866448;0,0823112588489123;1,65892259103636;-0,342413873682533;2,26560847896567;-0,10737353426327;
-0,501835600854481;0,174840096590899;1,90907498669086;1,13445470283045;0,171703426818794;1,49999346515697;0,139517674869735;-1,14601032588985;-0,595175726714362;0,55177652820673;0,770192987399994;1,13162672238474;-1,16780207059987;-0,494528362653251;1,14779452883005;-0,905953942832744;
0,362692281525704;-0,381131250864714;-0,781872293587987;0,313747558963105;1,8482227068841;0,50666407861424;-0,151609171089353;-0,831061696241183;0,322819380430357;0,940608319238111;-0,241039890732661;1,18822621007156;-0,110614305222383;0,138591585697349;0,122176411446294;-0,665568143420974;
0,14225832103224;1,94983292450978;0,254935355357073;-1,07589226288482;0,50223716595373;1,26248115022407;0,396398773620083;-0,53100112023415;0,580345672738492;2,80740482405869;0,225711675995492;-0,123184059243733;0,623418679597861;-0,442886775490668;0,534368351792411;-1,19586851310788;
-0,965184763893896;0,62485718436983;0,721803948658539;0,0750507867387258;-0,0765383837093379;-0,210840657972563;1,37213078027151;-0,981733404787;0,191456952841471;-0,242189964056919;-0,496667047098743;0,175214883906836;-0,0535995106655434;1,88749038494673;-0,68357546323608;-1,70412038131824;
0,357886937659533;0,642324245317005;-1,49084840023553;-0,964366581596826;-0,125589287781054;1,52154433181369;1,08945563050025;-0,340877580139139;0,319335823231293;-0,306519407756442;-1,01290893633812;-0,300029418942473;-0,815856509508297;-0,108917514388372;-1,27919874833665;0,49569182287509;
1,46710638113471;-1,20533779004254;0,176898844200993;-0,889166853258975;-0,877365469945899;-1,57793243210479;-1,42398305779052;0,349752829289063;1,61234239477727;-0,45959946798122;-0,512047227124555;-0,813532313520518;-2,66657826332381;0,462939744790483;-0,275816931495515;-0,173523606563502;
-0,645134555677419;0,58698123045855;0,121468376656739;0,833335200524984;0,201082042513547;0,535077633589772;-0,359586902944945;-0,384676721363379;-0,522374477941385;0,311149523066905;1,12735929101948;-0,954096051317813;-0,23195992947367;-0,272506126263432;0,440175142018207;-1,15039800489412;
-1,18021318567375;0,273996778305967;-0,33311919276471;-1,41995190312541;-0,164658380856083;-0,367338290082484;1,08229351730972;0,218418886233014;0,644067021670458;0,941472418798069;0,437880081661922;1,91152498222611;1,24017714778447;0,321975541560104;0,0819202120167369;-0,847194468769636;
2,15759864967156;1,43240868663184;1,0109642378119;2,84352510267685;-0,793138751549874;-0,463828531084969;-0,677612209084212;1,36896763107223;0,265821347488974;-0,350836015764907;-1,19977467439103;-1,39272002762354;-0,962710985987407;-1,66520599206797;-0,181605115112333;1,53313362772571;
0,817719791519784;0,686577921550403;-0,23899049407426;-1,77263435741991;0,550485530663301;-0,133750026262509;0,488832506441334;2,32063074369848;0,28100128882961;0,337747893181255;-0,933083181539586;1,85402291661827;1,9777771476048;-0,757247173771171;0,389972057002432;0,464478624915673;
-0,18454744285925;0,101507035693746;-1,46175971618169;-0,860575817264829;-0,227859608216893;0,0239280352644408;0,168185823918288;0,476381429520299;-0,490340912880083;-0,390392391562167;1,98096736967591;-0,281735701935737;0,613119125807694;-1,26606220999703;1,13992272885194;0,184029460928191;
1,11893365467857;0,903660856614466;-0,0486446760505171;1,47906648920046;-0,169845790886909;-0,738048262057787;0,955371780380219;-0,279696799070463;0,683039064288144;0,114917843079272;-0,758470957680348;0,333067294117432;-0,458547571417543;-0,498298616097468;-1,10970079031095;0,282366489685277;
-0,0740890171589248;-0,31655319583251;-0,692127739185495;-1,04002656170745;-0,652516131146546;0,819939012290263;0,308828367431838;0,0202283783796393;1,66390633752192;-1,86167105879482;-0,349581973397825;-0,353428864231681;-2,13079683887201;-0,402457800720189;1,99668036554372;1,02320520832586;
-0,917610549495023;-0,593567787661179;-1,24832600775892;-1,80354886754463;0,328016054222812;-1,18122180604325;0,368469225576342;0,386066458098888;-0,851931948911206;0,974284943032702;-0,601925379075191;0,278938669765403;2,14589121270303;-0,491656671284867;-0,0927925627155;-0,213891450412896;
0,559779208985256;-0,0538755105643078;-1,31542815461581;-0,118470099621157;1,45319558762638;0,0680629662750667;0,807315999569279;-0,711115320316388;-0,18741022177689;2,28814812764074;0,762309545061536;0,902301479377308;-1,55868800543089;1,02486825797045;2,03800594953277;-0,423575374087546;
-1,18286532057559;0,252275020881383;-0,332610833401181;-0,581927082077143;0,968875806638654;2,06006604135822;0,189234940097436;-1,50596980781287;-1,23774320132999;0,137990028136408;0,329702890606713;-0,452234562880863;-0,532877752518496;-0,48127524555829;0,968567206439852;-1,04692534913647;
0,813661184079836;0,0258985901292603;0,642946829068206;-0,209128325563477;0,684836734816186;-0,911561130139739;0,941942517048691;-0,114067461341788;-1,45689451540116;0,409426082852767;-0,494282341413952;0,140629822802809;-0,507670574003333;-0,252132112545399;0,963902468951597;-1,00000417300545;
0,845017620753854;-0,773912245935414;2,16961642451963;0,260300002757413;0,30459005460328;-0,452748093675286;1,30315618354706;0,480695851742287;-0,943584325737146;0,619116007442066;-0,0264608293996338;-0,291098434201886;-0,877870201505759;1,49800834933538;0,519548400927629;-0,433294498872406;
0,622201234872178;-0,0327900051312976;-0,442023470525349;0,0219306866071748;-0,21288669363868;1,51134386626382;0,169086052929213;0,0758387444062742;2,32230856830185;1,48871687405628;0,621751749390839;-1,71601748382734;-0,895702724631808;0,799188757837732;-2,198465982157;0,00550827312730776;
-1,0213129140295;0,564342770656472;-0,675325363415194;-0,734534222745798;0,0269878030868544;0,461126185786445;0,769603118047693;-0,163024181900414;-1,8221904910766;1,44379686002318;-0,592655024018624;-2,18919117592473;2,64242761834133;-0,596604371719266;-0,304559856725479;0,0967104278461638;
0,308012814045023;0,718677650255028;-0,581310122436982;0,588887127115834;-0,519571490691626;1,28921036183739;0,787188208123635;2,36124983119275;-0,597110844977513;0,206022136208996;0,852037123041334;0,66993161233016;0,208196200521055;1,86718866390003;-1,56182740057149;0,776721093348747;
-0,190638540540009;1,52725462303987;-0,745335568696206;-0,95319400167157;-0,622023814448636;0,475381393414511;-0,392092057185251;-1,26659950087138;-0,114399909305365;1,23521130664946;-0,433236198963452;-1,39248797834;-1,77196581724616;-0,638209590433002;-1,17721303349086;-1,68031971617695;
-0,172251126663581;0,0418158894884666;-0,0837645227889626;-1,71963016673419;0,576652345130693;0,311650483000501;-0,622767175846865;-0,223367116974934;0,483984325631434;1,82701943788078;-0,675043485234587;-0,564778775131223;0,921405375693233;-0,4561814451953;-0,520154750052835;0,18984458534014;
1,20633953864553;-0,411343411610698;1,24166489041098;0,076264660690892;0,472217606929613;0,803817471078671;0,119837104752547;1,35169462055533;0,711358863355615;0,878884554396885;-0,517089316263844;2,26913516839457;-1,04393525535899;-0,283583004832349;-0,592197824762082;0,789169602874427;
-0,931879436038101;0,800987829656501;0,754538997331094;-1,07011330552182;-1,36133334778989;1,23241482414701;0,774893348178428;-0,265702209057944;0,372164448456747;0,385333587802301;-0,226238866379624;-0,117578921407005;1,91844737292539;-2,12515965395445;1,37425384953596;2,35587568885859;
1,27850413614208;1,29228910774028;0,839756437328847;0,687775761028549;-0,237852078661111;-0,485783356980114;-1,13620477025477;1,27106654057902;-0,192357622509119;0,642331888380236;-0,714909167618087;1,35290012201718;1,175698395389;2,74960926179203;-1,06907691766583;0,435539005274142;
0,562702595373304;-1,88795929104046;-0,079869851823485;-1,60452862610521;0,417246659126943;-0,0464414122279436;-2,29043831434186;0,0636286666513645;-1,37650592041565;0,260204634679609;-0,545144993731179;0,239874758404561;-1,65494852375538;-0,889367498204466;1,17367662024646;-1,66127007960948;
-1,00317545069125;0,954854655104448;0,93028460629966;1,16374050576465;-0,662790246504795;2,10843502831089;1,59186099508282;0,45562768383844;-1,54725659923717;-1,90658349579986;0,0401968970851858;0,136075897727214;-0,863503051598643;1,05114172059246;-0,853045879756573;-0,305818549910888;
-1,29299612053098;1,25341495863976;-0,567875211205229;-0,127141498137338;-1,88763886327305;0,538785255572255;1,0266881166362;0,954900082980397;-1,20794338025798;-0,557803329642074;1,4163728384015;-0,0692153672448669;0,90858590690387;-0,0922232553333384;0,924051458029926;0,318190992669586;
1,59152621003466;0,381588900071828;0,667968889752962;-0,0399037529182017;0,417755088862299;1,07739217450697;1,18053147238723;0,969348210065181;0,56805773531522;0,267239546706443;0,626743024481994;0,493727883131916;-0,418658490282658;0,749035410809199;-0,758497494889943;-0,797343420697428;
0,3878634531764;0,865361763356652;0,114540605518513;1,29740623923817;-0,0848561284090176;0,53815169447938;-0,656420269301615;1,56684395883645;0,122735393277098;0,828957098844161;-0,161919153667024;0,312552138444366;-1,25229017884619;-0,999025090038163;-0,799104681690275;0,394814969093599;
-0,41266497076801;0,169125354208148;-0,108897571950554;2,57731504842452;-1,80641657017388;0,753057160879423;-0,669695902381463;0,229186114810896;0,648000701487184;0,959183604825965;1,42751841113757;1,16115335781476;-0,0430245893913393;-0,744979766254316;-0,932166678285422;0,73037134812076;
-1,14499416758268;1,46236270687072;0,813387712634132;-1,75184836746207;0,611303683251797;-1,71922834327259;-0,0304714341279103;-0,676354818597676;-0,408490365892586;2,54175722441838;-0,015115993629736;-3,08344082790363;1,57305283641333;0,70152262829113;0,0116388370823038;0,382058678664432;
0,563078414881506;-0,384946510289118;0,95118270915244;-0,815267519665818;-1,19486818608003;-0,541866512938592;-0,385984552265658;1,37662213904854;1,2606682807133;-1,73010236712949;-0,575365109701916;-1,43179418349325;-0,417662865105027;2,2101824643357;0,333696382063153;-0,229101857505944;
-0,982632393131483;-0,29318334434855;-0,80050185140157;0,669628362174062;0,458095943321662;1,17367254796006;0,725317242550085;0,337322184771367;0,378279164803317;-0,518974363152803;-0,304522612990217;0,717855534792989;0,0716551259030654;-1,98046629322675;0,471077030609259;0,616737113766263;
-1,38805573944514;1,48021731040126;-0,446758151083309;1,17212211187171;-0,843946671315265;0,0425304612790952;1,04474204278709;0,166170892149897;-0,589003802551751;-0,0785363934683755;-0,791494584395251;-0,800152890870564;-2,51613028049448;-0,796016584807709;-0,534287745679604;0,790140279839455;
-0,161888286280056;-0,355299419095351;-1,48809500226676;0,889074882495854;0,258316666088218;-1,65649042468992;0,0413598900371066;-0,794091882955463;-1,20170818189349;0,217600925928156;1,92135381051561;0,506882046525896;0,304261385672138;0,553028675001587;0,0774876687323643;-1,08238360023689;
-0,850684777389687;-0,498422350710503;1,38006138127189;1,69534416077603;0,129275434601203;-0,491737391786608;-0,820506370063981;-0,319428254116267;-2,11193978051281;-0,364225225950136;-0,0629090885898193;-1,43941063050898;-1,94820441714377;-1,21451661247518;-0,739456246088186;-1,1217045788992;
0,0493581778832889;0,859992573755188;1,48850977217961;0,657266194373968;-0,434589196194762;-0,176750077913871;1,10841376006941;-0,92045612199755;-0,115442815361348;-0,0455424435585743;-0,23076991247477;0,50592024696847;-0,852294306563921;-0,608098241529146;0,816943838669165;0,933987223183707;
0,696759391563332;0,679730593780395;1,6841531448239;-1,15395625635301;0,493116427218073;0,478654441977012;0,92938800583443;-0,545350850579486;-1,78230833180959;0,0788871246116351;0,8439579511744;0,757773678280141;0,87138587901938;-1,31207440234996;-0,264394625100007;-1,02556884389995;
0,382807406316159;1,71548520039625;1,28388237239357;-0,146458763066409;1,7701980943962;0,0545357070062807;-1,0264939962964;-0,165228403718897;0,0998055350826874;-0,736226434174216;0,655319032775586;0,285267537001387;0,243832150443559;0,265493612926054;-1,7567488359673;0,858702944238147;
0,668146929556498;-0,21657748471962;0,618562486567037;-0,825889260853659;0,337920482784504;0,26584883692626;0,781807980403906;-0,635512360868156;0,83504430164687;1,62265383697205;0,132211800439979;-0,667851306946575;-1,58433063896501;-0,433720707654901;0,52830403078887;0,902836050164315;
2,19013600022052;0,497420478317683;1,855711721609;0,568371492573157;-0,132427311012042;-1,09349687755921;0,850760116785013;0,749971590123546;-0,861433522866802;0,559372595771633;-0,677542904329286;-0,209269101980862;-2,33334227934148;1,22237015211933;-1,0867509257439;-0,225493477279898;
-0,0311265784662912;-0,310552246056824;-0,700706794194236;0,909383420031747;-0,317077569973854;-0,205668388484298;-0,21132006532527;-0,669571894939148;1,96520869200726;-0,845833120741961;0,670304505179509;0,400373172883573;-1,18984619926253;0,0204728687094158;0,059328266416751;0,421430979541499;
-0,437538162848683;0,188527238091647;2,44398184321302;-0,48697015786484;1,58492307853025;-0,14358493505937;-0,500086873211976;0,275242457293901;1,17782646642275;0,2620643645225;1,36102242819617;-0,754065382608562;0,88944497427579;-0,829249552383671;0,766831194132643;-1,45279320772844;
0,290488873235159;0,660246846466264;0,167082219623302;-0,342356041162135;0,567510877132722;0,27218601665649;1,06076115761321;0,747160088646456;-0,483810768982838;-2,03663735381321;-1,28628596086537;0,424922874483852;-1,35378146541981;-1,07126895335499;-0,241420734003556;-1,40798964581627;
0,333450185348479;-0,577588648828425;1,44153691513339;0,194847192139826;0,411124676864223;0,684932444075266;-1,24977693739046;1,11671102449671;-0,747953112122045;0,809946771996454;-1,55263420052562;0,832888211531808;1,26533820518124;2,58110225106217;0,114824755404293;0,35201750789444;
-0,983013379026317;0,952456237705313;-0,0561648011476644;-0,0130618793618007;-0,343523483565418;-1,86590900321122;-0,783312583489433;-0,502818914914497;1,66056241540996;0,784928681254795;0,000615624344422397;0,912097942684151;1,30588326558723;-0,348431074486325;1,68179593137589;1,30756782419104;
0,129624124120026;-0,0873320786358875;1,19300484906691;-1,03672283531359;-0,552961836004962;1,94395878606099;-0,433545840351749;1,11636242802752;0,409980519815175;-2,08333459059282;-0,500350102748339;1,22019688000057;0,586144149879988;-0,0274791578666248;0,506859746220419;-0,481305693518195;
-0,505029981630986;-1,47664766751537;0,420807524854643;0,083744338556693;-0,391199289643975;1,676295108767;0,495877442047149;0,243491448841369;0,551872505080273;-1,55392199777319;1,87821869148108;-0,876888400583675;-0,710800448601148;1,72194968444151;-1,80015895858206;-2,11642632552862;
0,483124453515542;-1,23566430232221;-0,620047082686941;0,116351392529856;1,12522316798858;0,270795766954695;0,0530597012952797;0,588004570258923;-0,510884604615924;0,518011239849474;0,0692688445514219;-0,173717587613738;-0,388588366197045;0,286558029168962;-0,0490854537962232;-0,0275880684356099;
0,112165949686393;-1,0497458760289;-0,111306218266524;-0,262294947491906;-0,70624469116719;-0,114371736934295;1,05825253980784;-2,46141999385347;0,858327730049209;-0,0288999519649039;-2,5824307249177;-0,18037753739475;-0,844620396582049;0,930425268414984;0,27937520707102;1,15304921850224;
-0,312635148410905;0,586579891119766;-0,652125775817603;1,575670044679;-0,515083440850815;-0,054126607544508;-1,24412550075534;-1,75878410021387;0,936238931513195;-0,89744566324382;0,303118937462906;-0,286913157358119;0,0721478603098595;-0,285171022102555;0,0234731928583351;0,0267937599032281;
-0,0275568233533312;1,94624076693416;1,95835571620385;-0,473864826495476;-1,31541513652499;0,545562987249741;0,726736978923782;-1,59129868986226;0,16012539486205;0,0569877802843733;-1,00762855882791;0,8582174036417;1,83182757221846;-0,334307471267216;-0,818554504287691;0,252012953296293;
0,606795459269845;0,39508248403502;0,862961602429989;0,992203497403393;-1,56787352790917;-0,652760227921107;1,06468354766851;0,728790038679204;0,309610510970281;-0,277660510255205;-0,131790410530719;1,38742955019571;-0,064789466492863;-0,144425635829197;-0,929097624320842;0,181049460290553;
-0,439940524934051;-0,611481177448567;0,443129717099378;-0,651160696727165;0,324151134361385;0,657741030722404;-0,624499281580209;-0,678736149031156;-0,0374746463497472;-0,515858429523237;0,201248610013661;0,185417049333198;-0,195766002346953;0,97979454960195;-1,14430532202329;-0,494417968214568;
1,03304572939193;-0,361015060062881;0,65405086017302;1,24198734091888;0,616965576757662;-0,147940386787915;-0,632318424352018;1,13760513814758;1,2478158741842;0,0514483183852451;1,60802792144431;-0,997274552942041;1,2896890455498;-0,139231673917764;-0,135872334304907;1,15545128607345;
-0,453263238243934;-0,0968849843162195;0,0654138043699806;1,0943521342641;0,487428097786152;-0,262600689752414;-1,69069173881018;-0,0560483054552471;-1,09501916647144;1,79354518180931;-1,46975799365143;1,21759439397424;0,453159976236337;1,4901628321831;1,01145171425792;0,571855007381729;
-0,557013510647114;1,95161439679902;-0,0279523545135281;1,30541524270566;-0,0185223707028458;0,554419537982974;-1,16783725198915;-0,823288690939581;-0,85668693623382;1,03976923393865;0,675867220448964;-0,0763993856766916;-0,316749095054808;-0,674627553711093;-0,301323918754983;-2,05909775244822;
-0,436952789703784;-1,04093036480773;0,00566364455785804;0,855675824318647;-0,303227744665728;1,29561500409915;0,245349278326081;1,99331963138673;-0,662888231628093;0,35630078362759;-0,358851320740662;1,57171279447882;-0,212702655000396;1,20085892943769;-1,68920524243848;-0,393723339533862;
0,306904435623252;0,183982237726086;-0,433230084144854;1,1712334763339;0,326411997281771;-0,425227115999899;-0,570166836778752;0,364943406570349;-1,06095385399617;1,52796172171749;-1,782381110119;-0,0703050553930838;0,386759623120467;1,61555614426323;-0,720106632242352;-1,62444271147861;
0,357618216486015;-1,04932889701157;-0,10760990275267;-0,166270187886261;-0,97939647259655;-1,00800167851388;2,45775843260347;-0,721622861169265;-0,137304729482267;0,00583183739409938;1,22407399538571;0,630591438764158;0,957612488717677;0,497698091564491;-0,246613846554421;1,01530673636922;
0,489929947360641;1,0699254709899;-1,48115977098653;0,0565351715832102;-0,465863233972094;0,240789045867045;1,48778565582095;0,219503857229821;0,823704759464148;-0,202121043593423;-0,829978511066141;1,60778626564593;0,893189846755646;0,794326941582567;-0,590361224341758;-0,886880035999266;
1,4869832579109;-0,245049217032844;1,3578254758684;0,411052039691992;-0,577363576623625;-0,942001422777328;0,775056121301491;1,05575552027096;-1,14839676735245;-0,958135496308428;0,380802396030881;0,432496121165426;0,309546683002463;0,213188147304124;-0,154824880073234;1,42227049173772;
-1,44144773542678;-1,43661411539233;1,24831771857195;0,216271340207599;0,96556976274907;-0,469677649538387;0,285271195997535;0,91271932026429;-0,841477213879749;-0,0890175688661468;-0,12656298147122;0,788337063772377;-0,357683652371296;-0,0308443542505833;-0,626809312658958;-0,339972620995062;
0,876089512116808;-0,723031596672446;0,202948261917924;0,416522041033351;0,85185024966363;0,0211555052272379;-1,78210132694991;0,238721723801039;0,845065114979474;-0,26495084143002;1,3610894863431;1,49564777212669;0,497326374238301;0,467245825868515;1,58928544168661;-0,65212626445001;
1,63894626734853;-1,54565400011409;-0,771110200109724;-1,22923905217576;-0,400621580668522;-1,11544345769444;-0,168406587051169;0,408380357665824;-0,115909158126195;0,331269870887214;0,742859904805405;0,834227123570914;-0,605981192948867;-0,361183921548305;-0,752906436259912;1,01584238711101;
2,30562691671968;-0,481470485702894;0,92891939955184;-0,833784638536753;0,0557647294248798;-0,0384515502195704;0,0697760536384535;0,868519813943373;-1,27650245189338;-0,539913077090112;0,234900595147599;-0,744563964624175;0,662279256905472;0,765313380057588;-0,581074514232183;0,62823625417496;
0,0455948477336013;0,648347128484746;-0,85805577887071;-0,733559040202556;-0,240085391909938;-2,00496566012323;0,370295363802513;-1,46804785110277;-0,123342637351163;-1,63234343466476;-1,10163768846995;0,0693246391719206;2,28247220891843;1,45514282518743;0,241542486650407;0,16717489349494;
-0,768943842379463;-0,282265881641337;0,910637267338146;-0,441995391297751;0,161487779458062;0,694646149148341;-0,0730386191808375;-0,844237512095888;0,105262576468175;1,70780064589008;-1,07538267121276;-0,66072828810252;-1,4720872300911;-0,333827749604774;0,697460357710799;0,456144634922821;
-0,968454100798977;-0,056838090639342;0,360942123947688;-0,165374272859577;-1,09698484291249;-0,90894505758971;-0,0532965477835138;0,800189610849201;-0,51534969363809;1,16589081482874;-1,65068427264561;-0,0174316458747069;2,09230105524607;-0,622449118224202;0,121506525884935;-0,421774803206204;
2,17060345804754;1,10873093365291;-0,493971228717103;-0,816045289220538;-0,305260435037305;-0,777708082807658;0,166242780725333;-0,676579402236676;-0,670578922980894;-0,222894511746138;1,09124790865236;-1,21891325596801;-0,00412316265510389;-0,511365969705897;0,662563074764671;0,380988513432292;
-0,175577983117089;-0,805303113403342;-2,57502059430089;-0,349430880832914;-0,135002942712283;-1,59040609658701;0,0355029393653205;0,0244770881190947;-0,843394096218705;1,59060715344137;-0,170486254669606;0,0463944668983152;-0,0436367760417322;-0,966883637769938;1,01350911576894;-0,184489163897901;
0,626350543156538;0,149573150009838;0,151536659002639;-0,286196078911187;0,240199653984226;0,668895874060358;0,0780150884075106;-0,325964412973333;-0,365689668254894;-2,48301512609877;-0,122572226411294;-0,782868765735716;-1,50562771798833;0,466480932183085;1,08987750569563;-1,03165381820709;
1,47307803885619;-0,348594152863981;-1,25190671763272;-0,191830630252415;2,08926199018461;-1,69413781522651;0,494727097250334;-0,183692489264155;0,543520590526274;-0,862346286416002;-0,847895448125017;2,73899124624394;0,227464501486978;-0,368711598723645;1,12613654047556;-1,34296713601831;
0,775038585110229;-0,148837530757833;1,02328475979539;0,523542632320527;0,0727912649644181;-1,0189024718168;-1,26867081224825;1,46772322772949;1,17851737996716;0,871245721811272;-0,777520808498851;-0,815520352822834;-1,58965993161807;0,192740218923306;1,63486743540639;-1,46810452908451;
0,180567041320957;-0,265080887530969;-2,17047025198634;-0,087188992738536;0,380050755058329;-1,61452166634104;0,22594313235499;0,174377474434754;-2,30893084976337;-0,409515504029698;0,717782245537465;0,953073129015326;0,754980075800839;-1,46427704418482;-1,39587272454827;-2,23486739113991;
-1,2094728815357;-0,101780573683885;0,462128227246206;-2,93391974687135;0,692290469457348;1,02952879691428;0,548739166899813;0,0551540089841121;-0,386901200336481;0,0343029368614328;2,10866668664784;-0,213743271844762;-0,867047608143041;-1,77265725750256;0,92854113562662;-1,31305874362036;
0,702226401215389;0,677027182498185;-1,25901825137632;-1,73638570127346;0,815197795440487;-0,817475558091015;-0,930933712359601;0,641131930757869;0,984361176772723;-0,17773597472578;-0,515139405748664;-0,828644200841446;0,301329418795378;-0,239120776237156;1,58784772725807;1,27012946196603;
-0,473502294690501;0,618896550880911;-0,848961147533042;0,364672504580595;0,96459868030047;-0,82283682985752;0,900691537218618;-0,0737590684993333;-1,26427864582415;2,24190253191357;-1,20178207320154;-1,81927544976221;-0,351205126024073;-0,315107171419186;1,50048875467092;0,850599848686324;
-0,00192453862423938;-0,382671814513314;0,218822822782155;-0,355311819133802;-0,961654712515886;0,115764435837116;-0,374661670121834;-1,65530695418723;-0,822738534478614;0,229408167695245;1,11568814389004;0,33570413498519;0,0719625234505517;0,532437794290562;-1,10019052799588;0,521987977589475;
0,586144767559833;0,560935290442258;0,655774969769918;0,89057829418252;0,18922451810093;0,562806828562721;-0,876475840902277;-0,0975425071277009;0,238690977785794;0,493956195357377;0,193422908137096;-1,77380641334995;-0,247861110997001;-0,344371384230627;-0,553578476555342;-1,3283682854073;
-1,10135957426628;-0,326893660426321;0,356568379943704;1,74458162624976;1,53572908232763;0,70547883557737;-0,493333316450273;-0,8016419833976;0,929325624190587;0,37288852577247;1,80517940783999;-0,888202850650581;-0,379963274065927;-0,479856262882712;-0,694230800665878;1,3760801429077;
-0,395636636941017;0,740920593241166;1,86930661689839;0,259749898681376;1,08891394023961;1,17105256975816;0,113118257112553;-0,0294131068963786;0,0472717048665471;0,293932664786152;2,32153563543148;-0,84755564574563;-0,2577949532378;0,716342939714333;1,26241520103157;-0,449038084723145;
0,348146370813142;-0,121905837821726;-0,179406689617566;-0,696977157371193;1,15739944658093;-0,62403868710812;1,81787710172185;1,70847256565588;-0,65763347015839;0,196014490127466;-0,131871423112556;0,453058649887962;-0,613319292084848;1,66777989315792;-2,42440690462021;-0,0505058457494354;
-0,263657752621521;1,08867356585958;-0,487932142590889;0,362246414470775;0,54730344431581;-0,44872867201774;-0,111138594196233;-0,796528568985761;0,619146718634659;-1,01858322752862;1,49533281353919;-0,12865841762413;-0,152753897229717;-1,48045686759067;-0,913675557230136;-0,668564461233356;
-1,23317936175673;-0,314912173014292;-0,446727999868581;-0,891784481965857;-0,184779242262284;-1,02197969676833;0,473647003393003;0,297831204709644;-0,00773389896687051;-0,775019524885942;1,21767964946121;-0,807412195455864;0,0659581627891459;-1,3201714952094;0,213677643562144;1,17126066748403;
1,39216378361264;-0,988621596385191;-0,318305567341476;-0,58668540089958;-0,638374222722985;-0,317303699781633;0,118596643942302;-0,00866597116233369;0,195597379779376;-0,772136048255076;-1,66988459203594;1,19073607999329;1,45248194138903;0,671402759857686;-1,11860065650249;-2,13875579335448;
0,079639751451314;-1,27186624132195;4,01453438162136;0,383426864512901;-0,722602036392177;0,786419475300614;-1,12769299029129;-2,30594488504658;-0,826369512753265;-0,0707896325511987;1,48570773758105;-0,0473633995166777;0,47456829810982;0,107155857403633;0,268393010226184;-0,98648987242211;
0,396990321348691;1,35584870098173;0,44363293596913;-0,783262098572032;-2,49403778707612;0,714874848872721;-0,369184116387975;0,255101726548125;-1,32140360274665;-0,596123801994008;-0,0853444509952791;1,15399428905232;-1,02598844487882;-0,294013389982679;0,160864427299242;0,715721528734241;
0,854695855743581;0,520723754580895;-0,73143225456611;0,197297293452011;1,41504031060547;-0,958117734186574;-0,219664612506283;-0,10247640376085;1,10086999241848;0,373320954212004;-0,662124041080393;2,10000190778514;0,300303288461957;-0,710060711768523;-1,83524236741938;-0,104339056803363;
-0,364301825427422;1,95261801475272;-0,935866262289615;0,85480688900574;0,772874268092368;-0,45595452126982;-2,16499222501229;0,11629312325096;0,0798326376088556;-1,44073689605352;0,985451056766748;-1,08600631653344;1,50876700781566;-0,577390886774573;1,63138541596797;-0,348441038707913;
-0,159969338871499;0,713678314241016;-1,19636275115049;0,229330888829998;-0,884412610339047;0,468065249547869;-0,16280934485615;-1,55471432987901;-0,118179774887036;1,76837557472731;0,324369793522985;0,0665717523842574;1,23562428505842;0,408943168604717;0,86978267357247;1,12295277225079;
-0,344401241837769;0,00125939452101857;-2,14161400863566;0,251399960261655;-0,863378658391243;-0,357200365192385;0,497906515268573;-1,29060231490108;-0,280531579750682;-0,68336503495099;1,62852301533993;0,385466206026028;0,844144964803519;1,6512715793191;0,0925549746068523;2,12037643483636;
0,974971753709682;-0,624627345833159;-1,14620257562498;0,908420900676196;-0,212063353217221;-0,514519275411019;0,708192520224167;0,774702511563808;0,0295672666845486;-1,83040609009793;0,65359469377558;-1,79543117247323;-0,288720500676078;-0,59754456342996;0,131112123673977;0,30074672671648;
