-0,0448923927529855;1,91240100151546;1,96787604369421;-0,46902030208443;-1,32876211891811;0,544823090335988;0,719249010168543;-1,59277285082377;0,171933885492573;0,04520767173764;
-1,02222197161573;0,847506844086713;1,81597960717607;-0,330282876380953;-0,832888849814884;0,240121857701109;0,59085189468553;0,379284302857007;0,892568704703548;0,982713949063388;
-1,56610454614115;-0,664745473416574;1,06028664775041;0,724781180665955;0,29461633987981;-0,276730575556135;-0,144641554458686;1,38705744217095;-0,0776823744850217;-0,153955250219477;
-0,942392186870123;0,172431964979427;-0,450573631805498;-0,628808571898184;0,424994872554493;-0,646749681101724;0,325933439284654;0,658738559070977;-0,600615196530938;-0,695388700072725;
-0,0485302128543294;-0,503609352469166;0,179247797203062;0,183149427845482;-0,231501570476568;0,990017061982965;-1,14743939357966;-0,504232839728449;1,04125848812572;-0,391482295931122;
0,652561926246671;1,2359013883282;0,613293814984496;-0,147483990826316;-0,654064235728358;1,14372475870309;1,2418427755073;0,0561661935474211;1,61277672265272;-1,01863917724801;
1,27967155419706;-0,148015991192652;-0,141940986328024;1,14455258515619;-0,475092095212643;-0,112659241072764;0,0733076661364142;1,09625959427141;0,501460632268479;-0,277750260274776;
-1,69839859593221;-0,0697155503242588;-1,10255799487468;1,79820085124812;-1,4954588724324;1,21467777758656;0,439070262999732;1,48792424656108;1,01973621348454;0,549924538959572;
-0,574596313994485;1,93513829348892;-0,0368067479099243;1,30704839116562;-0,0320854949457246;0,558351898776184;-1,16527446834416;-0,832183502418671;-0,83473149874364;1,03947141752777;
0,649139980939657;-0,0749881989093201;-0,336562746052523;-0,670954128774832;-0,314953820653016;-2,06827930938968;-0,448267359530583;-1,06579683127549;0,041895491370237;0,849500000612461;
-0,305707779538074;1,28860287635549;0,239768539775008;1,99733493291152;-0,670530855174613;0,371130225579609;-0,374025164574391;1,56728960454184;-0,202504281928794;1,17904811290818;
-1,69114447599554;-0,410575275247883;0,297452971241846;0,162790793262836;-0,41653034509691;1,17337675868298;0,322631883559535;-0,425093069586338;-0,576742359655687;0,344466954709118;
-1,06179690172886;1,53069212713559;-1,80358921801192;-0,0772263363850325;0,383723971606396;1,61178029330786;-0,723421486491822;-1,63278623688654;0,343513312715523;-1,0839260618807;
-0,105044518449396;-0,16857800536229;-0,987008627837316;-1,00835406003556;2,45307353057967;-0,725558231114981;-0,136371710898292;0,0186705962995723;1,2159771022292;0,619703228405775;
0,951731454682765;0,501093555676855;-0,252713116037281;1,01288696839328;0,47848938244588;1,05241777261844;-1,48831581998318;0,0586134516703466;-0,456760977919837;0,235850708706891;
1,48801609877572;0,215314947181994;0,818285370919445;-0,195441775058271;-0,840463328730874;1,60893621984396;0,890509824658059;0,799211137259136;-0,587797618403619;-0,90275539331677;
1,49220089156733;-0,267795761404276;1,36787364102477;0,414994684988883;-0,579398682653152;-0,941835231430162;0,775157797599787;1,04503118324061;-1,14828723106687;-0,967922861923622;
0,373895765415938;0,422281577473091;0,295985963448757;0,214581951625228;-0,155689988821095;1,42192358818063;-1,44456756347021;-1,44494096918402;1,24663568403414;0,209314950761987;
0,963718162174875;-0,470473640552447;0,286494541846773;0,90391560030083;-0,845066383901732;-0,0909142247849524;-0,13872125573026;0,788564374060911;-0,366608541220929;-0,0377541828843681;
-0,63296484704488;-0,3409431433921;0,8678719476523;-0,74624289863872;0,196911294777743;0,422866634078587;0,849765478200389;0,0212198536022008;-1,77755360761952;0,240194628742005;
0,836856298630517;-0,264967043034802;1,35905444463441;1,50038478784534;0,494179157167841;0,479940974641025;1,5833820521542;-0,668654908663074;1,64925671409612;-1,57996292224421;
-0,779404941702983;-1,22999942055952;-0,406054531977243;-1,11410628669883;-0,17388604786228;0,410956301747739;-0,121484993602796;0,328434705316922;0,746212876500211;0,824463212161133;
-0,623260037624645;-0,373066309035489;-0,765302287509551;1,00946341736345;2,30530952707767;-0,482392735330897;0,925148787161327;-0,833693791290222;0,0569609619250086;-0,0495929708329608;
0,0687845621329254;0,864448884896014;-1,28590858991508;-0,541619480800122;0,22097240787177;-0,739028288225097;0,640751330347981;0,772309972026375;-0,568636864933489;0,611593098938642;
0,0372927109275988;0,630785088724065;-0,869909219268574;-0,733235877880953;-0,24333677413185;-2,00172802449251;0,365170773967136;-1,47169052162588;-0,109618555321454;-1,62716566240992;
-1,12036060160526;0,056929290324487;2,28328545090966;1,45606669713387;0,226635743907042;0,161554725767294;-0,780569805071653;-0,307838970342322;0,951234871920852;-0,455263569324922;
0,153394789929825;0,686665521747942;-0,0818861090515102;-0,847780279320128;0,0978237447387598;1,7090513089722;-1,09542483371084;-0,666534604176267;-1,44149602775571;-0,351119007073709;
0,694281726019959;0,44193134496629;-0,98154859409113;-0,0644187808419916;0,352018281980172;-0,167985880294922;-1,10954427755208;-0,909660758952701;-0,0275053271284067;0,785861645966384;
-0,519015110563324;1,16104981183921;-1,67451809805875;-0,0176933522598312;2,08464840367287;-0,621171418739888;0,121111972209909;-0,424531144613314;2,2031781796253;1,10458570758039;
-0,495557749840364;-0,811751990995409;-0,309524150246652;-0,777478767888071;0,154230081823167;-0,657206279310378;-0,673372929951777;-0,222908177461266;1,12584383791236;-1,22602160806034;
-0,00925627437942003;-0,52109835037871;0,663636131191892;0,382750770547574;-0,192456788286769;-0,803504560692566;-2,5625712982761;-0,347801882588175;-0,0991487682640135;-1,60431178988836;
0,0319041023262295;0,0346901774427105;-0,846339702122137;1,59412399733959;-0,1768887817661;0,0457240235869168;-0,0506835674897367;-0,968855627625453;1,03799988719334;-0,197128744394879;
0,623209688739376;0,127350885021753;0,13903527334506;-0,284434364747505;0,224467424245252;0,671140854680813;0,0759605641997514;-0,317982451630183;-0,340488481551866;-2,48210565973278;
-0,132212528547733;-0,787317269611409;-1,51860528371724;0,474075642770945;1,07823726473611;-1,03539293504863;1,47062808976416;-0,345529704075825;-1,22357111006506;-0,199293890304308;
2,08562194824671;-1,69256682680523;0,482644550877992;-0,180616990803037;0,533596973847748;-0,861051916860117;-0,851743875999685;2,73766520678798;0,25789007185164;-0,375511136116431;
1,1254778960754;-1,36038004498499;0,77111377290794;-0,145457838355767;1,03287548252582;0,52544143195993;0,0660878723173769;-1,02075206954525;-1,25765493669685;1,46116690998518;
1,18149059435947;0,864915880429324;-0,77785862825326;-0,818141318074491;-1,59788030873129;0,190285016376438;1,62923638608358;-1,47750113897948;0,188564551853889;-0,293032033677406;
-2,18132045715084;-0,0997475512925138;0,362961261800201;-1,61388417423218;0,219476390461766;0,178473063902579;-2,31016769977046;-0,400537419194616;0,723913570051388;0,939513871288669;
0,754101489127165;-1,46487106712378;-1,40483966448725;-2,24030108306352;-1,22046693133132;-0,0964661972622743;0,460555244081314;-2,93704166230696;0,711550433233082;1,021456825605;
0,546749487434161;0,0599052978794595;-0,392291093832808;0,0397906823510237;2,10848261520592;-0,2139251644132;-0,863439497972533;-1,774809727271;0,949518102667553;-1,31862800734126;
0,700506241894061;0,672779714793955;-1,24674231963087;-1,73706960859725;0,809809177087085;-0,819079494156396;-0,94176481750363;0,646664034224424;1,00541431091939;-0,179874724282486;
-0,513817917225068;-0,839891778949966;0,305202745747908;-0,242745230791572;1,58451252241118;1,26620199625219;-0,481929389030447;0,605152757928762;-0,83181899677389;0,355952005923145;
0,961894973646394;-0,833027178156602;0,890550897582132;-0,0710464961083835;-1,26525906998326;2,25418244516864;-1,21063927111417;-1,81956828585587;-0,335824796349705;-0,324957648344345;
1,49296164482854;0,848796330030108;-0,0144565482446365;-0,374446377072049;0,227593188051242;-0,35172321215611;-0,961579098873921;0,115626843828329;-0,357383102412853;-1,66002984293893;
-0,827247476406791;0,238115258174328;1,111772527598;0,337576768654756;0,0713883372401502;0,5319382020864;-1,0984449638228;0,519377008394958;0,598719667048444;0,559603846722896;
0,665208025554598;0,887421833553622;0,18330227958565;0,56521602767965;-0,882555916949389;-0,0875785724636108;0,231776059371431;0,492618526905016;0,212109450210042;-1,78542754981996;
-0,263106699188904;-0,343401903271215;-0,558210041279963;-1,33169720167476;-1,10636498980704;-0,338984923248668;0,35769711277531;1,74150904192628;1,55195583891569;0,697589171721905;
-0,495439377476317;-0,810027028144969;0,913628055948278;0,380568805454715;1,80320487924581;-0,885928001108196;-0,385890094051918;-0,475869710769135;-0,675522658681552;1,36636903961421;
-0,403475345252941;0,747599778052847;1,8563296118804;0,266056348557486;1,08390048425975;1,17642838759348;0,10605888982046;-0,0233789495227921;0,066834766305149;0,284153589204711;
2,32570333533489;-0,841737204377335;-0,277390248710773;0,726231692995922;1,26269853450664;-0,455782634573189;0,346645817662235;-0,123774244451035;-0,160738339377053;-0,695781800411459;
1,14699320427841;-0,634630082894665;1,81575540441992;1,71398162132793;-0,67050435146836;0,192471748535285;-0,141890243842722;0,453154657554458;-0,593287963314512;1,67482775556623;
-2,4388674889778;-0,0735105967829746;-0,271207815130414;1,08180733044415;-0,499070640792775;0,35938790542892;0,543119118521239;-0,449995284132273;-0,0725096971167399;-0,809640770997822;
0,616646035785764;-1,02732638766485;1,48853506133903;-0,124553114847394;-0,171948124283885;-1,47805807400404;-0,923740515689386;-0,676880372956342;-1,20891111387865;-0,325556111534459;
-0,451585388283213;-0,897590530324661;-0,193965009974431;-1,02350407179235;0,464012570310844;0,299299842871446;-0,0105104846486361;-0,767464665123989;1,2566732464905;-0,813125157759723;
0,0623113049901912;-1,32181878503194;0,202513336971475;1,17081701676822;1,38577886068628;-1,00079374161227;-0,31631840287584;-0,589497823640675;-0,606135796927927;-0,317805230186343;
0,114664207218545;-0,0185087538876114;0,196873496745057;-0,767393335791503;-1,6871153695444;1,19527237632924;1,44749298564669;0,676049076522464;-1,08420967902875;-2,1512340020231;
0,0680596889229173;-1,30487799470817;4,01746629472781;0,384187141308247;-0,721508814777096;0,787919943011002;-1,13030650148231;-2,31801154874933;-0,79246332764762;-0,0664803395853086;
1,48397980369448;-0,0590214550786913;0,47153604462746;0,109195024485719;0,25677379427721;-0,989506453109513;0,384220692795239;1,33378531306944;0,480403878864638;-0,782881032567368;
-2,49542631260205;0,711079300970868;-0,378325477959566;0,256195546833961;-1,33557055393492;-0,592296740598546;-0,0988185604580214;1,15224283539598;-1,00770309886994;-0,293346960120624;
0,154756940886144;0,70522875484411;0,835628760544127;0,505274941799725;-0,723040826217176;0,199745825876342;1,41941878386558;-0,959360300374626;-0,180941734062922;-0,107225374922333;
1,09405912101795;0,365735179060785;-0,671086018853097;2,09965313632142;0,272772359664046;-0,706819011933532;-1,84118961822234;-0,113362164191318;-0,342338968427478;1,92759550575376;
-0,941812701235786;0,84669269160229;0,778360582022433;-0,455748661586714;-2,1630844314082;0,107641892693655;0,0766494016416011;-1,43464727136935;0,992297974027575;-1,09718304157337;
1,4826640748544;-0,583271685521143;1,62119834461498;-0,35887927115088;-0,174404302757823;0,688128878477199;-1,19605346722404;0,233592292386136;-0,86936562059876;0,462224044037561;
-0,173915354409023;-1,56231555014373;-0,132382676657968;1,77268929019371;0,306447569885937;0,063238640967116;1,21921245121781;0,411819950763228;0,890766921361065;1,10383324026196;
-0,357869005376119;-0,0202796704519476;-2,14198088602526;0,255926724563178;-0,865371399525036;-0,359426668567307;0,492644414472937;-1,2980639318769;-0,255181856635651;-0,682809696605504;
1,61086838583343;0,371478788373913;0,823302074790727;1,65496986869894;0,0857859166546317;2,10347052685486;0,961279490228462;-0,643711992480713;-1,12256500358868;0,908920013662203;
-0,215877886112501;-0,523943294322575;0,712622529056977;0,764626131686578;0,027922722736481;-1,82714380678323;0,635281757098059;-1,80087571117624;-0,287321562027763;-0,593205441734129;
0,123399618111543;0,279558749102935;-0,24067599210451;-0,168706486580356;-0,912904504867389;1,27252773875048;1,91898894310118;1,05525092135786;0,192046040583979;0,358491280061014;
-0,961630780779918;-0,616001437811064;1,30273296412388;0,60362809240192;-2,52199670320249;-0,208732881861061;-3,27973172831289;-0,591535812262229;-0,270193183536245;-0,642434216613108;
1,0475538701502;1,04520311923788;-0,0114986650394651;0,797113618186376;-0,374912022107697;2,02296561601332;0,422104890721068;-0,840055019099062;0,949979317902644;0,0957097342024935;
-2,03011553035254;-0,843871670170827;0,289061022925682;1,8881994119033;-0,0885163669263734;-0,424460608925497;-0,57694466397403;0,902838012004437;-0,802412560724708;1,60935664389657;
-0,685612460548603;1,17566062609824;-0,816043364756391;-1,72017650250685;-0,574005382780887;-1,62396492408958;0,468078318406845;-0,526348110029762;-0,896648693762028;1,45962663889978;
0,274695473882347;-1,09448903678527;0,965049116374436;-0,181871358999125;-1,34548344275296;0,283651591021317;0,133614923075256;0,096548291365038;0,910775182146546;1,71732314066162;
-0,239926026825665;0,877866497671675;-0,257126077150123;1,15245530145196;0,300143212243329;-0,351980770620301;-0,230318770155561;1,2630926367888;0,279165091266066;0,00664278692450416;
1,09581465903677;-1,40197644791795;-0,298190689862458;0,134779901589004;1,16589451584316;1,66126767757744;0,735781061614074;0,230812812140751;0,27052183914313;-0,396660499331314;
1,17274099295655;-0,626629927892952;0,0194925378203205;-0,360518483736924;-0,242176404907614;-0,978735281077882;-0,710157611471366;2,51636554940504;-0,455900558199867;-0,133839552021151;
-0,0377072990244809;1,92881862875675;1,95809258465978;-0,486940510901225;-1,3174875568089;0,545271756955116;0,724373268291054;-1,59706010635611;0,149415590277739;0,0609934539806456;-1,01812560387843;0,856616132023846;1,81208223134978;-0,333571816550292;-0,831461932349074;0,242496481185768;
0,594993745424471;0,385014779335416;0,870282322213271;0,981278966330744;-1,56314845761557;-0,653979789106505;1,06655889356901;0,720147358355267;0,298657448685159;-0,276140365119622;-0,141675374468267;1,38606888171665;-0,0907396618054463;-0,144432135758943;-0,942775049199165;0,172932161063236;
-0,448345163550036;-0,619580526094535;0,432120908488201;-0,667582539085659;0,328052304953652;0,657462786124713;-0,618083450932521;-0,695597653859071;-0,0455328403782426;-0,507334549329274;0,181136006436493;0,183698212459917;-0,232400941055519;0,986905292037588;-1,15337371170646;-0,50510139649789;
1,02153193062217;-0,372682392931194;0,646542981169344;1,22909821655252;0,6106041739966;-0,14904423946503;-0,64051442850764;1,13642947851876;1,2404897010144;0,0580596770666763;1,59138726921488;-1,0020128569468;1,27060388153821;-0,140108873810778;-0,152782504828493;1,1426799651454;
-0,466746097741634;-0,101735481695715;0,0662484734018557;1,08086683189637;0,48535505186581;-0,263677307204128;-1,69528454455149;-0,0629892739111601;-1,10157775923313;1,79943729946656;-1,4869360918649;1,2113912309444;0,43081358437035;1,48673780341904;0,997226745290928;0,560890039194825;
-0,571144117546204;1,94018341644236;-0,0414074316652174;1,29093436410781;-0,0209023470029794;0,554121337237077;-1,16314921501559;-0,838486967894081;-0,86063891904789;1,0481850113721;0,655836178963846;-0,0797269558883779;-0,335282495287043;-0,67287820847289;-0,312255012506353;-2,07058771588473;
-0,44787872529533;-1,05984177396751;0,0132456720825498;0,838800494148264;-0,30622457688696;1,29575327490818;0,236501410206244;1,99053986492897;-0,666823793167701;0,36879964451024;-0,374663323312893;1,56855300654168;-0,211642613070376;1,19406099656807;-1,70313667217117;-0,401256048529427;
0,293751237928748;0,169389955541076;-0,415569365702139;1,15130421114915;0,321299798053503;-0,425826745112613;-0,577876420527262;0,35240270773082;-1,06473743650011;1,54352020774851;-1,79976989712316;-0,0772059273154568;0,380796932747563;1,60705758377697;-0,73352280318152;-1,63449997355263;
0,343371163287738;-1,05652987162972;-0,110206716060117;-0,182079758592448;-0,984243833967249;-1,00942729492485;2,46147758367035;-0,734465016295631;-0,140349096631569;0,0181839471906284;1,20661812265348;0,627828610012791;0,946398054624437;0,49826917190584;-0,259268309619668;1,01175283297242;
0,483020117885386;1,06255782025834;-1,49965587621595;0,0429688011437842;-0,467473965311358;0,24002784325286;1,49073426286104;0,214977548117511;0,813826491392827;-0,196575720302018;-0,839358428189006;1,6084391438122;0,882563691224845;0,80145400579176;-0,603756962471821;-0,895176307319334;
1,49074854145657;-0,25623520577377;1,36267929081133;0,408190624059643;-0,578384008225678;-0,944565858800994;0,774925548188301;1,04187939813839;-1,15298046625425;-0,95791983588616;0,378795208402134;0,434098564460943;0,307104674799074;0,210201380969736;-0,15818651676104;1,41824892987823;
-1,44716097499872;-1,44096815829402;1,23898374203599;0,215378924228062;0,971435833924011;-0,472135575515996;0,290535522362481;0,898536114141788;-0,845470804911604;-0,0940374516452195;-0,138868087488769;0,790156773007256;-0,372239264886777;-0,0336974444747487;-0,629755760261799;-0,346403651312796;
0,871087463828174;-0,74101420583188;0,193374818779851;0,414701050211626;0,847238560802314;0,0184882053175668;-1,78623232712884;0,23542242046262;0,837063329112698;-0,259611298013895;1,35845856996506;1,50030867237137;0,489388891668587;0,474858741183133;1,58359264136978;-0,665500626052224;
1,64246079647821;-1,55697196876272;-0,783276392307138;-1,22513567683902;-0,407558110503829;-1,11818983111872;-0,171263713590416;0,407162181152821;-0,122610634439257;0,332416871511566;0,738937877055211;0,835025224206171;-0,6274632523246;-0,365546651526312;-0,761478859219188;1,00765660971755;
2,30489195179938;-0,474960499958738;0,9184112270101;-0,83301263375774;0,0507879275153492;-0,0404534729861621;0,0763205178879596;0,861184802109551;-1,28144849806411;-0,541909225725482;0,219171587938311;-0,74443410373073;0,634288573088645;0,771832039950754;-0,586522386770937;0,620629067864999;
0,0393280663276743;0,625800461755508;-0,868117749936373;-0,740882261758368;-0,246511793130095;-2,00739833368512;0,363088033422904;-1,47467352839752;-0,123621230250014;-1,62601087606077;-1,11192584224788;0,070197978814694;2,28535547279204;1,45257578532442;0,236900780121704;0,162365018006854;
-0,775862897247134;-0,303300431893409;0,913191873012625;-0,448347880804079;0,156573199544689;0,693512761753505;-0,0833020111331729;-0,85382026672736;0,105926119664086;1,71277881271661;-1,08948319438437;-0,664309120235976;-1,46800640202813;-0,342189659457757;0,693220322831963;0,452423960131196;
-0,973825548701367;-0,0601916549080328;0,357066253403713;-0,172689769557674;-1,10610636282163;-0,910942097126384;-0,051396215932529;0,786616582653296;-0,515913094610305;1,16249456830748;-1,66985951045247;-0,0172232871350962;2,08791827482868;-0,623986465331186;0,122310829539485;-0,424806178475236;
2,1704840622715;1,12299995620363;-0,49568473929801;-0,815802893556613;-0,304188498519238;-0,78010030656902;0,164508184543996;-0,66103379213452;-0,672075197704664;-0,222148776459069;1,09374912704894;-1,2209249204823;-0,0131457879391215;-0,5141153442778;0,660315751758861;0,381092448993995;
-0,181514890191374;-0,79368312505194;-2,56306606850038;-0,347857426030837;-0,134000216553685;-1,59327498784164;0,0334606124181552;0,0402631804263492;-0,847523973136749;1,59207902473786;-0,16956729369287;0,0450274117899864;-0,0546147507751329;-0,969685052175986;1,00624713654055;-0,185919002029746;
0,622508849834383;0,141577119625339;0,14186328297428;-0,291248522387935;0,23369838636848;0,667453463399745;0,0777087793238432;-0,321123310614239;-0,368007525346119;-2,47427432362008;-0,131526219452166;-0,783488805760689;-1,51096343942162;0,471812536405505;1,08663736703542;-1,03845508147651;
1,47242756786679;-0,342456410517654;-1,26155796049933;-0,196594236767895;2,08790222817041;-1,69665946139315;0,487641877903909;-0,185787643380328;0,542480710506831;-0,861919751047628;-0,84944233430701;2,73973030050287;0,228401189684671;-0,370987193852126;1,12278945791228;-1,35214547642307;
0,768597673114908;-0,142496652785682;1,03784602428158;0,516681559518155;0,0657430081761054;-1,0204838516977;-1,27733427756451;1,46962303802575;1,17668855031472;0,874822216916981;-0,778378995816697;-0,81932836222301;-1,59914422581716;0,187944253758512;1,62749519608152;-1,47759872131942;
0,171256544178357;-0,267043962952118;-2,18597021356773;-0,0893337245426552;0,371471378122845;-1,61743582325395;0,227924149662043;0,174844731802869;-2,31106348607411;-0,400377023774555;0,710141131351339;0,951166319678955;0,746187620006883;-1,46255170743703;-1,40104519558885;-2,24166386835639;
-1,21421199138434;-0,0869708562417462;0,456603450834714;-2,93799135463716;0,691936922308494;1,02816164822529;0,548199461265073;0,0577263255454611;-0,38732200129251;0,0375707639311776;2,1125830589135;-0,214555957792609;-0,872196965184691;-1,77549048306948;0,925429964804915;-1,3127589470471;
0,705317484118627;0,677257565468448;-1,25193403024826;-1,74103361397604;0,812674721780948;-0,81837968915173;-0,940407901238563;0,649799569521385;0,985450717686412;-0,173169170089059;-0,514779209758867;-0,832278717048581;0,304767995703385;-0,245385313241843;1,5811720800569;1,26530026210176;
-0,476947241972785;0,605411986469592;-0,853165823405984;0,361956640406318;0,963640230755571;-0,823657709432292;0,901425818589208;-0,0753919252076726;-1,26445655327146;2,25266578365679;-1,21129349897662;-1,81941228490742;-0,352142629970115;-0,315956942885555;1,49269000800163;0,849291680746765;
-0,00119250747256622;-0,379045491351419;0,222280279189691;-0,356605927258518;-0,961838355180651;0,113326452189422;-0,37803339910822;-1,65108083928717;-0,823684451400915;0,235538245144088;1,11940959007836;0,334792699025716;0,070496258360504;0,530275882665814;-1,10253794236938;0,519509628646251;
0,582536216387608;0,562272243326802;0,663826322821495;0,886541001603791;0,18340171100235;0,563190675691556;-0,87858076144433;-0,0910382259042199;0,23617318538842;0,495037683424859;0,19354788448668;-1,77649035683526;-0,262045320988562;-0,336950738073987;-0,560303831738363;-1,33372537877268;
-1,09938193589601;-0,341844234688348;0,354909493129551;1,73758801107945;1,53369208780292;0,706080952130026;-0,491892051052837;-0,802840438623472;0,926574526661187;0,375337800658844;1,80397655711851;-0,889870884054469;-0,386882476455433;-0,47295466381466;-0,69690416133084;1,37611848089276;
-0,396551848482453;0,744925891766244;1,85875982263639;0,261441514134069;1,08324390200571;1,17113577214972;0,106894083253964;-0,0213782511666923;0,0406652825582172;0,294986148672214;2,326288327291;-0,847237163974535;-0,268144844452498;0,722950112500087;1,25461494234775;-0,459608356156848;
0,349655660309301;-0,122412298541948;-0,189786433950996;-0,695264124966855;1,1547874929164;-0,624924119776493;1,81451707607476;1,71220041125818;-0,663204271799081;0,193375039722318;-0,137932696259155;0,454748857894349;-0,633355148788325;1,68037083881217;-2,43667087619988;-0,0663867636539536;
-0,267198331706808;1,07924773590149;-0,501208595846583;0,359704003635154;0,546431910617882;-0,451790109848047;-0,106773608080306;-0,803563197739216;0,617457113920435;-1,01542446662869;1,49695037827444;-0,123455489060358;-0,168984715969441;-1,47316747947204;-0,922153032185509;-0,677482198451313;
-1,23391265195269;-0,323038924838186;-0,452417800272873;-0,899807075901514;-0,189853765100256;-1,02264902730236;0,471660270168634;0,29765929868035;-0,00627776041934426;-0,76886519067164;1,21995459437043;-0,810721624042284;0,0636746479628575;-1,32033153309871;0,20761375807318;1,17116237531916;
1,39464845564;-1,00036663070613;-0,315964440931394;-0,595314122216907;-0,642477930879388;-0,317378394114086;0,121888636544994;-0,0131558597992325;0,196798892369287;-0,769832959117529;-1,68073096306353;1,19277107600568;1,44980457902544;0,678086046505997;-1,12636850509683;-2,14363188498511;
0,0779207470915099;-1,29726226753353;4,00452676601225;0,378201783615388;-0,717951045484362;0,786507270922778;-1,12737343867903;-2,32092823058759;-0,825330458831728;-0,0601317721668338;1,4839651918825;-0,0473085310530724;0,479254112846712;0,108952667086359;0,256507371669269;-0,990436982399655;
0,394281840413618;1,33291881082114;0,441803498820315;-0,784602210618456;-2,49674598828244;0,714873945378733;-0,372203725468106;0,251717239646589;-1,32731963235015;-0,592230815996134;-0,0956091742969935;1,15274264173698;-1,0458993727917;-0,290926963459967;0,151954286486546;0,705534930678871;
0,851001523123215;0,502686720687445;-0,71931639276438;0,198938593115326;1,42058938019919;-0,960849171249906;-0,218253391964163;-0,109051851647694;1,09750371217792;0,374731794420394;-0,672975514496004;2,09943153897668;0,275759604934774;-0,708567765370426;-1,84415268928724;-0,113038672983296;
-0,365085389828419;1,93660069293525;-0,946420656719773;0,84908746698982;0,777119467292475;-0,456235474986732;-2,15757404048304;0,101381357740583;0,0789943224198694;-1,43660762371998;0,967437778344955;-1,08837462844948;1,48374453307067;-0,56623782862879;1,62754010030087;-0,358662850877011;
-0,164157997898991;0,687440205241995;-1,19815247540275;0,224567076659596;-0,890321838129151;0,468280749728354;-0,168414521396773;-1,56226551839667;-0,122172702005537;1,77068193592091;0,30896178483236;0,0625626669291596;1,22055168788494;0,415780307997124;0,858189831870552;1,10640702719762;
-0,357682219268327;-0,018118735620583;-2,13612058070229;0,260255553509249;-0,865725549190107;-0,358355336973082;0,492625060372327;-1,29459848402393;-0,286607312908307;-0,681015813125271;1,6135397997099;0,379651157293637;0,825164007332278;1,65301953201947;0,0810912622167231;2,10592168706701;
0,961143291076094;-0,642536925361305;-1,15323203549987;0,915403884450291;-0,214041493245606;-0,515888318148818;0,712807010461193;0,76645259568217;0,0252553411364637;-1,8243964240045;0,634369777907707;-1,79919486854408;-0,310611273121536;-0,589351628427912;0,125316278015539;0,290129956695864;
-0,228612522143235;-0,172030637820777;-0,917975971274984;1,27948531439106;1,91840111725031;1,0511709205773;0,167935522200684;0,366067967201702;-0,956631352088152;-0,612374140755658;1,31232844838648;0,604009005591036;-2,52278823532527;-0,209575077255187;-3,2802133184353;-0,592460859848012;
-0,300277173462642;-0,64058482393022;1,05089211381866;1,04362977098272;-0,00236049417313757;0,795304596252472;-0,379834405547809;2,02714260688782;0,421759805794691;-0,839559151296918;0,920308112536509;0,0956696649015771;-2,0241530531444;-0,837199088239419;0,286406235338405;1,88775543351497;
-0,0915866979994145;-0,424427982818734;-0,575861721909478;0,90548383571897;-0,830420139886216;1,61312984519231;-0,682443752408112;1,18487390847188;-0,81661930617398;-1,72141096081296;-0,57682358742441;-1,62134149445094;0,467765133189994;-0,523549235601448;-0,926589339311966;1,46446849668694;
0,276315458460657;-1,0836885493697;0,97527561160796;-0,179097374434714;-1,35005398988649;0,283165335617976;0,13041134369908;0,100716371597888;0,882272843440155;1,7228140080012;-0,238217975247357;0,880370543095026;-0,24616975376902;1,15066341058654;0,290380367937492;-0,353394185666931;
-0,229686242127247;1,26269874939565;0,241878758245811;0,0157027380544969;1,09529330103009;-1,40574949199132;-0,287728559286079;0,136105270642667;1,15681374142518;1,66123105984956;0,735512774230892;0,232993675763046;0,237330783768604;-0,399049916687639;1,16675799595354;-0,625010590154581;
0,0195180171645258;-0,361738763919688;-0,242752914164043;-0,972000388069362;-0,70766828053229;2,50584281778967;-0,455565040390891;-0,130876287134757;-0,747144811853405;-0,125621875297895;-1,29267337058822;0,0297752227019095;0,0774317300419727;1,10288967955244;-1,21671979735382;0,615070113379192;
-0,428936420894909;-0,331311613361998;0,159122991207127;-0,101110607254179;2,12323307419754;-1,26134228275283;-2,33294144812928;-1,92442754705769;0,568600464236098;0,256792262903478;-1,52255496983518;0,88935112785499;0,368423610689153;-0,290844351066723;-0,118565467140486;0,621855765993959;
-0,335831905236843;-0,279719243564362;1,21566897028431;-0,525286660390785;-0,741187690459615;-0,132936427792154;1,42632204910405;1,29055383506139;-0,150469883058927;1,08894216936722;-0,723083964072517;0,134561968818033;0,0735134710877575;-1,02605339295746;-0,165258257274646;0,0492785584802678;
0,652623884481289;0,725587918080102;-0,0563062641678764;0,765527856969418;-2,02564068075176;1,67228783048347;-0,109581619996938;-0,576361906366784;-0,324924032237157;0,447433338076143;1,26150841677766;0,432146633485471;0,369736043601213;-0,718791713938277;-0,0485647890587887;-1,36852643789292;
-0,297208801035707;-1,31700491800395;0,417435323409102;0,173748180311238;1,56825942122045;0,496796680234983;-0,716072359723061;0,679771016603985;0,144177776578399;-0,141049715100688;-0,992112059050327;0,27377354533643;0,547039359268777;2,19883634523751;-0,468669374743477;-0,955192891298754;
-0,248388842722995;1,30187468097122;1,37638879914625;-0,476619337472575;0,778282895160756;1,92934590712046;1,48188694286295;0,424637884410294;3,87758312527589;-0,756531523308738;-0,453914770781334;1,93382581518019;-0,686111611831419;-1,41200538679692;0,903195274220499;-0,0542899153958939;
-1,13704888411774;0,091926142734776;1,11386713162806;-0,882408987376593;0,229257675881543;1,36438971139802;-0,857189967689287;1,62467097847705;-0,956830138839933;-1,19531102541963;2,24571411956871;-0,566657414799977;0,961268430418341;-0,208602067932027;-0,235739337316384;0,952039881391855;
-0,190369762913299;-1,49927049189962;-0,526759437387317;-1,72817636129855;-1,69991715487978;-2,54606690185012;-0,530813042630816;-0,171602135846765;0,741274258577261;-1,17930595655293;-0,2496103610178;-0,39006200132971;0,317776327783233;0,772861149103447;-0,0534003084964157;-0,0349420414117463;
0,694928634659812;1,11000099417849;-0,519364548844706;-0,568740398080186;0,164704838241864;0,974073593176487;-1,1106693538191;-0,0990844224581647;-0,665543430495823;-0,402782070348653;-0,782472368367806;-0,959918047220494;0,944668947425571;-0,125152931241922;-0,417672054844725;-1,35720040232538;
0,306953109869907;2,57711012756497;0,829525995822275;0,117997353890989;-0,974631282437295;1,93072535971217;0,745355064351271;-0,0374660216094293;1,53013411142653;-0,564932407806062;0,879382100619587;0,982475392641084;0,113038906394507;-2,11353349156923;-0,335684852613438;-0,186031679528102;
-1,9058986238664;0,521474295096056;-0,498669360560192;0,3407458373102;-0,855364859103556;-1,0533189949217;0,429130697725984;-0,146520414243264;-1,53934958115348;-0,619960126833982;0,770945932626224;-0,50919271076749;-0,924015194893179;0,809228561608931;-0,707682012307906;0,600479428730108;
0,148972905272878;-1,88409860526486;-1,19917791253968;0,0210150442589341;1,58582180445719;-1,08533854900488;-0,888332198994392;-0,753580617735471;0,950462158848602;1,33362645124941;1,56002089738719;-1,44551337999943;0,542258090183393;0,191998340247372;-1,27554251672579;-0,175348172314439;
0,218358579415781;-0,114593283830932;-0,396316628667029;-0,534038628813692;0,963672885431223;0,412226020313065;0,349417292681485;-0,489308557604615;-1,26052388673661;2,45125773275643;-1,23552590896657;1,52094761613894;1,17304496225745;3,30027492665015;1,00618782787681;0,618679002678461;
-1,5470923667606;-0,269513194090606;-1,10584467047573;0,353660058849382;-1,02157621843095;-0,207402597185782;0,108921848699128;0,498056568297191;-1,68449505745471;-0,485116298744635;-0,702657878220078;-0,486044083895895;-0,433551051820031;-0,0714635790355663;0,764617108649181;-0,0609618860248087;
-1,35822021864106;0,644670637017045;1,21693944675173;0,760631667845111;-0,7691735114934;0,602861108417542;1,44707877044579;-1,38860071125819;-0,975843552882334;1,62939017834168;1,12598609109027;-0,24763467117324;-0,107271937004932;-0,425997281749731;0,375627594372508;0,73428980699524;
0,928848086160998;0,23380299832573;-1,0127268955053;-0,113172127148083;0,241137910514524;1,32887517814521;2,49944535038914;0,368979844501695;0,196364929635483;0,0436982792708678;1,15815789906292;-1,29704159065039;1,65206409451225;0,358534424147426;-1,00278691252455;0,931228643392677;
2,07518487377886;2,54242114678139;1,25649914917228;-1,1725885863328;0,476700448171845;-0,537253771406257;-0,715762162500016;-0,960572411174468;0,738051216879389;-2,37616785217945;-0,942469655169122;1,58298482901093;0,654032517242778;0,487250511405914;0,65347248880576;-0,847585771033251;
-0,426331912952767;-2,3082745239478;-0,11011672588158;1,64638635907791;0,453424339058912;-0,590883404105826;-0,866185622394362;-1,24952883838419;0,803302961728537;0,0589380685990501;-0,985096807057879;0,205877630248427;-2,24818888274379;1,27221395529812;-0,407937565287936;0,658493236005084;
0,0289019376107833;-0,505815100639433;-1,04949831613586;-0,892178965412484;-0,943831616624072;2,08821813594767;1,17591288529742;2,33831696125723;0,333035742909488;0,578077773917356;-0,449688021501537;1,47315725957407;-0,514951939739997;-0,105942744658613;-1,55858440358047;-2,32218772474772;
-0,560735593145807;1,40503412233177;-0,611441909386292;-1,17581330987803;0,910774980504275;-0,0775842618526564;-0,604840649965954;-0,0297637422819895;0,634727895628872;1,34117060411405;-1,1806925196606;0,497882773476701;-0,597466145365821;-0,302859117226997;0,961322340880965;-0,307722706246452;
1,02825617116532;-0,952969617105773;-0,221803197113518;1,21257986413439;-2,12873467603848;-0,296174712878187;0,351822627697095;0,989143703720314;-0,695429906659562;0,142160843832364;-0,512913901312454;-0,00976956360425016;0,952628124294799;0,800286842384552;0,67187157013306;-0,124967274325086;
0,2786692102784;1,00142421981105;1,47491563518717;-0,610095330040064;-0,323404126845965;-1,67096966167142;2,32478950913714;0,0333908167532184;-1,91962581978382;1,47754949805822;-1,15434013219176;-0,300280503520295;0,145378526994919;-1,97071672268334;1,15407823382861;-0,799243120400642;
0,0871826830901539;-1,0023771937654;0,481793987792357;2,94440263809495;0,215150421316304;-1,26388279380877;-0,467551819672756;0,331618640020973;-0,391783254063595;0,0974285145939052;0,198480407511744;0,325624165540964;-2,08548615448459;-1,06038605161986;1,11328819020253;1,11382461867517;
1,12538536292575;-0,910488313992044;0,168100367242579;-0,137552189163624;-0,0188528858817172;1,69020803772724;1,65833475262107;-0,0165590581831571;-1,1236500248542;0,666936796562599;0,694901677536207;-0,19420176098538;0,211864435151495;0,329555904897493;0,890250414817574;-0,0666459075740049;
0,300076935743509;-1,56390748619867;1,27501566004761;-0,0447537789498185;0,0407169926849335;-0,464135313739275;0,666780971142935;-0,559765109480631;-0,0567335223603151;-0,816715509998679;0,234607640836173;0,0375051038717168;0,333077020919864;-0,61898885914172;-0,617656653925348;1,01129489632129;
2,64446324230672;0,868738911014983;1,72301577770378;0,414301670216777;0,436759548510974;1,63739000511844;-0,10013288314286;-0,635060455917568;-0,565077963799079;1,09179762345784;1,18635758620589;-0,168066727190894;2,18003921272836;1,12789525219936;-0,885561144012648;-1,06506805695035;
0,0991223175675524;-0,224727755153196;-0,647170954454916;-0,469151633576721;-0,749611375280776;1,8499396972452;-0,212028888577303;0,103457257087141;-0,558293001106088;-0,111041075134594;1,22099789246468;-1,25216482519684;0,0384030051782959;-1,93474371695269;-0,572388022646201;-2,08018767914082;
0,338489550515943;0,0589628228512831;-0,239930068362233;-0,760044291183619;2,17640230598029;1,06456003188563;0,37879598230807;0,127494304890831;1,69482858316271;0,62235891784329;0,454127078618188;1,10129937292;0,668011384158891;0,444697416230988;0,223123509058348;1,38386303542514;
0,601983831944325;-0,537622941766809;-0,0501341658905571;1,05085822578474;0,842023739349081;1,28611121197668;-0,294132097634627;-0,306660890796358;-0,82603714817185;0,438826716837977;-2,39908417478834;-1,02265609458046;1,82604640082139;-1,67118411938372;0,959606661713368;0,506280599127528;
2,35802994092069;-0,716556558027589;0,0861817415140897;1,01109006188954;0,378744209408536;-1,30322833208846;0,255210973353331;-0,573747231619314;-0,191767571752869;-0,811336150000023;-1,24141793873742;-0,141001511091329;-0,030317219223688;-0,520934245043484;0,529036834431137;0,673899439043926;
0,193007288289182;-1,84808021397122;-0,796207929409944;-0,538476821153556;2,0119282387302;-0,532311258136252;-0,318224770487156;0,798019362189256;0,49352690069055;-0,366722456080786;-0,639673475338247;0,980009834473473;-2,1010789650702;0,30412640675116;0,122592369048782;-1,12750479766048;
-0,0548435209199851;0,326857275025623;-0,529457670572696;0,688950015468986;0,627263357215684;0,456758247202997;-0,373718966392799;1,26305754040433;1,13580516563703;0,192354642268776;-1,16354740642089;0,923828172120214;-0,422959284957076;0,16189115757892;0,570442938308595;0,0431655552268825;
-0,48912490568609;-1,04307987896077;-0,407015724484309;1,42628834014509;-0,703998333608831;0,26983331541745;-0,0270293972860283;-0,151050976861467;-0,834098699332167;0,495270617201841;0,110965701805739;1,53901947169982;-0,699989754062143;-0,290716923159283;2,21832782979591;-0,327010321075728;
-1,94578135997288;-1,65343002376496;-0,111829128711808;0,571587134777315;-0,50895648378;-0,344244743046251;0,00312160978322103;1,14658150463318;1,45703759963344;0,336078695134466;-1,69779105739007;-0,654152191631064;0,809935931531153;0,161781635483267;1,34245756331424;2,25256236490881;
0,120171361018883;1,03579296191254;1,21098911653053;-1,02488334320439;-0,0310330728347192;-2,44370346854492;1,35694019893808;0,499482049939374;2,10568374009181;-0,0784638564762427;-1,50088925324017;1,08222844884685;1,88981532991676;-0,836351341287156;-1,56444897427203;-0,136300280815481;
-1,0170427632801;0,346573064557701;0,600159713644983;-0,1530637985271;1,07583902987393;-1,88657852432856;-0,345985751578637;0,250432889741118;-2,32319101009944;0,209121989743922;0,89187636596921;2,23540676724632;-0,347794764383662;-1,41084355604318;-0,0766951040811042;0,933099251380789;
0,805397727419724;0,585360647739514;0,156172924858495;-0,67514221842831;-0,108403174624087;-0,774636193504911;-0,779262236500188;0,492616456826717;0,943803968636403;0,50128989511282;-0,51599178869049;0,806517547131773;-0,783260269454385;-1,53699403557448;0,768719384437872;-0,840328859990442;
0,00862628871315748;-1,07276267337087;0,877113232336303;-0,0867441993731611;2,26472479913993;0,586152132915346;0,805302967378599;0,00118159974398315;0,183353069516154;-1,29941084376469;0,794301476708123;-1,24775494704443;-0,318403907758078;-0,448567992314236;0,40592394138473;1,3072893210959;
-0,256870604744138;0,0437664208359761;0,316519023775151;1,14526568316014;-0,482982254720375;-0,389889109060245;2,04422938977342;0,485086984991064;-0,563920778349596;1,44650257795914;0,340616801710217;-1,68711128162281;0,00732534195808847;-2,13423075174564;-1,22572919347671;-0,282943776697615;
0,000591696923656515;-1,26308505923383;2,38402346118453;2,29198312527319;-0,285380550816252;-3,09398919177694;-0,655403282078553;0,874842859935878;0,433531091366309;0,0247145412470242;0,654302958126665;-0,19657207990282;0,208739475413999;-0,189258607888166;-3,18980599629719;-0,295786855211567;
1,00705699487451;-0,506214146322663;-0,400818256154314;-0,645051713327775;0,29614593338752;-0,625598431858294;1,15951896404818;-0,411622482454746;-0,346486789211754;0,063629055568097;0,697262127384111;-1,39308359335395;-1,42811983813522;-1,27103872379365;0,866746495409448;-1,54839344091521;
1,0473658805667;0,8650373293028;-0,630134642286007;0,830137977547802;1,00007053603245;-1,36197365159193;-0,554464346193109;1,29036851164979;0,449898141777299;2,93059016043222;-1,15422361301621;1,75866270743992;0,903836939100743;-0,654787532839162;-0,602798120516295;-0,832692003650348;
-0,0632868186099186;0,709287827193378;-0,0979503698295797;-0,100890431367197;0,444935500740294;0,419038517502386;-0,102701936283395;0,114293368375053;-0,631766270672422;2,02674459309095;-0,221845361127228;1,48512128695494;0,450326182561564;0,264534170608673;-1,10423240202419;0,934875591776832;
-1,60079755212818;0,0775247880474919;-0,581352221011573;0,102194514905136;0,21759122246459;1,24938419722466;-0,270658003006261;-0,954646676221008;0,180865217915158;1,7456710310242;-0,757610786619206;-1,21100013685646;0,277935891913917;-1,10606497199205;-1,37843858431473;0,0574402176860434;
-0,406850203665;0,613586460944111;-1,0089606393565;-0,123402783861629;0,379881990740262;0,107009198221834;-0,308328922343528;0,180627258407097;-0,375383002913208;1,62719122790563;0,850817966532421;0,290755300459424;1,23726695646106;0,464265264203634;-1,1878419132238;-0,767663581025196;
-1,12253399123769;0,384830035145208;0,492191506588262;2,23246314415057;1,04382655467118;-0,15792401085025;0,406551684855339;-0,281542121130035;1,29857231726763;-0,585787703491309;1,11777169935483;0,234318411250799;-0,227959243983776;0,276268251527666;0,344056724717127;0,852155385477877;
1,49593754408469;0,762866310634574;-0,0503349991172955;-0,0130466227673132;-0,0938766662904583;0,212102408402395;-0,407452507094248;-0,396293885926047;0,254273073044403;-0,232524674198992;0,635929887542382;1,83718450994163;-0,815013876612612;1,26454775738696;-0,487017214106109;1,24593921566889;
-0,885688298231086;-0,49280607028077;-0,701986699699613;0,415224435924167;1,63078872584334;-0,604963851041382;-0,643650772218898;-0,126570941517277;-0,195551492414936;-0,814962554816227;-0,158697078670603;1,50360919612964;0,978852738026349;1,17034147708666;-0,329409480713737;0,0124977722674394;
-0,659742082742097;-0,554814240795801;0,35671467676669;1,29958315347228;1,50013618855657;-0,717101687238943;-0,236808873941019;0,310821482751438;0,05330097751345;-1,42029395892563;1,41906306809825;-1,01397967887056;0,8048972128557;1,12992194449157;0,814482873196913;1,1148017637096;
0,694412237368748;0,128484502639897;0,202617869994259;-0,644472729180415;-0,684861314694816;-0,983857882993528;-0,3087469375441;0,114878742396752;1,15349152505823;0,685535591338526;0,233735940993373;0,165862076753522;-0,324139404955642;0,045640117933034;-0,745770494692621;-0,0917197967836039;
-0,0178011282628131;-1,25746659449888;0,163251035997443;-0,671026950759062;1,90652345557165;0,537578190166818;0,560758633485493;-2,44086477857024;-0,180520560459948;0,36940995933942;0,760530867906302;0,684431238155186;1,23448732490295;-0,650887018534799;-0,587711876934357;-1,51237271886436;
-0,457458147616525;1,73771764380696;0,203331178112028;0,255126704370361;0,169016746299324;0,0749769539916652;0,641346962460143;0,679803502911609;-0,399612732475127;-0,627862073918369;-1,68797417638547;0,519004693336392;-0,231272953492321;-0,332210110687318;-0,783017534856424;1,51699046372185;
0,030735576024631;-0,159254457283441;-1,43142790851301;1,27702581401049;-1,47288566412244;-0,813860456437666;1,20557250962866;0,968075290509165;-0,202590555740723;-0,0351613408537654;-1,65804313379225;0,0505988650379952;-0,475755914197543;0,631296457629966;1,46343557850157;1,26861616434254;
-1,73775155749817;1,35550993259257;-0,825284815106862;0,230494009858037;0,494015206395895;1,48777990792956;0,924580767344372;-0,712904361439248;1,51421146684871;1,87359418410313;0,699973220288317;2,0350445037869;-0,186186398218699;0,590652453142604;0,0555363208089518;1,6555791702955;
0,503825529936326;-1,12605860465576;0,522739794342326;-1,10465092017263;-0,98512778043231;-0,71349064918615;0,5400173747094;-0,416160360597867;-2,07984940672254;-2,04251896927047;2,22504458565703;-0,748884161642689;-0,0738616354602619;0,822606196475343;-0,106345091432861;0,36793623482646;
1,08382529668343;-0,231508454477828;0,308740341591033;0,163178688562971;0,731021265743791;0,581185852489074;0,990616744425245;2,18883682086188;-0,984292294420124;-0,627125125471237;0,146596385861054;1,23094694855234;0,0260322081976525;-0,316137837303507;0,463228496343832;0,632924566349253;
-0,147684878738806;1,18317996032998;-1,00183165976561;-0,161224319800263;0,202293069744187;-2,32598691441019;0,722086073046332;0,564357416238572;0,204394820318012;0,153665119760252;1,49816910511123;-1,48971042719111;-0,283241063283908;0,22476166552263;-0,288940126251194;1,33682198217959;
-0,215466156552214;-0,0833485749914131;-0,578706701518004;0,506108434798907;0,23260679905946;-0,639576944701933;0,935946881044429;1,25113956954677;0,546923977206394;-0,257714766377721;-0,427555652931553;0,305455938751629;-1,74989230103739;-1,50657683642906;0,518126718707344;-0,576837997557249;
-0,726517381597966;1,13179912098039;0,104393082502804;0,935209398629686;-0,784019690693078;-1,92014335409408;0,13545525020003;-0,655985572380416;-0,934694485979776;-1,57337929995252;-2,20432566448131;0,392691691094577;-0,307778014916921;0,460125914671324;-0,111883728303414;-1,04537219453382;
-0,656121285832031;-1,8230017075777;0,432783135492838;-1,46276365517444;-0,533456507508871;-1,3845691129276;0,49841826102298;-0,710387429166576;-1,36744580499233;1,2839744173343;-0,0207492723942281;0,29815248220367;0,494456649241375;0,25729373419838;0,135136385416783;0,640101177255967;
0,206040047931418;-2,07890874641529;-1,35437949533816;0,77425519783563;-0,611128728297147;0,411160738966806;0,464563094045416;-0,0325786139779947;0,614117044991733;-0,651993405640922;1,08766701806823;-0,712159689328553;0,133622799276463;-0,614375165038722;0,91288414283257;1,34455146318528;
-1,62523303162955;0,721625008105301;0,44660618960758;-0,964043145790222;2,94752066132432;0,131580128194651;0,241578727344453;-0,935332520634224;0,341786540506;-0,180738347205905;-0,658181319115757;-0,477640188798365;0,19389365235374;0,592296014512117;-0,192870165160915;-0,0305679724583015;
-0,0877913957583685;-0,554780579324944;1,50950493383695;0,968793290389777;0,684184760517961;0,637322904130578;1,57589889674667;-0,547831138375777;0,506534797551851;-0,948706984527055;-0,478643220604721;0,834881548895735;-1,60076799452854;-0,438561150125733;-0,414006466937769;0,401952316902267;
-0,130731163209958;-0,126329779303957;0,878889090984193;0,945701940120659;-1,02906286820565;-0,172315987235458;-0,53826822861102;-0,00608824188484555;0,264569100010434;-2,44821305576108;-0,178228737442607;-0,680091095945449;0,230832402688847;0,491265722776843;-0,369720568172172;-0,660850788459187;
-1,24790824397511;1,02454665877746;-0,0223234660856064;1,38293032609277;-0,983936450445421;-2,87861582591628;0,607313753459863;-0,262869298044534;0,159924991497232;0,872611029400553;-0,255576428041361;-1,55141139567441;0,591132684947187;0,636406501071601;0,137948627101555;-0,728010963686956;
0,201653330781038;1,91044801386175;0,229222714290027;-1,23816855604484;-0,800034074211677;0,0765508362714237;-0,270121646375758;-1,76385550917342;-0,0641474969113931;-1,89744866245078;-0,441620127651437;-0,299556907338404;-1,23904131217021;0,487097206559011;1,59674575449632;-0,414476838548369;
1,4390943945245;-0,517681449188691;-2,25103646330375;-0,0543901893901491;-0,562364772089302;1,07653327991169;0,934686033824529;-0,224861191310076;0,146620648503194;-1,04858617526296;-0,191786217989091;1,01475180053377;-0,201576628041993;0,411356687793325;-0,620035111830252;-0,0534468821895755;
-2,2311078623404;-0,232322998062766;-0,311944189967159;0,432915439896265;1,05366902407821;0,172295892014161;-2,16833393395366;0,2482634295096;0,171888659282576;1,37482952996595;0,152629045381212;0,798583722867144;0,077436539782159;-0,151506863916039;0,245649071027171;-0,521477729077707;
0,370054427505006;-0,325964550073684;1,32064145645367;0,747992197341618;1,20003429905839;-1,82674356123308;-0,715200067028858;-1,13115772729385;-1,05890032083477;0,901089603623925;0,41999423174123;-0,420028860622196;-0,258779064439488;-0,558113864928388;1,53891108248827;0,554072147460133;
-0,333347774068267;-0,286892650697842;-0,17031043156971;-0,79101396639581;-0,160103618901776;-0,65108962494899;-0,0885145837667515;0,327400121552742;-2,23100352009296;0,293473865744462;0,0310734935058503;-1,45506275055542;1,20407382825973;-2,92474499415996;-0,413632294232631;1,63152105788875;
2,01229700152326;1,33206183617456;0,560917556221604;-0,917843804625639;0,761132967435353;-1,07409336954545;-0,945538367681475;-0,164389362903427;-0,482357377621279;0,790819868127353;-0,419551891107838;0,246463738569333;-0,321399057106784;1,05208851731449;-0,029130387593275;-1,49464268104725;
-0,200277261849897;-0,737932414266889;0,0102281954078369;-1,3268884909576;0,883357289369461;-1,91941751368835;-1,70219538606326;-2,12090190821682;0,253565580675743;0,816923727820327;-0,902587994719483;0,930308758122017;0,840990020426632;0,770046150753444;0,146850615020388;0,24698058913596;
0,880840323694151;0,239261463116743;3,22474036166867;-0,5158858609875;-1,57575973339317;-0,480620078627578;0,442710137237707;-0,372829863685333;-1,24463897951857;-0,109546479817832;0,0563234215843555;-1,11758493609257;-1,14729559700138;-1,17011870150246;1,18822349752628;0,148910180210519;
0,512911435619372;-1,22698572532076;-0,00388163360775361;-0,204670879553615;-0,475278050130381;-0,307709879104121;2,78532045233002;1,4063977656343;-1,21435680227546;0,684666724669589;-1,93678754034428;1,32285398280735;0,220283015929598;0,877238279561233;0,14079749033786;-0,404809679486524;
1,58000490798798;-2,03255837415418;0,0898883226608131;0,62440914152813;-0,0989617138261022;1,65240558408933;-1,40867878889508;0,657827278658368;1,15734319612169;-0,932255863042017;-0,839586445089914;0,473242920821592;0,0559829227184383;-0,439213524940507;0,820638876871903;1,32067680392122;
-0,663969125363348;-0,760739563479462;-0,765342759652734;1,30035548754655;1,05234868296419;1,39153342110248;0,658665977069225;0,638560024678781;0,856716339217653;0,155876870828931;0,128394460898415;0,886266599586595;0,650185746471108;-0,605404245477053;1,51535164688783;-1,79902985742481;
-0,648994021811375;1,0866349392891;1,35293176422587;-1,67573422976485;0,435062034316747;1,09291633915437;1,0658121065722;-1,21307807977105;-0,528089203566014;-0,317963177509821;-1,14221679383551;0,840606323841161;1,04178742778704;0,635666092844183;-0,716574879054709;1,92238349742369;
0,846355599958786;-1,27366379746655;-0,431325805824527;0,527805533074573;0,14747548848223;-1,10217552473869;0,0657766563754738;-0,614817670542451;0,485061696964144;0,410821784171397;0,214506842872869;0,847957780852265;1,18393658601377;0,553513772520047;-0,211304182781218;1,98030741147565;
1,41936765984273;1,2286511103123;-0,229421374198017;-1,23588296425767;2,08006244389768;-0,0079800056094874;-1,42844047850581;0,193436981199936;-1,31315876982631;-0,923532759353728;-0,637074887181267;-0,0582751568982219;1,54058713166426;0,664617470379806;-1,18544883324119;0,834295163097604;
0,461465605714665;-1,03165452186977;-0,679686681701372;-0,274034628813702;0,114203351419083;-1,59432710822175;-0,879489378310978;-0,505576644235923;0,889950035003208;-0,680645742014461;0,200868107310239;1,11616664581963;0,442062824248548;-0,592959323810955;-1,9255074774826;0,0446611558405366;
0,755606021144019;-0,640152158974054;-2,33991818207533;-0,719546551108314;-2,50610931991504;-0,696954667852484;-0,345329881394198;-1,01193088640459;-1,39022672215484;-0,555893791452457;-0,623798013919494;0,19616358027835;0,562159463518402;-0,039011197650748;0,308953493406444;0,344296262021975;
-1,38235853950845;0,429748818002376;-0,23111303039053;-0,648524109768863;0,752783935114525;-0,684772751210533;-0,844708998566096;0,745160067746987;0,647836833232619;1,15365757782749;-2,09508035546001;-0,194737503959482;1,44015890569524;-2,43193458747141;0,395315483144751;-0,374720494886338;
-0,599192518744485;-0,215202122243184;0,914121662320476;0,655258305847465;-1,32874443618811;-1,47486886194787;1,92854893577104;0,534899866205405;-0,030454495115538;-0,689679090510412;0,257113882622642;0,566873948141119;-0,965780718063408;-0,432245961910691;-0,274629158054955;0,136553188427889;
-1,17913862428624;0,00559824805997139;-1,40677571686708;0,0474141111368294;-0,0409198523520509;1,43307981264358;-0,0356279427042876;0,33148558712314;-0,556597601658405;0,978421423855792;0,867790472609442;1,37146578208068;-0,297606993004549;-0,252719572763562;-1,15621503214586;1,22376341667971;
-0,326773990650578;1,27127652402659;-1,96844175031895;-0,402079934105409;0,649492742279991;-1,89428360631541;-0,90723669006996;0,0370039712215718;-2,84793835197269;0,290089268590135;-0,377701695962667;0,273505841955129;-0,633681678965823;1,00783915833584;-0,00887946815220233;-1,8247440141709;
-0,663600044367369;-1,65539762378203;-0,939444483252958;-2,22894635906041;1,90312448810456;0,905391950802424;0,11961212060123;-2,03183483183193;-0,676658748605277;-0,760037071369062;0,702720026582473;0,729073235078127;0,340673359105522;-0,000735513668469096;0,721356012243964;-1,73230485503719;
0,126796630782233;1,5155046482255;0,720400898407208;1,38565944223278;-0,0614990295149922;0,404309662481327;-0,255234596734435;1,64350220454894;-0,85922120527779;-1,53019244474948;0,479893291884538;1,87281363812688;-1,08586951150214;0,000713553998034812;-0,713465911624161;-1,25122782519984;
-1,97038493889153;0,562712449752668;-1,60279459112622;-1,11017928822549;0,364818896727666;0,587885755643073;0,971988410191787;0,955438952952092;0,482956577591844;-0,108880401623633;1,18422902995401;-1,1183914777731;-0,229476519817437;-1,9458386902683;-1,07360527719772;0,0883084181591539;
2,09157596457461;1,58384004530708;-0,741133069502255;-0,253852615763399;0,743317226527013;-1,30852972890524;0,699955244082204;-0,649605073551918;-1,08368918475061;0,209808722740268;-1,02257104130499;-0,990848646073009;1,3370809178448;2,02845220167918;0,937504956168011;-0,993005826432297;
-0,0762522041328861;0,245366271083447;1,87727456424108;0,813604614230285;1,6024319418927;-1,9473303926952;-1,22891778421056;1,53341526161451;1,56365716458489;-1,2522649959872;-0,698596925803628;0,98564731025886;0,106134876873402;0,257806359978939;-0,764421230518518;2,02634688064921;
0,0666724025892754;0,697256088523377;1,32755863112539;0,737569754085044;-0,117169167993882;0,657737753008272;-0,814360674763746;-1,03578830305167;-2,22080398987647;2,29834847332471;-0,804916905635096;-0,385909402296045;-0,77248510786175;-0,673772510869277;-0,416229322961334;-0,808184042124958;
-1,49538149699974;-0,289525069954433;-1,20927073988093;-1,21192959846233;-0,363038685267246;-1,52246654742572;1,52095531331538;-0,705633856694529;0,226500406643018;-1,07371640999643;-0,919038395268996;-1,41222326928233;-2,16700978693242;-0,00956708165792038;0,339917597021952;0,118514300667767;
1,77178253520216;-1,76111336203672;-0,440956811794579;1,10161112292977;0,6455252035983;0,340178461555323;-0,898972160785619;1,03005410242561;0,00229586050018225;0,599868416383625;-0,327569980627019;0,22318819471266;0,666040810517455;0,555496928683824;-0,186368289618003;0,0550174106996527;
-0,102283584477094;0,0943753558299459;0,106998428671421;0,571289410118192;0,705541659725656;-0,25934651808449;0,177491634894334;1,55419164756846;-0,264695046945318;-0,763843918110484;-1,04865664202324;-0,205612134212249;-1,64321934123211;-2,07724424873799;0,720981277327038;0,166871704616724;
0,445127272077023;-1,91456634558918;1,81320195743504;-1,34442228723789;-0,0375970321106201;0,948544641517369;0,603149135511284;0,549064877599113;0,318438623407093;0,139856702420049;-0,0634223179604365;1,1478234168734;1,12406155981354;0,522128325765454;0,0511332119623787;-2,13270367985991;
2,76467515519321;-0,886109737741691;-0,0307654032898705;0,927747904588853;-1,22011136791794;-0,873244996442908;0,681487178565194;-1,80377204705888;-1,14112500637524;-0,535827083165367;-2,01732849075156;2,36327042725369;0,350234536438308;-0,309990007882894;1,08964468062741;0,532501641005761;
-1,0972400234838;1,270695444751;-0,632535014262773;0,668047894815194;-1,99884133171357;0,840201020106717;2,19047171548145;-1,02244445823388;0,117664785645719;0,752166384173359;1,58879884679437;1,04635239436935;1,84800691091776;0,133038573085092;0,23881082482914;-0,712120513909402;
1,90453119388294;-1,02575571336254;0,207414348801487;-0,263167879847924;0,523433783595966;0,849088456256784;-0,510095338070575;-0,743261315672305;-1,25664333762351;-0,0951204003557351;-0,0230073692953745;0,0907316719133785;1,49074554077771;-0,17335040936184;1,34492995958435;-1,25076181564466;
0,764047516875893;-0,0281303212178665;-0,681348793725222;-0,486365237477563;0,205482497165854;-2,8258436722959;0,874807958162413;0,623219620069961;-1,20408196643432;0,95031695220387;0,434723778388403;-0,751505333137103;1,03148661077008;-0,391695276364524;0,0441374713186804;-0,564725976149688;
-0,0694752174048698;0,393469107356709;0,0444898434075091;-1,87175845394614;1,97636587229379;-0,0174981176763422;1,19284395531089;-1,26260097778424;-1,44273150450941;-0,796201098685579;0,687331546471144;1,20543516306536;1,31709619945972;0,644367974532971;-0,172423231922187;-0,306158178524081;
0,689949772407146;-0,78501917103315;-1,61309489838897;-0,747057997156369;-0,811905267928753;1,41512359028901;-0,72045336520849;1,09834389263587;-0,063605471539294;0,897813362100751;-1,87792144436593;-1,97196417368606;-1,24963541861136;-0,0393095701638802;-2,26419799231392;0,82026857376562;
-1,58703193039795;1,95010123976769;-0,868533983797814;-0,0791670047032804;-0,799317977846803;-1,14983323535938;1,57468490167562;0,889994401744035;1,36430700342749;0,193005996612451;-1,74391855645569;-0,455001526484182;0,00831481827596195;0,40154992736497;-0,633037645075508;-1,1506816903155;
-1,0822215590563;-0,447221832715993;-0,541222638309617;0,946554088863491;0,76767003030622;0,648996951661532;0,74656133667306;0,490301665023602;-1,80080833514823;-1,73786928272963;-1,48928647890158;-0,197127409273753;0,750086717678104;-0,186223619100777;0,909911619368922;-0,850137547947625;
0,654909993170407;0,809315795507225;-1,15433386078459;-0,825238917675511;0,487179124581645;0,642808649189807;0,0428076065467143;-0,617794183577032;1,29660393595357;0,275306786377911;-1,09773619048787;0,0442942901603709;0,361481721803433;0,432511911575128;0,313664578989754;2,6486454268858;
-0,851969931821515;0,643680768332505;0,964190233258362;0,72228369479292;-0,871956442232264;0,194658816220956;-1,33832886621248;-1,17407886001897;-0,917686396685243;0,755716363421461;-0,539931712875204;-0,973221216734367;0,302178364008691;0,827636386479473;-1,11017657985988;-1,54272979343424;
1,90804937053225;0,751904945317611;0,0384841250469561;0,91486678057298;-0,499612462220525;-0,54295489377953;0,602001584207024;-0,188257142941417;-0,116957200482941;-0,389190859382385;-0,0785778843564368;-1,20989550346673;0,774066412099765;1,34597545172674;-0,0113768051692366;-0,742675619069829;
1,48628203814976;-2,4253905686158;1,81149093241081;0,219976621311347;0,0388488152783533;-0,706732522081078;1,97930734367796;-0,49615397437998;0,462975969588626;1,87722420860218;-2,097160016718;0,494818868488476;-0,0907298835528031;-0,490270214412668;-0,916737502373716;1,5890201822655;
-0,0353243195390858;-0,415115167079803;-1,53263701531706;-0,633895832809438;-4,09104082495431;-0,804023806898525;-0,439478962671604;0,73998921148653;-1,40794090783482;-0,696610785434151;-0,245019684388162;-0,869603995832983;-0,641187123831078;0,484026422748937;0,544062760768543;-0,897560349047614;
0,451256769264737;1,15379755820875;0,804956669130898;0,764229810996152;0,129663582661827;1,14066438193867;-0,802288649046711;1,01855795616434;1,22774342691394;1,30493186019332;-0,0316273465242579;-0,686808049178238;-0,27683244967124;1,58741195271541;-0,263436073623141;-0,228243963519219;
-0,468782464856477;2,55876764232453;-0,198545953155193;0,719294509758796;0,733141846562576;-2,43467614790157;0,446490941714992;-0,942859390631078;-0,872277908249646;-0,238736912058828;-1,38121452809539;1,25798740307561;0,303059885722736;-1,00267628491708;0,0880603285070324;0,29226516423535;
-0,671232883724759;-0,172537670696227;0,569529471734366;-0,380645800703509;0,441427346958607;0,0168138094459253;-0,561827605088837;0,0737294871467872;-0,19343356094525;2,77520870136508;0,62202333778168;0,481655854279983;-0,92602953124886;-0,374195501509352;-0,271095807037015;1,74157950328399;
-0,309344999560134;1,17045639831855;0,785931979808831;0,158762492383037;0,304500648337293;1,5450693356295;0,548196940337425;-0,192946132355705;1,15523490510198;-0,0999290810621816;0,0532483172778048;1,24894823623866;-1,3813963590706;1,11543610732874;0,0472256706183868;-0,340887578666585;
-1,72513195197298;-0,0773177821547362;-0,853905523571941;-0,0635741617475591;-0,0585378632083012;-0,842529618383328;1,31746608659748;0,928755207733442;0,757203506884603;-1,26071597411232;-0,215799022352302;0,638027339850438;0,839272461924839;-0,135183282869526;-0,258730150328798;-1,03577756184373;
0,859414660378285;0,561132373946625;1,24620138747369;-0,130240088411949;0,766865990816967;0,0255312027953419;-1,07404818585816;-0,511105393368186;1,15419648687309;1,20098853704924;0,946172487736598;-0,052831361483236;-1,64828750172894;0,258669368381451;0,545267874706988;1,78249878980212;
-0,992006391493392;-0,800106424879837;1,207537828766;1,40945977953581;-1,54096419653161;-0,335875619294309;0,426106081447323;-0,433306942347146;1,30664782578643;0,0301624711280081;2,14367346154655;-0,21419737254825;-0,31911905427896;0,301251483123244;-0,518622106357016;-0,0815655580270318;
0,264658168327835;-1,00829494941459;-0,378515151374793;-0,874172242940898;0,142339359941834;-2,35913565523318;-0,785145482483409;-0,733932160220888;-0,496485783005708;-2,0246873429322;-0,862076108607173;1,79126551098221;0,0332521722192968;-1,92668928931614;-1,08720792533313;-0,427710361426814;
-0,698857274450593;1,30426516031151;-0,425377978133412;0,640536606052713;-1,01708358353718;0,0523182424269899;1,43780148491302;1,21790863136619;-0,0339913177488878;-0,405572541048534;0,593697132607515;1,39943344820115;1,72308221406558;-0,339470318461112;-0,223532019050043;1,54450556843446;
1,09520466540992;0,496241547380713;0,98658212064289;0,107556256261021;-1,66518208206616;-1,07380583800979;1,81037493316446;1,56372871539295;-0,976098182737103;-0,267652179643796;0,856248869731734;-0,372711563740811;-1,32681221500657;-0,704355682580779;-0,0583717356772517;-1,07065852266231;
1,18922872122794;-0,648090720810312;0,894320675169938;-0,634266212634398;-3,39020756043582;-1,56343006528825;0,0839373443870331;0,267651651471292;-0,789168050892286;-0,13904378160826;-1,92202076371484;-0,746763739766098;-1,74053632341841;-0,476367239287777;1,02323996523226;1,22856928213432;
0,691488222619411;-1,02041169192788;1,19736959930459;-0,410290687071587;1,25187814144161;-1,03439974332994;1,05213925783065;-0,180665244849403;0,574218159990866;1,12022011339762;0,117554161572209;-1,10275545328081;-0,230495230303617;-0,42474457579226;-1,2715518759463;-0,561897336929395;
0,258829139100769;-0,400294112258464;0,340863780245773;-0,745690126887784;-0,447720047154575;-0,0989378456749675;-1,45305251403769;-0,662457803786235;0,452087247325121;-0,218508027285446;1,6012096395099;-0,527812980683864;-0,414041263678024;0,848911657712426;-0,689268546308682;-0,16402850709921;
-0,129488950051195;0,224279960617054;0,157595816714628;-0,353520046144806;-0,12195644163148;-1,19754101197195;-0,105392992505887;-1,06622905944177;-1,88126857913143;1,82117464595428;-0,236594264714711;1,06013987232675;-1,85347880760336;0,806814318511109;2,58597997585649;1,33307003413433;
1,28401340310029;1,41445822701396;-1,39579310938347;0,51508831235909;1,54905953814522;-0,265552016064788;0,678408506208579;0,278296610454717;1,14151470064838;0,235836904382528;0,926264046535041;0,39272459546831;1,23628296656432;0,522528982688737;-0,633169850672869;0,899672298724233;
0,829923952323734;-0,917042823906159;1,52652227728021;0,733345599406993;-0,31345411111302;-0,0673765176788966;0,0266065657519704;0,24516158447125;0,670521952800402;-0,329440389285155;0,0925127615418804;-1,13835804094381;1,19002730130983;0,391269628475562;-0,33634080090914;-0,443947272223916;
0,167979406201571;2,21632054005947;1,00125788659787;-0,985484912039746;-0,247328034653021;-2,03146432527544;0,0194271686200316;0,211095081295783;-0,711520352209701;-0,27307260015192;-0,30255588978879;0,832515882779827;-0,335479560803903;-0,510880862311131;0,87490412180585;1,12629827287768;
0,630695067724758;0,476025379522281;0,361711803462407;-0,840376012048956;0,103187958967145;0,507014258238451;-0,331945363454001;0,102291631227349;1,22040826967189;0,543065738471902;-0,0261782357424895;-0,64291089931356;-0,848535582918688;-0,668991352986783;0,501958010455427;-0,969438406488882;
-1,30736682514644;-0,808024077095644;-1,61076026804161;0,738012291988886;-1,59590530932796;-1,24796928586026;1,66337951121078;0,447467277428921;-1,20935035634358;1,11700671634894;0,0802513549426051;1,86838364184665;0,463396093016254;1,10016149321976;-0,0250708804483604;-0,589295331414185;
0,42943958231924;0,487306755601591;-0,228554211005797;-1,39910183103666;-0,0720311842480671;0,32310415891208;0,242808926751649;0,764541400793674;1,5716892441011;1,13813257865355;0,290627690813506;-0,578224156508916;0,164595055875777;0,43000162844394;2,04432132596042;1,27140621666635;
-1,78463813127429;1,8494547787324;0,945967776063793;-0,397206111001512;-1,30985570486004;-0,103748657674079;-0,801563302970812;-0,38678052968724;0,984824650759931;-2,52080298019743;-0,468533475474207;-1,35374892548722;-0,956508839114904;0,812775093731514;1,47818556002676;0,032550035207476;
-0,139252073768693;-0,517748463839478;0,174852499892556;-0,375187122386703;0,786044783059489;-0,276697102647832;-0,882833953990271;0,728972875531127;-1,49000142868642;-0,424135925447511;-1,51530337517502;1,11835141240365;0,310141766984074;-0,667117669314378;0,250737012883916;0,526284575483658;
-0,10956919648129;0,930048652575058;-1,2571984418981;0,621175093311025;1,05227909267082;-0,301574835334795;3,342416014591;-2,37512633139646;0,916587968238948;-0,997520564514488;-0,665001023219469;-1,76963397021418;0,814489135857533;0,0546809399873142;0,824186639150557;0,0802735863479708;
-0,490536965356377;-0,24687594790513;1,15648748913943;0,452702657514694;1,48726115917143;0,832306374091786;-0,568061766642908;1,46423230445872;-0,514777651266289;-2,23088801622787;1,21213449896516;1,25774220924818;-0,624199909522041;2,68088381642183;1,13311901520581;0,829471447455764;
0,25138152838372;0,77538858703595;0,232453884009122;-0,0298909663213411;-1,15108344080813;0,673784071646178;0,531935178473828;0,286804449851717;0,789927408263405;-2,21284978406852;1,88193909487183;0,590685774292665;-0,217551784190678;-0,182514042978902;-1,40579739269752;-0,0611525114982306;
-0,0229236323394071;0,20848237202497;-0,59450488804891;-0,159241195798109;-0,244753439086862;1,86428496999506;-0,602210027360604;-1,67483935880504;-0,535140374049669;1,01788697199913;-2,09579609758442;-0,0973356799903746;-2,32068837087781;-1,76861162079567;0,0873482036331661;-0,915972516174275;
-0,630119023927338;-0,689182638767228;-0,557265653659762;-0,556107224435421;1,2764599443587;-1,08338965136632;1,7173443522917;0,353184707373575;0,461668942354973;0,149832098737754;-1,67303160801429;0,622530098036514;0,0352035987080213;-1,43168890562457;0,525217428301453;1,2675538812127;
1,98238861541861;-1,038217713729;-0,982786804903907;0,893291660808699;-0,551107071245199;-0,280009356340817;1,45198189147828;-0,233004944665432;-0,547257392172898;-0,848543342777081;-0,626495370303803;-0,228487718580835;0,335022591903475;1,35305612855252;0,211873227459776;2,03219969896519;
0,0274899804101511;-1,10125748999885;0,373955957241289;-0,378263860547508;-0,391476577538931;0,0903865567100585;-0,13204139471684;0,135687067605198;1,39825038366513;-0,100655454223979;-0,669340869950252;1,87524165281795;-0,182357185142133;0,203871594994529;-0,498513325401347;-0,124117409981283;
-0,95438347177599;2,8733892618301;0,328123827728087;-1,60730952996501;-0,172442799387281;-1,55596722448643;1,60116601280947;-0,0188604252183526;-2,02745864265466;-0,266566011521374;1,87674644968832;0,997239434856884;0,416359246271292;1,25151144918608;0,288039671549456;-0,213119222939223;
-0,733808757412529;0,439189854805834;-0,465790798697333;0,406101287224737;1,96798476747675;-0,159717670577799;0,653627525305153;0,421278394000376;-0,210617749058319;-0,905705122016396;0,685517261360121;0,278712794306775;-2,10537462570197;0,418689149978792;0,440722391009992;0,161265116230136;
0,0868884119752217;1,2219563585466;-1,3133555523833;0,873698616806798;-1,09225395681214;-0,59982067815065;-1,05760575428735;0,081689749238615;-0,397250304132628;0,811196241562357;0,722186311291964;0,928004839629725;0,495714233608578;1,54615629464448;0,404084138892836;-0,208784804961574;
-0,0902446507541282;-0,462868119779927;-0,146113553539796;-0,259068352091904;-0,480120646246341;-0,907127428014358;-0,967487741641198;1,47326694150063;-0,23923037275614;-1,83743868305079;-0,127132984953117;-1,24313013366597;-1,48461564545643;-1,02575046840602;-0,429974647294191;1,87538491503408;
-0,896199900459983;-1,17524798818418;0,417042960088517;-0,969380572645389;-2,91605864675773;0,952849881385011;0,897013574818727;2,52467749204235;-0,00296439396648776;1,17764292527271;2,39688102250862;0,126674241125245;-1,11659844126311;-0,392646506243783;0,44257504148186;-0,639140195035994;
0,254898092456388;-1,43860139250179;-0,850667357811706;-2,6392232308639;0,475252953527403;-0,450812695717889;-1,35229332554169;-0,494742146836865;-0,166278189706858;0,0411824546966348;-0,993558129561216;1,61923344336673;1,38664717955999;1,35989684491398;-0,864116854578321;-0,194853221880824;
1,16975025558439;-0,222801054636663;0,749156168097363;-0,142322652599215;-0,170299082406202;-0,574836429016633;-0,712593650954512;0,375183540871572;-1,02623884778405;0,480888628218367;-0,994686148470267;-1,05782422844404;-1,61060409731542;1,58816706842852;-1,62670503393874;1,19014365188104;
-0,687192759120655;-0,767704461257726;-0,0187743729958631;0,92387490927743;1,56082795745024;-0,375996791016003;1,683471358804;-0,547568035620292;-0,224872630178608;-0,507374229487184;0,653392117051226;0,274616367848771;-0,0667655808738529;-0,0777001016808456;0,389678142600007;1,60278186794102;
0,53850446071118;-0,485056289448813;-1,38426564099478;-0,748817655910836;-0,0736483196043235;1,73140059166192;0,755005884272438;-0,0949254951154735;-0,118439009820274;0,774942109084649;0,0484812781470698;1,00666613184389;0,451024253102658;0,474431660334963;0,484173842131551;-2,00452696577874;
0,357074731445526;-0,946174517029731;0,551838624137293;-0,742617249635614;-0,332653888812933;0,449039610033711;-0,194525915771007;-1,12206687801613;-1,68251544707077;-0,565919090119262;-0,155388234039887;-1,25072999721236;2,34162790330463;0,541006323655785;0,00493202593734421;-1,62466260858218;
1,17453557853127;0,687313141593166;-0,545456059808026;-1,30503979966861;0,20170858341546;-0,296645078656123;0,894155689067945;-0,576398818917355;0,285760674457258;1,46201037419839;-0,184720876820182;-0,578217479578843;-0,249887827885454;-0,205250820116857;-0,0451531120322479;-0,830456925483824;
-0,151753321091072;0,112645799346981;0,257403141072293;0,51515723678921;-0,0783173093783631;-0,764352369777444;0,973706989593793;-1,83780169285161;-0,477830145346035;-1,9880744780308;0,00949990552054079;-0,290756624342199;1,68470932375229;0,0706691932224753;-1,17394071150106;0,853726460600131;
-0,50036757873128;-1,95488316228104;-0,836886118268756;-0,58536643916127;-1,09854328988107;-0,306564600031069;0,449897258866468;-0,513743437063483;-0,22413671403031;0,905680419127815;-0,344412321000911;-0,721317157501857;-0,810658147682021;0,390612784765223;-0,358111963009428;-0,289982411151709;
1,11088527347862;0,822879677777552;0,308754396833887;-1,4507214505472;1,7384916263463;1,83452375596999;-1,2061818293785;-1,44298990966182;-0,0482595396394108;1,0990882230404;1,06468477314095;0,0823424496769092;1,65993763426718;-0,342591939969037;2,26695486967577;-0,107408057860576;
-0,502135725917997;0,174910946417982;1,9102294705135;1,135151790994;0,171800537547006;1,50090091403499;0,139595077671858;-1,14667578489759;-0,59552818316571;0,552103793997462;0,770667379164206;1,13230348720961;-1,16847025069649;-0,494819186988538;1,14847549972855;-0,906496290662087;
0,362907303559602;-0,381381604902187;-0,78233749230857;0,313967434651717;1,84933050994316;0,506983663576279;-0,151699736056308;-0,831554693109361;0,323016240715502;0,941175579635316;-0,241185746673786;1,18894196615085;-0,11067651101762;0,138688087397752;0,122241960502957;-0,665963293003587;
0,143703434973158;1,94870905765032;0,256119818605904;-1,07701588878909;0,502167348544641;1,2627717185395;0,39646829023732;-0,530017170295606;0,581493537337098;2,80933881918096;0,225655499995276;-0,123233757900111;0,62387538183036;-0,443215617363945;0,535376426616784;-1,19635314570396;
-0,964399990940033;0,622935403235964;0,723252134145492;0,0747070867984509;-0,0769286250624278;-0,211460152031881;1,37279446179452;-0,981052683254231;0,192356975785423;-0,241989420063708;-0,49713824066072;0,175332711676327;-0,0534684399370812;1,88862419132118;-0,683376946490583;-1,70487239042891;
0,358151463073563;0,639954605517034;-1,49017162985391;-0,964330665743748;-0,125938423795456;1,523134434933;1,08913430701215;-0,339765977740007;0,320253204749979;-0,305937488650582;-1,01367122936824;-0,300193358863821;-0,81613116347601;-0,109031634410277;-1,27925220601213;0,496231495963898;
1,46912392290479;-1,20870628862364;0,177388094881018;-0,889185138232845;-0,877978962531097;-1,57870211984643;-1,42586435754158;0,35221459818858;1,6141377486034;-0,459289186870235;-0,51252895795231;-0,814021928085965;-2,66814889955556;0,462811445226231;-0,275382203514377;-0,1737051430762;
-0,644393841994307;0,584863687238682;0,121981016105593;0,834318009128507;0,201121677462715;0,535602059115347;-0,360818965713533;-0,382663637029473;-0,521894808606812;0,311931190436786;1,12786431668042;-0,954669629114106;-0,231988542702186;-0,27317910251352;0,441096532723538;-1,15122729905976;
-1,17956925646489;0,271716181691495;-0,332146923152101;-1,42125527242221;-0,165120236816984;-0,368054715235908;1,08277040104819;0,219893626736532;0,645266745476906;0,942330323296308;0,437980740169998;1,91268289569232;1,24106647492087;0,32210441942087;0,0826732123646682;-0,847499674624267;
2,16022781717956;1,43091225729418;1,0127670580527;2,84484919981823;-0,79395304413886;-0,464563373877041;-0,678190844012429;1,37107617036649;0,266793537318952;-0,350691944804725;-1,20066170095658;-1,39354159866707;-0,963098045312842;-1,66623875803929;-0,180975775113555;1,53419958284463;
0,818235063186119;0,684123985453638;-0,237487566071907;-1,77317358478391;0,550579226994522;-0,133103838606127;0,488127261242245;2,323519245414;0,281934498746284;0,338697324505228;-0,933784253182091;1,85513729035548;1,97915973112162;-0,757664526238249;0,390943665536658;0,464967370868178;
-0,18347462065985;0,0990620060913251;-1,46211746808043;-0,860607709189403;-0,228095494562353;0,0241139572900332;0,167251651218561;0,478984908978326;-0,489815972056518;-0,390057270181368;1,9819695507145;-0,281905279265895;0,61354367066085;-1,26731377887143;1,14125259034098;0,184010986113553;
1,12076458500949;0,901700915436684;-0,0480732295699017;1,48045992367275;-0,170014822725844;-0,738319189730557;0,954956929770767;-0,277545608788478;0,684186907390903;0,115589421649163;-0,75913613892881;0,333268136922929;-0,458794208069558;-0,499077973314261;-1,10975428554767;0,282326191259805;
-0,0726517541696612;-0,318628797354796;-0,691278950629984;-1,04162514619042;-0,653334852091639;0,820000503018187;0,308830891839839;0,0223271008682164;1,66568607212979;-1,86240300321559;-0,34972266084752;-0,353525822018127;-2,13183488011694;-0,403042462796874;1,99728538369649;1,02407102636805;
-0,916692051444682;-0,595718021481447;-1,24776363487115;-1,80558659190147;0,327824260930507;-1,18241220152083;0,368490532910556;0,388352526911237;-0,851649369021993;0,97525037274916;-0,602198021079335;0,279178982453798;2,14746625359228;-0,492242882058502;-0,0934130527343105;-0,21376251186074;
0,560424589979528;-0,0562189176916434;-1,31412975733104;-0,118290399871473;1,45375896358997;0,0690481233053738;0,806659191066164;-0,708994185974563;-0,186758917423378;2,29002582352295;0,762593047182964;0,902746421728024;-1,55905692166009;1,02552504135922;2,03854813885238;-0,423513375908973;
-1,18233382579524;0,250389888136163;-0,332093729885861;-0,582297770939687;0,969318302983556;2,0616776858558;0,188224322823661;-1,50403094453452;-1,2377328470896;0,138621069621817;0,329762003112263;-0,452536296120684;-0,53280431768774;-0,482080699613743;0,968458028857429;-1,0478208071338;
0,815371131530295;0,0240337498920924;0,643980672143598;-0,209118230717076;0,685128493609349;-0,911742305580811;0,941385815254275;-0,111250283377541;-1,45702676935786;0,410238151960845;-0,494714012100429;0,140700038676946;-0,50759571806889;-0,252916591769778;0,963657080155525;-1,00083243414121;
0,845540068825355;-0,77640935044204;2,17160995156538;0,259051934077016;0,304760113453518;-0,453175528601484;1,30393998420641;0,481525963863798;-0,944183704667032;0,619518109083752;-0,026265962315519;-0,291143012064822;-0,878362392932834;1,49856797925824;0,519017895849108;-0,433176882669733;
0,622588977298237;-0,0347529670636576;-0,441628361092467;0,0206054758599138;-0,213009133146929;1,5121311579007;0,1691856753448;0,0764911639628767;2,32368197770051;1,48963904052838;0,622338209671569;-1,71692455016328;-0,896245113648301;0,799313153633915;-2,20057028473123;0,00594026438692861;
-1,02191280469066;0,562316027687647;-0,675244988330201;-0,736087081008683;0,0270053602896679;0,462336222648457;0,769865999506584;-0,163041337311873;-1,82335476480505;1,44467600716473;-0,592974621474814;-2,19059884272151;2,64433330036731;-0,596308851127681;-0,305588246384029;0,0971266162813761;
0,308209532431911;0,717286372771558;-0,581651783317784;0,588746739555775;-0,519949675754488;1,29040486538027;0,787470555470141;2,36294322361525;-0,597466936945531;0,206135166047743;0,852667824571192;0,670297847250241;0,208533089440585;1,86843204798238;-1,56363122241027;0,777001215866099;
-0,190732867610635;1,52641654225061;-0,745760533711369;-0,954060319249657;-0,622460534429113;0,476083653472901;-0,392532997357424;-1,26702601411881;-0,114466201893336;1,23594543331879;-0,433412423682048;-1,39335952116532;-1,77277457954731;-0,638530817893461;-1,1789279466316;-1,68152745598188;
-0,172323182705296;0,0398772246840908;-0,0831262064929408;-1,72196151900519;0,577016121468262;0,311635660502474;-0,623141219936729;-0,222894807389787;0,484236472973615;1,82814485730582;-0,675260534938353;-0,564993240231636;0,922008797492042;-0,456784781679588;-0,521296010608661;0,190349360940159;
1,20708335513357;-0,413532361055863;1,24308948906974;0,0749605933412132;0,472486038568209;0,804167738620417;0,119906097390721;1,3531422991386;0,711755746877806;0,879442494779757;-0,517207233848908;2,27061621825233;-1,04451992653202;-0,284043522179235;-0,593479649911164;0,790075377213646;
-0,932417666157704;0,799022249125897;0,7556273193767;-1,07184731272909;-1,36216553086141;1,2340326052442;0,775159895513885;-0,265702528373522;0,372315134815846;0,385577650619559;-0,226283814923845;-0,117674862361294;1,91993155313959;-2,12571066575131;1,37411703855828;2,35763566310978;
1,2792821676696;1,29124172682514;0,84029212720951;0,687799230356455;-0,238064559845604;-0,485672029651865;-1,1370873917732;1,27218266750682;-0,192475426591264;0,642718374241201;-0,715246692545883;1,35370046151988;1,17663740239203;2,75143112748869;-1,07065392089771;0,43561434225471;
0,563060548609464;-1,89095219073695;-0,0798985690414454;-1,60574929117494;0,417422235670984;-0,0460646425685802;-2,29202212909025;0,0640277565181217;-1,37733171647506;0,260355371025758;-0,545394862729066;0,239989447462601;-1,65567968073518;-0,889816470900252;1,17333992391188;-1,66243637937716;
-1,00325610898769;0,955560527817755;0,93068280734573;1,16430906108412;-0,663216294320774;2,10958069371953;1,59282130001273;0,455726869508911;-1,54813355559439;-1,90752537093101;0,0402237662160282;0,136146893559992;-0,86395713236271;1,0517221283204;-0,853748819705253;-0,306060753641003;
-1,29321857052591;1,25411085436796;-0,568316226298659;-0,127493589133579;-1,8888156043181;0,538967333891399;1,02728288997383;0,955495923345902;-1,20859976745734;-0,557999892713274;1,41719909965931;-0,0692570102102582;0,9092294118701;-0,0923834813093304;0,92447589226949;0,318295593218403;
1,59376969245863;0,381261696555179;0,66775679134008;-0,0414002966102875;0,417975017814839;1,07740439544121;1,18126668377654;0,969220205772927;0,568504210788801;0,267841114480175;0,627136713301824;0,494033625779979;-0,418747780610766;0,749229695309726;-0,758968348029275;-0,797947856247418;
0,388473583179617;0,865672100542334;0,114686929731344;1,29790971938963;-0,0849900910930349;0,538539446397907;-0,656809020982512;1,5677893194741;0,122923623457255;0,829431097803451;-0,161968381392964;0,312737786148156;-1,25285884174405;-0,99958644803523;-0,799693588375156;0,394869504731166;
-0,412512288629537;0,168841740888061;-0,108829012709724;2,57857812870029;-1,80757437784695;0,753605834969563;-0,669998251067197;0,229330202822898;0,648514597765075;0,959736885157878;1,42842862762434;1,16184945064844;-0,0427739590853416;-0,7453026858162;-0,932758869774367;0,730719232074627;
-1,1451469977609;1,46336260811295;0,813700588140768;-1,75302383770947;0,611698935775687;-1,72030405227494;-0,0304975968823943;-0,677067665012583;-0,40862364270017;2,54336328380417;-0,0151331935513959;-3,08528686613872;1,57409252718982;0,701860572105657;0,0115449877374963;0,382120863926933;
0,563922561100356;-0,385199188903702;0,95173992321294;-0,816072454413309;-1,19564653695342;-0,542284544767567;-0,386212190331322;1,37729450798574;1,26162002519529;-1,73099545073101;-0,575715888550517;-1,4326529111802;-0,417810311303685;2,21148260076178;0,333805210118744;-0,229427388420756;
-0,98185068816618;-0,293890274912567;-0,801502149679051;0,668835159661946;0,458326813849083;1,17371432306821;0,725785467053235;0,336722019963381;0,378576689798173;-0,518822931464566;-0,304656712095454;0,71829295734563;0,0719015541563753;-1,98195928792028;0,471254875613616;0,616942432138576;
-1,38838872750558;1,48094811861233;-0,446978791611883;1,17256311803734;-0,844502482515911;0,0425918022756647;1,04536900139479;0,166234991178296;-0,58929856356102;-0,0785827897185922;-0,791917581545284;-0,800636783854381;-2,51742629873252;-0,796464126612712;-0,534665949671487;0,790454566159019;
-0,161559444773774;-0,355831637298409;-1,48889697441218;0,889313146465319;0,258413736988138;-1,65746351493774;0,041432652403183;-0,794658235867255;-1,20242558360894;0,217676321128875;1,92259919944906;0,507186427291366;0,304637973695348;0,553499493950216;0,0774717801047743;-1,08311187390593;
-0,851171209699987;-0,498119832986171;1,38088624512209;1,69600541576823;0,129347330117498;-0,492054415534697;-0,821002001669823;-0,319086156856842;-2,11320097253594;-0,364386929784825;-0,0626187658785546;-1,44021283488622;-1,94926365761448;-1,21562902837299;-0,741439376336523;-1,12223602060674;
0,0494272823014697;0,861017123587416;1,4897118217383;0,657237677408182;-0,434860765772756;-0,176919437508492;1,10908208791134;-0,920411454992757;-0,115530158271429;-0,0455310555077924;-0,23061434002634;0,506298496928782;-0,852667495335159;-0,608847317835921;0,815963148796582;0,934631508128212;
0,697248740508834;0,680439538807793;1,6854420125253;-1,1556790132363;0,493389035660643;0,478729636668014;0,929791109903545;-0,545422942553562;-1,7833977736403;0,0789662154467234;0,8447460891097;0,758306896721271;0,872291763531799;-1,3134958802628;-0,265992237020191;-1,02601299055279;
0,383122038075057;1,7169364577235;1,28485627656011;-0,147193396202464;1,77124675981558;0,0547855460948766;-1,0272795408854;-0,164873499159763;0,0998404785736947;-0,736627331868159;0,655823595689883;0,285395129833262;0,244428233533881;0,265524905792984;-1,75920018217074;0,859052166364837;
0,668600479332142;-0,21639476404644;0,619120267116257;-0,827019144175329;0,338107924043019;0,26624217370248;0,782102385906059;-0,635395742147211;0,835481936899664;1,62366045284037;0,13239135553898;-0,668295100370833;-1,58483605352414;-0,434040592412345;0,527259176747081;0,903178256219263;
2,19146718898578;0,497632295192081;1,85659806504883;0,568654699175139;-0,132481303193863;-1,09421181612199;0,851269413572848;0,750397307773674;-0,861925121755461;0,559747576737124;-0,677906465980586;-0,209399024099537;-2,33448874008487;1,22298895787661;-1,08773359706576;-0,225594026723714;
-0,031114469376868;-0,310915875023012;-0,701329869437293;0,909939720710814;-0,317282132599378;-0,20588699274159;-0,211444056706411;-0,669912907448847;1,96640738228304;-0,846329569010022;0,670758018171635;0,400567251463887;-1,19041255037874;0,0203592021846959;0,0590356628179756;0,421676857666967;
-0,437752460718438;0,188071407725865;2,44530841346139;-0,487551918910979;1,58591215134889;-0,144068627259894;-0,50039538188636;0,275074000487851;1,17850921470203;0,26220891753082;1,36212486913262;-0,754417848077963;0,890238299593999;-0,830571248543504;0,767087982466605;-1,45362274441673;
0,29070104763075;0,660305972318715;0,167076014616162;-0,34252110130066;0,567861552864456;0,27236999827749;1,06139743922881;0,747521416818165;-0,484114767929781;-2,03784286816624;-1,28701132305963;0,425165749100098;-1,35436103726706;-1,07194337975996;-0,241801960396286;-1,40884010280101;
0,333675655039689;-0,578309107951858;1,44244791523131;0,194992941672667;0,411387890690094;0,685376845664504;-1,25052986858532;1,11733220245892;-0,748413020373619;0,810443983552892;-1,55355499835663;0,833378122850114;1,26636174444301;2,58278892469484;0,114666519283763;0,352226872522989;
-0,98357926823667;0,952990063516149;-0,0565335309826006;-0,0133093659735129;-0,34371100914691;-1,86708598012508;-0,783787946651323;-0,503124312621668;1,66153837276763;0,785394690370715;0,000673409751265965;0,912628222863945;1,30677771397234;-0,348750210295439;1,6826801756375;1,30838949499627;
0,12973786153788;-0,0875716433805696;1,1934107423785;-1,03737122265466;-0,55329005741656;1,94509755492361;-0,433808528469488;1,11706653954097;0,410208380346654;-2,08458269974917;-0,500607920065252;1,22090495489437;0,58659844268462;-0,0276579927632336;0,506922957681456;-0,481600647560193;
-0,505297193711569;-1,4780985474011;0,420704471296611;0,0834829885296825;-0,391398561052798;1,67698592762747;0,496166236338092;0,243465297055284;0,552183385973716;-1,55485399440677;1,8796513524747;-0,877334072049366;-0,710990409733219;1,72219483263284;-1,80152323297416;-2,11760508448775;
0,483435086849487;-1,23696513773284;-0,620456681340298;0,116571663897117;1,12591156011485;0,271013646707468;0,0530787356245509;0,588363712730704;-0,511210675384377;0,518322629233914;0,0693295796673042;-0,173854621052907;-0,388535274364452;0,286681080991661;-0,0493360067054098;-0,0275687990214572;
0,112249208271616;-1,05092662738144;-0,111378957917899;-0,262379086179461;-0,70667197816418;-0,114397395641729;1,05886558522613;-2,46289601606814;0,858840463693743;-0,0288979605832983;-2,5839588854903;-0,180508016097791;-0,8448169898815;0,931019334262172;0,279483383614619;1,15371856557291;
-0,311053999999899;0,58427529494488;-0,651015734436172;1,57510224608476;-0,51553445507646;-0,0542714013233436;-1,24521921983184;-1,75633877315982;0,937065903452775;-0,896608827423683;0,303255173026944;-0,286842044366598;0,0726742317838487;-0,285887716928393;0,0227436840911507;0,027019589256419;
-0,028609524744893;1,94580241839896;1,9585967220861;-0,47287303071071;-1,31466403372353;0,545890747622755;0,727152554439393;-1,59298963189852;0,159633872875199;0,0576321384872351;-1,00869332535907;0,858613244111833;1,83162702772647;-0,334346330775091;-0,819142317528448;0,251637794352209;
0,606006677615871;0,394369441165931;0,862752170096147;0,994069027029769;-1,56717591444214;-0,653162644565236;1,06607923709842;0,728786801839526;0,309206095313801;-0,277281844181215;-0,13227855785869;1,38813510691234;-0,0661296670792961;-0,144561102477476;-0,929751053456614;0,180146099699752;
-0,44086025917077;-0,612911667595713;0,441023025678687;-0,650717527624057;0,325282335207761;0,658124622957644;-0,624060920886023;-0,679955888920565;-0,0378269766652869;-0,514940902843591;0,200028577807746;0,185431571163038;-0,196804198900529;0,980459820979284;-1,14513899790976;-0,495542106988708;
1,03194969957517;-0,363153651641412;0,652509161488784;1,24334172344088;0,617844441126136;-0,148028686440725;-0,633378684940653;1,137766562944;1,24843957233854;0,0524762653672136;1,60873959336215;-0,99927121843948;1,28977549453558;-0,139960783049817;-0,136202128432215;1,15559605600024;
-0,455496865977008;-0,0981562219347834;0,0638418942450742;1,09539522892558;0,488530734938716;-0,262768777896696;-1,69162381944235;-0,0563810217962036;-1,09541380080112;1,79559833083618;-1,47055003655384;1,21676627604574;0,452988037877255;1,48976615800837;1,01194577139895;0,571331582196353;
-0,558119052193635;1,95160695994281;-0,031032229892488;1,30680953881866;-0,0181180643157123;0,554740504945243;-1,16770334053143;-0,824870893073909;-0,856776791597825;1,04158967408524;0,674791494452722;-0,0776471881815599;-0,317537927901319;-0,67587064990854;-0,301659356700219;-2,06099155512658;
-0,438692017799687;-1,04385795619572;0,00496533065135064;0,856232051865215;-0,302926610027827;1,29639295793759;0,244836424207117;1,99292858954392;-0,663136065896731;0,357817639666967;-0,358594246665206;1,57126683167946;-0,212987486601067;1,20084852636778;-1,69056843938547;-0,394405770276827;
0,305434268848467;0,181911577491187;-0,434043626251398;1,17200634901741;0,327104046175583;-0,42547941763173;-0,571169522616773;0,363145093658128;-1,06144491241639;1,53012527312332;-1,78299350470942;-0,0719116669838414;0,386694585538534;1,61525402621083;-0,720850563418517;-1,62590042336903;
0,357008246545186;-1,05199677280346;-0,109081005161726;-0,166348381602547;-0,979551691051986;-1,00860815160646;2,45924027628338;-0,72371418344596;-0,137387089908493;0,00702974830410962;1,22419451754417;0,629775859562406;0,957862390715446;0,497527044407043;-0,246867247215515;1,01590957982586;
0,489634659720239;1,06855826687092;-1,48409268029613;0,0573758683684528;-0,465264191831931;0,240933834104311;1,48870444138205;0,219514306069465;0,823118284479373;-0,200744939248908;-0,831265692577826;1,60872535269587;0,893724616617871;0,795116611017838;-0,590670647120741;-0,887888706742674;
1,48969514932464;-0,246194103055549;1,3575684628325;0,411747906223815;-0,576960968313878;-0,942567881211328;0,775379279417922;1,05476849580439;-1,14880694377887;-0,958400086366372;0,381347840481116;0,432709332489216;0,309423510289609;0,211754568981983;-0,155110107468656;1,42312385982668;
-1,44262639503424;-1,4376816758669;1,2472688779427;0,217216672919463;0,966352931462871;-0,469974364782217;0,286342011955303;0,912341265745371;-0,842153641930437;-0,0899327836710651;-0,127844720709571;0,788764249731114;-0,358953397718873;-0,0318721777428694;-0,627216349721984;-0,340746763766785;
0,875819845369934;-0,725733562579;0,201804574332583;0,417878990867748;0,853342379717263;0,0211685903817973;-1,78340625872274;0,238300264035653;0,844554577811968;-0,263963951499911;1,36197535430857;1,49702305054592;0,497566234794088;0,468149190492477;1,5904931481856;-0,653126277283074;
1,64158716628248;-1,54869120390319;-0,772934532307132;-1,22862374982985;-0,399910328680687;-1,11611880644224;-0,168849123328981;0,407799041295563;-0,116421467748647;0,331355934573262;0,743843578183549;0,835030776621791;-0,606780805118093;-0,362896670375242;-0,753215084896824;1,01606310343743;
2,30697639295907;-0,482127659176163;0,928640376001606;-0,833450908460503;0,055606488316427;-0,0384905746913049;0,0706586702704714;0,867997648393085;-1,27753206682162;-0,540612546749964;0,233900452732471;-0,744959623664439;0,662099721549764;0,765796783872503;-0,581530977323757;0,627879482959133;
0,0443121868636084;0,646640431478799;-0,860710570560222;-0,733951098495402;-0,240303550391525;-2,00616881966776;0,369863682693778;-1,47088184803643;-0,123307867289744;-1,63181047553405;-1,10297532090391;0,0685152358318822;2,28355361982544;1,45556893639904;0,241650233212809;0,16684069895181;
-0,769318732743793;-0,284708627898729;0,910337607219775;-0,442171324156981;0,161632038380577;0,695065004257679;-0,0742997886349255;-0,845673868038617;0,105597810397073;1,70950724434669;-1,07652142677108;-0,662213711684551;-1,47229098340347;-0,335287887485035;0,69809432159599;0,456243053590037;
-0,968808416342652;-0,0569008075058819;0,359101899701729;-0,16545713953407;-1,09817393993261;-0,909484736699799;-0,0533160865825593;0,799347654983908;-0,515658938225525;1,16623108482221;-1,65283905570197;-0,0179662448339887;2,09363276260439;-0,623240332232968;0,12225082743344;-0,421970228775948;
2,17121973007627;1,10976874927756;-0,493546630392222;-0,816031562793417;-0,304374080884433;-0,778174802122007;0,166340176787822;-0,675989055062657;-0,671097411668855;-0,223151645752931;1,09224536967775;-1,2197426116394;-0,00436249470478855;-0,510777005234962;0,662794066463288;0,38107658568663;
-0,176822506317427;-0,805669533833333;-2,57453715727432;-0,348800457196827;-0,134051721001112;-1,59136054185602;0,0355025433116241;0,0260474997746128;-0,844394386595809;1,59195689432786;-0,170391804884302;0,0463157353560132;-0,0442622176290651;-0,966991714084661;1,01415543943623;-0,185012542657688;
0,626360378165348;0,149103687758212;0,151103170423385;-0,286010545314187;0,240720525120721;0,669288583192452;0,0779730909590483;-0,326247964313898;-0,366288508696646;-2,48310270468893;-0,124800095625699;-0,78343097740694;-1,50683674678649;0,467609125614073;1,09038362952125;-1,03278078270297;
1,47335451521162;-0,3479314072306;-1,25305214080767;-0,191713105414924;2,09031916478713;-1,69515425086088;0,494374685087605;-0,183903342662253;0,543729531549434;-0,862624597063285;-0,847669901394159;2,73907592465805;0,22805771697896;-0,369011085472264;1,12638562130467;-1,34407006219496;
0,773679573590865;-0,148344956540944;1,02582854828261;0,524005208713353;0,0721662622779233;-1,01951440211462;-1,27007351097117;1,46922736919832;1,17905083364057;0,872664154313976;-0,777661158168274;-0,817707496189436;-1,59104196641026;0,192535958987597;1,63515913235821;-1,46946026580699;
0,180383479450967;-0,265645702487521;-2,17357374080078;-0,0871772360520474;0,380505799442645;-1,61548945417661;0,22604551729336;0,174316737336532;-2,31043588430796;-0,408598325868596;0,716211112952685;0,952287468405444;0,755126564709392;-1,46519872901219;-1,3969641628662;-2,23640613769112;
-1,21054913837278;-0,101175090731426;0,461880507102248;-2,93581964809514;0,692726936273554;1,0301469133494;0,548893810067323;0,0556758692301884;-0,387138948568373;0,0347979676967994;2,11022237926424;-0,214336779618231;-0,867345562565026;-1,773492804631;0,928758778584596;-1,31368533524187;
0,701168756989621;0,677821394726956;-1,25895138460988;-1,73739928384283;0,815407807256375;-0,817965918373241;-0,931982081870726;0,641890004656872;0,985058339657299;-0,176951205583475;-0,514765381391727;-0,829649432734285;0,30101753834708;-0,239404418481455;1,58826090905041;1,27044375401034;
-0,474596119572824;0,618368378685086;-0,849614132419434;0,364895607718598;0,96577990785762;-0,823327357255375;0,901229981928012;-0,0745538870888822;-1,2650374129349;2,24405279856236;-1,20464524755421;-1,82030309339714;-0,351847325340895;-0,315696492054821;1,50069961867173;0,851105791717033;
-0,00235738203516295;-0,381580987830338;0,220340390425834;-0,355033132825039;-0,961792519276456;0,115834110245196;-0,375170921686132;-1,65577509152954;-0,823355210893041;0,230452009925754;1,11659681239932;0,335854023618276;0,072232525367619;0,5325245535693;-1,10087832419667;0,522177220185085;
0,584633685920423;0,561992065343221;0,65762665744521;0,891688892982228;0,188355778559695;0,563148338184042;-0,877028553509567;-0,0963987524621828;0,237862270055693;0,495162983715693;0,192934486210567;-1,774959661783;-0,249437019514139;-0,342960206754317;-0,554105375643012;-1,32963328112463;
-1,10214179750285;-0,327926402940969;0,356504513309234;1,74545282595966;1,53656798981248;0,70590617142992;-0,493752397234323;-0,801899719604852;0,928916458503352;0,37431486245347;1,80567763823447;-0,888774379244837;-0,380171585908932;-0,478997048951817;-0,694776652865285;1,37687382933812;
-0,396065983864295;0,742664856121205;1,87013335603131;0,260794203921498;1,08961650160603;1,17175582134968;0,112560372075513;-0,0281227224844419;0,0462534062994033;0,294380777226597;2,32317956829374;-0,847880035296079;-0,258076466237417;0,717144391067465;1,26310601874283;-0,449395705935198;
0,346112306481968;-0,121331109667493;-0,179385194965124;-0,696130177008709;1,15830203342298;-0,624414883368007;1,81874045026991;1,71024155580615;-0,658860232078755;0,196257921594674;-0,132214607795084;0,453851176754389;-0,614918265297178;1,67014993207038;-2,42651897669899;-0,0513067898886383;
-0,264964818362376;1,08909508371069;-0,489096284345419;0,362975650185558;0,5481813163661;-0,44900919049622;-0,11042108537774;-0,797400046908273;0,619373991494595;-1,01810977666754;1,49581972715549;-0,127649566962839;-0,152817917675549;-1,4809030434723;-0,915280091719989;-0,669606671844088;
-1,23479525997774;-0,314305776800485;-0,448440983260128;-0,892268733119424;-0,185295920417604;-1,02259304133784;0,473572925095874;0,297632392031788;-0,00774292331027507;-0,77323519886089;1,21853600718999;-0,80848874079456;0,0661273636263563;-1,32059776593382;0,213171698954349;1,17199696459049;
1,39038510483527;-0,988832613577604;-0,319010400017603;-0,587061169426317;-0,639088662668482;-0,317495416502017;0,119120221485273;-0,00904668414777366;0,195637107481943;-0,770312273596302;-1,67147841293105;1,19150234013503;1,45265353612163;0,673051140853081;-1,12004599568032;-2,1402722152137;
0,0786065629041191;-1,2737989050181;4,01505736530299;0,383661655646691;-0,721950471045861;0,786891873351593;-1,12835612710106;-2,30784766857277;-0,826865386661166;-0,0677533253099461;1,48703070347554;-0,0475028809251568;0,475474107160373;0,10738862935348;0,267490469126839;-0,987092265248302;
0,39618942575284;1,35505384705486;0,442934926752266;-0,782460733700938;-2,49399342846066;0,715304226810278;-0,369422849480042;0,254510560281233;-1,32279512332516;-0,595877132407737;-0,0858577431778586;1,1545656925343;-1,02792031137347;-0,294035306270769;0,160875317810141;0,715613478777203;
0,85408829601302;0,520068283468067;-0,732598183769499;0,198666972959947;1,41748554822287;-0,958704009532236;-0,219005704541896;-0,1030158141654;1,10092910262411;0,374096049200882;-0,663003357098783;2,10113800786219;0,299116400304739;-0,710504578920771;-1,83644100814113;-0,105404814576194;
-0,365184321326741;1,95269363125703;-0,938799484245791;0,856152787349821;0,774317224794525;-0,456239069220119;-2,16547797477428;0,115500944238737;0,0795516098050274;-1,44037445256628;0,984690549245121;-1,08675497099476;1,50879945008099;-0,57763497930265;1,63221956804102;-0,349483852057314;
-0,161774858768155;0,712205107250572;-1,19817316697168;0,230696286735054;-0,883828019597184;0,468346856608276;-0,163591706027731;-1,55680370492003;-0,118831451231221;1,7700358030899;0,324558780414538;0,0652100546721177;1,23566851301838;0,408876034812696;0,870160826499335;1,1229313817538;
-0,346475763508914;1,07082443776184E-05;-2,14385347067498;0,252908776422447;-0,862724729446425;-0,357425965955041;0,498371032986029;-1,29239013358118;-0,28117747860063;-0,683117943121331;1,62948894019183;0,384142013072982;0,843926187957582;1,65176920253767;0,0925104291528702;2,12048447268204;
0,974740512500159;-0,626096840899195;-1,1491070241857;0,909750331579765;-0,211563140486435;-0,514839298158518;0,709423642984103;0,773697956768613;0,0292887911718192;-1,83030113663091;0,652613455451522;-1,79774797347465;-0,289571008495043;-0,598085076853392;0,1310086544288;0,300267928723301;
