-0,0448507476973033;1,9111579904953;1,96726006810787;-0,469023292090778;-1,32880643139082;0,544375067253931;0,718741317481699;-1,59276477816163;0,171906420161471;0,0447101307995845;
-1,02218097755571;0,84694637794019;1,81531161387144;-0,3303116203479;-0,833081509935368;0,239550763895037;0,590259611562396;0,378948106331452;0,892273015096463;0,981958531406683;
-1,56601106088728;-0,664579031226811;1,05884084383533;0,724534570172379;0,294413344556995;-0,276779751242452;-0,144824675475122;1,38658145290954;-0,0777880163653839;-0,153824043829596;
-0,942629487340215;0,172940966903695;-0,451832429381129;-0,628853831129185;0,424680629437001;-0,64641448297973;0,325946770468043;0,658586603491096;-0,600930095967258;-0,695119512658333;
-0,0487823669485596;-0,502962941052659;0,177787312879287;0,182927310222113;-0,231567828009785;0,98960299730944;-1,14682717522748;-0,50424356634347;1,04040266784906;-0,391174432946923;
0,652432149150276;1,23517950269865;0,61285972984194;-0,147511174222497;-0,653994240364727;1,14336011937489;1,24161477186915;0,0558673979404135;1,61234752797076;-1,01886465846435;
1,27942581131454;-0,148148776587323;-0,142404647690507;1,14429700338379;-0,475342015115356;-0,112658861366622;0,073266773058646;1,09581043065248;0,501356425654805;-0,278503455196583;
-1,69796173130637;-0,070117321830204;-1,10357739436403;1,79775542376457;-1,49570306333826;1,21449893284456;0,439187749031528;1,48739731153667;1,01946072840582;0,549587052382122;
-0,574850873775714;1,93449326881262;-0,0380273893545691;1,30661864926217;-0,0329106115000028;0,558446737332315;-1,1647234713364;-0,832071560798637;-0,834817487766499;1,03879899965564;
0,648348359019465;-0,0750040358952553;-0,337690454798955;-0,670994244846919;-0,315306231105555;-2,06819441033009;-0,447827062720325;-1,06565282976643;0,0416651523685668;0,849047910367627;
-0,305972061642854;1,28836131112609;0,239371539061597;1,99692613505074;-0,66970712728222;0,371180371170001;-0,373367901830194;1,56662285178888;-0,202435397870257;1,17796324077064;
-1,69072336407587;-0,41023895137614;0,297046303849888;0,162853070812217;-0,416326544672114;1,17326025578773;0,322918373515521;-0,425251105844633;-0,576640762390278;0,343551512432181;
-1,0614611514512;1,53034927660936;-1,80424012151058;-0,0771878292831771;0,38343031519102;1,61162028304203;-0,722710108447119;-1,63267171503151;0,343200803124729;-1,0839599941231;
-0,105746322048779;-0,168941644649493;-0,987819618265685;-1,00823495023123;2,45242698133438;-0,725268383173816;-0,1358530784;0,0186390731029534;1,21532097734321;0,618913266379787;
0,950518287905178;0,500482351438976;-0,253641182103022;1,01263931367347;0,478589743051587;1,05201360595972;-1,48758817184428;0,0585960285166584;-0,456720714579175;0,235234413464315;
1,48761527287038;0,215466613624089;0,817950972443774;-0,195270452212443;-0,839775890923138;1,60840405449895;0,890916724065471;0,798587263204955;-0,588318067539409;-0,902313435793449;
1,4920121420971;-0,267621615110236;1,36765620349484;0,415175180111672;-0,579276799244698;-0,94156079852261;0,775420328448295;1,04454994731793;-1,14867628417554;-0,96767854355399;
0,37391382638712;0,421989453867502;0,295314146102944;0,214905109996829;-0,155859487354454;1,42201199108372;-1,44373736579704;-1,44482921642726;1,24609758462377;0,209574977154366;
0,962879191803623;-0,470650377561437;0,285779136074918;0,903900546437739;-0,845234543992047;-0,0906340083460985;-0,13817739523102;0,78835014660515;-0,366895704087669;-0,0380686097039244;
-0,633607952573666;-0,341188788162771;0,867077390177005;-0,745888868230148;0,197084356218145;0,422843782568292;0,850228896851902;0,0212236055146682;-1,77687060864443;0,239829676717323;
0,83633679359803;-0,264953018217797;1,35876487628789;1,50025902960578;0,494525164126765;0,47932661329135;1,58342689088621;-0,669013778931365;1,64886417739899;-1,57962191003031;
-0,779177865492439;-1,22992308752614;-0,405772840600226;-1,11360210102669;-0,173818850895058;0,410632097180289;-0,121051274356905;0,327880316299163;0,746344014902421;0,82482932335559;
-0,622778496794386;-0,373513571868377;-0,765563900530509;1,00962116859317;2,30488798880578;-0,482363249663951;0,925547706915031;-0,833894487939612;0,0572111356303258;-0,0492466432756327;
0,068860055615672;0,863898685328683;-1,28607532896976;-0,541405936651659;0,220557676411652;-0,73896800237253;0,64111546765837;0,772029932017683;-0,568883674017129;0,610861295332349;
0,0373766037643077;0,630377502025675;-0,870257018100956;-0,732916082080526;-0,242856034364674;-2,00161508761029;0,365768522768721;-1,47144024569765;-0,109458758105161;-1,62685076943012;
-1,11993560180443;0,0559427883850654;2,28249119033479;1,45566638519689;0,226402433238038;0,160968931002899;-0,780965760395394;-0,307941754001314;0,951373204833812;-0,45520122384182;
0,153313004547374;0,68605992740377;-0,0822232544704176;-0,847768744623477;0,0976393275628574;1,70787647680884;-1,09577758994973;-0,666530719670132;-1,44099754107704;-0,351164619382206;
0,693968536039225;0,441777721834946;-0,982911543399;-0,064562720037903;0,35197158371873;-0,168466419316657;-1,10966353750729;-0,909579578680749;-0,0272643528214708;0,786186372691854;
-0,519158979428275;1,16116423211485;-1,67583837015428;-0,0178757722265934;2,08420707370716;-0,621146419388611;0,121047225730116;-0,424413369308803;2,20244106305033;1,10468925423802;
-0,495397384519451;-0,811235723950136;-0,311136006709843;-0,777476768459691;0,15440145804;-0,657556946726399;-0,673020979308219;-0,222897202487593;1,12495629711882;-1,2252438075301;
-0,00904840452747823;-0,521561287750572;0,6630733421999;0,382573978229514;-0,192316441192765;-0,803657707395689;-2,56225495509195;-0,347855882590364;-0,0992795898383102;-1,60387014737449;
0,031966023095998;0,0344526537544482;-0,846704020989751;1,59367808684229;-0,176967182849987;0,0454003921151388;-0,0508060601159379;-0,968733116282293;1,03777938609612;-0,197377623038264;
0,623293561732482;0,126805585150854;0,137467354522374;-0,284540780547259;0,224177812835464;0,670771110399303;0,0760143325036402;-0,318017391230031;-0,340273160328593;-2,48138574340518;
-0,132275167730048;-0,787489516386714;-1,51986655237929;0,473770213857321;1,07754242177686;-1,0352642270096;1,47049724320757;-0,345494295239005;-1,22352096978297;-0,199605110274539;
2,0849217860782;-1,69230527247042;0,481060496846475;-0,180774420996769;0,533434269699531;-0,861499121894476;-0,851390731920972;2,73705333994062;0,257554007941794;-0,375588515989987;
1,12509267593796;-1,35998252837059;0,770504910887844;-0,14554235155739;1,03349873823882;0,52520325365178;0,0664387030955897;-1,02077140832032;-1,25713506544668;1,46038324781898;
1,18148951436359;0,865187087686337;-0,77809634429395;-0,817997240838074;-1,59720030328132;0,19007895516065;1,62912251932183;-1,47733161707612;0,188656039432236;-0,293516514991753;
-2,18060659527286;-0,0996507691653307;0,361538864012015;-1,61360011038826;0,219521704146675;0,178269610517677;-2,3092830747392;-0,400575990526924;0,723742288129014;0,939278673649245;
0,753581610752843;-1,46486433725661;-1,40593107602663;-2,23999042867865;-1,22004034438299;-0,0965345063843093;0,460783662290763;-2,93650930930512;0,711081429374422;1,02035309241373;
0,546087382672341;0,0595956622037201;-0,393481916174691;0,0396873806856837;2,10861140393083;-0,214262142896731;-0,863025750836493;-1,77452970107828;0,949283617311073;-1,31915739320714;
0,700378280736469;0,673045385245838;-1,24670033861039;-1,73670455372276;0,810337507899921;-0,819137135040621;-0,941166094336054;0,646121171975372;1,0049002205751;-0,179335175797485;
-0,513472764015565;-0,83928046961631;0,305189262292924;-0,242518956925299;1,58441379053636;1,2660311795361;-0,481564418689001;0,604810390145329;-0,832145895362113;0,356301149045576;
0,961895195047165;-0,832843317349153;0,889444256526586;-0,070762769722454;-1,26496923720315;2,25392370405979;-1,20997969854828;-1,8193475063497;-0,335987550755304;-0,324319231663797;
1,49224112082381;0,848533769917253;-0,0153814958253919;-0,374320435043234;0,227516679708107;-0,351538499306198;-0,961038442881244;0,115513653767635;-0,357665618601658;-1,66028686993636;
-0,827524337600746;0,237873421537867;1,11068175687795;0,337596962367963;0,0718826760393759;0,531790938996241;-1,09778726595138;0,519182563840196;0,598883313952464;0,558815310698558;
0,664780222598808;0,887463790560018;0,183278607200235;0,565195739853406;-0,881764249043776;-0,0880427134120619;0,231925334834063;0,492073276460089;0,212337656964638;-1,78497444613946;
-0,262999560280798;-0,343143255920959;-0,557855293208134;-1,33123226069287;-1,10591909101889;-0,3391535859203;0,357977923771931;1,74068726758177;1,55208453115463;0,698320053756681;
-0,494975028581989;-0,810161580462749;0,912702932872602;0,380800966158959;1,80315772451038;-0,886056814991749;-0,385281156132861;-0,476155925782645;-0,674983215757517;1,36671161752903;
-0,403186800788112;0,747193110984364;1,85522787527906;0,266017073581211;1,08357902244302;1,17584223448393;0,106476523521528;-0,0235652425993319;0,0665304238964537;0,283267830304194;
2,32559277367808;-0,841813976281834;-0,278176179240599;0,726137201222927;1,26314627738609;-0,45613044568394;0,3472141599103;-0,1239095248636;-0,160554288628548;-0,695975006678872;
1,14680638305495;-0,635455231478695;1,8150160658839;1,7135831906408;-0,670273022253291;0,191746483518073;-0,142370087466418;0,452928735311915;-0,593047840921686;1,67412859888991;
-2,43865558341127;-0,0739187061053231;-0,271439468370782;1,08150718526192;-0,498887348758078;0,358381397357152;0,542505093952283;-0,450033647052297;-0,0727631257410563;-0,809941055095941;
0,616119681287794;-1,02738431669863;1,48679038758616;-0,124642576139516;-0,171666986596278;-1,47837121778844;-0,923791143490582;-0,676818743659786;-1,20892430158932;-0,325098586845397;
-0,451983303092014;-0,897325269234791;-0,195397439754415;-1,0234731154175;0,464129004589438;0,299171856289757;-0,0104979998261062;-0,767257737562358;1,25570564541236;-0,812522556476061;
0,0621673799064818;-1,32156192886139;0,20095941845516;1,17042639050022;1,38598734464097;-1,0009906137491;-0,31600206166815;-0,589407307843362;-0,606851360384065;-0,317077537438481;
0,114639238812685;-0,0191972568960791;0,19638120372024;-0,76727271786277;-1,68642778683492;1,19468418079982;1,44694337437134;0,675840352457552;-1,08435203428042;-2,15095504556014;
0,067799970877688;-1,30484369451393;4,01622183381495;0,384056040611409;-0,721198564799191;0,787377822300027;-1,13028846155085;-2,31761613722882;-0,792699002742768;-0,0669288716641888;
1,48347841768772;-0,0596769284884128;0,470034706971094;0,109057801838737;0,256720721641821;-0,989630447205174;0,384200502744146;1,33344443455454;0,47997201866728;-0,782631427516557;
-2,49543071481965;0,710397174426265;-0,379620444432836;0,256007545015899;-1,33550738083447;-0,592216044792158;-0,09865449415518;1,15200392316224;-1,00813098746697;-0,293589116463488;
0,154005445128251;0,704814154131958;0,83410643783577;0,505027818591819;-0,722566587564109;0,199179717588365;1,41942185508142;-0,959207715507299;-0,181333359359578;-0,107261862825597;
1,09337567073222;0,365550619168708;-0,671371913976104;2,09922600888163;0,27372420905715;-0,706787384538787;-1,84040732609903;-0,113498417268708;-0,342253714134587;1,92668733483009;
-0,941843493454322;0,846835077860348;0,777880798336254;-0,455610178930236;-2,16196138766562;0,107482981197909;0,0769501929275389;-1,43448613738363;0,991934540119726;-1,09762464225375;
1,48209265220851;-0,583315499909059;1,61955306626095;-0,358853967984885;-0,173896718478586;0,687851972573692;-1,1952601495231;0,233418068642115;-0,869433040831205;0,461966933495282;
-0,174840298320222;-1,56253460692836;-0,133599717762231;1,77220596432235;0,30696339492254;0,0631977374554607;1,21947152895635;0,411676881344852;0,89010242638184;1,10265295782005;
-0,358838182563908;-0,0208111878126912;-2,14264193938991;0,255797645946121;-0,864246573129204;-0,359765916676529;0,492995453827117;-1,29787261678205;-0,255056351336213;-0,683656725852433;
1,61069714991618;0,371639636385228;0,822943576149607;1,65481432582859;0,0865871837543111;2,10259010596482;0,961688423569032;-0,643946693857915;-1,12280070786674;0,909197958966063;
-0,215827614205901;-0,523507037970695;0,71255459379359;0,764768146558066;0,028437268257934;-1,82689867049673;0,63572883161802;-1,80074237793146;-0,287982456542579;-0,592780352880946;
0,123217281874231;0,279283867385691;-0,241601664691461;-0,168405329190515;-0,912427065495;1,27221200408272;1,91931325234651;1,05489279836555;0,191764922545839;0,359068848246815;
-0,962194383996463;-0,616351461417328;1,30157318940011;0,603539816904888;-2,52120819233264;-0,208783492393512;-3,27842155527594;-0,591518417004843;-0,270557380594699;-0,642918115171214;
1,04663508788096;1,04446014454969;-0,0123278311236228;0,797030603845139;-0,373976685779703;2,02222616702121;0,422721531533202;-0,840005136247337;0,950119366756658;0,0948016016681909;
-2,03013245862052;-0,843661955699548;0,288992004366531;1,88805511726427;-0,0877519458728903;-0,425066826594981;-0,576342893518226;0,902241360352649;-0,802041523961852;1,60908500006014;
-0,68606507964158;1,17545197451964;-0,815639353299971;-1,71950996244162;-0,573370122038168;-1,62408710793491;0,468675791713901;-0,526730853384991;-0,895927100449748;1,46009515952439;
0,27443490916435;-1,09486960793226;0,964072113070554;-0,181536033478574;-1,34472197253651;0,283040721021698;0,134424987299556;0,0961624449392735;0,911100845385819;1,71764693229453;
-0,240017241243209;0,877003210820372;-0,25786058237641;1,15218489713857;0,300257071687109;-0,352452046697327;-0,229383939481612;1,26267408096397;0,278857949073405;0,0058283167275324;
1,095611614709;-1,40240876710896;-0,299048643029249;0,134740780413686;1,16675112017398;1,66026700183257;0,736683251876324;0,230629060984233;0,270632151308174;-0,397023267499051;
1,17274973609268;-0,626642451216469;0,0194931779343884;-0,360524841831212;-0,242165896276149;-0,978716256853858;-0,710165295244213;2,51634914982336;-0,45585875239084;-0,133813156447409;
-0,0380944540005367;1,92916256530101;1,95733120292394;-0,486719990815052;-1,31708464334053;0,545419177944662;0,724299444185301;-1,5972424470903;0,149175574999769;0,0609031444783312;-1,01788293716345;0,856453626928898;1,81165702514031;-0,33352962207839;-0,831477339934324;0,242414745131723;
0,59443766985724;0,385789344630546;0,86970166501461;0,981171566871511;-1,56267085429876;-0,653613320276587;1,06639064324186;0,719528216478808;0,298352035188789;-0,276176336132327;-0,141630368261717;1,38580092163845;-0,0907657809830137;-0,144408848309715;-0,942806022696682;0,172894051005079;
-0,448796131477243;-0,618450473857144;0,431950886063461;-0,667358670063686;0,328095716964726;0,657519390838406;-0,617721077469457;-0,696105370869788;-0,0457613700162863;-0,507265600004892;0,181126248844032;0,183675201006195;-0,232426978463428;0,986867825350194;-1,15332744340957;-0,505002066794909;
1,02094990785564;-0,371733348008905;0,646172052068173;1,22848129966146;0,610513754036235;-0,149071191832251;-0,64006346246606;1,13545228977505;1,23996052905448;0,0578936438667037;1,59112014208931;-1,00181216674868;1,27039209806097;-0,139941796122819;-0,153063525895319;1,14248727794655;
-0,46703296076251;-0,100806323592905;0,0660057625764515;1,08032652781481;0,485286305263315;-0,2636701955111;-1,6946288103987;-0,0637388291132306;-1,10160762416041;1,79889972800034;-1,48658218800247;1,21115055089304;0,430741207957849;1,48658714286092;0,99670590069823;0,560796692578344;
-0,571476371665826;1,94051218031515;-0,0417554652279787;1,29071566080854;-0,0207437230358801;0,554242572871172;-1,16286751195344;-0,838784704048379;-0,860653800613241;1,04789121542544;0,655740402760986;-0,0797064674563575;-0,33530320093131;-0,672767891112587;-0,312421907835352;-2,07020318612613;
-0,448240038832012;-1,05881867911188;0,0128379649276052;0,838636685593118;-0,306006248838478;1,29574589969707;0,236519262333233;1,98971608789232;-0,666917068102162;0,368619926505862;-0,374563051957826;1,56824257419087;-0,211681595692628;1,19380619955751;-1,70307522095088;-0,401197041788408;
0,293090920750282;0,170348775961043;-0,415643149168759;1,15104601028585;0,32134473506628;-0,425548216618584;-0,577490234356609;0,351571108362241;-1,06475549355815;1,54313553890083;-1,79938365623071;-0,077181345122636;0,380617456455253;1,60691049574276;-0,733647207274261;-1,6342173689607;
0,342931364265729;-1,05539425746931;-0,110430460999563;-0,182385387825849;-0,984009759284337;-1,00928597394594;2,46129721975901;-0,735056371023391;-0,140521844835603;0,0180091354908092;1,20645270406275;0,627702632220222;0,946217767053645;0,49832001129621;-0,259600569105501;1,01160725295463;
0,482552884358377;1,0632651177599;-1,49963370003319;0,0426371598968538;-0,467340563886048;0,239928767335313;1,49076430419548;0,214167017468622;0,813425330980107;-0,19670154534969;-0,839124917987547;1,6081183883598;0,882388583021992;0,801469100780365;-0,603983222975128;-0,89495019147343;
1,49035117123586;-0,255543863796649;1,36236252059222;0,408444319487241;-0,578260406350998;-0,944240890239398;0,774777275140926;1,04146282688636;-1,15277206708635;-0,957762531944121;0,37861636966081;0,433965524697909;0,306963640595126;0,210231735342304;-0,157711747706188;1,41788063652111;
-1,4469826499877;-1,44005018897784;1,23861283206218;0,215644724094342;0,971246447817963;-0,471918522369996;0,290481736553643;0,898172188208477;-0,845321348556889;-0,0940424632270833;-0,138941950503732;0,789949387001304;-0,372269892812438;-0,0335888214001818;-0,629229246263375;-0,346428722989466;
0,870732949286184;-0,74011780074564;0,193422134513431;0,414903333567708;0,847087974305113;0,0185500014521749;-1,78584472376956;0,235212950958312;0,836863408027097;-0,259506585326358;1,35806570462941;1,49997568208009;0,489087154073618;0,474782423805718;1,58371909580307;-0,665397335367558;
1,64205892522585;-1,55590740656822;-0,783141324131569;-1,22483731275087;-0,40745992478918;-1,11807825714088;-0,171188811145359;0,407013362884127;-0,122601269417458;0,332372548977895;0,738726566726472;0,834865744099937;-0,627460418578238;-0,365552427809773;-0,760962928341436;1,00754555295445;
2,30437791825625;-0,474079891965489;0,918236185454731;-0,832846114755046;0,0508110732570479;-0,040547378880523;0,0763592998877873;0,860912910594458;-1,28121690728702;-0,541769358780821;0,219076931167196;-0,744277852612374;0,634009358630412;0,771618129888567;-0,586078779250944;0,620589909187965;
0,0393017798558329;0,62618192148913;-0,868061232147725;-0,740371101520319;-0,246445712737209;-2,006845018079;0,363016158769678;-1,47456178687005;-0,123588567848011;-1,62569630588151;-1,11176935841741;0,0701603117354974;2,28480648691573;1,45237327928934;0,237318847933137;0,162289587769929;
-0,775729250007017;-0,302673464081293;0,91290659637894;-0,447931475372575;0,156542946745979;0,693503791496854;-0,0832843998865722;-0,853942147510907;0,105919423479532;1,7124261650913;-1,08934119390739;-0,664222356430994;-1,46779358946331;-0,342041580446723;0,693528378216642;0,452256587874569;
-0,973640159012824;-0,0594874736877818;0,357016225088223;-0,172523418409927;-1,10588309589236;-0,910708503916394;-0,0513416056723856;0,786130031845319;-0,515809045149418;1,16226238894049;-1,66963187795546;-0,0172848221741435;2,08729264995859;-0,623760075070994;0,122748455079443;-0,424720731313687;
2,17004392416408;1,12344930536132;-0,495575842473945;-0,815642386058873;-0,304123785144944;-0,780058669441582;0,164524763156735;-0,661155874946491;-0,671941105651002;-0,222119956250125;1,09351631531294;-1,22068007753624;-0,0132767334944839;-0,514101876862556;0,660652748106416;0,381096381450892;
-0,181485788192846;-0,792850888570305;-2,56248008535364;-0,347745536215629;-0,133966946419438;-1,59307233154932;0,0335026405505646;0,040014616423562;-0,847352806001925;1,59174483093316;-0,169566472689807;0,0450249879131642;-0,0547802441016361;-0,969585342707845;1,00652761662029;-0,185809907285441;
0,622365054054919;0,142058401021591;0,14169789902443;-0,290884746781915;0,233668416748519;0,667464694796388;0,0776944858580325;-0,321173505375124;-0,367911094814814;-2,47379682410934;-0,131582092071111;-0,783378485576507;-1,51080497549074;0,47182692007266;1,08685197777946;-1,03829849751396;
1,47211681998888;-0,341861791324309;-1,26141335767976;-0,196276696675258;2,08748476658363;-1,6961799377661;0,487544894529898;-0,185933834278756;0,54240363849643;-0,861765196191301;-0,849360257209156;2,73914222399922;0,228203876932342;-0,370764701075722;1,12301237802909;-1,35192690005986;
0,768437479677805;-0,141787486379235;1,03765294921843;0,516636876174266;0,0657350319008688;-1,02018353253483;-1,27702354086891;1,4690527111476;1,17645977813049;0,874656438019712;-0,77835256238981;-0,819202668091516;-1,59907252995483;0,188040058544679;1,62766197933948;-1,47729982569884;
0,171219164003574;-0,266273459196497;-2,18552247509672;-0,0894198297181219;0,371407078122522;-1,61724454516759;0,22792715515386;0,174625892323643;-2,31059782930037;-0,400310916053534;0,709978565441774;0,950983897899294;0,74585013080124;-1,46234129744748;-1,4003398892986;-2,24114189426894;
-1,21397319785915;-0,0862261393377711;0,45653976534751;-2,93739420328675;0,691805603588422;1,02784548981124;0,548125870122924;0,0575360348535171;-0,387238038973248;0,0375452041849294;2,11213170698324;-0,214508265317791;-0,872198293734913;-1,77520808148382;0,925703613614969;-1,31242607900901;
0,705507826551905;0,677066426594382;-1,2520003514551;-1,74069984455725;0,812520180832316;-0,81820534758385;-0,940188532770099;0,649468916746464;0,985323297605202;-0,173163719165763;-0,514651754132434;-0,832108504446777;0,304661910209211;-0,245379493678428;1,58064185573203;1,26493635787563;
-0,476506894175435;0,605321867032351;-0,8532474630789;0,36176291429949;0,963439053518087;-0,823470849569609;0,90126497692374;-0,0755943371439345;-1,26416776560164;2,25221551925813;-1,21103362034331;-1,81905207810877;-0,352086262641507;-0,315932392586175;1,49225325757395;0,849022260856104;
-0,000686192503983926;-0,37904559322742;0,221700155078669;-0,356738635804209;-0,961564880363381;0,11323115889022;-0,377935288681914;-1,65086084039234;-0,82343837548524;0,2355188127143;1,11923977799955;0,334716760957616;0,0704823563908988;0,530075576271125;-1,10244083115582;0,519338307631561;
0,582709538882957;0,562167880394758;0,66357468817775;0,886122416398714;0,183367733665509;0,563081082569985;-0,878269392594614;-0,0913758753594038;0,236265303840447;0,494756566931533;0,193626939001044;-1,77613447646073;-0,261818703861793;-0,336862926389794;-0,560332397869658;-1,33340637217266;
-1,0988220792189;-0,34175867773817;0,354745949238306;1,73695757182393;1,53339379296223;0,705959702733091;-0,491642699699182;-0,802976735573965;0,92654184934001;0,375097043065297;1,80370385595555;-0,889692396365152;-0,38660304876042;-0,472836953100269;-0,696881261153163;1,37589453452033;
-0,396116230706531;0,744733765194323;1,85805693716446;0,26133279549743;1,08302699508748;1,1709260493525;0,10689884805795;-0,021579409854631;0,0406895604445141;0,294931921693777;2,3258553704023;-0,847065895285513;-0,268136525071027;0,722764060918106;1,2541580100795;-0,459605625668367;
0,349983860049067;-0,122398396730693;-0,189976613442317;-0,695165245622228;1,15455604310598;-0,624792171650458;1,81417901403114;1,71157834319368;-0,663008244832479;0,193341546056172;-0,137876059539598;0,454661474082332;-0,633242480340463;1,67999498537093;-2,43620598670565;-0,0664959940129529;
-0,266579399348385;1,07897849067504;-0,501582352720653;0,359433912407634;0,546406749308622;-0,451800897605962;-0,106722821164139;-0,80364706189591;0,617462288100673;-1,01517631182061;1,49670328764018;-0,123441381363642;-0,168955657487678;-1,47293965369341;-0,922015563888939;-0,677439565047705;
-1,23332985636385;-0,322964907432204;-0,452373002484351;-0,899830729217383;-0,189807220499301;-1,02244574794421;0,471721127518882;0,297258457998055;-0,00614384362689351;-0,768878907285141;1,21982729030684;-0,810559918590493;0,0638231559120908;-1,32003852296152;0,207473908176687;1,1709824678621;
1,39468500782092;-1,00018212679939;-0,315969075144266;-0,595424834074295;-0,642339611555996;-0,317307253040179;0,122029435211255;-0,0134864273557144;0,196862923456916;-0,769843808568199;-1,68031297048901;1,19253289632663;1,44967406971459;0,677995179970217;-1,12627672686618;-2,14314598105459;
0,0785532485974413;-1,29700764227153;4,0030701146687;0,377852652418024;-0,717694630833792;0,786341741937294;-1,12708875522811;-2,32106510419064;-0,825020474747022;-0,0601019969993468;1,48369625666559;-0,047291428367967;0,479149692418384;0,1088395060247;0,256259317553119;-0,99036668521586;
0,394880967588024;1,33260598420056;0,441284935694915;-0,784679675207207;-2,49613606389572;0,714736267122121;-0,372070018842688;0,250980067334413;-1,32688435458278;-0,592083097124825;-0,0955703284575977;1,15251473704472;-1,04567672718949;-0,290918746451283;0,151795492972583;0,705283581652056;
0,851321398319751;0,502535075359762;-0,719398236071218;0,198837236536027;1,42042190763769;-0,960630444525457;-0,218133697790007;-0,10962746311654;1,09754000797835;0,374563067086012;-0,67281101300981;2,09901132458085;0,275717163109792;-0,70855299065297;-1,84391318849388;-0,113076674831367;
-0,364443354137656;1,93623330067299;-0,946298778584467;0,848700393520263;0,776981138538678;-0,45614350838264;-2,15677265000705;0,100493770445793;0,0792332575320896;-1,43657912536289;0,967398489264166;-1,08815373927495;1,48361961716777;-0,565900702149522;1,62695578974631;-0,35856192979434;
-0,163581402636829;0,687280258063406;-1,19800295230998;0,224238059574741;-0,890122683785396;0,468177218581227;-0,16798656407393;-1,56281178004578;-0,121949547167806;1,77010684873114;0,309046370751274;0,062556854457463;1,22046443138804;0,415967315269158;0,85771707774249;1,10621108192628;
-0,357619804557721;-0,0181724977861619;-2,13573967571289;0,260391203233631;-0,86554519168409;-0,358318887704601;0,492527783272128;-1,29431065778526;-0,286542999547696;-0,680875336217448;1,61322271525842;0,379614886724076;0,825043928705837;1,65251560555324;0,0809617508002634;2,10542330562459;
0,960953445799317;-0,642454768455624;-1,15298056395305;0,915406883034025;-0,213988885767919;-0,515816613421665;0,712665254307103;0,766362291835021;0,0252625051763778;-1,82404378607959;0,634251107553704;-1,798797368016;-0,310466431584885;-0,589382263741857;0,125167604412886;0,2900180172546;
-0,228573497745337;-0,172067155701144;-0,917867375917745;1,27953309063553;1,91803559671648;1,050867125008;0,167906909239548;0,366000123804931;-0,956421922572145;-0,612256588706751;1,31211318583377;0,603904771180196;-2,52216039534901;-0,209763608725546;-3,27965224626271;-0,592441523146812;
-0,300219162470456;-0,640524875822347;1,05066127901691;1,04342074086209;-0,00235114146219254;0,795098412113841;-0,379726053569728;2,02678254883082;0,421678401785125;-0,839389955578956;0,920151776714072;0,0956553227902318;-2,02350439854475;-0,837060789520812;0,286100308697918;1,88745284882949;
-0,0915758560022349;-0,424389747759591;-0,575776653754874;0,905330439627589;-0,830245105974655;1,61275815786599;-0,682273786800114;1,18470068193669;-0,816455801228882;-1,72106736804074;-0,576702122285078;-1,62099553012921;0,467892637323625;-0,523477795552199;-0,926675253314227;1,46422515931106;
0,276257162567413;-1,08346833338335;0,975032056135657;-0,178896516481423;-1,34978884425053;0,283073479733724;0,130385224495672;0,100716137778643;0,882110027315792;1,72246795213301;-0,238173420897038;0,880219731999114;-0,246049777891546;1,15029141808176;0,290116023537399;-0,353391675079813;
-0,229640424778309;1,26235411450522;0,2418544430637;0,0158557920771666;1,09508596941292;-1,40548336726703;-0,287670989112789;0,136120160514571;1,15659075445892;1,66089685555068;0,735375405316857;0,23298124184194;0,237379692214588;-0,399105303444218;1,16638257503958;-0,624924165606721;
0,0195075834674187;-0,361732631737337;-0,242800273283837;-0,971605289633698;-0,70750633665133;2,50522471084316;-0,455470394216326;-0,1308761769856;-0,746982118380636;-0,125601054384524;-1,29235198872305;0,0297929211937883;0,0775435573882684;1,10243071547299;-1,2166130231345;0,614853040925942;
-0,428851181858909;-0,331240960105302;0,159025568230444;-0,10104955905527;2,12282005272302;-1,2611415412652;-2,33244342603999;-1,92389215696703;0,568487433831329;0,256741103366937;-1,52223501345399;0,889181330492645;0,368558465475637;-0,290795754267918;-0,118823444259296;0,621807538618545;
-0,335766978110106;-0,279724129614264;1,21538589098137;-0,525094566637506;-0,741031606947802;-0,132949831431685;1,4260684257196;1,29036128881748;-0,150440418268079;1,08872917053047;-0,722923566220229;0,134550220682048;0,0737324542238322;-1,02587508149339;-0,165549304110817;0,0493366450015995;
0,651916040406001;0,726268610396314;-0,05660555555738;0,765595950627182;-2,02507816890733;1,67218658289598;-0,109523238685029;-0,576643055229066;-0,325164767267786;0,447264822986151;1,26130664901311;0,432059369011147;0,369546101328212;-0,718626826490465;-0,0488093085665618;-1,3682785837309;
-0,297719238121558;-1,31589810348938;0,417045952300145;0,173939904278617;1,56810230000277;0,496912343644016;-0,715892958549274;0,679179722591313;0,143862219654216;-0,141101930652805;-0,991853600392432;0,273720622930315;0,546828765831579;2,19842590100112;-0,468819940042041;-0,95503396675583;
-0,24888302229693;1,30243713480327;1,37584416483522;-0,476305455881012;0,778271979592059;1,92915608331151;1,48160430592139;0,424106141794074;3,87648937432366;-0,756380800894147;-0,453812000572117;1,9334372801637;-0,686227688242568;-1,41182147641698;0,902762274953618;-0,0543130473413767;
-1,13728525332511;0,0929193057615033;1,11347740575324;-0,882459170568531;0,229245293807364;1,36405630297038;-0,856693701618162;1,62355789538026;-0,956939481587919;-1,19523535549922;2,24532880028948;-0,566541820060908;0,961039517140588;-0,208443274955581;-0,236014101491879;0,951912734272275;
-0,190790854400089;-1,49798466584864;-0,526792780668524;-1,72811377746703;-1,69953996336983;-2,54561584716178;-0,530382981196501;-0,172348422291144;0,740834169903842;-1,17922947344899;-0,249510034679934;-0,389983278566703;0,317675224622575;0,772824240839093;-0,0536815909353481;-0,0348743838792022;
0,694216515088032;1,11059051798964;-0,519603458435268;-0,56843076154376;0,164824834660053;0,974114279898507;-1,11041025225369;-0,0994707313228173;-0,665705863692632;-0,402787918332875;-0,782265046179158;-0,959725959610642;0,944359415184895;-0,125100880873722;-0,417818589717182;-1,35694500113756;
0,306312495576844;2,57742995722588;0,829042909103435;0,118196627222296;-0,974290131565157;1,93056459196688;0,745238872064576;-0,0378671046211846;1,52953199434196;-0,564904662007841;0,879263613306461;0,982281962413379;0,11290766383578;-2,11307654460098;-0,3358616406477;-0,186006844357049;
-1,90605457206588;0,522198932058026;-0,498867239947871;0,340903350789181;-0,855050875920259;-1,05289878110398;0,429052168716534;-0,146968654568526;-1,5393523314732;-0,61984077479322;0,770803814245151;-0,509093147400865;-0,924086237201731;0,808950309019683;-0,707826297968316;0,60030048574783;
0,148471025371178;-1,88270796382605;-1,1990875598186;0,0207781243339707;1,58553815703519;-1,08517496643536;-0,887837379647441;-0,754210272256476;0,949969957112153;1,33319439705703;1,55977397413634;-1,44522298068558;0,542115623327367;0,192072259350006;-1,27561120251345;-0,175242514106903;
0,217857822117214;-0,113581890978207;-0,396429663947197;-0,534193473106791;0,963517553603244;0,412079379574775;0,349674421684933;-0,489992326500547;-1,26057449450207;2,45061446086425;-1,23523403251383;1,5206450381381;1,1727529901477;3,29972987918589;1,00569624590405;0,61861896282622;
-1,54741692647444;-0,268880258070242;-1,1059347990635;0,353895425330057;-1,02118132175408;-0,207131088855186;0,108947633535181;0,497209956608159;-1,68441794611734;-0,485054800110458;-0,702569163535149;-0,485982646729352;-0,433574870852161;-0,0712990358374137;0,764775924550768;-0,0610017571664646;
-1,3585120122118;0,64514138999604;1,21641014374258;0,760786390563525;-0,768841891319346;0,602952721531189;1,44681985657239;-1,3890403687935;-0,97592646443175;1,6290150934087;1,12570007151321;-0,247620981125717;-0,107332144520681;-0,425756433471038;0,375936105953923;0,734071241039568;
0,92820147207539;0,234341478846239;-1,01274971066993;-0,112793314498162;0,241257709173367;1,32882037373188;2,49898110142753;0,368195990352724;0,196055616555731;0,0436185021713158;1,15784649776515;-1,29682751287755;1,6513704561041;0,358552086164117;-1,00217260875611;0,930979239664139;
2,07432070539525;2,5427332879114;1,25615900174584;-1,17238467195461;0,476646637146992;-0,537266201892221;-0,715257147386018;-0,961330301143395;0,737599573551764;-2,37586254817255;-0,942230312640064;1,58267755069191;0,653713472682342;0,487258910838773;0,653615448089238;-0,847314580539791;
-0,426731589676864;-2,30704180376398;-0,11018037800506;1,64594089661329;0,453376973408916;-0,590879419028043;-0,865658417144497;-1,25020445214677;0,802800929612367;0,0587670193135112;-0,984866189531424;0,205841297784076;-2,24793929397752;1,27209523292392;-0,407545157428685;0,658410754089521;
0,0288726794103026;-0,505143293514736;-1,04934115171455;-0,891585106320122;-0,943631881180852;2,08793493978601;1,17567778519296;2,33763884931944;0,333001369997528;0,577945853700195;-0,449705652077432;1,47281504791478;-0,514968365148423;-0,10579498891151;-1,55781883813354;-2,32181523517714;
-0,560650386745544;1,40538933425766;-0,611369533840713;-1,17515299662134;0,910599195545635;-0,0774516630741122;-0,604719665988334;-0,0299927469703126;0,634635092672388;1,34088971022756;-1,18055792474932;0,497740562988918;-0,597455713076362;-0,302691737685705;0,961590179286619;-0,307740693550633;
1,02802815503977;-0,952107069606438;-0,221812469978944;1,21278437393648;-2,12829846730013;-0,296000774424269;0,351760371642179;0,988687644467178;-0,695252775535135;0,142119493020303;-0,512940260474393;-0,00981341195334001;0,952128676860753;0,800170644410491;0,672185478645517;-0,12505477449921;
0,278604547994421;1,00200727135214;1,47465982503866;-0,609918319200052;-0,323333386223172;-1,67075234502055;2,32436495204121;0,0332501639720111;-1,91923086968838;1,4772398404743;-1,15414415578146;-0,300214949956675;0,145152411612;-1,97038478605654;1,1542321162228;-0,798998213835401;
0,0871539741965772;-1,00144425431135;0,481726801819584;2,94386416729567;0,21511401120925;-1,26374915429049;-0,467407527149975;0,331445981826086;-0,39169407743442;0,0973989435032678;0,198393352364526;0,32556682005587;-2,085263565349;-1,0602338049277;1,11346261624988;1,11367701834519;
1,12513741715747;-0,909727493493805;0,168044806465629;-0,137127295986573;-0,0188378330861783;1,68999975490043;1,65800436081858;-0,0167675132756712;-1,12339207022517;0,666789091932325;0,694655743735482;-0,194203734750072;0,211697501845936;0,329607797508041;0,890519666667411;-0,0667206864192301;
0,299995376743597;-1,56295954269855;1,2747192434057;-0,0443084857715989;0,0407119014574874;-0,463904833536934;0,666647887971701;-0,55988390226964;-0,0566890531061664;-0,81656753629655;0,234463312427331;0,037455005510685;0,332887309966664;-0,618764507677586;-0,617091073452887;1,01100332249219;
2,64391405895957;0,869236310463879;1,72262264042517;0,414659721773245;0,43668243872372;1,63716985066532;-0,100100280654089;-0,635187868986408;-0,564932906443837;1,0915622199699;1,18599641300605;-0,16808147125222;2,17930584733449;1,12772304981027;-0,884933721177507;-1,06497280126244;
0,099091855992478;-0,223889023138383;-0,64699686751491;-0,469020134454147;-0,749452582393541;1,84945337447393;-0,211942518566263;0,103320612462222;-0,558168301981488;-0,111030698338037;1,22072097172119;-1,2519078154741;0,038190693195747;-1,93441010030777;-0,571878622694709;-2,07968840022688;
0,338410368288257;0,0597032637004973;-0,239841500961162;-0,759832628769877;2,17596882335977;1,06423058957852;0,378771054536128;0,127351129212872;1,69449909538528;0,622221214437551;0,453997186047173;1,10108685913781;0,667669766067007;0,444546205708069;0,223488532419209;1,38366952606653;
0,601287326964813;-0,536698953194648;-0,0504193366256843;1,05081889657185;0,842007388680938;1,28608219529273;-0,294036978253372;-0,307021815611624;-0,826166264135701;0,438646150725017;-2,39855457150243;-1,02245305927357;1,82557315695904;-1,67081794235647;0,959178663907888;0,506158568904674;
2,35698489588306;-0,715595789067741;0,085866851602891;1,0110637227316;0,378822113930525;-1,30273265540272;0,255194870046372;-0,574052958111012;-0,192024800950236;-0,811267205672968;-1,24111897474917;-0,140974352975881;-0,0304189306357612;-0,520802256822293;0,528689342786103;0,673740544465339;
0,1924421327312;-1,84677035163943;-0,796343298161258;-0,538323596945073;2,0116764896523;-0,53201498856451;-0,317852740799655;0,797277702383309;0,493152683279516;-0,36687301653461;-0,639506316971412;0,979811809924132;-2,10072386145;0,304182772985015;0,12227693104775;-1,12732361588435;
-0,0553002313586275;0,327756871622897;-0,529505021779411;0,688591704553722;0,627171449555822;0,45660053761818;-0,373316204264621;1,2620235577637;1,13528168530934;0,19215264252932;-1,16325351711544;0,923643623410911;-0,422942614208455;0,161977726463834;0,570032049178701;0,0432145518837612;
-0,489495643052332;-1,04190623331495;-0,407089766256227;1,42577261388993;-0,703821399406719;0,269716278695296;-0,0266965308268934;-0,151801289238404;-0,834225748139272;0,495011102660718;0,111003139069049;1,5387121779668;-0,69991829784304;-0,290540781373982;2,2175869828895;-0,326893595990172;
-1,94596633338465;-1,6522806604733;-0,11210710856183;0,571642615194756;-0,508699094463814;-0,343941694332266;0,0031573092220478;1,1459324539414;1,45645275371109;0,335915278263149;-1,69740047195734;-0,654022543366542;0,809666857213235;0,161779070046217;1,34194852113908;2,25208984545142;
0,119573049974649;1,03640050043304;1,21044547856719;-1,02450877941683;-0,0308726235020075;-2,442981571539;1,35670363939471;0,498958769222651;2,10496862194307;-0,0785443217482306;-1,50053585960642;1,08200854801386;1,88933082185713;-0,836158143494285;-1,56436830806139;-0,13629719196389;
-1,01736119869713;0,347449245809087;0,599745383877832;-0,152987666644595;1,07577166754219;-1,88601031721366;-0,345611635584453;0,249802500306063;-2,32300216693767;0,208850990787797;0,891743985922076;2,23495776075493;-0,347787773539371;-1,41044887625003;-0,076968765550068;0,932865034387927;
0,80477238911977;0,586206080960216;0,155981830495593;-0,675233918434884;-0,108347287520886;-0,774548059613217;-0,778778453800603;0,49174154639551;0,943317231300681;0,501026680544615;-0,515825390983149;0,80635644267463;-0,783170503295532;-1,53657496933053;0,768275752928917;-0,840115305208615;
0,00815758439153802;-1,07158424859967;0,876773101482199;-0,0869607179080873;2,26431126732754;0,585968600962784;0,805466882607537;0,000404629155338584;0,183021221490331;-1,29931072272293;0,79420599040687;-1,24750503947453;-0,318404522355176;-0,448363876225663;0,405546833088408;1,30708192069406;
-0,257399293437365;0,0443600623639116;0,316167772924162;1,14533288974003;-0,482715957334991;-0,389577823628409;2,0438500450632;0,48432111097784;-0,564092415506026;1,44610569136632;0,340478253201528;-1,68681963872272;0,007214797512986;-2,13364004965259;-1,22517685919406;-0,282937711824293;
1,97192274588355E-05;-1,26223163695096;2,38324941332381;2,29181913796404;-0,285153883304478;-3,09313832156518;-0,655241659379946;0,874018909311679;0,433159536748496;0,0246008452797381;0,654101597567248;-0,196577303067581;0,208591181862357;-0,189056449534553;-3,18887304925757;-0,295785149142693;
1,00633859142402;-0,505415874885471;-0,401005335729126;-0,644742261778194;0,296255401311358;-0,625327420872653;1,1596423824812;-0,412323501490344;-0,346673345046756;0,0633490915353505;0,697128156322727;-1,39284416986036;-1,42798080098375;-1,27052606680357;0,866824157023066;-1,54812291694493;
1,04668523106427;0,865608635138466;-0,630152042041391;0,829882199415601;0,999918195477551;-1,36181542756292;-0,553989356059291;1,28920027734231;0,449514689926738;2,9298362930964;-1,15396889769177;1,75832004913835;0,903483102461556;-0,654495896087295;-0,602426563484544;-0,832451897078885;
-0,0637460582605986;0,709910031374217;-0,0980736772758024;-0,100962405969758;0,444895264552188;0,418843470249092;-0,10232569781954;0,113348113956778;-0,631929549586062;2,02617622538363;-0,221770627181233;1,48482789585507;0,450054817432284;0,264641589511214;-1,10375115207059;0,934773932014585;
-1,60050191530294;0,0781577113473071;-0,581263731933687;0,102612850731123;0,217557160330638;1,2492636101287;-0,27060408464438;-0,954676935973797;0,180865043778714;1,74530563754425;-0,757563035573035;-1,21080510573781;0,277763355336732;-1,10574327800606;-1,37772489848212;0,0573369012301231;
-0,4067925431247;0,614107757539216;-1,00878748124201;-0,122942444828746;0,379819618868883;0,107119160348457;-0,308267227437997;0,180371557242099;-0,375273114327981;1,62684758442332;0,850543760047917;0,290648846236411;1,23689984135438;0,464267596474743;-1,1871650793429;-0,76759882058894;
-1,12232779201594;0,385472392500082;0,492066667310208;2,23240684785186;1,04362600379045;-0,157859402297599;0,406527697123689;-0,281702013879346;1,29834910138796;-0,585684142278636;1,1174279512526;0,234223624899966;-0,228102489034847;0,276232134332522;0,344390746208817;0,851903451405573;
1,49562837733643;0,763455459203608;-0,0502563676043544;-0,0129880477806343;-0,093847226140517;0,211941177167294;-0,407311060477494;-0,396336697690894;0,254232178788314;-0,232490389626597;0,635765786808258;1,8368240039816;-0,815063932106654;1,26423072877633;-0,486519609761874;1,24576910418062;
-0,88552086873801;-0,491962951644518;-0,701776868623934;0,415193966664171;1,63047673201515;-0,604958449533991;-0,643461957166224;-0,126666969699784;-0,195503898747879;-0,814810379231393;-0,158699177314116;1,50331602596813;0,978443681199385;1,17004004444722;-0,328939248872868;0,0125706570810348;
-0,659633702714301;-0,554059137421794;0,356616622290196;1,29975612634016;1,49984377054066;-0,716828227726404;-0,236761159578908;0,310542823567401;0,0533254728953058;-1,42002587818876;1,41867544153634;-1,01382421305224;0,804617679284134;1,12978956153786;0,814765811623619;1,1144918531045;
0,694249763512635;0,129095475466458;0,202557447355658;-0,643910618056244;-0,684710551002516;-0,983529024361537;-0,308685308293335;0,114637618447399;1,15329747455059;0,685380801686942;0,233584522268711;0,165780659547924;-0,324192959101799;0,0457287686360063;-0,745179941820121;-0,0917920483840196;
-0,017814448281382;-1,25649773852152;0,163185950511353;-0,670506446152662;1,90615413840723;0,537497985992639;0,560704374544721;-2,44058232347603;-0,180450190221633;0,369322786630246;0,760264210216002;0,684249398283615;1,2340538407835;-0,650739392223936;-0,58719381694162;-1,51214982636546;
-0,457377786354943;1,73810930183243;0,20336083966935;0,255133215598391;0,16899455922908;0,0748449092714929;0,641279855065639;0,679538378728294;-0,399522979760786;-0,62774841625799;-1,68767185211127;0,518908667624541;-0,231443046922642;-0,33221320848482;-0,782452207257882;1,51676170372958;
0,0307191527399726;-0,158478422985771;-1,43107064114334;1,2768275896453;-1,47257702786806;-0,813813562938508;1,20538934039936;0,967758636916155;-0,202541115650438;-0,0351654865883153;-1,65774586199127;0,0505965461189801;-0,475870813073144;0,631098146159108;1,46355060979927;1,26843598558888;
-1,73719718784247;1,35526558249437;-0,825047112511395;0,230391127535872;0,493879852494206;1,48745748590802;0,924387022987003;-0,712717288236531;1,51389587946942;1,87319677047014;0,69981981602866;2,03463712865591;-0,186150021001703;0,590454743720643;0,0554577015623679;1,65514224471256;
0,503826931696429;-1,12580780075829;0,522610534570482;-1,10445106211057;-0,984937239303818;-0,713344258489365;0,539922853093738;-0,415975965476426;-2,07944853995464;-2,04218655745759;2,22458465838678;-0,748731428529041;-0,0738693797613039;0,822396472536019;-0,106427429742742;0,367776997186184;
1,08363462926279;-0,231219730757619;0,308610309064411;0,162977328943591;0,730880001628546;0,58101286928025;0,990693513000418;2,18817798968141;-0,984053951926801;-0,627139647543052;0,146550008656048;1,23070161916687;0,02605317584689;-0,315934402140861;0,463021530961322;0,632752227834874;
-0,147588341422477;1,18295326268376;-1,00162036788831;-0,161165972521888;0,202250959244129;-2,32553255226587;0,721956405003297;0,564155946179525;0,204354041838662;0,153639399257419;1,49786250348052;-1,4894125896812;-0,283234009854908;0,224713795356604;-0,28891701370374;1,33655026766406;
-0,215341238178932;-0,0831982268479875;-0,578637874307773;0,505880483216605;0,232557106379636;-0,639456980314826;0,935777984465358;1,25076061655682;0,54683425361146;-0,257674179883729;-0,427443017137419;0,305393152220189;-1,74958403934455;-1,50627114646107;0,51785779834039;-0,576675778258379;
-0,726215292650091;1,13170351598492;0,104384293966249;0,935038445141755;-0,783866224401413;-1,91977760090747;0,1354100262136;-0,655778547367924;-0,934528409732526;-1,57308617262846;-2,20389116935704;0,392614174275874;-0,307718735884311;0,459980179650124;-0,111956827530991;-1,04522855576277;
-0,655911271564395;-1,82248067773902;0,432677923286354;-1,46251091130553;-0,533365981256497;-1,38428871930904;0,498317771538397;-0,710168387316806;-1,36720605510761;1,283671400405;-0,0207559671822976;0,298093053614773;0,494333696882414;0,257188515823572;0,134913195605036;0,63988606724561;
0,206006193855234;-2,07824015017778;-1,35414132249557;0,773940643190768;-0,611005457034477;0,411031145185385;0,464754150236572;-0,0327282297606273;0,613993573255606;-0,652012280430467;1,08743121880875;-0,712015559489993;0,133629646817691;-0,614112730222615;0,912557131348192;1,34424016530595;
-1,6247936654243;0,721436026527614;0,446544768414526;-0,963807918153593;2,94693774116912;0,13153453441862;0,241554934551013;-0,935213507863261;0,341717653106416;-0,180702163946698;-0,658073168689911;-0,477545098995756;0,193780668731092;0,592186959397544;-0,19288812442675;-0,0305666781809318;
-0,0877040670423108;-0,554575746996418;1,50917836391786;0,968483447612681;0,684047536605602;0,637186293955542;1,57561468645913;-0,547801147200077;0,506469568459416;-0,948533599647194;-0,478527297045474;0,834714151083252;-1,60046154211853;-0,438489156245649;-0,414089978189983;0,401899097057163;
-0,130701715392443;-0,126364873922501;0,878591029412721;0,94589345642847;-1,02884739508083;-0,172309180731549;-0,538168014121434;-0,00621542560600066;0,264443601033707;-2,44774001151346;-0,17816313007844;-0,679939419493272;0,230930066716768;0,491028133889214;-0,370000639003344;-0,660794890438883;
-1,24767929348208;1,02417193936732;-0,0224031310559417;1,38313632627908;-0,983714408809349;-2,87807200226314;0,607190902453621;-0,263089601452556;0,159850096815692;0,872424431683159;-0,25550998796932;-1,55109280854407;0,591110786888924;0,636139716492757;0,137447308263593;-0,727942867483006;
0,201598251445045;1,91002088861278;0,229094298939626;-1,23783495642921;-0,799852249541614;0,0764009829205483;-0,269762607491834;-1,76368698078331;-0,0641771479566341;-1,89720051612166;-0,441525315333364;-0,29948614188931;-1,23865682643497;0,48707088267501;1,59596092648858;-0,414393995400697;
1,43882441623372;-0,517786046571228;-2,2505932427269;-0,054123424300086;-0,562230283102998;1,07619623347915;0,934553444684398;-0,224911620500429;0,146569760974172;-1,04834828508632;-0,191791340153802;1,01454968986191;-0,20145555412084;0,411211269528155;-0,620089691552466;-0,0534441540933635;
-2,23064068679366;-0,23241418219356;-0,311902064909304;0,432998675966421;1,05347204274781;0,172150436062912;-2,16783599834794;0,248064464967494;0,17186150068064;1,37456420715556;0,152577519690043;0,79842798158895;0,0775328380579676;-0,151542713632594;0,245305055497946;-0,521336632623517;
0,369979626647133;-0,325559610678855;1,32035191763299;0,747886967019256;1,19980132356557;-1,82638512966063;-0,715058709516249;-1,1309097304379;-1,05867405878118;0,900912258516685;0,419907102304795;-0,419951384393858;-0,258707446792312;-0,558070493474009;1,53835267272682;0,553903629804303;
-0,333282638551701;-0,286608953635009;-0,17025583200602;-0,790709114526116;-0,160073393739319;-0,650965330092241;-0,088499031286466;0,327257553945922;-2,23055176823953;0,293413841730765;0,0310585387516756;-1,45478121846602;1,20382459939052;-2,9241745779045;-0,413686792601571;1,63113108932008;
2,01189906884794;1,33194232443437;0,560860669312362;-0,917700461638018;0,76098486543879;-1,0739968518504;-0,945289647169037;-0,164405904926659;-0,482262921596442;0,790663399789232;-0,419481109424389;0,246418015863836;-0,321385838540393;1,05180352827153;-0,0292779260757349;-1,49429144540241;
-0,200236403869629;-0,737774633699104;0,0103085155247818;-1,32659649141095;0,883193364893153;-1,91904927857109;-1,70182813037758;-2,12045410556351;0,253513775011814;0,816761301563839;-0,902405040466108;0,930123649176785;0,840740061364605;0,769855739949715;0,146760560043456;0,246957599658881;
0,880660282252128;0,239225666162802;3,22412143888134;-0,515897574050913;-1,5754245864206;-0,480548293796748;0,442641085548175;-0,372713441752612;-1,24439016169499;-0,109526463485161;0,0563162838120024;-1,11736204721569;-1,14710843820437;-1,16992179051693;1,18785659290411;0,148922001435801;
0,512806352307495;-1,22629767860371;-0,00388292484351166;-0,204575660507237;-0,475168791834994;-0,307638559427269;2,78476279718596;1,4060373636;-1,21410244647297;0,684527170442556;-1,93640201527862;1,32257310418526;0,220255717185601;0,876955211810821;0,140559527976249;-0,404785166140548;
1,57968501929226;-2,0318391206772;0,0899133750945059;0,62436069921337;-0,0989244239780585;1,65207616760006;-1,40839648845372;0,657555946103538;1,15713332841388;-0,932074967171263;-0,839447694316898;0,473109017044924;0,0560024798981219;-0,439201251242062;0,820307519906313;1,32034177653417;
-0,663831410116045;-0,76038836323924;-0,765091888153316;1,29997753454237;1,05214629754614;1,39115050666073;0,658592005414055;0,638431366170992;0,856545123390801;0,155848593734877;0,128344468063019;0,886083701009022;0,65001292168178;-0,605357465477448;1,51486879846532;-1,79863982036112;
-0,648861937245748;1,08644295821893;1,35274888529668;-1,67540339645077;0,434986355649096;1,09267326703741;1,06562068154952;-1,21282212128131;-0,527984872146593;-0,317897996543896;-1,14198499083182;0,84044081092072;1,04154011842384;0,63551086490685;-0,716536790349811;1,92199354270146;
0,846182311178902;-1,27333069534419;-0,431180147422138;0,527544562556257;0,147470039918135;-1,10197189283658;0,0657881876769183;-0,614636039353905;0,484967292926481;0,410735717654772;0,214449628206476;0,847794028671955;1,18365566188962;0,553398110833479;-0,211422349303962;1,97993728712198;
1,4185455962126;1,22923916156251;-0,229753414784031;-1,23544371961243;2,07982456581433;-0,00774244994718537;-1,42811323342405;0,192989316516845;-1,31314570405332;-0,923437272359126;-0,636894937186854;-0,0582635503660685;1,54019087931321;0,664523260912337;-1,18547649417742;0,834118162849651;
0,4608374118958;-1,03063167740436;-0,679873946243176;-0,273798435036259;0,11432936250678;-1,59377345264381;-0,879280837565186;-0,5059471457635;0,889498063365005;-0,68059387715617;0,200883804499152;1,11593949896977;0,441889650619995;-0,592814137702409;-1,92535505238002;0,0446477911994338;
0,75494914818362;-0,639113764435602;-2,33975204207973;-0,719383902969887;-2,50546480890894;-0,696617108188742;-0,344937757321898;-1,01229847121131;-1,39021410490777;-0,55602226103553;-0,623566942902834;0,196122574837821;0,562139719603588;-0,0388109265213509;0,308617018282902;0,344187166980406;
-1,38252793297411;0,430667943029428;-0,231264524536803;-0,648672535931115;0,752666724506641;-0,684695925144075;-0,844220864990941;0,744207889142422;0,647416116721756;1,15326436563093;-2,09460634988262;-0,194697910195914;1,43984805446556;-2,43132696270713;0,394934432479303;-0,374603820950637;
-0,599525842095098;-0,214183907144074;0,913760336545459;0,654815024584969;-1,32844310935131;-1,47463551365466;1,92848019290296;0,534023990311664;-0,0307196927626368;-0,689694632672506;0,257112555316589;0,566761360504576;-0,965602521433566;-0,432042033271034;-0,274871495608244;0,136564600808867;
-1,17944083244565;0,00639825179914653;-1,40683373727861;0,0475567040888748;-0,0407463673275251;1,43303769905362;-0,0355812364751074;0,331040271243831;-0,556750515294956;0,978126153094379;0,86766875483729;1,37119594220774;-0,297653627847961;-0,252651216812787;-1,15623072157583;1,22349725449092;
-0,327248251805666;1,27185739970384;-1,96837163986064;-0,401812508774152;0,649512987728422;-1,89367796311662;-0,907022863403544;0,0365609436762248;-2,84762684751241;0,28995808151218;-0,377564691459825;0,273453529968826;-0,63364075666152;1,00766440640925;-0,00913690309934999;-1,82439081558536;
-0,663981908990938;-1,65422638887482;-0,939588098333319;-2,22846135071042;1,90289081803596;0,905409544422911;0,119905897287146;-2,03200815488929;-0,676789814775021;-0,76014154427192;0,702674415450784;0,728923402550298;0,340702831752513;-0,000540144515480622;0,720878414245756;-1,7319872046993;
0,126349707401884;1,5162136359162;0,720080603244192;1,38511782417236;-0,061451905213757;0,40417704925869;-0,254871439836564;1,64238477640251;-0,859326831267263;-1,53004798314539;0,479859762529833;1,87244018392748;-1,08569067794842;0,000854869115547339;-0,713633209031822;-1,25093795748495;
-1,97042581401337;0,563579027396727;-1,60269701857674;-1,11026394111137;0,364783128910016;0,587702249744086;0,972115927642663;0,954460799834944;0,482580673801721;-0,109013990477336;1,18405179389153;-1,11816648219772;-0,229479246106258;-1,94530554467329;-1,07364447792326;0,088334054925711;
2,09083869701859;1,58411325607569;-0,741389305395514;-0,253590737747922;0,743322113045841;-1,30804423350256;0,699852502492174;-0,650213192315495;-1,08354985044581;0,209721267516787;-1,02243329448959;-0,99069595809863;1,33670460818864;2,02817497687596;0,937618953887671;-0,992882042206166;
-0,0765562713433769;0,245954576038574;1,87651998979871;0,813689591565508;1,60221896264964;-1,94673108189516;-1,2286406095774;1,53231275001673;1,56316305351554;-1,25208057581522;-0,698522169500485;0,985405847648093;0,106042876520986;0,257880719738613;-0,763936153962254;2,02589304357042;
0,0663181146705427;0,697800631956498;1,32698178534614;0,737710370396965;-0,116997549006346;0,657745362120282;-0,814109610352;-1,03630198806158;-2,22044121255103;2,29779573890037;-0,80481211544674;-0,385881040146369;-0,772336391298457;-0,673545570863499;-0,415932050526875;-0,80804120935041;
-1,49538222020354;-0,288633306909322;-1,20917481019722;-1,21176782253994;-0,362942923532321;-1,52226087818415;1,52105156257844;-0,706446066544329;0,226329190527397;-1,07370539058118;-0,918796405052028;-1,41193425340258;-2,16673199059645;-0,00931477945619298;0,340027540880285;0,118628557367294;
1,77115125670243;-1,75999289529826;-0,441004235174129;1,1012630521733;0,645422498018123;0,34000665335669;-0,898394463030925;1,02889720068958;0,00211478207239322;0,59953517057512;-0,327437872261658;0,223150923934126;0,665735825338442;0,555629196205678;-0,186091617643621;0,0550951092685326;
-0,102283980861359;0,0949389557597794;0,106914584797527;0,571589212784879;0,705401923812889;-0,259164042964736;0,177456551233153;1,55366457816177;-0,26461204461055;-0,76370577510756;-1,04854060199073;-0,205616442899333;-1,64298870622005;-2,0766988865491;0,72128836176193;0,166746355944499;
0,445014752212747;-1,91358522985614;1,81277579130471;-1,34373821199034;-0,0375857570659888;0,948484095549814;0,603029722877699;0,5487361079966;0,318408033404423;0,139809383950913;-0,0635096459453179;1,14754717694908;1,12374940586647;0,522131680200118;0,0515657532993848;-2,13234808975601;
2,76410080053888;-0,885263084183783;-0,0308111839411946;0,927982710627406;-1,21986017890984;-0,873012830259589;0,681376157775643;-1,80361860747161;-1,14085988148074;-0,535735529873104;-2,01702755303807;2,36274507312568;0,350175370030168;-0,309912463904471;1,0898403432321;0,532339601736749;
-1,09702992822096;1,27123089071474;-0,632355022618781;0,667960970278003;-1,99844221597906;0,839919757454887;2,19006988640107;-1,02237147265816;0,117649733126917;0,75200609467666;1,5884459974042;1,04614878505048;1,84746290841781;0,132957765279158;0,239129621224274;-0,711903654064093;
1,90413951360014;-1,02481875163976;0,207454773960622;-0,263067697636054;0,523330614376839;0,848807036637263;-0,509937428993741;-0,743229926880807;-1,25638565228093;-0,0951158201529413;-0,0230504267674022;0,0907220750756525;1,49027134625122;-0,173367801105354;1,34504824667157;-1,25042342838457;
0,763871089113733;-0,0275685530126568;-0,681290351072007;-0,485907492695814;0,20544428047902;-2,82513582439477;0,874632556508241;0,622918699785797;-1,20380815744904;0,950114709208074;0,434535697292295;-0,751390773694637;1,03116358232943;-0,391485564296186;0,0445653072859346;-0,564686952512978;
-0,0694815599863673;0,394052661257877;0,0444083651307037;-1,87098140350986;1,97596611022043;-0,0173638203953798;1,19260576195531;-1,2625540299861;-1,44241546948706;-0,796058159384054;0,687101367372072;1,20515606042197;1,31671499596139;0,644345704965309;-0,171976590542681;-0,306176688616531;
0,689796064875456;-0,784223992045459;-1,61284653143029;-0,746497123562139;-0,811739672123782;1,41486622405807;-0,720260242264367;1,09792614886392;-0,0635582576530908;0,897613430441249;-1,87764572104684;-1,97161965599934;-1,24939632278413;-0,0392695089303437;-2,26338273215688;0,820030591644522;
-1,5867251372886;1,95043520973915;-0,86829697471398;-0,0791174377674982;-0,799157211545331;-1,1497169858879;1,57441707408919;0,889698011434436;1,36404521208027;0,192955135302592;-1,74358422425877;-0,454904377708744;0,00812327720045473;0,401401352033884;-0,632520741060005;-1,15036084028258;
-1,08201723136136;-0,446406490732769;-0,541046178447013;0,946441341530404;0,76751440052087;0,648752947304857;0,746464013731966;0,490056189607291;-1,80044301827864;-1,73753495310888;-1,48901565928458;-0,197080580417928;0,749769095449584;-0,186273979094816;0,910132324744125;-0,849891418453965;
0,654744359452009;0,809149594347582;-1,15412475652031;-0,825099110388202;0,487088500229545;0,642690069970338;0,0428046442607676;-0,617609367331655;1,29633886185809;0,275231722652726;-1,09752019019483;0,0442880313599984;0,361385047042912;0,432423181504621;0,313592837597592;2,64811802441228;
-0,851843550784053;0,643553270169712;0,963968479444934;0,722141668727706;-0,871778633746625;0,194636049678903;-1,33804833115355;-1,173822524809;-0,917499926719013;0,755553214312838;-0,539821678987396;-0,97302455893891;0,302096533379642;0,827492312810484;-1,10996539508454;-1,54243478010628;
1,90766852658345;0,75179794932164;0,0384147486635816;0,914718672731995;-0,499518657775912;-0,542832660395674;0,60188585883451;-0,188215077951719;-0,116930021738425;-0,389123970957694;-0,0785628758198338;-1,2096468331206;0,773853229588161;1,34569469701965;-0,0113812661729682;-0,742535007519374;
1,48596876290874;-2,42490684275752;1,81107924513952;0,220022577062656;0,0388410648961998;-0,706588601433207;1,97891207521708;-0,496073895229376;0,462883165928598;1,87685029801811;-2,096737279279;0,494719782034902;-0,0907568573862996;-0,490169267996161;-0,916543802795766;1,58872742551153;
-0,0353258082442487;-0,41504312342039;-1,53236163084232;-0,633697535621309;-4,09021393925838;-0,803864203865145;-0,439389147470427;0,739830432614369;-1,40765321329759;-0,696473077192397;-0,244976289018495;-0,869430213685235;-0,641098220835009;0,483921498383382;0,543945860859835;-0,897360206964204;
0,451140101513462;1,15359015381131;0,804764566211967;0,764016700687111;0,129637661294842;1,14044748776165;-0,802120987393051;1,0184125000426;1,22749081926531;1,30466305532026;-0,0316189151231106;-0,686662289162305;-0,276796430985284;1,58710403277884;-0,263405493920759;-0,228233954953569;
-0,4687086376866;2,5582720626433;-0,198542286182944;0,719140120841502;0,732992118982149;-2,43418237075494;0,446412183780254;-0,942610521838302;-0,872100365943676;-0,23868575655606;-1,38093460328398;1,25773861732673;0,302969905261753;-1,00247248216406;0,0880223154274449;0,292187627366428;
-0,671087466198891;-0,17244579418239;0,569321963730181;-0,380548532595181;0,441333455603806;0,0168238000507725;-0,561706843275841;0,073753281369272;-0,193402238886511;2,77464330019614;0,621898673388377;0,481564351298882;-0,92590191666495;-0,374115856975898;-0,271058530486528;1,74122796799494;
-0,309296189712628;1,17022013120551;0,785747527644404;0,15878613585462;0,304428684832083;1,54475731010645;0,548085689244462;-0,192907824426848;1,1550029877854;-0,0999029788500793;0,0532454026856009;1,24869856369146;-1,38119202641593;1,11519458735604;0,0471915336024651;-0,34078242452295;
-1,72478509181953;-0,0773083242496986;-0,853758281024362;-0,0634765461025534;-0,0585319036645629;-0,842357610605691;1,31719581631542;0,928559225517508;0,75706259578956;-1,26046016507702;-0,215766582787232;0,637899471430362;0,839072680780407;-0,135177305001145;-0,258679281912477;-1,03553453476977;
0,859244363579435;0,561023398720303;1,24598305418978;-0,130253947227633;0,766725083855312;0,0255342301793648;-1,07382994708561;-0,510998705724669;1,15396611451271;1,20074669185069;0,94596348646829;-0,052805386518753;-1,6480040797349;0,258626428628598;0,545191715333177;1,78212256951159;
-0,991815188730237;-0,799925183499768;1,20731025325399;1,40916359079817;-1,54063720570152;-0,335806812138747;0,426023421107512;-0,433205982913166;1,30639313229214;0,0301557602057813;2,1432342986589;-0,214138052486584;-0,319086633040918;0,301190610431333;-0,518506271294659;-0,0815506632475366;
0,264599795884443;-1,00806858754456;-0,378434863942525;-0,873998754008461;0,142322154563046;-2,35866328734051;-0,784982836964381;-0,733722483400991;-0,496384241927639;-2,02428397905864;-0,861906686368238;1,79090703843826;0,0332013543911506;-1,92630690369567;-1,08699687002443;-0,427643815684172;
-0,698726705994166;1,30397136508378;-0,425286555800988;0,640415228949409;-1,01688191466871;0,0523129440687099;1,43752111926155;1,21769583662246;-0,0339829822186829;-0,405495951804842;0,593570188171385;1,39915367121633;1,72268900749709;-0,339406875365523;-0,223512699865076;1,54419804372092;
1,09497913351098;0,496093412069047;0,986398262819664;0,107577157767047;-1,66484862631076;-1,07358397562585;1,81002023035385;1,56344494485341;-0,975897904711042;-0,267598322045703;0,856058172077755;-0,372637302875932;-1,32653376549909;-0,704227966457239;-0,0583869240082134;-1,07042072309329;
1,18899017903019;-0,64795151911954;0,894142340324818;-0,634135494319373;-3,38953950348994;-1,56311382344687;0,083920537016652;0,267614053725259;-0,789007725506947;-0,139011535841437;-1,9216503915939;-0,746592987217801;-1,74023240319042;-0,476280803706916;1,02306878727343;1,22831345250053;
0,691347897624164;-1,02020658689484;1,19717163674679;-0,410210054697949;1,25163384576786;-1,03418785166671;1,05192920250544;-0,180638039101767;0,574112442553595;1,11999618352857;0,117511322394416;-1,10251476677265;-0,23049325950393;-0,424639641188852;-1,27125162668602;-0,561770732410204;
0,25877244089738;-0,400159786138595;0,340813906572389;-0,745535493955695;-0,447615228338553;-0,0989077725629821;-1,45275860035674;-0,662330105534794;0,452022688639411;-0,2184610776434;1,60087607313314;-0,527694216649087;-0,413998896839255;0,848731421968133;-0,689093439563179;-0,163993597870224;
-0,1294678020732;0,224214849759117;0,157567085878924;-0,35343617010719;-0,12193259024565;-1,19729738817892;-0,105366359608775;-1,06601729361593;-1,8808899363581;1,8208067754608;-0,236560887127678;1,05992821715365;-1,85314970564627;0,806651087110468;2,58547208751363;1,33282122463464;
1,28375798113925;1,41418349436049;-1,39550949469867;0,515003247025052;1,54875637054054;-0,265483499801884;0,678271784738747;0,278237667675609;1,14129174866207;0,235788404888708;0,926076316961684;0,392647097333387;1,23600523588556;0,522400719779885;-0,633020358720693;0,899514816431395;
0,829759626564402;-0,916839304061776;1,52620925771563;0,733205145163743;-0,313393407088564;-0,0673714731564918;0,0266001181921554;0,245126855771515;0,67040438800822;-0,329368195527399;0,0924799982568403;-1,13812013950655;1,18977647092019;0,391186450458796;-0,336263244993166;-0,443846983422656;
0,167943835493691;2,2158762038725;1,00108266107808;-0,985321683069107;-0,247279340208421;-2,03106013120003;0,0194247667366188;0,211084909514766;-0,711367390418969;-0,27301012063463;-0,30251456159791;0,832361471448077;-0,335433524191453;-0,510777511814007;0,874759261679684;1,12607786113987;
0,630569187076171;0,475972473955573;0,361666364829904;-0,840196255289146;0,10318239847619;0,506913467063685;-0,331876922256825;0,102301468088402;1,22018791177954;0,542961523628957;-0,0262055411541308;-0,642777460736105;-0,848388157344591;-0,668857412406533;0,501876377012836;-0,969252840539592;
-1,30710584308349;-0,807846574721788;-1,61042944673752;0,737879274806458;-1,5955859710552;-1,24771438367977;1,66304901528262;0,447384042645539;-1,20910874485302;1,11678209327848;0,0802218178045779;1,86801131717418;0,463257147161272;1,09993493338197;-0,0250664766044759;-0,589167186958808;
0,429354500100629;0,487252846788728;-0,22849091099323;-1,39878643620955;-0,0720152559359737;0,323041842418333;0,242760369829439;0,764398912510276;1,57137853756292;1,13790346060688;0,290557411632435;-0,578104855109688;0,164540177731608;0,429910632566443;2,04391939901246;1,27119215324649;
-1,78428302868182;1,84909060370154;0,945779624526031;-0,397141667485484;-1,3095931980333;-0,103728121748075;-0,801402326987648;-0,38669652187791;0,984625504033292;-2,52029839543509;-0,468442176272294;-1,35347720829849;-0,956322015386829;0,812609808449425;1,47787911662997;0,0325288800227813;
-0,139224181151167;-0,517638766224887;0,174825150352512;-0,375105743099197;0,785889041279807;-0,276639981335508;-0,882655599377746;0,728830613336612;-1,48970254362062;-0,42404898302063;-1,51500452072234;1,11813079599792;0,310079046467242;-0,66698810089832;0,250675036120719;0,526158656921797;
-0,109554958324707;0,929865957479661;-1,25695340511409;0,621042677961059;1,05207380021726;-0,301516703662979;3,34174875733738;-2,37465629434596;0,916402302390551;-0,99732152064838;-0,66487421781431;-1,76927924809018;0,814319372708264;0,0546740210919427;0,824021416791596;0,0802476240283829;
-0,490442744925447;-0,246824059095704;1,15625594952897;0,452620852424053;1,48696818163933;0,832141582545839;-0,567948050137448;1,46393528106748;-0,514672063972434;-2,23043940691114;1,21188766875363;1,2574906699718;-0,62408575864692;2,68034132248307;1,13289621063563;0,829310712314945;
0,251324070379663;0,775240142176459;0,232406826774933;-0,0298829452889472;-1,15084066793593;0,673650185920503;0,531830151702456;0,286749930119623;0,789767090379079;-2,21240801459117;1,88155754764635;0,590567635406259;-0,217515097081436;-0,182488144526132;-1,40550929651643;-0,0611340700056305;
-0,0229269072498307;0,208438268648737;-0,594383012331354;-0,159231981475305;-0,244706150893262;1,86391200162536;-0,602088880020473;-1,67450368488033;-0,535033274042313;1,01768479088647;-2,09538053879323;-0,0973119463055546;-2,32023604580623;-1,76825848793841;0,0873334597026213;-0,915801093451619;
-0,629997648468659;-0,689042726601626;-0,557151175106272;-0,556008743089106;1,27620089054538;-1,08316985752857;1,71700269556815;0,353113405264578;0,461578405272248;0,149802512579639;-1,67269925417247;0,622412803201223;0,0351882003485521;-1,43141005519759;0,525108217805159;1,26729562530095;
1,98197727827839;-1,03800455097639;-0,982587626131736;0,893101356720728;-0,550997167356417;-0,279947039770039;1,45169433774841;-0,232969665476273;-0,547145224612518;-0,848377954595186;-0,626371144648474;-0,228439840947533;0,33495084372163;1,35277605523714;0,211821760598992;2,03176694420079;
0,0274793202652578;-1,10103783372706;0,373890265293472;-0,378179819966142;-0,391398606095919;0,0903711605194;-0,132015386450185;0,135649933683909;1,39797680726443;-0,100633820782175;-0,669210242561217;1,87486657885049;-0,182327692041018;0,20383251990324;-0,498414149968725;-0,1240886590181;
-0,954197853748485;2,87281789801922;0,328052715743403;-1,60698340753784;-0,172402263592249;-1,5556518429092;1,60084864845375;-0,0188625296614752;-2,02705470155436;-0,266509215743019;1,8763713469636;0,997040068251764;0,416267391809353;1,25125700273557;0,287980494753455;-0,21307986551923;
-0,7336679428665;0,439111527982044;-0,46569011617039;0,406016885884349;1,96758837019392;-0,159684639317365;0,65349987420479;0,421200882910111;-0,210580188590346;-0,905523142254691;0,685372034240543;0,278662672825302;-2,10496237955144;0,41860645765603;0,44063868351817;0,16121371541524;
0,0868674111440906;1,22171558003359;-1,31309193607888;0,873517219898377;-1,09203344441907;-0,599698176592086;-1,05738963346248;0,0816606637555834;-0,397172783106182;0,811032974238055;0,722043061946358;0,927830721560839;0,495595539281576;1,54584849588771;0,404004105406574;-0,208762951372826;
-0,0902346623513139;-0,462782235938293;-0,146080060738699;-0,25902706850807;-0,480023322044505;-0,906939145406975;-0,96728588100643;1,47295229976682;-0,239179267368321;-1,83706722931762;-0,127119020631262;-1,24287467284959;-1,48433529571077;-1,02555846362385;-0,429886634633041;1,87497904565023;
-0,896023272855336;-1,17501366789174;0,416965614234618;-0,969183439394861;-2,91546967630238;0,952657284508775;0,896837640818654;2,52416144474321;-0,00296310162848183;1,17740568514888;2,39639102197616;0,126650278509698;-1,11638555120367;-0,392568896973016;0,44248579397828;-0,639009943366343;
0,254843288664097;-1,43831539837405;-0,85049782429376;-2,63868334494947;0,475162634713585;-0,450716970462446;-1,35201908604083;-0,494653575358837;-0,166245007169009;0,0411744352614046;-0,993365945064665;1,61891068220954;1,38635939403954;1,35962734326434;-0,863938791651862;-0,194813018345524;
1,16951653966421;-0,222755641877215;0,749004520653179;-0,142301777008741;-0,170264642309258;-0,574725580259191;-0,712451622166582;0,375108079962138;-1,02603808824872;0,480793667918137;-0,994490083023603;-1,05760844833588;-1,61029225877029;1,58784552102817;-1,62637371852215;1,18990859190435;
-0,687054238462889;-0,767541834689467;-0,0187655994894143;0,923677895771899;1,56051997322195;-0,375918382771392;1,68313477455054;-0,547453304816157;-0,224830499345534;-0,507273052418087;0,653260879586938;0,274569661184925;-0,0667645445582015;-0,0776895287405211;0,389599869946244;1,60245282052702;
0,538395951724287;-0,484947486352036;-1,38399200096052;-0,748680364568798;-0,0736300080001073;1,73106113672393;0,754857497325123;-0,0949137609092764;-0,11841214293583;0,774787416567527;0,0484747988185576;1,00647318700189;0,450929272882109;0,474319362724962;0,484088663180045;-2,00413645263889;
0,357001808310767;-0,945986029113129;0,551724439517857;-0,742476041608424;-0,332586348593188;0,448946912147598;-0,19448614497885;-1,12185563902866;-1,68217833744025;-0,565807206849183;-0,15536123993961;-1,25048041042154;2,34115286383302;0,540898936029966;0,00493036608692244;-1,62433700048774;
1,17430164961835;0,687163733181967;-0,545340365936206;-1,30477454059761;0,20167078814776;-0,296583411067566;0,893975003508704;-0,57628672768901;0,285703229314723;1,46171924353545;-0,184685303588767;-0,578101862457934;-0,249842028408372;-0,205217524273791;-0,0451495652287071;-0,830282200112819;
-0,151721585796275;0,112630157716043;0,257345634994558;0,515046299791438;-0,0782950473838205;-0,764206794303804;0,973511957434205;-1,83742964865649;-0,477736385845658;-1,98767613758846;0,00949861920855776;-0,290689170745625;1,68435977679469;0,0706497725320609;-1,1736926103528;0,853555053349968;
-0,500266347334364;-1,95448739631127;-0,836717041672959;-0,585265781244036;-1,0983236020307;-0,306503104968402;0,449807146632397;-0,513628967156574;-0,224091363486267;0,905502139423535;-0,344353170063735;-0,721163458139494;-0,810501944332952;0,390532141492289;-0,358036633326216;-0,289926548528232;
1,11066583161869;0,82272922946957;0,308698447152868;-1,45044583726671;1,73814314537018;1,83414588297052;-1,2059389781596;-1,44270584400809;-0,0482491337242195;1,09886754187852;1,06446020252972;0,0823351659699137;1,65960190930074;-0,342536777376718;2,26650936435861;-0,107400771944323;
-0,502036382532761;0,174882080199465;1,90984624413545;1,13491807229041;0,171771425972134;1,5005961149876;0,139570322026637;-1,14645464569676;-0,595408608308401;0,551994324110291;0,770505046442943;1,13207815627398;-1,16824911149196;-0,494725141222742;1,14824813518312;-0,906313601745531;
0,362835686081058;-0,381309561836194;-0,7821796187566;0,313882226514874;1,84895988969132;0,506875596604525;-0,1516711109154;-0,831393476918228;0,322953316422149;0,940985654277239;-0,241139834294742;1,18870330839147;-0,110658636766064;0,138647879261487;0,122213451870778;-0,665827939241978;
0,143213747258771;1,94908414300983;0,255781787399802;-1,0766398484241;0,502196064629312;1,26275289031545;0,396420433914954;-0,530343602321999;0,581100149088332;2,8087314350317;0,225659739321984;-0,123214704681924;0,623712589534693;-0,443143761022335;0,534924661347232;-1,19619916842756;
-0,96466800426583;0,623576329114127;0,72280561123746;0,0748196940496363;-0,0767865280147046;-0,211180277064143;1,37255489613477;-0,981290606176052;0,192039629999401;-0,242018204125607;-0,497000981001468;0,175292134734123;-0,0535295382943424;1,88820752974891;-0,683531480476104;-1,70462839397752;
0,358055875119647;0,640810577616457;-1,49041987130287;-0,964380654195642;-0,125829197291446;1,52261372109482;1,08924180971224;-0,340109706611425;0,319946357526838;-0,306101738045122;-1,01343944460807;-0,30013751775501;-0,816014231907414;-0,109004463403965;-1,27933101725629;0,496029756522583;
1,46840253371817;-1,20752550848805;0,177232835818955;-0,889218552085877;-0,877790464101622;-1,57843577618372;-1,42523696628312;0,351381687058996;1,613520651174;-0,459383830114955;-0,512378373703436;-0,813858579742607;-2,66758334516093;0,462857019520026;-0,275634730000402;-0,173678887114087;
-0,644665392555448;0,585590867888532;0,121804002251189;0,833949113496711;0,201091070408291;0,535437023942556;-0,360400201004706;-0,383338830134599;-0,522075860346921;0,311687214016787;1,12768830945857;-0,954477994331488;-0,231951799576663;-0,272956538054925;0,440699376251421;-1,15098031945694;
-1,17977922727425;0,272471302699153;-0,332412619806728;-1,42082001229939;-0,164963647476883;-0,367729537953374;1,08258484755541;0,219404159885251;0,644851481534116;0,942084731954926;0,437924441689889;1,91229673080074;1,24076472930678;0,322040221000829;0,0823311874911061;-0,847416640308559;
2,15934245503113;1,4314232328385;1,0121871014941;2,84439948054125;-0,793669110669615;-0,464262022126239;-0,678018459634929;1,37034538306751;0,266451194506407;-0,350692383082244;-1,20039047866865;-1,39326661013633;-0,962966165970802;-1,66595278929245;-0,181276960179659;1,53384245460299;
0,818052515497633;0,684981211747347;-0,237982393720874;-1,77307050965825;0,550548881667316;-0,133285230348915;0,488354363463989;2,32261318694962;0,281613025334322;0,338417804408665;-0,933580980981788;1,85477007876075;1,97875422391084;-0,757561737067645;0,390529070932689;0,464772768847395;
-0,183864906797429;0,0999312389418337;-1,46199738303512;-0,860666071454803;-0,228035625606554;0,0240576402899519;0,167559426329937;0,478112480093125;-0,490011697058309;-0,390160073221187;1,98162287204914;-0,281848568413112;0,613435847300445;-1,26689991572325;1,1407149914804;0,183975410198702;
1,12012346477521;0,902382247708977;-0,0482298157815108;1,47994382099164;-0,169971669905651;-0,738217061830407;0,955102951232956;-0,278257414372388;0,683795320688316;0,115381379860694;-0,758928242782865;0,33320207138977;-0,458672989072704;-0,498808817783471;-1,10983883790974;0,282297787824729;
-0,0731364154371085;-0,317965016342212;-0,691496154893106;-1,04109231303358;-0,653056271651835;0,820052267018731;0,308800879337183;0,0216343343147322;1,66509383439664;-1,86211578051009;-0,349697594876487;-0,353505700917512;-2,1315214327035;-0,402859987660293;1,99708375155713;1,0237724783137;
-0,917002335106647;-0,595010693274162;-1,24788932375686;-1,80492598292438;0,327904458953973;-1,18195294780741;0,368456622906246;0,387552419021785;-0,851754159821736;0,974966138323199;-0,602131570310555;0,279087184035833;2,14692749948615;-0,492096841332072;-0,0931917007381483;-0,21378207842152;
0,560173578587508;-0,0553764935923473;-1,31453336756168;-0,118390939019715;1,45357327872281;0,0687664401549873;0,806870779082963;-0,709767809400588;-0,186979696748724;2,28941241799902;0,76248861643303;0,902576328228;-1,55890942769589;1,025278961877;2,03838128005068;-0,4235357047329;
-1,18253038960087;0,251084299953462;-0,3321983154034;-0,582212420123518;0,969155334642089;2,06115721851302;0,188550033394945;-1,50467032367524;-1,23774770669837;0,138423920604432;0,329737132962049;-0,452438496866137;-0,532810274115002;-0,481812544191076;0,968523332584595;-1,04753811506431;
0,814784247599789;0,024687740631714;0,643671249534547;-0,209169384130275;0,685024711527523;-0,911660929673084;0,941565711900946;-0,112174040784955;-1,45698864819036;0,409977456316391;-0,494578122578103;0,140670668708402;-0,507578303599732;-0,252633637307046;0,963738777419669;-1,00058965502504;
0,845363950589768;-0,775603834628153;2,17102027567201;0,259471761076121;0,304697781006821;-0,452957780578752;1,30367837790419;0,481226375493651;-0,94396384355251;0,619382994106449;-0,0263538122036514;-0,291142718466639;-0,8782191543883;1,49836278807491;0,519209755287121;-0,433184826153396;
0,62245411091163;-0,0341072036021137;-0,441680002484022;0,0210684891942515;-0,212953841275666;1,511939702678;0,169150962816302;0,0762069083972088;2,32324368742316;1,48933383041819;0,622118784977273;-1,71663697600547;-0,896103741400596;0,799255037895345;-2,19988712067777;0,00584470947027196;
-1,02171801231792;0,563027103569863;-0,675197315244283;-0,735549746300157;0,0270075511862468;0,461962994618701;0,769766071384438;-0,163034639225287;-1,82295102864806;1,44438970539854;-0,592858564684392;-2,1901443810682;2,64370600400683;-0,596469951241357;-0,305237670509864;0,0970201711289245;
0,308145174254505;0,717775783128343;-0,581473942726344;0,588774114050898;-0,519830861579316;1,29002102012324;0,787367509925443;2,36234615349292;-0,597343921856072;0,206096636469786;0,852469809029844;0,670167390332927;0,208427709586956;1,86799891768764;-1,56300301941516;0,776921821141637;
-0,190699508093866;1,52673663062936;-0,745588062892477;-0,953809031914292;-0,622317471477021;0,475862526247211;-0,392395943149818;-1,26688416736616;-0,114441640262629;1,23570384884023;-0,433339412711568;-1,39307793096443;-1,7725082505354;-0,638437794644316;-1,17833717896189;-1,68111024339677;
-0,172299982469;0,0404895587252572;-0,0832755342787544;-1,72116241809915;0,576898093795214;0,311725297721316;-0,623017952650006;-0,223072149058798;0,484173038496744;1,82776400450236;-0,67520741630249;-0,564938104350768;0,921775970160558;-0,456592901270946;-0,520889511109584;0,190218120830342;
1,2068319209377;-0,412835678175011;1,2426938215858;0,075421103489522;0,472409405137516;0,804122308830341;0,119882086244737;1,35259230063566;0,711644626849256;0,879253335956923;-0,51718506818073;2,27010878521397;-1,04435369090667;-0,283896978629667;-0,593029126719416;0,789818112635954;
-0,932242448132573;0,799654826156128;0,755327158973914;-1,07131039636135;-1,36187916306406;1,2335144096023;0,775061780804532;-0,265727070896006;0,372276840284968;0,385493107057442;-0,226263749948103;-0,117646063474076;1,91943523019569;-2,12555803285889;1,37417472550988;2,35709353040006;
1,27902537515864;1,29165276373008;0,840144433267671;0,687732164706644;-0,238004480195902;-0,485690580238328;-1,1368027417212;1,27178618669832;-0,192432130950926;0,642585409316761;-0,715125415947369;1,35342758150148;1,17631426353635;2,75080794125085;-1,07011725286674;0,435598560606427;
0,562942858581845;-1,88989767046884;-0,0798623880904687;-1,60541070754344;0,41735878417286;-0,0461767263948744;-2,29150195697843;0,0638881842064375;-1,37705542913022;0,26030626765449;-0,54530205340523;0,239943104695657;-1,65545771056108;-0,889684923884373;1,17342567703;-1,66203241557448;
-1,00321372979933;0,955304752669222;0,930590621626453;1,16410807684888;-0,663063384221072;2,1092017749505;1,59249979775466;0,455665892357736;-1,54784246684086;-1,90719086333034;0,040209284803625;0,136125360808498;-0,863822125788995;1,05153270523116;-0,853513908496067;-0,306002444813616;
-1,29314410442275;1,25386072324567;-0,568130168618834;-0,127320753619085;-1,88842510370963;0,538923453803036;1,02709250046536;0,95528339539266;-1,20835995895998;-0,557923032529717;1,41692136158736;-0,0692404005460444;0,908971424813932;-0,0923142508936886;0,924306738810639;0,318249311397247;
1,59300618575419;0,381305275153553;0,667865159014842;-0,0408795853668108;0,417921006688442;1,07744929672819;1,18101863152236;0,969280050614413;0,568372883698194;0,267679553657554;0,626999101668337;0,493938876548968;-0,418737426480802;0,749165489663731;-0,758826496444825;-0,797767191818352;
0,388300678851121;0,865540014890766;0,114630630499396;1,29772447169989;-0,0849514063097749;0,538416609256037;-0,656691285916224;1,56748592909691;0,122859183961508;0,829278239519168;-0,161948570776511;0,312675396414738;-1,25268844312207;-0,999418648899871;-0,799481338423699;0,394844928397545;
-0,412561332719403;0,168954958301665;-0,108850045074719;2,57820298138926;-1,80719451856367;0,75342465530376;-0,669900230694093;0,229259463822461;0,648351296140157;0,959553766692635;1,42812838595445;1,16161731383027;-0,0428900633666512;-0,745205001484591;-0,932571453619185;0,730617353912578;
-1,14509347625535;1,46303475286381;0,813622674987788;-1,7526486466728;0,611572465559569;-1,71994342606276;-0,0304867096103902;-0,676841204836846;-0,408569488230507;2,54281943303788;-0,0151331547454838;-3,0846680479735;1,57372769606516;0,7017658583028;0,0115180855284246;0,382087361402538;
0,563646284134376;-0,385082696139483;0,951562369850189;-0,815780254924781;-1,19537970406367;-0,542129764777051;-0,38612796621646;1,37707587539318;1,26128956248142;-1,73069509226608;-0,57559671084708;-1,43236582805368;-0,417775519229018;2,21106460908337;0,33375104946057;-0,229342148597971;
-0,982097660970057;-0,29367665057681;-0,801145884044369;0,669088637495525;0,458271422092312;1,17375969807136;0,725630015730357;0,336906847689201;0,378510143011512;-0,51883446512662;-0,304610493367262;0,718148086368818;0,0717768106486873;-1,98145089443829;0,471172015662228;0,616856747819161;
-1,38826137849243;1,48071018547917;-0,446889362326937;1,17238408761306;-0,844327873922227;0,0425806716725688;1,04515590776366;0,166215935848073;-0,589205820962673;-0,0785706576537146;-0,79177578156263;-0,800476462686751;-2,51701285877247;-0,796323824446193;-0,534556311549149;0,790353128901504;
-0,161669042741701;-0,355673466293019;-1,48861836928325;0,889214406588195;0,258370204044754;-1,65713572006017;0,0414055538366112;-0,794469217395951;-1,20218633628785;0,217650145753287;1,92217618344361;0,507085088720946;0,304481476485757;0,553326324874086;0,0774495182942364;-1,08286845755966;
-0,851014225025225;-0,498247283342212;1,38064743432841;1,69571116672673;0,12932175154883;-0,491942627524114;-0,8208327772686;-0,319179866577683;-2,11278270550488;-0,364326793700838;-0,0627192861531751;-1,4399616161695;-1,94894432935275;-1,21523784428199;-0,740643795147064;-1,12204657349973;
0,0494153835475866;0,860687975909667;1,4893479460577;0,657243803951352;-0,434771794764519;-0,176849749993932;1,10886347349809;-0,920438104411833;-0,115489450292821;-0,0455309978105137;-0,230676647077036;0,506152213166939;-0,852573106304751;-0,608583634749904;0,816369931103261;0,934412013278055;
0,697090407533327;0,680177187651497;1,68504211491878;-1,15510239062419;0,493312892921374;0,478793977291171;0,929655218718505;-0,545419042280672;-1,78302341840925;0,0789364827069218;0,844483480278902;0,758103766273198;0,871949459309342;-1,31300186553919;-0,265349497598071;-1,02587638857529;
0,383028324111319;1,71644299158489;1,28456438132019;-0,146930538311862;1,77089472553954;0,0547180353093406;-1,02703074953812;-0,164970294347626;0,0998353013667143;-0,736497174215857;0,655664730831568;0,285345011390744;0,244201072056612;0,265518899134119;-1,75827660127761;0,858951987871084;
0,668454960250788;-0,216457153355089;0,618936787570704;-0,826597161199828;0,338036408019946;0,266129787329262;0,781987206554226;-0,63542705550797;0,83533140807227;1,62331899302724;0,13234060064447;-0,668155798289279;-1,58469742536721;-0,433950330682769;0,527718947463727;0,903081907253903;
2,19102319889307;0,497543329010242;1,85630252321553;0,568556568209684;-0,132449757035573;-1,09397336446277;0,851099377859611;0,750291582507164;-0,861758303759454;0,559624221447149;-0,677791547172411;-0,209360132143687;-2,33416067951333;1,2227763025242;-1,08737408628165;-0,225547650357461;
-0,0311169657103772;-0,310809025816311;-0,701119411197099;0,909722214180246;-0,317205729355498;-0,205797688481588;-0,211403032658251;-0,669780512187315;1,96601613912169;-0,846166134527023;0,670605287575702;0,400500228883867;-1,19023964932432;0,0204154985996725;0,0591452988811996;0,4215828885359;
-0,437688106829842;0,188141186842386;2,44488706638067;-0,487365419530673;1,58559414012951;-0,143863139069131;-0,500295510378259;0,275130988338755;1,17829700328779;0,26216221553589;1,36176123248454;-0,754309724681163;0,8899552421632;-0,830086664307521;0,767060103938734;-1,45333116915666;
0,290629036569154;0,660282181213067;0,167080756954629;-0,342442966999891;0,56774167114534;0,272316033558404;1,06118778346579;0,747414379490972;-0,484013067631347;-2,03744382068774;-1,28676798050115;0,425081183627236;-1,35415943053619;-1,07170868747228;-0,241641004438587;-1,4085463184996;
0,33360174841355;-0,578103847666976;1,44212231910285;0,195009607798694;0,411290727537678;0,685232342560741;-1,25028089141221;1,11715340565466;-0,748257537001053;0,810272082338911;-1,55324295075419;0,833208734361821;1,26602540816248;2,58221562778229;0,114760450732556;0,352161413082698;
-0,98339178007534;0,952764033069281;-0,0563720396415759;-0,0132251533835854;-0,343636264608089;-1,86668144298547;-0,783628815850566;-0,503006489284184;1,66122967402343;0,78525309211206;0,000647598599580237;0,912447435572196;1,30646105175508;-0,348653168312775;1,68237330218884;1,3081279013673;
0,129702033722244;-0,0875161636987762;1,19325229916757;-1,03711208686671;-0,553178851133947;1,94473544248728;-0,433721204824494;1,11681986457481;0,410147842446263;-2,08416238349799;-0,500526863094644;1,22065997665567;0,586438116117669;-0,0276020117158389;0,506914604080747;-0,481499497353229;
-0,505213012494692;-1,47770747424363;0,420723171146749;0,0835901109483786;-0,391312704396645;1,6767903160626;0,496070751604901;0,243480703681732;0,552091479610809;-1,55454900069254;1,87917665142623;-0,877186219100745;-0,710956341657326;1,72213460231106;-1,80104241554217;-2,11719791956693;
0,483332342491729;-1,23654996292718;-0,620347629112996;0,116509590568666;1,12568258046911;0,270952588061259;0,0530712449396905;0,588248365313527;-0,511098067144622;0,518219609528067;0,0693219827462635;-0,17381099453806;-0,388559445303722;0,286633836857416;-0,0492289215675716;-0,0275747540790008;
0,112222182648912;-1,05053343438273;-0,111353935623203;-0,262357524621941;-0,706536584326984;-0,114382833707131;1,05866384371107;-2,4623932162672;0,858672792816519;-0,0289040262332635;-2,58344854670245;-0,180470739954713;-0,844769074963328;0,930816699576643;0,279436180868473;1,15351420270189;
-0,311579277846081;0,585026560897014;-0,651299172418917;1,57525854449368;-0,515363331665462;-0,0541438748311048;-1,24487009999926;-1,75717393498273;0,936795562446733;-0,89683543599234;0,303192128605801;-0,286885415031847;0,0725012011028515;-0,285655431993967;0,0229944545550369;0,0269332515336932;
-0,0281354956408257;1,94612966475415;1,95832867766408;-0,473132342558082;-1,31500739099629;0,54578141492759;0,727039297275607;-1,59239247856413;0,159850667062221;0,057485958227846;-1,00815810904756;0,858492037576069;1,8318025191628;-0,334355330177818;-0,818996637658595;0,251816767898441;
0,606399440724016;0,394718153871806;0,862629920820527;0,993517654448796;-1,5675276195028;-0,653025833509035;1,06563414111635;0,728772555497203;0,30939371846967;-0,277340144393304;-0,131937502343075;1,38791106885315;-0,0656051700185403;-0,144575950072708;-0,929585277586074;0,180508704485838;
-0,440532130569331;-0,612345981156643;0,441733878441914;-0,65083603055273;0,324804349463052;0,657999282327818;-0,624212248278236;-0,679638888306626;-0,0376650372546287;-0,515202280737709;0,200643206289236;0,185434043038472;-0,196409609060663;0,980176558439917;-1,14492042858724;-0,495095831653972;
1,03242812014109;-0,362244472667527;0,652885329401441;1,24292390046019;0,617447991654194;-0,147999297581018;-0,63303299059297;1,13773630476802;1,24827238644251;0,0522098444771299;1,60866268006562;-0,998525841420483;1,28974849582383;-0,139835343235086;-0,136178939484549;1,1556100451709;
-0,454635128388922;-0,0976056502065354;0,0642127340723715;1,09508314233019;0,488030174258158;-0,2627101696172;-1,69132484780427;-0,0562981266293336;-1,09527273926752;1,79498281586055;-1,47014941497195;1,21714325864245;0,453025542325939;1,48976808741164;1,01171301970792;0,571543101193792;
-0,557739235952095;1,95169953844107;-0,0300016915888091;1,30635707390829;-0,0183230007129738;0,554636299890909;-1,16775680763152;-0,824413263288869;-0,856713046336359;1,04102397514978;0,675359623445764;-0,0771552587159058;-0,317310568887878;-0,675586054533341;-0,301620250608793;-2,06026574838201;
-0,438008555917791;-1,04265439015406;0,00508396533011974;0,856059157379301;-0,303069752558324;1,29613355820828;0,244999774995449;1,99308908594642;-0,663046958249318;0,357329341947818;-0,358590874310438;1,57149462219874;-0,212918555361399;1,20076196605552;-1,69016401507906;-0,394167501919308;
0,306077518416438;0,182813829279306;-0,433938255362585;1,17175139476354;0,326872168146228;-0,425391847063352;-0,570843664566268;0,363790463342425;-1,06127382458939;1,52939684489097;-1,78271358881527;-0,0712778028612999;0,386681235662965;1,61523604759528;-0,720658192926798;-1,62540381696537;
0,357242530439361;-1,05092375695145;-0,10860668368429;-0,166318947709092;-0,979480663241132;-1,00840272340801;2,45874381654311;-0,723013253337921;-0,137359638926094;0,00668380891886465;1,22431156580772;0,63012418168049;0,957745576436856;0,497495324971376;-0,246833030955789;1,01572734502677;
0,489799474610052;1,06919242917818;-1,48322803955868;0,0571647402613835;-0,465502194364706;0,240885524378096;1,48840285300217;0,219483426906651;0,823366399842691;-0,201222453028092;-0,830684000333272;1,60841247835726;0,893612906894144;0,794871011744498;-0,590570667318776;-0,887514724145191;
1,48880071463505;-0,245709961095447;1,35753895023113;0,411592158080776;-0,57712679161005;-0,942377872806221;0,775294654515872;1,05516833541763;-1,14864512784702;-0,958281561920685;0,38135340851037;0,432641433728156;0,309544952057458;0,212257829919444;-0,155005067554742;1,42288332933179;
-1,44223974735946;-1,43722569255677;1,24757520181619;0,216943867200085;0,966062760907402;-0,469871168885994;0,28597813295038;0,9124330555189;-0,841903236509216;-0,0896065834490326;-0,127236770312355;0,78862472421786;-0,358477026209057;-0,0315927278704617;-0,627107691750711;-0,340426211631567;
0,875979151479601;-0,724609433500204;0,202109264991944;0,417490843050525;0,852774801327527;0,021164177458275;-1,7829571174759;0,238458174282276;0,844801010011683;-0,264286521047924;1,36179595209954;1,49658548291365;0,497551175753159;0,467784381250156;1,59005552411146;-0,652735935796789;
1,64072874926796;-1,54751180607431;-0,772427017411275;-1,22876097461559;-0,400176368231988;-1,11589222016426;-0,168683971359028;0,408009092036681;-0,116208473151333;0,331437644647428;0,743646294881918;0,834766865808028;-0,606435197012746;-0,362325567143205;-0,753179253076858;1,01602586093151;
2,30652913735939;-0,481826318534973;0,928735326986675;-0,833535663938584;0,055570915351746;-0,0384745949457963;0,0703618836373996;0,86809349407461;-1,27714564372411;-0,540324191301012;0,23442509006275;-0,744790898960238;0,662197423129212;0,765528613482165;-0,581436525907044;0,62807172758933;
0,0447842320680718;0,64734247943552;-0,859913598044739;-0,733811713631239;-0,240291879447186;-2,0057676955353;0,369995212613484;-1,4698456441555;-0,123313004429;-1,63194937502085;-1,10238916549401;0,0688343731003217;2,28318157580909;1,45534259881818;0,24156437907948;0,166947865840338;
-0,769145539788943;-0,283755819284347;0,91035850748391;-0,442094523402187;0,161593492653744;0,694925173151365;-0,0738648768150537;-0,845164649930087;0,105489096881617;1,70901565442195;-1,07599553380162;-0,661628363809988;-1,47226635359891;-0,334877366827494;0,697835383931054;0,456221925154073;
-0,968707073934035;-0,0567795452014639;0,359661058945937;-0,165428198876633;-1,09772956908205;-0,909302683727007;-0,0533120688371113;0,799637953900334;-0,515555868765269;1,16625475918173;-1,65193073523235;-0,0177441164260747;2,09315425505633;-0,623051494596251;0,121927942748832;-0,421885951638285;
2,17107353684397;1,10936595590738;-0,493676247628737;-0,816015942264305;-0,304699334526212;-0,778019213623822;0,166323487529543;-0,676171119369885;-0,670910823721716;-0,223064825891477;1,09190062638092;-1,21945636806536;-0,00424124954239482;-0,511023369611862;0,662669073257597;0,381068501049863;
-0,176286741886434;-0,80553078556651;-2,5748428917898;-0,348932821742274;-0,134391788686645;-1,5910423162322;0,0355268861416289;0,0255001556071033;-0,844045052255718;1,59156384847835;-0,170476588298584;0,0463523970146983;-0,0439789338271164;-0,966951261712646;1,01390816257945;-0,184827888129778;
0,626390613619189;0,149329089437254;0,151247858531602;-0,286071459853268;0,240530730362949;0,669158073386826;0,0779884909061574;-0,326286619909581;-0,366060609315916;-2,48298880588856;-0,124004446108143;-0,783235149995746;-1,50639845204161;0,467218450382643;1,09017344265518;-1,03236951074683;
1,47324583619313;-0,348127625991266;-1,25260828563915;-0,191730497652453;2,08992682333435;-1,69481539859267;0,494466890604274;-0,18383138653186;0,543670988967901;-0,86249660073862;-0,847760159536522;2,73909178307447;0,227777040907903;-0,368976722279521;1,12624787141712;-1,34367587475498;
0,774225561686968;-0,148493885808432;1,02488720051809;0,523872454053042;0,0724144851258582;-1,01931055193048;-1,26961233394317;1,46874756820186;1,17888506121888;0,872205796249146;-0,777659360357129;-0,816910120110475;-1,59058135915163;0,192512877515754;1,63505212228305;-1,46899608284239;
0,180444221396353;-0,265388974625383;-2,17254886728515;-0,0871897443249684;0,380289469391162;-1,61516663636716;0,226013672609964;0,174301682488862;-2,30992648638183;-0,408807377439242;0,716800871099572;0,952609954502213;0,755058990996131;-1,46496045677036;-1,39664270622404;-2,23586931137258;
-1,21017084100676;-0,101358937290038;0,461974093305242;-2,93518938306836;0,692606413971496;1,02994080761025;0,548851890038971;0,0555270302599905;-0,387059620429862;0,0346498699898009;2,10971758488985;-0,214122795947981;-0,867235618858908;-1,77322655640465;0,928694997402926;-1,31348047860621;
0,701630020256092;0,677604130596746;-1,2590514866658;-1,73705704373957;0,815248279434372;-0,817802452223284;-0,931640394208484;0,641684655662795;0,984836457388829;-0,17720591396763;-0,514922278941024;-0,829306794728041;0,301115271016776;-0,239303345702795;1,58812234045721;1,27033845670713;
-0,47424079827762;0,618662205116696;-0,849424053446912;0,364821989566438;0,965377503534847;-0,823164383161187;0,901050523415557;-0,0742654086840035;-1,2647844528875;2,24337053776192;-1,20368455316448;-1,81999082876126;-0,351656223672014;-0,315498269174199;1,50063306351911;0,850932939814264;
-0,00221133683645466;-0,381933016128543;0,219792302414806;-0,355127967012959;-0,961790974501844;0,115810838311744;-0,374983731114576;-1,65561690647759;-0,823140904240752;0,230116479434602;1,11628897360138;0,335809732895251;0,0721474283588577;0,532530875104187;-1,10064643642163;0,522139119837839;
0,585221097085011;0,561655489718751;0,656973889415301;0,89132073729781;0,188618241501111;0,563033706487273;-0,87682650020903;-0,0968363256602158;0,238126808718836;0,494770029969963;0,193099254756074;-1,77456696486546;-0,24890153044758;-0,343454018238235;-0,553980337058963;-1,32916757406121;
-1,1018507615755;-0,327553249718635;0,356484171461053;1,74516267274338;1,53624052925295;0,705762665674747;-0,493617308376918;-0,801847397848055;0,929086028217562;0,373867385070024;1,80548983932166;-0,888579443258514;-0,380098873104221;-0,479281446351933;-0,694604383269488;1,37662920788986;
-0,395909158032362;0,742105546011578;1,869837025224;0,260491330913762;1,08934957872283;1,17152130184117;0,112742234417444;-0,0285397297763493;0,0466573630636907;0,294256154811772;2,32262617330753;-0,847745001936435;-0,257949424723275;0,716793461864005;1,2628892421921;-0,449208823041666;
0,34679158739474;-0,121457604738115;-0,179350224839334;-0,69634963909388;1,15793824177515;-0,624288275055395;1,81841836547563;1,70959252822035;-0,65841928720892;0,196238471410263;-0,132100660931853;0,453595974671328;-0,614383573444923;1,66924692174365;-2,42577994971685;-0,050985077296816;
-0,264541225390187;1,08897316548204;-0,488642479461413;0,362760054751298;0,547822533187733;-0,448914306900224;-0,110652665554495;-0,797163616635372;0,619345011254285;-1,01825360018753;1,49563614413928;-0,128016784286854;-0,152817000197395;-1,48082792848099;-0,914722555071506;-0,669221557630269;
-1,23430958149467;-0,314448202209483;-0,447969767817818;-0,892092751740905;-0,185125934980322;-1,02238855058928;0,47360916513541;0,297765308566167;-0,00773022246354751;-0,773825493504506;1,21832726422614;-0,808123316161141;0,0660402156509569;-1,32055661660023;0,21336253545558;1,17175664025922;
1,39099981790651;-0,98877071678481;-0,31880758147738;-0,586926840636424;-0,638804742801947;-0,317431824706747;0,118933033389132;-0,00888969665693043;0,19562597821119;-0,7708367705519;-1,67087942340965;1,19125769867762;1,45257785279372;0,672411228570789;-1,11958314728653;-2,13975662324106;
0,0789929254791293;-1,273095368938;4,01487651946019;0,383585294981856;-0,722207438715771;0,786735568371162;-1,12813750307417;-2,3071261763122;-0,826700089234865;-0,0686758737522529;1,48672218596228;-0,0474252006474611;0,475134352691081;0,107307189048282;0,267788481752099;-0,986892087205989;
0,396580027672818;1,35549830218104;0,442978716705206;-0,782657156737552;-2,49410809078965;0,715161014958521;-0,369318198471341;0,254745539904565;-1,32228083341256;-0,595894837128917;-0,0855069529488639;1,15438537696557;-1,02716386655351;-0,294051580364162;0,160821577670114;0,71570252822356;
0,854424219674007;0,520398848156261;-0,732397763040865;0,198281825334996;1,41655625665199;-0,958506002455352;-0,219211359874024;-0,102851657571325;1,10096421278026;0,373908249857796;-0,662532206452288;2,10076878404974;0,299597698681358;-0,710419527841035;-1,83608872027488;-0,104986531646059;
-0,364868809576682;1,95275597016385;-0,937821509240416;0,855733021541802;0,773733314090063;-0,456141336518067;-2,16532181700074;0,115681584491032;0,0796912643397752;-1,44045303600192;0,985150927474773;-1,08649790948198;1,50883107902349;-0,57761890228459;1,63187822383268;-0,349060027965667;
-0,161056339945931;0,712892260230986;-1,19769251337865;0,230310467844935;-0,884115320356119;0,468252881639086;-0,163340764304423;-1,55609295905658;-0,118561903010287;1,76954904980532;0,324646981328049;0,0657476813319418;1,23569218909512;0,408799338771725;0,869974985148492;1,12300113716473;
-0,345670859620197;0,000555668526916906;-2,14322189283564;0,252496390746341;-0,863063169965538;-0,357348293478825;0,498201178429499;-1,29181985573209;-0,280916113904877;-0,683142885453248;1,62929856330698;0,384684718610598;0,843994293990702;1,65145906577195;0,0924737660783096;2,12051950604008;
0,974832347304175;-0,625518066342843;-1,14813136504612;0,909324846067283;-0,211812951248273;-0,514730391470055;0,709007521525267;0,773956365909693;0,0294356396339568;-1,83028594198496;0,653148114728318;-1,79689238897451;-0,289312847347308;-0,598032743726166;0,13097616274993;0,300517484035922;
